SVM-light Version V6.02
0 # kernel type
3 # kernel parameter -d 
1 # kernel parameter -g 
1 # kernel parameter -s 
1 # kernel parameter -r 
empty# kernel parameter -u 
20 # highest feature index 
104670 # number of training documents 
77318 # number of support vectors plus 1 
0.80016723 # threshold b, each following line is a SV (starting with alpha*y)
-1 14:1 #
-1 18:1 #
-1 4:1 #
1 14:1 #
1 16:1 #
1 10:1 #
-1 16:1 #
1 14:1 #
1 18:1 #
1 4:1 #
-1 10:1 #
1 3:1 #
-1 3:1 #
-1 18:1 #
1 3:1 #
-1 3:1 #
1 3:1 #
-1 3:1 #
1 18:1 #
-1 18:1 #
1 3:1 #
-1 3:1 #
1 18:1 #
-1 18:1 #
1 3:1 #
-1 3:1 #
1 18:1 #
-1 18:1 #
1 3:1 #
-1 3:1 #
1 18:1 #
-1 18:1 #
1 3:1 #
-1 3:1 #
1 18:1 #
-1 18:1 #
1 3:1 #
-1 3:1 #
1 18:1 #
-1 18:1 #
1 3:1 #
-1 3:1 #
1 18:1 #
-1 18:1 #
1 3:1 #
-1 3:1 #
1 18:1 #
-1 18:1 #
1 3:1 #
-1 3:1 #
1 18:1 #
-1 18:1 #
1 3:1 #
-1 3:1 #
1 18:1 #
-1 18:1 #
1 3:1 #
-1 3:1 #
1 18:1 #
-1 18:1 #
1 3:1 #
-1 3:1 #
1 18:1 #
-1 18:1 #
1 3:1 #
-1 3:1 #
1 18:1 #
-1 18:1 #
1 3:1 #
-1 3:1 #
1 18:1 #
-1 18:1 #
1 3:1 #
-1 3:1 #
1 18:1 #
-1 18:1 #
1 3:1 #
-1 3:1 #
1 18:1 #
-1 18:1 #
1 3:1 #
-1 3:1 #
1 18:1 #
-1 18:1 #
1 3:1 #
-1 3:1 #
1 18:1 #
-1 18:1 #
1 3:1 #
-1 3:1 #
1 18:1 #
-1 18:1 #
1 3:1 #
-1 3:1 #
1 18:1 #
-1 18:1 #
1 3:1 #
-1 3:1 #
1 18:1 #
-1 18:1 #
1 3:1 #
-1 3:1 #
1 18:1 #
-1 18:1 #
1 3:1 #
-1 3:1 #
1 18:1 #
-1 18:1 #
1 3:1 #
-1 3:1 #
1 18:1 #
-1 18:1 #
1 3:1 #
-1 3:1 #
1 18:1 #
-1 18:1 #
1 3:1 #
-1 3:1 #
1 18:1 #
-1 18:1 #
1 3:1 #
-1 3:1 #
1 18:1 #
-1 18:1 #
1 3:1 #
-1 3:1 #
1 18:1 #
-1 18:1 #
1 3:1 #
-1 3:1 #
1 18:1 #
-1 18:1 #
1 3:1 #
-1 3:1 #
1 18:1 #
-1 18:1 #
1 3:1 #
-1 3:1 #
1 18:1 #
-1 18:1 #
1 3:1 #
-1 3:1 #
1 18:1 #
-1 18:1 #
1 3:1 #
-1 3:1 #
1 18:1 #
-1 18:1 #
1 3:1 #
-1 3:1 #
1 18:1 #
-1 18:1 #
1 3:1 #
-1 3:1 #
1 18:1 #
-1 18:1 #
1 3:1 #
-1 3:1 #
1 18:1 #
-1 18:1 #
1 3:1 #
-1 3:1 #
1 18:1 #
-1 18:1 #
1 3:1 #
-1 3:1 #
1 18:1 #
-1 18:1 #
1 3:1 #
-1 3:1 #
1 18:1 #
-1 18:1 #
1 3:1 #
-1 3:1 #
1 18:1 #
-1 18:1 #
1 3:1 #
-1 3:1 #
1 18:1 #
-1 18:1 #
1 3:1 #
-1 3:1 #
1 18:1 #
-1 18:1 #
1 3:1 #
-1 3:1 #
1 18:1 #
-1 18:1 #
1 3:1 #
-1 3:1 #
1 18:1 #
-1 18:1 #
1 3:1 #
-1 3:1 #
1 18:1 #
-1 18:1 #
1 3:1 #
-1 3:1 #
1 18:1 #
-1 18:1 #
1 3:1 #
-1 3:1 #
1 18:1 #
-1 3:1 #
-1 18:1 #
1 16:1 #
1 4:1 #
1 2:1 #
1 10:1 #
-1 18:1 #
1 3:1 #
-1 3:1 #
1 18:1 #
-1 18:1 #
1 3:1 #
-1 3:1 #
1 18:1 #
-1 18:1 #
1 3:1 #
-1 3:1 #
1 18:1 #
-1 18:1 #
1 3:1 #
-1 3:1 #
1 18:1 #
-1 18:1 #
1 3:1 #
-1 3:1 #
1 18:1 #
-1 18:1 #
1 3:1 #
-1 3:1 #
1 18:1 #
-1 18:1 #
1 3:1 #
-1 3:1 #
1 18:1 #
-1 18:1 #
1 3:1 #
-1 3:1 #
1 18:1 #
-1 18:1 #
1 3:1 #
-1 3:1 #
1 18:1 #
-1 18:1 #
1 3:1 #
-1 3:1 #
1 18:1 #
-1 18:1 #
1 3:1 #
-1 3:1 #
1 18:1 #
-1 18:1 #
1 3:1 #
-1 3:1 #
1 18:1 #
-1 18:1 #
1 3:1 #
-1 3:1 #
1 18:1 #
-1 18:1 #
1 3:1 #
-1 3:1 #
1 18:1 #
-1 18:1 #
1 3:1 #
-1 3:1 #
1 18:1 #
-1 18:1 #
1 3:1 #
-1 3:1 #
1 18:1 #
-1 18:1 #
1 3:1 #
-1 3:1 #
1 18:1 #
-1 18:1 #
1 3:1 #
-1 3:1 #
1 18:1 #
-1 18:1 #
1 3:1 #
-1 3:1 #
1 18:1 #
-1 18:1 #
1 3:1 #
-1 3:1 #
1 18:1 #
-1 18:1 #
1 3:1 #
-1 3:1 #
1 18:1 #
-1 18:1 #
1 3:1 #
-1 3:1 #
1 18:1 #
-1 18:1 #
1 3:1 #
-1 3:1 #
1 18:1 #
-1 18:1 #
1 3:1 #
-1 3:1 #
1 18:1 #
-1 18:1 #
1 3:1 #
-1 3:1 #
1 18:1 #
-1 18:1 #
1 3:1 #
-1 3:1 #
1 18:1 #
-1 18:1 #
1 3:1 #
-1 3:1 #
1 18:1 #
-1 18:1 #
1 3:1 #
-1 3:1 #
1 18:1 #
-1 18:1 #
1 3:1 #
-1 3:1 #
1 18:1 #
-1 18:1 #
1 3:1 #
-1 3:1 #
1 18:1 #
-1 18:1 #
1 3:1 #
-1 3:1 #
1 18:1 #
-1 18:1 #
1 3:1 #
-1 3:1 #
1 18:1 #
-1 18:1 #
1 3:1 #
-1 3:1 #
1 18:1 #
-1 18:1 #
1 3:1 #
-1 3:1 #
1 18:1 #
-1 18:1 #
1 3:1 #
-1 3:1 #
1 18:1 #
-1 18:1 #
1 3:1 #
-1 3:1 #
1 18:1 #
-1 18:1 #
1 3:1 #
-1 3:1 #
1 18:1 #
-1 18:1 #
1 3:1 #
-1 3:1 #
1 18:1 #
-1 18:1 #
1 3:1 #
-1 3:1 #
1 18:1 #
-1 18:1 #
1 3:1 #
-1 3:1 #
1 18:1 #
-1 18:1 #
1 3:1 #
-1 3:1 #
1 18:1 #
-1 18:1 #
1 3:1 #
-1 3:1 #
1 18:1 #
-1 18:1 #
1 3:1 #
-1 3:1 #
1 18:1 #
-1 18:1 #
1 3:1 #
-1 3:1 #
1 18:1 #
-1 18:1 #
1 3:1 #
-1 3:1 #
1 18:1 #
-1 18:1 #
1 3:1 #
-1 3:1 #
1 18:1 #
-1 18:1 #
1 3:1 #
-1 3:1 #
1 18:1 #
-1 18:1 #
1 3:1 #
-1 3:1 #
1 18:1 #
-1 18:1 #
1 3:1 #
-1 3:1 #
1 18:1 #
-1 18:1 #
1 3:1 #
-1 3:1 #
1 18:1 #
-1 18:1 #
1 3:1 #
-1 3:1 #
1 18:1 #
-1 18:1 #
1 3:1 #
-1 3:1 #
1 18:1 #
-1 18:1 #
1 3:1 #
-1 3:1 #
1 18:1 #
-1 18:1 #
1 3:1 #
-1 3:1 #
1 18:1 #
-1 18:1 #
1 3:1 #
-1 3:1 #
1 18:1 #
-1 18:1 #
1 3:1 #
-1 3:1 #
1 18:1 #
-1 18:1 #
1 3:1 #
-1 3:1 #
1 18:1 #
-1 18:1 #
1 3:1 #
-1 3:1 #
1 18:1 #
-1 18:1 #
1 3:1 #
-1 3:1 #
1 18:1 #
-1 18:1 #
1 3:1 #
-1 3:1 #
1 18:1 #
-1 18:1 #
1 3:1 #
-1 3:1 #
1 18:1 #
-1 18:1 #
1 3:1 #
-1 3:1 #
1 18:1 #
-1 18:1 #
1 3:1 #
-1 3:1 #
1 18:1 #
-1 18:1 #
1 3:1 #
-1 3:1 #
1 18:1 #
-1 18:1 #
1 3:1 #
-1 3:1 #
1 18:1 #
-1 18:1 #
1 3:1 #
-1 3:1 #
1 18:1 #
-1 18:1 #
1 3:1 #
-1 3:1 #
1 18:1 #
-1 18:1 #
1 3:1 #
-1 3:1 #
1 18:1 #
-1 18:1 #
1 3:1 #
-1 3:1 #
1 18:1 #
-1 18:1 #
1 3:1 #
-1 3:1 #
1 18:1 #
-1 18:1 #
1 3:1 #
-1 3:1 #
1 18:1 #
-1 18:1 #
1 3:1 #
-1 3:1 #
1 18:1 #
-1 18:1 #
1 3:1 #
-1 3:1 #
1 18:1 #
-1 18:1 #
1 3:1 #
-1 3:1 #
1 18:1 #
-1 18:1 #
1 3:1 #
-1 3:1 #
1 18:1 #
-1 18:1 #
1 3:1 #
-1 3:1 #
1 18:1 #
-1 18:1 #
1 3:1 #
-1 3:1 #
1 18:1 #
-1 18:1 #
1 3:1 #
-1 3:1 #
1 18:1 #
-1 18:1 #
1 3:1 #
-1 3:1 #
1 18:1 #
-1 18:1 #
1 3:1 #
-1 3:1 #
1 18:1 #
-1 18:1 #
1 3:1 #
-1 3:1 #
1 18:1 #
-1 18:1 #
1 3:1 #
-1 3:1 #
1 18:1 #
-1 18:1 #
1 3:1 #
-1 3:1 #
1 18:1 #
-1 18:1 #
1 3:1 #
-1 3:1 #
1 18:1 #
-1 18:1 #
1 3:1 #
-1 3:1 #
1 18:1 #
-1 18:1 #
1 3:1 #
-1 3:1 #
1 18:1 #
-1 18:1 #
1 3:1 #
-1 3:1 #
1 18:1 #
-1 18:1 #
1 3:1 #
-1 3:1 #
1 18:1 #
-1 18:1 #
1 3:1 #
-1 3:1 #
1 18:1 #
-1 18:1 #
1 3:1 #
-1 3:1 #
1 18:1 #
-1 18:1 #
1 3:1 #
-1 3:1 #
1 18:1 #
-1 18:1 #
1 3:1 #
-1 3:1 #
1 18:1 #
-1 18:1 #
1 3:1 #
-1 3:1 #
1 18:1 #
-1 18:1 #
1 3:1 #
-1 3:1 #
1 18:1 #
-1 18:1 #
1 3:1 #
-1 3:1 #
1 18:1 #
-1 18:1 #
1 3:1 #
-1 3:1 #
1 18:1 #
-1 18:1 #
1 3:1 #
-1 3:1 #
1 18:1 #
-1 18:1 #
1 3:1 #
-1 3:1 #
1 18:1 #
-1 18:1 #
1 3:1 #
-1 3:1 #
1 18:1 #
-1 18:1 #
1 3:1 #
-1 3:1 #
1 18:1 #
-1 18:1 #
1 3:1 #
-1 3:1 #
1 18:1 #
-1 18:1 #
1 3:1 #
-1 3:1 #
1 18:1 #
-1 18:1 #
1 3:1 #
-1 3:1 #
1 18:1 #
-1 18:1 #
1 3:1 #
-1 3:1 #
1 18:1 #
-1 18:1 #
1 3:1 #
-1 3:1 #
1 18:1 #
-1 18:1 #
1 3:1 #
-1 3:1 #
1 18:1 #
-1 18:1 #
1 3:1 #
-1 3:1 #
1 18:1 #
-1 18:1 #
1 3:1 #
-1 3:1 #
1 18:1 #
-1 18:1 #
1 3:1 #
-1 3:1 #
1 18:1 #
-1 18:1 #
1 3:1 #
-1 3:1 #
1 18:1 #
-1 18:1 #
1 3:1 #
-1 3:1 #
1 18:1 #
-1 18:1 #
1 3:1 #
-1 3:1 #
1 18:1 #
-1 18:1 #
1 3:1 #
-1 3:1 #
1 18:1 #
-1 18:1 #
1 3:1 #
-1 3:1 #
1 18:1 #
-1 18:1 #
1 3:1 #
-1 3:1 #
1 18:1 #
-1 18:1 #
1 3:1 #
-1 3:1 #
1 18:1 #
-1 18:1 #
1 3:1 #
-1 3:1 #
1 18:1 #
-1 18:1 #
1 3:1 #
-1 3:1 #
1 18:1 #
-1 18:1 #
1 3:1 #
-1 3:1 #
1 18:1 #
-1 18:1 #
1 3:1 #
-1 3:1 #
1 18:1 #
-1 18:1 #
1 3:1 #
-1 3:1 #
1 18:1 #
-1 18:1 #
1 3:1 #
-1 3:1 #
1 18:1 #
-1 18:1 #
1 3:1 #
-1 3:1 #
1 18:1 #
-1 18:1 #
1 3:1 #
-1 3:1 #
1 18:1 #
-1 18:1 #
1 3:1 #
-1 3:1 #
1 18:1 #
-1 18:1 #
1 3:1 #
-1 3:1 #
1 18:1 #
-1 18:1 #
1 3:1 #
-1 3:1 #
1 18:1 #
-1 18:1 #
1 3:1 #
-1 3:1 #
1 18:1 #
-1 18:1 #
1 3:1 #
-1 3:1 #
1 18:1 #
-1 18:1 #
1 3:1 #
-1 3:1 #
1 18:1 #
-1 18:1 #
1 3:1 #
-1 3:1 #
1 18:1 #
-1 18:1 #
1 3:1 #
-1 3:1 #
1 18:1 #
-1 18:1 #
1 3:1 #
-1 3:1 #
1 18:1 #
-1 18:1 #
1 3:1 #
-1 3:1 #
1 18:1 #
-1 18:1 #
1 3:1 #
-1 3:1 #
1 18:1 #
-1 18:1 #
1 3:1 #
-1 3:1 #
1 18:1 #
-1 18:1 #
1 3:1 #
-1 3:1 #
1 18:1 #
-1 18:1 #
1 3:1 #
-1 3:1 #
1 18:1 #
-1 18:1 #
1 3:1 #
-1 3:1 #
1 18:1 #
-1 18:1 #
1 3:1 #
-1 3:1 #
1 18:1 #
-1 18:1 #
1 3:1 #
-1 3:1 #
1 18:1 #
-1 18:1 #
1 3:1 #
-1 3:1 #
1 18:1 #
-1 18:1 #
1 3:1 #
-1 3:1 #
1 18:1 #
-1 18:1 #
1 3:1 #
-1 3:1 #
1 18:1 #
-1 18:1 #
1 3:1 #
-1 3:1 #
1 18:1 #
-1 18:1 #
1 3:1 #
-1 3:1 #
1 18:1 #
-1 18:1 #
1 3:1 #
-1 3:1 #
1 18:1 #
-1 18:1 #
1 3:1 #
-1 3:1 #
1 18:1 #
-1 18:1 #
1 3:1 #
-1 3:1 #
1 18:1 #
-1 18:1 #
1 3:1 #
-1 3:1 #
1 18:1 #
-1 18:1 #
1 3:1 #
-1 3:1 #
1 18:1 #
-1 18:1 #
1 3:1 #
-1 3:1 #
1 18:1 #
-1 18:1 #
1 3:1 #
-1 3:1 #
1 18:1 #
-1 18:1 #
1 3:1 #
-1 3:1 #
1 18:1 #
-1 18:1 #
1 3:1 #
-1 3:1 #
1 18:1 #
-1 18:1 #
1 3:1 #
-1 3:1 #
1 18:1 #
-1 18:1 #
1 3:1 #
-1 3:1 #
1 18:1 #
-1 18:1 #
1 3:1 #
-1 3:1 #
1 18:1 #
-1 18:1 #
1 3:1 #
-1 3:1 #
1 18:1 #
-1 18:1 #
1 3:1 #
-1 3:1 #
1 18:1 #
-1 18:1 #
1 3:1 #
-1 3:1 #
1 18:1 #
-1 18:1 #
1 3:1 #
-1 3:1 #
1 18:1 #
-1 18:1 #
1 3:1 #
-1 3:1 #
1 18:1 #
-1 18:1 #
1 3:1 #
-1 3:1 #
1 18:1 #
-1 18:1 #
1 3:1 #
-1 3:1 #
1 18:1 #
-1 18:1 #
1 3:1 #
-1 3:1 #
1 18:1 #
-1 18:1 #
1 3:1 #
-1 3:1 #
1 18:1 #
-1 18:1 #
1 3:1 #
-1 3:1 #
1 18:1 #
-1 18:1 #
1 3:1 #
-1 3:1 #
1 18:1 #
-1 18:1 #
1 3:1 #
-1 3:1 #
1 18:1 #
-1 18:1 #
1 3:1 #
-1 3:1 #
1 18:1 #
-1 18:1 #
1 3:1 #
-1 3:1 #
1 18:1 #
-1 18:1 #
1 3:1 #
-1 3:1 #
1 18:1 #
-1 18:1 #
1 3:1 #
-1 3:1 #
1 18:1 #
-1 18:1 #
1 3:1 #
-1 3:1 #
1 18:1 #
-1 18:1 #
1 3:1 #
-1 3:1 #
1 18:1 #
-1 18:1 #
1 3:1 #
-1 3:1 #
1 18:1 #
-1 18:1 #
1 3:1 #
-1 3:1 #
1 18:1 #
-1 18:1 #
1 3:1 #
-1 3:1 #
1 18:1 #
-1 18:1 #
1 3:1 #
-1 3:1 #
1 18:1 #
-1 18:1 #
1 3:1 #
-1 3:1 #
1 18:1 #
-1 18:1 #
1 3:1 #
-1 3:1 #
1 18:1 #
-1 18:1 #
1 3:1 #
-1 3:1 #
1 18:1 #
-1 18:1 #
1 3:1 #
-1 3:1 #
1 18:1 #
-1 18:1 #
1 3:1 #
-1 3:1 #
1 18:1 #
-1 18:1 #
1 3:1 #
-1 3:1 #
1 18:1 #
-1 18:1 #
1 3:1 #
-1 3:1 #
1 18:1 #
-1 18:1 #
1 3:1 #
-1 3:1 #
1 18:1 #
-1 18:1 #
1 3:1 #
-1 3:1 #
1 18:1 #
-1 18:1 #
1 3:1 #
-1 3:1 #
1 18:1 #
-1 18:1 #
1 3:1 #
-1 3:1 #
1 18:1 #
-1 18:1 #
1 3:1 #
-1 3:1 #
1 18:1 #
-1 18:1 #
1 3:1 #
-1 3:1 #
1 18:1 #
-1 18:1 #
1 3:1 #
-1 3:1 #
1 18:1 #
-1 18:1 #
1 3:1 #
-1 3:1 #
1 18:1 #
-1 18:1 #
1 3:1 #
-1 3:1 #
1 18:1 #
-1 18:1 #
1 3:1 #
-1 3:1 #
1 18:1 #
-1 18:1 #
1 3:1 #
-1 3:1 #
1 18:1 #
-1 18:1 #
1 3:1 #
-1 3:1 #
1 18:1 #
-1 18:1 #
1 3:1 #
-1 3:1 #
1 18:1 #
-1 18:1 #
1 3:1 #
-1 3:1 #
1 18:1 #
-1 18:1 #
1 3:1 #
-1 3:1 #
1 18:1 #
-1 18:1 #
1 3:1 #
-1 3:1 #
1 18:1 #
-1 18:1 #
1 3:1 #
-1 3:1 #
1 18:1 #
-1 18:1 #
1 3:1 #
-1 3:1 #
1 18:1 #
-1 18:1 #
1 3:1 #
-1 3:1 #
1 18:1 #
-1 18:1 #
1 3:1 #
-1 3:1 #
1 18:1 #
-1 18:1 #
1 3:1 #
-1 3:1 #
1 18:1 #
-1 18:1 #
1 3:1 #
-1 3:1 #
1 18:1 #
-1 18:1 #
1 3:1 #
-1 3:1 #
1 18:1 #
-1 18:1 #
1 3:1 #
-1 3:1 #
1 18:1 #
-1 18:1 #
1 3:1 #
-1 3:1 #
1 18:1 #
-1 18:1 #
1 3:1 #
-1 3:1 #
1 18:1 #
-1 18:1 #
1 3:1 #
-1 3:1 #
1 18:1 #
-1 18:1 #
1 3:1 #
-1 3:1 #
1 18:1 #
-1 18:1 #
1 3:1 #
-1 3:1 #
1 18:1 #
-1 18:1 #
1 3:1 #
-1 3:1 #
1 18:1 #
-1 18:1 #
1 3:1 #
-1 3:1 #
1 18:1 #
-1 18:1 #
1 3:1 #
-1 3:1 #
1 18:1 #
-1 18:1 #
1 3:1 #
-1 3:1 #
1 18:1 #
-1 18:1 #
1 3:1 #
-1 3:1 #
1 18:1 #
-1 18:1 #
1 3:1 #
-1 3:1 #
1 18:1 #
-1 18:1 #
1 3:1 #
-1 3:1 #
1 18:1 #
-1 18:1 #
1 3:1 #
-1 3:1 #
1 18:1 #
-1 18:1 #
1 3:1 #
-1 3:1 #
1 18:1 #
-1 18:1 #
1 3:1 #
-1 3:1 #
1 18:1 #
-1 18:1 #
1 3:1 #
-1 3:1 #
1 18:1 #
-1 18:1 #
1 3:1 #
-1 3:1 #
1 18:1 #
-1 18:1 #
1 3:1 #
-1 3:1 #
1 18:1 #
-1 18:1 #
1 3:1 #
-1 3:1 #
1 18:1 #
-1 18:1 #
1 3:1 #
-1 3:1 #
1 18:1 #
-1 18:1 #
1 3:1 #
-1 3:1 #
1 18:1 #
-1 18:1 #
1 3:1 #
-1 3:1 #
1 18:1 #
-1 18:1 #
1 3:1 #
-1 3:1 #
1 18:1 #
-1 18:1 #
1 3:1 #
-1 3:1 #
1 18:1 #
-1 18:1 #
1 3:1 #
-1 3:1 #
1 18:1 #
-1 18:1 #
1 3:1 #
-1 3:1 #
1 18:1 #
-1 18:1 #
1 3:1 #
-1 3:1 #
1 18:1 #
-1 18:1 #
1 3:1 #
-1 3:1 #
1 18:1 #
-1 18:1 #
1 3:1 #
-1 3:1 #
1 18:1 #
-1 18:1 #
1 3:1 #
-1 3:1 #
1 18:1 #
-1 18:1 #
1 3:1 #
-1 3:1 #
1 18:1 #
-1 18:1 #
1 3:1 #
-1 3:1 #
1 18:1 #
-1 18:1 #
1 3:1 #
-1 3:1 #
1 18:1 #
-1 18:1 #
1 3:1 #
-1 3:1 #
1 18:1 #
-1 18:1 #
1 3:1 #
-1 3:1 #
1 18:1 #
-1 18:1 #
1 3:1 #
-1 3:1 #
1 18:1 #
-1 18:1 #
1 3:1 #
-1 3:1 #
1 18:1 #
-1 18:1 #
1 3:1 #
-1 3:1 #
1 18:1 #
-1 18:1 #
1 3:1 #
-1 3:1 #
1 18:1 #
-1 18:1 #
1 3:1 #
-1 3:1 #
1 18:1 #
-1 18:1 #
1 3:1 #
-1 3:1 #
1 18:1 #
-1 18:1 #
1 3:1 #
-1 3:1 #
1 18:1 #
-1 18:1 #
1 3:1 #
-1 3:1 #
1 18:1 #
-1 18:1 #
1 3:1 #
-1 3:1 #
1 18:1 #
-1 18:1 #
1 3:1 #
-1 3:1 #
1 18:1 #
-1 18:1 #
1 3:1 #
-1 3:1 #
1 18:1 #
-1 18:1 #
1 3:1 #
-1 3:1 #
1 18:1 #
-1 18:1 #
1 3:1 #
-1 3:1 #
1 18:1 #
-1 18:1 #
1 3:1 #
-1 3:1 #
1 18:1 #
-1 18:1 #
1 3:1 #
-1 3:1 #
1 18:1 #
-1 18:1 #
1 3:1 #
-1 3:1 #
1 18:1 #
-1 18:1 #
1 3:1 #
-1 3:1 #
1 18:1 #
-1 18:1 #
1 3:1 #
-1 3:1 #
1 18:1 #
-1 18:1 #
1 3:1 #
-1 3:1 #
1 18:1 #
-1 18:1 #
1 3:1 #
-1 3:1 #
1 18:1 #
-1 18:1 #
1 3:1 #
-1 3:1 #
1 18:1 #
-1 18:1 #
1 3:1 #
-1 3:1 #
1 18:1 #
-1 18:1 #
1 3:1 #
-1 3:1 #
1 18:1 #
-1 18:1 #
1 3:1 #
-1 3:1 #
1 18:1 #
-1 18:1 #
1 3:1 #
-1 3:1 #
1 18:1 #
-1 18:1 #
1 3:1 #
-1 3:1 #
1 18:1 #
-1 18:1 #
1 3:1 #
-1 3:1 #
1 18:1 #
-1 18:1 #
1 3:1 #
-1 3:1 #
1 18:1 #
-1 18:1 #
1 3:1 #
-1 3:1 #
1 18:1 #
-1 18:1 #
1 3:1 #
-1 3:1 #
1 18:1 #
-1 18:1 #
1 3:1 #
-1 3:1 #
1 18:1 #
-1 18:1 #
1 3:1 #
-1 3:1 #
1 18:1 #
-1 18:1 #
1 3:1 #
-1 3:1 #
1 18:1 #
-1 18:1 #
1 3:1 #
-1 3:1 #
1 18:1 #
-1 18:1 #
1 3:1 #
-1 3:1 #
1 18:1 #
-1 18:1 #
1 3:1 #
-1 3:1 #
1 18:1 #
-1 18:1 #
1 3:1 #
-1 3:1 #
1 18:1 #
-1 18:1 #
1 3:1 #
-1 3:1 #
1 18:1 #
-1 18:1 #
1 3:1 #
-1 3:1 #
1 18:1 #
-1 18:1 #
1 3:1 #
-1 3:1 #
1 18:1 #
-1 18:1 #
1 3:1 #
-1 3:1 #
1 18:1 #
-1 18:1 #
1 3:1 #
-1 3:1 #
1 18:1 #
-1 18:1 #
1 3:1 #
-1 3:1 #
1 18:1 #
-1 18:1 #
1 3:1 #
-1 3:1 #
1 18:1 #
-1 18:1 #
1 3:1 #
-1 3:1 #
1 18:1 #
-1 18:1 #
1 3:1 #
-1 3:1 #
1 18:1 #
-1 18:1 #
1 3:1 #
-1 3:1 #
1 18:1 #
-1 18:1 #
1 3:1 #
-1 3:1 #
1 18:1 #
-1 18:1 #
1 3:1 #
-1 3:1 #
1 18:1 #
-1 18:1 #
1 3:1 #
-1 3:1 #
1 18:1 #
-1 18:1 #
1 3:1 #
-1 3:1 #
1 18:1 #
-1 18:1 #
1 3:1 #
-1 3:1 #
1 18:1 #
-1 18:1 #
1 3:1 #
-1 3:1 #
1 18:1 #
-1 18:1 #
1 3:1 #
-1 3:1 #
1 18:1 #
-1 18:1 #
1 3:1 #
-1 3:1 #
1 18:1 #
-1 18:1 #
1 3:1 #
-1 3:1 #
1 18:1 #
-1 18:1 #
1 3:1 #
-1 3:1 #
1 18:1 #
-1 18:1 #
1 3:1 #
-1 3:1 #
1 18:1 #
-1 18:1 #
1 3:1 #
-1 3:1 #
1 18:1 #
-1 18:1 #
1 3:1 #
-1 3:1 #
1 18:1 #
-1 18:1 #
1 3:1 #
-1 3:1 #
1 18:1 #
-1 18:1 #
1 3:1 #
-1 3:1 #
1 18:1 #
-1 18:1 #
1 3:1 #
-1 3:1 #
1 18:1 #
-1 18:1 #
1 3:1 #
-1 3:1 #
1 18:1 #
-1 18:1 #
1 3:1 #
-1 3:1 #
1 18:1 #
-1 18:1 #
1 3:1 #
-1 3:1 #
1 18:1 #
-1 18:1 #
1 3:1 #
-1 3:1 #
1 18:1 #
-1 18:1 #
1 3:1 #
-1 3:1 #
1 18:1 #
-1 18:1 #
1 3:1 #
-1 3:1 #
1 18:1 #
-1 18:1 #
1 3:1 #
-1 3:1 #
1 18:1 #
-1 18:1 #
1 3:1 #
-1 3:1 #
1 18:1 #
-1 18:1 #
1 3:1 #
-1 3:1 #
1 18:1 #
-1 18:1 #
1 3:1 #
-1 3:1 #
1 18:1 #
-1 18:1 #
1 3:1 #
-1 3:1 #
1 18:1 #
-1 18:1 #
1 3:1 #
-1 3:1 #
1 18:1 #
-1 18:1 #
1 3:1 #
-1 3:1 #
1 18:1 #
-1 18:1 #
1 3:1 #
-1 3:1 #
1 18:1 #
-1 18:1 #
1 3:1 #
-1 3:1 #
1 18:1 #
-1 18:1 #
1 3:1 #
-1 3:1 #
1 18:1 #
-1 18:1 #
1 3:1 #
-1 3:1 #
1 18:1 #
-1 18:1 #
1 3:1 #
-1 3:1 #
1 18:1 #
-1 18:1 #
1 3:1 #
-1 3:1 #
1 18:1 #
-1 18:1 #
1 3:1 #
-1 3:1 #
1 18:1 #
-1 18:1 #
1 3:1 #
-1 3:1 #
1 18:1 #
-1 18:1 #
1 3:1 #
-1 3:1 #
1 18:1 #
-1 18:1 #
1 3:1 #
-1 3:1 #
1 18:1 #
-1 18:1 #
1 3:1 #
-1 3:1 #
1 18:1 #
-1 18:1 #
1 3:1 #
-1 3:1 #
1 18:1 #
-1 18:1 #
1 3:1 #
-1 3:1 #
1 18:1 #
-1 18:1 #
1 3:1 #
-1 3:1 #
1 18:1 #
-1 18:1 #
1 3:1 #
-1 3:1 #
1 18:1 #
-1 18:1 #
1 3:1 #
-1 3:1 #
1 18:1 #
-1 18:1 #
1 3:1 #
-1 3:1 #
1 18:1 #
-1 18:1 #
1 3:1 #
-1 3:1 #
1 18:1 #
-1 18:1 #
1 3:1 #
-1 3:1 #
1 18:1 #
-1 18:1 #
1 3:1 #
-1 3:1 #
1 18:1 #
-1 18:1 #
1 3:1 #
-1 3:1 #
1 18:1 #
-1 18:1 #
1 3:1 #
-1 3:1 #
1 18:1 #
-1 18:1 #
1 3:1 #
-1 3:1 #
1 18:1 #
-1 18:1 #
1 3:1 #
-1 3:1 #
1 18:1 #
-1 18:1 #
1 3:1 #
-1 3:1 #
1 18:1 #
-1 18:1 #
1 3:1 #
-1 3:1 #
1 18:1 #
-1 18:1 #
1 3:1 #
-1 3:1 #
1 18:1 #
-1 18:1 #
1 3:1 #
-1 3:1 #
1 18:1 #
-1 18:1 #
1 3:1 #
-1 3:1 #
1 18:1 #
-1 18:1 #
1 3:1 #
-1 3:1 #
1 18:1 #
-1 18:1 #
1 3:1 #
-1 3:1 #
1 18:1 #
-1 18:1 #
1 3:1 #
-1 3:1 #
1 18:1 #
-1 18:1 #
1 3:1 #
-1 3:1 #
1 18:1 #
-1 18:1 #
1 3:1 #
-1 3:1 #
1 18:1 #
-1 18:1 #
1 3:1 #
-1 3:1 #
1 18:1 #
-1 18:1 #
1 3:1 #
-1 3:1 #
1 18:1 #
-1 18:1 #
1 3:1 #
-1 3:1 #
1 18:1 #
-1 18:1 #
1 3:1 #
-1 3:1 #
1 18:1 #
-1 18:1 #
1 3:1 #
-1 3:1 #
1 18:1 #
-1 18:1 #
1 3:1 #
-1 3:1 #
1 18:1 #
-1 18:1 #
1 3:1 #
-1 3:1 #
1 18:1 #
-1 18:1 #
1 3:1 #
-1 3:1 #
1 18:1 #
-1 18:1 #
1 3:1 #
-1 3:1 #
1 18:1 #
-1 18:1 #
1 3:1 #
-1 3:1 #
1 18:1 #
-1 18:1 #
1 3:1 #
-1 3:1 #
1 18:1 #
-1 18:1 #
1 3:1 #
-1 3:1 #
1 18:1 #
-1 18:1 #
1 3:1 #
-1 3:1 #
1 18:1 #
-1 18:1 #
1 3:1 #
-1 3:1 #
1 18:1 #
-1 18:1 #
1 3:1 #
-1 3:1 #
1 18:1 #
-1 18:1 #
1 3:1 #
-1 3:1 #
1 18:1 #
-1 18:1 #
1 3:1 #
-1 3:1 #
1 18:1 #
-1 18:1 #
1 3:1 #
-1 3:1 #
1 18:1 #
-1 18:1 #
1 3:1 #
-1 3:1 #
1 18:1 #
-1 18:1 #
1 3:1 #
-1 3:1 #
1 18:1 #
-1 18:1 #
1 3:1 #
-1 3:1 #
1 18:1 #
-1 18:1 #
1 3:1 #
-1 3:1 #
1 18:1 #
-1 18:1 #
1 3:1 #
-1 3:1 #
1 18:1 #
-1 18:1 #
1 3:1 #
-1 3:1 #
1 18:1 #
-1 18:1 #
1 3:1 #
-1 3:1 #
1 18:1 #
-1 18:1 #
1 3:1 #
-1 3:1 #
1 18:1 #
-1 18:1 #
1 3:1 #
-1 3:1 #
1 18:1 #
-1 18:1 #
1 3:1 #
-1 3:1 #
1 18:1 #
-1 18:1 #
1 3:1 #
-1 3:1 #
1 18:1 #
-1 18:1 #
1 3:1 #
-1 3:1 #
1 18:1 #
-1 18:1 #
1 3:1 #
-1 3:1 #
1 18:1 #
-1 18:1 #
1 3:1 #
-1 3:1 #
1 18:1 #
-1 18:1 #
1 3:1 #
-1 3:1 #
1 18:1 #
-1 18:1 #
1 3:1 #
-1 3:1 #
1 18:1 #
-1 18:1 #
1 3:1 #
-1 3:1 #
1 18:1 #
-1 18:1 #
1 3:1 #
-1 3:1 #
1 18:1 #
-1 18:1 #
1 3:1 #
-1 3:1 #
1 18:1 #
-1 18:1 #
1 3:1 #
-1 3:1 #
1 18:1 #
-1 18:1 #
1 3:1 #
-1 3:1 #
1 18:1 #
-1 18:1 #
1 3:1 #
-1 3:1 #
1 18:1 #
-1 18:1 #
1 3:1 #
-1 3:1 #
1 18:1 #
-1 18:1 #
1 3:1 #
-1 3:1 #
1 18:1 #
-1 18:1 #
1 3:1 #
-1 3:1 #
1 18:1 #
-1 18:1 #
1 3:1 #
-1 3:1 #
1 18:1 #
-1 18:1 #
1 3:1 #
-1 3:1 #
1 18:1 #
-1 18:1 #
1 3:1 #
-1 3:1 #
1 18:1 #
-1 18:1 #
1 3:1 #
-1 3:1 #
1 18:1 #
-1 18:1 #
1 3:1 #
-1 3:1 #
1 18:1 #
-1 18:1 #
1 3:1 #
-1 3:1 #
1 18:1 #
-1 18:1 #
1 3:1 #
-1 3:1 #
1 18:1 #
-1 18:1 #
1 3:1 #
-1 3:1 #
1 18:1 #
-1 18:1 #
1 3:1 #
-1 3:1 #
1 18:1 #
-1 18:1 #
1 3:1 #
-1 3:1 #
1 18:1 #
-1 18:1 #
1 3:1 #
-1 3:1 #
1 18:1 #
-1 18:1 #
1 3:1 #
-1 3:1 #
1 18:1 #
-1 18:1 #
1 3:1 #
-1 3:1 #
1 18:1 #
-1 18:1 #
1 3:1 #
-1 3:1 #
1 18:1 #
-1 18:1 #
1 3:1 #
-1 3:1 #
1 18:1 #
-1 18:1 #
1 3:1 #
-1 3:1 #
1 18:1 #
-1 18:1 #
1 3:1 #
-1 3:1 #
1 18:1 #
-1 18:1 #
1 3:1 #
-1 3:1 #
1 18:1 #
-1 18:1 #
1 3:1 #
-1 3:1 #
1 18:1 #
-1 18:1 #
1 3:1 #
-1 3:1 #
1 18:1 #
-1 18:1 #
1 3:1 #
-1 3:1 #
1 18:1 #
-1 18:1 #
1 3:1 #
-1 3:1 #
1 18:1 #
-1 18:1 #
1 3:1 #
-1 3:1 #
1 18:1 #
-1 18:1 #
1 3:1 #
-1 3:1 #
1 18:1 #
-1 18:1 #
1 3:1 #
-1 3:1 #
1 18:1 #
-1 18:1 #
1 3:1 #
-1 3:1 #
1 18:1 #
-1 18:1 #
1 3:1 #
-1 3:1 #
1 18:1 #
-1 18:1 #
1 3:1 #
-1 3:1 #
1 18:1 #
-1 18:1 #
1 3:1 #
-1 3:1 #
1 18:1 #
-1 18:1 #
1 3:1 #
-1 3:1 #
1 18:1 #
-1 18:1 #
1 3:1 #
-1 3:1 #
1 18:1 #
-1 18:1 #
1 3:1 #
-1 3:1 #
1 18:1 #
-1 18:1 #
1 3:1 #
-1 3:1 #
1 18:1 #
-1 18:1 #
1 3:1 #
-1 3:1 #
1 18:1 #
-1 18:1 #
1 3:1 #
-1 3:1 #
1 18:1 #
-1 18:1 #
1 3:1 #
-1 3:1 #
1 18:1 #
-1 18:1 #
1 3:1 #
-1 3:1 #
1 18:1 #
-1 18:1 #
1 3:1 #
-1 3:1 #
1 18:1 #
-1 18:1 #
1 3:1 #
-1 3:1 #
1 18:1 #
-1 18:1 #
1 3:1 #
-1 3:1 #
1 18:1 #
-1 18:1 #
1 3:1 #
-1 3:1 #
1 18:1 #
-1 18:1 #
1 3:1 #
-1 3:1 #
1 18:1 #
-1 18:1 #
1 3:1 #
-1 3:1 #
1 18:1 #
-1 18:1 #
1 3:1 #
-1 3:1 #
1 18:1 #
-1 18:1 #
1 3:1 #
-1 3:1 #
1 18:1 #
-1 18:1 #
1 3:1 #
-1 3:1 #
1 18:1 #
-1 18:1 #
1 3:1 #
-1 3:1 #
1 18:1 #
-1 18:1 #
1 3:1 #
-1 3:1 #
1 18:1 #
-1 18:1 #
1 3:1 #
-1 3:1 #
1 18:1 #
-1 18:1 #
1 3:1 #
-1 3:1 #
1 18:1 #
-1 18:1 #
1 3:1 #
-1 3:1 #
1 18:1 #
-1 18:1 #
1 3:1 #
-1 3:1 #
1 18:1 #
-1 18:1 #
1 3:1 #
-1 3:1 #
1 18:1 #
-1 18:1 #
1 3:1 #
-1 3:1 #
1 18:1 #
-1 18:1 #
1 3:1 #
-1 3:1 #
1 18:1 #
-1 18:1 #
1 18:1 #
-1 18:1 #
1 3:1 #
-1 3:1 #
1 18:1 #
-1 18:1 #
1 3:1 #
-1 3:1 #
1 18:1 #
-1 18:1 #
1 3:1 #
-1 3:1 #
1 18:1 #
-1 18:1 #
1 3:1 #
-1 3:1 #
1 18:1 #
-1 18:1 #
1 3:1 #
-1 3:1 #
1 18:1 #
-1 18:1 #
1 3:1 #
-1 3:1 #
1 18:1 #
-1 18:1 #
1 3:1 #
-1 3:1 #
1 18:1 #
-1 18:1 #
1 3:1 #
-1 3:1 #
1 18:1 #
-1 18:1 #
1 3:1 #
-1 3:1 #
1 18:1 #
-1 18:1 #
1 3:1 #
-1 3:1 #
1 18:1 #
-1 18:1 #
1 3:1 #
-1 3:1 #
1 18:1 #
-1 18:1 #
1 3:1 #
-1 3:1 #
1 18:1 #
-1 18:1 #
1 3:1 #
-1 3:1 #
1 18:1 #
-1 18:1 #
1 3:1 #
-1 3:1 #
1 18:1 #
-1 18:1 #
1 3:1 #
-1 3:1 #
1 18:1 #
-1 18:1 #
1 3:1 #
-1 3:1 #
1 18:1 #
-1 18:1 #
1 3:1 #
-1 3:1 #
1 18:1 #
-1 18:1 #
1 3:1 #
-1 3:1 #
1 18:1 #
-1 18:1 #
1 3:1 #
-1 3:1 #
1 18:1 #
-1 18:1 #
1 3:1 #
-1 3:1 #
1 18:1 #
-1 18:1 #
1 3:1 #
-1 3:1 #
1 18:1 #
-1 18:1 #
1 3:1 #
-1 3:1 #
1 18:1 #
-1 18:1 #
1 3:1 #
-1 3:1 #
1 18:1 #
-1 18:1 #
1 3:1 #
-1 3:1 #
1 18:1 #
-1 18:1 #
1 3:1 #
-1 3:1 #
1 18:1 #
-1 18:1 #
1 3:1 #
-1 3:1 #
1 18:1 #
-1 18:1 #
1 3:1 #
-1 3:1 #
1 18:1 #
-1 18:1 #
1 3:1 #
-1 3:1 #
1 18:1 #
-1 18:1 #
1 3:1 #
-1 3:1 #
1 18:1 #
-1 18:1 #
1 3:1 #
-1 3:1 #
1 18:1 #
-1 18:1 #
1 3:1 #
-1 3:1 #
1 18:1 #
-1 18:1 #
1 3:1 #
-1 3:1 #
1 18:1 #
-1 18:1 #
1 3:1 #
-1 3:1 #
1 18:1 #
-1 18:1 #
1 3:1 #
-1 3:1 #
1 18:1 #
-1 18:1 #
1 3:1 #
-1 3:1 #
1 18:1 #
-1 18:1 #
1 3:1 #
-1 3:1 #
1 18:1 #
-1 18:1 #
1 3:1 #
-1 3:1 #
1 18:1 #
-1 18:1 #
1 3:1 #
-1 3:1 #
1 18:1 #
-1 18:1 #
1 3:1 #
-1 3:1 #
1 18:1 #
-1 18:1 #
1 3:1 #
-1 3:1 #
1 18:1 #
-1 18:1 #
1 3:1 #
-1 3:1 #
1 18:1 #
-1 18:1 #
1 3:1 #
-1 3:1 #
1 18:1 #
-1 18:1 #
1 3:1 #
-1 3:1 #
1 18:1 #
-1 18:1 #
1 3:1 #
-1 3:1 #
1 18:1 #
-1 18:1 #
1 3:1 #
-1 3:1 #
1 18:1 #
-1 18:1 #
1 3:1 #
-1 3:1 #
1 18:1 #
-1 18:1 #
1 3:1 #
-1 3:1 #
1 18:1 #
-1 18:1 #
1 3:1 #
-1 3:1 #
1 18:1 #
-1 18:1 #
1 3:1 #
-1 3:1 #
1 18:1 #
-1 18:1 #
1 3:1 #
-1 3:1 #
1 18:1 #
-1 18:1 #
1 3:1 #
-1 3:1 #
1 18:1 #
-1 18:1 #
1 3:1 #
-1 3:1 #
1 18:1 #
-1 18:1 #
1 3:1 #
-1 3:1 #
1 18:1 #
-1 18:1 #
1 3:1 #
-1 3:1 #
1 18:1 #
-1 18:1 #
1 3:1 #
-1 3:1 #
1 18:1 #
-1 18:1 #
1 3:1 #
-1 3:1 #
1 18:1 #
-1 18:1 #
1 3:1 #
-1 3:1 #
1 18:1 #
-1 18:1 #
1 3:1 #
-1 3:1 #
1 18:1 #
-1 18:1 #
1 3:1 #
-1 3:1 #
1 18:1 #
-1 18:1 #
1 3:1 #
-1 3:1 #
1 18:1 #
-1 18:1 #
1 3:1 #
-1 3:1 #
1 18:1 #
-1 18:1 #
1 3:1 #
-1 3:1 #
1 18:1 #
-1 18:1 #
1 3:1 #
-1 3:1 #
1 18:1 #
-1 18:1 #
1 3:1 #
-1 3:1 #
1 18:1 #
-1 18:1 #
1 3:1 #
-1 3:1 #
1 18:1 #
-1 18:1 #
1 3:1 #
-1 3:1 #
1 18:1 #
-1 18:1 #
1 3:1 #
-1 3:1 #
1 18:1 #
-1 18:1 #
1 3:1 #
-1 3:1 #
1 18:1 #
-1 18:1 #
1 3:1 #
-1 3:1 #
1 18:1 #
-1 18:1 #
1 3:1 #
-1 3:1 #
1 18:1 #
-1 18:1 #
1 3:1 #
-1 3:1 #
1 18:1 #
-1 18:1 #
1 3:1 #
-1 3:1 #
1 18:1 #
-1 18:1 #
1 3:1 #
-1 3:1 #
1 18:1 #
-1 18:1 #
1 3:1 #
-1 3:1 #
1 18:1 #
-1 18:1 #
1 3:1 #
-1 3:1 #
1 18:1 #
-1 18:1 #
1 3:1 #
-1 3:1 #
1 18:1 #
-1 18:1 #
1 3:1 #
-1 3:1 #
1 18:1 #
-1 18:1 #
1 3:1 #
-1 3:1 #
1 18:1 #
-1 18:1 #
1 3:1 #
-1 3:1 #
1 18:1 #
-1 18:1 #
1 3:1 #
-1 3:1 #
1 18:1 #
-1 18:1 #
1 3:1 #
-1 3:1 #
1 18:1 #
-1 18:1 #
1 3:1 #
-1 3:1 #
1 18:1 #
-1 18:1 #
1 3:1 #
-1 3:1 #
1 18:1 #
-1 18:1 #
1 3:1 #
-1 3:1 #
1 18:1 #
-1 18:1 #
1 3:1 #
-1 3:1 #
1 18:1 #
-1 18:1 #
1 3:1 #
-1 3:1 #
1 18:1 #
-1 18:1 #
1 3:1 #
-1 3:1 #
1 18:1 #
-1 18:1 #
1 3:1 #
-1 3:1 #
1 18:1 #
-1 18:1 #
1 3:1 #
-1 3:1 #
1 18:1 #
-1 18:1 #
1 3:1 #
-1 3:1 #
1 18:1 #
-1 18:1 #
1 3:1 #
-1 3:1 #
1 18:1 #
-1 18:1 #
1 3:1 #
-1 3:1 #
1 18:1 #
-1 18:1 #
1 3:1 #
-1 3:1 #
1 18:1 #
-1 18:1 #
1 3:1 #
-1 3:1 #
1 18:1 #
-1 18:1 #
1 3:1 #
-1 3:1 #
1 18:1 #
-1 18:1 #
1 3:1 #
-1 3:1 #
1 18:1 #
-1 18:1 #
1 3:1 #
-1 3:1 #
1 18:1 #
-1 18:1 #
1 3:1 #
-1 3:1 #
1 18:1 #
-1 18:1 #
1 3:1 #
-1 3:1 #
1 18:1 #
-1 18:1 #
1 3:1 #
-1 3:1 #
1 18:1 #
-1 18:1 #
1 3:1 #
-1 3:1 #
1 18:1 #
-1 18:1 #
1 3:1 #
-1 3:1 #
1 18:1 #
-1 18:1 #
1 3:1 #
-1 3:1 #
1 18:1 #
-1 18:1 #
1 3:1 #
-1 3:1 #
1 18:1 #
-1 18:1 #
1 3:1 #
-1 3:1 #
1 18:1 #
-1 18:1 #
1 3:1 #
-1 3:1 #
1 18:1 #
-1 18:1 #
1 3:1 #
-1 3:1 #
1 18:1 #
-1 18:1 #
1 3:1 #
-1 3:1 #
1 18:1 #
-1 18:1 #
1 3:1 #
-1 3:1 #
1 18:1 #
-1 18:1 #
1 3:1 #
-1 3:1 #
1 18:1 #
-1 18:1 #
1 3:1 #
-1 3:1 #
1 18:1 #
-1 18:1 #
1 3:1 #
-1 3:1 #
1 18:1 #
-1 18:1 #
1 3:1 #
-1 3:1 #
1 18:1 #
-1 18:1 #
1 3:1 #
-1 3:1 #
1 18:1 #
-1 18:1 #
1 3:1 #
-1 3:1 #
1 18:1 #
-1 18:1 #
1 3:1 #
-1 3:1 #
1 18:1 #
-1 18:1 #
1 3:1 #
-1 3:1 #
1 18:1 #
-1 18:1 #
1 3:1 #
-1 3:1 #
1 18:1 #
-1 18:1 #
1 3:1 #
-1 3:1 #
1 18:1 #
-1 18:1 #
1 3:1 #
-1 3:1 #
1 18:1 #
-1 18:1 #
1 3:1 #
-1 3:1 #
1 18:1 #
-1 18:1 #
1 3:1 #
-1 3:1 #
1 18:1 #
-1 18:1 #
1 3:1 #
-1 3:1 #
1 18:1 #
-1 18:1 #
1 3:1 #
-1 3:1 #
1 18:1 #
-1 18:1 #
1 3:1 #
-1 3:1 #
1 18:1 #
-1 18:1 #
1 3:1 #
-1 3:1 #
1 18:1 #
-1 18:1 #
1 3:1 #
-1 3:1 #
1 18:1 #
-1 18:1 #
1 3:1 #
-1 3:1 #
1 18:1 #
-1 18:1 #
1 3:1 #
-1 3:1 #
1 18:1 #
-1 18:1 #
1 3:1 #
-1 3:1 #
1 18:1 #
-1 18:1 #
1 3:1 #
-1 3:1 #
1 18:1 #
-1 18:1 #
1 3:1 #
-1 3:1 #
1 18:1 #
-1 18:1 #
1 3:1 #
-1 3:1 #
1 18:1 #
-1 18:1 #
1 3:1 #
-1 3:1 #
1 18:1 #
-1 18:1 #
1 3:1 #
-1 3:1 #
1 18:1 #
-1 18:1 #
1 3:1 #
-1 3:1 #
1 18:1 #
-1 18:1 #
1 3:1 #
-1 3:1 #
1 18:1 #
-1 18:1 #
1 3:1 #
-1 3:1 #
1 18:1 #
-1 18:1 #
1 3:1 #
-1 3:1 #
1 18:1 #
-1 18:1 #
1 3:1 #
-1 3:1 #
1 18:1 #
-1 18:1 #
1 3:1 #
-1 3:1 #
1 18:1 #
-1 18:1 #
1 3:1 #
-1 3:1 #
1 18:1 #
-1 18:1 #
1 3:1 #
-1 3:1 #
1 18:1 #
-1 18:1 #
1 3:1 #
-1 3:1 #
1 18:1 #
-1 18:1 #
1 3:1 #
-1 3:1 #
1 18:1 #
-1 18:1 #
1 3:1 #
-1 3:1 #
1 18:1 #
-1 18:1 #
1 3:1 #
-1 3:1 #
1 18:1 #
-1 18:1 #
1 3:1 #
-1 3:1 #
1 18:1 #
-1 18:1 #
1 3:1 #
-1 3:1 #
1 18:1 #
-1 18:1 #
1 3:1 #
-1 3:1 #
1 18:1 #
-1 18:1 #
1 3:1 #
-1 3:1 #
1 18:1 #
-1 18:1 #
1 3:1 #
-1 3:1 #
1 18:1 #
-1 18:1 #
1 3:1 #
-1 3:1 #
1 18:1 #
-1 18:1 #
1 3:1 #
-1 3:1 #
1 18:1 #
-1 18:1 #
1 3:1 #
-1 3:1 #
1 18:1 #
-1 18:1 #
1 3:1 #
-1 3:1 #
1 18:1 #
-1 18:1 #
1 3:1 #
-1 3:1 #
1 18:1 #
-1 18:1 #
1 3:1 #
-1 3:1 #
1 18:1 #
-1 18:1 #
1 3:1 #
-1 3:1 #
1 18:1 #
-1 18:1 #
1 3:1 #
-1 3:1 #
1 18:1 #
-1 18:1 #
1 3:1 #
-1 3:1 #
1 18:1 #
-1 18:1 #
1 3:1 #
-1 3:1 #
1 18:1 #
-1 18:1 #
1 3:1 #
-1 3:1 #
1 18:1 #
-1 18:1 #
1 3:1 #
-1 3:1 #
1 18:1 #
-1 18:1 #
1 3:1 #
-1 3:1 #
1 18:1 #
-1 18:1 #
1 3:1 #
-1 3:1 #
1 18:1 #
-1 18:1 #
1 3:1 #
-1 3:1 #
1 18:1 #
-1 18:1 #
1 3:1 #
-1 3:1 #
1 18:1 #
-1 18:1 #
1 3:1 #
-1 3:1 #
1 18:1 #
-1 18:1 #
1 3:1 #
-1 3:1 #
1 18:1 #
-1 18:1 #
1 3:1 #
-1 3:1 #
1 18:1 #
-1 18:1 #
1 3:1 #
-1 3:1 #
1 18:1 #
-1 18:1 #
1 3:1 #
-1 3:1 #
1 18:1 #
-1 18:1 #
1 3:1 #
-1 3:1 #
1 18:1 #
-1 18:1 #
1 3:1 #
-1 3:1 #
1 18:1 #
-1 18:1 #
1 3:1 #
-1 3:1 #
1 18:1 #
-1 18:1 #
1 3:1 #
-1 3:1 #
1 18:1 #
-1 18:1 #
1 3:1 #
-1 3:1 #
1 18:1 #
-1 18:1 #
1 3:1 #
-1 3:1 #
1 18:1 #
-1 18:1 #
1 3:1 #
-1 3:1 #
1 18:1 #
-1 18:1 #
1 3:1 #
-1 3:1 #
1 18:1 #
-1 18:1 #
1 3:1 #
-1 3:1 #
1 18:1 #
-1 18:1 #
1 3:1 #
-1 3:1 #
1 18:1 #
-1 18:1 #
1 3:1 #
-1 3:1 #
1 18:1 #
-1 18:1 #
1 3:1 #
-1 3:1 #
1 18:1 #
-1 18:1 #
1 3:1 #
-1 3:1 #
1 18:1 #
-1 18:1 #
1 3:1 #
-1 3:1 #
1 18:1 #
-1 18:1 #
1 3:1 #
-1 3:1 #
1 18:1 #
-1 18:1 #
1 3:1 #
-1 3:1 #
1 18:1 #
-1 18:1 #
1 3:1 #
-1 3:1 #
1 18:1 #
-1 18:1 #
1 3:1 #
-1 3:1 #
1 18:1 #
-1 18:1 #
1 3:1 #
-1 3:1 #
1 18:1 #
-1 18:1 #
1 3:1 #
-1 3:1 #
1 18:1 #
-1 18:1 #
1 3:1 #
-1 3:1 #
1 18:1 #
-1 18:1 #
1 3:1 #
-1 3:1 #
1 18:1 #
-1 18:1 #
1 3:1 #
-1 3:1 #
1 18:1 #
-1 18:1 #
1 3:1 #
-1 3:1 #
1 18:1 #
-1 18:1 #
1 3:1 #
-1 3:1 #
1 18:1 #
-1 18:1 #
1 3:1 #
-1 3:1 #
1 18:1 #
-1 18:1 #
1 3:1 #
-1 3:1 #
1 18:1 #
-1 18:1 #
1 3:1 #
-1 3:1 #
1 18:1 #
-1 18:1 #
1 3:1 #
-1 3:1 #
1 18:1 #
-1 18:1 #
1 3:1 #
-1 3:1 #
1 18:1 #
-1 18:1 #
1 3:1 #
-1 3:1 #
1 18:1 #
-1 18:1 #
1 3:1 #
-1 3:1 #
1 18:1 #
-1 18:1 #
1 3:1 #
-1 3:1 #
1 18:1 #
-1 18:1 #
1 3:1 #
-1 3:1 #
1 18:1 #
-1 18:1 #
1 3:1 #
-1 3:1 #
1 18:1 #
-1 18:1 #
1 3:1 #
-1 3:1 #
1 18:1 #
-1 18:1 #
1 3:1 #
-1 3:1 #
1 18:1 #
-1 18:1 #
1 3:1 #
-1 3:1 #
1 18:1 #
-1 18:1 #
1 3:1 #
-1 3:1 #
1 18:1 #
-1 18:1 #
1 3:1 #
-1 3:1 #
1 18:1 #
-1 18:1 #
1 3:1 #
-1 3:1 #
1 18:1 #
-1 18:1 #
1 3:1 #
-1 3:1 #
1 18:1 #
-1 18:1 #
1 3:1 #
-1 3:1 #
1 18:1 #
-1 18:1 #
1 3:1 #
-1 3:1 #
1 18:1 #
-1 18:1 #
1 3:1 #
-1 3:1 #
1 18:1 #
-1 18:1 #
1 3:1 #
-1 3:1 #
1 18:1 #
-1 18:1 #
1 3:1 #
-1 3:1 #
1 18:1 #
-1 18:1 #
1 3:1 #
-1 3:1 #
1 18:1 #
-1 18:1 #
1 3:1 #
-1 3:1 #
1 18:1 #
-1 18:1 #
1 3:1 #
-1 3:1 #
1 18:1 #
-1 18:1 #
1 3:1 #
-1 3:1 #
1 18:1 #
-1 18:1 #
1 3:1 #
-1 3:1 #
1 18:1 #
-1 18:1 #
1 3:1 #
-1 3:1 #
1 18:1 #
-1 18:1 #
1 3:1 #
-1 3:1 #
1 18:1 #
-1 18:1 #
1 3:1 #
-1 3:1 #
1 18:1 #
-1 18:1 #
1 3:1 #
-1 3:1 #
1 18:1 #
-1 18:1 #
1 3:1 #
-1 3:1 #
1 18:1 #
-1 18:1 #
1 3:1 #
-1 3:1 #
1 18:1 #
-1 18:1 #
1 3:1 #
-1 3:1 #
1 18:1 #
-1 18:1 #
1 3:1 #
-1 3:1 #
1 18:1 #
-1 18:1 #
1 3:1 #
-1 3:1 #
1 18:1 #
-1 18:1 #
1 3:1 #
-1 3:1 #
1 18:1 #
-1 18:1 #
1 3:1 #
-1 3:1 #
1 18:1 #
-1 18:1 #
1 3:1 #
-1 3:1 #
1 18:1 #
-1 18:1 #
1 3:1 #
-1 3:1 #
1 18:1 #
-1 18:1 #
1 3:1 #
-1 3:1 #
1 18:1 #
-1 18:1 #
1 3:1 #
-1 3:1 #
1 18:1 #
-1 18:1 #
1 3:1 #
-1 3:1 #
1 18:1 #
-1 18:1 #
1 3:1 #
-1 3:1 #
1 18:1 #
-1 18:1 #
1 3:1 #
-1 3:1 #
1 18:1 #
-1 18:1 #
1 3:1 #
-1 3:1 #
1 18:1 #
-1 18:1 #
1 3:1 #
-1 3:1 #
1 18:1 #
-1 18:1 #
1 3:1 #
-1 3:1 #
1 18:1 #
-1 18:1 #
1 3:1 #
-1 3:1 #
1 18:1 #
-1 18:1 #
1 3:1 #
-1 3:1 #
1 18:1 #
-1 18:1 #
1 3:1 #
-1 3:1 #
1 18:1 #
-1 18:1 #
1 3:1 #
-1 3:1 #
1 18:1 #
-1 18:1 #
1 3:1 #
-1 3:1 #
1 18:1 #
-1 18:1 #
1 3:1 #
-1 3:1 #
1 18:1 #
-1 18:1 #
1 3:1 #
-1 3:1 #
1 18:1 #
-1 18:1 #
1 3:1 #
-1 3:1 #
1 18:1 #
-1 18:1 #
1 3:1 #
-1 3:1 #
1 18:1 #
-1 18:1 #
1 3:1 #
-1 3:1 #
1 18:1 #
-1 18:1 #
1 3:1 #
-1 3:1 #
1 18:1 #
-1 18:1 #
1 3:1 #
-1 3:1 #
1 18:1 #
-1 18:1 #
1 3:1 #
-1 3:1 #
1 18:1 #
-1 18:1 #
1 3:1 #
-1 3:1 #
1 18:1 #
-1 18:1 #
1 3:1 #
-1 3:1 #
1 18:1 #
-1 18:1 #
1 3:1 #
-1 3:1 #
1 18:1 #
-1 18:1 #
1 3:1 #
-1 3:1 #
1 18:1 #
-1 18:1 #
1 3:1 #
-1 3:1 #
1 18:1 #
-1 18:1 #
1 3:1 #
-1 3:1 #
1 18:1 #
-1 18:1 #
1 3:1 #
-1 3:1 #
1 18:1 #
-1 18:1 #
1 3:1 #
-1 3:1 #
1 18:1 #
-1 18:1 #
1 3:1 #
-1 3:1 #
1 18:1 #
-1 18:1 #
1 3:1 #
-1 3:1 #
1 18:1 #
-1 18:1 #
1 3:1 #
-1 3:1 #
1 18:1 #
-1 18:1 #
1 3:1 #
-1 3:1 #
1 18:1 #
-1 18:1 #
1 3:1 #
-1 3:1 #
1 18:1 #
-1 18:1 #
1 3:1 #
-1 3:1 #
1 18:1 #
-1 18:1 #
1 3:1 #
-1 3:1 #
1 18:1 #
-1 18:1 #
1 3:1 #
-1 3:1 #
1 18:1 #
-1 18:1 #
1 3:1 #
-1 3:1 #
1 18:1 #
-1 18:1 #
1 3:1 #
-1 3:1 #
1 18:1 #
-1 18:1 #
1 3:1 #
-1 3:1 #
1 18:1 #
-1 18:1 #
1 3:1 #
-1 3:1 #
1 18:1 #
-1 18:1 #
1 3:1 #
-1 3:1 #
1 18:1 #
-1 18:1 #
1 3:1 #
-1 3:1 #
1 18:1 #
-1 18:1 #
1 3:1 #
-1 3:1 #
1 18:1 #
-1 18:1 #
1 3:1 #
-1 3:1 #
1 18:1 #
-1 18:1 #
1 3:1 #
-1 3:1 #
1 18:1 #
-1 18:1 #
1 3:1 #
-1 3:1 #
1 18:1 #
-1 18:1 #
1 3:1 #
-1 3:1 #
1 18:1 #
-1 18:1 #
1 3:1 #
-1 3:1 #
1 18:1 #
-1 18:1 #
1 3:1 #
-1 3:1 #
1 18:1 #
-1 18:1 #
1 3:1 #
-1 3:1 #
1 18:1 #
-1 18:1 #
1 3:1 #
-1 3:1 #
1 18:1 #
-1 18:1 #
1 3:1 #
-1 3:1 #
1 18:1 #
-1 18:1 #
1 3:1 #
-1 3:1 #
1 18:1 #
-1 18:1 #
1 3:1 #
-1 3:1 #
1 18:1 #
-1 18:1 #
1 3:1 #
-1 3:1 #
1 18:1 #
-1 18:1 #
1 3:1 #
-1 3:1 #
1 18:1 #
-1 18:1 #
1 3:1 #
-1 3:1 #
1 18:1 #
-1 18:1 #
1 3:1 #
-1 3:1 #
1 18:1 #
-1 18:1 #
1 3:1 #
-1 3:1 #
1 18:1 #
-1 18:1 #
1 3:1 #
-1 3:1 #
1 18:1 #
-1 18:1 #
1 3:1 #
-1 3:1 #
1 18:1 #
-1 18:1 #
1 3:1 #
-1 3:1 #
1 18:1 #
-1 18:1 #
1 3:1 #
-1 3:1 #
1 18:1 #
-1 18:1 #
1 3:1 #
-1 3:1 #
1 18:1 #
-1 18:1 #
1 3:1 #
-1 3:1 #
1 18:1 #
-1 18:1 #
1 3:1 #
-1 3:1 #
1 18:1 #
-1 18:1 #
1 3:1 #
-1 3:1 #
1 18:1 #
-1 18:1 #
1 3:1 #
-1 3:1 #
1 18:1 #
-1 18:1 #
1 3:1 #
-1 3:1 #
1 18:1 #
-1 18:1 #
1 3:1 #
-1 3:1 #
1 18:1 #
-1 18:1 #
1 3:1 #
-1 3:1 #
1 18:1 #
-1 18:1 #
1 3:1 #
-1 3:1 #
1 18:1 #
-1 18:1 #
1 3:1 #
-1 3:1 #
1 18:1 #
-1 18:1 #
1 3:1 #
-1 3:1 #
1 18:1 #
-1 18:1 #
1 3:1 #
-1 3:1 #
1 18:1 #
-1 18:1 #
1 3:1 #
-1 3:1 #
1 18:1 #
-1 18:1 #
1 3:1 #
-1 3:1 #
1 18:1 #
-1 18:1 #
1 3:1 #
-1 3:1 #
1 18:1 #
-1 18:1 #
1 3:1 #
-1 3:1 #
1 18:1 #
-1 18:1 #
1 3:1 #
-1 3:1 #
1 18:1 #
-1 18:1 #
1 3:1 #
-1 3:1 #
1 18:1 #
-1 18:1 #
1 3:1 #
-1 3:1 #
1 18:1 #
-1 18:1 #
1 3:1 #
-1 3:1 #
1 18:1 #
-1 18:1 #
1 3:1 #
-1 3:1 #
1 18:1 #
-1 18:1 #
1 3:1 #
-1 3:1 #
1 18:1 #
-1 18:1 #
1 3:1 #
-1 3:1 #
1 18:1 #
-1 18:1 #
1 3:1 #
-1 3:1 #
1 18:1 #
-1 18:1 #
1 3:1 #
-1 3:1 #
1 18:1 #
-1 18:1 #
1 3:1 #
-1 3:1 #
1 18:1 #
-1 18:1 #
1 3:1 #
-1 3:1 #
1 18:1 #
-1 18:1 #
1 3:1 #
-1 3:1 #
1 18:1 #
-1 18:1 #
1 3:1 #
-1 3:1 #
1 18:1 #
-1 18:1 #
1 3:1 #
-1 3:1 #
1 18:1 #
-1 18:1 #
1 3:1 #
-1 3:1 #
1 18:1 #
-1 18:1 #
1 3:1 #
-1 3:1 #
1 18:1 #
-1 18:1 #
1 3:1 #
-1 3:1 #
1 18:1 #
-1 18:1 #
1 3:1 #
-1 3:1 #
1 18:1 #
-1 18:1 #
1 3:1 #
-1 3:1 #
1 18:1 #
-1 18:1 #
1 3:1 #
-1 3:1 #
1 18:1 #
-1 18:1 #
1 3:1 #
-1 3:1 #
1 18:1 #
-1 18:1 #
1 3:1 #
-1 3:1 #
1 18:1 #
-1 18:1 #
1 3:1 #
-1 3:1 #
1 18:1 #
-1 18:1 #
1 3:1 #
-1 3:1 #
1 18:1 #
-1 18:1 #
1 3:1 #
-1 3:1 #
1 18:1 #
-1 18:1 #
1 3:1 #
-1 3:1 #
1 18:1 #
-1 18:1 #
1 3:1 #
-1 3:1 #
1 18:1 #
-1 18:1 #
1 3:1 #
-1 3:1 #
1 18:1 #
-1 18:1 #
1 3:1 #
-1 3:1 #
1 18:1 #
-1 18:1 #
1 3:1 #
-1 3:1 #
1 18:1 #
-1 18:1 #
1 3:1 #
-1 3:1 #
1 18:1 #
-1 18:1 #
1 3:1 #
-1 3:1 #
1 18:1 #
-1 18:1 #
1 3:1 #
-1 3:1 #
1 18:1 #
-1 18:1 #
1 3:1 #
-1 3:1 #
1 18:1 #
-1 18:1 #
1 3:1 #
-1 3:1 #
1 18:1 #
-1 18:1 #
1 3:1 #
-1 3:1 #
1 18:1 #
-1 18:1 #
1 3:1 #
-1 3:1 #
1 18:1 #
-1 18:1 #
1 3:1 #
-1 3:1 #
1 18:1 #
-1 18:1 #
1 3:1 #
-1 3:1 #
1 18:1 #
-1 18:1 #
1 3:1 #
-1 3:1 #
1 18:1 #
-1 18:1 #
1 3:1 #
-1 3:1 #
1 18:1 #
-1 18:1 #
1 3:1 #
-1 3:1 #
1 18:1 #
-1 18:1 #
1 3:1 #
-1 3:1 #
1 18:1 #
-1 18:1 #
1 3:1 #
-1 3:1 #
1 18:1 #
-1 18:1 #
1 3:1 #
-1 3:1 #
1 18:1 #
-1 18:1 #
1 3:1 #
-1 3:1 #
1 18:1 #
-1 18:1 #
1 3:1 #
-1 3:1 #
1 18:1 #
-1 18:1 #
1 3:1 #
-1 3:1 #
1 18:1 #
-1 18:1 #
1 3:1 #
-1 3:1 #
1 18:1 #
-1 18:1 #
1 3:1 #
-1 3:1 #
1 18:1 #
-1 18:1 #
1 3:1 #
-1 3:1 #
1 18:1 #
-1 18:1 #
1 3:1 #
-1 3:1 #
1 18:1 #
-1 18:1 #
1 3:1 #
-1 3:1 #
1 18:1 #
-1 18:1 #
1 3:1 #
-1 3:1 #
1 18:1 #
-1 18:1 #
1 3:1 #
-1 3:1 #
1 18:1 #
-1 18:1 #
1 3:1 #
-1 3:1 #
1 18:1 #
-1 18:1 #
1 3:1 #
-1 3:1 #
1 18:1 #
-1 18:1 #
1 3:1 #
-1 3:1 #
1 18:1 #
-1 18:1 #
1 3:1 #
-1 3:1 #
1 18:1 #
-1 18:1 #
1 3:1 #
-1 3:1 #
1 18:1 #
-1 18:1 #
1 3:1 #
-1 3:1 #
1 18:1 #
-1 18:1 #
1 3:1 #
-1 3:1 #
1 18:1 #
-1 18:1 #
1 3:1 #
-1 3:1 #
1 18:1 #
-1 18:1 #
1 3:1 #
-1 3:1 #
1 18:1 #
-1 18:1 #
1 3:1 #
-1 3:1 #
1 18:1 #
-1 18:1 #
1 3:1 #
-1 3:1 #
1 18:1 #
-1 18:1 #
1 3:1 #
-1 3:1 #
1 18:1 #
-1 18:1 #
1 3:1 #
-1 3:1 #
1 18:1 #
-1 18:1 #
1 3:1 #
-1 3:1 #
1 18:1 #
-1 18:1 #
1 3:1 #
-1 3:1 #
1 18:1 #
-1 18:1 #
1 3:1 #
-1 3:1 #
1 18:1 #
-1 18:1 #
1 3:1 #
-1 3:1 #
1 18:1 #
-1 18:1 #
1 3:1 #
-1 3:1 #
1 18:1 #
-1 18:1 #
1 3:1 #
-1 3:1 #
1 18:1 #
-1 18:1 #
1 3:1 #
-1 3:1 #
1 18:1 #
-1 18:1 #
1 3:1 #
-1 3:1 #
1 18:1 #
-1 18:1 #
1 3:1 #
-1 3:1 #
1 18:1 #
-1 18:1 #
1 3:1 #
-1 3:1 #
1 18:1 #
-1 18:1 #
1 3:1 #
-1 3:1 #
1 18:1 #
-1 18:1 #
1 3:1 #
-1 3:1 #
1 18:1 #
-1 18:1 #
1 3:1 #
-1 3:1 #
1 18:1 #
-1 18:1 #
1 3:1 #
-1 3:1 #
1 18:1 #
-1 18:1 #
1 3:1 #
-1 3:1 #
1 18:1 #
-1 18:1 #
1 3:1 #
-1 3:1 #
1 18:1 #
-1 18:1 #
1 3:1 #
-1 3:1 #
1 18:1 #
-1 18:1 #
1 3:1 #
-1 3:1 #
1 18:1 #
-1 18:1 #
1 3:1 #
-1 3:1 #
1 18:1 #
-1 18:1 #
1 3:1 #
-1 3:1 #
1 18:1 #
-1 18:1 #
1 3:1 #
-1 3:1 #
1 18:1 #
-1 18:1 #
1 3:1 #
-1 3:1 #
1 18:1 #
-1 18:1 #
1 3:1 #
-1 3:1 #
1 18:1 #
-1 18:1 #
1 3:1 #
-1 3:1 #
1 18:1 #
-1 18:1 #
1 3:1 #
-1 3:1 #
1 18:1 #
-1 18:1 #
1 3:1 #
-1 3:1 #
1 18:1 #
-1 18:1 #
1 3:1 #
-1 3:1 #
1 18:1 #
-1 18:1 #
1 3:1 #
-1 3:1 #
1 18:1 #
-1 18:1 #
1 3:1 #
-1 3:1 #
1 18:1 #
-1 18:1 #
1 3:1 #
-1 3:1 #
1 18:1 #
-1 18:1 #
1 3:1 #
-1 3:1 #
1 18:1 #
-1 18:1 #
1 3:1 #
-1 3:1 #
1 18:1 #
-1 18:1 #
1 3:1 #
-1 3:1 #
1 18:1 #
-1 18:1 #
1 3:1 #
-1 3:1 #
1 18:1 #
-1 18:1 #
1 3:1 #
-1 3:1 #
1 18:1 #
-1 18:1 #
1 3:1 #
-1 3:1 #
1 18:1 #
-1 18:1 #
1 3:1 #
-1 3:1 #
1 18:1 #
-1 18:1 #
1 3:1 #
-1 3:1 #
1 18:1 #
-1 18:1 #
1 3:1 #
-1 3:1 #
1 18:1 #
-1 18:1 #
1 3:1 #
-1 3:1 #
1 18:1 #
-1 18:1 #
1 3:1 #
-1 3:1 #
1 18:1 #
-1 18:1 #
1 3:1 #
-1 3:1 #
1 18:1 #
-1 18:1 #
1 3:1 #
-1 3:1 #
1 18:1 #
-1 18:1 #
1 3:1 #
-1 3:1 #
1 18:1 #
-1 18:1 #
1 3:1 #
-1 3:1 #
1 18:1 #
-1 18:1 #
1 3:1 #
-1 3:1 #
1 18:1 #
-1 18:1 #
1 3:1 #
-1 3:1 #
1 18:1 #
-1 18:1 #
1 3:1 #
-1 3:1 #
1 18:1 #
-1 18:1 #
1 3:1 #
-1 3:1 #
1 18:1 #
-1 18:1 #
1 3:1 #
-1 3:1 #
1 18:1 #
-1 18:1 #
1 3:1 #
-1 3:1 #
1 18:1 #
-1 18:1 #
1 3:1 #
-1 3:1 #
1 18:1 #
-1 18:1 #
1 3:1 #
-1 3:1 #
1 18:1 #
-1 18:1 #
1 3:1 #
-1 3:1 #
1 18:1 #
-1 18:1 #
1 3:1 #
-1 3:1 #
1 18:1 #
-1 18:1 #
1 3:1 #
-1 3:1 #
1 18:1 #
-1 18:1 #
1 3:1 #
-1 3:1 #
1 18:1 #
-1 18:1 #
1 3:1 #
-1 3:1 #
1 18:1 #
-1 18:1 #
1 3:1 #
-1 3:1 #
1 18:1 #
-1 18:1 #
1 3:1 #
-1 3:1 #
1 18:1 #
-1 18:1 #
1 3:1 #
-1 3:1 #
1 18:1 #
-1 18:1 #
1 3:1 #
-1 3:1 #
1 18:1 #
-1 18:1 #
1 3:1 #
-1 3:1 #
1 18:1 #
-1 18:1 #
1 3:1 #
-1 3:1 #
1 18:1 #
-1 18:1 #
1 3:1 #
-1 3:1 #
1 18:1 #
-1 18:1 #
1 3:1 #
-1 3:1 #
1 18:1 #
-1 18:1 #
1 3:1 #
-1 3:1 #
1 18:1 #
-1 18:1 #
1 3:1 #
-1 3:1 #
1 18:1 #
-1 18:1 #
1 3:1 #
-1 3:1 #
1 18:1 #
-1 18:1 #
1 3:1 #
-1 3:1 #
1 18:1 #
-1 18:1 #
1 3:1 #
-1 3:1 #
1 18:1 #
-1 18:1 #
1 3:1 #
-1 3:1 #
1 18:1 #
-1 18:1 #
1 3:1 #
-1 3:1 #
1 18:1 #
-1 18:1 #
1 3:1 #
-1 3:1 #
1 18:1 #
-1 18:1 #
1 3:1 #
-1 3:1 #
1 18:1 #
-1 18:1 #
1 3:1 #
-1 3:1 #
1 18:1 #
-1 18:1 #
1 3:1 #
-1 3:1 #
1 18:1 #
-1 18:1 #
1 3:1 #
-1 3:1 #
1 18:1 #
-1 18:1 #
1 3:1 #
-1 3:1 #
1 18:1 #
-1 18:1 #
1 3:1 #
-1 3:1 #
1 18:1 #
-1 18:1 #
1 3:1 #
-1 3:1 #
1 18:1 #
-1 18:1 #
1 3:1 #
-1 3:1 #
1 18:1 #
-1 18:1 #
1 3:1 #
-1 3:1 #
1 18:1 #
-1 18:1 #
1 3:1 #
-1 3:1 #
1 18:1 #
-1 18:1 #
1 3:1 #
-1 3:1 #
1 18:1 #
-1 18:1 #
1 3:1 #
-1 3:1 #
1 18:1 #
-1 18:1 #
1 3:1 #
-1 3:1 #
1 18:1 #
-1 18:1 #
1 3:1 #
-1 3:1 #
1 18:1 #
-1 18:1 #
1 3:1 #
-1 3:1 #
1 18:1 #
-1 18:1 #
1 3:1 #
-1 3:1 #
1 18:1 #
-1 18:1 #
1 3:1 #
-1 3:1 #
1 18:1 #
-1 18:1 #
1 3:1 #
-1 3:1 #
1 18:1 #
-1 18:1 #
1 3:1 #
-1 3:1 #
1 18:1 #
-1 18:1 #
1 3:1 #
-1 3:1 #
1 18:1 #
-1 18:1 #
1 3:1 #
-1 3:1 #
1 18:1 #
-1 18:1 #
1 3:1 #
-1 3:1 #
1 18:1 #
-1 18:1 #
1 3:1 #
-1 3:1 #
1 18:1 #
-1 18:1 #
1 3:1 #
-1 3:1 #
1 18:1 #
-1 18:1 #
1 3:1 #
-1 3:1 #
1 18:1 #
-1 18:1 #
1 3:1 #
-1 3:1 #
1 18:1 #
-1 18:1 #
1 3:1 #
-1 3:1 #
1 18:1 #
-1 18:1 #
1 3:1 #
-1 3:1 #
1 18:1 #
-1 18:1 #
1 3:1 #
-1 3:1 #
1 18:1 #
-1 18:1 #
1 3:1 #
-1 3:1 #
1 18:1 #
-1 18:1 #
1 3:1 #
-1 3:1 #
1 18:1 #
-1 18:1 #
1 3:1 #
-1 3:1 #
1 18:1 #
-1 18:1 #
1 3:1 #
-1 3:1 #
1 18:1 #
-1 18:1 #
1 3:1 #
-1 3:1 #
1 18:1 #
-1 18:1 #
1 3:1 #
-1 3:1 #
1 18:1 #
-1 18:1 #
1 3:1 #
-1 3:1 #
1 18:1 #
-1 18:1 #
1 3:1 #
-1 3:1 #
1 18:1 #
-1 18:1 #
1 3:1 #
-1 3:1 #
1 18:1 #
-1 18:1 #
1 3:1 #
-1 3:1 #
1 18:1 #
-1 18:1 #
1 3:1 #
-1 3:1 #
1 18:1 #
-1 18:1 #
1 3:1 #
-1 3:1 #
1 18:1 #
-1 18:1 #
1 3:1 #
-1 3:1 #
1 18:1 #
-1 18:1 #
1 3:1 #
-1 3:1 #
1 18:1 #
-1 18:1 #
1 3:1 #
-1 3:1 #
1 18:1 #
-1 18:1 #
1 3:1 #
-1 3:1 #
1 18:1 #
-1 18:1 #
1 3:1 #
-1 3:1 #
1 18:1 #
-1 18:1 #
1 3:1 #
-1 3:1 #
1 18:1 #
-1 18:1 #
1 3:1 #
-1 3:1 #
1 18:1 #
-1 18:1 #
1 3:1 #
-1 3:1 #
1 18:1 #
-1 18:1 #
1 3:1 #
-1 3:1 #
1 18:1 #
-1 18:1 #
1 3:1 #
-1 3:1 #
1 18:1 #
-1 18:1 #
1 3:1 #
-1 3:1 #
1 18:1 #
-1 18:1 #
1 3:1 #
-1 3:1 #
1 18:1 #
-1 18:1 #
1 3:1 #
-1 3:1 #
1 18:1 #
-1 18:1 #
1 3:1 #
-1 3:1 #
1 18:1 #
-1 18:1 #
1 3:1 #
-1 3:1 #
1 18:1 #
-1 18:1 #
1 3:1 #
-1 3:1 #
1 18:1 #
-1 18:1 #
1 3:1 #
-1 3:1 #
1 18:1 #
-1 18:1 #
1 3:1 #
-1 3:1 #
1 18:1 #
-1 18:1 #
1 3:1 #
-1 3:1 #
1 18:1 #
-1 18:1 #
1 3:1 #
-1 3:1 #
1 18:1 #
-1 18:1 #
1 3:1 #
-1 3:1 #
1 18:1 #
-1 18:1 #
1 3:1 #
-1 3:1 #
1 18:1 #
-1 18:1 #
1 3:1 #
-1 3:1 #
1 18:1 #
-1 18:1 #
1 3:1 #
-1 3:1 #
1 18:1 #
-1 18:1 #
1 3:1 #
-1 3:1 #
1 18:1 #
-1 18:1 #
1 3:1 #
-1 3:1 #
1 18:1 #
-1 18:1 #
1 3:1 #
-1 3:1 #
1 18:1 #
-1 18:1 #
1 3:1 #
-1 3:1 #
1 18:1 #
-1 18:1 #
1 3:1 #
-1 3:1 #
1 18:1 #
-1 18:1 #
1 3:1 #
-1 3:1 #
1 18:1 #
-1 18:1 #
1 3:1 #
-1 3:1 #
1 18:1 #
-1 18:1 #
1 3:1 #
-1 3:1 #
1 18:1 #
-1 18:1 #
1 3:1 #
-1 3:1 #
1 18:1 #
-1 18:1 #
1 3:1 #
-1 3:1 #
1 18:1 #
-1 18:1 #
1 3:1 #
-1 3:1 #
1 18:1 #
-1 18:1 #
1 3:1 #
-1 3:1 #
1 18:1 #
-1 18:1 #
1 3:1 #
-1 3:1 #
1 18:1 #
-1 18:1 #
1 3:1 #
-1 3:1 #
1 18:1 #
-1 18:1 #
1 3:1 #
-1 3:1 #
1 18:1 #
-1 18:1 #
1 3:1 #
-1 3:1 #
1 18:1 #
-1 18:1 #
1 3:1 #
-1 3:1 #
1 18:1 #
-1 18:1 #
1 3:1 #
-1 3:1 #
1 18:1 #
-1 18:1 #
1 3:1 #
-1 3:1 #
1 18:1 #
-1 18:1 #
1 3:1 #
-1 3:1 #
1 18:1 #
-1 18:1 #
1 3:1 #
-1 3:1 #
1 18:1 #
-1 18:1 #
1 3:1 #
-1 3:1 #
1 18:1 #
-1 18:1 #
1 3:1 #
-1 3:1 #
1 18:1 #
-1 18:1 #
1 3:1 #
-1 3:1 #
1 18:1 #
-1 18:1 #
1 3:1 #
-1 3:1 #
1 18:1 #
-1 18:1 #
1 3:1 #
-1 3:1 #
1 18:1 #
-1 18:1 #
1 3:1 #
-1 3:1 #
1 18:1 #
-1 18:1 #
1 3:1 #
-1 3:1 #
1 18:1 #
-1 18:1 #
1 3:1 #
-1 3:1 #
1 18:1 #
-1 18:1 #
1 3:1 #
-1 3:1 #
1 18:1 #
-1 18:1 #
1 3:1 #
-1 3:1 #
1 18:1 #
-1 18:1 #
1 3:1 #
-1 3:1 #
1 18:1 #
-1 18:1 #
1 3:1 #
-1 3:1 #
1 18:1 #
-1 18:1 #
1 3:1 #
-1 3:1 #
1 18:1 #
-1 18:1 #
1 3:1 #
-1 3:1 #
1 18:1 #
-1 18:1 #
1 3:1 #
-1 3:1 #
1 18:1 #
-1 18:1 #
1 3:1 #
-1 3:1 #
1 18:1 #
-1 18:1 #
1 3:1 #
-1 3:1 #
1 18:1 #
-1 18:1 #
1 3:1 #
-1 3:1 #
1 18:1 #
-1 18:1 #
1 3:1 #
-1 3:1 #
1 18:1 #
-1 18:1 #
1 3:1 #
-1 3:1 #
1 18:1 #
-1 18:1 #
1 3:1 #
-1 3:1 #
1 18:1 #
-1 18:1 #
1 3:1 #
-1 3:1 #
1 18:1 #
-1 18:1 #
1 3:1 #
-1 3:1 #
1 18:1 #
-1 18:1 #
1 3:1 #
-1 3:1 #
1 18:1 #
-1 18:1 #
1 3:1 #
-1 3:1 #
1 18:1 #
-1 18:1 #
1 3:1 #
-1 3:1 #
1 18:1 #
-1 18:1 #
1 3:1 #
-1 3:1 #
1 18:1 #
-1 18:1 #
1 3:1 #
-1 3:1 #
1 18:1 #
-1 18:1 #
1 3:1 #
-1 3:1 #
1 18:1 #
-1 18:1 #
1 3:1 #
-1 3:1 #
1 18:1 #
-1 18:1 #
1 3:1 #
-1 3:1 #
1 18:1 #
-1 18:1 #
1 3:1 #
-1 3:1 #
1 18:1 #
-1 18:1 #
1 3:1 #
-1 3:1 #
1 18:1 #
-1 18:1 #
1 3:1 #
-1 3:1 #
1 18:1 #
-1 18:1 #
1 3:1 #
-1 3:1 #
1 18:1 #
-1 18:1 #
1 3:1 #
-1 3:1 #
1 18:1 #
-1 18:1 #
1 3:1 #
-1 3:1 #
1 18:1 #
-1 18:1 #
1 3:1 #
-1 3:1 #
1 18:1 #
-1 18:1 #
1 3:1 #
-1 3:1 #
1 18:1 #
-1 18:1 #
1 3:1 #
-1 3:1 #
1 18:1 #
-1 18:1 #
1 3:1 #
-1 3:1 #
1 18:1 #
-1 18:1 #
1 3:1 #
-1 3:1 #
1 18:1 #
-1 18:1 #
1 3:1 #
-1 3:1 #
1 18:1 #
-1 18:1 #
1 3:1 #
-1 3:1 #
1 18:1 #
-1 18:1 #
1 3:1 #
-1 3:1 #
1 18:1 #
-1 18:1 #
1 3:1 #
-1 3:1 #
1 18:1 #
-1 18:1 #
1 3:1 #
-1 3:1 #
1 18:1 #
-1 18:1 #
1 3:1 #
-1 3:1 #
1 18:1 #
-1 18:1 #
1 3:1 #
-1 3:1 #
1 18:1 #
-1 18:1 #
1 3:1 #
-1 3:1 #
1 18:1 #
-1 18:1 #
1 3:1 #
-1 3:1 #
1 18:1 #
-1 18:1 #
1 3:1 #
-1 3:1 #
1 18:1 #
-1 18:1 #
1 3:1 #
-1 3:1 #
1 18:1 #
-1 18:1 #
1 3:1 #
-1 3:1 #
1 18:1 #
-1 18:1 #
1 3:1 #
-1 3:1 #
1 18:1 #
-1 18:1 #
1 3:1 #
-1 3:1 #
1 18:1 #
-1 18:1 #
1 3:1 #
-1 3:1 #
1 18:1 #
-1 18:1 #
1 3:1 #
-1 3:1 #
1 18:1 #
-1 18:1 #
1 3:1 #
-1 3:1 #
1 18:1 #
-1 18:1 #
1 3:1 #
-1 3:1 #
1 18:1 #
-1 18:1 #
1 3:1 #
-1 3:1 #
1 18:1 #
-1 18:1 #
1 3:1 #
-1 3:1 #
1 18:1 #
-1 18:1 #
1 3:1 #
-1 3:1 #
1 18:1 #
-1 18:1 #
1 3:1 #
-1 3:1 #
1 18:1 #
-1 18:1 #
1 3:1 #
-1 3:1 #
1 18:1 #
-1 18:1 #
1 3:1 #
-1 3:1 #
1 18:1 #
-1 18:1 #
1 3:1 #
-1 3:1 #
1 18:1 #
-1 18:1 #
1 3:1 #
-1 3:1 #
1 18:1 #
-1 18:1 #
1 3:1 #
-1 3:1 #
1 18:1 #
-1 18:1 #
1 3:1 #
-1 3:1 #
1 18:1 #
-1 18:1 #
1 3:1 #
-1 3:1 #
1 18:1 #
-1 18:1 #
1 3:1 #
-1 3:1 #
1 18:1 #
-1 18:1 #
1 3:1 #
-1 3:1 #
1 18:1 #
-1 18:1 #
1 3:1 #
-1 3:1 #
1 18:1 #
-1 18:1 #
1 3:1 #
-1 3:1 #
1 18:1 #
-1 18:1 #
1 3:1 #
-1 3:1 #
1 18:1 #
-1 18:1 #
1 3:1 #
-1 3:1 #
1 18:1 #
-1 18:1 #
1 3:1 #
-1 3:1 #
1 18:1 #
-1 18:1 #
1 3:1 #
-1 3:1 #
1 18:1 #
-1 18:1 #
1 3:1 #
-1 3:1 #
1 18:1 #
-1 18:1 #
1 3:1 #
-1 3:1 #
1 18:1 #
-1 18:1 #
1 3:1 #
-1 3:1 #
1 18:1 #
-1 18:1 #
1 3:1 #
-1 3:1 #
1 18:1 #
-1 18:1 #
1 3:1 #
-1 3:1 #
1 18:1 #
-1 18:1 #
1 3:1 #
-1 3:1 #
1 18:1 #
-1 18:1 #
1 3:1 #
-1 3:1 #
1 18:1 #
-1 18:1 #
1 3:1 #
-1 3:1 #
1 18:1 #
-1 18:1 #
1 3:1 #
-1 3:1 #
1 18:1 #
-1 18:1 #
1 3:1 #
-1 3:1 #
1 18:1 #
-1 18:1 #
1 3:1 #
-1 3:1 #
1 18:1 #
-1 18:1 #
1 3:1 #
-1 3:1 #
1 18:1 #
-1 18:1 #
1 3:1 #
-1 3:1 #
1 18:1 #
-1 18:1 #
1 3:1 #
-1 3:1 #
1 18:1 #
-1 18:1 #
1 3:1 #
-1 3:1 #
1 18:1 #
-1 18:1 #
1 3:1 #
-1 3:1 #
1 18:1 #
-1 18:1 #
1 3:1 #
-1 3:1 #
1 18:1 #
-1 18:1 #
1 3:1 #
-1 3:1 #
1 18:1 #
-1 18:1 #
1 3:1 #
-1 3:1 #
1 18:1 #
-1 18:1 #
1 3:1 #
-1 3:1 #
1 18:1 #
-1 18:1 #
1 3:1 #
-1 3:1 #
1 18:1 #
-1 18:1 #
1 3:1 #
-1 3:1 #
1 18:1 #
-1 18:1 #
1 3:1 #
-1 3:1 #
1 18:1 #
-1 18:1 #
1 3:1 #
-1 3:1 #
1 18:1 #
-1 18:1 #
1 3:1 #
-1 3:1 #
1 18:1 #
-1 18:1 #
1 3:1 #
-1 3:1 #
1 18:1 #
-1 18:1 #
1 3:1 #
-1 3:1 #
1 18:1 #
-1 18:1 #
1 3:1 #
-1 3:1 #
1 18:1 #
-1 18:1 #
1 3:1 #
-1 3:1 #
1 18:1 #
-1 18:1 #
1 3:1 #
-1 3:1 #
1 18:1 #
-1 18:1 #
1 3:1 #
-1 3:1 #
1 18:1 #
-1 18:1 #
1 3:1 #
-1 3:1 #
1 18:1 #
-1 18:1 #
1 3:1 #
-1 3:1 #
1 18:1 #
-1 18:1 #
1 3:1 #
-1 3:1 #
1 18:1 #
-1 18:1 #
1 3:1 #
-1 3:1 #
1 18:1 #
-1 18:1 #
1 3:1 #
-1 3:1 #
1 18:1 #
-1 18:1 #
1 3:1 #
-1 3:1 #
1 18:1 #
-1 18:1 #
1 3:1 #
-1 3:1 #
1 18:1 #
-1 18:1 #
1 3:1 #
-1 3:1 #
1 18:1 #
-1 18:1 #
1 3:1 #
-1 3:1 #
1 18:1 #
-1 18:1 #
1 3:1 #
-1 3:1 #
1 18:1 #
-1 18:1 #
1 3:1 #
-1 3:1 #
1 18:1 #
-1 18:1 #
1 3:1 #
-1 3:1 #
1 18:1 #
-1 18:1 #
1 3:1 #
-1 3:1 #
1 18:1 #
-1 18:1 #
1 3:1 #
-1 3:1 #
1 18:1 #
-1 18:1 #
1 3:1 #
-1 3:1 #
1 18:1 #
-1 18:1 #
1 3:1 #
-1 3:1 #
1 18:1 #
-1 18:1 #
1 3:1 #
-1 3:1 #
1 18:1 #
-1 18:1 #
1 3:1 #
-1 3:1 #
1 18:1 #
-1 18:1 #
1 3:1 #
-1 3:1 #
1 18:1 #
-1 18:1 #
1 3:1 #
-1 3:1 #
1 18:1 #
-1 18:1 #
1 3:1 #
-1 3:1 #
1 18:1 #
-1 18:1 #
1 3:1 #
-1 3:1 #
1 18:1 #
-1 18:1 #
1 3:1 #
-1 3:1 #
1 18:1 #
-1 18:1 #
1 3:1 #
-1 3:1 #
1 18:1 #
-1 18:1 #
1 3:1 #
-1 3:1 #
1 18:1 #
-1 18:1 #
1 3:1 #
-1 3:1 #
1 18:1 #
-1 18:1 #
1 3:1 #
-1 3:1 #
1 18:1 #
-1 18:1 #
1 3:1 #
-1 3:1 #
1 18:1 #
-1 18:1 #
1 3:1 #
-1 3:1 #
1 18:1 #
-1 18:1 #
1 3:1 #
-1 3:1 #
1 18:1 #
-1 18:1 #
1 3:1 #
-1 3:1 #
1 18:1 #
-1 18:1 #
1 3:1 #
-1 3:1 #
1 18:1 #
-1 18:1 #
1 3:1 #
-1 3:1 #
1 18:1 #
-1 18:1 #
1 3:1 #
-1 3:1 #
1 18:1 #
-1 18:1 #
1 3:1 #
-1 3:1 #
1 18:1 #
-1 18:1 #
1 3:1 #
-1 3:1 #
1 18:1 #
-1 18:1 #
1 3:1 #
-1 3:1 #
1 18:1 #
-1 18:1 #
1 3:1 #
-1 3:1 #
1 18:1 #
-1 18:1 #
1 3:1 #
-1 3:1 #
1 18:1 #
-1 18:1 #
1 3:1 #
-1 3:1 #
1 18:1 #
-1 18:1 #
1 3:1 #
-1 3:1 #
1 18:1 #
-1 18:1 #
1 3:1 #
-1 3:1 #
1 18:1 #
-1 18:1 #
1 3:1 #
-1 3:1 #
1 18:1 #
-1 18:1 #
1 3:1 #
-1 3:1 #
1 18:1 #
-1 18:1 #
1 3:1 #
-1 3:1 #
1 18:1 #
-1 18:1 #
1 3:1 #
-1 3:1 #
1 18:1 #
-1 18:1 #
1 3:1 #
-1 3:1 #
1 18:1 #
-1 18:1 #
1 3:1 #
-1 3:1 #
1 18:1 #
-1 18:1 #
1 3:1 #
-1 3:1 #
1 18:1 #
-1 18:1 #
1 3:1 #
-1 3:1 #
1 18:1 #
-1 18:1 #
1 3:1 #
-1 3:1 #
1 18:1 #
-1 18:1 #
1 3:1 #
-1 3:1 #
1 18:1 #
-1 18:1 #
1 3:1 #
-1 3:1 #
1 18:1 #
-1 18:1 #
1 3:1 #
-1 3:1 #
1 18:1 #
-1 18:1 #
1 3:1 #
-1 3:1 #
1 18:1 #
-1 18:1 #
1 3:1 #
-1 3:1 #
1 18:1 #
-1 18:1 #
1 3:1 #
-1 3:1 #
1 18:1 #
-1 18:1 #
1 3:1 #
-1 3:1 #
1 18:1 #
-1 18:1 #
1 3:1 #
-1 3:1 #
1 18:1 #
-1 18:1 #
1 3:1 #
-1 3:1 #
1 18:1 #
-1 18:1 #
1 3:1 #
-1 3:1 #
1 18:1 #
-1 18:1 #
1 3:1 #
-1 3:1 #
1 18:1 #
-1 18:1 #
1 3:1 #
-1 3:1 #
1 18:1 #
-1 18:1 #
1 3:1 #
-1 3:1 #
1 18:1 #
-1 18:1 #
1 3:1 #
-1 3:1 #
1 18:1 #
-1 18:1 #
1 3:1 #
-1 3:1 #
1 18:1 #
-1 18:1 #
1 3:1 #
-1 3:1 #
1 18:1 #
-1 18:1 #
1 3:1 #
-1 3:1 #
1 18:1 #
-1 18:1 #
1 3:1 #
-1 3:1 #
1 18:1 #
-1 18:1 #
1 3:1 #
-1 3:1 #
1 18:1 #
-1 18:1 #
1 3:1 #
-1 3:1 #
1 18:1 #
-1 18:1 #
1 3:1 #
-1 3:1 #
1 18:1 #
-1 18:1 #
1 3:1 #
-1 3:1 #
1 18:1 #
-1 18:1 #
1 3:1 #
-1 3:1 #
1 18:1 #
-1 18:1 #
1 3:1 #
-1 3:1 #
1 18:1 #
-1 18:1 #
1 3:1 #
-1 3:1 #
1 18:1 #
-1 18:1 #
1 3:1 #
-1 3:1 #
1 18:1 #
-1 18:1 #
1 3:1 #
-1 3:1 #
1 18:1 #
-1 18:1 #
1 3:1 #
-1 3:1 #
1 18:1 #
-1 18:1 #
1 3:1 #
-1 3:1 #
1 18:1 #
-1 18:1 #
1 3:1 #
-1 3:1 #
1 18:1 #
-1 18:1 #
1 3:1 #
-1 3:1 #
1 18:1 #
-1 18:1 #
1 3:1 #
-1 3:1 #
1 18:1 #
-1 18:1 #
1 3:1 #
-1 3:1 #
1 18:1 #
-1 18:1 #
1 3:1 #
-1 3:1 #
1 18:1 #
-1 18:1 #
1 3:1 #
-1 3:1 #
1 18:1 #
-1 18:1 #
1 3:1 #
-1 3:1 #
1 18:1 #
-1 18:1 #
1 3:1 #
-1 3:1 #
1 18:1 #
-1 18:1 #
1 3:1 #
-1 3:1 #
1 18:1 #
-1 18:1 #
1 3:1 #
-1 3:1 #
1 18:1 #
-1 18:1 #
1 3:1 #
-1 3:1 #
1 18:1 #
-1 18:1 #
1 3:1 #
-1 3:1 #
1 18:1 #
-1 18:1 #
1 3:1 #
-1 3:1 #
1 18:1 #
-1 18:1 #
1 3:1 #
-1 3:1 #
1 18:1 #
-1 18:1 #
1 3:1 #
-1 3:1 #
1 18:1 #
-1 18:1 #
1 3:1 #
-1 3:1 #
1 18:1 #
-1 18:1 #
1 3:1 #
-1 3:1 #
1 18:1 #
-1 18:1 #
1 3:1 #
-1 3:1 #
1 18:1 #
-1 18:1 #
1 3:1 #
-1 3:1 #
1 18:1 #
-1 18:1 #
1 3:1 #
-1 3:1 #
1 18:1 #
-1 18:1 #
1 3:1 #
-1 3:1 #
1 18:1 #
-1 18:1 #
1 3:1 #
-1 3:1 #
1 18:1 #
-1 18:1 #
1 3:1 #
-1 3:1 #
1 18:1 #
-1 18:1 #
1 3:1 #
-1 3:1 #
1 18:1 #
-1 18:1 #
1 3:1 #
-1 3:1 #
1 18:1 #
-1 18:1 #
1 3:1 #
-1 3:1 #
1 18:1 #
-1 18:1 #
1 3:1 #
-1 3:1 #
1 18:1 #
-1 18:1 #
1 3:1 #
-1 3:1 #
1 18:1 #
-1 18:1 #
1 3:1 #
-1 3:1 #
1 18:1 #
-1 18:1 #
1 3:1 #
-1 3:1 #
1 18:1 #
-1 18:1 #
1 3:1 #
-1 3:1 #
1 18:1 #
-1 18:1 #
1 3:1 #
-1 3:1 #
1 18:1 #
-1 18:1 #
1 3:1 #
-1 3:1 #
1 18:1 #
-1 18:1 #
1 3:1 #
-1 3:1 #
1 18:1 #
-1 18:1 #
1 3:1 #
-1 3:1 #
1 18:1 #
-1 18:1 #
1 3:1 #
-1 3:1 #
1 18:1 #
-1 18:1 #
1 3:1 #
-1 3:1 #
1 18:1 #
-1 18:1 #
1 3:1 #
-1 3:1 #
1 18:1 #
-1 18:1 #
1 3:1 #
-1 3:1 #
1 18:1 #
-1 18:1 #
1 3:1 #
-1 3:1 #
1 18:1 #
-1 18:1 #
1 3:1 #
-1 3:1 #
1 18:1 #
-1 18:1 #
1 3:1 #
-1 3:1 #
1 18:1 #
-1 18:1 #
1 3:1 #
-1 3:1 #
1 18:1 #
-1 18:1 #
1 3:1 #
-1 3:1 #
1 18:1 #
-1 18:1 #
1 3:1 #
-1 3:1 #
1 18:1 #
-1 18:1 #
1 3:1 #
-1 3:1 #
1 18:1 #
-1 18:1 #
1 3:1 #
-1 3:1 #
1 18:1 #
-1 18:1 #
1 3:1 #
-1 3:1 #
1 18:1 #
-1 18:1 #
1 3:1 #
-1 3:1 #
1 18:1 #
-1 18:1 #
1 3:1 #
-1 3:1 #
1 18:1 #
-1 18:1 #
1 3:1 #
-1 3:1 #
1 18:1 #
-1 18:1 #
1 3:1 #
-1 3:1 #
1 18:1 #
-1 18:1 #
1 3:1 #
-1 3:1 #
1 18:1 #
-1 18:1 #
1 3:1 #
-1 3:1 #
1 18:1 #
-1 18:1 #
1 3:1 #
-1 3:1 #
1 18:1 #
-1 18:1 #
1 3:1 #
-1 3:1 #
1 18:1 #
-1 18:1 #
1 3:1 #
-1 3:1 #
1 18:1 #
-1 18:1 #
1 3:1 #
-1 3:1 #
1 18:1 #
-1 18:1 #
1 3:1 #
-1 3:1 #
1 18:1 #
-1 18:1 #
1 3:1 #
-1 3:1 #
1 18:1 #
-1 18:1 #
1 3:1 #
-1 3:1 #
1 18:1 #
-1 18:1 #
1 3:1 #
-1 3:1 #
1 18:1 #
-1 18:1 #
1 3:1 #
-1 3:1 #
1 18:1 #
-1 18:1 #
1 3:1 #
-1 3:1 #
1 18:1 #
-1 18:1 #
1 3:1 #
-1 3:1 #
1 18:1 #
-1 18:1 #
1 3:1 #
-1 3:1 #
1 18:1 #
-1 18:1 #
1 3:1 #
-1 3:1 #
1 18:1 #
-1 18:1 #
1 3:1 #
-1 3:1 #
1 18:1 #
-1 18:1 #
1 3:1 #
-1 3:1 #
1 18:1 #
-1 18:1 #
1 3:1 #
-1 3:1 #
1 18:1 #
-1 18:1 #
1 3:1 #
-1 3:1 #
1 18:1 #
-1 18:1 #
1 3:1 #
-1 3:1 #
1 18:1 #
-1 18:1 #
1 3:1 #
-1 3:1 #
1 18:1 #
-1 18:1 #
1 3:1 #
-1 3:1 #
1 18:1 #
-1 18:1 #
1 3:1 #
-1 3:1 #
1 18:1 #
-1 18:1 #
1 3:1 #
-1 3:1 #
1 18:1 #
-1 18:1 #
1 3:1 #
-1 3:1 #
1 18:1 #
-1 18:1 #
1 3:1 #
-1 3:1 #
1 18:1 #
-1 18:1 #
1 3:1 #
-1 3:1 #
1 18:1 #
-1 18:1 #
1 3:1 #
-1 3:1 #
1 18:1 #
-1 18:1 #
1 3:1 #
-1 3:1 #
1 18:1 #
-1 18:1 #
1 3:1 #
-1 3:1 #
1 18:1 #
-1 18:1 #
1 3:1 #
-1 3:1 #
1 18:1 #
-1 18:1 #
1 3:1 #
-1 3:1 #
1 18:1 #
-1 18:1 #
1 3:1 #
-1 3:1 #
1 18:1 #
-1 18:1 #
1 3:1 #
-1 3:1 #
1 18:1 #
-1 18:1 #
1 3:1 #
-1 3:1 #
1 18:1 #
-1 18:1 #
1 3:1 #
-1 3:1 #
1 18:1 #
-1 18:1 #
1 3:1 #
-1 3:1 #
1 18:1 #
-1 18:1 #
1 3:1 #
-1 3:1 #
1 18:1 #
-1 18:1 #
1 3:1 #
-1 3:1 #
1 18:1 #
-1 18:1 #
1 3:1 #
-1 3:1 #
1 18:1 #
-1 18:1 #
1 3:1 #
-1 3:1 #
1 18:1 #
-1 18:1 #
1 3:1 #
-1 3:1 #
1 18:1 #
-1 18:1 #
1 3:1 #
-1 3:1 #
1 18:1 #
-1 18:1 #
1 3:1 #
-1 3:1 #
1 18:1 #
-1 18:1 #
1 3:1 #
-1 3:1 #
1 18:1 #
-1 18:1 #
1 3:1 #
-1 3:1 #
1 18:1 #
-1 18:1 #
1 3:1 #
-1 3:1 #
1 18:1 #
-1 18:1 #
1 3:1 #
-1 3:1 #
1 18:1 #
-1 18:1 #
1 3:1 #
-1 3:1 #
1 18:1 #
-1 18:1 #
1 3:1 #
-1 3:1 #
1 18:1 #
-1 18:1 #
1 3:1 #
-1 3:1 #
1 18:1 #
-1 18:1 #
1 3:1 #
-1 3:1 #
1 18:1 #
-1 18:1 #
1 3:1 #
-1 3:1 #
1 18:1 #
-1 18:1 #
1 3:1 #
-1 3:1 #
1 18:1 #
-1 18:1 #
1 3:1 #
-1 3:1 #
1 18:1 #
-1 18:1 #
1 3:1 #
-1 3:1 #
1 18:1 #
-1 18:1 #
1 3:1 #
-1 3:1 #
1 18:1 #
-1 18:1 #
1 3:1 #
-1 3:1 #
1 18:1 #
-1 18:1 #
1 3:1 #
-1 3:1 #
1 18:1 #
-1 18:1 #
1 3:1 #
-1 3:1 #
1 18:1 #
-1 18:1 #
1 3:1 #
-1 3:1 #
1 18:1 #
-1 18:1 #
1 3:1 #
-1 3:1 #
1 18:1 #
-1 18:1 #
1 3:1 #
-1 3:1 #
1 18:1 #
-1 18:1 #
1 3:1 #
-1 3:1 #
1 18:1 #
-1 18:1 #
1 3:1 #
-1 3:1 #
1 18:1 #
-1 18:1 #
1 3:1 #
-1 3:1 #
1 18:1 #
-1 18:1 #
1 3:1 #
-1 3:1 #
1 18:1 #
-1 18:1 #
1 3:1 #
-1 3:1 #
1 18:1 #
-1 18:1 #
1 3:1 #
-1 3:1 #
1 18:1 #
-1 18:1 #
1 3:1 #
-1 3:1 #
1 18:1 #
-1 18:1 #
1 3:1 #
-1 3:1 #
1 18:1 #
-1 18:1 #
1 3:1 #
-1 3:1 #
1 18:1 #
-1 18:1 #
1 3:1 #
-1 3:1 #
1 18:1 #
-1 18:1 #
1 3:1 #
-1 3:1 #
1 18:1 #
-1 18:1 #
1 3:1 #
-1 3:1 #
1 18:1 #
-1 18:1 #
1 3:1 #
-1 3:1 #
1 18:1 #
-1 18:1 #
1 3:1 #
-1 3:1 #
1 18:1 #
-1 18:1 #
1 3:1 #
-1 3:1 #
1 18:1 #
-1 18:1 #
1 3:1 #
-1 3:1 #
1 18:1 #
-1 18:1 #
1 3:1 #
-1 3:1 #
1 18:1 #
-1 18:1 #
1 3:1 #
-1 3:1 #
1 18:1 #
-1 18:1 #
1 3:1 #
-1 3:1 #
1 18:1 #
-1 18:1 #
1 3:1 #
-1 3:1 #
1 18:1 #
-1 18:1 #
1 3:1 #
-1 3:1 #
1 18:1 #
-1 18:1 #
1 3:1 #
-1 3:1 #
1 18:1 #
-1 18:1 #
1 3:1 #
-1 3:1 #
1 18:1 #
-1 18:1 #
1 3:1 #
-1 3:1 #
1 18:1 #
-1 18:1 #
1 3:1 #
-1 3:1 #
1 18:1 #
-1 18:1 #
1 3:1 #
-1 3:1 #
1 18:1 #
-1 18:1 #
1 3:1 #
-1 3:1 #
1 18:1 #
-1 18:1 #
1 3:1 #
-1 3:1 #
1 18:1 #
-1 18:1 #
1 3:1 #
-1 3:1 #
1 18:1 #
-1 18:1 #
1 3:1 #
-1 3:1 #
1 18:1 #
-1 18:1 #
1 3:1 #
-1 3:1 #
1 18:1 #
-1 18:1 #
1 3:1 #
-1 3:1 #
1 18:1 #
-1 18:1 #
1 3:1 #
-1 3:1 #
1 18:1 #
-1 18:1 #
1 3:1 #
-1 3:1 #
1 18:1 #
-1 18:1 #
1 3:1 #
-1 3:1 #
1 18:1 #
-1 18:1 #
1 3:1 #
-1 3:1 #
1 18:1 #
-1 18:1 #
1 3:1 #
-1 3:1 #
1 18:1 #
-1 18:1 #
1 3:1 #
-1 3:1 #
1 18:1 #
-1 18:1 #
1 3:1 #
-1 3:1 #
1 18:1 #
-1 18:1 #
1 3:1 #
-1 3:1 #
1 18:1 #
-1 18:1 #
1 3:1 #
-1 3:1 #
1 18:1 #
-1 18:1 #
1 3:1 #
-1 3:1 #
1 18:1 #
-1 18:1 #
1 3:1 #
-1 3:1 #
1 18:1 #
-1 18:1 #
1 3:1 #
-1 3:1 #
1 18:1 #
-1 18:1 #
1 3:1 #
-1 3:1 #
1 18:1 #
-1 18:1 #
1 3:1 #
-1 3:1 #
1 18:1 #
-1 18:1 #
1 3:1 #
-1 3:1 #
1 18:1 #
-1 18:1 #
1 3:1 #
-1 3:1 #
1 18:1 #
-1 18:1 #
1 3:1 #
-1 3:1 #
1 18:1 #
-1 18:1 #
1 3:1 #
-1 3:1 #
1 18:1 #
-1 18:1 #
1 3:1 #
-1 3:1 #
1 18:1 #
-1 18:1 #
1 3:1 #
-1 3:1 #
1 18:1 #
-1 18:1 #
1 3:1 #
-1 3:1 #
1 18:1 #
-1 18:1 #
1 3:1 #
-1 3:1 #
1 18:1 #
-1 18:1 #
1 3:1 #
-1 3:1 #
1 18:1 #
-1 18:1 #
1 3:1 #
-1 3:1 #
1 18:1 #
-1 18:1 #
1 3:1 #
-1 3:1 #
1 18:1 #
-1 18:1 #
1 3:1 #
-1 3:1 #
1 18:1 #
-1 18:1 #
1 3:1 #
-1 3:1 #
1 18:1 #
-1 18:1 #
1 3:1 #
-1 3:1 #
1 18:1 #
-1 18:1 #
1 3:1 #
-1 3:1 #
1 18:1 #
-1 18:1 #
1 3:1 #
-1 3:1 #
1 18:1 #
-1 18:1 #
1 3:1 #
-1 3:1 #
1 18:1 #
-1 18:1 #
1 3:1 #
-1 3:1 #
1 18:1 #
-1 18:1 #
1 3:1 #
-1 3:1 #
1 18:1 #
-1 18:1 #
1 3:1 #
-1 3:1 #
1 18:1 #
-1 18:1 #
1 3:1 #
-1 3:1 #
1 18:1 #
-1 18:1 #
1 3:1 #
-1 3:1 #
1 18:1 #
-1 18:1 #
1 3:1 #
-1 3:1 #
1 18:1 #
-1 18:1 #
1 3:1 #
-1 3:1 #
1 18:1 #
-1 18:1 #
1 3:1 #
-1 3:1 #
1 18:1 #
-1 18:1 #
1 3:1 #
-1 3:1 #
1 18:1 #
-1 18:1 #
1 3:1 #
-1 3:1 #
1 18:1 #
-1 18:1 #
1 3:1 #
-1 3:1 #
1 18:1 #
-1 18:1 #
1 3:1 #
-1 3:1 #
1 18:1 #
-1 18:1 #
1 3:1 #
-1 3:1 #
1 18:1 #
-1 18:1 #
1 3:1 #
-1 3:1 #
1 18:1 #
-1 18:1 #
1 3:1 #
-1 3:1 #
1 18:1 #
-1 18:1 #
1 3:1 #
-1 3:1 #
1 18:1 #
-1 18:1 #
1 3:1 #
-1 3:1 #
1 18:1 #
-1 18:1 #
1 3:1 #
-1 3:1 #
1 18:1 #
-1 18:1 #
1 3:1 #
-1 3:1 #
1 18:1 #
-1 18:1 #
1 3:1 #
-1 3:1 #
1 18:1 #
-1 18:1 #
1 3:1 #
-1 3:1 #
1 18:1 #
-1 18:1 #
1 3:1 #
-1 3:1 #
1 18:1 #
-1 18:1 #
1 3:1 #
-1 3:1 #
1 18:1 #
-1 18:1 #
1 3:1 #
-1 3:1 #
1 18:1 #
-1 18:1 #
1 3:1 #
-1 3:1 #
1 18:1 #
-1 18:1 #
1 3:1 #
-1 3:1 #
1 18:1 #
-1 18:1 #
1 3:1 #
-1 3:1 #
1 18:1 #
-1 18:1 #
1 3:1 #
-1 3:1 #
1 18:1 #
-1 18:1 #
1 3:1 #
-1 3:1 #
1 18:1 #
-1 18:1 #
1 3:1 #
-1 3:1 #
1 18:1 #
-1 18:1 #
1 3:1 #
-1 3:1 #
1 18:1 #
-1 18:1 #
1 3:1 #
-1 3:1 #
1 18:1 #
-1 18:1 #
1 3:1 #
-1 3:1 #
1 18:1 #
-1 18:1 #
1 3:1 #
-1 3:1 #
1 18:1 #
-1 18:1 #
1 3:1 #
-1 3:1 #
1 18:1 #
-1 18:1 #
1 3:1 #
-1 3:1 #
1 18:1 #
-1 18:1 #
1 3:1 #
-1 3:1 #
1 18:1 #
-1 18:1 #
1 3:1 #
-1 3:1 #
1 18:1 #
-1 18:1 #
1 3:1 #
-1 3:1 #
1 18:1 #
-1 18:1 #
1 3:1 #
-1 3:1 #
1 18:1 #
-1 18:1 #
1 3:1 #
-1 3:1 #
1 18:1 #
-1 18:1 #
1 3:1 #
-1 3:1 #
1 18:1 #
-1 18:1 #
1 3:1 #
-1 3:1 #
1 18:1 #
-1 18:1 #
1 3:1 #
-1 3:1 #
1 18:1 #
-1 18:1 #
1 3:1 #
-1 3:1 #
1 18:1 #
-1 18:1 #
1 3:1 #
-1 3:1 #
1 18:1 #
-1 18:1 #
1 3:1 #
-1 3:1 #
1 18:1 #
-1 18:1 #
1 3:1 #
-1 3:1 #
1 18:1 #
-1 18:1 #
1 3:1 #
-1 3:1 #
1 18:1 #
-1 18:1 #
1 3:1 #
-1 3:1 #
1 18:1 #
-1 18:1 #
1 3:1 #
-1 3:1 #
1 18:1 #
-1 18:1 #
1 3:1 #
-1 3:1 #
1 18:1 #
-1 18:1 #
1 3:1 #
-1 3:1 #
1 18:1 #
-1 18:1 #
1 3:1 #
-1 3:1 #
1 18:1 #
-1 18:1 #
1 3:1 #
-1 3:1 #
1 18:1 #
-1 18:1 #
1 3:1 #
-1 3:1 #
1 18:1 #
-1 18:1 #
1 3:1 #
-1 3:1 #
1 18:1 #
-1 18:1 #
1 3:1 #
-1 3:1 #
1 18:1 #
-1 18:1 #
1 3:1 #
-1 3:1 #
1 18:1 #
-1 18:1 #
1 3:1 #
-1 3:1 #
1 18:1 #
-1 18:1 #
1 3:1 #
-1 3:1 #
1 18:1 #
-1 18:1 #
1 3:1 #
-1 3:1 #
1 18:1 #
-1 18:1 #
1 3:1 #
-1 3:1 #
1 18:1 #
-1 18:1 #
1 3:1 #
-1 3:1 #
1 18:1 #
-1 18:1 #
1 3:1 #
-1 3:1 #
1 18:1 #
-1 18:1 #
1 3:1 #
-1 3:1 #
1 18:1 #
-1 18:1 #
1 3:1 #
-1 3:1 #
1 18:1 #
-1 18:1 #
1 3:1 #
-1 3:1 #
1 18:1 #
-1 18:1 #
1 3:1 #
-1 3:1 #
1 18:1 #
-1 18:1 #
1 3:1 #
-1 3:1 #
1 18:1 #
-1 18:1 #
1 3:1 #
-1 3:1 #
1 18:1 #
-1 18:1 #
1 3:1 #
-1 3:1 #
1 18:1 #
-1 18:1 #
1 3:1 #
-1 3:1 #
1 18:1 #
-1 18:1 #
1 3:1 #
-1 3:1 #
1 18:1 #
-1 18:1 #
1 3:1 #
-1 3:1 #
1 18:1 #
-1 18:1 #
1 3:1 #
-1 3:1 #
1 18:1 #
-1 18:1 #
1 3:1 #
-1 3:1 #
1 18:1 #
-1 18:1 #
1 3:1 #
-1 3:1 #
1 18:1 #
-1 18:1 #
1 3:1 #
-1 3:1 #
1 18:1 #
-1 18:1 #
1 3:1 #
-1 3:1 #
1 18:1 #
-1 18:1 #
1 3:1 #
-1 3:1 #
1 18:1 #
-1 18:1 #
1 3:1 #
-1 3:1 #
1 18:1 #
-1 18:1 #
1 3:1 #
-1 3:1 #
1 18:1 #
-1 18:1 #
1 3:1 #
-1 3:1 #
1 18:1 #
-1 18:1 #
1 3:1 #
-1 3:1 #
1 18:1 #
-1 18:1 #
1 3:1 #
-1 3:1 #
1 18:1 #
-1 18:1 #
1 3:1 #
-1 3:1 #
1 18:1 #
-1 18:1 #
1 3:1 #
-1 3:1 #
1 18:1 #
-1 18:1 #
1 3:1 #
-1 3:1 #
1 18:1 #
-1 18:1 #
1 3:1 #
-1 3:1 #
1 18:1 #
-1 18:1 #
1 3:1 #
-1 3:1 #
1 18:1 #
-1 18:1 #
1 3:1 #
-1 3:1 #
1 18:1 #
-1 18:1 #
1 3:1 #
-1 3:1 #
1 18:1 #
-1 18:1 #
1 3:1 #
-1 3:1 #
1 18:1 #
-1 18:1 #
1 3:1 #
-1 3:1 #
1 18:1 #
-1 18:1 #
1 3:1 #
-1 3:1 #
1 18:1 #
-1 18:1 #
1 3:1 #
-1 3:1 #
1 18:1 #
-1 18:1 #
1 3:1 #
-1 3:1 #
1 18:1 #
-1 18:1 #
1 3:1 #
-1 3:1 #
1 18:1 #
-1 18:1 #
1 3:1 #
-1 3:1 #
1 18:1 #
-1 18:1 #
1 3:1 #
-1 3:1 #
1 18:1 #
-1 18:1 #
1 3:1 #
-1 3:1 #
1 18:1 #
-1 18:1 #
1 3:1 #
-1 3:1 #
1 18:1 #
-1 18:1 #
1 3:1 #
-1 3:1 #
1 18:1 #
-1 18:1 #
1 3:1 #
-1 3:1 #
1 18:1 #
-1 18:1 #
1 3:1 #
-1 3:1 #
1 18:1 #
-1 18:1 #
1 3:1 #
-1 3:1 #
1 18:1 #
-1 18:1 #
1 3:1 #
-1 3:1 #
1 18:1 #
-1 18:1 #
1 3:1 #
-1 3:1 #
1 18:1 #
-1 18:1 #
1 3:1 #
-1 3:1 #
1 18:1 #
-1 18:1 #
1 3:1 #
-1 3:1 #
1 18:1 #
-1 18:1 #
1 3:1 #
-1 3:1 #
1 18:1 #
-1 18:1 #
1 3:1 #
-1 3:1 #
1 18:1 #
-1 18:1 #
1 3:1 #
-1 3:1 #
1 18:1 #
-1 18:1 #
1 3:1 #
-1 3:1 #
1 18:1 #
-1 18:1 #
1 3:1 #
-1 3:1 #
1 18:1 #
-1 18:1 #
1 3:1 #
-1 3:1 #
1 18:1 #
-1 18:1 #
1 3:1 #
-1 3:1 #
1 18:1 #
-1 18:1 #
1 3:1 #
-1 3:1 #
1 18:1 #
-1 18:1 #
1 3:1 #
-1 3:1 #
1 18:1 #
-1 18:1 #
1 3:1 #
-1 3:1 #
1 18:1 #
-1 18:1 #
1 3:1 #
-1 3:1 #
1 18:1 #
-1 18:1 #
1 3:1 #
-1 3:1 #
1 18:1 #
-1 18:1 #
1 3:1 #
-1 3:1 #
1 18:1 #
-1 18:1 #
1 3:1 #
-1 3:1 #
1 18:1 #
-1 18:1 #
1 3:1 #
-1 3:1 #
1 18:1 #
-1 18:1 #
1 3:1 #
-1 3:1 #
1 18:1 #
-1 18:1 #
1 3:1 #
-1 3:1 #
1 18:1 #
-1 18:1 #
1 3:1 #
-1 3:1 #
1 18:1 #
-1 18:1 #
1 3:1 #
-1 3:1 #
1 18:1 #
-1 18:1 #
1 3:1 #
-1 3:1 #
1 18:1 #
-1 18:1 #
1 3:1 #
-1 3:1 #
1 18:1 #
-1 18:1 #
1 3:1 #
-1 3:1 #
1 18:1 #
-1 18:1 #
1 3:1 #
-1 3:1 #
1 18:1 #
-1 18:1 #
1 3:1 #
-1 3:1 #
1 18:1 #
-1 18:1 #
1 3:1 #
-1 3:1 #
1 18:1 #
-1 18:1 #
1 3:1 #
-1 3:1 #
1 18:1 #
-1 18:1 #
1 3:1 #
-1 3:1 #
1 18:1 #
-1 18:1 #
1 3:1 #
-1 3:1 #
1 18:1 #
-1 18:1 #
1 3:1 #
-1 3:1 #
1 18:1 #
-1 18:1 #
1 3:1 #
-1 3:1 #
1 18:1 #
-1 18:1 #
1 3:1 #
-1 3:1 #
1 18:1 #
-1 18:1 #
1 3:1 #
-1 3:1 #
1 18:1 #
-1 18:1 #
1 3:1 #
-1 3:1 #
1 18:1 #
-1 18:1 #
1 3:1 #
-1 3:1 #
1 18:1 #
-1 18:1 #
1 3:1 #
-1 3:1 #
1 18:1 #
-1 18:1 #
1 3:1 #
-1 3:1 #
1 18:1 #
-1 18:1 #
1 3:1 #
-1 3:1 #
1 18:1 #
-1 18:1 #
1 3:1 #
-1 3:1 #
1 18:1 #
-1 18:1 #
1 3:1 #
-1 3:1 #
1 18:1 #
-1 18:1 #
1 3:1 #
-1 3:1 #
1 18:1 #
-1 18:1 #
1 3:1 #
-1 3:1 #
1 18:1 #
-1 18:1 #
1 3:1 #
-1 3:1 #
1 18:1 #
-1 18:1 #
1 3:1 #
-1 3:1 #
1 18:1 #
-1 18:1 #
1 3:1 #
-1 3:1 #
1 18:1 #
-1 18:1 #
1 3:1 #
-1 3:1 #
1 18:1 #
-1 18:1 #
1 3:1 #
-1 3:1 #
1 18:1 #
-1 18:1 #
1 3:1 #
-1 3:1 #
1 18:1 #
-1 18:1 #
1 3:1 #
-1 3:1 #
1 18:1 #
-1 18:1 #
1 3:1 #
-1 3:1 #
1 18:1 #
-1 18:1 #
1 3:1 #
-1 3:1 #
1 18:1 #
-1 18:1 #
1 3:1 #
-1 3:1 #
1 18:1 #
-1 18:1 #
1 3:1 #
-1 3:1 #
1 18:1 #
-1 18:1 #
1 3:1 #
-1 3:1 #
1 18:1 #
-1 18:1 #
1 3:1 #
-1 3:1 #
1 18:1 #
-1 18:1 #
1 3:1 #
-1 3:1 #
1 18:1 #
-1 18:1 #
1 3:1 #
-1 3:1 #
1 18:1 #
-1 18:1 #
1 3:1 #
-1 3:1 #
1 18:1 #
-1 18:1 #
1 3:1 #
-1 3:1 #
1 18:1 #
-1 18:1 #
1 3:1 #
-1 3:1 #
1 18:1 #
-1 18:1 #
1 3:1 #
-1 3:1 #
1 18:1 #
-1 18:1 #
1 3:1 #
-1 3:1 #
1 18:1 #
-1 18:1 #
1 3:1 #
-1 3:1 #
1 18:1 #
-1 18:1 #
1 3:1 #
-1 3:1 #
1 18:1 #
-1 18:1 #
1 3:1 #
-1 3:1 #
1 18:1 #
-1 18:1 #
1 3:1 #
-1 3:1 #
1 18:1 #
-1 18:1 #
1 3:1 #
-1 3:1 #
1 18:1 #
-1 18:1 #
1 3:1 #
-1 3:1 #
1 18:1 #
-1 18:1 #
1 3:1 #
-1 3:1 #
1 18:1 #
-1 18:1 #
1 3:1 #
-1 3:1 #
1 18:1 #
-1 18:1 #
1 3:1 #
-1 3:1 #
1 18:1 #
-1 18:1 #
1 3:1 #
-1 3:1 #
1 18:1 #
-1 18:1 #
1 3:1 #
-1 3:1 #
1 18:1 #
-1 18:1 #
1 3:1 #
-1 3:1 #
1 18:1 #
-1 18:1 #
1 3:1 #
-1 3:1 #
1 18:1 #
-1 18:1 #
1 3:1 #
-1 3:1 #
1 18:1 #
-1 18:1 #
1 3:1 #
-1 3:1 #
1 18:1 #
-1 18:1 #
1 3:1 #
-1 3:1 #
1 18:1 #
-1 18:1 #
1 3:1 #
-1 3:1 #
1 18:1 #
-1 18:1 #
1 3:1 #
-1 3:1 #
1 18:1 #
-1 18:1 #
1 3:1 #
-1 3:1 #
1 18:1 #
-1 18:1 #
1 3:1 #
-1 3:1 #
1 18:1 #
-1 18:1 #
1 3:1 #
-1 3:1 #
1 18:1 #
-1 18:1 #
1 3:1 #
-1 3:1 #
1 18:1 #
-1 18:1 #
1 3:1 #
-1 3:1 #
1 18:1 #
-1 18:1 #
1 3:1 #
-1 3:1 #
1 18:1 #
-1 18:1 #
1 3:1 #
-1 3:1 #
1 18:1 #
-1 18:1 #
1 3:1 #
-1 3:1 #
1 18:1 #
-1 18:1 #
1 3:1 #
-1 3:1 #
1 18:1 #
-1 18:1 #
1 3:1 #
-1 3:1 #
1 18:1 #
-1 18:1 #
1 3:1 #
-1 3:1 #
1 18:1 #
-1 18:1 #
1 3:1 #
-1 3:1 #
1 18:1 #
-1 18:1 #
1 3:1 #
-1 3:1 #
1 18:1 #
-1 18:1 #
1 3:1 #
-1 3:1 #
1 18:1 #
-1 18:1 #
1 3:1 #
-1 3:1 #
1 18:1 #
-1 18:1 #
1 3:1 #
-1 3:1 #
1 18:1 #
-1 18:1 #
1 3:1 #
-1 3:1 #
1 18:1 #
-1 18:1 #
1 3:1 #
-1 3:1 #
1 18:1 #
-1 18:1 #
1 3:1 #
-1 3:1 #
1 18:1 #
-1 18:1 #
1 3:1 #
-1 3:1 #
1 18:1 #
-1 18:1 #
1 3:1 #
-1 3:1 #
1 18:1 #
-1 18:1 #
1 3:1 #
-1 3:1 #
1 18:1 #
-1 18:1 #
1 3:1 #
-1 3:1 #
1 18:1 #
-1 18:1 #
1 3:1 #
-1 3:1 #
1 18:1 #
-1 18:1 #
1 3:1 #
-1 3:1 #
1 18:1 #
-1 18:1 #
1 3:1 #
-1 3:1 #
1 18:1 #
-1 18:1 #
1 3:1 #
-1 3:1 #
1 18:1 #
-1 18:1 #
1 3:1 #
-1 3:1 #
1 18:1 #
-1 18:1 #
1 3:1 #
-1 3:1 #
1 18:1 #
-1 18:1 #
1 3:1 #
-1 3:1 #
1 18:1 #
-1 18:1 #
1 3:1 #
-1 3:1 #
1 18:1 #
-1 18:1 #
1 3:1 #
-1 3:1 #
1 18:1 #
-1 18:1 #
1 3:1 #
-1 3:1 #
1 18:1 #
-1 18:1 #
1 3:1 #
-1 3:1 #
1 18:1 #
-1 18:1 #
1 3:1 #
-1 3:1 #
1 18:1 #
-1 18:1 #
1 3:1 #
-1 3:1 #
1 18:1 #
-1 18:1 #
1 3:1 #
-1 3:1 #
1 18:1 #
-1 18:1 #
1 3:1 #
-1 3:1 #
1 18:1 #
-1 18:1 #
1 3:1 #
-1 3:1 #
1 18:1 #
-1 18:1 #
1 3:1 #
-1 3:1 #
1 18:1 #
-1 18:1 #
1 3:1 #
-1 3:1 #
1 18:1 #
-1 18:1 #
1 3:1 #
-1 3:1 #
1 18:1 #
-1 18:1 #
1 3:1 #
-1 3:1 #
1 18:1 #
-1 18:1 #
1 3:1 #
-1 3:1 #
1 18:1 #
-1 18:1 #
1 3:1 #
-1 3:1 #
1 18:1 #
-1 18:1 #
1 3:1 #
-1 3:1 #
1 18:1 #
-1 18:1 #
1 3:1 #
-1 3:1 #
1 18:1 #
-1 18:1 #
1 3:1 #
-1 3:1 #
1 18:1 #
-1 18:1 #
1 3:1 #
-1 3:1 #
1 18:1 #
-1 18:1 #
1 3:1 #
-1 3:1 #
1 18:1 #
-1 18:1 #
1 3:1 #
-1 3:1 #
1 18:1 #
-1 18:1 #
1 3:1 #
-1 3:1 #
1 18:1 #
-1 18:1 #
1 3:1 #
-1 3:1 #
1 18:1 #
-1 18:1 #
1 3:1 #
-1 3:1 #
1 18:1 #
-1 18:1 #
1 3:1 #
-1 3:1 #
1 18:1 #
-1 18:1 #
1 3:1 #
-1 3:1 #
1 18:1 #
-1 18:1 #
1 3:1 #
-1 3:1 #
1 18:1 #
-1 18:1 #
1 3:1 #
-1 3:1 #
1 18:1 #
-1 18:1 #
1 3:1 #
-1 3:1 #
1 18:1 #
-1 18:1 #
1 3:1 #
-1 3:1 #
1 18:1 #
-1 18:1 #
1 3:1 #
-1 3:1 #
1 18:1 #
-1 18:1 #
1 3:1 #
-1 3:1 #
1 18:1 #
-1 18:1 #
1 3:1 #
-1 3:1 #
1 18:1 #
-1 18:1 #
1 3:1 #
-1 3:1 #
1 18:1 #
-1 18:1 #
1 3:1 #
-1 3:1 #
1 18:1 #
-1 18:1 #
1 3:1 #
-1 3:1 #
1 18:1 #
-1 18:1 #
1 3:1 #
-1 3:1 #
1 18:1 #
-1 18:1 #
1 3:1 #
-1 3:1 #
1 18:1 #
-1 18:1 #
1 3:1 #
-1 3:1 #
1 18:1 #
-1 18:1 #
1 3:1 #
-1 3:1 #
1 18:1 #
-1 18:1 #
1 3:1 #
-1 3:1 #
1 18:1 #
-1 18:1 #
1 3:1 #
-1 3:1 #
1 18:1 #
-1 18:1 #
1 3:1 #
-1 3:1 #
1 18:1 #
-1 18:1 #
1 3:1 #
-1 3:1 #
1 18:1 #
-1 18:1 #
1 3:1 #
-1 3:1 #
1 18:1 #
-1 18:1 #
1 3:1 #
-1 3:1 #
1 18:1 #
-1 18:1 #
1 3:1 #
-1 3:1 #
1 18:1 #
-1 18:1 #
1 3:1 #
-1 3:1 #
1 18:1 #
-1 18:1 #
1 3:1 #
-1 3:1 #
1 18:1 #
-1 18:1 #
1 3:1 #
-1 3:1 #
1 18:1 #
-1 18:1 #
1 3:1 #
-1 3:1 #
1 18:1 #
-1 18:1 #
1 3:1 #
-1 3:1 #
1 18:1 #
-1 18:1 #
1 3:1 #
-1 3:1 #
1 18:1 #
-1 18:1 #
1 3:1 #
-1 3:1 #
1 18:1 #
-1 18:1 #
1 3:1 #
-1 3:1 #
1 18:1 #
-1 18:1 #
1 3:1 #
-1 3:1 #
1 18:1 #
-1 18:1 #
1 3:1 #
-1 3:1 #
1 18:1 #
-1 18:1 #
1 3:1 #
-1 3:1 #
1 18:1 #
-1 18:1 #
1 3:1 #
-1 3:1 #
1 18:1 #
-1 18:1 #
1 3:1 #
-1 3:1 #
1 18:1 #
-1 18:1 #
1 3:1 #
-1 3:1 #
1 18:1 #
-1 18:1 #
1 3:1 #
-1 3:1 #
1 18:1 #
-1 18:1 #
1 3:1 #
-1 3:1 #
1 18:1 #
-1 18:1 #
1 3:1 #
-1 3:1 #
1 18:1 #
-1 18:1 #
1 3:1 #
-1 3:1 #
1 18:1 #
-1 18:1 #
1 3:1 #
-1 3:1 #
1 18:1 #
-1 18:1 #
1 3:1 #
-1 3:1 #
1 18:1 #
-1 18:1 #
1 3:1 #
-1 3:1 #
1 18:1 #
-1 18:1 #
1 3:1 #
-1 3:1 #
1 18:1 #
-1 18:1 #
1 3:1 #
-1 3:1 #
1 18:1 #
-1 18:1 #
1 3:1 #
-1 3:1 #
1 18:1 #
-1 18:1 #
1 3:1 #
-1 3:1 #
1 18:1 #
-1 18:1 #
1 3:1 #
-1 3:1 #
1 18:1 #
-1 18:1 #
1 3:1 #
-1 3:1 #
1 18:1 #
-1 18:1 #
1 3:1 #
-1 3:1 #
1 18:1 #
-1 18:1 #
1 3:1 #
-1 3:1 #
1 18:1 #
-1 18:1 #
1 3:1 #
-1 3:1 #
1 18:1 #
-1 18:1 #
1 3:1 #
-1 3:1 #
1 18:1 #
-1 18:1 #
1 3:1 #
-1 3:1 #
1 18:1 #
-1 18:1 #
1 3:1 #
-1 3:1 #
1 18:1 #
-1 18:1 #
1 3:1 #
-1 3:1 #
1 18:1 #
-1 18:1 #
1 3:1 #
-1 3:1 #
1 18:1 #
-1 18:1 #
1 3:1 #
-1 3:1 #
1 18:1 #
-1 18:1 #
1 3:1 #
-1 3:1 #
1 18:1 #
-1 18:1 #
1 3:1 #
-1 3:1 #
1 18:1 #
-1 18:1 #
1 3:1 #
-1 3:1 #
1 18:1 #
-1 18:1 #
1 3:1 #
-1 3:1 #
1 18:1 #
-1 18:1 #
1 3:1 #
-1 3:1 #
1 18:1 #
-1 18:1 #
1 3:1 #
-1 3:1 #
1 18:1 #
-1 18:1 #
1 3:1 #
-1 3:1 #
1 18:1 #
-1 18:1 #
1 3:1 #
-1 3:1 #
1 18:1 #
-1 18:1 #
1 3:1 #
-1 3:1 #
1 18:1 #
-1 18:1 #
1 3:1 #
-1 3:1 #
1 18:1 #
-1 18:1 #
1 3:1 #
-1 3:1 #
1 18:1 #
-1 18:1 #
1 3:1 #
-1 3:1 #
1 18:1 #
-1 18:1 #
1 3:1 #
-1 3:1 #
1 18:1 #
-1 18:1 #
1 3:1 #
-1 3:1 #
1 18:1 #
-1 18:1 #
1 3:1 #
-1 3:1 #
1 18:1 #
-1 18:1 #
1 3:1 #
-1 3:1 #
1 18:1 #
-1 18:1 #
1 3:1 #
-1 3:1 #
1 18:1 #
-1 18:1 #
1 3:1 #
-1 3:1 #
1 18:1 #
-1 18:1 #
1 3:1 #
-1 3:1 #
1 18:1 #
-1 18:1 #
1 3:1 #
-1 3:1 #
1 18:1 #
-1 18:1 #
1 3:1 #
-1 3:1 #
1 18:1 #
-1 18:1 #
1 3:1 #
-1 3:1 #
1 18:1 #
-1 18:1 #
1 3:1 #
-1 3:1 #
1 18:1 #
-1 18:1 #
1 3:1 #
-1 3:1 #
1 18:1 #
-1 18:1 #
1 3:1 #
-1 3:1 #
1 18:1 #
-1 18:1 #
1 3:1 #
-1 3:1 #
1 18:1 #
-1 18:1 #
1 3:1 #
-1 3:1 #
1 18:1 #
-1 18:1 #
1 3:1 #
-1 3:1 #
1 18:1 #
-1 18:1 #
1 3:1 #
-1 3:1 #
1 18:1 #
-1 18:1 #
1 3:1 #
-1 3:1 #
1 18:1 #
-1 18:1 #
1 3:1 #
-1 3:1 #
1 18:1 #
-1 18:1 #
1 3:1 #
-1 3:1 #
1 18:1 #
-1 18:1 #
1 3:1 #
-1 3:1 #
1 18:1 #
-1 18:1 #
1 3:1 #
-1 3:1 #
1 18:1 #
-1 18:1 #
1 3:1 #
-1 3:1 #
1 18:1 #
-1 18:1 #
1 3:1 #
-1 3:1 #
1 18:1 #
-1 18:1 #
1 3:1 #
-1 3:1 #
1 18:1 #
-1 18:1 #
1 3:1 #
-1 3:1 #
1 18:1 #
-1 18:1 #
1 3:1 #
-1 3:1 #
1 18:1 #
-1 18:1 #
1 3:1 #
-1 3:1 #
1 18:1 #
-1 18:1 #
1 3:1 #
-1 3:1 #
1 18:1 #
-1 18:1 #
1 3:1 #
-1 3:1 #
1 18:1 #
-1 18:1 #
1 3:1 #
-1 3:1 #
1 18:1 #
-1 18:1 #
1 3:1 #
-1 3:1 #
1 18:1 #
-1 18:1 #
1 3:1 #
-1 3:1 #
1 18:1 #
-1 18:1 #
1 3:1 #
-1 3:1 #
1 18:1 #
-1 18:1 #
1 3:1 #
-1 3:1 #
1 18:1 #
-1 18:1 #
1 3:1 #
-1 3:1 #
1 18:1 #
-1 18:1 #
1 3:1 #
-1 3:1 #
1 18:1 #
-1 18:1 #
1 3:1 #
-1 3:1 #
1 18:1 #
-1 18:1 #
1 3:1 #
-1 3:1 #
1 18:1 #
-1 18:1 #
1 3:1 #
-1 3:1 #
1 18:1 #
-1 18:1 #
1 3:1 #
-1 3:1 #
1 18:1 #
-1 18:1 #
1 3:1 #
-1 3:1 #
1 18:1 #
-1 18:1 #
1 3:1 #
-1 3:1 #
1 18:1 #
-1 18:1 #
1 3:1 #
-1 3:1 #
1 18:1 #
-1 18:1 #
1 3:1 #
-1 3:1 #
1 18:1 #
-1 18:1 #
1 3:1 #
-1 3:1 #
1 18:1 #
-1 18:1 #
1 3:1 #
-1 3:1 #
1 18:1 #
-1 18:1 #
1 3:1 #
-1 3:1 #
1 18:1 #
-1 18:1 #
1 3:1 #
-1 3:1 #
1 18:1 #
-1 18:1 #
1 3:1 #
-1 3:1 #
1 18:1 #
-1 18:1 #
1 3:1 #
-1 3:1 #
1 18:1 #
-1 18:1 #
1 3:1 #
-1 3:1 #
1 18:1 #
-1 18:1 #
1 3:1 #
-1 3:1 #
1 18:1 #
-1 18:1 #
1 3:1 #
-1 3:1 #
1 18:1 #
-1 18:1 #
1 3:1 #
-1 3:1 #
1 18:1 #
-1 18:1 #
1 3:1 #
-1 3:1 #
1 18:1 #
-1 18:1 #
1 3:1 #
-1 3:1 #
1 18:1 #
-1 18:1 #
1 3:1 #
-1 3:1 #
1 18:1 #
-1 18:1 #
1 3:1 #
-1 3:1 #
1 18:1 #
-1 18:1 #
1 3:1 #
-1 3:1 #
1 18:1 #
-1 18:1 #
1 3:1 #
-1 3:1 #
1 18:1 #
-1 18:1 #
1 3:1 #
-1 3:1 #
1 18:1 #
-1 18:1 #
1 3:1 #
-1 3:1 #
1 18:1 #
-1 18:1 #
1 3:1 #
-1 3:1 #
1 18:1 #
-1 18:1 #
1 3:1 #
-1 3:1 #
1 18:1 #
-1 18:1 #
1 3:1 #
-1 3:1 #
1 18:1 #
-1 18:1 #
1 3:1 #
-1 3:1 #
1 18:1 #
-1 18:1 #
1 3:1 #
-1 3:1 #
1 18:1 #
-1 18:1 #
1 3:1 #
-1 3:1 #
1 18:1 #
-1 18:1 #
1 3:1 #
-1 3:1 #
1 18:1 #
-1 18:1 #
1 3:1 #
-1 3:1 #
1 18:1 #
-1 18:1 #
1 3:1 #
-1 3:1 #
1 18:1 #
-1 18:1 #
1 3:1 #
-1 3:1 #
1 18:1 #
-1 18:1 #
1 3:1 #
-1 3:1 #
1 18:1 #
-1 18:1 #
1 3:1 #
-1 3:1 #
1 18:1 #
-1 18:1 #
1 3:1 #
-1 3:1 #
1 18:1 #
-1 18:1 #
1 3:1 #
-1 3:1 #
1 18:1 #
-1 18:1 #
1 3:1 #
-1 3:1 #
1 18:1 #
-1 18:1 #
1 3:1 #
-1 3:1 #
1 18:1 #
-1 18:1 #
1 3:1 #
-1 3:1 #
1 18:1 #
-1 18:1 #
1 3:1 #
-1 3:1 #
1 18:1 #
-1 18:1 #
1 3:1 #
-1 3:1 #
1 18:1 #
-1 18:1 #
1 3:1 #
-1 3:1 #
1 18:1 #
-1 18:1 #
1 3:1 #
-1 3:1 #
1 18:1 #
-1 18:1 #
1 3:1 #
-1 3:1 #
1 18:1 #
-1 18:1 #
1 3:1 #
-1 3:1 #
1 18:1 #
-1 18:1 #
1 3:1 #
-1 3:1 #
1 18:1 #
-1 18:1 #
1 3:1 #
-1 3:1 #
1 18:1 #
-1 18:1 #
1 3:1 #
-1 3:1 #
1 18:1 #
-1 18:1 #
1 3:1 #
-1 3:1 #
1 18:1 #
-1 18:1 #
1 3:1 #
-1 3:1 #
1 18:1 #
-1 18:1 #
1 3:1 #
-1 3:1 #
1 18:1 #
-1 18:1 #
1 3:1 #
-1 3:1 #
1 18:1 #
-1 18:1 #
1 3:1 #
-1 3:1 #
1 18:1 #
-1 18:1 #
1 3:1 #
-1 3:1 #
1 18:1 #
-1 18:1 #
1 3:1 #
-1 3:1 #
1 18:1 #
-1 18:1 #
1 3:1 #
-1 3:1 #
1 18:1 #
-1 18:1 #
1 3:1 #
-1 3:1 #
1 18:1 #
-1 18:1 #
1 3:1 #
-1 3:1 #
1 18:1 #
-1 18:1 #
1 3:1 #
-1 3:1 #
1 18:1 #
-1 18:1 #
1 3:1 #
-1 3:1 #
1 18:1 #
-1 18:1 #
1 3:1 #
-1 3:1 #
1 18:1 #
-1 18:1 #
1 3:1 #
-1 3:1 #
1 18:1 #
-1 18:1 #
1 3:1 #
-1 3:1 #
1 18:1 #
-1 18:1 #
1 3:1 #
-1 3:1 #
1 18:1 #
-1 18:1 #
1 3:1 #
-1 3:1 #
1 18:1 #
-1 18:1 #
1 3:1 #
-1 3:1 #
1 18:1 #
-1 18:1 #
1 3:1 #
-1 3:1 #
1 18:1 #
-1 18:1 #
1 3:1 #
-1 3:1 #
1 18:1 #
-1 18:1 #
1 3:1 #
-1 3:1 #
1 18:1 #
-1 18:1 #
1 3:1 #
-1 3:1 #
1 18:1 #
-1 18:1 #
1 3:1 #
-1 3:1 #
1 18:1 #
-1 18:1 #
1 3:1 #
-1 3:1 #
1 18:1 #
-1 18:1 #
1 3:1 #
-1 3:1 #
1 18:1 #
-1 18:1 #
1 3:1 #
-1 3:1 #
1 18:1 #
-1 18:1 #
1 3:1 #
-1 3:1 #
1 18:1 #
-1 18:1 #
1 3:1 #
-1 3:1 #
1 18:1 #
-1 18:1 #
1 3:1 #
-1 3:1 #
1 18:1 #
-1 18:1 #
1 3:1 #
-1 3:1 #
1 18:1 #
-1 18:1 #
1 3:1 #
-1 3:1 #
1 18:1 #
-1 18:1 #
1 3:1 #
-1 3:1 #
1 18:1 #
-1 18:1 #
1 3:1 #
-1 3:1 #
1 18:1 #
-1 18:1 #
1 3:1 #
-1 3:1 #
1 18:1 #
-1 18:1 #
1 3:1 #
-1 3:1 #
1 18:1 #
-1 18:1 #
1 3:1 #
-1 3:1 #
1 18:1 #
-1 18:1 #
1 3:1 #
-1 3:1 #
1 18:1 #
-1 18:1 #
1 3:1 #
-1 3:1 #
1 18:1 #
-1 18:1 #
1 3:1 #
-1 3:1 #
1 18:1 #
-1 18:1 #
1 3:1 #
-1 3:1 #
1 18:1 #
-1 18:1 #
1 3:1 #
-1 3:1 #
1 18:1 #
-1 18:1 #
1 3:1 #
-1 3:1 #
1 18:1 #
-1 18:1 #
1 3:1 #
-1 3:1 #
1 18:1 #
-1 18:1 #
1 3:1 #
-1 3:1 #
1 18:1 #
-1 18:1 #
1 3:1 #
-1 3:1 #
1 18:1 #
-1 18:1 #
1 3:1 #
-1 3:1 #
1 18:1 #
-1 18:1 #
1 3:1 #
-1 3:1 #
1 18:1 #
-1 18:1 #
1 3:1 #
-1 3:1 #
1 18:1 #
-1 18:1 #
1 3:1 #
-1 3:1 #
1 18:1 #
-1 18:1 #
1 3:1 #
-1 3:1 #
1 18:1 #
-1 18:1 #
1 3:1 #
-1 3:1 #
1 18:1 #
-1 18:1 #
1 3:1 #
-1 3:1 #
1 18:1 #
-1 18:1 #
1 3:1 #
-1 3:1 #
1 18:1 #
-1 18:1 #
1 3:1 #
-1 3:1 #
1 18:1 #
-1 18:1 #
1 3:1 #
-1 3:1 #
1 18:1 #
-1 18:1 #
1 3:1 #
-1 3:1 #
1 18:1 #
-1 18:1 #
1 3:1 #
-1 3:1 #
1 18:1 #
-1 18:1 #
1 3:1 #
-1 3:1 #
1 18:1 #
-1 18:1 #
1 3:1 #
-1 3:1 #
1 18:1 #
-1 18:1 #
1 3:1 #
-1 3:1 #
1 18:1 #
-1 18:1 #
1 3:1 #
-1 3:1 #
1 18:1 #
-1 18:1 #
1 3:1 #
-1 3:1 #
1 18:1 #
-1 18:1 #
1 3:1 #
-1 3:1 #
1 18:1 #
-1 18:1 #
1 3:1 #
-1 3:1 #
1 18:1 #
-1 18:1 #
1 3:1 #
-1 3:1 #
1 18:1 #
-1 18:1 #
1 3:1 #
-1 3:1 #
1 18:1 #
-1 18:1 #
1 3:1 #
-1 3:1 #
1 18:1 #
-1 18:1 #
1 3:1 #
-1 3:1 #
1 18:1 #
-1 18:1 #
1 3:1 #
-1 3:1 #
1 18:1 #
-1 18:1 #
1 3:1 #
-1 3:1 #
1 18:1 #
-1 18:1 #
1 3:1 #
-1 3:1 #
1 18:1 #
-1 18:1 #
1 3:1 #
-1 3:1 #
1 18:1 #
-1 18:1 #
1 3:1 #
-1 3:1 #
1 18:1 #
-1 18:1 #
1 3:1 #
-1 3:1 #
1 18:1 #
-1 18:1 #
1 3:1 #
-1 3:1 #
1 18:1 #
-1 18:1 #
1 3:1 #
-1 3:1 #
1 18:1 #
-1 18:1 #
1 3:1 #
-1 3:1 #
1 18:1 #
-1 18:1 #
1 3:1 #
-1 3:1 #
1 18:1 #
-1 18:1 #
1 3:1 #
-1 3:1 #
1 18:1 #
-1 18:1 #
1 3:1 #
-1 3:1 #
1 18:1 #
-1 18:1 #
1 3:1 #
-1 3:1 #
1 18:1 #
-1 18:1 #
1 3:1 #
-1 3:1 #
1 18:1 #
-1 18:1 #
1 3:1 #
-1 3:1 #
1 18:1 #
-1 18:1 #
1 3:1 #
-1 3:1 #
1 18:1 #
-1 18:1 #
1 3:1 #
-1 3:1 #
1 18:1 #
-1 18:1 #
1 3:1 #
-1 3:1 #
1 18:1 #
-1 18:1 #
1 3:1 #
-1 3:1 #
1 18:1 #
-1 18:1 #
1 3:1 #
-1 3:1 #
1 18:1 #
-1 18:1 #
1 3:1 #
-1 3:1 #
1 18:1 #
-1 18:1 #
1 3:1 #
-1 3:1 #
1 18:1 #
-1 18:1 #
1 3:1 #
-1 3:1 #
1 18:1 #
-1 18:1 #
1 3:1 #
-1 3:1 #
1 18:1 #
-1 18:1 #
1 3:1 #
-1 3:1 #
1 18:1 #
-1 18:1 #
1 3:1 #
-1 3:1 #
1 18:1 #
-1 18:1 #
1 3:1 #
-1 3:1 #
1 18:1 #
-1 18:1 #
1 3:1 #
-1 3:1 #
1 18:1 #
-1 18:1 #
1 3:1 #
-1 3:1 #
1 18:1 #
-1 18:1 #
1 3:1 #
-1 3:1 #
1 18:1 #
-1 18:1 #
1 3:1 #
-1 3:1 #
1 18:1 #
-1 18:1 #
1 3:1 #
-1 3:1 #
1 18:1 #
-1 18:1 #
1 3:1 #
-1 3:1 #
1 18:1 #
-1 18:1 #
1 3:1 #
-1 3:1 #
1 18:1 #
-1 18:1 #
1 3:1 #
-1 3:1 #
1 18:1 #
-1 18:1 #
1 3:1 #
-1 3:1 #
1 18:1 #
-1 18:1 #
1 3:1 #
-1 3:1 #
1 18:1 #
-1 18:1 #
1 3:1 #
-1 3:1 #
1 18:1 #
-1 18:1 #
1 3:1 #
-1 3:1 #
1 18:1 #
-1 18:1 #
1 3:1 #
-1 3:1 #
1 18:1 #
-1 18:1 #
1 3:1 #
-1 3:1 #
1 18:1 #
-1 18:1 #
1 3:1 #
-1 3:1 #
1 18:1 #
-1 18:1 #
1 3:1 #
-1 3:1 #
1 18:1 #
-1 18:1 #
1 3:1 #
-1 3:1 #
1 18:1 #
-1 18:1 #
1 3:1 #
-1 3:1 #
1 18:1 #
-1 18:1 #
1 3:1 #
-1 3:1 #
1 18:1 #
-1 18:1 #
1 3:1 #
-1 3:1 #
1 18:1 #
-1 18:1 #
1 3:1 #
-1 3:1 #
1 18:1 #
-1 18:1 #
1 3:1 #
-1 3:1 #
1 18:1 #
-1 18:1 #
1 3:1 #
-1 3:1 #
1 18:1 #
-1 18:1 #
1 3:1 #
-1 3:1 #
1 18:1 #
-1 18:1 #
1 3:1 #
-1 3:1 #
1 18:1 #
-1 18:1 #
1 3:1 #
-1 3:1 #
1 18:1 #
-1 18:1 #
1 3:1 #
-1 3:1 #
1 18:1 #
-1 18:1 #
1 3:1 #
-1 3:1 #
1 18:1 #
-1 18:1 #
1 3:1 #
-1 3:1 #
1 18:1 #
-1 18:1 #
1 3:1 #
-1 3:1 #
1 18:1 #
-1 18:1 #
1 3:1 #
-1 3:1 #
1 18:1 #
-1 18:1 #
1 3:1 #
-1 3:1 #
1 18:1 #
-1 18:1 #
1 3:1 #
-1 3:1 #
1 18:1 #
-1 18:1 #
1 3:1 #
-1 3:1 #
1 18:1 #
-1 18:1 #
1 3:1 #
-1 3:1 #
1 18:1 #
-1 18:1 #
1 3:1 #
-1 3:1 #
1 18:1 #
-1 18:1 #
1 3:1 #
-1 18:1 #
1 18:1 #
-1 18:1 #
1 3:1 #
-1 3:1 #
1 18:1 #
-1 18:1 #
1 3:1 #
-1 3:1 #
1 18:1 #
-1 18:1 #
1 3:1 #
-1 3:1 #
1 18:1 #
-1 18:1 #
1 3:1 #
-1 3:1 #
1 18:1 #
-1 18:1 #
1 3:1 #
-1 3:1 #
1 18:1 #
-1 18:1 #
1 3:1 #
-1 3:1 #
1 18:1 #
-1 18:1 #
1 3:1 #
-1 3:1 #
1 18:1 #
-1 18:1 #
1 3:1 #
-1 3:1 #
1 18:1 #
-1 18:1 #
1 3:1 #
-1 3:1 #
1 18:1 #
-1 18:1 #
1 3:1 #
-1 3:1 #
1 18:1 #
-1 18:1 #
1 3:1 #
-1 3:1 #
1 18:1 #
-1 18:1 #
1 3:1 #
-1 3:1 #
1 18:1 #
-1 18:1 #
1 3:1 #
-1 3:1 #
1 18:1 #
-1 18:1 #
1 3:1 #
-1 3:1 #
1 18:1 #
-1 18:1 #
1 18:1 #
-1 18:1 #
1 3:1 #
-1 3:1 #
1 18:1 #
-1 18:1 #
1 3:1 #
-1 3:1 #
1 18:1 #
-1 18:1 #
1 3:1 #
-1 3:1 #
1 18:1 #
-1 18:1 #
1 3:1 #
-1 3:1 #
1 18:1 #
-1 18:1 #
1 3:1 #
-1 3:1 #
1 18:1 #
-1 18:1 #
1 3:1 #
-1 3:1 #
1 18:1 #
-1 18:1 #
1 3:1 #
-1 3:1 #
1 18:1 #
-1 18:1 #
1 3:1 #
-1 3:1 #
1 18:1 #
-1 18:1 #
1 3:1 #
-1 3:1 #
1 18:1 #
-1 18:1 #
1 18:1 #
-1 18:1 #
1 18:1 #
-1 18:1 #
1 18:1 #
1 18:1 #
-1 16:1 #
1 18:1 #
-1 18:1 #
-1 10:1 #
1 18:1 #
-1 18:1 #
-1 2:1 #
-1 4:1 #
1 18:1 #
-1 2:1 #
1 18:1 #
-1 18:1 #
1 18:1 #
-1 18:1 #
1 18:1 #
-1 18:1 #
1 18:1 #
-1 18:1 #
1 18:1 #
-1 18:1 #
1 18:1 #
-1 18:1 #
1 18:1 #
-1 18:1 #
1 18:1 #
-1 18:1 #
1 18:1 #
-1 18:1 #
1 18:1 #
-1 18:1 #
1 18:1 #
-1 18:1 #
1 18:1 #
-1 18:1 #
1 18:1 #
-1 18:1 #
1 18:1 #
-1 18:1 #
1 18:1 #
-1 18:1 #
1 18:1 #
-1 18:1 #
1 18:1 #
-1 18:1 #
1 18:1 #
-1 18:1 #
1 18:1 #
-1 18:1 #
1 18:1 #
-1 18:1 #
1 18:1 #
-1 18:1 #
1 18:1 #
-1 18:1 #
1 18:1 #
-1 18:1 #
1 18:1 #
-1 18:1 #
1 18:1 #
-1 18:1 #
1 18:1 #
-1 18:1 #
1 18:1 #
-1 18:1 #
1 18:1 #
-1 18:1 #
1 18:1 #
-1 18:1 #
1 18:1 #
-1 18:1 #
1 18:1 #
-1 18:1 #
1 18:1 #
-1 18:1 #
1 18:1 #
-1 18:1 #
1 18:1 #
-1 18:1 #
1 18:1 #
-1 18:1 #
1 18:1 #
-1 18:1 #
1 18:1 #
-1 18:1 #
1 18:1 #
-1 18:1 #
1 18:1 #
-1 18:1 #
1 18:1 #
-1 18:1 #
1 18:1 #
-1 18:1 #
1 18:1 #
-1 18:1 #
1 18:1 #
-1 18:1 #
1 18:1 #
-1 18:1 #
1 18:1 #
-1 18:1 #
1 18:1 #
-1 18:1 #
1 18:1 #
-1 18:1 #
1 18:1 #
-1 18:1 #
1 18:1 #
-1 18:1 #
1 18:1 #
-1 18:1 #
1 18:1 #
-1 18:1 #
1 18:1 #
-1 18:1 #
1 18:1 #
-1 18:1 #
1 18:1 #
-1 18:1 #
1 18:1 #
-1 18:1 #
1 18:1 #
-1 18:1 #
1 18:1 #
-1 18:1 #
1 18:1 #
-1 18:1 #
1 18:1 #
-1 18:1 #
1 18:1 #
-1 18:1 #
1 18:1 #
-1 18:1 #
1 18:1 #
-1 18:1 #
1 18:1 #
-1 18:1 #
1 18:1 #
-1 18:1 #
1 18:1 #
-1 18:1 #
1 18:1 #
-1 18:1 #
1 18:1 #
-1 18:1 #
1 18:1 #
-1 18:1 #
1 18:1 #
-1 18:1 #
1 18:1 #
-1 18:1 #
1 18:1 #
-1 18:1 #
1 18:1 #
-1 18:1 #
1 18:1 #
-1 18:1 #
1 18:1 #
-1 18:1 #
1 18:1 #
-1 18:1 #
1 18:1 #
-1 18:1 #
1 18:1 #
-1 18:1 #
1 18:1 #
-1 18:1 #
1 18:1 #
-1 18:1 #
1 18:1 #
-1 18:1 #
1 18:1 #
-1 18:1 #
1 18:1 #
-1 18:1 #
1 18:1 #
-1 18:1 #
1 18:1 #
-1 18:1 #
1 18:1 #
-1 18:1 #
1 18:1 #
-1 18:1 #
1 18:1 #
-1 18:1 #
1 18:1 #
-1 18:1 #
1 18:1 #
-1 18:1 #
1 18:1 #
-1 18:1 #
1 18:1 #
-1 18:1 #
1 18:1 #
-1 18:1 #
1 18:1 #
-1 18:1 #
1 18:1 #
-1 18:1 #
1 18:1 #
-1 18:1 #
1 18:1 #
-1 18:1 #
1 18:1 #
-1 18:1 #
1 18:1 #
-1 18:1 #
1 18:1 #
-1 18:1 #
1 18:1 #
-1 18:1 #
1 18:1 #
-1 18:1 #
1 18:1 #
-1 18:1 #
1 18:1 #
-1 18:1 #
1 18:1 #
-1 18:1 #
1 18:1 #
-1 18:1 #
1 18:1 #
-1 18:1 #
1 18:1 #
-1 18:1 #
1 18:1 #
-1 18:1 #
1 18:1 #
-1 18:1 #
1 18:1 #
-1 18:1 #
1 18:1 #
-1 18:1 #
1 18:1 #
-1 18:1 #
1 18:1 #
-1 18:1 #
1 18:1 #
-1 18:1 #
1 18:1 #
-1 18:1 #
1 18:1 #
-1 18:1 #
1 18:1 #
-1 18:1 #
1 18:1 #
-1 18:1 #
1 18:1 #
-1 18:1 #
1 18:1 #
-1 18:1 #
1 18:1 #
-1 18:1 #
1 18:1 #
-1 18:1 #
1 18:1 #
-1 18:1 #
1 18:1 #
-1 18:1 #
1 18:1 #
-1 18:1 #
1 18:1 #
-1 18:1 #
1 18:1 #
-1 18:1 #
1 18:1 #
-1 18:1 #
1 18:1 #
-1 18:1 #
1 18:1 #
-1 18:1 #
1 18:1 #
-1 18:1 #
1 18:1 #
-1 18:1 #
1 18:1 #
-1 18:1 #
1 18:1 #
-1 18:1 #
1 18:1 #
-1 18:1 #
1 18:1 #
-1 18:1 #
1 18:1 #
-1 18:1 #
1 18:1 #
-1 18:1 #
1 18:1 #
-1 18:1 #
1 18:1 #
-1 18:1 #
1 18:1 #
-1 18:1 #
1 18:1 #
-1 18:1 #
1 18:1 #
-1 18:1 #
1 18:1 #
-1 18:1 #
1 18:1 #
-1 18:1 #
1 18:1 #
-1 18:1 #
1 18:1 #
-1 18:1 #
1 18:1 #
-1 18:1 #
1 18:1 #
-1 18:1 #
1 18:1 #
-1 18:1 #
1 18:1 #
-1 18:1 #
1 18:1 #
-1 18:1 #
1 18:1 #
-1 18:1 #
1 18:1 #
-1 18:1 #
1 18:1 #
-1 18:1 #
1 18:1 #
-1 18:1 #
1 18:1 #
-1 18:1 #
1 18:1 #
-1 18:1 #
1 18:1 #
-1 18:1 #
1 18:1 #
-1 18:1 #
1 18:1 #
-1 18:1 #
1 18:1 #
-1 18:1 #
1 18:1 #
-1 18:1 #
1 18:1 #
-1 18:1 #
1 18:1 #
-1 18:1 #
1 18:1 #
-1 18:1 #
1 18:1 #
-1 18:1 #
1 18:1 #
-1 18:1 #
1 18:1 #
-1 18:1 #
1 18:1 #
-1 18:1 #
1 18:1 #
-1 18:1 #
1 18:1 #
-1 18:1 #
1 18:1 #
-1 18:1 #
1 18:1 #
-1 18:1 #
1 18:1 #
-1 18:1 #
1 18:1 #
-1 18:1 #
1 18:1 #
-1 18:1 #
1 18:1 #
-1 18:1 #
1 18:1 #
-1 18:1 #
1 18:1 #
-1 18:1 #
1 18:1 #
-1 18:1 #
1 18:1 #
-1 18:1 #
1 18:1 #
-1 18:1 #
1 18:1 #
-1 18:1 #
1 18:1 #
-1 18:1 #
1 18:1 #
-1 18:1 #
1 18:1 #
-1 18:1 #
1 18:1 #
-1 18:1 #
1 18:1 #
-1 18:1 #
1 18:1 #
-1 18:1 #
1 18:1 #
-1 18:1 #
1 18:1 #
-1 18:1 #
1 18:1 #
-1 18:1 #
1 18:1 #
-1 18:1 #
1 18:1 #
-1 18:1 #
1 18:1 #
-1 18:1 #
1 18:1 #
-1 18:1 #
1 18:1 #
-1 18:1 #
1 18:1 #
-1 18:1 #
1 18:1 #
-1 18:1 #
1 18:1 #
-1 18:1 #
1 18:1 #
-1 18:1 #
1 18:1 #
-1 18:1 #
1 18:1 #
-1 18:1 #
1 18:1 #
-1 18:1 #
1 18:1 #
-1 18:1 #
1 18:1 #
-1 18:1 #
1 18:1 #
-1 18:1 #
1 18:1 #
-1 18:1 #
1 18:1 #
-1 18:1 #
1 18:1 #
-1 18:1 #
1 18:1 #
-1 18:1 #
1 18:1 #
-1 18:1 #
1 18:1 #
-1 18:1 #
1 18:1 #
-1 18:1 #
1 18:1 #
-1 18:1 #
1 18:1 #
-1 18:1 #
1 18:1 #
-1 18:1 #
1 18:1 #
-1 18:1 #
1 18:1 #
-1 18:1 #
1 18:1 #
-1 18:1 #
1 18:1 #
-1 18:1 #
1 18:1 #
-1 18:1 #
1 18:1 #
-1 18:1 #
1 18:1 #
-1 18:1 #
1 18:1 #
-1 18:1 #
1 18:1 #
-1 18:1 #
1 18:1 #
-1 18:1 #
1 18:1 #
-1 18:1 #
1 18:1 #
-1 18:1 #
1 18:1 #
-1 18:1 #
1 18:1 #
-1 18:1 #
1 18:1 #
-1 18:1 #
1 18:1 #
-1 18:1 #
1 18:1 #
-1 18:1 #
1 18:1 #
-1 18:1 #
1 18:1 #
-1 18:1 #
1 18:1 #
-1 18:1 #
1 18:1 #
-1 18:1 #
1 18:1 #
-1 18:1 #
1 18:1 #
-1 18:1 #
1 18:1 #
-1 18:1 #
1 18:1 #
-1 18:1 #
1 18:1 #
-1 18:1 #
1 18:1 #
-1 18:1 #
1 18:1 #
-1 18:1 #
1 18:1 #
-1 18:1 #
1 18:1 #
-1 18:1 #
1 18:1 #
-1 18:1 #
1 18:1 #
-1 18:1 #
1 18:1 #
-1 18:1 #
1 18:1 #
-1 18:1 #
1 18:1 #
-1 18:1 #
1 18:1 #
-1 18:1 #
1 18:1 #
-1 18:1 #
1 18:1 #
-1 18:1 #
1 18:1 #
-1 18:1 #
1 18:1 #
-1 18:1 #
1 18:1 #
-1 18:1 #
1 18:1 #
-1 18:1 #
1 18:1 #
-1 18:1 #
1 18:1 #
-1 18:1 #
1 18:1 #
-1 18:1 #
1 18:1 #
-1 18:1 #
1 18:1 #
-1 18:1 #
1 18:1 #
-1 18:1 #
1 18:1 #
-1 18:1 #
1 18:1 #
-1 18:1 #
1 18:1 #
-1 18:1 #
1 18:1 #
-1 18:1 #
1 18:1 #
-1 18:1 #
1 18:1 #
-1 18:1 #
1 18:1 #
-1 18:1 #
1 18:1 #
-1 18:1 #
1 18:1 #
-1 18:1 #
1 18:1 #
-1 18:1 #
1 18:1 #
-1 18:1 #
1 18:1 #
-1 18:1 #
1 18:1 #
-1 18:1 #
1 18:1 #
-1 18:1 #
1 18:1 #
-1 18:1 #
1 18:1 #
-1 18:1 #
1 18:1 #
-1 18:1 #
1 18:1 #
-1 18:1 #
1 18:1 #
-1 18:1 #
1 18:1 #
-1 18:1 #
1 18:1 #
-1 18:1 #
1 18:1 #
-1 18:1 #
1 18:1 #
-1 18:1 #
1 18:1 #
-1 18:1 #
1 18:1 #
-1 18:1 #
1 18:1 #
-1 18:1 #
1 18:1 #
-1 18:1 #
1 18:1 #
-1 18:1 #
1 18:1 #
-1 18:1 #
1 18:1 #
-1 18:1 #
1 18:1 #
-1 18:1 #
1 18:1 #
-1 18:1 #
1 18:1 #
-1 18:1 #
1 18:1 #
-1 18:1 #
1 18:1 #
-1 18:1 #
1 18:1 #
-1 18:1 #
1 18:1 #
-1 18:1 #
1 18:1 #
-1 18:1 #
1 18:1 #
-1 18:1 #
1 18:1 #
-1 18:1 #
1 18:1 #
-1 18:1 #
1 18:1 #
-1 18:1 #
1 18:1 #
-1 18:1 #
1 18:1 #
-1 18:1 #
1 18:1 #
-1 18:1 #
1 18:1 #
-1 18:1 #
1 18:1 #
-1 18:1 #
1 18:1 #
-1 18:1 #
1 18:1 #
-1 18:1 #
1 18:1 #
-1 18:1 #
1 18:1 #
-1 18:1 #
1 18:1 #
-1 18:1 #
1 18:1 #
-1 18:1 #
1 18:1 #
-1 18:1 #
1 18:1 #
-1 18:1 #
1 18:1 #
-1 18:1 #
1 18:1 #
-1 18:1 #
1 18:1 #
-1 18:1 #
1 18:1 #
-1 18:1 #
1 18:1 #
-1 18:1 #
1 18:1 #
-1 18:1 #
1 18:1 #
-1 18:1 #
1 18:1 #
-1 18:1 #
1 18:1 #
-1 18:1 #
1 18:1 #
-1 18:1 #
1 18:1 #
-1 18:1 #
1 18:1 #
-1 18:1 #
1 18:1 #
-1 18:1 #
1 18:1 #
-1 18:1 #
1 18:1 #
-1 18:1 #
1 18:1 #
-1 18:1 #
1 18:1 #
-1 18:1 #
1 18:1 #
-1 18:1 #
1 18:1 #
-1 18:1 #
1 18:1 #
-1 18:1 #
1 18:1 #
-1 18:1 #
1 18:1 #
-1 18:1 #
1 18:1 #
-1 18:1 #
1 18:1 #
-1 18:1 #
1 18:1 #
-1 18:1 #
1 18:1 #
-1 18:1 #
1 18:1 #
-1 18:1 #
1 18:1 #
-1 18:1 #
1 18:1 #
-1 18:1 #
1 18:1 #
-1 18:1 #
1 18:1 #
-1 18:1 #
1 18:1 #
-1 18:1 #
1 18:1 #
-1 18:1 #
1 18:1 #
-1 18:1 #
1 18:1 #
-1 18:1 #
1 18:1 #
-1 18:1 #
1 18:1 #
-1 18:1 #
1 18:1 #
-1 18:1 #
1 18:1 #
-1 18:1 #
1 18:1 #
-1 18:1 #
1 18:1 #
-1 18:1 #
1 18:1 #
-1 18:1 #
1 18:1 #
-1 18:1 #
1 18:1 #
-1 18:1 #
1 18:1 #
-1 18:1 #
1 18:1 #
-1 18:1 #
1 18:1 #
-1 18:1 #
1 18:1 #
-1 18:1 #
1 18:1 #
-1 18:1 #
1 18:1 #
-1 18:1 #
1 18:1 #
-1 18:1 #
1 18:1 #
-1 18:1 #
1 18:1 #
-1 18:1 #
1 18:1 #
-1 18:1 #
1 18:1 #
-1 18:1 #
1 18:1 #
-1 18:1 #
1 18:1 #
-1 18:1 #
1 18:1 #
-1 18:1 #
1 18:1 #
-1 18:1 #
1 18:1 #
-1 18:1 #
1 18:1 #
-1 18:1 #
1 18:1 #
-1 18:1 #
1 18:1 #
-1 18:1 #
1 18:1 #
-1 18:1 #
1 18:1 #
-1 18:1 #
1 18:1 #
-1 18:1 #
1 18:1 #
-1 18:1 #
1 18:1 #
-1 18:1 #
1 18:1 #
-1 18:1 #
1 18:1 #
-1 18:1 #
1 18:1 #
-1 18:1 #
1 18:1 #
-1 18:1 #
1 18:1 #
-1 18:1 #
1 18:1 #
-1 18:1 #
1 18:1 #
-1 18:1 #
1 18:1 #
-1 18:1 #
1 18:1 #
-1 18:1 #
1 18:1 #
-1 18:1 #
1 18:1 #
-1 18:1 #
1 18:1 #
-1 18:1 #
1 18:1 #
-1 18:1 #
1 18:1 #
-1 18:1 #
1 18:1 #
-1 18:1 #
1 18:1 #
-1 18:1 #
1 18:1 #
-1 18:1 #
1 18:1 #
-1 18:1 #
1 18:1 #
-1 18:1 #
1 18:1 #
-1 18:1 #
1 18:1 #
-1 18:1 #
1 18:1 #
-1 18:1 #
1 18:1 #
-1 18:1 #
1 18:1 #
-1 18:1 #
1 18:1 #
-1 18:1 #
1 18:1 #
-1 18:1 #
1 18:1 #
-1 18:1 #
1 18:1 #
-1 18:1 #
1 18:1 #
-1 18:1 #
1 18:1 #
-1 18:1 #
1 18:1 #
-1 18:1 #
1 18:1 #
-1 18:1 #
1 18:1 #
-1 18:1 #
1 18:1 #
-1 18:1 #
1 18:1 #
-1 18:1 #
1 18:1 #
-1 18:1 #
1 18:1 #
-1 18:1 #
1 18:1 #
-1 18:1 #
1 18:1 #
-1 18:1 #
1 18:1 #
-1 18:1 #
1 18:1 #
-1 18:1 #
1 18:1 #
-1 18:1 #
1 18:1 #
-1 18:1 #
1 18:1 #
-1 18:1 #
1 18:1 #
-1 18:1 #
1 18:1 #
-1 18:1 #
1 18:1 #
-1 18:1 #
1 18:1 #
-1 18:1 #
1 18:1 #
-1 18:1 #
1 18:1 #
-1 18:1 #
1 18:1 #
-1 18:1 #
1 18:1 #
-1 18:1 #
1 18:1 #
-1 18:1 #
1 18:1 #
-1 18:1 #
1 18:1 #
-1 18:1 #
1 18:1 #
-1 18:1 #
1 18:1 #
-1 18:1 #
1 18:1 #
-1 18:1 #
1 18:1 #
-1 18:1 #
1 18:1 #
-1 18:1 #
1 18:1 #
-1 18:1 #
1 18:1 #
-1 18:1 #
1 18:1 #
-1 18:1 #
1 18:1 #
-1 18:1 #
1 18:1 #
-1 18:1 #
1 18:1 #
-1 18:1 #
1 18:1 #
-1 18:1 #
1 18:1 #
-1 18:1 #
1 18:1 #
-1 18:1 #
1 18:1 #
-1 18:1 #
1 18:1 #
-1 18:1 #
1 18:1 #
-1 18:1 #
1 18:1 #
-1 18:1 #
1 18:1 #
-1 18:1 #
1 18:1 #
-1 18:1 #
1 18:1 #
-1 18:1 #
1 18:1 #
-1 18:1 #
1 18:1 #
-1 18:1 #
1 18:1 #
-1 18:1 #
1 18:1 #
-1 18:1 #
1 18:1 #
-1 18:1 #
1 18:1 #
-1 18:1 #
1 18:1 #
-1 18:1 #
1 18:1 #
-1 18:1 #
1 18:1 #
-1 18:1 #
1 18:1 #
-1 18:1 #
1 18:1 #
-1 18:1 #
1 18:1 #
-1 18:1 #
1 18:1 #
-1 18:1 #
1 18:1 #
-1 18:1 #
1 18:1 #
-1 18:1 #
1 18:1 #
-1 18:1 #
1 18:1 #
-1 18:1 #
1 18:1 #
-1 18:1 #
1 18:1 #
-1 18:1 #
1 18:1 #
-1 18:1 #
1 18:1 #
-1 18:1 #
1 18:1 #
-1 18:1 #
1 18:1 #
-1 18:1 #
1 18:1 #
-1 18:1 #
1 18:1 #
-1 18:1 #
1 18:1 #
-1 18:1 #
1 18:1 #
-1 18:1 #
1 18:1 #
-1 18:1 #
1 18:1 #
-1 18:1 #
1 18:1 #
-1 18:1 #
1 18:1 #
-1 18:1 #
1 18:1 #
-1 18:1 #
1 18:1 #
-1 18:1 #
1 18:1 #
-1 18:1 #
1 18:1 #
-1 18:1 #
1 18:1 #
-1 18:1 #
1 18:1 #
-1 18:1 #
1 18:1 #
-1 18:1 #
1 18:1 #
-1 18:1 #
1 18:1 #
-1 18:1 #
1 18:1 #
-1 18:1 #
1 18:1 #
-1 18:1 #
1 18:1 #
-1 18:1 #
1 18:1 #
-1 18:1 #
1 18:1 #
-1 18:1 #
1 18:1 #
-1 18:1 #
1 18:1 #
-1 18:1 #
1 18:1 #
-1 18:1 #
1 18:1 #
-1 18:1 #
1 18:1 #
-1 18:1 #
1 18:1 #
-1 18:1 #
1 18:1 #
-1 18:1 #
1 18:1 #
-1 18:1 #
1 18:1 #
-1 18:1 #
1 18:1 #
-1 18:1 #
1 18:1 #
-1 18:1 #
1 18:1 #
-1 18:1 #
1 18:1 #
-1 18:1 #
1 18:1 #
-1 18:1 #
1 18:1 #
-1 18:1 #
1 18:1 #
-1 18:1 #
1 18:1 #
-1 18:1 #
1 18:1 #
-1 18:1 #
1 18:1 #
-1 18:1 #
1 18:1 #
-1 18:1 #
1 18:1 #
-1 18:1 #
1 18:1 #
-1 18:1 #
1 18:1 #
-1 18:1 #
1 18:1 #
-1 18:1 #
1 18:1 #
-1 18:1 #
1 18:1 #
-1 18:1 #
1 18:1 #
-1 18:1 #
1 18:1 #
-1 18:1 #
1 18:1 #
-1 18:1 #
1 18:1 #
-1 18:1 #
1 18:1 #
-1 18:1 #
1 18:1 #
-1 18:1 #
1 18:1 #
-1 18:1 #
1 18:1 #
-1 18:1 #
1 18:1 #
-1 18:1 #
1 18:1 #
-1 18:1 #
1 18:1 #
-1 18:1 #
1 18:1 #
-1 18:1 #
1 18:1 #
-1 18:1 #
1 18:1 #
-1 18:1 #
1 18:1 #
-1 18:1 #
1 18:1 #
-1 18:1 #
1 18:1 #
-1 18:1 #
1 18:1 #
-1 18:1 #
1 18:1 #
-1 18:1 #
1 18:1 #
-1 18:1 #
1 18:1 #
-1 18:1 #
1 18:1 #
-1 18:1 #
1 18:1 #
-1 18:1 #
1 18:1 #
-1 18:1 #
1 18:1 #
-1 18:1 #
1 18:1 #
-1 18:1 #
1 18:1 #
-1 18:1 #
1 18:1 #
-1 18:1 #
1 18:1 #
-1 18:1 #
1 18:1 #
-1 18:1 #
1 18:1 #
-1 18:1 #
1 18:1 #
-1 18:1 #
1 18:1 #
-1 18:1 #
1 18:1 #
-1 18:1 #
1 18:1 #
-1 18:1 #
1 18:1 #
-1 18:1 #
1 18:1 #
-1 18:1 #
1 18:1 #
-1 18:1 #
1 18:1 #
-1 18:1 #
1 18:1 #
-1 18:1 #
1 18:1 #
-1 18:1 #
1 18:1 #
-1 18:1 #
1 18:1 #
-1 18:1 #
1 18:1 #
-1 18:1 #
1 18:1 #
-1 18:1 #
1 18:1 #
-1 18:1 #
1 18:1 #
-1 18:1 #
1 18:1 #
-1 18:1 #
1 18:1 #
-1 18:1 #
1 18:1 #
-1 18:1 #
1 18:1 #
-1 18:1 #
1 18:1 #
-1 18:1 #
1 18:1 #
-1 18:1 #
1 18:1 #
-1 18:1 #
1 18:1 #
-1 18:1 #
1 18:1 #
-1 18:1 #
1 18:1 #
-1 18:1 #
1 18:1 #
-1 18:1 #
1 18:1 #
-1 18:1 #
1 18:1 #
-1 18:1 #
1 18:1 #
-1 18:1 #
1 18:1 #
-1 18:1 #
1 18:1 #
-1 18:1 #
1 18:1 #
-1 18:1 #
1 18:1 #
-1 18:1 #
1 18:1 #
-1 18:1 #
1 18:1 #
-1 18:1 #
1 18:1 #
-1 18:1 #
1 18:1 #
-1 18:1 #
1 18:1 #
-1 18:1 #
1 18:1 #
-1 18:1 #
1 18:1 #
-1 18:1 #
1 18:1 #
-1 18:1 #
1 18:1 #
-1 18:1 #
1 18:1 #
-1 18:1 #
1 18:1 #
-1 18:1 #
1 18:1 #
1 2:1 #
-1 18:1 #
1 16:1 #
1 1:1 #
1 15:1 #
-1 9:1 #
1 7:1 #
1 11:1 #
1 9:1 #
1 20:1 #
1 19:1 #
1 5:1 #
-1 1:1 #
-1 16:1 #
1 4:1 #
1 14:1 #
1 2:1 #
1 8:1 #
1 12:1 #
-1 15:1 #
1 10:1 #
1 6:1 #
1 17:1 #
-1 4:1 #
-1 14:1 #
-1 2:1 #
1 13:1 #
1 7:1 #
-1 7:1 #
-1 13:1 #
-1 12:1 #
-1 8:1 #
1 7:1 #
-1 7:1 #
1 7:1 #
-1 7:1 #
1 8:1 #
1 12:1 #
-1 8:1 #
-1 12:1 #
1 7:1 #
-1 7:1 #
1 12:1 #
-1 12:1 #
1 7:1 #
-1 7:1 #
1 12:1 #
-1 12:1 #
1 7:1 #
-1 7:1 #
1 12:1 #
-1 12:1 #
1 7:1 #
-1 7:1 #
1 12:1 #
-1 12:1 #
1 7:1 #
-1 7:1 #
1 12:1 #
-1 12:1 #
1 7:1 #
-1 7:1 #
1 12:1 #
-1 12:1 #
1 7:1 #
-1 7:1 #
1 12:1 #
-1 12:1 #
1 7:1 #
-1 7:1 #
1 12:1 #
-1 12:1 #
1 7:1 #
-1 7:1 #
1 12:1 #
-1 12:1 #
1 7:1 #
-1 7:1 #
1 12:1 #
-1 12:1 #
1 7:1 #
-1 7:1 #
1 12:1 #
-1 12:1 #
1 7:1 #
-1 7:1 #
-1 8:1 #
-1 9:1 #
-1 17:1 #
1 11:1 #
1 14:1 #
1 12:1 #
-1 11:1 #
-1 14:1 #
-1 12:1 #
1 8:1 #
1 9:1 #
-1 9:1 #
1 12:1 #
-1 12:1 #
1 9:1 #
-1 9:1 #
1 12:1 #
-1 12:1 #
1 9:1 #
-1 9:1 #
1 12:1 #
-1 12:1 #
1 9:1 #
-1 9:1 #
1 12:1 #
-1 12:1 #
1 9:1 #
-1 9:1 #
1 12:1 #
-1 12:1 #
1 9:1 #
-1 9:1 #
1 12:1 #
-1 12:1 #
1 9:1 #
-1 9:1 #
1 12:1 #
-1 12:1 #
1 9:1 #
-1 9:1 #
1 12:1 #
-1 12:1 #
1 9:1 #
-1 9:1 #
1 12:1 #
-1 12:1 #
1 9:1 #
-1 9:1 #
1 12:1 #
-1 12:1 #
1 9:1 #
-1 9:1 #
1 12:1 #
-1 12:1 #
1 9:1 #
-1 9:1 #
1 12:1 #
-1 12:1 #
1 9:1 #
-1 9:1 #
1 12:1 #
-1 12:1 #
1 9:1 #
-1 9:1 #
1 12:1 #
-1 12:1 #
1 9:1 #
-1 9:1 #
1 12:1 #
-1 12:1 #
1 9:1 #
-1 9:1 #
1 12:1 #
-1 12:1 #
1 9:1 #
-1 9:1 #
1 12:1 #
-1 12:1 #
1 9:1 #
-1 9:1 #
1 12:1 #
1 7:1 #
-1 7:1 #
-1 12:1 #
1 9:1 #
-1 9:1 #
1 8:1 #
-1 8:1 #
1 9:1 #
-1 9:1 #
1 8:1 #
-1 8:1 #
1 9:1 #
-1 9:1 #
1 8:1 #
-1 8:1 #
1 9:1 #
-1 9:1 #
1 8:1 #
-1 8:1 #
1 9:1 #
-1 9:1 #
1 8:1 #
-1 8:1 #
1 9:1 #
-1 9:1 #
1 8:1 #
-1 8:1 #
-1 19:1 #
-1 9:1 #
-1 20:1 #
-1 6:1 #
1 14:1 #
1 4:1 #
1 2:1 #
1 12:1 #
-1 12:1 #
-1 4:1 #
-1 14:1 #
-1 2:1 #
1 9:1 #
1 19:1 #
1 20:1 #
-1 19:1 #
-1 20:1 #
1 8:1 #
-1 8:1 #
1 4:1 #
1 14:1 #
-1 4:1 #
1 2:1 #
-1 2:1 #
1 8:1 #
-1 8:1 #
1 2:1 #
-1 2:1 #
1 8:1 #
-1 8:1 #
1 2:1 #
-1 2:1 #
1 8:1 #
-1 8:1 #
1 2:1 #
-1 2:1 #
1 8:1 #
-1 8:1 #
1 2:1 #
-1 2:1 #
1 8:1 #
-1 8:1 #
1 2:1 #
-1 2:1 #
1 8:1 #
-1 8:1 #
1 2:1 #
-1 2:1 #
1 8:1 #
-1 8:1 #
1 2:1 #
-1 2:1 #
1 8:1 #
-1 8:1 #
1 2:1 #
-1 2:1 #
1 8:1 #
-1 8:1 #
1 2:1 #
-1 2:1 #
1 8:1 #
-1 8:1 #
1 2:1 #
-1 2:1 #
1 8:1 #
-1 8:1 #
1 2:1 #
-1 2:1 #
1 8:1 #
-1 8:1 #
1 2:1 #
-1 2:1 #
1 8:1 #
-1 8:1 #
1 2:1 #
-1 2:1 #
1 8:1 #
-1 8:1 #
1 2:1 #
-1 2:1 #
1 8:1 #
-1 8:1 #
1 2:1 #
-1 2:1 #
1 8:1 #
-1 8:1 #
1 2:1 #
-1 2:1 #
1 8:1 #
-1 8:1 #
1 2:1 #
-1 2:1 #
1 8:1 #
-1 8:1 #
1 2:1 #
-1 2:1 #
1 8:1 #
-1 8:1 #
1 2:1 #
-1 2:1 #
1 8:1 #
-1 8:1 #
1 2:1 #
-1 2:1 #
1 8:1 #
-1 8:1 #
1 2:1 #
-1 2:1 #
1 8:1 #
-1 8:1 #
1 2:1 #
-1 2:1 #
1 8:1 #
-1 8:1 #
1 2:1 #
-1 2:1 #
1 8:1 #
-1 8:1 #
1 2:1 #
-1 2:1 #
1 8:1 #
-1 8:1 #
1 2:1 #
-1 2:1 #
1 8:1 #
-1 8:1 #
1 2:1 #
-1 2:1 #
1 8:1 #
-1 8:1 #
1 2:1 #
-1 2:1 #
1 8:1 #
-1 8:1 #
1 2:1 #
-1 2:1 #
1 8:1 #
-1 8:1 #
1 2:1 #
-1 2:1 #
1 8:1 #
-1 8:1 #
1 2:1 #
-1 16:1 #
-1 12:1 #
-1 4:1 #
-1 20:1 #
1 2:1 #
1 6:1 #
1 8:1 #
1 14:1 #
-1 2:1 #
-1 14:1 #
-1 6:1 #
1 4:1 #
1 12:1 #
1 20:1 #
-1 8:1 #
1 17:1 #
-1 2:1 #
-1 14:1 #
1 8:1 #
-1 8:1 #
1 14:1 #
1 8:1 #
-1 14:1 #
1 2:1 #
-1 2:1 #
1 12:1 #
1 2:1 #
-1 2:1 #
1 19:1 #
-1 14:1 #
1 2:1 #
-1 2:1 #
1 14:1 #
1 13:1 #
-1 2:1 #
1 4:1 #
1 2:1 #
-1 2:1 #
1 2:1 #
-1 2:1 #
1 2:1 #
-1 2:1 #
1 2:1 #
1 14:1 #
1 2:1 #
-1 17:1 #
1 16:1 #
-1 13:1 #
1 16:1 #
-1 19:1 #
1 20:1 #
1 6:1 #
-1 6:1 #
-1 20:1 #
-1 4:1 #
1 19:1 #
-1 19:1 #
1 9:1 #
-1 9:1 #
1 19:1 #
-1 19:1 #
1 9:1 #
-1 9:1 #
1 7:1 #
-1 7:1 #
1 9:1 #
-1 9:1 #
1 7:1 #
-1 7:1 #
1 9:1 #
-1 9:1 #
1 7:1 #
-1 7:1 #
1 9:1 #
-1 9:1 #
1 7:1 #
-1 7:1 #
1 9:1 #
-1 9:1 #
1 7:1 #
-1 7:1 #
1 9:1 #
-1 9:1 #
1 7:1 #
-1 7:1 #
1 9:1 #
-1 9:1 #
1 7:1 #
-1 7:1 #
1 9:1 #
-1 9:1 #
1 7:1 #
-1 7:1 #
1 9:1 #
-1 9:1 #
1 7:1 #
-1 7:1 #
1 9:1 #
-1 9:1 #
1 7:1 #
-1 7:1 #
1 9:1 #
-1 9:1 #
1 7:1 #
-1 7:1 #
1 9:1 #
-1 9:1 #
1 7:1 #
-1 7:1 #
1 9:1 #
-1 9:1 #
1 7:1 #
-1 7:1 #
1 9:1 #
-1 9:1 #
1 7:1 #
-1 7:1 #
1 9:1 #
-1 9:1 #
-1 9:1 #
1 9:1 #
1 7:1 #
-1 7:1 #
1 9:1 #
-1 9:1 #
1 7:1 #
-1 7:1 #
1 9:1 #
-1 9:1 #
1 7:1 #
-1 7:1 #
1 9:1 #
-1 9:1 #
1 7:1 #
-1 7:1 #
1 9:1 #
-1 9:1 #
1 7:1 #
-1 7:1 #
1 9:1 #
-1 9:1 #
1 7:1 #
-1 7:1 #
1 9:1 #
-1 9:1 #
1 7:1 #
-1 7:1 #
1 9:1 #
-1 9:1 #
1 7:1 #
-1 7:1 #
1 9:1 #
-1 9:1 #
1 7:1 #
-1 7:1 #
1 9:1 #
-1 9:1 #
1 7:1 #
-1 7:1 #
1 9:1 #
-1 9:1 #
1 7:1 #
-1 7:1 #
1 9:1 #
-1 9:1 #
1 7:1 #
-1 7:1 #
1 9:1 #
-1 9:1 #
1 7:1 #
-1 7:1 #
1 9:1 #
-1 9:1 #
1 7:1 #
-1 7:1 #
1 9:1 #
-1 9:1 #
1 7:1 #
-1 7:1 #
1 9:1 #
-1 9:1 #
1 7:1 #
-1 7:1 #
1 9:1 #
-1 9:1 #
1 7:1 #
-1 7:1 #
1 9:1 #
-1 9:1 #
1 7:1 #
-1 7:1 #
1 9:1 #
-1 9:1 #
1 7:1 #
-1 7:1 #
1 9:1 #
-1 9:1 #
1 7:1 #
-1 7:1 #
1 9:1 #
-1 9:1 #
1 7:1 #
-1 7:1 #
1 9:1 #
-1 9:1 #
1 7:1 #
-1 7:1 #
1 9:1 #
-1 9:1 #
1 7:1 #
-1 7:1 #
1 9:1 #
-1 9:1 #
1 7:1 #
-1 7:1 #
1 9:1 #
-1 9:1 #
1 7:1 #
-1 7:1 #
1 9:1 #
-1 9:1 #
-1 9:1 #
1 9:1 #
1 7:1 #
-1 7:1 #
1 9:1 #
-1 9:1 #
1 7:1 #
-1 7:1 #
1 9:1 #
-1 9:1 #
1 7:1 #
-1 7:1 #
1 9:1 #
-1 9:1 #
1 7:1 #
-1 7:1 #
1 9:1 #
-1 9:1 #
1 7:1 #
-1 7:1 #
1 9:1 #
-1 9:1 #
1 7:1 #
-1 7:1 #
1 9:1 #
-1 9:1 #
1 7:1 #
-1 7:1 #
1 9:1 #
-1 9:1 #
1 7:1 #
-1 7:1 #
1 9:1 #
-1 9:1 #
1 7:1 #
-1 7:1 #
1 9:1 #
-1 9:1 #
1 7:1 #
-1 7:1 #
1 9:1 #
-1 9:1 #
1 7:1 #
-1 7:1 #
1 9:1 #
-1 9:1 #
1 7:1 #
-1 7:1 #
1 9:1 #
-1 9:1 #
1 7:1 #
-1 7:1 #
1 9:1 #
-1 9:1 #
1 7:1 #
-1 7:1 #
1 9:1 #
-1 9:1 #
1 7:1 #
-1 7:1 #
1 9:1 #
-1 9:1 #
1 7:1 #
-1 7:1 #
1 9:1 #
-1 9:1 #
1 7:1 #
-1 7:1 #
1 9:1 #
-1 9:1 #
1 7:1 #
-1 7:1 #
1 9:1 #
-1 9:1 #
1 7:1 #
-1 7:1 #
1 9:1 #
-1 9:1 #
1 7:1 #
-1 7:1 #
1 9:1 #
-1 9:1 #
1 7:1 #
-1 7:1 #
1 9:1 #
-1 9:1 #
1 7:1 #
-1 7:1 #
1 9:1 #
-1 9:1 #
1 7:1 #
-1 7:1 #
1 9:1 #
-1 9:1 #
1 7:1 #
-1 7:1 #
1 9:1 #
-1 9:1 #
1 7:1 #
-1 7:1 #
1 9:1 #
-1 9:1 #
-1 9:1 #
-1 10:1 #
-1 14:1 #
-1 20:1 #
1 7:1 #
-1 7:1 #
-1 20:1 #
1 7:1 #
-1 7:1 #
1 9:1 #
-1 9:1 #
-1 10:1 #
1 7:1 #
-1 7:1 #
-1 12:1 #
1 7:1 #
-1 7:1 #
-1 8:1 #
-1 5:1 #
-1 2:1 #
1 7:1 #
-1 7:1 #
-1 11:1 #
-1 8:1 #
-1 5:1 #
1 7:1 #
-1 7:1 #
1 7:1 #
-1 7:1 #
1 9:1 #
-1 9:1 #
1 7:1 #
-1 7:1 #
1 9:1 #
-1 9:1 #
1 7:1 #
-1 7:1 #
1 9:1 #
-1 9:1 #
1 7:1 #
-1 7:1 #
1 9:1 #
-1 9:1 #
1 7:1 #
-1 7:1 #
1 9:1 #
-1 9:1 #
1 7:1 #
-1 7:1 #
1 9:1 #
-1 9:1 #
1 7:1 #
-1 7:1 #
1 9:1 #
-1 9:1 #
1 7:1 #
-1 7:1 #
1 9:1 #
-1 9:1 #
1 7:1 #
-1 7:1 #
1 9:1 #
-1 9:1 #
1 7:1 #
-1 7:1 #
1 9:1 #
-1 9:1 #
1 7:1 #
-1 7:1 #
1 9:1 #
-1 9:1 #
1 7:1 #
-1 7:1 #
1 9:1 #
-1 9:1 #
1 7:1 #
-1 7:1 #
1 9:1 #
-1 9:1 #
1 7:1 #
-1 7:1 #
1 9:1 #
-1 9:1 #
1 7:1 #
-1 7:1 #
1 9:1 #
-1 9:1 #
1 7:1 #
-1 7:1 #
1 9:1 #
-1 9:1 #
1 7:1 #
-1 7:1 #
1 9:1 #
-1 9:1 #
1 7:1 #
-1 7:1 #
1 9:1 #
-1 9:1 #
1 7:1 #
-1 7:1 #
1 9:1 #
-1 9:1 #
1 7:1 #
-1 7:1 #
1 9:1 #
-1 9:1 #
1 7:1 #
-1 7:1 #
1 9:1 #
-1 9:1 #
1 7:1 #
-1 7:1 #
1 9:1 #
-1 9:1 #
1 7:1 #
-1 7:1 #
1 9:1 #
-1 9:1 #
1 7:1 #
-1 7:1 #
1 9:1 #
-1 9:1 #
1 7:1 #
-1 7:1 #
1 9:1 #
-1 9:1 #
1 7:1 #
-1 7:1 #
1 9:1 #
-1 9:1 #
1 7:1 #
-1 7:1 #
1 9:1 #
-1 9:1 #
1 7:1 #
-1 7:1 #
1 9:1 #
-1 9:1 #
1 7:1 #
-1 7:1 #
1 9:1 #
-1 8:1 #
-1 6:1 #
-1 9:1 #
1 9:1 #
-1 9:1 #
1 7:1 #
-1 7:1 #
1 9:1 #
-1 9:1 #
1 7:1 #
-1 7:1 #
1 9:1 #
-1 9:1 #
1 7:1 #
-1 7:1 #
1 9:1 #
-1 9:1 #
1 7:1 #
-1 7:1 #
1 9:1 #
-1 9:1 #
1 7:1 #
-1 7:1 #
1 9:1 #
-1 9:1 #
1 7:1 #
-1 7:1 #
1 9:1 #
-1 9:1 #
1 7:1 #
-1 7:1 #
1 9:1 #
-1 9:1 #
1 7:1 #
-1 7:1 #
1 9:1 #
-1 9:1 #
1 7:1 #
-1 7:1 #
1 9:1 #
-1 9:1 #
1 7:1 #
-1 7:1 #
1 9:1 #
-1 9:1 #
1 7:1 #
-1 7:1 #
1 9:1 #
-1 9:1 #
1 7:1 #
-1 7:1 #
1 9:1 #
-1 9:1 #
1 7:1 #
-1 7:1 #
1 9:1 #
-1 9:1 #
1 7:1 #
-1 7:1 #
1 9:1 #
-1 9:1 #
1 7:1 #
-1 7:1 #
1 9:1 #
-1 9:1 #
1 7:1 #
-1 7:1 #
1 9:1 #
-1 9:1 #
1 7:1 #
-1 7:1 #
1 9:1 #
-1 9:1 #
1 7:1 #
-1 7:1 #
1 9:1 #
-1 9:1 #
1 7:1 #
-1 7:1 #
1 9:1 #
-1 9:1 #
1 7:1 #
-1 7:1 #
1 9:1 #
-1 9:1 #
1 7:1 #
-1 7:1 #
1 9:1 #
-1 9:1 #
1 7:1 #
-1 7:1 #
1 9:1 #
-1 9:1 #
1 7:1 #
-1 7:1 #
1 9:1 #
-1 9:1 #
1 7:1 #
-1 7:1 #
1 9:1 #
-1 9:1 #
1 7:1 #
-1 7:1 #
1 9:1 #
-1 9:1 #
1 7:1 #
-1 7:1 #
1 9:1 #
-1 9:1 #
1 7:1 #
-1 7:1 #
1 9:1 #
-1 9:1 #
1 7:1 #
-1 7:1 #
1 9:1 #
-1 9:1 #
1 7:1 #
-1 7:1 #
1 9:1 #
-1 9:1 #
1 7:1 #
-1 7:1 #
1 9:1 #
-1 9:1 #
1 7:1 #
-1 7:1 #
1 9:1 #
-1 9:1 #
1 7:1 #
-1 7:1 #
1 9:1 #
-1 9:1 #
1 7:1 #
-1 7:1 #
1 9:1 #
-1 9:1 #
-1 14:1 #
-1 6:1 #
-1 20:1 #
-1 2:1 #
-1 8:1 #
1 7:1 #
1 9:1 #
-1 7:1 #
1 9:1 #
-1 11:1 #
1 7:1 #
-1 7:1 #
-1 9:1 #
1 7:1 #
-1 7:1 #
1 7:1 #
1 9:1 #
-1 7:1 #
-1 5:1 #
1 7:1 #
-1 7:1 #
1 7:1 #
-1 7:1 #
1 7:1 #
-1 7:1 #
1 7:1 #
-1 7:1 #
1 7:1 #
-1 7:1 #
1 7:1 #
-1 7:1 #
1 7:1 #
-1 7:1 #
1 7:1 #
-1 7:1 #
1 7:1 #
-1 7:1 #
1 7:1 #
-1 7:1 #
1 7:1 #
-1 7:1 #
1 7:1 #
-1 7:1 #
1 7:1 #
-1 7:1 #
1 7:1 #
-1 7:1 #
1 7:1 #
-1 7:1 #
1 7:1 #
-1 7:1 #
1 7:1 #
-1 7:1 #
1 7:1 #
-1 7:1 #
1 7:1 #
-1 7:1 #
1 7:1 #
-1 7:1 #
1 7:1 #
-1 7:1 #
1 7:1 #
-1 7:1 #
1 7:1 #
-1 7:1 #
1 7:1 #
-1 7:1 #
1 7:1 #
-1 7:1 #
1 7:1 #
-1 7:1 #
1 7:1 #
-1 7:1 #
1 7:1 #
-1 7:1 #
1 7:1 #
-1 7:1 #
1 7:1 #
-1 7:1 #
1 7:1 #
-1 7:1 #
1 7:1 #
-1 7:1 #
1 7:1 #
-1 7:1 #
1 7:1 #
-1 7:1 #
1 7:1 #
-1 7:1 #
1 7:1 #
-1 7:1 #
1 7:1 #
-1 7:1 #
1 7:1 #
-1 7:1 #
1 7:1 #
-1 7:1 #
1 7:1 #
-1 7:1 #
1 7:1 #
-1 7:1 #
1 7:1 #
-1 7:1 #
1 7:1 #
-1 7:1 #
1 7:1 #
-1 7:1 #
-1 4:1 #
-1 19:1 #
-1 5:1 #
-1 14:1 #
1 9:1 #
1 7:1 #
-1 7:1 #
1 7:1 #
-1 7:1 #
1 7:1 #
-1 7:1 #
1 7:1 #
-1 7:1 #
1 7:1 #
-1 7:1 #
1 7:1 #
-1 7:1 #
1 7:1 #
-1 7:1 #
1 7:1 #
-1 7:1 #
1 7:1 #
-1 7:1 #
1 7:1 #
-1 7:1 #
1 7:1 #
-1 7:1 #
1 7:1 #
-1 7:1 #
1 7:1 #
-1 7:1 #
1 7:1 #
-1 7:1 #
1 7:1 #
-1 7:1 #
1 7:1 #
-1 7:1 #
1 7:1 #
-1 7:1 #
1 7:1 #
-1 7:1 #
1 7:1 #
-1 7:1 #
1 7:1 #
-1 7:1 #
1 7:1 #
-1 7:1 #
1 7:1 #
-1 7:1 #
1 7:1 #
-1 7:1 #
1 7:1 #
-1 7:1 #
1 7:1 #
-1 7:1 #
1 7:1 #
-1 7:1 #
1 7:1 #
-1 7:1 #
1 7:1 #
-1 7:1 #
1 7:1 #
-1 7:1 #
1 7:1 #
-1 7:1 #
1 7:1 #
-1 7:1 #
1 7:1 #
-1 7:1 #
1 7:1 #
-1 7:1 #
1 7:1 #
-1 7:1 #
1 7:1 #
-1 7:1 #
1 7:1 #
-1 7:1 #
1 7:1 #
-1 7:1 #
1 7:1 #
-1 7:1 #
1 7:1 #
-1 7:1 #
1 7:1 #
-1 7:1 #
1 7:1 #
-1 7:1 #
1 7:1 #
-1 7:1 #
1 7:1 #
-1 7:1 #
1 7:1 #
-1 7:1 #
1 7:1 #
-1 7:1 #
1 7:1 #
-1 7:1 #
1 7:1 #
-1 7:1 #
1 7:1 #
-1 7:1 #
1 7:1 #
-1 7:1 #
1 7:1 #
-1 7:1 #
1 9:1 #
-1 7:1 #
1 7:1 #
-1 7:1 #
1 7:1 #
-1 7:1 #
1 7:1 #
-1 7:1 #
1 7:1 #
-1 7:1 #
-1 9:1 #
1 19:1 #
-1 16:1 #
1 4:1 #
-1 9:1 #
1 20:1 #
1 2:1 #
1 10:1 #
1 8:1 #
1 14:1 #
1 11:1 #
1 5:1 #
1 6:1 #
1 19:1 #
1 6:1 #
1 5:1 #
1 14:1 #
1 8:1 #
1 5:1 #
1 20:1 #
1 1:1 #
1 8:1 #
1 15:1 #
1 4:1 #
1 20:1 #
1 17:1 #
1 5:1 #
-1 17:1 #
-1 1:1 #
-1 15:1 #
1 20:1 #
1 14:1 #
-1 20:1 #
-1 14:1 #
-1 17:1 #
1 20:1 #
1 6:1 #
1 10:1 #
-1 6:1 #
-1 10:1 #
1 17:1 #
-1 20:1 #
-1 17:1 #
1 20:1 #
1 13:1 #
-1 13:1 #
1 17:1 #
-1 20:1 #
-1 17:1 #
1 17:1 #
1 13:1 #
1 20:1 #
-1 5:1 #
-1 4:1 #
-1 17:1 #
1 8:1 #
-1 8:1 #
1 17:1 #
-1 17:1 #
1 8:1 #
-1 8:1 #
1 17:1 #
-1 17:1 #
1 8:1 #
-1 8:1 #
1 17:1 #
-1 17:1 #
1 8:1 #
-1 8:1 #
1 17:1 #
-1 17:1 #
1 8:1 #
-1 8:1 #
1 17:1 #
-1 17:1 #
1 8:1 #
1 12:1 #
-1 12:1 #
1 17:1 #
-1 8:1 #
-1 17:1 #
1 17:1 #
1 8:1 #
1 12:1 #
-1 12:1 #
1 14:1 #
-1 14:1 #
-1 8:1 #
1 12:1 #
-1 12:1 #
1 8:1 #
-1 8:1 #
1 12:1 #
-1 12:1 #
1 8:1 #
-1 8:1 #
1 12:1 #
-1 12:1 #
1 8:1 #
-1 8:1 #
1 12:1 #
-1 12:1 #
1 8:1 #
-1 8:1 #
1 12:1 #
-1 12:1 #
1 8:1 #
-1 8:1 #
1 12:1 #
-1 12:1 #
1 8:1 #
-1 8:1 #
1 12:1 #
-1 12:1 #
1 8:1 #
-1 8:1 #
1 12:1 #
-1 12:1 #
1 8:1 #
-1 8:1 #
1 12:1 #
-1 12:1 #
1 8:1 #
-1 8:1 #
-1 4:1 #
-1 5:1 #
-1 7:1 #
-1 13:1 #
1 2:1 #
1 14:1 #
1 1:1 #
-1 1:1 #
-1 2:1 #
-1 14:1 #
1 7:1 #
-1 7:1 #
1 14:1 #
-1 14:1 #
1 2:1 #
-1 2:1 #
1 14:1 #
-1 14:1 #
1 2:1 #
-1 2:1 #
1 14:1 #
-1 14:1 #
1 2:1 #
-1 2:1 #
1 14:1 #
-1 14:1 #
1 2:1 #
-1 2:1 #
1 14:1 #
-1 14:1 #
1 2:1 #
-1 2:1 #
1 14:1 #
-1 14:1 #
1 2:1 #
-1 2:1 #
1 14:1 #
-1 14:1 #
1 2:1 #
-1 2:1 #
1 14:1 #
-1 14:1 #
1 2:1 #
-1 2:1 #
1 14:1 #
-1 14:1 #
1 2:1 #
-1 2:1 #
1 14:1 #
-1 14:1 #
1 2:1 #
-1 2:1 #
1 14:1 #
-1 14:1 #
1 2:1 #
-1 2:1 #
1 14:1 #
-1 14:1 #
1 2:1 #
-1 2:1 #
1 14:1 #
-1 14:1 #
1 2:1 #
-1 2:1 #
1 14:1 #
-1 14:1 #
1 2:1 #
-1 2:1 #
1 14:1 #
-1 14:1 #
1 2:1 #
-1 2:1 #
1 14:1 #
-1 14:1 #
1 2:1 #
-1 2:1 #
1 14:1 #
-1 14:1 #
1 2:1 #
-1 2:1 #
1 14:1 #
-1 14:1 #
1 2:1 #
-1 2:1 #
1 14:1 #
-1 14:1 #
1 2:1 #
-1 2:1 #
1 14:1 #
-1 14:1 #
1 2:1 #
-1 2:1 #
1 14:1 #
-1 14:1 #
1 2:1 #
-1 2:1 #
1 14:1 #
-1 14:1 #
1 2:1 #
-1 2:1 #
1 14:1 #
-1 14:1 #
1 2:1 #
-1 2:1 #
1 14:1 #
-1 14:1 #
-1 20:1 #
-1 15:1 #
-1 4:1 #
-1 2:1 #
1 11:1 #
1 10:1 #
1 8:1 #
1 14:1 #
-1 8:1 #
-1 14:1 #
1 2:1 #
-1 10:1 #
1 4:1 #
-1 11:1 #
1 15:1 #
1 20:1 #
-1 11:1 #
1 15:1 #
1 11:1 #
-1 11:1 #
1 7:1 #
1 11:1 #
-1 11:1 #
1 4:1 #
-1 11:1 #
1 5:1 #
1 11:1 #
-1 11:1 #
1 14:1 #
-1 11:1 #
1 11:1 #
-1 11:1 #
1 11:1 #
-1 11:1 #
1 11:1 #
-1 11:1 #
1 11:1 #
1 11:1 #
1 11:1 #
-1 20:1 #
-1 15:1 #
1 8:1 #
-1 8:1 #
1 1:1 #
-1 1:1 #
1 8:1 #
-1 8:1 #
1 1:1 #
-1 1:1 #
1 8:1 #
-1 8:1 #
1 1:1 #
1 4:1 #
-1 1:1 #
-1 4:1 #
1 8:1 #
-1 8:1 #
1 5:1 #
-1 5:1 #
1 8:1 #
-1 8:1 #
1 5:1 #
-1 5:1 #
1 8:1 #
-1 8:1 #
1 5:1 #
1 6:1 #
-1 5:1 #
-1 6:1 #
1 8:1 #
-1 8:1 #
1 17:1 #
1 13:1 #
-1 17:1 #
1 8:1 #
-1 8:1 #
-1 13:1 #
1 17:1 #
-1 17:1 #
1 13:1 #
1 11:1 #
-1 15:1 #
1 17:1 #
-1 17:1 #
1 2:1 #
-1 2:1 #
1 17:1 #
-1 17:1 #
1 2:1 #
-1 2:1 #
1 17:1 #
-1 17:1 #
1 2:1 #
-1 2:1 #
1 17:1 #
-1 17:1 #
1 2:1 #
-1 2:1 #
1 17:1 #
-1 17:1 #
1 2:1 #
-1 2:1 #
1 17:1 #
-1 17:1 #
1 2:1 #
-1 2:1 #
1 17:1 #
-1 17:1 #
1 2:1 #
-1 2:1 #
1 17:1 #
-1 17:1 #
1 2:1 #
-1 2:1 #
1 17:1 #
-1 17:1 #
1 2:1 #
-1 2:1 #
1 17:1 #
-1 17:1 #
1 2:1 #
-1 2:1 #
1 17:1 #
-1 17:1 #
1 2:1 #
-1 2:1 #
1 17:1 #
-1 17:1 #
-1 19:1 #
-1 9:1 #
-1 15:1 #
-1 6:1 #
-1 8:1 #
1 4:1 #
1 11:1 #
1 12:1 #
-1 11:1 #
-1 4:1 #
-1 12:1 #
1 8:1 #
1 6:1 #
-1 20:1 #
-1 4:1 #
1 17:1 #
-1 17:1 #
1 2:1 #
1 17:1 #
-1 17:1 #
1 4:1 #
-1 4:1 #
1 17:1 #
-1 11:1 #
1 4:1 #
-1 4:1 #
1 12:1 #
-1 12:1 #
1 4:1 #
-1 4:1 #
1 12:1 #
-1 12:1 #
1 4:1 #
-1 4:1 #
1 12:1 #
-1 12:1 #
1 4:1 #
-1 4:1 #
1 12:1 #
-1 12:1 #
1 4:1 #
-1 4:1 #
1 12:1 #
-1 12:1 #
1 4:1 #
-1 4:1 #
1 12:1 #
-1 12:1 #
1 4:1 #
-1 4:1 #
1 12:1 #
-1 12:1 #
1 4:1 #
-1 4:1 #
1 12:1 #
-1 12:1 #
1 4:1 #
-1 4:1 #
1 12:1 #
-1 12:1 #
1 4:1 #
-1 4:1 #
1 12:1 #
-1 12:1 #
1 4:1 #
-1 4:1 #
1 12:1 #
-1 12:1 #
1 4:1 #
-1 4:1 #
1 12:1 #
-1 12:1 #
1 4:1 #
-1 4:1 #
1 12:1 #
-1 12:1 #
1 4:1 #
-1 4:1 #
1 12:1 #
-1 12:1 #
1 4:1 #
-1 4:1 #
1 12:1 #
-1 12:1 #
1 4:1 #
-1 4:1 #
1 12:1 #
-1 12:1 #
1 4:1 #
-1 4:1 #
1 12:1 #
-1 12:1 #
1 4:1 #
-1 4:1 #
1 12:1 #
-1 12:1 #
1 4:1 #
-1 4:1 #
1 12:1 #
-1 12:1 #
1 4:1 #
-1 4:1 #
1 12:1 #
-1 12:1 #
1 4:1 #
-1 4:1 #
1 12:1 #
-1 12:1 #
1 4:1 #
-1 4:1 #
1 12:1 #
-1 12:1 #
1 4:1 #
-1 4:1 #
1 12:1 #
-1 12:1 #
1 4:1 #
-1 4:1 #
1 12:1 #
-1 12:1 #
1 4:1 #
-1 4:1 #
1 12:1 #
-1 12:1 #
1 4:1 #
-1 4:1 #
1 12:1 #
-1 12:1 #
1 4:1 #
-1 4:1 #
1 12:1 #
-1 12:1 #
1 4:1 #
-1 4:1 #
1 12:1 #
-1 12:1 #
1 4:1 #
-1 4:1 #
1 12:1 #
-1 12:1 #
1 4:1 #
-1 4:1 #
1 12:1 #
-1 12:1 #
1 4:1 #
-1 4:1 #
1 12:1 #
-1 12:1 #
1 4:1 #
-1 4:1 #
1 12:1 #
-1 12:1 #
1 4:1 #
-1 4:1 #
1 12:1 #
-1 12:1 #
1 4:1 #
-1 4:1 #
1 12:1 #
-1 12:1 #
1 4:1 #
-1 4:1 #
1 12:1 #
-1 12:1 #
1 4:1 #
-1 4:1 #
1 12:1 #
-1 12:1 #
1 4:1 #
-1 4:1 #
1 12:1 #
-1 12:1 #
1 4:1 #
-1 4:1 #
1 12:1 #
-1 12:1 #
1 4:1 #
-1 4:1 #
1 12:1 #
-1 12:1 #
1 4:1 #
-1 4:1 #
1 12:1 #
-1 12:1 #
1 4:1 #
-1 4:1 #
1 12:1 #
-1 12:1 #
1 4:1 #
-1 4:1 #
1 12:1 #
-1 12:1 #
1 4:1 #
-1 4:1 #
1 12:1 #
-1 11:1 #
1 8:1 #
1 10:1 #
1 6:1 #
1 4:1 #
-1 12:1 #
1 11:1 #
1 4:1 #
-1 11:1 #
-1 4:1 #
1 11:1 #
1 4:1 #
-1 11:1 #
-1 4:1 #
1 11:1 #
1 4:1 #
1 1:1 #
1 5:1 #
-1 5:1 #
-1 1:1 #
1 15:1 #
-1 2:1 #
1 20:1 #
-1 17:1 #
1 15:1 #
1 1:1 #
-1 1:1 #
1 5:1 #
-1 5:1 #
-1 1:1 #
1 15:1 #
1 1:1 #
-1 4:1 #
-1 1:1 #
1 4:1 #
1 1:1 #
-1 4:1 #
-1 1:1 #
1 4:1 #
1 1:1 #
-1 4:1 #
-1 1:1 #
1 4:1 #
1 1:1 #
-1 4:1 #
-1 1:1 #
1 4:1 #
1 1:1 #
-1 4:1 #
-1 1:1 #
1 4:1 #
1 1:1 #
-1 4:1 #
-1 1:1 #
1 4:1 #
1 1:1 #
-1 4:1 #
-1 1:1 #
1 4:1 #
1 1:1 #
-1 4:1 #
-1 1:1 #
1 4:1 #
1 1:1 #
-1 4:1 #
-1 1:1 #
1 4:1 #
1 1:1 #
-1 4:1 #
-1 1:1 #
1 4:1 #
1 1:1 #
-1 4:1 #
-1 1:1 #
1 4:1 #
1 1:1 #
-1 4:1 #
-1 1:1 #
1 4:1 #
1 1:1 #
-1 4:1 #
-1 1:1 #
1 4:1 #
1 1:1 #
-1 4:1 #
-1 1:1 #
1 4:1 #
1 1:1 #
-1 4:1 #
-1 1:1 #
1 4:1 #
1 1:1 #
-1 4:1 #
-1 1:1 #
1 4:1 #
1 1:1 #
-1 4:1 #
-1 1:1 #
1 4:1 #
1 1:1 #
-1 4:1 #
-1 1:1 #
1 4:1 #
1 1:1 #
-1 4:1 #
-1 1:1 #
1 4:1 #
1 1:1 #
-1 4:1 #
-1 1:1 #
1 4:1 #
1 1:1 #
-1 4:1 #
-1 1:1 #
1 4:1 #
1 1:1 #
-1 4:1 #
-1 1:1 #
1 4:1 #
1 1:1 #
-1 4:1 #
-1 1:1 #
1 4:1 #
1 1:1 #
-1 4:1 #
-1 1:1 #
1 4:1 #
1 1:1 #
-1 4:1 #
-1 16:1 #
-1 1:1 #
-1 10:1 #
1 2:1 #
1 8:1 #
-1 8:1 #
1 10:1 #
-1 2:1 #
-1 6:1 #
1 4:1 #
-1 4:1 #
-1 10:1 #
1 5:1 #
-1 5:1 #
1 4:1 #
-1 4:1 #
1 10:1 #
-1 10:1 #
1 4:1 #
-1 4:1 #
1 10:1 #
-1 10:1 #
1 4:1 #
-1 4:1 #
1 10:1 #
-1 10:1 #
1 4:1 #
-1 4:1 #
1 10:1 #
-1 10:1 #
1 4:1 #
-1 4:1 #
1 10:1 #
-1 10:1 #
1 4:1 #
-1 4:1 #
1 10:1 #
-1 10:1 #
1 4:1 #
-1 4:1 #
1 10:1 #
-1 10:1 #
1 4:1 #
-1 4:1 #
1 10:1 #
-1 10:1 #
1 4:1 #
-1 4:1 #
1 10:1 #
-1 10:1 #
1 4:1 #
