SVM-light Version V6.02
2 # kernel type
3 # kernel parameter -d 
1 # kernel parameter -g 
1 # kernel parameter -s 
1 # kernel parameter -r 
empty# kernel parameter -u 
20 # highest feature index 
65064 # number of training documents 
18439 # number of support vectors plus 1 
0.99990882 # threshold b, each following line is a SV (starting with alpha*y)
-0.79098835343392759344993692138814 9:1 #
-0.51434839673856802555462763848482 2:1 #
-0.64796901938164130907438220674521 4:1 #
-0.73866349239274575744218509498751 12:1 #
0.21356685542716047354616648590309 15:1 #
0.21356685542716047354616648590309 17:1 #
0.21356685542716047354616648590309 2:1 #
0.21356685542716047354616648590309 4:1 #
-0.73570307206652685305670047455351 17:1 #
-0.79098835343392759344993692138814 15:1 #
0.21356685542716047354616648590309 9:1 #
0.21356685542716047354616648590309 17:1 #
0.21356685542716047354616648590309 2:1 #
-0.79098835343392759344993692138814 9:1 #
0.21356685542716047354616648590309 12:1 #
0.21356685542716047354616648590309 4:1 #
0.21356685542716047354616648590309 12:1 #
-0.79098835343392759344993692138814 2:1 #
0.21356685542716047354616648590309 9:1 #
0.21356685542716047354616648590309 4:1 #
-0.6131245423833003860281110064534 12:1 #
0.21356685542716047354616648590309 2:1 #
0.21356685542716047354616648590309 2:1 #
-0.79098835343392759344993692138814 4:1 #
0.21356685542716047354616648590309 12:1 #
0.21356685542716047354616648590309 4:1 #
0.21356685542716047354616648590309 15:1 #
0.21356685542716047354616648590309 2:1 #
-0.79098835343392759344993692138814 15:1 #
-0.79098835343392759344993692138814 2:1 #
0.21356685542716047354616648590309 15:1 #
0.21356685542716047354616648590309 2:1 #
0.21356685542716047354616648590309 15:1 #
0.21356685542716047354616648590309 2:1 #
0.21356685542716047354616648590309 15:1 #
0.21356685542716047354616648590309 2:1 #
0.21356685542716047354616648590309 15:1 #
-0.79098835343392759344993692138814 12:1 #
-0.79098835343392759344993692138814 15:1 #
0.21356685542716047354616648590309 15:1 #
-0.79098835343392759344993692138814 2:1 #
0.21356685542716047354616648590309 2:1 #
0.21356685542716047354616648590309 15:1 #
0.21356685542716047354616648590309 2:1 #
0.21356685542716047354616648590309 15:1 #
0.21356685542716047354616648590309 2:1 #
-0.79098835343392759344993692138814 15:1 #
0.21356685542716047354616648590309 15:1 #
0.21356685542716047354616648590309 2:1 #
-0.79098835343392759344993692138814 2:1 #
0.21356685542716047354616648590309 15:1 #
0.21356685542716047354616648590309 2:1 #
0.21356685542716047354616648590309 15:1 #
0.21356685542716047354616648590309 2:1 #
0.21356685542716047354616648590309 15:1 #
0.21356685542716047354616648590309 2:1 #
-0.79098835343392759344993692138814 15:1 #
0.21356685542716047354616648590309 15:1 #
0.21356685542716047354616648590309 2:1 #
-0.79098835343392759344993692138814 2:1 #
0.21356685542716047354616648590309 15:1 #
0.21356685542716047354616648590309 2:1 #
0.21356685542716047354616648590309 15:1 #
0.21356685542716047354616648590309 2:1 #
0.21356685542716047354616648590309 15:1 #
-0.79098835343392759344993692138814 15:1 #
0.21356685542716047354616648590309 2:1 #
0.21356685542716047354616648590309 15:1 #
-0.79098835343392759344993692138814 4:1 #
0.21356685542716047354616648590309 2:1 #
0.21356685542716047354616648590309 15:1 #
-0.79098835343392759344993692138814 2:1 #
0.21356685542716047354616648590309 15:1 #
0.21356685542716047354616648590309 4:1 #
0.21356685542716047354616648590309 15:1 #
-0.79098835343392759344993692138814 15:1 #
0.21356685542716047354616648590309 4:1 #
0.21356685542716047354616648590309 15:1 #
0.21356685542716047354616648590309 4:1 #
0.21356685542716047354616648590309 15:1 #
-0.79098835343392759344993692138814 4:1 #
0.21356685542716047354616648590309 4:1 #
0.21356685542716047354616648590309 15:1 #
0.21356685542716047354616648590309 4:1 #
-0.79098835343392759344993692138814 15:1 #
0.21356685542716047354616648590309 15:1 #
0.21356685542716047354616648590309 4:1 #
0.21356685542716047354616648590309 15:1 #
0.21356685542716047354616648590309 4:1 #
-0.79098835343392759344993692138814 4:1 #
0.21356685542716047354616648590309 15:1 #
0.21356685542716047354616648590309 4:1 #
0.21356685542716047354616648590309 15:1 #
0.21356685542716047354616648590309 4:1 #
-0.79098835343392759344993692138814 15:1 #
0.21356685542716047354616648590309 15:1 #
0.21356685542716047354616648590309 4:1 #
0.21356685542716047354616648590309 15:1 #
0.21356685542716047354616648590309 4:1 #
-0.79098835343392759344993692138814 4:1 #
0.21356685542716047354616648590309 15:1 #
0.21356685542716047354616648590309 4:1 #
0.21356685542716047354616648590309 15:1 #
-0.79098835343392759344993692138814 15:1 #
0.21356685542716047354616648590309 4:1 #
0.21356685542716047354616648590309 15:1 #
0.21356685542716047354616648590309 4:1 #
0.21356685542716047354616648590309 15:1 #
-0.79098835343392759344993692138814 4:1 #
0.21356685542716047354616648590309 4:1 #
0.21356685542716047354616648590309 15:1 #
0.21356685542716047354616648590309 4:1 #
-0.79098835343392759344993692138814 15:1 #
0.21356685542716047354616648590309 15:1 #
0.21356685542716047354616648590309 4:1 #
0.21356685542716047354616648590309 15:1 #
0.21356685542716047354616648590309 4:1 #
-0.79098835343392759344993692138814 4:1 #
0.21356685542716047354616648590309 15:1 #
0.21356685542716047354616648590309 4:1 #
0.21356685542716047354616648590309 15:1 #
0.21356685542716047354616648590309 4:1 #
-0.79098835343392759344993692138814 15:1 #
-0.086346777464770332888299719797942 3:1 #
-0.086346777464770305132724104169029 20:1 #
-0.086347273557329129456405780729256 17:1 #
-0.16809434938187414743104852732358 4:1 #
0.21356685542716047354616648590309 7:1 #
0.21356685542716047354616648590309 18:1 #
0.21356685542716047354616648590309 4:1 #
-0.79098835343392759344993692138814 18:1 #
-0.78711464536039743578044181049336 7:1 #
0.21356685542716047354616648590309 17:1 #
0.21356685542716047354616648590309 20:1 #
0.21356685542716047354616648590309 4:1 #
-0.79098835343392759344993692138814 17:1 #
0.21356685542716047354616648590309 17:1 #
-0.79098835343392759344993692138814 20:1 #
0.21356685542716047354616648590309 15:1 #
-0.79098835343392759344993692138814 17:1 #
0.21356685542716047354616648590309 3:1 #
0.21356685542716047354616648590309 17:1 #
0.21356685542716047354616648590309 17:1 #
-0.79098835343392759344993692138814 3:1 #
0.21356685542716047354616648590309 15:1 #
0.21356685542716047354616648590309 17:1 #
0.21356685542716047354616648590309 15:1 #
0.21356685542716047354616648590309 17:1 #
-0.79098835343392759344993692138814 17:1 #
0.21356685542716047354616648590309 15:1 #
-0.79098835343392759344993692138814 18:1 #
0.21356685542716047354616648590309 3:1 #
-0.79098835343392759344993692138814 15:1 #
0.21356685542716047354616648590309 18:1 #
0.21356685542716047354616648590309 15:1 #
-0.79098835343392759344993692138814 3:1 #
0.21356685542716047354616648590309 15:1 #
0.21356685542716047354616648590309 18:1 #
0.21356685542716047354616648590309 15:1 #
0.21356685542716047354616648590309 18:1 #
0.21356685542716047354616648590309 17:1 #
0.21356685542716047354616648590309 9:1 #
0.21356685542716047354616648590309 18:1 #
-0.79098835343392759344993692138814 9:1 #
-0.79098835343392759344993692138814 18:1 #
0.21356685542716047354616648590309 9:1 #
0.21356685542716047354616648590309 17:1 #
0.21356685542716047354616648590309 9:1 #
0.21356685542716047354616648590309 17:1 #
0.21356685542716047354616648590309 9:1 #
0.21356685542716047354616648590309 18:1 #
-0.79098835343392759344993692138814 9:1 #
0.21356685542716047354616648590309 9:1 #
0.21356685542716047354616648590309 18:1 #
0.21356685542716047354616648590309 9:1 #
0.21356685542716047354616648590309 18:1 #
0.21356685542716047354616648590309 9:1 #
0.21356685542716047354616648590309 18:1 #
-0.79098835343392759344993692138814 18:1 #
0.21356685542716047354616648590309 9:1 #
-0.79098835343392759344993692138814 9:1 #
0.21356685542716047354616648590309 18:1 #
0.21356685542716047354616648590309 9:1 #
0.21356685542716047354616648590309 18:1 #
0.21356685542716047354616648590309 9:1 #
0.21356685542716047354616648590309 18:1 #
0.21356685542716047354616648590309 9:1 #
-0.79098835343392759344993692138814 18:1 #
0.21356685542716047354616648590309 18:1 #
0.21356685542716047354616648590309 9:1 #
-0.79098835343392759344993692138814 9:1 #
0.21356685542716047354616648590309 18:1 #
0.21356685542716047354616648590309 9:1 #
0.21356685542716047354616648590309 18:1 #
0.21356685542716047354616648590309 9:1 #
0.21356685542716047354616648590309 18:1 #
0.21356685542716047354616648590309 9:1 #
-0.79098835343392759344993692138814 18:1 #
0.21356685542716047354616648590309 18:1 #
-0.79098835343392759344993692138814 20:1 #
0.21356685542716047354616648590309 20:1 #
0.21356685542716047354616648590309 18:1 #
0.21356685542716047354616648590309 20:1 #
0.21356685542716047354616648590309 18:1 #
0.21356685542716047354616648590309 20:1 #
0.21356685542716047354616648590309 18:1 #
0.21356685542716047354616648590309 20:1 #
-0.79098835343392759344993692138814 18:1 #
-0.79098835343392759344993692138814 20:1 #
0.21356685542716047354616648590309 18:1 #
0.21356685542716047354616648590309 20:1 #
0.21356685542716047354616648590309 18:1 #
0.21356685542716047354616648590309 20:1 #
0.21356685542716047354616648590309 18:1 #
0.21356685542716047354616648590309 20:1 #
-0.79098835343392759344993692138814 18:1 #
0.21356685542716047354616648590309 18:1 #
0.21356685542716047354616648590309 20:1 #
-0.79098835343392759344993692138814 20:1 #
0.21356685542716047354616648590309 18:1 #
0.21356685542716047354616648590309 20:1 #
0.21356685542716047354616648590309 18:1 #
0.21356685542716047354616648590309 20:1 #
0.21356685542716047354616648590309 18:1 #
0.21356685542716047354616648590309 20:1 #
-0.79098835343392759344993692138814 18:1 #
0.21356685542716047354616648590309 18:1 #
0.21356685542716047354616648590309 20:1 #
-0.79098835343392759344993692138814 20:1 #
0.21356685542716047354616648590309 18:1 #
0.21356685542716047354616648590309 20:1 #
0.21356685542716047354616648590309 18:1 #
0.21356685542716047354616648590309 20:1 #
0.21356685542716047354616648590309 18:1 #
0.21356685542716047354616648590309 20:1 #
-0.79098835343392759344993692138814 18:1 #
-0.79098835343392759344993692138814 20:1 #
0.21356685542716047354616648590309 18:1 #
0.21356685542716047354616648590309 20:1 #
0.21356685542716047354616648590309 18:1 #
-0.15819765053414905353612596172752 10:1 #
-0.15424710553270326585106886341237 2:1 #
-0.27684731241969123827217913458298 15:1 #
-0.17393491066862029614803475396911 19:1 #
0.21356685542716047354616648590309 16:1 #
0.21356685542716047354616648590309 9:1 #
0.21356685542716047354616648590309 1:1 #
0.21356685542716047354616648590309 20:1 #
-0.79098835343392759344993692138814 9:1 #
0.21356685542716047354616648590309 15:1 #
-0.79098835343392759344993692138814 16:1 #
-0.79098835343392759344993692138814 18:1 #
0.21356685542716047354616648590309 3:1 #
0.21356685542716047354616648590309 7:1 #
-0.79098835343392759344993692138814 1:1 #
0.21356685542716047354616648590309 10:1 #
0.21356685542716047354616648590309 19:1 #
-0.79098835343392759344993692138814 3:1 #
0.21356685542716047354616648590309 18:1 #
-0.79098835343392759344993692138814 7:1 #
0.21356685542716047354616648590309 1:1 #
0.21356685542716047354616648590309 1:1 #
-0.79098835343392759344993692138814 16:1 #
0.21356685542716047354616648590309 2:1 #
0.21356685542716047354616648590309 18:1 #
-0.79098835343392759344993692138814 1:1 #
0.21356685542716047354616648590309 16:1 #
0.21356685542716047354616648590309 1:1 #
0.21356685542716047354616648590309 16:1 #
0.21356685542716047354616648590309 18:1 #
-0.79098835343392759344993692138814 2:1 #
0.21356685542716047354616648590309 16:1 #
-0.79098835343392759344993692138814 10:1 #
0.21356685542716047354616648590309 1:1 #
0.21356685542716047354616648590309 16:1 #
-0.79098835343392759344993692138814 16:1 #
0.21356685542716047354616648590309 1:1 #
0.21356685542716047354616648590309 16:1 #
0.21356685542716047354616648590309 10:1 #
0.21356685542716047354616648590309 15:1 #
-0.79098835343392759344993692138814 19:1 #
-0.79098835343392759344993692138814 10:1 #
0.21356685542716047354616648590309 2:1 #
-0.79098835343392759344993692138814 15:1 #
0.21356685542716047354616648590309 19:1 #
0.21356685542716047354616648590309 10:1 #
-0.07394312074559514225136069853761 19:1 #
0.21356685542716047354616648590309 19:1 #
-0.79098835343392759344993692138814 10:1 #
0.21356685542716047354616648590309 2:1 #
0.21356685542716047354616648590309 10:1 #
-0.79098835343392759344993692138814 19:1 #
0.21356685542716047354616648590309 19:1 #
0.21356685542716047354616648590309 19:1 #
0.21356685542716047354616648590309 2:1 #
0.21356685542716047354616648590309 19:1 #
0.21356685542716047354616648590309 2:1 #
0.21356685542716047354616648590309 15:1 #
-0.79098835343392759344993692138814 15:1 #
0.21356685542716047354616648590309 10:1 #
0.21356685542716047354616648590309 20:1 #
0.21356685542716047354616648590309 10:1 #
0.21356685542716047354616648590309 20:1 #
-0.79098835343392759344993692138814 20:1 #
0.21356685542716047354616648590309 18:1 #
-0.79098835343392759344993692138814 18:1 #
0.21356685542716047354616648590309 15:1 #
0.21356685542716047354616648590309 18:1 #
0.21356685542716047354616648590309 15:1 #
0.21356685542716047354616648590309 18:1 #
0.21356685542716047354616648590309 15:1 #
0.21356685542716047354616648590309 18:1 #
0.21356685542716047354616648590309 20:1 #
0.21356685542716047354616648590309 16:1 #
0.21356685542716047354616648590309 20:1 #
0.21356685542716047354616648590309 16:1 #
0.21356685542716047354616648590309 20:1 #
-0.79098835343392759344993692138814 15:1 #
0.21356685542716047354616648590309 7:1 #
0.21356685542716047354616648590309 15:1 #
-0.79098835343392759344993692138814 7:1 #
0.21356685542716047354616648590309 15:1 #
-0.79098835343392759344993692138814 18:1 #
0.21356685542716047354616648590309 18:1 #
0.21356685542716047354616648590309 15:1 #
0.21356685542716047354616648590309 18:1 #
0.21356685542716047354616648590309 15:1 #
0.21356685542716047354616648590309 18:1 #
-0.79098835343392759344993692138814 15:1 #
0.21356685542716047354616648590309 15:1 #
0.21356685542716047354616648590309 18:1 #
0.21356685542716047354616648590309 15:1 #
-0.79098835343392759344993692138814 18:1 #
0.21356685542716047354616648590309 18:1 #
0.21356685542716047354616648590309 15:1 #
0.21356685542716047354616648590309 18:1 #
0.21356685542716047354616648590309 15:1 #
-0.79098835343392759344993692138814 15:1 #
0.21356685542716047354616648590309 18:1 #
0.21356685542716047354616648590309 15:1 #
0.21356685542716047354616648590309 18:1 #
-0.79098835343392759344993692138814 18:1 #
0.21356685542716047354616648590309 15:1 #
0.21356685542716047354616648590309 18:1 #
0.21356685542716047354616648590309 15:1 #
0.21356685542716047354616648590309 18:1 #
0.21356685542716047354616648590309 15:1 #
-0.79098835343392759344993692138814 15:1 #
0.21356685542716047354616648590309 18:1 #
0.21356685542716047354616648590309 15:1 #
0.21356685542716047354616648590309 7:1 #
-0.79098835343392759344993692138814 10:1 #
0.21356685542716047354616648590309 3:1 #
0.21356685542716047354616648590309 10:1 #
0.21356685542716047354616648590309 10:1 #
0.21356685542716047354616648590309 7:1 #
0.21356685542716047354616648590309 10:1 #
0.21356685542716047354616648590309 10:1 #
0.21356685542716047354616648590309 15:1 #
-0.79098835343392759344993692138814 10:1 #
0.21356685542716047354616648590309 10:1 #
0.21356685542716047354616648590309 15:1 #
0.21356685542716047354616648590309 10:1 #
-0.79098835343392759344993692138814 15:1 #
0.21356685542716047354616648590309 15:1 #
0.21356685542716047354616648590309 10:1 #
0.21356685542716047354616648590309 15:1 #
0.21356685542716047354616648590309 10:1 #
-0.79098835343392759344993692138814 10:1 #
0.21356685542716047354616648590309 15:1 #
0.21356685542716047354616648590309 10:1 #
0.21356685542716047354616648590309 15:1 #
-0.79098835343392759344993692138814 15:1 #
0.21356685542716047354616648590309 10:1 #
-0.15889348171002365406323519891885 8:1 #
-0.16292742603862164774142229362042 16:1 #
-0.15998956443025133533630821602856 18:1 #
-0.15889032741124994863035624348413 12:1 #
0.21356685542716047354616648590309 15:1 #
0.21356685542716047354616648590309 20:1 #
0.21356685542716047354616648590309 14:1 #
-0.407115100461813317345161067351 20:1 #
0.21356685542716047354616648590309 16:1 #
-0.79098835343392759344993692138814 14:1 #
0.21356685542716047354616648590309 18:1 #
0.21356685542716047354616648590309 10:1 #
0.21356685542716047354616648590309 8:1 #
-0.79098835343392759344993692138814 14:1 #
0.21356685542716047354616648590309 12:1 #
0.21356685542716047354616648590309 14:1 #
0.21356685542716047354616648590309 15:1 #
-0.79098835343392759344993692138814 20:1 #
0.21356685542716047354616648590309 14:1 #
-0.79098835343392759344993692138814 12:1 #
0.21356685542716047354616648590309 12:1 #
0.21356685542716047354616648590309 14:1 #
0.21356685542716047354616648590309 12:1 #
0.21356685542716047354616648590309 18:1 #
-0.79098835343392759344993692138814 18:1 #
0.21356685542716047354616648590309 12:1 #
0.21356685542716047354616648590309 18:1 #
0.21356685542716047354616648590309 14:1 #
-0.79098835343392759344993692138814 14:1 #
0.21356685542716047354616648590309 18:1 #
0.21356685542716047354616648590309 14:1 #
0.21356685542716047354616648590309 18:1 #
0.21356685542716047354616648590309 14:1 #
0.21356685542716047354616648590309 15:1 #
-0.79098835343392759344993692138814 16:1 #
0.21356685542716047354616648590309 16:1 #
0.21356685542716047354616648590309 15:1 #
-0.79098835343392759344993692138814 16:1 #
-0.79098835343392759344993692138814 15:1 #
0.21356685542716047354616648590309 16:1 #
0.21356685542716047354616648590309 15:1 #
0.21356685542716047354616648590309 16:1 #
0.21356685542716047354616648590309 15:1 #
0.21356685542716047354616648590309 16:1 #
0.21356685542716047354616648590309 15:1 #
0.21356685542716047354616648590309 16:1 #
-0.79098835343392759344993692138814 16:1 #
-0.79098835343392759344993692138814 15:1 #
0.21356685542716047354616648590309 15:1 #
-0.79098835343392759344993692138814 8:1 #
0.21356685542716047354616648590309 8:1 #
0.21356685542716047354616648590309 12:1 #
-0.79098835343392759344993692138814 8:1 #
0.21356685542716047354616648590309 8:1 #
-0.79098835343392759344993692138814 12:1 #
0.21356685542716047354616648590309 12:1 #
0.21356685542716047354616648590309 8:1 #
0.21356685542716047354616648590309 12:1 #
0.21356685542716047354616648590309 8:1 #
0.21356685542716047354616648590309 12:1 #
0.21356685542716047354616648590309 15:1 #
0.21356685542716047354616648590309 10:1 #
-0.79098835343392759344993692138814 10:1 #
0.21356685542716047354616648590309 15:1 #
0.21356685542716047354616648590309 10:1 #
0.21356685542716047354616648590309 15:1 #
0.21356685542716047354616648590309 10:1 #
-0.79098835343392759344993692138814 15:1 #
0.21356685542716047354616648590309 15:1 #
0.21356685542716047354616648590309 10:1 #
0.21356685542716047354616648590309 15:1 #
-0.79098835343392759344993692138814 10:1 #
0.21356685542716047354616648590309 10:1 #
0.21356685542716047354616648590309 15:1 #
0.21356685542716047354616648590309 10:1 #
0.21356685542716047354616648590309 15:1 #
-0.79098835343392759344993692138814 15:1 #
0.21356685542716047354616648590309 10:1 #
0.21356685542716047354616648590309 15:1 #
0.21356685542716047354616648590309 10:1 #
0.21356685542716047354616648590309 15:1 #
-0.79098835343392759344993692138814 10:1 #
0.21356685542716047354616648590309 10:1 #
0.21356685542716047354616648590309 15:1 #
0.21356685542716047354616648590309 10:1 #
0.21356685542716047354616648590309 16:1 #
0.21356685542716047354616648590309 10:1 #
0.21356685542716047354616648590309 16:1 #
0.21356685542716047354616648590309 10:1 #
-0.79098835343392759344993692138814 10:1 #
0.21356685542716047354616648590309 16:1 #
0.21356685542716047354616648590309 10:1 #
0.21356685542716047354616648590309 16:1 #
-0.79098835343392759344993692138814 16:1 #
0.21356685542716047354616648590309 10:1 #
0.21356685542716047354616648590309 16:1 #
0.21356685542716047354616648590309 10:1 #
0.21356685542716047354616648590309 16:1 #
0.21356685542716047354616648590309 8:1 #
-0.79098835343392759344993692138814 10:1 #
0.21356685542716047354616648590309 10:1 #
-0.79098835343392759344993692138814 8:1 #
0.21356685542716047354616648590309 8:1 #
0.21356685542716047354616648590309 10:1 #
0.21356685542716047354616648590309 8:1 #
0.21356685542716047354616648590309 10:1 #
0.21356685542716047354616648590309 8:1 #
0.21356685542716047354616648590309 10:1 #
0.21356685542716047354616648590309 12:1 #
-0.79098835343392759344993692138814 10:1 #
-0.79098835343392759344993692138814 12:1 #
0.21356685542716047354616648590309 10:1 #
0.21356685542716047354616648590309 12:1 #
0.21356685542716047354616648590309 10:1 #
0.21356685542716047354616648590309 12:1 #
0.21356685542716047354616648590309 10:1 #
0.21356685542716047354616648590309 12:1 #
-0.1069540089349957506792421213504 15:1 #
-0.10501458011415773508012705406145 1:1 #
-0.10101119961211003916989881190602 4:1 #
-0.11416688254378209999018167764007 18:1 #
0.21356685542716047354616648590309 14:1 #
0.21356685542716047354616648590309 9:1 #
-0.43921359283870309297981293639168 14:1 #
0.21356685542716047354616648590309 18:1 #
-0.79098835343392759344993692138814 9:1 #
0.21356685542716047354616648590309 15:1 #
0.21356685542716047354616648590309 1:1 #
0.21356685542716047354616648590309 10:1 #
0.21356685542716047354616648590309 9:1 #
0.21356685542716047354616648590309 15:1 #
-0.79098835343392759344993692138814 10:1 #
0.21356685542716047354616648590309 4:1 #
0.21356685542716047354616648590309 10:1 #
-0.79098835343392759344993692138814 15:1 #
0.21356685542716047354616648590309 1:1 #
-0.79098835343392759344993692138814 4:1 #
0.21356685542716047354616648590309 4:1 #
-0.79098835343392759344993692138814 1:1 #
0.21356685542716047354616648590309 1:1 #
-0.79098835343392759344993692138814 4:1 #
0.21356685542716047354616648590309 4:1 #
0.21356685542716047354616648590309 1:1 #
0.21356685542716047354616648590309 4:1 #
0.21356685542716047354616648590309 1:1 #
0.21356685542716047354616648590309 4:1 #
0.21356685542716047354616648590309 15:1 #
-0.79098835343392759344993692138814 18:1 #
0.21356685542716047354616648590309 10:1 #
0.21356685542716047354616648590309 15:1 #
0.21356685542716047354616648590309 10:1 #
0.21356685542716047354616648590309 15:1 #
0.21356685542716047354616648590309 1:1 #
-0.79098835343392759344993692138814 1:1 #
0.21356685542716047354616648590309 15:1 #
-0.79098835343392759344993692138814 15:1 #
0.21356685542716047354616648590309 1:1 #
0.21356685542716047354616648590309 15:1 #
0.21356685542716047354616648590309 1:1 #
0.21356685542716047354616648590309 15:1 #
0.21356685542716047354616648590309 1:1 #
0.21356685542716047354616648590309 15:1 #
0.21356685542716047354616648590309 4:1 #
0.21356685542716047354616648590309 18:1 #
-0.79098835343392759344993692138814 1:1 #
0.21356685542716047354616648590309 1:1 #
-0.79098835343392759344993692138814 18:1 #
0.21356685542716047354616648590309 18:1 #
-0.79098835343392759344993692138814 15:1 #
0.21356685542716047354616648590309 15:1 #
0.21356685542716047354616648590309 18:1 #
0.21356685542716047354616648590309 15:1 #
0.21356685542716047354616648590309 18:1 #
0.21356685542716047354616648590309 15:1 #
-0.79098835343392759344993692138814 18:1 #
0.21356685542716047354616648590309 18:1 #
0.21356685542716047354616648590309 15:1 #
-0.79098835343392759344993692138814 15:1 #
0.21356685542716047354616648590309 18:1 #
0.21356685542716047354616648590309 15:1 #
0.21356685542716047354616648590309 18:1 #
0.21356685542716047354616648590309 15:1 #
0.21356685542716047354616648590309 18:1 #
0.21356685542716047354616648590309 15:1 #
-0.79098835343392759344993692138814 18:1 #
0.21356685542716047354616648590309 18:1 #
0.21356685542716047354616648590309 15:1 #
-0.79098835343392759344993692138814 15:1 #
0.21356685542716047354616648590309 18:1 #
0.21356685542716047354616648590309 15:1 #
0.21356685542716047354616648590309 18:1 #
0.21356685542716047354616648590309 15:1 #
0.21356685542716047354616648590309 18:1 #
0.21356685542716047354616648590309 15:1 #
-0.79098835343392759344993692138814 18:1 #
0.21356685542716047354616648590309 18:1 #
0.21356685542716047354616648590309 1:1 #
0.21356685542716047354616648590309 12:1 #
-0.79098835343392759344993692138814 12:1 #
0.21356685542716047354616648590309 1:1 #
0.21356685542716047354616648590309 12:1 #
0.21356685542716047354616648590309 1:1 #
0.21356685542716047354616648590309 12:1 #
-0.79098835343392759344993692138814 1:1 #
0.21356685542716047354616648590309 1:1 #
0.21356685542716047354616648590309 12:1 #
0.21356685542716047354616648590309 1:1 #
-0.79098835343392759344993692138814 12:1 #
0.21356685542716047354616648590309 12:1 #
0.21356685542716047354616648590309 1:1 #
0.21356685542716047354616648590309 12:1 #
0.21356685542716047354616648590309 1:1 #
0.21356685542716047354616648590309 12:1 #
-0.79098835343392759344993692138814 1:1 #
0.21356685542716047354616648590309 1:1 #
0.21356685542716047354616648590309 12:1 #
-0.79098835343392759344993692138814 12:1 #
0.21356685542716047354616648590309 1:1 #
0.21356685542716047354616648590309 12:1 #
0.21356685542716047354616648590309 1:1 #
0.21356685542716047354616648590309 12:1 #
0.21356685542716047354616648590309 15:1 #
0.21356685542716047354616648590309 9:1 #
-0.79098835343392759344993692138814 15:1 #
0.21356685542716047354616648590309 9:1 #
0.21356685542716047354616648590309 8:1 #
-0.79098835343392759344993692138814 9:1 #
-0.79098835343392759344993692138814 8:1 #
0.21356685542716047354616648590309 8:1 #
0.21356685542716047354616648590309 18:1 #
0.21356685542716047354616648590309 8:1 #
0.21356685542716047354616648590309 18:1 #
0.21356685542716047354616648590309 8:1 #
0.21356685542716047354616648590309 18:1 #
-0.79098835343392759344993692138814 18:1 #
-0.0759739402940513286477397514318 15:1 #
-0.1948525597383385099536923235064 2:1 #
-0.083357398508407343218351570612867 16:1 #
-0.080023420459580246744124565339007 8:1 #
-0.099706110771687839200438929765369 4:1 #
0.21356685542716047354616648590309 1:1 #
0.21356685542716047354616648590309 9:1 #
-0.79098835343392759344993692138814 1:1 #
0.21356685542716047354616648590309 16:1 #
0.21356685542716047354616648590309 2:1 #
0.21356685542716047354616648590309 9:1 #
0.21356685542716047354616648590309 8:1 #
0.21356685542716047354616648590309 15:1 #
-0.79098835343392759344993692138814 4:1 #
0.21356685542716047354616648590309 4:1 #
0.21356685542716047354616648590309 15:1 #
0.21356685542716047354616648590309 4:1 #
0.21356685542716047354616648590309 15:1 #
0.21356685542716047354616648590309 4:1 #
-0.79098835343392759344993692138814 8:1 #
0.21356685542716047354616648590309 18:1 #
0.21356685542716047354616648590309 8:1 #
0.21356685542716047354616648590309 18:1 #
0.21356685542716047354616648590309 8:1 #
0.21356685542716047354616648590309 18:1 #
0.21356685542716047354616648590309 8:1 #
0.21356685542716047354616648590309 9:1 #
0.21356685542716047354616648590309 1:1 #
-0.79098835343392759344993692138814 9:1 #
0.21356685542716047354616648590309 9:1 #
0.21356685542716047354616648590309 1:1 #
0.21356685542716047354616648590309 9:1 #
0.21356685542716047354616648590309 1:1 #
-0.79098835343392759344993692138814 1:1 #
0.21356685542716047354616648590309 9:1 #
0.21356685542716047354616648590309 1:1 #
0.21356685542716047354616648590309 9:1 #
0.21356685542716047354616648590309 1:1 #
-0.79098835343392759344993692138814 9:1 #
0.21356685542716047354616648590309 9:1 #
0.21356685542716047354616648590309 1:1 #
0.21356685542716047354616648590309 9:1 #
0.21356685542716047354616648590309 1:1 #
-0.79098835343392759344993692138814 1:1 #
0.21356685542716047354616648590309 9:1 #
0.21356685542716047354616648590309 1:1 #
0.21356685542716047354616648590309 9:1 #
0.21356685542716047354616648590309 1:1 #
-0.79098835343392759344993692138814 9:1 #
0.21356685542716047354616648590309 9:1 #
0.21356685542716047354616648590309 1:1 #
0.21356685542716047354616648590309 9:1 #
-0.79098835343392759344993692138814 16:1 #
0.21356685542716047354616648590309 1:1 #
0.21356685542716047354616648590309 2:1 #
-0.79098835343392759344993692138814 1:1 #
0.21356685542716047354616648590309 16:1 #
0.21356685542716047354616648590309 1:1 #
-0.79098835343392759344993692138814 2:1 #
0.21356685542716047354616648590309 2:1 #
0.21356685542716047354616648590309 2:1 #
0.21356685542716047354616648590309 2:1 #
0.21356685542716047354616648590309 16:1 #
-0.79098835343392759344993692138814 16:1 #
0.21356685542716047354616648590309 2:1 #
-0.79098835343392759344993692138814 2:1 #
0.21356685542716047354616648590309 16:1 #
0.21356685542716047354616648590309 2:1 #
0.21356685542716047354616648590309 16:1 #
0.21356685542716047354616648590309 2:1 #
0.21356685542716047354616648590309 16:1 #
0.21356685542716047354616648590309 2:1 #
0.21356685542716047354616648590309 1:1 #
-0.79098835343392759344993692138814 2:1 #
0.21356685542716047354616648590309 2:1 #
0.21356685542716047354616648590309 1:1 #
0.21356685542716047354616648590309 2:1 #
-0.79098835343392759344993692138814 1:1 #
0.21356685542716047354616648590309 1:1 #
0.21356685542716047354616648590309 2:1 #
0.21356685542716047354616648590309 1:1 #
0.21356685542716047354616648590309 2:1 #
0.21356685542716047354616648590309 1:1 #
-0.79098835343392759344993692138814 2:1 #
0.21356685542716047354616648590309 2:1 #
0.21356685542716047354616648590309 1:1 #
-0.79098835343392759344993692138814 1:1 #
0.21356685542716047354616648590309 2:1 #
0.21356685542716047354616648590309 1:1 #
0.21356685542716047354616648590309 2:1 #
0.21356685542716047354616648590309 1:1 #
0.21356685542716047354616648590309 2:1 #
0.21356685542716047354616648590309 1:1 #
-0.79098835343392759344993692138814 2:1 #
0.21356685542716047354616648590309 2:1 #
0.21356685542716047354616648590309 1:1 #
-0.79098835343392759344993692138814 1:1 #
0.21356685542716047354616648590309 2:1 #
0.21356685542716047354616648590309 1:1 #
0.21356685542716047354616648590309 2:1 #
0.21356685542716047354616648590309 1:1 #
-0.79098835343392759344993692138814 2:1 #
0.21356685542716047354616648590309 2:1 #
0.21356685542716047354616648590309 1:1 #
0.21356685542716047354616648590309 2:1 #
-0.79098835343392759344993692138814 1:1 #
0.21356685542716047354616648590309 1:1 #
0.21356685542716047354616648590309 2:1 #
0.21356685542716047354616648590309 1:1 #
-0.22124817034161961548655028764188 4:1 #
-0.20651053927488341455109832622838 19:1 #
-0.20525769577528171772051734933484 20:1 #
-0.22124838683302430752952716375148 16:1 #
0.21356685542716047354616648590309 15:1 #
0.21356685542716047354616648590309 14:1 #
0.21356685542716047354616648590309 18:1 #
0.21356685542716047354616648590309 2:1 #
0.21356685542716047354616648590309 16:1 #
-0.79098835343392759344993692138814 18:1 #
-0.79098835343392759344993692138814 15:1 #
0.21356685542716047354616648590309 4:1 #
0.21356685542716047354616648590309 19:1 #
0.21356685542716047354616648590309 20:1 #
-0.79098835343392759344993692138814 2:1 #
-0.78711464505893125043201052903896 1:1 #
0.21356685542716047354616648590309 2:1 #
0.21356685542716047354616648590309 4:1 #
0.21356685542716047354616648590309 2:1 #
0.21356685542716047354616648590309 1:1 #
0.21356685542716047354616648590309 2:1 #
0.21356685542716047354616648590309 1:1 #
0.21356685542716047354616648590309 2:1 #
0.21356685542716047354616648590309 15:1 #
-0.79098835343392759344993692138814 2:1 #
0.21356685542716047354616648590309 14:1 #
-0.79098835343392759344993692138814 15:1 #
0.21356685542716047354616648590309 2:1 #
0.21356685542716047354616648590309 2:1 #
-0.79098835343392759344993692138814 14:1 #
0.21356685542716047354616648590309 14:1 #
0.21356685542716047354616648590309 2:1 #
0.21356685542716047354616648590309 14:1 #
0.21356685542716047354616648590309 15:1 #
0.21356685542716047354616648590309 14:1 #
0.21356685542716047354616648590309 15:1 #
0.21356685542716047354616648590309 14:1 #
-0.79098835343392759344993692138814 14:1 #
0.21356685542716047354616648590309 15:1 #
0.21356685542716047354616648590309 14:1 #
-0.79098835343392759344993692138814 15:1 #
0.21356685542716047354616648590309 15:1 #
0.21356685542716047354616648590309 14:1 #
0.21356685542716047354616648590309 15:1 #
0.21356685542716047354616648590309 14:1 #
0.21356685542716047354616648590309 15:1 #
0.21356685542716047354616648590309 1:1 #
0.21356685542716047354616648590309 4:1 #
-0.79098835343392759344993692138814 1:1 #
0.21356685542716047354616648590309 1:1 #
-0.79098835343392759344993692138814 4:1 #
0.21356685542716047354616648590309 4:1 #
0.21356685542716047354616648590309 9:1 #
0.21356685542716047354616648590309 4:1 #
0.21356685542716047354616648590309 9:1 #
-0.79098835343392759344993692138814 9:1 #
0.21356685542716047354616648590309 4:1 #
0.21356685542716047354616648590309 9:1 #
0.21356685542716047354616648590309 4:1 #
0.21356685542716047354616648590309 1:1 #
-0.79098835343392759344993692138814 4:1 #
0.21356685542716047354616648590309 4:1 #
0.21356685542716047354616648590309 1:1 #
-0.79098835343392759344993692138814 1:1 #
0.21356685542716047354616648590309 4:1 #
0.21356685542716047354616648590309 1:1 #
0.21356685542716047354616648590309 4:1 #
0.21356685542716047354616648590309 1:1 #
-0.79098835343392759344993692138814 4:1 #
0.21356685542716047354616648590309 4:1 #
0.21356685542716047354616648590309 1:1 #
0.21356685542716047354616648590309 4:1 #
0.21356685542716047354616648590309 1:1 #
-0.79098835343392759344993692138814 1:1 #
0.21356685542716047354616648590309 4:1 #
0.21356685542716047354616648590309 1:1 #
0.21356685542716047354616648590309 4:1 #
0.21356685542716047354616648590309 1:1 #
-0.79098835343392759344993692138814 4:1 #
0.21356685542716047354616648590309 4:1 #
0.21356685542716047354616648590309 1:1 #
0.21356685542716047354616648590309 4:1 #
0.21356685542716047354616648590309 1:1 #
-0.79098835343392759344993692138814 1:1 #
0.21356685542716047354616648590309 4:1 #
0.21356685542716047354616648590309 1:1 #
0.21356685542716047354616648590309 4:1 #
0.21356685542716047354616648590309 1:1 #
-0.79098835343392759344993692138814 4:1 #
0.21356685542716047354616648590309 4:1 #
0.21356685542716047354616648590309 1:1 #
0.21356685542716047354616648590309 4:1 #
-0.79098835343392759344993692138814 1:1 #
0.21356685542716047354616648590309 1:1 #
0.21356685542716047354616648590309 4:1 #
0.21356685542716047354616648590309 1:1 #
-0.79098835343392759344993692138814 14:1 #
0.21356685542716047354616648590309 14:1 #
0.21356685542716047354616648590309 15:1 #
-0.79098835343392759344993692138814 14:1 #
-0.79098835343392759344993692138814 15:1 #
0.21356685542716047354616648590309 14:1 #
0.21356685542716047354616648590309 12:1 #
0.21356685542716047354616648590309 14:1 #
0.21356685542716047354616648590309 12:1 #
0.21356685542716047354616648590309 14:1 #
0.21356685542716047354616648590309 8:1 #
-0.79098835343392759344993692138814 12:1 #
0.21356685542716047354616648590309 12:1 #
-0.79098835343392759344993692138814 8:1 #
0.21356685542716047354616648590309 8:1 #
0.21356685542716047354616648590309 12:1 #
0.21356685542716047354616648590309 8:1 #
0.21356685542716047354616648590309 12:1 #
0.21356685542716047354616648590309 8:1 #
-0.088953232510182264625164805238455 14:1 #
-0.08703069017009923413752403575927 9:1 #
-0.084185576175702062085015597858728 18:1 #
-0.08348480207177466638768237316981 20:1 #
-0.083484802039497429948511353359208 16:1 #
0.21356685542716047354616648590309 13:1 #
0.21356685542716047354616648590309 3:1 #
-0.79098835343392759344993692138814 8:1 #
0.21356685542716047354616648590309 12:1 #
-0.79098835343392759344993692138814 13:1 #
-0.79098835343392759344993692138814 12:1 #
0.21356685542716047354616648590309 18:1 #
-0.79098835343392759344993692138814 13:1 #
0.21356685542716047354616648590309 15:1 #
0.21356685542716047354616648590309 13:1 #
0.21356685542716047354616648590309 18:1 #
0.21356685542716047354616648590309 8:1 #
0.21356685542716047354616648590309 16:1 #
0.21356685542716047354616648590309 18:1 #
0.21356685542716047354616648590309 18:1 #
0.21356685542716047354616648590309 18:1 #
0.21356685542716047354616648590309 8:1 #
0.21356685542716047354616648590309 20:1 #
0.21356685542716047354616648590309 18:1 #
0.21356685542716047354616648590309 12:1 #
-0.79098835343392759344993692138814 18:1 #
0.21356685542716047354616648590309 18:1 #
0.21356685542716047354616648590309 12:1 #
0.21356685542716047354616648590309 18:1 #
0.21356685542716047354616648590309 12:1 #
0.21356685542716047354616648590309 18:1 #
0.21356685542716047354616648590309 12:1 #
0.21356685542716047354616648590309 13:1 #
-0.79098835343392759344993692138814 12:1 #
0.21356685542716047354616648590309 12:1 #
0.21356685542716047354616648590309 13:1 #
0.21356685542716047354616648590309 12:1 #
0.21356685542716047354616648590309 13:1 #
-0.79098835343392759344993692138814 13:1 #
0.21356685542716047354616648590309 12:1 #
0.21356685542716047354616648590309 13:1 #
0.21356685542716047354616648590309 15:1 #
0.21356685542716047354616648590309 14:1 #
0.21356685542716047354616648590309 13:1 #
-0.79098835343392759344993692138814 14:1 #
0.21356685542716047354616648590309 14:1 #
0.21356685542716047354616648590309 13:1 #
0.21356685542716047354616648590309 14:1 #
0.21356685542716047354616648590309 9:1 #
-0.79098835343392759344993692138814 12:1 #
-0.60394900301964693500877956466866 13:1 #
0.21356685542716047354616648590309 12:1 #
0.21356685542716047354616648590309 12:1 #
0.21356685542716047354616648590309 14:1 #
0.21356685542716047354616648590309 12:1 #
0.21356685542716047354616648590309 14:1 #
0.21356685542716047354616648590309 12:1 #
-0.79098835343392759344993692138814 14:1 #
-0.79098835343392759344993692138814 12:1 #
0.21356685542716047354616648590309 14:1 #
0.21356685542716047354616648590309 12:1 #
0.21356685542716047354616648590309 14:1 #
0.21356685542716047354616648590309 12:1 #
0.21356685542716047354616648590309 14:1 #
0.21356685542716047354616648590309 12:1 #
0.21356685542716047354616648590309 16:1 #
-0.79098835343392759344993692138814 18:1 #
0.21356685542716047354616648590309 18:1 #
-0.79098835343392759344993692138814 16:1 #
0.21356685542716047354616648590309 16:1 #
0.21356685542716047354616648590309 18:1 #
0.21356685542716047354616648590309 16:1 #
0.21356685542716047354616648590309 18:1 #
0.21356685542716047354616648590309 16:1 #
0.21356685542716047354616648590309 18:1 #
-0.79098835343392759344993692138814 18:1 #
0.21356685542716047354616648590309 3:1 #
0.21356685542716047354616648590309 18:1 #
0.21356685542716047354616648590309 3:1 #
-0.79098835343392759344993692138814 16:1 #
0.21356685542716047354616648590309 16:1 #
0.21356685542716047354616648590309 3:1 #
0.21356685542716047354616648590309 16:1 #
-0.79098835343392759344993692138814 3:1 #
0.21356685542716047354616648590309 3:1 #
0.21356685542716047354616648590309 16:1 #
0.21356685542716047354616648590309 3:1 #
0.21356685542716047354616648590309 16:1 #
-0.79098835343392759344993692138814 16:1 #
0.21356685542716047354616648590309 3:1 #
0.21356685542716047354616648590309 16:1 #
0.21356685542716047354616648590309 3:1 #
0.21356685542716047354616648590309 16:1 #
-0.79098835343392759344993692138814 3:1 #
0.21356685542716047354616648590309 3:1 #
0.21356685542716047354616648590309 16:1 #
0.21356685542716047354616648590309 3:1 #
0.21356685542716047354616648590309 16:1 #
-0.79098835343392759344993692138814 16:1 #
0.21356685542716047354616648590309 3:1 #
0.21356685542716047354616648590309 16:1 #
0.21356685542716047354616648590309 3:1 #
-0.79098835343392759344993692138814 3:1 #
0.21356685542716047354616648590309 16:1 #
0.21356685542716047354616648590309 3:1 #
0.21356685542716047354616648590309 16:1 #
0.21356685542716047354616648590309 3:1 #
-0.79098835343392759344993692138814 16:1 #
0.21356685542716047354616648590309 16:1 #
0.21356685542716047354616648590309 3:1 #
0.21356685542716047354616648590309 16:1 #
-0.79098835343392759344993692138814 3:1 #
0.21356685542716047354616648590309 3:1 #
0.21356685542716047354616648590309 16:1 #
0.21356685542716047354616648590309 3:1 #
0.21356685542716047354616648590309 16:1 #
-0.24534263969428626861457587438053 10:1 #
-0.33537511962849742008785369762336 16:1 #
-0.24812896708568407677653055998235 4:1 #
-0.23898547257089633455429122932401 15:1 #
0.21356685542716047354616648590309 18:1 #
0.21356685542716047354616648590309 1:1 #
0.21356685542716047354616648590309 14:1 #
0.21356685542716047354616648590309 19:1 #
0.21356685542716047354616648590309 5:1 #
0.21356685542716047354616648590309 16:1 #
0.21356685542716047354616648590309 4:1 #
0.21356685542716047354616648590309 15:1 #
-0.79098835343392759344993692138814 5:1 #
0.21356685542716047354616648590309 10:1 #
0.21356685542716047354616648590309 3:1 #
0.21356685542716047354616648590309 14:1 #
0.21356685542716047354616648590309 5:1 #
0.21356685542716047354616648590309 3:1 #
-0.79098835343392759344993692138814 19:1 #
0.21356685542716047354616648590309 16:1 #
-0.79098835343392759344993692138814 3:1 #
0.21356685542716047354616648590309 19:1 #
0.21356685542716047354616648590309 3:1 #
-0.79098835343392759344993692138814 16:1 #
0.21356685542716047354616648590309 3:1 #
0.21356685542716047354616648590309 19:1 #
0.21356685542716047354616648590309 3:1 #
0.21356685542716047354616648590309 19:1 #
-0.79098835343392759344993692138814 5:1 #
0.21356685542716047354616648590309 3:1 #
-0.79098835343392759344993692138814 3:1 #
-0.79098835343392759344993692138814 5:1 #
0.21356685542716047354616648590309 5:1 #
-0.79098835343392759344993692138814 14:1 #
0.21356685542716047354616648590309 14:1 #
0.21356685542716047354616648590309 5:1 #
0.21356685542716047354616648590309 14:1 #
0.21356685542716047354616648590309 5:1 #
0.21356685542716047354616648590309 14:1 #
0.21356685542716047354616648590309 5:1 #
0.21356685542716047354616648590309 14:1 #
-0.79098835343392759344993692138814 5:1 #
-0.79098835343392759344993692138814 14:1 #
0.21356685542716047354616648590309 5:1 #
0.21356685542716047354616648590309 14:1 #
0.21356685542716047354616648590309 5:1 #
0.21356685542716047354616648590309 14:1 #
0.21356685542716047354616648590309 5:1 #
0.21356685542716047354616648590309 14:1 #
0.21356685542716047354616648590309 5:1 #
0.21356685542716047354616648590309 14:1 #
-0.79098835343392759344993692138814 5:1 #
-0.79098835343392759344993692138814 14:1 #
0.21356685542716047354616648590309 5:1 #
0.21356685542716047354616648590309 14:1 #
0.21356685542716047354616648590309 5:1 #
0.21356685542716047354616648590309 14:1 #
0.21356685542716047354616648590309 5:1 #
0.21356685542716047354616648590309 14:1 #
0.21356685542716047354616648590309 16:1 #
0.21356685542716047354616648590309 15:1 #
0.21356685542716047354616648590309 3:1 #
0.21356685542716047354616648590309 16:1 #
0.21356685542716047354616648590309 3:1 #
0.21356685542716047354616648590309 15:1 #
0.21356685542716047354616648590309 3:1 #
0.21356685542716047354616648590309 15:1 #
0.21356685542716047354616648590309 3:1 #
-0.79098835343392759344993692138814 15:1 #
0.21356685542716047354616648590309 15:1 #
-0.79098835343392759344993692138814 3:1 #
0.21356685542716047354616648590309 3:1 #
0.21356685542716047354616648590309 15:1 #
0.21356685542716047354616648590309 3:1 #
0.21356685542716047354616648590309 15:1 #
0.21356685542716047354616648590309 3:1 #
0.21356685542716047354616648590309 16:1 #
0.21356685542716047354616648590309 3:1 #
0.21356685542716047354616648590309 4:1 #
-0.79098835343392759344993692138814 3:1 #
0.21356685542716047354616648590309 3:1 #
-0.79098835343392759344993692138814 5:1 #
0.21356685542716047354616648590309 5:1 #
0.21356685542716047354616648590309 3:1 #
-0.79098835343392759344993692138814 4:1 #
0.21356685542716047354616648590309 4:1 #
0.21356685542716047354616648590309 3:1 #
0.21356685542716047354616648590309 4:1 #
0.21356685542716047354616648590309 10:1 #
0.21356685542716047354616648590309 5:1 #
0.21356685542716047354616648590309 5:1 #
0.21356685542716047354616648590309 4:1 #
0.21356685542716047354616648590309 5:1 #
0.21356685542716047354616648590309 4:1 #
-0.79098835343392759344993692138814 5:1 #
-0.79098835343392759344993692138814 4:1 #
0.21356685542716047354616648590309 5:1 #
0.21356685542716047354616648590309 4:1 #
0.21356685542716047354616648590309 5:1 #
0.21356685542716047354616648590309 4:1 #
0.21356685542716047354616648590309 5:1 #
0.21356685542716047354616648590309 4:1 #
0.21356685542716047354616648590309 5:1 #
0.21356685542716047354616648590309 4:1 #
-0.79098835343392759344993692138814 5:1 #
-0.79098835343392759344993692138814 4:1 #
0.21356685542716047354616648590309 5:1 #
0.21356685542716047354616648590309 4:1 #
0.21356685542716047354616648590309 5:1 #
0.21356685542716047354616648590309 4:1 #
0.21356685542716047354616648590309 5:1 #
0.21356685542716047354616648590309 4:1 #
-0.79098835343392759344993692138814 5:1 #
0.21356685542716047354616648590309 5:1 #
-0.79098835343392759344993692138814 14:1 #
0.21356685542716047354616648590309 14:1 #
0.21356685542716047354616648590309 5:1 #
0.21356685542716047354616648590309 14:1 #
-0.26012209626305904386356360191712 9:1 #
-0.18985499814694856146601864566037 14:1 #
-0.1457256292382996809564588147623 2:1 #
-0.15178081740824669876310792915319 6:1 #
0.21356685542716047354616648590309 1:1 #
0.21356685542716047354616648590309 11:1 #
0.21356685542716047354616648590309 16:1 #
0.21356685542716047354616648590309 14:1 #
-0.79098835343392759344993692138814 11:1 #
0.21356685542716047354616648590309 9:1 #
0.21356685542716047354616648590309 5:1 #
0.21356685542716047354616648590309 16:1 #
-0.79098835343392759344993692138814 1:1 #
0.21356685542716047354616648590309 16:1 #
0.21356685542716047354616648590309 6:1 #
0.21356685542716047354616648590309 5:1 #
-0.79098835343392759344993692138814 11:1 #
0.21356685542716047354616648590309 2:1 #
0.21356685542716047354616648590309 15:1 #
-0.79098835343392759344993692138814 5:1 #
0.21356685542716047354616648590309 11:1 #
0.21356685542716047354616648590309 5:1 #
-0.79098835343392759344993692138814 15:1 #
0.21356685542716047354616648590309 5:1 #
0.21356685542716047354616648590309 11:1 #
0.21356685542716047354616648590309 5:1 #
0.21356685542716047354616648590309 11:1 #
0.21356685542716047354616648590309 5:1 #
0.21356685542716047354616648590309 14:1 #
-0.79098835343392759344993692138814 5:1 #
0.21356685542716047354616648590309 5:1 #
0.21356685542716047354616648590309 14:1 #
-0.79098835343392759344993692138814 14:1 #
0.21356685542716047354616648590309 5:1 #
0.21356685542716047354616648590309 14:1 #
0.21356685542716047354616648590309 5:1 #
0.21356685542716047354616648590309 14:1 #
0.21356685542716047354616648590309 9:1 #
-0.79098835343392759344993692138814 6:1 #
0.21356685542716047354616648590309 1:1 #
0.21356685542716047354616648590309 6:1 #
0.21356685542716047354616648590309 6:1 #
0.21356685542716047354616648590309 1:1 #
-0.79098835343392759344993692138814 6:1 #
0.21356685542716047354616648590309 6:1 #
0.21356685542716047354616648590309 1:1 #
0.21356685542716047354616648590309 6:1 #
0.21356685542716047354616648590309 9:1 #
-0.79098835343392759344993692138814 16:1 #
0.21356685542716047354616648590309 2:1 #
-0.79098835343392759344993692138814 2:1 #
0.21356685542716047354616648590309 11:1 #
-0.79098835343392759344993692138814 11:1 #
0.21356685542716047354616648590309 2:1 #
0.21356685542716047354616648590309 11:1 #
0.21356685542716047354616648590309 2:1 #
0.21356685542716047354616648590309 11:1 #
0.21356685542716047354616648590309 2:1 #
0.21356685542716047354616648590309 11:1 #
0.21356685542716047354616648590309 16:1 #
-0.79098835343392759344993692138814 2:1 #
0.21356685542716047354616648590309 2:1 #
0.21356685542716047354616648590309 16:1 #
0.21356685542716047354616648590309 2:1 #
0.21356685542716047354616648590309 16:1 #
0.21356685542716047354616648590309 2:1 #
-0.79098835343392759344993692138814 16:1 #
0.21356685542716047354616648590309 16:1 #
0.21356685542716047354616648590309 2:1 #
-0.79098835343392759344993692138814 2:1 #
0.21356685542716047354616648590309 16:1 #
0.21356685542716047354616648590309 2:1 #
0.21356685542716047354616648590309 16:1 #
0.21356685542716047354616648590309 2:1 #
0.21356685542716047354616648590309 16:1 #
0.21356685542716047354616648590309 2:1 #
-0.79098835343392759344993692138814 16:1 #
0.21356685542716047354616648590309 16:1 #
0.21356685542716047354616648590309 2:1 #
-0.79098835343392759344993692138814 2:1 #
0.21356685542716047354616648590309 16:1 #
0.21356685542716047354616648590309 2:1 #
0.21356685542716047354616648590309 16:1 #
0.21356685542716047354616648590309 2:1 #
0.21356685542716047354616648590309 16:1 #
0.21356685542716047354616648590309 2:1 #
-0.79098835343392759344993692138814 16:1 #
0.21356685542716047354616648590309 16:1 #
0.21356685542716047354616648590309 9:1 #
0.21356685542716047354616648590309 15:1 #
-0.79098835343392759344993692138814 11:1 #
0.21356685542716047354616648590309 11:1 #
0.21356685542716047354616648590309 15:1 #
0.21356685542716047354616648590309 19:1 #
-0.79098835343392759344993692138814 19:1 #
0.21356685542716047354616648590309 15:1 #
0.21356685542716047354616648590309 19:1 #
-0.79098835343392759344993692138814 15:1 #
0.21356685542716047354616648590309 15:1 #
0.21356685542716047354616648590309 19:1 #
0.21356685542716047354616648590309 15:1 #
0.21356685542716047354616648590309 19:1 #
0.21356685542716047354616648590309 15:1 #
0.21356685542716047354616648590309 19:1 #
-0.79098835343392759344993692138814 19:1 #
0.21356685542716047354616648590309 15:1 #
0.21356685542716047354616648590309 19:1 #
-0.79098835343392759344993692138814 15:1 #
0.21356685542716047354616648590309 15:1 #
0.21356685542716047354616648590309 19:1 #
0.21356685542716047354616648590309 15:1 #
0.21356685542716047354616648590309 19:1 #
0.21356685542716047354616648590309 15:1 #
0.21356685542716047354616648590309 19:1 #
-0.79098835343392759344993692138814 19:1 #
0.21356685542716047354616648590309 18:1 #
0.21356685542716047354616648590309 19:1 #
0.21356685542716047354616648590309 18:1 #
0.21356685542716047354616648590309 15:1 #
-0.79098835343392759344993692138814 18:1 #
-0.24441109905624647247179836995201 5:1 #
-0.16531595018839975730351454785705 4:1 #
-0.15590925168373359621654117290745 9:1 #
-0.16207146714788250863037433191494 14:1 #
0.21356685542716047354616648590309 11:1 #
0.21356685542716047354616648590309 8:1 #
0.21356685542716047354616648590309 7:1 #
-0.65297696901003987601797007300775 11:1 #
0.21356685542716047354616648590309 14:1 #
-0.79098835343392759344993692138814 15:1 #
0.21356685542716047354616648590309 4:1 #
0.21356685542716047354616648590309 5:1 #
0.21356685542716047354616648590309 18:1 #
0.21356685542716047354616648590309 15:1 #
0.21356685542716047354616648590309 7:1 #
0.21356685542716047354616648590309 18:1 #
-0.79098835343392759344993692138814 15:1 #
0.21356685542716047354616648590309 18:1 #
0.21356685542716047354616648590309 15:1 #
0.21356685542716047354616648590309 18:1 #
0.21356685542716047354616648590309 15:1 #
-0.79098835343392759344993692138814 18:1 #
0.21356685542716047354616648590309 18:1 #
0.21356685542716047354616648590309 15:1 #
0.21356685542716047354616648590309 18:1 #
0.21356685542716047354616648590309 4:1 #
0.21356685542716047354616648590309 5:1 #
0.21356685542716047354616648590309 14:1 #
-0.79098835343392759344993692138814 5:1 #
0.21356685542716047354616648590309 5:1 #
0.21356685542716047354616648590309 18:1 #
0.21356685542716047354616648590309 14:1 #
-0.79098835343392759344993692138814 4:1 #
0.21356685542716047354616648590309 4:1 #
0.21356685542716047354616648590309 5:1 #
0.21356685542716047354616648590309 18:1 #
0.21356685542716047354616648590309 4:1 #
0.21356685542716047354616648590309 18:1 #
-0.79098835343392759344993692138814 18:1 #
0.21356685542716047354616648590309 4:1 #
0.21356685542716047354616648590309 18:1 #
0.21356685542716047354616648590309 4:1 #
-0.79098835343392759344993692138814 4:1 #
0.21356685542716047354616648590309 18:1 #
0.21356685542716047354616648590309 4:1 #
0.21356685542716047354616648590309 18:1 #
0.21356685542716047354616648590309 4:1 #
-0.79098835343392759344993692138814 18:1 #
0.21356685542716047354616648590309 18:1 #
0.21356685542716047354616648590309 4:1 #
0.21356685542716047354616648590309 18:1 #
0.21356685542716047354616648590309 15:1 #
0.21356685542716047354616648590309 5:1 #
-0.79098835343392759344993692138814 15:1 #
0.21356685542716047354616648590309 15:1 #
0.21356685542716047354616648590309 5:1 #
-0.79098835343392759344993692138814 5:1 #
0.21356685542716047354616648590309 15:1 #
0.21356685542716047354616648590309 5:1 #
0.21356685542716047354616648590309 15:1 #
0.21356685542716047354616648590309 5:1 #
-0.79098835343392759344993692138814 15:1 #
0.21356685542716047354616648590309 15:1 #
0.21356685542716047354616648590309 5:1 #
0.21356685542716047354616648590309 15:1 #
0.21356685542716047354616648590309 4:1 #
0.21356685542716047354616648590309 19:1 #
-0.79098835343392759344993692138814 4:1 #
0.21356685542716047354616648590309 4:1 #
0.21356685542716047354616648590309 19:1 #
-0.79098835343392759344993692138814 19:1 #
0.21356685542716047354616648590309 4:1 #
0.21356685542716047354616648590309 19:1 #
0.21356685542716047354616648590309 4:1 #
0.21356685542716047354616648590309 19:1 #
-0.79098835343392759344993692138814 4:1 #
0.21356685542716047354616648590309 4:1 #
0.21356685542716047354616648590309 19:1 #
0.21356685542716047354616648590309 4:1 #
0.21356685542716047354616648590309 19:1 #
-0.79098835343392759344993692138814 19:1 #
0.21356685542716047354616648590309 4:1 #
0.21356685542716047354616648590309 19:1 #
0.21356685542716047354616648590309 4:1 #
0.21356685542716047354616648590309 19:1 #
-0.79098835343392759344993692138814 4:1 #
0.21356685542716047354616648590309 4:1 #
0.21356685542716047354616648590309 19:1 #
0.21356685542716047354616648590309 4:1 #
0.21356685542716047354616648590309 19:1 #
-0.79098835343392759344993692138814 19:1 #
0.21356685542716047354616648590309 4:1 #
0.21356685542716047354616648590309 19:1 #
0.21356685542716047354616648590309 4:1 #
0.21356685542716047354616648590309 19:1 #
-0.79098835343392759344993692138814 4:1 #
0.21356685542716047354616648590309 4:1 #
0.21356685542716047354616648590309 19:1 #
-0.79098835343392759344993692138814 19:1 #
0.21356685542716047354616648590309 4:1 #
0.21356685542716047354616648590309 19:1 #
0.21356685542716047354616648590309 4:1 #
0.21356685542716047354616648590309 19:1 #
-0.79098835343392759344993692138814 4:1 #
0.21356685542716047354616648590309 4:1 #
0.21356685542716047354616648590309 19:1 #
0.21356685542716047354616648590309 4:1 #
0.21356685542716047354616648590309 19:1 #
-0.79098835343392759344993692138814 19:1 #
0.21356685542716047354616648590309 4:1 #
0.21356685542716047354616648590309 19:1 #
0.21356685542716047354616648590309 4:1 #
-0.16823935231567768711080645971379 5:1 #
-0.15430647936865216074409090651898 17:1 #
-0.16187229464972749393147921637137 18:1 #
-0.26034154408238130429253942565992 2:1 #
0.21356685542716047354616648590309 8:1 #
0.21356685542716047354616648590309 13:1 #
0.21356685542716047354616648590309 3:1 #
-0.074604603758679749470061892679951 3:1 #
0.21356685542716047354616648590309 19:1 #
0.21356685542716047354616648590309 5:1 #
0.21356685542716047354616648590309 18:1 #
-0.79098835343392759344993692138814 3:1 #
0.21356685542716047354616648590309 2:1 #
0.21356685542716047354616648590309 3:1 #
0.21356685542716047354616648590309 3:1 #
0.21356685542716047354616648590309 17:1 #
-0.79098835343392759344993692138814 13:1 #
0.21356685542716047354616648590309 13:1 #
0.21356685542716047354616648590309 3:1 #
0.21356685542716047354616648590309 13:1 #
-0.79098835343392759344993692138814 17:1 #
0.21356685542716047354616648590309 17:1 #
0.21356685542716047354616648590309 13:1 #
-0.79098835343392759344993692138814 17:1 #
0.21356685542716047354616648590309 2:1 #
0.21356685542716047354616648590309 13:1 #
0.21356685542716047354616648590309 17:1 #
-0.79098835343392759344993692138814 13:1 #
0.21356685542716047354616648590309 13:1 #
0.21356685542716047354616648590309 17:1 #
0.21356685542716047354616648590309 13:1 #
0.21356685542716047354616648590309 17:1 #
0.21356685542716047354616648590309 13:1 #
0.21356685542716047354616648590309 4:1 #
-0.79098835343392759344993692138814 4:1 #
0.21356685542716047354616648590309 3:1 #
-0.79098835343392759344993692138814 3:1 #
0.21356685542716047354616648590309 4:1 #
0.21356685542716047354616648590309 3:1 #
0.21356685542716047354616648590309 4:1 #
0.21356685542716047354616648590309 3:1 #
0.21356685542716047354616648590309 4:1 #
0.21356685542716047354616648590309 3:1 #
0.21356685542716047354616648590309 18:1 #
-0.79098835343392759344993692138814 8:1 #
0.21356685542716047354616648590309 8:1 #
0.21356685542716047354616648590309 13:1 #
0.21356685542716047354616648590309 18:1 #
-0.79098835343392759344993692138814 13:1 #
-0.79098835343392759344993692138814 18:1 #
0.21356685542716047354616648590309 18:1 #
0.21356685542716047354616648590309 8:1 #
0.21356685542716047354616648590309 18:1 #
0.21356685542716047354616648590309 8:1 #
0.21356685542716047354616648590309 18:1 #
-0.79098835343392759344993692138814 8:1 #
0.21356685542716047354616648590309 8:1 #
0.21356685542716047354616648590309 13:1 #
-0.79098835343392759344993692138814 4:1 #
0.21356685542716047354616648590309 4:1 #
0.21356685542716047354616648590309 13:1 #
0.21356685542716047354616648590309 4:1 #
0.21356685542716047354616648590309 13:1 #
0.21356685542716047354616648590309 4:1 #
-0.79098835343392759344993692138814 13:1 #
0.21356685542716047354616648590309 13:1 #
0.21356685542716047354616648590309 4:1 #
-0.79098835343392759344993692138814 4:1 #
0.21356685542716047354616648590309 13:1 #
0.21356685542716047354616648590309 4:1 #
0.21356685542716047354616648590309 13:1 #
0.21356685542716047354616648590309 4:1 #
0.21356685542716047354616648590309 13:1 #
0.21356685542716047354616648590309 4:1 #
-0.79098835343392759344993692138814 13:1 #
0.21356685542716047354616648590309 13:1 #
0.21356685542716047354616648590309 4:1 #
-0.79098835343392759344993692138814 4:1 #
0.21356685542716047354616648590309 13:1 #
0.21356685542716047354616648590309 4:1 #
0.21356685542716047354616648590309 13:1 #
0.21356685542716047354616648590309 4:1 #
0.21356685542716047354616648590309 13:1 #
0.21356685542716047354616648590309 4:1 #
-0.79098835343392759344993692138814 13:1 #
0.21356685542716047354616648590309 13:1 #
0.21356685542716047354616648590309 14:1 #
0.21356685542716047354616648590309 19:1 #
0.21356685542716047354616648590309 18:1 #
0.21356685542716047354616648590309 19:1 #
-0.79098835343392759344993692138814 18:1 #
-0.79098835343392759344993692138814 19:1 #
0.21356685542716047354616648590309 18:1 #
0.21356685542716047354616648590309 19:1 #
0.21356685542716047354616648590309 18:1 #
0.21356685542716047354616648590309 19:1 #
0.21356685542716047354616648590309 18:1 #
0.21356685542716047354616648590309 19:1 #
-0.79098835343392759344993692138814 18:1 #
0.21356685542716047354616648590309 18:1 #
-0.79098835343392759344993692138814 2:1 #
0.21356685542716047354616648590309 5:1 #
0.21356685542716047354616648590309 2:1 #
-0.79098835343392759344993692138814 5:1 #
0.21356685542716047354616648590309 2:1 #
0.21356685542716047354616648590309 3:1 #
-0.79098835343392759344993692138814 5:1 #
0.21356685542716047354616648590309 5:1 #
-0.79098835343392759344993692138814 3:1 #
0.21356685542716047354616648590309 3:1 #
0.21356685542716047354616648590309 5:1 #
0.21356685542716047354616648590309 3:1 #
0.21356685542716047354616648590309 5:1 #
0.21356685542716047354616648590309 3:1 #
0.21356685542716047354616648590309 5:1 #
-0.79098835343392759344993692138814 5:1 #
0.21356685542716047354616648590309 3:1 #
-0.79098835343392759344993692138814 3:1 #
-0.10823735519883050104628097187742 16:1 #
-0.10475507581327110628865995067827 6:1 #
-0.11046413062783690117729662460988 19:1 #
-0.10367800922761467863342232931245 17:1 #
0.21356685542716047354616648590309 18:1 #
0.21356685542716047354616648590309 13:1 #
0.21356685542716047354616648590309 2:1 #
0.21356685542716047354616648590309 19:1 #
0.21356685542716047354616648590309 3:1 #
-0.79098835343392759344993692138814 19:1 #
0.21356685542716047354616648590309 19:1 #
0.21356685542716047354616648590309 2:1 #
0.21356685542716047354616648590309 6:1 #
-0.79098835343392759344993692138814 2:1 #
0.21356685542716047354616648590309 17:1 #
0.21356685542716047354616648590309 2:1 #
0.21356685542716047354616648590309 2:1 #
-0.79098835343392759344993692138814 17:1 #
0.21356685542716047354616648590309 17:1 #
0.21356685542716047354616648590309 2:1 #
0.21356685542716047354616648590309 17:1 #
0.21356685542716047354616648590309 2:1 #
-0.79098835343392759344993692138814 2:1 #
0.21356685542716047354616648590309 19:1 #
0.21356685542716047354616648590309 2:1 #
0.21356685542716047354616648590309 19:1 #
0.21356685542716047354616648590309 2:1 #
0.21356685542716047354616648590309 19:1 #
0.21356685542716047354616648590309 5:1 #
-0.79098835343392759344993692138814 19:1 #
0.21356685542716047354616648590309 19:1 #
0.21356685542716047354616648590309 5:1 #
0.21356685542716047354616648590309 19:1 #
0.21356685542716047354616648590309 5:1 #
0.21356685542716047354616648590309 19:1 #
0.21356685542716047354616648590309 6:1 #
0.21356685542716047354616648590309 5:1 #
0.21356685542716047354616648590309 16:1 #
-0.79098835343392759344993692138814 5:1 #
0.21356685542716047354616648590309 5:1 #
0.21356685542716047354616648590309 16:1 #
0.21356685542716047354616648590309 5:1 #
0.21356685542716047354616648590309 16:1 #
0.21356685542716047354616648590309 5:1 #
0.21356685542716047354616648590309 3:1 #
0.21356685542716047354616648590309 2:1 #
0.21356685542716047354616648590309 3:1 #
0.21356685542716047354616648590309 17:1 #
-0.79098835343392759344993692138814 19:1 #
0.21356685542716047354616648590309 19:1 #
0.21356685542716047354616648590309 17:1 #
0.21356685542716047354616648590309 19:1 #
-0.79098835343392759344993692138814 17:1 #
0.21356685542716047354616648590309 17:1 #
0.21356685542716047354616648590309 19:1 #
0.21356685542716047354616648590309 17:1 #
0.21356685542716047354616648590309 19:1 #
-0.79098835343392759344993692138814 19:1 #
0.21356685542716047354616648590309 17:1 #
0.21356685542716047354616648590309 19:1 #
-0.79098835343392759344993692138814 17:1 #
0.21356685542716047354616648590309 17:1 #
0.21356685542716047354616648590309 19:1 #
0.21356685542716047354616648590309 17:1 #
0.21356685542716047354616648590309 19:1 #
0.21356685542716047354616648590309 17:1 #
0.21356685542716047354616648590309 19:1 #
-0.79098835343392759344993692138814 19:1 #
0.21356685542716047354616648590309 17:1 #
0.21356685542716047354616648590309 19:1 #
-0.79098835343392759344993692138814 17:1 #
0.21356685542716047354616648590309 17:1 #
0.21356685542716047354616648590309 19:1 #
0.21356685542716047354616648590309 17:1 #
0.21356685542716047354616648590309 19:1 #
0.21356685542716047354616648590309 17:1 #
0.21356685542716047354616648590309 2:1 #
-0.79098835343392759344993692138814 16:1 #
0.21356685542716047354616648590309 16:1 #
-0.79098835343392759344993692138814 2:1 #
0.21356685542716047354616648590309 2:1 #
0.21356685542716047354616648590309 16:1 #
0.21356685542716047354616648590309 2:1 #
0.21356685542716047354616648590309 16:1 #
0.21356685542716047354616648590309 2:1 #
0.21356685542716047354616648590309 16:1 #
-0.79098835343392759344993692138814 16:1 #
-0.79098835343392759344993692138814 2:1 #
0.21356685542716047354616648590309 2:1 #
0.21356685542716047354616648590309 16:1 #
0.21356685542716047354616648590309 2:1 #
0.21356685542716047354616648590309 16:1 #
0.21356685542716047354616648590309 2:1 #
0.21356685542716047354616648590309 16:1 #
0.21356685542716047354616648590309 2:1 #
0.21356685542716047354616648590309 16:1 #
-0.79098835343392759344993692138814 16:1 #
-0.79098835343392759344993692138814 2:1 #
0.21356685542716047354616648590309 2:1 #
0.21356685542716047354616648590309 16:1 #
0.21356685542716047354616648590309 2:1 #
0.21356685542716047354616648590309 16:1 #
0.21356685542716047354616648590309 2:1 #
0.21356685542716047354616648590309 16:1 #
0.21356685542716047354616648590309 2:1 #
0.21356685542716047354616648590309 16:1 #
-0.79098835343392759344993692138814 16:1 #
-0.79098835343392759344993692138814 2:1 #
0.21356685542716047354616648590309 2:1 #
-0.28751044866131686417176638315141 9:1 #
-0.21050557334843439383220697891375 12:1 #
-0.21140686604369832157779285353172 1:1 #
-0.0061173645215578560663249874096437 16:1 #
0.21356685542716047354616648590309 18:1 #
0.21356685542716047354616648590309 4:1 #
0.21356685542716047354616648590309 20:1 #
-0.1444812670220059769299325580505 18:1 #
0.21356685542716047354616648590309 16:1 #
0.21356685542716047354616648590309 9:1 #
-0.79098835343392759344993692138814 2:1 #
0.21356685542716047354616648590309 3:1 #
0.21356685542716047354616648590309 1:1 #
0.21356685542716047354616648590309 2:1 #
0.21356685542716047354616648590309 12:1 #
-0.79098835343392759344993692138814 3:1 #
0.21356685542716047354616648590309 18:1 #
0.21356685542716047354616648590309 2:1 #
0.21356685542716047354616648590309 20:1 #
0.21356685542716047354616648590309 2:1 #
0.21356685542716047354616648590309 20:1 #
-0.79098835343392759344993692138814 4:1 #
0.21356685542716047354616648590309 3:1 #
0.21356685542716047354616648590309 12:1 #
0.21356685542716047354616648590309 3:1 #
0.21356685542716047354616648590309 4:1 #
0.21356685542716047354616648590309 2:1 #
-0.79098835343392759344993692138814 12:1 #
0.21356685542716047354616648590309 12:1 #
-0.79098835343392759344993692138814 2:1 #
0.21356685542716047354616648590309 2:1 #
0.21356685542716047354616648590309 12:1 #
0.21356685542716047354616648590309 2:1 #
0.21356685542716047354616648590309 12:1 #
0.21356685542716047354616648590309 2:1 #
0.21356685542716047354616648590309 12:1 #
-0.79098835343392759344993692138814 12:1 #
-0.79098835343392759344993692138814 2:1 #
0.21356685542716047354616648590309 2:1 #
0.21356685542716047354616648590309 12:1 #
0.21356685542716047354616648590309 2:1 #
0.21356685542716047354616648590309 12:1 #
0.21356685542716047354616648590309 2:1 #
0.21356685542716047354616648590309 12:1 #
0.21356685542716047354616648590309 2:1 #
0.21356685542716047354616648590309 12:1 #
-0.79098835343392759344993692138814 12:1 #
-0.79098835343392759344993692138814 2:1 #
0.21356685542716047354616648590309 2:1 #
0.21356685542716047354616648590309 12:1 #
0.21356685542716047354616648590309 2:1 #
0.21356685542716047354616648590309 12:1 #
0.21356685542716047354616648590309 2:1 #
0.21356685542716047354616648590309 12:1 #
0.21356685542716047354616648590309 2:1 #
-0.79098835343392759344993692138814 2:1 #
0.21356685542716047354616648590309 20:1 #
0.21356685542716047354616648590309 2:1 #
0.21356685542716047354616648590309 20:1 #
-0.79098835343392759344993692138814 20:1 #
0.21356685542716047354616648590309 2:1 #
0.21356685542716047354616648590309 20:1 #
0.21356685542716047354616648590309 2:1 #
0.21356685542716047354616648590309 20:1 #
0.21356685542716047354616648590309 16:1 #
0.21356685542716047354616648590309 3:1 #
0.21356685542716047354616648590309 16:1 #
-0.79098835343392759344993692138814 1:1 #
0.21356685542716047354616648590309 9:1 #
-0.79098835343392759344993692138814 4:1 #
0.21356685542716047354616648590309 4:1 #
0.21356685542716047354616648590309 1:1 #
0.21356685542716047354616648590309 4:1 #
-0.79098835343392759344993692138814 1:1 #
0.21356685542716047354616648590309 1:1 #
0.21356685542716047354616648590309 4:1 #
0.21356685542716047354616648590309 1:1 #
0.21356685542716047354616648590309 9:1 #
0.21356685542716047354616648590309 1:1 #
0.21356685542716047354616648590309 3:1 #
-0.79098835343392759344993692138814 3:1 #
0.21356685542716047354616648590309 4:1 #
-0.79098835343392759344993692138814 4:1 #
0.21356685542716047354616648590309 3:1 #
0.21356685542716047354616648590309 4:1 #
0.21356685542716047354616648590309 3:1 #
0.21356685542716047354616648590309 4:1 #
0.21356685542716047354616648590309 3:1 #
0.21356685542716047354616648590309 4:1 #
-0.79098835343392759344993692138814 3:1 #
0.21356685542716047354616648590309 3:1 #
-0.79098835343392759344993692138814 4:1 #
0.21356685542716047354616648590309 4:1 #
0.21356685542716047354616648590309 3:1 #
0.21356685542716047354616648590309 4:1 #
0.21356685542716047354616648590309 3:1 #
0.21356685542716047354616648590309 4:1 #
0.21356685542716047354616648590309 3:1 #
-0.79098835343392759344993692138814 3:1 #
0.21356685542716047354616648590309 4:1 #
0.21356685542716047354616648590309 3:1 #
-0.79098835343392759344993692138814 4:1 #
0.21356685542716047354616648590309 4:1 #
0.21356685542716047354616648590309 3:1 #
0.21356685542716047354616648590309 4:1 #
0.21356685542716047354616648590309 3:1 #
0.21356685542716047354616648590309 4:1 #
0.21356685542716047354616648590309 3:1 #
-0.79098835343392759344993692138814 3:1 #
0.21356685542716047354616648590309 4:1 #
-0.79098835343392759344993692138814 4:1 #
0.21356685542716047354616648590309 3:1 #
0.21356685542716047354616648590309 4:1 #
-0.24587618419131360147922293890588 14:1 #
-0.12086140074766865692978967672389 3:1 #
-0.23939886249866218492776681614487 16:1 #
-0.24812944945485929104656008803431 10:1 #
0.21356685542716047354616648590309 18:1 #
0.21356685542716047354616648590309 2:1 #
0.21356685542716047354616648590309 15:1 #
0.21356685542716047354616648590309 8:1 #
0.21356685542716047354616648590309 14:1 #
-0.79098835343392759344993692138814 2:1 #
0.21356685542716047354616648590309 10:1 #
0.21356685542716047354616648590309 2:1 #
0.21356685542716047354616648590309 3:1 #
0.21356685542716047354616648590309 16:1 #
0.21356685542716047354616648590309 2:1 #
-0.79098835343392759344993692138814 18:1 #
0.21356685542716047354616648590309 10:1 #
0.21356685542716047354616648590309 2:1 #
0.21356685542716047354616648590309 18:1 #
-0.79098835343392759344993692138814 2:1 #
0.21356685542716047354616648590309 2:1 #
0.21356685542716047354616648590309 2:1 #
0.21356685542716047354616648590309 15:1 #
0.21356685542716047354616648590309 2:1 #
0.21356685542716047354616648590309 18:1 #
-0.79098835343392759344993692138814 8:1 #
0.21356685542716047354616648590309 8:1 #
0.21356685542716047354616648590309 18:1 #
0.21356685542716047354616648590309 2:1 #
-0.79098835343392759344993692138814 18:1 #
-0.79098835343392759344993692138814 2:1 #
0.21356685542716047354616648590309 18:1 #
0.21356685542716047354616648590309 2:1 #
0.21356685542716047354616648590309 18:1 #
0.21356685542716047354616648590309 2:1 #
0.21356685542716047354616648590309 18:1 #
0.21356685542716047354616648590309 2:1 #
0.21356685542716047354616648590309 8:1 #
0.21356685542716047354616648590309 10:1 #
0.21356685542716047354616648590309 4:1 #
-0.79098835343392759344993692138814 10:1 #
0.21356685542716047354616648590309 10:1 #
0.21356685542716047354616648590309 4:1 #
0.21356685542716047354616648590309 10:1 #
0.21356685542716047354616648590309 4:1 #
-0.79098835343392759344993692138814 4:1 #
0.21356685542716047354616648590309 10:1 #
0.21356685542716047354616648590309 4:1 #
0.21356685542716047354616648590309 3:1 #
0.21356685542716047354616648590309 14:1 #
0.21356685542716047354616648590309 8:1 #
0.21356685542716047354616648590309 8:1 #
-0.79098835343392759344993692138814 14:1 #
-0.79098835343392759344993692138814 8:1 #
0.21356685542716047354616648590309 14:1 #
0.21356685542716047354616648590309 8:1 #
0.21356685542716047354616648590309 14:1 #
0.21356685542716047354616648590309 8:1 #
0.21356685542716047354616648590309 14:1 #
0.21356685542716047354616648590309 8:1 #
-0.79098835343392759344993692138814 10:1 #
0.21356685542716047354616648590309 14:1 #
0.21356685542716047354616648590309 16:1 #
-0.79098835343392759344993692138814 14:1 #
0.21356685542716047354616648590309 10:1 #
0.21356685542716047354616648590309 14:1 #
-0.79098835343392759344993692138814 16:1 #
0.21356685542716047354616648590309 16:1 #
0.21356685542716047354616648590309 14:1 #
0.21356685542716047354616648590309 16:1 #
0.21356685542716047354616648590309 14:1 #
0.21356685542716047354616648590309 16:1 #
-0.79098835343392759344993692138814 10:1 #
0.21356685542716047354616648590309 16:1 #
-0.79098835343392759344993692138814 16:1 #
0.21356685542716047354616648590309 3:1 #
0.21356685542716047354616648590309 16:1 #
0.21356685542716047354616648590309 15:1 #
-0.79098835343392759344993692138814 15:1 #
0.21356685542716047354616648590309 8:1 #
-0.79098835343392759344993692138814 8:1 #
0.21356685542716047354616648590309 15:1 #
0.21356685542716047354616648590309 8:1 #
0.21356685542716047354616648590309 15:1 #
0.21356685542716047354616648590309 8:1 #
0.21356685542716047354616648590309 15:1 #
0.21356685542716047354616648590309 8:1 #
-0.79098835343392759344993692138814 15:1 #
0.21356685542716047354616648590309 15:1 #
-0.79098835343392759344993692138814 8:1 #
0.21356685542716047354616648590309 8:1 #
0.21356685542716047354616648590309 15:1 #
0.21356685542716047354616648590309 8:1 #
0.21356685542716047354616648590309 15:1 #
0.21356685542716047354616648590309 8:1 #
0.21356685542716047354616648590309 15:1 #
0.21356685542716047354616648590309 8:1 #
-0.79098835343392759344993692138814 15:1 #
-0.79098835343392759344993692138814 8:1 #
0.21356685542716047354616648590309 15:1 #
0.21356685542716047354616648590309 8:1 #
0.21356685542716047354616648590309 15:1 #
0.21356685542716047354616648590309 8:1 #
0.21356685542716047354616648590309 15:1 #
0.21356685542716047354616648590309 8:1 #
0.21356685542716047354616648590309 15:1 #
-0.79098835343392759344993692138814 15:1 #
0.21356685542716047354616648590309 8:1 #
-0.79098835343392759344993692138814 8:1 #
0.21356685542716047354616648590309 15:1 #
0.21356685542716047354616648590309 8:1 #
0.21356685542716047354616648590309 15:1 #
0.21356685542716047354616648590309 8:1 #
0.21356685542716047354616648590309 15:1 #
0.21356685542716047354616648590309 8:1 #
-0.79098835343392759344993692138814 15:1 #
0.21356685542716047354616648590309 15:1 #
-0.20876666681421518489969457732514 20:1 #
-0.23266814328995202854066803865862 8:1 #
-0.19927381236258823182794230888248 15:1 #
0.21356685542716047354616648590309 18:1 #
0.21356685542716047354616648590309 16:1 #
0.21356685542716047354616648590309 14:1 #
0.21356685542716047354616648590309 8:1 #
-0.79098835343392759344993692138814 18:1 #
0.21356685542716047354616648590309 20:1 #
-0.79098835343392759344993692138814 14:1 #
0.21356685542716047354616648590309 15:1 #
0.21356685542716047354616648590309 20:1 #
0.21356685542716047354616648590309 15:1 #
0.21356685542716047354616648590309 20:1 #
0.21356685542716047354616648590309 15:1 #
-0.79098835343392759344993692138814 20:1 #
0.21356685542716047354616648590309 20:1 #
0.21356685542716047354616648590309 15:1 #
0.21356685542716047354616648590309 20:1 #
-0.79098835343392759344993692138814 15:1 #
0.21356685542716047354616648590309 15:1 #
0.21356685542716047354616648590309 20:1 #
0.21356685542716047354616648590309 15:1 #
0.21356685542716047354616648590309 20:1 #
-0.79098835343392759344993692138814 20:1 #
0.21356685542716047354616648590309 15:1 #
0.21356685542716047354616648590309 20:1 #
0.21356685542716047354616648590309 15:1 #
-0.79098835343392759344993692138814 15:1 #
0.21356685542716047354616648590309 20:1 #
0.21356685542716047354616648590309 15:1 #
0.21356685542716047354616648590309 20:1 #
0.21356685542716047354616648590309 15:1 #
0.21356685542716047354616648590309 20:1 #
-0.79098835343392759344993692138814 20:1 #
0.21356685542716047354616648590309 15:1 #
0.21356685542716047354616648590309 20:1 #
0.21356685542716047354616648590309 18:1 #
0.21356685542716047354616648590309 3:1 #
-0.79098835343392759344993692138814 3:1 #
0.21356685542716047354616648590309 10:1 #
0.21356685542716047354616648590309 10:1 #
0.21356685542716047354616648590309 3:1 #
0.21356685542716047354616648590309 10:1 #
0.21356685542716047354616648590309 3:1 #
0.21356685542716047354616648590309 18:1 #
0.21356685542716047354616648590309 3:1 #
0.21356685542716047354616648590309 18:1 #
-0.79098835343392759344993692138814 3:1 #
0.21356685542716047354616648590309 3:1 #
-0.79098835343392759344993692138814 18:1 #
0.21356685542716047354616648590309 18:1 #
0.21356685542716047354616648590309 3:1 #
0.21356685542716047354616648590309 18:1 #
0.21356685542716047354616648590309 3:1 #
0.21356685542716047354616648590309 18:1 #
0.21356685542716047354616648590309 3:1 #
0.21356685542716047354616648590309 18:1 #
-0.79098835343392759344993692138814 3:1 #
-0.79098835343392759344993692138814 18:1 #
0.21356685542716047354616648590309 3:1 #
0.21356685542716047354616648590309 18:1 #
0.21356685542716047354616648590309 3:1 #
0.21356685542716047354616648590309 18:1 #
0.21356685542716047354616648590309 3:1 #
0.21356685542716047354616648590309 18:1 #
0.21356685542716047354616648590309 3:1 #
-0.79098835343392759344993692138814 3:1 #
0.21356685542716047354616648590309 18:1 #
-0.79098835343392759344993692138814 18:1 #
0.21356685542716047354616648590309 3:1 #
0.21356685542716047354616648590309 18:1 #
0.21356685542716047354616648590309 3:1 #
0.21356685542716047354616648590309 18:1 #
0.21356685542716047354616648590309 3:1 #
0.21356685542716047354616648590309 18:1 #
-0.79098835343392759344993692138814 3:1 #
0.21356685542716047354616648590309 3:1 #
-0.79098835343392759344993692138814 18:1 #
0.21356685542716047354616648590309 18:1 #
0.21356685542716047354616648590309 3:1 #
0.21356685542716047354616648590309 18:1 #
0.21356685542716047354616648590309 3:1 #
0.21356685542716047354616648590309 18:1 #
0.21356685542716047354616648590309 3:1 #
0.21356685542716047354616648590309 18:1 #
-0.79098835343392759344993692138814 3:1 #
-0.79098835343392759344993692138814 18:1 #
0.21356685542716047354616648590309 3:1 #
0.21356685542716047354616648590309 18:1 #
0.21356685542716047354616648590309 3:1 #
0.21356685542716047354616648590309 18:1 #
0.21356685542716047354616648590309 3:1 #
0.21356685542716047354616648590309 18:1 #
0.21356685542716047354616648590309 3:1 #
-0.79098835343392759344993692138814 3:1 #
0.21356685542716047354616648590309 18:1 #
-0.79098835343392759344993692138814 18:1 #
0.21356685542716047354616648590309 3:1 #
0.21356685542716047354616648590309 18:1 #
0.21356685542716047354616648590309 3:1 #
0.21356685542716047354616648590309 18:1 #
0.21356685542716047354616648590309 3:1 #
0.21356685542716047354616648590309 18:1 #
0.21356685542716047354616648590309 10:1 #
-0.79098835343392759344993692138814 15:1 #
0.21356685542716047354616648590309 15:1 #
-0.79098835343392759344993692138814 10:1 #
0.21356685542716047354616648590309 10:1 #
-0.14200520430429985907494483399205 8:1 #
-0.35946012281562134127455010457197 9:1 #
-0.13923911772647395990176732993859 1:1 #
0.21356685542716047354616648590309 16:1 #
0.21356685542716047354616648590309 18:1 #
0.21356685542716047354616648590309 15:1 #
0.21356685542716047354616648590309 9:1 #
0.21356685542716047354616648590309 10:1 #
-0.79098835343392759344993692138814 18:1 #
0.21356685542716047354616648590309 8:1 #
0.21356685542716047354616648590309 18:1 #
0.21356685542716047354616648590309 20:1 #
0.21356685542716047354616648590309 1:1 #
0.21356685542716047354616648590309 16:1 #
0.21356685542716047354616648590309 18:1 #
-0.79098835343392759344993692138814 8:1 #
0.21356685542716047354616648590309 9:1 #
0.21356685542716047354616648590309 8:1 #
0.21356685542716047354616648590309 9:1 #
-0.79098835343392759344993692138814 8:1 #
0.21356685542716047354616648590309 8:1 #
-0.79098835343392759344993692138814 9:1 #
0.21356685542716047354616648590309 9:1 #
0.21356685542716047354616648590309 8:1 #
0.21356685542716047354616648590309 9:1 #
0.21356685542716047354616648590309 8:1 #
0.21356685542716047354616648590309 9:1 #
0.21356685542716047354616648590309 8:1 #
0.21356685542716047354616648590309 10:1 #
-0.79098835343392759344993692138814 8:1 #
0.21356685542716047354616648590309 8:1 #
0.21356685542716047354616648590309 10:1 #
-0.79098835343392759344993692138814 10:1 #
0.21356685542716047354616648590309 1:1 #
0.21356685542716047354616648590309 10:1 #
-0.79098835343392759344993692138814 1:1 #
0.21356685542716047354616648590309 1:1 #
0.21356685542716047354616648590309 10:1 #
0.21356685542716047354616648590309 1:1 #
0.21356685542716047354616648590309 10:1 #
0.21356685542716047354616648590309 1:1 #
-0.79098835343392759344993692138814 10:1 #
0.21356685542716047354616648590309 10:1 #
-0.79098835343392759344993692138814 16:1 #
0.21356685542716047354616648590309 16:1 #
0.21356685542716047354616648590309 10:1 #
0.21356685542716047354616648590309 16:1 #
0.21356685542716047354616648590309 10:1 #
0.21356685542716047354616648590309 16:1 #
0.21356685542716047354616648590309 10:1 #
0.21356685542716047354616648590309 16:1 #
-0.79098835343392759344993692138814 10:1 #
-0.79098835343392759344993692138814 16:1 #
0.21356685542716047354616648590309 10:1 #
0.21356685542716047354616648590309 16:1 #
0.21356685542716047354616648590309 10:1 #
0.21356685542716047354616648590309 16:1 #
0.21356685542716047354616648590309 10:1 #
0.21356685542716047354616648590309 16:1 #
0.21356685542716047354616648590309 10:1 #
-0.79098835343392759344993692138814 10:1 #
-0.79098835343392759344993692138814 16:1 #
0.21356685542716047354616648590309 16:1 #
0.21356685542716047354616648590309 10:1 #
0.21356685542716047354616648590309 16:1 #
0.21356685542716047354616648590309 10:1 #
0.21356685542716047354616648590309 16:1 #
0.21356685542716047354616648590309 10:1 #
0.21356685542716047354616648590309 16:1 #
0.21356685542716047354616648590309 20:1 #
-0.79098835343392759344993692138814 9:1 #
0.21356685542716047354616648590309 9:1 #
0.21356685542716047354616648590309 20:1 #
0.21356685542716047354616648590309 9:1 #
-0.79098835343392759344993692138814 20:1 #
0.21356685542716047354616648590309 20:1 #
0.21356685542716047354616648590309 9:1 #
0.21356685542716047354616648590309 20:1 #
0.21356685542716047354616648590309 9:1 #
-0.79098835343392759344993692138814 9:1 #
0.21356685542716047354616648590309 20:1 #
0.21356685542716047354616648590309 9:1 #
0.21356685542716047354616648590309 20:1 #
0.21356685542716047354616648590309 15:1 #
-0.79098835343392759344993692138814 20:1 #
0.21356685542716047354616648590309 20:1 #
0.21356685542716047354616648590309 15:1 #
-0.79098835343392759344993692138814 15:1 #
0.21356685542716047354616648590309 20:1 #
0.21356685542716047354616648590309 15:1 #
0.21356685542716047354616648590309 20:1 #
0.21356685542716047354616648590309 15:1 #
-0.79098835343392759344993692138814 20:1 #
0.21356685542716047354616648590309 20:1 #
0.21356685542716047354616648590309 15:1 #
0.21356685542716047354616648590309 20:1 #
0.21356685542716047354616648590309 15:1 #
-0.79098835343392759344993692138814 15:1 #
0.21356685542716047354616648590309 20:1 #
0.21356685542716047354616648590309 15:1 #
0.21356685542716047354616648590309 20:1 #
0.21356685542716047354616648590309 15:1 #
-0.79098835343392759344993692138814 20:1 #
0.21356685542716047354616648590309 20:1 #
0.21356685542716047354616648590309 15:1 #
0.21356685542716047354616648590309 20:1 #
0.21356685542716047354616648590309 15:1 #
0.21356685542716047354616648590309 14:1 #
-0.79098835343392759344993692138814 15:1 #
0.21356685542716047354616648590309 9:1 #
-0.79098835343392759344993692138814 14:1 #
0.21356685542716047354616648590309 9:1 #
0.21356685542716047354616648590309 15:1 #
0.21356685542716047354616648590309 14:1 #
0.21356685542716047354616648590309 15:1 #
-0.23191461947443464675089330739866 15:1 #
-0.12943701585533931575078270270751 4:1 #
-0.13619126329617595172472022113652 18:1 #
-0.24994313354272557070601123996312 3:1 #
0.21356685542716047354616648590309 16:1 #
0.21356685542716047354616648590309 17:1 #
0.21356685542716047354616648590309 9:1 #
0.21356685542716047354616648590309 15:1 #
-0.79098835343392759344993692138814 16:1 #
0.21356685542716047354616648590309 18:1 #
0.21356685542716047354616648590309 14:1 #
0.21356685542716047354616648590309 3:1 #
-0.79098835343392759344993692138814 9:1 #
0.21356685542716047354616648590309 4:1 #
0.21356685542716047354616648590309 14:1 #
-0.79098835343392759344993692138814 14:1 #
0.21356685542716047354616648590309 9:1 #
0.21356685542716047354616648590309 15:1 #
0.21356685542716047354616648590309 9:1 #
0.21356685542716047354616648590309 15:1 #
-0.79098835343392759344993692138814 15:1 #
0.21356685542716047354616648590309 9:1 #
0.21356685542716047354616648590309 15:1 #
0.21356685542716047354616648590309 3:1 #
0.21356685542716047354616648590309 18:1 #
0.21356685542716047354616648590309 15:1 #
-0.79098835343392759344993692138814 3:1 #
0.21356685542716047354616648590309 15:1 #
0.21356685542716047354616648590309 3:1 #
0.21356685542716047354616648590309 14:1 #
0.21356685542716047354616648590309 14:1 #
0.21356685542716047354616648590309 3:1 #
0.21356685542716047354616648590309 14:1 #
0.21356685542716047354616648590309 3:1 #
0.21356685542716047354616648590309 4:1 #
0.21356685542716047354616648590309 18:1 #
-0.79098835343392759344993692138814 18:1 #
-0.79098835343392759344993692138814 3:1 #
0.21356685542716047354616648590309 3:1 #
-0.79098835343392759344993692138814 18:1 #
0.21356685542716047354616648590309 18:1 #
0.21356685542716047354616648590309 3:1 #
0.21356685542716047354616648590309 18:1 #
0.21356685542716047354616648590309 3:1 #
0.21356685542716047354616648590309 18:1 #
0.21356685542716047354616648590309 3:1 #
0.21356685542716047354616648590309 18:1 #
-0.79098835343392759344993692138814 3:1 #
0.21356685542716047354616648590309 3:1 #
0.21356685542716047354616648590309 4:1 #
0.21356685542716047354616648590309 3:1 #
0.21356685542716047354616648590309 4:1 #
-0.79098835343392759344993692138814 4:1 #
0.21356685542716047354616648590309 3:1 #
0.21356685542716047354616648590309 4:1 #
0.21356685542716047354616648590309 3:1 #
0.21356685542716047354616648590309 4:1 #
-0.79098835343392759344993692138814 3:1 #
0.21356685542716047354616648590309 3:1 #
0.21356685542716047354616648590309 4:1 #
0.21356685542716047354616648590309 3:1 #
0.21356685542716047354616648590309 4:1 #
-0.79098835343392759344993692138814 4:1 #
0.21356685542716047354616648590309 3:1 #
0.21356685542716047354616648590309 4:1 #
-0.79098835343392759344993692138814 18:1 #
0.21356685542716047354616648590309 14:1 #
0.21356685542716047354616648590309 17:1 #
-0.38441449195029564478431893803645 13:1 #
-0.79098835343392759344993692138814 17:1 #
0.21356685542716047354616648590309 17:1 #
-0.79098835343392759344993692138814 14:1 #
0.21356685542716047354616648590309 14:1 #
0.21356685542716047354616648590309 17:1 #
0.21356685542716047354616648590309 14:1 #
0.21356685542716047354616648590309 17:1 #
0.21356685542716047354616648590309 14:1 #
0.21356685542716047354616648590309 17:1 #
0.21356685542716047354616648590309 14:1 #
-0.79098835343392759344993692138814 17:1 #
-0.79098835343392759344993692138814 14:1 #
0.21356685542716047354616648590309 17:1 #
0.21356685542716047354616648590309 14:1 #
0.21356685542716047354616648590309 17:1 #
0.21356685542716047354616648590309 14:1 #
0.21356685542716047354616648590309 17:1 #
0.21356685542716047354616648590309 14:1 #
0.21356685542716047354616648590309 17:1 #
0.21356685542716047354616648590309 14:1 #
-0.79098835343392759344993692138814 17:1 #
-0.79098835343392759344993692138814 14:1 #
0.21356685542716047354616648590309 17:1 #
0.21356685542716047354616648590309 14:1 #
0.21356685542716047354616648590309 17:1 #
0.21356685542716047354616648590309 14:1 #
0.21356685542716047354616648590309 17:1 #
0.21356685542716047354616648590309 14:1 #
-0.79098835343392759344993692138814 17:1 #
0.21356685542716047354616648590309 17:1 #
0.21356685542716047354616648590309 13:1 #
0.21356685542716047354616648590309 17:1 #
0.21356685542716047354616648590309 13:1 #
-0.79098835343392759344993692138814 13:1 #
0.21356685542716047354616648590309 17:1 #
0.21356685542716047354616648590309 13:1 #
0.21356685542716047354616648590309 17:1 #
0.21356685542716047354616648590309 13:1 #
-0.79098835343392759344993692138814 17:1 #
0.21356685542716047354616648590309 17:1 #
0.21356685542716047354616648590309 13:1 #
0.21356685542716047354616648590309 17:1 #
0.21356685542716047354616648590309 13:1 #
-0.21638525471248698517356956472213 16:1 #
-0.10746771992254883221207251153828 20:1 #
-0.10784674945757105612997861499025 1:1 #
-0.10221591661019337193838651955957 18:1 #
0.21356685542716047354616648590309 7:1 #
0.21356685542716047354616648590309 15:1 #
0.21356685542716047354616648590309 16:1 #
-0.79098835343392759344993692138814 15:1 #
0.21356685542716047354616648590309 20:1 #
-0.79098835343392759344993692138814 7:1 #
0.21356685542716047354616648590309 15:1 #
-0.79098835343392759344993692138814 13:1 #
0.21356685542716047354616648590309 7:1 #
0.21356685542716047354616648590309 13:1 #
0.21356685542716047354616648590309 7:1 #
0.21356685542716047354616648590309 13:1 #
0.21356685542716047354616648590309 7:1 #
0.21356685542716047354616648590309 13:1 #
0.21356685542716047354616648590309 15:1 #
0.21356685542716047354616648590309 1:1 #
0.21356685542716047354616648590309 18:1 #
0.21356685542716047354616648590309 15:1 #
0.21356685542716047354616648590309 18:1 #
0.21356685542716047354616648590309 17:1 #
0.21356685542716047354616648590309 18:1 #
0.21356685542716047354616648590309 17:1 #
-0.79098835343392759344993692138814 17:1 #
0.21356685542716047354616648590309 18:1 #
0.21356685542716047354616648590309 17:1 #
-0.79098835343392759344993692138814 18:1 #
0.21356685542716047354616648590309 18:1 #
0.21356685542716047354616648590309 17:1 #
0.21356685542716047354616648590309 18:1 #
0.21356685542716047354616648590309 17:1 #
0.21356685542716047354616648590309 18:1 #
0.21356685542716047354616648590309 17:1 #
-0.79098835343392759344993692138814 15:1 #
0.21356685542716047354616648590309 15:1 #
-0.79098835343392759344993692138814 17:1 #
0.21356685542716047354616648590309 17:1 #
-0.79098835343392759344993692138814 7:1 #
0.21356685542716047354616648590309 7:1 #
0.21356685542716047354616648590309 17:1 #
0.21356685542716047354616648590309 7:1 #
0.21356685542716047354616648590309 17:1 #
0.21356685542716047354616648590309 7:1 #
-0.79098835343392759344993692138814 17:1 #
0.21356685542716047354616648590309 17:1 #
0.21356685542716047354616648590309 7:1 #
-0.79098835343392759344993692138814 7:1 #
0.21356685542716047354616648590309 17:1 #
0.21356685542716047354616648590309 7:1 #
0.21356685542716047354616648590309 17:1 #
0.21356685542716047354616648590309 7:1 #
0.21356685542716047354616648590309 17:1 #
0.21356685542716047354616648590309 7:1 #
-0.79098835343392759344993692138814 17:1 #
0.21356685542716047354616648590309 17:1 #
0.21356685542716047354616648590309 7:1 #
-0.79098835343392759344993692138814 7:1 #
0.21356685542716047354616648590309 17:1 #
0.21356685542716047354616648590309 7:1 #
0.21356685542716047354616648590309 17:1 #
0.21356685542716047354616648590309 7:1 #
0.21356685542716047354616648590309 17:1 #
0.21356685542716047354616648590309 7:1 #
-0.79098835343392759344993692138814 17:1 #
0.21356685542716047354616648590309 17:1 #
0.21356685542716047354616648590309 7:1 #
-0.79098835343392759344993692138814 7:1 #
0.21356685542716047354616648590309 17:1 #
0.21356685542716047354616648590309 7:1 #
0.21356685542716047354616648590309 17:1 #
0.21356685542716047354616648590309 7:1 #
-0.79098835343392759344993692138814 17:1 #
0.21356685542716047354616648590309 17:1 #
0.21356685542716047354616648590309 7:1 #
-0.79098835343392759344993692138814 7:1 #
0.21356685542716047354616648590309 17:1 #
0.21356685542716047354616648590309 7:1 #
0.21356685542716047354616648590309 17:1 #
0.21356685542716047354616648590309 7:1 #
0.21356685542716047354616648590309 17:1 #
0.21356685542716047354616648590309 7:1 #
-0.79098835343392759344993692138814 17:1 #
0.21356685542716047354616648590309 17:1 #
0.21356685542716047354616648590309 7:1 #
-0.79098835343392759344993692138814 7:1 #
0.21356685542716047354616648590309 17:1 #
0.21356685542716047354616648590309 7:1 #
0.21356685542716047354616648590309 17:1 #
0.21356685542716047354616648590309 7:1 #
0.21356685542716047354616648590309 17:1 #
0.21356685542716047354616648590309 7:1 #
-0.79098835343392759344993692138814 17:1 #
0.21356685542716047354616648590309 17:1 #
0.21356685542716047354616648590309 7:1 #
-0.79098835343392759344993692138814 7:1 #
0.21356685542716047354616648590309 17:1 #
0.21356685542716047354616648590309 7:1 #
0.21356685542716047354616648590309 17:1 #
0.21356685542716047354616648590309 7:1 #
0.21356685542716047354616648590309 15:1 #
0.21356685542716047354616648590309 18:1 #
0.21356685542716047354616648590309 15:1 #
-0.79098835343392759344993692138814 18:1 #
0.21356685542716047354616648590309 18:1 #
0.21356685542716047354616648590309 15:1 #
-0.79098835343392759344993692138814 15:1 #
-0.21337239184911344080930462041579 5:1 #
-0.22019482563382797302153903729049 6:1 #
-0.20794936588995277526592531103233 10:1 #
-0.21274901711965260586723047708801 13:1 #
0.21356685542716047354616648590309 9:1 #
0.21356685542716047354616648590309 16:1 #
0.21356685542716047354616648590309 7:1 #
0.21356685542716047354616648590309 20:1 #
0.21356685542716047354616648590309 6:1 #
0.21356685542716047354616648590309 10:1 #
-0.79098835343392759344993692138814 16:1 #
-0.79098835343392759344993692138814 9:1 #
-0.79098835343392759344993692138814 20:1 #
0.21356685542716047354616648590309 13:1 #
0.21356685542716047354616648590309 16:1 #
0.21356685542716047354616648590309 18:1 #
0.21356685542716047354616648590309 13:1 #
0.21356685542716047354616648590309 13:1 #
0.21356685542716047354616648590309 16:1 #
0.21356685542716047354616648590309 18:1 #
-0.79098835343392759344993692138814 15:1 #
0.21356685542716047354616648590309 15:1 #
0.21356685542716047354616648590309 5:1 #
0.21356685542716047354616648590309 15:1 #
0.21356685542716047354616648590309 18:1 #
0.21356685542716047354616648590309 5:1 #
0.21356685542716047354616648590309 15:1 #
-0.79098835343392759344993692138814 5:1 #
0.21356685542716047354616648590309 5:1 #
0.21356685542716047354616648590309 15:1 #
-0.79098835343392759344993692138814 15:1 #
0.21356685542716047354616648590309 5:1 #
0.21356685542716047354616648590309 15:1 #
0.21356685542716047354616648590309 5:1 #
0.21356685542716047354616648590309 15:1 #
0.21356685542716047354616648590309 5:1 #
-0.79098835343392759344993692138814 7:1 #
0.21356685542716047354616648590309 9:1 #
-0.79098835343392759344993692138814 5:1 #
0.21356685542716047354616648590309 7:1 #
0.21356685542716047354616648590309 7:1 #
0.21356685542716047354616648590309 5:1 #
0.21356685542716047354616648590309 7:1 #
0.21356685542716047354616648590309 5:1 #
0.21356685542716047354616648590309 7:1 #
-0.79098835343392759344993692138814 7:1 #
0.21356685542716047354616648590309 5:1 #
0.21356685542716047354616648590309 7:1 #
-0.79098835343392759344993692138814 5:1 #
0.21356685542716047354616648590309 5:1 #
0.21356685542716047354616648590309 7:1 #
0.21356685542716047354616648590309 5:1 #
0.21356685542716047354616648590309 7:1 #
0.21356685542716047354616648590309 5:1 #
0.21356685542716047354616648590309 7:1 #
-0.79098835343392759344993692138814 7:1 #
0.21356685542716047354616648590309 5:1 #
0.21356685542716047354616648590309 7:1 #
-0.79098835343392759344993692138814 5:1 #
0.21356685542716047354616648590309 5:1 #
0.21356685542716047354616648590309 7:1 #
0.21356685542716047354616648590309 5:1 #
0.21356685542716047354616648590309 7:1 #
0.21356685542716047354616648590309 5:1 #
0.21356685542716047354616648590309 9:1 #
0.21356685542716047354616648590309 16:1 #
0.21356685542716047354616648590309 9:1 #
-0.79098835343392759344993692138814 16:1 #
0.21356685542716047354616648590309 16:1 #
0.21356685542716047354616648590309 9:1 #
0.21356685542716047354616648590309 16:1 #
-0.79098835343392759344993692138814 9:1 #
0.21356685542716047354616648590309 9:1 #
0.21356685542716047354616648590309 16:1 #
0.21356685542716047354616648590309 9:1 #
0.21356685542716047354616648590309 16:1 #
-0.79098835343392759344993692138814 16:1 #
0.21356685542716047354616648590309 9:1 #
0.21356685542716047354616648590309 16:1 #
0.21356685542716047354616648590309 9:1 #
-0.79098835343392759344993692138814 9:1 #
0.21356685542716047354616648590309 16:1 #
0.21356685542716047354616648590309 9:1 #
0.21356685542716047354616648590309 16:1 #
0.21356685542716047354616648590309 9:1 #
0.21356685542716047354616648590309 16:1 #
-0.79098835343392759344993692138814 16:1 #
0.21356685542716047354616648590309 9:1 #
0.21356685542716047354616648590309 16:1 #
-0.79098835343392759344993692138814 9:1 #
0.21356685542716047354616648590309 9:1 #
0.21356685542716047354616648590309 16:1 #
0.21356685542716047354616648590309 9:1 #
0.21356685542716047354616648590309 16:1 #
0.21356685542716047354616648590309 9:1 #
0.21356685542716047354616648590309 16:1 #
-0.79098835343392759344993692138814 16:1 #
0.21356685542716047354616648590309 9:1 #
0.21356685542716047354616648590309 16:1 #
-0.79098835343392759344993692138814 9:1 #
0.21356685542716047354616648590309 9:1 #
0.21356685542716047354616648590309 16:1 #
0.21356685542716047354616648590309 9:1 #
0.21356685542716047354616648590309 16:1 #
0.21356685542716047354616648590309 9:1 #
-0.79098835343392759344993692138814 16:1 #
0.21356685542716047354616648590309 16:1 #
0.21356685542716047354616648590309 9:1 #
-0.79098835343392759344993692138814 9:1 #
-0.44598667296707505958153205938288 14:1 #
-0.19602286189745393718553145845362 6:1 #
-0.056039585165965050128633606618678 16:1 #
-0.20441454842898026944553180328512 8:1 #
-0.1947363957271150414207738776895 19:1 #
0.21356685542716047354616648590309 15:1 #
0.21356685542716047354616648590309 9:1 #
0.21356685542716047354616648590309 10:1 #
0.21356685542716047354616648590309 2:1 #
0.21356685542716047354616648590309 16:1 #
0.21356685542716047354616648590309 8:1 #
0.21356685542716047354616648590309 14:1 #
0.21356685542716047354616648590309 6:1 #
0.21356685542716047354616648590309 10:1 #
0.21356685542716047354616648590309 19:1 #
0.21356685542716047354616648590309 8:1 #
0.21356685542716047354616648590309 14:1 #
-0.79098835343392759344993692138814 10:1 #
0.21356685542716047354616648590309 10:1 #
0.21356685542716047354616648590309 9:1 #
0.21356685542716047354616648590309 9:1 #
-0.79098835343392759344993692138814 15:1 #
0.21356685542716047354616648590309 14:1 #
0.21356685542716047354616648590309 15:1 #
-0.79098835343392759344993692138814 14:1 #
0.21356685542716047354616648590309 8:1 #
0.21356685542716047354616648590309 15:1 #
0.21356685542716047354616648590309 8:1 #
0.21356685542716047354616648590309 15:1 #
0.21356685542716047354616648590309 8:1 #
0.21356685542716047354616648590309 15:1 #
0.21356685542716047354616648590309 14:1 #
-0.79098835343392759344993692138814 8:1 #
0.21356685542716047354616648590309 8:1 #
0.21356685542716047354616648590309 14:1 #
0.21356685542716047354616648590309 8:1 #
0.21356685542716047354616648590309 14:1 #
0.21356685542716047354616648590309 8:1 #
0.21356685542716047354616648590309 5:1 #
-0.79098835343392759344993692138814 5:1 #
0.21356685542716047354616648590309 8:1 #
-0.79098835343392759344993692138814 8:1 #
0.21356685542716047354616648590309 5:1 #
0.21356685542716047354616648590309 8:1 #
0.21356685542716047354616648590309 5:1 #
0.21356685542716047354616648590309 8:1 #
0.21356685542716047354616648590309 5:1 #
0.21356685542716047354616648590309 8:1 #
0.21356685542716047354616648590309 10:1 #
-0.79098835343392759344993692138814 5:1 #
0.21356685542716047354616648590309 5:1 #
0.21356685542716047354616648590309 10:1 #
0.21356685542716047354616648590309 5:1 #
-0.79098835343392759344993692138814 10:1 #
0.21356685542716047354616648590309 10:1 #
0.21356685542716047354616648590309 5:1 #
0.21356685542716047354616648590309 10:1 #
0.21356685542716047354616648590309 5:1 #
-0.79098835343392759344993692138814 5:1 #
0.21356685542716047354616648590309 10:1 #
0.21356685542716047354616648590309 5:1 #
0.21356685542716047354616648590309 10:1 #
0.21356685542716047354616648590309 5:1 #
-0.79098835343392759344993692138814 10:1 #
0.21356685542716047354616648590309 10:1 #
0.21356685542716047354616648590309 5:1 #
0.21356685542716047354616648590309 10:1 #
0.21356685542716047354616648590309 5:1 #
-0.79098835343392759344993692138814 5:1 #
0.21356685542716047354616648590309 10:1 #
0.21356685542716047354616648590309 5:1 #
0.21356685542716047354616648590309 10:1 #
0.21356685542716047354616648590309 5:1 #
