SVM-light Version V6.02
0 # kernel type
3 # kernel parameter -d 
1 # kernel parameter -g 
1 # kernel parameter -s 
1 # kernel parameter -r 
empty# kernel parameter -u 
20 # highest feature index 
90878 # number of training documents 
23645 # number of support vectors plus 1 
0.99976629 # threshold b, each following line is a SV (starting with alpha*y)
-1 14:1 #
-1 3:1 #
-0.99023370558561529808372370098368 4:1 #
-0.85999999999978404829903411155101 6:1 #
-1 20:1 #
0.2700000000000000177635683940025 16:1 #
0.2700000000000000177635683940025 18:1 #
0.2700000000000000177635683940025 17:1 #
-1 16:1 #
0.2700000000000000177635683940025 4:1 #
0.2700000000000000177635683940025 3:1 #
0.2700000000000000177635683940025 14:1 #
0.2700000000000000177635683940025 6:1 #
-1 17:1 #
-1 18:1 #
0.2700000000000000177635683940025 16:1 #
0.2700000000000000177635683940025 16:1 #
-1 6:1 #
0.2700000000000000177635683940025 16:1 #
-1 16:1 #
0.2700000000000000177635683940025 20:1 #
-1 20:1 #
0.2700000000000000177635683940025 16:1 #
0.2700000000000000177635683940025 20:1 #
0.2700000000000000177635683940025 16:1 #
0.2700000000000000177635683940025 20:1 #
0.2700000000000000177635683940025 16:1 #
0.2700000000000000177635683940025 20:1 #
0.2700000000000000177635683940025 17:1 #
0.2700000000000000177635683940025 18:1 #
0.2700000000000000177635683940025 14:1 #
0.2700000000000000177635683940025 4:1 #
0.2700000000000000177635683940025 3:1 #
0.2700000000000000177635683940025 20:1 #
0.2700000000000000177635683940025 18:1 #
0.2700000000000000177635683940025 17:1 #
0.2700000000000000177635683940025 3:1 #
0.2700000000000000177635683940025 6:1 #
0.2700000000000000177635683940025 16:1 #
0.2700000000000000177635683940025 18:1 #
0.2700000000000000177635683940025 17:1 #
0.2700000000000000177635683940025 4:1 #
0.2700000000000000177635683940025 14:1 #
0.2700000000000000177635683940025 6:1 #
0.2700000000000000177635683940025 4:1 #
0.2700000000000000177635683940025 14:1 #
0.2700000000000000177635683940025 20:1 #
0.2700000000000000177635683940025 6:1 #
0.2700000000000000177635683940025 20:1 #
0.2700000000000000177635683940025 6:1 #
0.2700000000000000177635683940025 3:1 #
0.2700000000000000177635683940025 6:1 #
-1 16:1 #
0.2700000000000000177635683940025 6:1 #
-1 3:1 #
-1 14:1 #
-1 4:1 #
-1 18:1 #
-1 17:1 #
0.2700000000000000177635683940025 16:1 #
0.2700000000000000177635683940025 20:1 #
-1 20:1 #
0.2700000000000000177635683940025 16:1 #
0.2700000000000000177635683940025 20:1 #
0.2700000000000000177635683940025 6:1 #
0.2700000000000000177635683940025 18:1 #
0.2700000000000000177635683940025 17:1 #
0.2700000000000000177635683940025 20:1 #
0.2700000000000000177635683940025 4:1 #
0.2700000000000000177635683940025 17:1 #
0.2700000000000000177635683940025 18:1 #
0.2700000000000000177635683940025 20:1 #
0.2700000000000000177635683940025 18:1 #
0.2700000000000000177635683940025 17:1 #
0.2700000000000000177635683940025 18:1 #
0.2700000000000000177635683940025 17:1 #
0.2700000000000000177635683940025 4:1 #
0.2700000000000000177635683940025 14:1 #
0.2700000000000000177635683940025 16:1 #
0.2700000000000000177635683940025 14:1 #
0.2700000000000000177635683940025 4:1 #
0.2700000000000000177635683940025 14:1 #
0.2700000000000000177635683940025 3:1 #
0.2700000000000000177635683940025 4:1 #
0.2700000000000000177635683940025 14:1 #
0.2700000000000000177635683940025 3:1 #
-1 14:1 #
0.2700000000000000177635683940025 3:1 #
-1 6:1 #
0.2700000000000000177635683940025 14:1 #
0.2700000000000000177635683940025 6:1 #
0.2700000000000000177635683940025 14:1 #
0.2700000000000000177635683940025 6:1 #
0.2700000000000000177635683940025 14:1 #
0.2700000000000000177635683940025 3:1 #
-1 3:1 #
0.2700000000000000177635683940025 6:1 #
0.2700000000000000177635683940025 3:1 #
-1 18:1 #
0.2700000000000000177635683940025 16:1 #
-1 16:1 #
0.2700000000000000177635683940025 18:1 #
0.2700000000000000177635683940025 16:1 #
0.2700000000000000177635683940025 18:1 #
0.2700000000000000177635683940025 16:1 #
0.2700000000000000177635683940025 18:1 #
0.2700000000000000177635683940025 16:1 #
0.2700000000000000177635683940025 18:1 #
-1 18:1 #
-1 16:1 #
0.2700000000000000177635683940025 14:1 #
0.2700000000000000177635683940025 20:1 #
-1 14:1 #
-1 20:1 #
0.2700000000000000177635683940025 16:1 #
0.2700000000000000177635683940025 16:1 #
0.2700000000000000177635683940025 6:1 #
-1 6:1 #
0.2700000000000000177635683940025 16:1 #
0.2700000000000000177635683940025 6:1 #
0.2700000000000000177635683940025 16:1 #
-1 16:1 #
0.2700000000000000177635683940025 6:1 #
0.2700000000000000177635683940025 16:1 #
0.2700000000000000177635683940025 16:1 #
0.2700000000000000177635683940025 18:1 #
0.2700000000000000177635683940025 16:1 #
0.2700000000000000177635683940025 18:1 #
0.2700000000000000177635683940025 6:1 #
0.2700000000000000177635683940025 18:1 #
0.2700000000000000177635683940025 20:1 #
0.2700000000000000177635683940025 3:1 #
0.2700000000000000177635683940025 20:1 #
0.2700000000000000177635683940025 14:1 #
0.2700000000000000177635683940025 20:1 #
0.2700000000000000177635683940025 14:1 #
0.2700000000000000177635683940025 20:1 #
0.2700000000000000177635683940025 14:1 #
0.2700000000000000177635683940025 3:1 #
0.2700000000000000177635683940025 3:1 #
-1 14:1 #
-1 18:1 #
0.2700000000000000177635683940025 16:1 #
-1 16:1 #
0.2700000000000000177635683940025 18:1 #
-1 18:1 #
0.2700000000000000177635683940025 14:1 #
-1 14:1 #
0.2700000000000000177635683940025 18:1 #
0.2700000000000000177635683940025 14:1 #
0.2700000000000000177635683940025 18:1 #
0.2700000000000000177635683940025 14:1 #
0.2700000000000000177635683940025 18:1 #
0.2700000000000000177635683940025 14:1 #
0.2700000000000000177635683940025 16:1 #
0.2700000000000000177635683940025 18:1 #
0.2700000000000000177635683940025 14:1 #
0.2700000000000000177635683940025 18:1 #
0.2700000000000000177635683940025 16:1 #
0.2700000000000000177635683940025 18:1 #
0.2700000000000000177635683940025 16:1 #
0.2700000000000000177635683940025 14:1 #
0.2700000000000000177635683940025 14:1 #
-1 4:1 #
-1 20:1 #
0.2700000000000000177635683940025 18:1 #
-1 18:1 #
-1 17:1 #
0.2700000000000000177635683940025 14:1 #
-1 14:1 #
0.2700000000000000177635683940025 17:1 #
0.2700000000000000177635683940025 14:1 #
0.2700000000000000177635683940025 17:1 #
0.2700000000000000177635683940025 14:1 #
0.2700000000000000177635683940025 17:1 #
0.2700000000000000177635683940025 3:1 #
0.2700000000000000177635683940025 4:1 #
0.2700000000000000177635683940025 18:1 #
0.2700000000000000177635683940025 4:1 #
0.2700000000000000177635683940025 18:1 #
0.2700000000000000177635683940025 4:1 #
0.2700000000000000177635683940025 18:1 #
0.2700000000000000177635683940025 20:1 #
0.2700000000000000177635683940025 14:1 #
0.2700000000000000177635683940025 20:1 #
0.2700000000000000177635683940025 20:1 #
-1 3:1 #
0.2700000000000000177635683940025 20:1 #
-1 20:1 #
0.2700000000000000177635683940025 3:1 #
0.2700000000000000177635683940025 20:1 #
0.2700000000000000177635683940025 3:1 #
0.2700000000000000177635683940025 20:1 #
0.2700000000000000177635683940025 20:1 #
-1 16:1 #
-1 14:1 #
0.2700000000000000177635683940025 17:1 #
0.2700000000000000177635683940025 4:1 #
-1 4:1 #
0.2700000000000000177635683940025 16:1 #
-1 17:1 #
0.2700000000000000177635683940025 14:1 #
-1 18:1 #
0.2700000000000000177635683940025 17:1 #
0.2700000000000000177635683940025 18:1 #
0.2700000000000000177635683940025 17:1 #
0.2700000000000000177635683940025 18:1 #
0.2700000000000000177635683940025 17:1 #
0.2700000000000000177635683940025 18:1 #
0.2700000000000000177635683940025 4:1 #
0.2700000000000000177635683940025 18:1 #
0.2700000000000000177635683940025 4:1 #
0.2700000000000000177635683940025 16:1 #
0.2700000000000000177635683940025 4:1 #
0.2700000000000000177635683940025 16:1 #
0.2700000000000000177635683940025 14:1 #
0.2700000000000000177635683940025 16:1 #
0.2700000000000000177635683940025 14:1 #
-1 4:1 #
0.2700000000000000177635683940025 14:1 #
-1 14:1 #
0.2700000000000000177635683940025 4:1 #
-1 17:1 #
0.2700000000000000177635683940025 14:1 #
0.2700000000000000177635683940025 17:1 #
0.2700000000000000177635683940025 14:1 #
0.2700000000000000177635683940025 17:1 #
0.2700000000000000177635683940025 14:1 #
0.2700000000000000177635683940025 17:1 #
0.2700000000000000177635683940025 14:1 #
-1 14:1 #
0.2700000000000000177635683940025 4:1 #
0.2700000000000000177635683940025 14:1 #
0.2700000000000000177635683940025 4:1 #
0.2700000000000000177635683940025 14:1 #
0.2700000000000000177635683940025 4:1 #
-1 4:1 #
0.2700000000000000177635683940025 14:1 #
0.2700000000000000177635683940025 4:1 #
-1 18:1 #
-1 16:1 #
0.2700000000000000177635683940025 4:1 #
-1 10:1 #
-1 2:1 #
-1 15:1 #
-1 19:1 #
0.2700000000000000177635683940025 16:1 #
0.2700000000000000177635683940025 9:1 #
0.2700000000000000177635683940025 1:1 #
-1 9:1 #
-1 1:1 #
0.2700000000000000177635683940025 2:1 #
0.2700000000000000177635683940025 10:1 #
-1 16:1 #
0.2700000000000000177635683940025 15:1 #
0.2700000000000000177635683940025 19:1 #
-1 19:1 #
-1 10:1 #
-1 2:1 #
0.2700000000000000177635683940025 17:1 #
-1 17:1 #
-1 15:1 #
0.2700000000000000177635683940025 4:1 #
0.2700000000000000177635683940025 15:1 #
0.2700000000000000177635683940025 4:1 #
0.2700000000000000177635683940025 15:1 #
0.2700000000000000177635683940025 9:1 #
0.2700000000000000177635683940025 1:1 #
0.2700000000000000177635683940025 15:1 #
0.2700000000000000177635683940025 19:1 #
0.2700000000000000177635683940025 10:1 #
0.2700000000000000177635683940025 9:1 #
0.2700000000000000177635683940025 1:1 #
0.2700000000000000177635683940025 10:1 #
0.2700000000000000177635683940025 19:1 #
0.2700000000000000177635683940025 17:1 #
0.2700000000000000177635683940025 2:1 #
0.2700000000000000177635683940025 15:1 #
0.2700000000000000177635683940025 19:1 #
0.2700000000000000177635683940025 9:1 #
0.2700000000000000177635683940025 18:1 #
0.2700000000000000177635683940025 17:1 #
0.2700000000000000177635683940025 2:1 #
0.2700000000000000177635683940025 15:1 #
0.2700000000000000177635683940025 16:1 #
0.2700000000000000177635683940025 1:1 #
0.2700000000000000177635683940025 10:1 #
0.2700000000000000177635683940025 2:1 #
0.2700000000000000177635683940025 15:1 #
0.2700000000000000177635683940025 18:1 #
0.2700000000000000177635683940025 16:1 #
0.2700000000000000177635683940025 10:1 #
0.2700000000000000177635683940025 16:1 #
0.2700000000000000177635683940025 18:1 #
0.2700000000000000177635683940025 2:1 #
0.2700000000000000177635683940025 10:1 #
0.2700000000000000177635683940025 2:1 #
0.2700000000000000177635683940025 15:1 #
0.2700000000000000177635683940025 16:1 #
0.2700000000000000177635683940025 19:1 #
0.2700000000000000177635683940025 2:1 #
0.2700000000000000177635683940025 10:1 #
0.2700000000000000177635683940025 17:1 #
0.2700000000000000177635683940025 16:1 #
0.2700000000000000177635683940025 19:1 #
0.2700000000000000177635683940025 16:1 #
0.2700000000000000177635683940025 19:1 #
0.2700000000000000177635683940025 2:1 #
-1 4:1 #
0.2700000000000000177635683940025 10:1 #
-1 10:1 #
-1 9:1 #
-1 1:1 #
0.2700000000000000177635683940025 19:1 #
-1 19:1 #
0.2700000000000000177635683940025 18:1 #
0.2700000000000000177635683940025 19:1 #
0.2700000000000000177635683940025 9:1 #
0.2700000000000000177635683940025 1:1 #
0.2700000000000000177635683940025 9:1 #
0.2700000000000000177635683940025 1:1 #
0.2700000000000000177635683940025 9:1 #
0.2700000000000000177635683940025 1:1 #
0.2700000000000000177635683940025 9:1 #
0.2700000000000000177635683940025 1:1 #
0.2700000000000000177635683940025 10:1 #
0.2700000000000000177635683940025 4:1 #
0.2700000000000000177635683940025 10:1 #
0.2700000000000000177635683940025 4:1 #
0.2700000000000000177635683940025 10:1 #
0.2700000000000000177635683940025 19:1 #
0.2700000000000000177635683940025 4:1 #
0.2700000000000000177635683940025 19:1 #
-1 15:1 #
-1 2:1 #
-1 9:1 #
-1 1:1 #
0.2700000000000000177635683940025 9:1 #
0.2700000000000000177635683940025 17:1 #
0.2700000000000000177635683940025 15:1 #
0.2700000000000000177635683940025 2:1 #
0.2700000000000000177635683940025 15:1 #
0.2700000000000000177635683940025 2:1 #
0.2700000000000000177635683940025 9:1 #
0.2700000000000000177635683940025 15:1 #
0.2700000000000000177635683940025 2:1 #
0.2700000000000000177635683940025 9:1 #
0.2700000000000000177635683940025 1:1 #
0.2700000000000000177635683940025 1:1 #
0.2700000000000000177635683940025 1:1 #
-1 18:1 #
-1 17:1 #
0.2700000000000000177635683940025 15:1 #
0.2700000000000000177635683940025 9:1 #
-1 15:1 #
-1 9:1 #
0.2700000000000000177635683940025 18:1 #
-1 18:1 #
0.2700000000000000177635683940025 17:1 #
0.2700000000000000177635683940025 18:1 #
0.2700000000000000177635683940025 15:1 #
0.2700000000000000177635683940025 9:1 #
0.2700000000000000177635683940025 15:1 #
0.2700000000000000177635683940025 9:1 #
0.2700000000000000177635683940025 18:1 #
0.2700000000000000177635683940025 15:1 #
0.2700000000000000177635683940025 9:1 #
0.2700000000000000177635683940025 17:1 #
0.2700000000000000177635683940025 18:1 #
0.2700000000000000177635683940025 17:1 #
0.2700000000000000177635683940025 18:1 #
0.2700000000000000177635683940025 2:1 #
0.2700000000000000177635683940025 18:1 #
-1 2:1 #
0.2700000000000000177635683940025 18:1 #
-1 18:1 #
-1 15:1 #
0.2700000000000000177635683940025 2:1 #
0.2700000000000000177635683940025 15:1 #
0.2700000000000000177635683940025 1:1 #
0.2700000000000000177635683940025 10:1 #
0.2700000000000000177635683940025 15:1 #
0.2700000000000000177635683940025 2:1 #
0.2700000000000000177635683940025 15:1 #
0.2700000000000000177635683940025 18:1 #
0.2700000000000000177635683940025 2:1 #
0.2700000000000000177635683940025 18:1 #
-1 1:1 #
-1 20:1 #
0.2700000000000000177635683940025 18:1 #
-1 10:1 #
0.2700000000000000177635683940025 15:1 #
0.2700000000000000177635683940025 20:1 #
0.2700000000000000177635683940025 18:1 #
0.2700000000000000177635683940025 1:1 #
0.2700000000000000177635683940025 10:1 #
0.2700000000000000177635683940025 1:1 #
0.2700000000000000177635683940025 20:1 #
0.2700000000000000177635683940025 1:1 #
0.2700000000000000177635683940025 20:1 #
0.2700000000000000177635683940025 10:1 #
-1 18:1 #
-1 15:1 #
0.2700000000000000177635683940025 10:1 #
-1 9:1 #
-1 1:1 #
-1 2:1 #
-1 3:1 #
-1 10:1 #
0.2700000000000000177635683940025 20:1 #
-1 20:1 #
0.2700000000000000177635683940025 10:1 #
0.2700000000000000177635683940025 20:1 #
0.2700000000000000177635683940025 10:1 #
0.2700000000000000177635683940025 20:1 #
0.2700000000000000177635683940025 10:1 #
0.2700000000000000177635683940025 20:1 #
0.2700000000000000177635683940025 10:1 #
0.2700000000000000177635683940025 15:1 #
0.2700000000000000177635683940025 2:1 #
0.2700000000000000177635683940025 3:1 #
0.2700000000000000177635683940025 15:1 #
0.2700000000000000177635683940025 2:1 #
0.2700000000000000177635683940025 9:1 #
0.2700000000000000177635683940025 3:1 #
0.2700000000000000177635683940025 15:1 #
0.2700000000000000177635683940025 2:1 #
0.2700000000000000177635683940025 9:1 #
0.2700000000000000177635683940025 3:1 #
0.2700000000000000177635683940025 15:1 #
0.2700000000000000177635683940025 2:1 #
0.2700000000000000177635683940025 9:1 #
0.2700000000000000177635683940025 1:1 #
0.2700000000000000177635683940025 18:1 #
0.2700000000000000177635683940025 1:1 #
0.2700000000000000177635683940025 18:1 #
0.2700000000000000177635683940025 1:1 #
0.2700000000000000177635683940025 18:1 #
0.2700000000000000177635683940025 9:1 #
-1 10:1 #
0.2700000000000000177635683940025 1:1 #
-1 1:1 #
0.2700000000000000177635683940025 10:1 #
0.2700000000000000177635683940025 1:1 #
0.2700000000000000177635683940025 10:1 #
0.2700000000000000177635683940025 1:1 #
0.2700000000000000177635683940025 10:1 #
0.2700000000000000177635683940025 3:1 #
-1 15:1 #
0.2700000000000000177635683940025 1:1 #
-1 18:1 #
0.2700000000000000177635683940025 15:1 #
0.2700000000000000177635683940025 3:1 #
0.2700000000000000177635683940025 15:1 #
0.2700000000000000177635683940025 10:1 #
0.2700000000000000177635683940025 15:1 #
0.2700000000000000177635683940025 3:1 #
0.2700000000000000177635683940025 3:1 #
-1 2:1 #
-1 20:1 #
-1 9:1 #
0.2700000000000000177635683940025 1:1 #
-1 1:1 #
0.2700000000000000177635683940025 3:1 #
-1 3:1 #
0.2700000000000000177635683940025 1:1 #
0.2700000000000000177635683940025 3:1 #
0.2700000000000000177635683940025 18:1 #
0.2700000000000000177635683940025 2:1 #
0.2700000000000000177635683940025 2:1 #
0.2700000000000000177635683940025 9:1 #
0.2700000000000000177635683940025 2:1 #
0.2700000000000000177635683940025 9:1 #
0.2700000000000000177635683940025 1:1 #
0.2700000000000000177635683940025 9:1 #
0.2700000000000000177635683940025 1:1 #
0.2700000000000000177635683940025 20:1 #
0.2700000000000000177635683940025 3:1 #
0.2700000000000000177635683940025 20:1 #
0.2700000000000000177635683940025 3:1 #
0.2700000000000000177635683940025 20:1 #
-1 10:1 #
-1 18:1 #
0.2700000000000000177635683940025 20:1 #
-1 20:1 #
0.2700000000000000177635683940025 2:1 #
0.2700000000000000177635683940025 9:1 #
0.2700000000000000177635683940025 20:1 #
0.2700000000000000177635683940025 11:1 #
0.2700000000000000177635683940025 20:1 #
0.2700000000000000177635683940025 18:1 #
0.2700000000000000177635683940025 10:1 #
0.2700000000000000177635683940025 18:1 #
0.2700000000000000177635683940025 10:1 #
0.2700000000000000177635683940025 20:1 #
0.2700000000000000177635683940025 10:1 #
0.2700000000000000177635683940025 18:1 #
-1 2:1 #
-1 9:1 #
0.2700000000000000177635683940025 20:1 #
-1 20:1 #
-1 2:1 #
0.2700000000000000177635683940025 20:1 #
0.2700000000000000177635683940025 2:1 #
-1 9:1 #
0.2700000000000000177635683940025 20:1 #
0.2700000000000000177635683940025 9:1 #
0.2700000000000000177635683940025 20:1 #
0.2700000000000000177635683940025 9:1 #
0.2700000000000000177635683940025 2:1 #
0.2700000000000000177635683940025 9:1 #
0.2700000000000000177635683940025 2:1 #
0.2700000000000000177635683940025 9:1 #
-1 9:1 #
0.2700000000000000177635683940025 2:1 #
0.2700000000000000177635683940025 9:1 #
-1 2:1 #
0.2700000000000000177635683940025 2:1 #
0.2700000000000000177635683940025 9:1 #
0.2700000000000000177635683940025 2:1 #
0.2700000000000000177635683940025 9:1 #
0.2700000000000000177635683940025 2:1 #
0.2700000000000000177635683940025 9:1 #
0.2700000000000000177635683940025 2:1 #
0.2700000000000000177635683940025 9:1 #
0.2700000000000000177635683940025 2:1 #
0.2700000000000000177635683940025 9:1 #
0.2700000000000000177635683940025 2:1 #
-1 18:1 #
0.2700000000000000177635683940025 9:1 #
-1 9:1 #
0.2700000000000000177635683940025 18:1 #
0.2700000000000000177635683940025 9:1 #
0.2700000000000000177635683940025 18:1 #
0.2700000000000000177635683940025 9:1 #
0.2700000000000000177635683940025 18:1 #
0.2700000000000000177635683940025 9:1 #
0.2700000000000000177635683940025 2:1 #
-1 20:1 #
-1 6:1 #
-1 2:1 #
0.2700000000000000177635683940025 18:1 #
-1 18:1 #
0.2700000000000000177635683940025 2:1 #
0.2700000000000000177635683940025 18:1 #
0.2700000000000000177635683940025 2:1 #
0.2700000000000000177635683940025 18:1 #
0.2700000000000000177635683940025 19:1 #
0.2700000000000000177635683940025 18:1 #
0.2700000000000000177635683940025 6:1 #
0.2700000000000000177635683940025 20:1 #
0.2700000000000000177635683940025 6:1 #
0.2700000000000000177635683940025 20:1 #
0.2700000000000000177635683940025 6:1 #
0.2700000000000000177635683940025 20:1 #
0.2700000000000000177635683940025 2:1 #
0.2700000000000000177635683940025 20:1 #
-1 20:1 #
0.2700000000000000177635683940025 6:1 #
-1 6:1 #
0.2700000000000000177635683940025 20:1 #
0.2700000000000000177635683940025 6:1 #
0.2700000000000000177635683940025 20:1 #
0.2700000000000000177635683940025 6:1 #
0.2700000000000000177635683940025 20:1 #
0.2700000000000000177635683940025 6:1 #
0.2700000000000000177635683940025 20:1 #
-1 4:1 #
-1 1:1 #
-1 15:1 #
-0.61982472080988126883482891571475 10:1 #
-1 3:1 #
-1 17:1 #
0.2700000000000000177635683940025 6:1 #
-1 6:1 #
0.2700000000000000177635683940025 17:1 #
-1 17:1 #
0.2700000000000000177635683940025 10:1 #
-1 10:1 #
0.2700000000000000177635683940025 3:1 #
-1 3:1 #
0.2700000000000000177635683940025 10:1 #
0.2700000000000000177635683940025 3:1 #
0.2700000000000000177635683940025 17:1 #
0.2700000000000000177635683940025 3:1 #
0.2700000000000000177635683940025 10:1 #
0.2700000000000000177635683940025 6:1 #
0.2700000000000000177635683940025 17:1 #
0.2700000000000000177635683940025 15:1 #
0.2700000000000000177635683940025 4:1 #
0.2700000000000000177635683940025 15:1 #
0.2700000000000000177635683940025 10:1 #
0.2700000000000000177635683940025 6:1 #
0.2700000000000000177635683940025 15:1 #
0.2700000000000000177635683940025 3:1 #
0.2700000000000000177635683940025 15:1 #
0.2700000000000000177635683940025 4:1 #
0.2700000000000000177635683940025 17:1 #
0.2700000000000000177635683940025 4:1 #
0.2700000000000000177635683940025 1:1 #
0.2700000000000000177635683940025 3:1 #
0.2700000000000000177635683940025 6:1 #
0.2700000000000000177635683940025 17:1 #
0.2700000000000000177635683940025 1:1 #
0.2700000000000000177635683940025 17:1 #
0.2700000000000000177635683940025 1:1 #
0.2700000000000000177635683940025 17:1 #
0.2700000000000000177635683940025 1:1 #
0.2700000000000000177635683940025 17:1 #
0.2700000000000000177635683940025 4:1 #
0.2700000000000000177635683940025 10:1 #
0.2700000000000000177635683940025 1:1 #
0.2700000000000000177635683940025 4:1 #
0.2700000000000000177635683940025 10:1 #
0.2700000000000000177635683940025 3:1 #
0.2700000000000000177635683940025 10:1 #
0.2700000000000000177635683940025 3:1 #
-1 15:1 #
0.2700000000000000177635683940025 10:1 #
-1 10:1 #
0.2700000000000000177635683940025 15:1 #
0.2700000000000000177635683940025 10:1 #
0.2700000000000000177635683940025 15:1 #
0.2700000000000000177635683940025 10:1 #
0.2700000000000000177635683940025 15:1 #
0.2700000000000000177635683940025 10:1 #
0.2700000000000000177635683940025 15:1 #
-1 15:1 #
0.2700000000000000177635683940025 3:1 #
-1 3:1 #
0.2700000000000000177635683940025 15:1 #
0.2700000000000000177635683940025 3:1 #
0.2700000000000000177635683940025 15:1 #
0.2700000000000000177635683940025 3:1 #
0.2700000000000000177635683940025 15:1 #
0.2700000000000000177635683940025 3:1 #
-1 4:1 #
-1 1:1 #
-1 17:1 #
-1 19:1 #
-1 20:1 #
0.2700000000000000177635683940025 17:1 #
0.2700000000000000177635683940025 20:1 #
0.2700000000000000177635683940025 19:1 #
0.2700000000000000177635683940025 20:1 #
0.2700000000000000177635683940025 19:1 #
0.2700000000000000177635683940025 20:1 #
0.2700000000000000177635683940025 19:1 #
-1 6:1 #
0.2700000000000000177635683940025 17:1 #
0.2700000000000000177635683940025 6:1 #
0.2700000000000000177635683940025 17:1 #
0.2700000000000000177635683940025 15:1 #
0.2700000000000000177635683940025 16:1 #
-1 15:1 #
-1 16:1 #
0.2700000000000000177635683940025 6:1 #
0.2700000000000000177635683940025 6:1 #
0.2700000000000000177635683940025 9:1 #
-1 9:1 #
0.2700000000000000177635683940025 6:1 #
-1 6:1 #
0.2700000000000000177635683940025 9:1 #
0.2700000000000000177635683940025 6:1 #
0.2700000000000000177635683940025 9:1 #
0.2700000000000000177635683940025 6:1 #
0.2700000000000000177635683940025 15:1 #
0.2700000000000000177635683940025 16:1 #
0.2700000000000000177635683940025 9:1 #
0.2700000000000000177635683940025 16:1 #
0.2700000000000000177635683940025 15:1 #
0.2700000000000000177635683940025 16:1 #
0.2700000000000000177635683940025 15:1 #
0.2700000000000000177635683940025 4:1 #
0.2700000000000000177635683940025 1:1 #
0.2700000000000000177635683940025 4:1 #
0.2700000000000000177635683940025 1:1 #
0.2700000000000000177635683940025 4:1 #
0.2700000000000000177635683940025 1:1 #
0.2700000000000000177635683940025 6:1 #
-1 9:1 #
0.2700000000000000177635683940025 6:1 #
-1 6:1 #
0.2700000000000000177635683940025 9:1 #
0.2700000000000000177635683940025 6:1 #
0.2700000000000000177635683940025 9:1 #
0.2700000000000000177635683940025 6:1 #
0.2700000000000000177635683940025 9:1 #
0.2700000000000000177635683940025 6:1 #
0.2700000000000000177635683940025 9:1 #
-1 9:1 #
-1 15:1 #
0.2700000000000000177635683940025 4:1 #
-1 4:1 #
0.2700000000000000177635683940025 15:1 #
0.2700000000000000177635683940025 4:1 #
0.2700000000000000177635683940025 15:1 #
0.2700000000000000177635683940025 4:1 #
0.2700000000000000177635683940025 15:1 #
0.2700000000000000177635683940025 4:1 #
0.2700000000000000177635683940025 15:1 #
-1 16:1 #
0.2700000000000000177635683940025 1:1 #
-1 1:1 #
0.2700000000000000177635683940025 16:1 #
0.2700000000000000177635683940025 1:1 #
0.2700000000000000177635683940025 16:1 #
0.2700000000000000177635683940025 1:1 #
0.2700000000000000177635683940025 16:1 #
-1 4:1 #
-1 19:1 #
-1 20:1 #
-1 2:1 #
-1 16:1 #
0.2700000000000000177635683940025 15:1 #
0.2700000000000000177635683940025 14:1 #
0.2700000000000000177635683940025 18:1 #
-1 15:1 #
-1 18:1 #
0.2700000000000000177635683940025 20:1 #
-1 14:1 #
0.2700000000000000177635683940025 19:1 #
0.2700000000000000177635683940025 16:1 #
0.2700000000000000177635683940025 2:1 #
0.2700000000000000177635683940025 4:1 #
0.2700000000000000177635683940025 1:1 #
0.2700000000000000177635683940025 18:1 #
0.2700000000000000177635683940025 15:1 #
0.2700000000000000177635683940025 16:1 #
0.2700000000000000177635683940025 18:1 #
0.2700000000000000177635683940025 4:1 #
0.2700000000000000177635683940025 2:1 #
0.2700000000000000177635683940025 20:1 #
0.2700000000000000177635683940025 15:1 #
0.2700000000000000177635683940025 14:1 #
0.2700000000000000177635683940025 4:1 #
0.2700000000000000177635683940025 19:1 #
0.2700000000000000177635683940025 9:1 #
0.2700000000000000177635683940025 2:1 #
0.2700000000000000177635683940025 15:1 #
0.2700000000000000177635683940025 16:1 #
0.2700000000000000177635683940025 14:1 #
0.2700000000000000177635683940025 4:1 #
0.2700000000000000177635683940025 20:1 #
0.2700000000000000177635683940025 18:1 #
0.2700000000000000177635683940025 2:1 #
0.2700000000000000177635683940025 14:1 #
0.2700000000000000177635683940025 16:1 #
0.2700000000000000177635683940025 9:1 #
0.2700000000000000177635683940025 19:1 #
0.2700000000000000177635683940025 20:1 #
-1 4:1 #
0.2700000000000000177635683940025 9:1 #
-1 18:1 #
0.2700000000000000177635683940025 4:1 #
0.2700000000000000177635683940025 18:1 #
0.2700000000000000177635683940025 4:1 #
0.2700000000000000177635683940025 18:1 #
0.2700000000000000177635683940025 4:1 #
0.2700000000000000177635683940025 18:1 #
0.2700000000000000177635683940025 19:1 #
-1 14:1 #
0.2700000000000000177635683940025 18:1 #
-1 18:1 #
0.2700000000000000177635683940025 14:1 #
-1 2:1 #
0.2700000000000000177635683940025 18:1 #
0.2700000000000000177635683940025 2:1 #
0.2700000000000000177635683940025 18:1 #
0.2700000000000000177635683940025 2:1 #
0.2700000000000000177635683940025 18:1 #
0.2700000000000000177635683940025 4:1 #
0.2700000000000000177635683940025 14:1 #
0.2700000000000000177635683940025 2:1 #
0.2700000000000000177635683940025 14:1 #
-1 4:1 #
0.2700000000000000177635683940025 14:1 #
-1 14:1 #
-1 15:1 #
0.2700000000000000177635683940025 2:1 #
0.2700000000000000177635683940025 14:1 #
0.2700000000000000177635683940025 15:1 #
0.2700000000000000177635683940025 14:1 #
0.2700000000000000177635683940025 15:1 #
0.2700000000000000177635683940025 14:1 #
0.2700000000000000177635683940025 15:1 #
0.2700000000000000177635683940025 4:1 #
0.2700000000000000177635683940025 16:1 #
-1 16:1 #
-1 1:1 #
0.2700000000000000177635683940025 4:1 #
0.2700000000000000177635683940025 4:1 #
0.2700000000000000177635683940025 1:1 #
0.2700000000000000177635683940025 16:1 #
0.2700000000000000177635683940025 1:1 #
0.2700000000000000177635683940025 16:1 #
0.2700000000000000177635683940025 1:1 #
0.2700000000000000177635683940025 16:1 #
-1 15:1 #
0.2700000000000000177635683940025 14:1 #
0.2700000000000000177635683940025 9:1 #
-1 14:1 #
0.2700000000000000177635683940025 15:1 #
-1 9:1 #
0.2700000000000000177635683940025 15:1 #
0.2700000000000000177635683940025 9:1 #
0.2700000000000000177635683940025 15:1 #
0.2700000000000000177635683940025 14:1 #
0.2700000000000000177635683940025 15:1 #
0.2700000000000000177635683940025 14:1 #
0.2700000000000000177635683940025 9:1 #
0.2700000000000000177635683940025 14:1 #
0.2700000000000000177635683940025 9:1 #
-1 1:1 #
-1 14:1 #
0.2700000000000000177635683940025 1:1 #
0.2700000000000000177635683940025 14:1 #
0.2700000000000000177635683940025 1:1 #
0.2700000000000000177635683940025 14:1 #
0.2700000000000000177635683940025 1:1 #
0.2700000000000000177635683940025 14:1 #
0.2700000000000000177635683940025 1:1 #
0.2700000000000000177635683940025 14:1 #
-1 16:1 #
-1 14:1 #
0.2700000000000000177635683940025 16:1 #
0.2700000000000000177635683940025 14:1 #
0.2700000000000000177635683940025 16:1 #
0.2700000000000000177635683940025 14:1 #
0.2700000000000000177635683940025 16:1 #
0.2700000000000000177635683940025 14:1 #
0.2700000000000000177635683940025 16:1 #
0.2700000000000000177635683940025 14:1 #
-1 14:1 #
-1 9:1 #
-1 20:1 #
-1 16:1 #
0.2700000000000000177635683940025 18:1 #
0.2700000000000000177635683940025 13:1 #
0.2700000000000000177635683940025 3:1 #
-1 13:1 #
-1 3:1 #
0.2700000000000000177635683940025 20:1 #
-1 18:1 #
0.2700000000000000177635683940025 9:1 #
0.2700000000000000177635683940025 16:1 #
0.2700000000000000177635683940025 13:1 #
0.2700000000000000177635683940025 16:1 #
0.2700000000000000177635683940025 9:1 #
0.2700000000000000177635683940025 13:1 #
0.2700000000000000177635683940025 16:1 #
0.2700000000000000177635683940025 20:1 #
0.2700000000000000177635683940025 13:1 #
0.2700000000000000177635683940025 18:1 #
0.2700000000000000177635683940025 3:1 #
0.2700000000000000177635683940025 16:1 #
0.2700000000000000177635683940025 18:1 #
0.2700000000000000177635683940025 20:1 #
0.2700000000000000177635683940025 18:1 #
0.2700000000000000177635683940025 20:1 #
0.2700000000000000177635683940025 14:1 #
0.2700000000000000177635683940025 3:1 #
0.2700000000000000177635683940025 14:1 #
0.2700000000000000177635683940025 9:1 #
0.2700000000000000177635683940025 14:1 #
0.2700000000000000177635683940025 3:1 #
-1 13:1 #
0.2700000000000000177635683940025 9:1 #
-1 9:1 #
0.2700000000000000177635683940025 13:1 #
0.2700000000000000177635683940025 9:1 #
0.2700000000000000177635683940025 13:1 #
0.2700000000000000177635683940025 9:1 #
0.2700000000000000177635683940025 13:1 #
0.2700000000000000177635683940025 9:1 #
-1 16:1 #
0.2700000000000000177635683940025 13:1 #
-1 13:1 #
-1 18:1 #
0.2700000000000000177635683940025 16:1 #
0.2700000000000000177635683940025 18:1 #
0.2700000000000000177635683940025 16:1 #
0.2700000000000000177635683940025 18:1 #
0.2700000000000000177635683940025 16:1 #
0.2700000000000000177635683940025 18:1 #
-1 20:1 #
0.2700000000000000177635683940025 13:1 #
0.2700000000000000177635683940025 9:1 #
0.2700000000000000177635683940025 20:1 #
0.2700000000000000177635683940025 20:1 #
0.2700000000000000177635683940025 13:1 #
0.2700000000000000177635683940025 20:1 #
0.2700000000000000177635683940025 13:1 #
-1 2:1 #
0.2700000000000000177635683940025 18:1 #
-1 18:1 #
0.2700000000000000177635683940025 2:1 #
0.2700000000000000177635683940025 18:1 #
0.2700000000000000177635683940025 18:1 #
0.2700000000000000177635683940025 2:1 #
0.2700000000000000177635683940025 2:1 #
0.2700000000000000177635683940025 18:1 #
-1 3:1 #
-1 1:1 #
0.2700000000000000177635683940025 20:1 #
-1 20:1 #
0.2700000000000000177635683940025 1:1 #
0.2700000000000000177635683940025 20:1 #
0.2700000000000000177635683940025 1:1 #
0.2700000000000000177635683940025 18:1 #
0.2700000000000000177635683940025 20:1 #
0.2700000000000000177635683940025 1:1 #
0.2700000000000000177635683940025 20:1 #
0.2700000000000000177635683940025 3:1 #
0.2700000000000000177635683940025 1:1 #
0.2700000000000000177635683940025 3:1 #
-1 18:1 #
0.2700000000000000177635683940025 3:1 #
0.2700000000000000177635683940025 3:1 #
-1 1:1 #
0.2700000000000000177635683940025 18:1 #
-1 4:1 #
0.2700000000000000177635683940025 18:1 #
-1 9:1 #
0.2700000000000000177635683940025 18:1 #
-1 3:1 #
-1 18:1 #
0.2700000000000000177635683940025 1:1 #
0.2700000000000000177635683940025 18:1 #
0.2700000000000000177635683940025 1:1 #
0.2700000000000000177635683940025 18:1 #
0.2700000000000000177635683940025 1:1 #
0.2700000000000000177635683940025 18:1 #
0.2700000000000000177635683940025 4:1 #
0.2700000000000000177635683940025 3:1 #
0.2700000000000000177635683940025 4:1 #
0.2700000000000000177635683940025 3:1 #
0.2700000000000000177635683940025 4:1 #
0.2700000000000000177635683940025 3:1 #
0.2700000000000000177635683940025 9:1 #
0.2700000000000000177635683940025 18:1 #
0.2700000000000000177635683940025 9:1 #
0.2700000000000000177635683940025 9:1 #
-1 19:1 #
0.2700000000000000177635683940025 2:1 #
-1 2:1 #
0.2700000000000000177635683940025 19:1 #
0.2700000000000000177635683940025 2:1 #
-1 10:1 #
-1 16:1 #
-1 4:1 #
-1 15:1 #
0.2700000000000000177635683940025 18:1 #
0.2700000000000000177635683940025 1:1 #
0.2700000000000000177635683940025 14:1 #
0.2700000000000000177635683940025 19:1 #
0.2700000000000000177635683940025 5:1 #
-1 14:1 #
-1 1:1 #
0.2700000000000000177635683940025 16:1 #
0.2700000000000000177635683940025 10:1 #
0.2700000000000000177635683940025 4:1 #
0.2700000000000000177635683940025 15:1 #
0.2700000000000000177635683940025 16:1 #
0.2700000000000000177635683940025 15:1 #
0.2700000000000000177635683940025 10:1 #
0.2700000000000000177635683940025 4:1 #
0.2700000000000000177635683940025 15:1 #
0.2700000000000000177635683940025 16:1 #
0.2700000000000000177635683940025 19:1 #
0.2700000000000000177635683940025 16:1 #
0.2700000000000000177635683940025 10:1 #
0.2700000000000000177635683940025 4:1 #
0.2700000000000000177635683940025 10:1 #
0.2700000000000000177635683940025 1:1 #
0.2700000000000000177635683940025 2:1 #
0.2700000000000000177635683940025 1:1 #
0.2700000000000000177635683940025 14:1 #
0.2700000000000000177635683940025 2:1 #
0.2700000000000000177635683940025 14:1 #
-1 18:1 #
0.2700000000000000177635683940025 4:1 #
0.2700000000000000177635683940025 1:1 #
0.2700000000000000177635683940025 18:1 #
0.2700000000000000177635683940025 18:1 #
-1 5:1 #
0.2700000000000000177635683940025 14:1 #
-1 14:1 #
-1 16:1 #
0.2700000000000000177635683940025 15:1 #
-1 15:1 #
0.2700000000000000177635683940025 19:1 #
-1 19:1 #
0.2700000000000000177635683940025 15:1 #
0.2700000000000000177635683940025 19:1 #
0.2700000000000000177635683940025 15:1 #
0.2700000000000000177635683940025 19:1 #
0.2700000000000000177635683940025 18:1 #
0.2700000000000000177635683940025 5:1 #
0.2700000000000000177635683940025 15:1 #
0.2700000000000000177635683940025 5:1 #
0.2700000000000000177635683940025 16:1 #
0.2700000000000000177635683940025 5:1 #
0.2700000000000000177635683940025 16:1 #
0.2700000000000000177635683940025 14:1 #
0.2700000000000000177635683940025 16:1 #
0.2700000000000000177635683940025 14:1 #
0.2700000000000000177635683940025 19:1 #
0.2700000000000000177635683940025 14:1 #
-1 18:1 #
0.2700000000000000177635683940025 16:1 #
-1 16:1 #
0.2700000000000000177635683940025 18:1 #
0.2700000000000000177635683940025 16:1 #
0.2700000000000000177635683940025 18:1 #
0.2700000000000000177635683940025 16:1 #
0.2700000000000000177635683940025 18:1 #
0.2700000000000000177635683940025 16:1 #
0.2700000000000000177635683940025 14:1 #
-1 5:1 #
-1 10:1 #
0.2700000000000000177635683940025 18:1 #
-1 18:1 #
0.2700000000000000177635683940025 10:1 #
0.2700000000000000177635683940025 18:1 #
0.2700000000000000177635683940025 10:1 #
0.2700000000000000177635683940025 18:1 #
0.2700000000000000177635683940025 10:1 #
0.2700000000000000177635683940025 18:1 #
0.2700000000000000177635683940025 10:1 #
-1 10:1 #
-1 2:1 #
0.2700000000000000177635683940025 3:1 #
-1 3:1 #
0.2700000000000000177635683940025 2:1 #
0.2700000000000000177635683940025 3:1 #
0.2700000000000000177635683940025 2:1 #
0.2700000000000000177635683940025 3:1 #
0.2700000000000000177635683940025 2:1 #
0.2700000000000000177635683940025 3:1 #
0.2700000000000000177635683940025 2:1 #
-1 2:1 #
-1 3:1 #
0.2700000000000000177635683940025 3:1 #
0.2700000000000000177635683940025 2:1 #
0.2700000000000000177635683940025 3:1 #
0.2700000000000000177635683940025 2:1 #
0.2700000000000000177635683940025 3:1 #
0.2700000000000000177635683940025 2:1 #
0.2700000000000000177635683940025 3:1 #
0.2700000000000000177635683940025 2:1 #
-1 2:1 #
-1 3:1 #
0.2700000000000000177635683940025 3:1 #
0.2700000000000000177635683940025 2:1 #
0.2700000000000000177635683940025 3:1 #
0.2700000000000000177635683940025 2:1 #
0.2700000000000000177635683940025 3:1 #
0.2700000000000000177635683940025 2:1 #
0.2700000000000000177635683940025 3:1 #
-1 14:1 #
-1 4:1 #
0.2700000000000000177635683940025 13:1 #
-1 13:1 #
0.2700000000000000177635683940025 4:1 #
-1 4:1 #
-1 14:1 #
0.2700000000000000177635683940025 13:1 #
0.2700000000000000177635683940025 14:1 #
0.2700000000000000177635683940025 13:1 #
0.2700000000000000177635683940025 14:1 #
0.2700000000000000177635683940025 13:1 #
0.2700000000000000177635683940025 14:1 #
-1 9:1 #
-1 14:1 #
-1 2:1 #
-1 6:1 #
0.2700000000000000177635683940025 1:1 #
0.2700000000000000177635683940025 11:1 #
0.2700000000000000177635683940025 16:1 #
-1 11:1 #
0.2700000000000000177635683940025 6:1 #
-1 1:1 #
-1 16:1 #
0.2700000000000000177635683940025 9:1 #
0.2700000000000000177635683940025 2:1 #
-1 9:1 #
-1 6:1 #
-1 2:1 #
0.2700000000000000177635683940025 14:1 #
0.2700000000000000177635683940025 6:1 #
-1 6:1 #
0.2700000000000000177635683940025 14:1 #
-1 14:1 #
0.2700000000000000177635683940025 6:1 #
0.2700000000000000177635683940025 14:1 #
0.2700000000000000177635683940025 6:1 #
0.2700000000000000177635683940025 4:1 #
0.2700000000000000177635683940025 14:1 #
0.2700000000000000177635683940025 9:1 #
0.2700000000000000177635683940025 14:1 #
0.2700000000000000177635683940025 2:1 #
0.2700000000000000177635683940025 5:1 #
0.2700000000000000177635683940025 14:1 #
0.2700000000000000177635683940025 5:1 #
0.2700000000000000177635683940025 16:1 #
0.2700000000000000177635683940025 1:1 #
0.2700000000000000177635683940025 14:1 #
0.2700000000000000177635683940025 5:1 #
0.2700000000000000177635683940025 16:1 #
0.2700000000000000177635683940025 1:1 #
0.2700000000000000177635683940025 10:1 #
0.2700000000000000177635683940025 11:1 #
0.2700000000000000177635683940025 5:1 #
0.2700000000000000177635683940025 1:1 #
0.2700000000000000177635683940025 4:1 #
0.2700000000000000177635683940025 11:1 #
0.2700000000000000177635683940025 6:1 #
0.2700000000000000177635683940025 16:1 #
0.2700000000000000177635683940025 10:1 #
0.2700000000000000177635683940025 11:1 #
0.2700000000000000177635683940025 14:1 #
0.2700000000000000177635683940025 2:1 #
0.2700000000000000177635683940025 4:1 #
0.2700000000000000177635683940025 6:1 #
0.2700000000000000177635683940025 10:1 #
0.2700000000000000177635683940025 2:1 #
0.2700000000000000177635683940025 6:1 #
0.2700000000000000177635683940025 14:1 #
0.2700000000000000177635683940025 6:1 #
0.2700000000000000177635683940025 9:1 #
0.2700000000000000177635683940025 2:1 #
0.2700000000000000177635683940025 4:1 #
0.2700000000000000177635683940025 6:1 #
0.2700000000000000177635683940025 14:1 #
0.2700000000000000177635683940025 9:1 #
0.2700000000000000177635683940025 2:1 #
0.2700000000000000177635683940025 14:1 #
0.2700000000000000177635683940025 6:1 #
0.2700000000000000177635683940025 4:1 #
0.2700000000000000177635683940025 6:1 #
0.2700000000000000177635683940025 9:1 #
0.2700000000000000177635683940025 4:1 #
0.2700000000000000177635683940025 2:1 #
0.2700000000000000177635683940025 9:1 #
0.2700000000000000177635683940025 9:1 #
-1 5:1 #
0.2700000000000000177635683940025 9:1 #
-1 9:1 #
0.2700000000000000177635683940025 5:1 #
0.2700000000000000177635683940025 9:1 #
0.2700000000000000177635683940025 5:1 #
0.2700000000000000177635683940025 9:1 #
0.2700000000000000177635683940025 5:1 #
0.2700000000000000177635683940025 9:1 #
-1 3:1 #
0.2700000000000000177635683940025 2:1 #
-1 2:1 #
0.2700000000000000177635683940025 4:1 #
-1 4:1 #
-1 11:1 #
0.2700000000000000177635683940025 3:1 #
0.2700000000000000177635683940025 11:1 #
0.2700000000000000177635683940025 3:1 #
0.2700000000000000177635683940025 11:1 #
0.2700000000000000177635683940025 3:1 #
0.2700000000000000177635683940025 11:1 #
0.2700000000000000177635683940025 14:1 #
-1 14:1 #
0.2700000000000000177635683940025 2:1 #
0.2700000000000000177635683940025 14:1 #
0.2700000000000000177635683940025 2:1 #
0.2700000000000000177635683940025 14:1 #
0.2700000000000000177635683940025 2:1 #
0.2700000000000000177635683940025 14:1 #
-1 16:1 #
-1 1:1 #
0.2700000000000000177635683940025 16:1 #
0.2700000000000000177635683940025 1:1 #
0.2700000000000000177635683940025 16:1 #
0.2700000000000000177635683940025 1:1 #
0.2700000000000000177635683940025 16:1 #
0.2700000000000000177635683940025 10:1 #
0.2700000000000000177635683940025 6:1 #
0.2700000000000000177635683940025 1:1 #
0.2700000000000000177635683940025 4:1 #
0.2700000000000000177635683940025 16:1 #
0.2700000000000000177635683940025 11:1 #
0.2700000000000000177635683940025 8:1 #
0.2700000000000000177635683940025 1:1 #
0.2700000000000000177635683940025 4:1 #
-1 16:1 #
0.2700000000000000177635683940025 4:1 #
-1 10:1 #
-1 13:1 #
0.2700000000000000177635683940025 16:1 #
0.2700000000000000177635683940025 13:1 #
0.2700000000000000177635683940025 16:1 #
0.2700000000000000177635683940025 13:1 #
0.2700000000000000177635683940025 16:1 #
0.2700000000000000177635683940025 13:1 #
-1 11:1 #
-1 7:1 #
0.2700000000000000177635683940025 16:1 #
-1 16:1 #
0.2700000000000000177635683940025 7:1 #
0.2700000000000000177635683940025 11:1 #
0.2700000000000000177635683940025 16:1 #
0.2700000000000000177635683940025 16:1 #
0.2700000000000000177635683940025 7:1 #
-1 11:1 #
0.2700000000000000177635683940025 16:1 #
0.2700000000000000177635683940025 11:1 #
-1 8:1 #
0.2700000000000000177635683940025 8:1 #
0.2700000000000000177635683940025 11:1 #
0.2700000000000000177635683940025 8:1 #
0.2700000000000000177635683940025 11:1 #
0.2700000000000000177635683940025 5:1 #
0.2700000000000000177635683940025 8:1 #
0.2700000000000000177635683940025 7:1 #
0.2700000000000000177635683940025 13:1 #
0.2700000000000000177635683940025 8:1 #
0.2700000000000000177635683940025 11:1 #
0.2700000000000000177635683940025 10:1 #
0.2700000000000000177635683940025 11:1 #
0.2700000000000000177635683940025 10:1 #
0.2700000000000000177635683940025 11:1 #
0.2700000000000000177635683940025 10:1 #
-1 5:1 #
-1 8:1 #
0.2700000000000000177635683940025 7:1 #
-1 7:1 #
-1 13:1 #
-1 5:1 #
0.2700000000000000177635683940025 11:1 #
-1 11:1 #
0.2700000000000000177635683940025 7:1 #
0.2700000000000000177635683940025 11:1 #
0.2700000000000000177635683940025 5:1 #
0.2700000000000000177635683940025 8:1 #
0.2700000000000000177635683940025 13:1 #
0.2700000000000000177635683940025 8:1 #
0.2700000000000000177635683940025 7:1 #
0.2700000000000000177635683940025 8:1 #
0.2700000000000000177635683940025 7:1 #
0.2700000000000000177635683940025 8:1 #
0.2700000000000000177635683940025 11:1 #
0.2700000000000000177635683940025 5:1 #
0.2700000000000000177635683940025 11:1 #
0.2700000000000000177635683940025 5:1 #
0.2700000000000000177635683940025 13:1 #
0.2700000000000000177635683940025 5:1 #
0.2700000000000000177635683940025 13:1 #
0.2700000000000000177635683940025 5:1 #
0.2700000000000000177635683940025 5:1 #
0.2700000000000000177635683940025 5:1 #
-1 10:1 #
0.2700000000000000177635683940025 7:1 #
-1 7:1 #
0.2700000000000000177635683940025 10:1 #
0.2700000000000000177635683940025 7:1 #
0.2700000000000000177635683940025 10:1 #
0.2700000000000000177635683940025 7:1 #
0.2700000000000000177635683940025 10:1 #
0.2700000000000000177635683940025 7:1 #
0.2700000000000000177635683940025 10:1 #
-1 10:1 #
-1 6:1 #
0.2700000000000000177635683940025 13:1 #
-1 13:1 #
-1 14:1 #
-1 16:1 #
0.2700000000000000177635683940025 6:1 #
0.2700000000000000177635683940025 10:1 #
0.2700000000000000177635683940025 6:1 #
0.2700000000000000177635683940025 10:1 #
0.2700000000000000177635683940025 6:1 #
0.2700000000000000177635683940025 10:1 #
-1 6:1 #
0.2700000000000000177635683940025 6:1 #
0.2700000000000000177635683940025 10:1 #
-1 10:1 #
0.2700000000000000177635683940025 6:1 #
0.2700000000000000177635683940025 10:1 #
0.2700000000000000177635683940025 6:1 #
0.2700000000000000177635683940025 10:1 #
0.2700000000000000177635683940025 6:1 #
0.2700000000000000177635683940025 10:1 #
-1 6:1 #
0.2700000000000000177635683940025 6:1 #
-1 5:1 #
-1 8:1 #
0.2700000000000000177635683940025 1:1 #
-1 1:1 #
-1 8:1 #
0.2700000000000000177635683940025 1:1 #
0.2700000000000000177635683940025 8:1 #
0.2700000000000000177635683940025 1:1 #
0.2700000000000000177635683940025 8:1 #
0.2700000000000000177635683940025 1:1 #
0.2700000000000000177635683940025 8:1 #
-1 5:1 #
-1 17:1 #
-1 18:1 #
-1 3:1 #
-1 2:1 #
0.2700000000000000177635683940025 8:1 #
0.2700000000000000177635683940025 13:1 #
0.2700000000000000177635683940025 18:1 #
0.2700000000000000177635683940025 5:1 #
-1 18:1 #
0.2700000000000000177635683940025 3:1 #
-1 3:1 #
0.2700000000000000177635683940025 18:1 #
0.2700000000000000177635683940025 3:1 #
0.2700000000000000177635683940025 18:1 #
0.2700000000000000177635683940025 3:1 #
0.2700000000000000177635683940025 18:1 #
0.2700000000000000177635683940025 17:1 #
-1 5:1 #
0.2700000000000000177635683940025 2:1 #
-1 2:1 #
0.2700000000000000177635683940025 5:1 #
0.2700000000000000177635683940025 2:1 #
0.2700000000000000177635683940025 5:1 #
0.2700000000000000177635683940025 2:1 #
0.2700000000000000177635683940025 5:1 #
0.2700000000000000177635683940025 2:1 #
-1 17:1 #
0.2700000000000000177635683940025 3:1 #
0.2700000000000000177635683940025 17:1 #
0.2700000000000000177635683940025 18:1 #
0.2700000000000000177635683940025 17:1 #
0.2700000000000000177635683940025 16:1 #
0.2700000000000000177635683940025 14:1 #
0.2700000000000000177635683940025 3:1 #
0.2700000000000000177635683940025 16:1 #
0.2700000000000000177635683940025 5:1 #
0.2700000000000000177635683940025 14:1 #
0.2700000000000000177635683940025 6:1 #
0.2700000000000000177635683940025 8:1 #
0.2700000000000000177635683940025 17:1 #
0.2700000000000000177635683940025 16:1 #
0.2700000000000000177635683940025 13:1 #
0.2700000000000000177635683940025 6:1 #
0.2700000000000000177635683940025 13:1 #
0.2700000000000000177635683940025 18:1 #
0.2700000000000000177635683940025 8:1 #
0.2700000000000000177635683940025 16:1 #
0.2700000000000000177635683940025 5:1 #
0.2700000000000000177635683940025 14:1 #
0.2700000000000000177635683940025 6:1 #
0.2700000000000000177635683940025 18:1 #
0.2700000000000000177635683940025 8:1 #
0.2700000000000000177635683940025 17:1 #
0.2700000000000000177635683940025 5:1 #
0.2700000000000000177635683940025 14:1 #
0.2700000000000000177635683940025 17:1 #
0.2700000000000000177635683940025 5:1 #
0.2700000000000000177635683940025 17:1 #
0.2700000000000000177635683940025 3:1 #
0.2700000000000000177635683940025 5:1 #
0.2700000000000000177635683940025 3:1 #
0.2700000000000000177635683940025 5:1 #
0.2700000000000000177635683940025 2:1 #
0.2700000000000000177635683940025 5:1 #
0.2700000000000000177635683940025 2:1 #
0.2700000000000000177635683940025 2:1 #
0.2700000000000000177635683940025 2:1 #
-1 14:1 #
0.2700000000000000177635683940025 17:1 #
-1 17:1 #
0.2700000000000000177635683940025 14:1 #
0.2700000000000000177635683940025 17:1 #
0.2700000000000000177635683940025 14:1 #
0.2700000000000000177635683940025 17:1 #
0.2700000000000000177635683940025 14:1 #
0.2700000000000000177635683940025 17:1 #
-1 5:1 #
0.2700000000000000177635683940025 18:1 #
-1 18:1 #
0.2700000000000000177635683940025 5:1 #
0.2700000000000000177635683940025 18:1 #
0.2700000000000000177635683940025 5:1 #
0.2700000000000000177635683940025 18:1 #
0.2700000000000000177635683940025 5:1 #
0.2700000000000000177635683940025 18:1 #
0.2700000000000000177635683940025 3:1 #
-1 3:1 #
-1 8:1 #
0.2700000000000000177635683940025 5:1 #
-1 5:1 #
0.2700000000000000177635683940025 8:1 #
0.2700000000000000177635683940025 5:1 #
0.2700000000000000177635683940025 14:1 #
0.2700000000000000177635683940025 5:1 #
0.2700000000000000177635683940025 8:1 #
0.2700000000000000177635683940025 5:1 #
0.2700000000000000177635683940025 3:1 #
0.2700000000000000177635683940025 8:1 #
0.2700000000000000177635683940025 3:1 #
0.2700000000000000177635683940025 8:1 #
-1 14:1 #
0.2700000000000000177635683940025 3:1 #
-1 8:1 #
0.2700000000000000177635683940025 14:1 #
0.2700000000000000177635683940025 8:1 #
0.2700000000000000177635683940025 14:1 #
0.2700000000000000177635683940025 8:1 #
0.2700000000000000177635683940025 14:1 #
0.2700000000000000177635683940025 8:1 #
0.2700000000000000177635683940025 18:1 #
0.2700000000000000177635683940025 3:1 #
0.2700000000000000177635683940025 17:1 #
-1 11:1 #
-1 7:1 #
-1 4:1 #
-1 1:1 #
0.2700000000000000177635683940025 8:1 #
-1 8:1 #
0.2700000000000000177635683940025 1:1 #
-1 17:1 #
0.2700000000000000177635683940025 8:1 #
0.2700000000000000177635683940025 17:1 #
0.2700000000000000177635683940025 8:1 #
0.2700000000000000177635683940025 17:1 #
0.2700000000000000177635683940025 7:1 #
0.2700000000000000177635683940025 1:1 #
0.2700000000000000177635683940025 7:1 #
0.2700000000000000177635683940025 11:1 #
0.2700000000000000177635683940025 1:1 #
0.2700000000000000177635683940025 11:1 #
0.2700000000000000177635683940025 7:1 #
0.2700000000000000177635683940025 1:1 #
0.2700000000000000177635683940025 11:1 #
0.2700000000000000177635683940025 7:1 #
0.2700000000000000177635683940025 11:1 #
0.2700000000000000177635683940025 4:1 #
0.2700000000000000177635683940025 8:1 #
0.2700000000000000177635683940025 17:1 #
0.2700000000000000177635683940025 4:1 #
0.2700000000000000177635683940025 4:1 #
-1 1:1 #
0.2700000000000000177635683940025 4:1 #
0.2700000000000000177635683940025 1:1 #
0.2700000000000000177635683940025 1:1 #
0.2700000000000000177635683940025 1:1 #
-1 8:1 #
0.2700000000000000177635683940025 1:1 #
-1 1:1 #
0.2700000000000000177635683940025 8:1 #
-1 4:1 #
0.2700000000000000177635683940025 1:1 #
0.2700000000000000177635683940025 4:1 #
0.2700000000000000177635683940025 1:1 #
0.2700000000000000177635683940025 4:1 #
0.2700000000000000177635683940025 1:1 #
0.2700000000000000177635683940025 4:1 #
0.2700000000000000177635683940025 8:1 #
0.2700000000000000177635683940025 4:1 #
0.2700000000000000177635683940025 8:1 #
-1 4:1 #
0.2700000000000000177635683940025 8:1 #
-1 8:1 #
0.2700000000000000177635683940025 4:1 #
0.2700000000000000177635683940025 8:1 #
0.2700000000000000177635683940025 4:1 #
0.2700000000000000177635683940025 8:1 #
0.2700000000000000177635683940025 4:1 #
0.2700000000000000177635683940025 8:1 #
0.2700000000000000177635683940025 8:1 #
-1 17:1 #
0.2700000000000000177635683940025 9:1 #
-1 9:1 #
0.2700000000000000177635683940025 17:1 #
0.2700000000000000177635683940025 9:1 #
0.2700000000000000177635683940025 17:1 #
0.2700000000000000177635683940025 9:1 #
0.2700000000000000177635683940025 17:1 #
0.2700000000000000177635683940025 9:1 #
0.2700000000000000177635683940025 17:1 #
-1 17:1 #
-1 9:1 #
0.2700000000000000177635683940025 9:1 #
0.2700000000000000177635683940025 17:1 #
0.2700000000000000177635683940025 9:1 #
0.2700000000000000177635683940025 17:1 #
0.2700000000000000177635683940025 9:1 #
0.2700000000000000177635683940025 17:1 #
0.2700000000000000177635683940025 9:1 #
-1 1:1 #
-1 4:1 #
-1 9:1 #
0.2700000000000000177635683940025 17:1 #
-1 17:1 #
0.2700000000000000177635683940025 9:1 #
0.2700000000000000177635683940025 17:1 #
0.2700000000000000177635683940025 9:1 #
0.2700000000000000177635683940025 17:1 #
0.2700000000000000177635683940025 1:1 #
0.2700000000000000177635683940025 17:1 #
0.2700000000000000177635683940025 1:1 #
0.2700000000000000177635683940025 4:1 #
0.2700000000000000177635683940025 1:1 #
0.2700000000000000177635683940025 4:1 #
0.2700000000000000177635683940025 1:1 #
0.2700000000000000177635683940025 4:1 #
0.2700000000000000177635683940025 9:1 #
0.2700000000000000177635683940025 4:1 #
0.2700000000000000177635683940025 9:1 #
-1 1:1 #
-1 4:1 #
0.2700000000000000177635683940025 1:1 #
0.2700000000000000177635683940025 4:1 #
0.2700000000000000177635683940025 1:1 #
0.2700000000000000177635683940025 4:1 #
0.2700000000000000177635683940025 1:1 #
0.2700000000000000177635683940025 4:1 #
0.2700000000000000177635683940025 1:1 #
0.2700000000000000177635683940025 4:1 #
-1 9:1 #
-1 12:1 #
-1 1:1 #
-1 16:1 #
0.2700000000000000177635683940025 8:1 #
-1 8:1 #
0.2700000000000000177635683940025 12:1 #
-1 3:1 #
-1 18:1 #
-1 12:1 #
0.2700000000000000177635683940025 3:1 #
0.2700000000000000177635683940025 12:1 #
0.2700000000000000177635683940025 3:1 #
0.2700000000000000177635683940025 12:1 #
0.2700000000000000177635683940025 16:1 #
0.2700000000000000177635683940025 12:1 #
0.2700000000000000177635683940025 1:1 #
0.2700000000000000177635683940025 18:1 #
0.2700000000000000177635683940025 16:1 #
0.2700000000000000177635683940025 3:1 #
0.2700000000000000177635683940025 8:1 #
0.2700000000000000177635683940025 12:1 #
0.2700000000000000177635683940025 1:1 #
0.2700000000000000177635683940025 12:1 #
0.2700000000000000177635683940025 1:1 #
0.2700000000000000177635683940025 18:1 #
0.2700000000000000177635683940025 9:1 #
0.2700000000000000177635683940025 12:1 #
0.2700000000000000177635683940025 8:1 #
0.2700000000000000177635683940025 9:1 #
0.2700000000000000177635683940025 12:1 #
0.2700000000000000177635683940025 18:1 #
0.2700000000000000177635683940025 16:1 #
0.2700000000000000177635683940025 9:1 #
-1 12:1 #
-1 3:1 #
-1 18:1 #
0.2700000000000000177635683940025 16:1 #
-1 16:1 #
0.2700000000000000177635683940025 18:1 #
0.2700000000000000177635683940025 16:1 #
0.2700000000000000177635683940025 18:1 #
0.2700000000000000177635683940025 16:1 #
0.2700000000000000177635683940025 18:1 #
0.2700000000000000177635683940025 16:1 #
0.2700000000000000177635683940025 18:1 #
0.2700000000000000177635683940025 12:1 #
0.2700000000000000177635683940025 3:1 #
0.2700000000000000177635683940025 12:1 #
0.2700000000000000177635683940025 3:1 #
0.2700000000000000177635683940025 12:1 #
0.2700000000000000177635683940025 3:1 #
-1 8:1 #
-1 18:1 #
0.2700000000000000177635683940025 3:1 #
0.2700000000000000177635683940025 8:1 #
0.2700000000000000177635683940025 18:1 #
0.2700000000000000177635683940025 18:1 #
0.2700000000000000177635683940025 8:1 #
0.2700000000000000177635683940025 18:1 #
0.2700000000000000177635683940025 8:1 #
-1 3:1 #
-1 4:1 #
0.2700000000000000177635683940025 8:1 #
-1 8:1 #
0.2700000000000000177635683940025 18:1 #
0.2700000000000000177635683940025 8:1 #
0.2700000000000000177635683940025 4:1 #
0.2700000000000000177635683940025 8:1 #
0.2700000000000000177635683940025 4:1 #
0.2700000000000000177635683940025 8:1 #
0.2700000000000000177635683940025 4:1 #
0.2700000000000000177635683940025 3:1 #
0.2700000000000000177635683940025 4:1 #
0.2700000000000000177635683940025 3:1 #
0.2700000000000000177635683940025 3:1 #
-1 18:1 #
0.2700000000000000177635683940025 3:1 #
-1 3:1 #
0.2700000000000000177635683940025 18:1 #
0.2700000000000000177635683940025 3:1 #
0.2700000000000000177635683940025 18:1 #
0.2700000000000000177635683940025 3:1 #
0.2700000000000000177635683940025 18:1 #
0.2700000000000000177635683940025 3:1 #
-1 9:1 #
0.2700000000000000177635683940025 8:1 #
-1 8:1 #
0.2700000000000000177635683940025 9:1 #
0.2700000000000000177635683940025 8:1 #
0.2700000000000000177635683940025 9:1 #
0.2700000000000000177635683940025 8:1 #
0.2700000000000000177635683940025 9:1 #
0.2700000000000000177635683940025 8:1 #
0.2700000000000000177635683940025 9:1 #
-1 9:1 #
-1 8:1 #
0.2700000000000000177635683940025 8:1 #
0.2700000000000000177635683940025 9:1 #
0.2700000000000000177635683940025 12:1 #
0.2700000000000000177635683940025 8:1 #
0.2700000000000000177635683940025 9:1 #
0.2700000000000000177635683940025 8:1 #
0.2700000000000000177635683940025 9:1 #
-1 12:1 #
-1 4:1 #
0.2700000000000000177635683940025 8:1 #
-1 8:1 #
0.2700000000000000177635683940025 9:1 #
-1 9:1 #
0.2700000000000000177635683940025 8:1 #
0.2700000000000000177635683940025 9:1 #
0.2700000000000000177635683940025 8:1 #
0.2700000000000000177635683940025 8:1 #
0.2700000000000000177635683940025 4:1 #
0.2700000000000000177635683940025 12:1 #
0.2700000000000000177635683940025 8:1 #
0.2700000000000000177635683940025 12:1 #
0.2700000000000000177635683940025 4:1 #
0.2700000000000000177635683940025 12:1 #
0.2700000000000000177635683940025 4:1 #
0.2700000000000000177635683940025 9:1 #
0.2700000000000000177635683940025 4:1 #
0.2700000000000000177635683940025 9:1 #
-1 8:1 #
-1 18:1 #
-1 12:1 #
-1 1:1 #
-1 6:1 #
0.2700000000000000177635683940025 1:1 #
0.2700000000000000177635683940025 6:1 #
0.2700000000000000177635683940025 1:1 #
0.2700000000000000177635683940025 18:1 #
0.2700000000000000177635683940025 12:1 #
0.2700000000000000177635683940025 18:1 #
0.2700000000000000177635683940025 12:1 #
0.2700000000000000177635683940025 18:1 #
0.2700000000000000177635683940025 12:1 #
0.2700000000000000177635683940025 18:1 #
0.2700000000000000177635683940025 12:1 #
0.2700000000000000177635683940025 8:1 #
0.2700000000000000177635683940025 1:1 #
0.2700000000000000177635683940025 8:1 #
0.2700000000000000177635683940025 6:1 #
0.2700000000000000177635683940025 8:1 #
0.2700000000000000177635683940025 6:1 #
-1 18:1 #
0.2700000000000000177635683940025 1:1 #
-1 1:1 #
-1 3:1 #
0.2700000000000000177635683940025 18:1 #
0.2700000000000000177635683940025 3:1 #
0.2700000000000000177635683940025 18:1 #
0.2700000000000000177635683940025 1:1 #
0.2700000000000000177635683940025 18:1 #
0.2700000000000000177635683940025 1:1 #
0.2700000000000000177635683940025 3:1 #
0.2700000000000000177635683940025 1:1 #
0.2700000000000000177635683940025 3:1 #
0.2700000000000000177635683940025 1:1 #
-1 4:1 #
0.2700000000000000177635683940025 3:1 #
0.2700000000000000177635683940025 4:1 #
0.2700000000000000177635683940025 4:1 #
-1 12:1 #
-1 1:1 #
0.2700000000000000177635683940025 4:1 #
-1 2:1 #
-1 3:1 #
0.2700000000000000177635683940025 4:1 #
-1 4:1 #
-1 1:1 #
-1 19:1 #
-1 13:1 #
0.2700000000000000177635683940025 3:1 #
0.2700000000000000177635683940025 13:1 #
0.2700000000000000177635683940025 18:1 #
0.2700000000000000177635683940025 19:1 #
0.2700000000000000177635683940025 12:1 #
0.2700000000000000177635683940025 1:1 #
0.2700000000000000177635683940025 4:1 #
0.2700000000000000177635683940025 12:1 #
0.2700000000000000177635683940025 19:1 #
0.2700000000000000177635683940025 13:1 #
0.2700000000000000177635683940025 4:1 #
0.2700000000000000177635683940025 3:1 #
0.2700000000000000177635683940025 12:1 #
0.2700000000000000177635683940025 19:1 #
0.2700000000000000177635683940025 13:1 #
0.2700000000000000177635683940025 4:1 #
0.2700000000000000177635683940025 19:1 #
0.2700000000000000177635683940025 1:1 #
0.2700000000000000177635683940025 13:1 #
0.2700000000000000177635683940025 2:1 #
0.2700000000000000177635683940025 1:1 #
0.2700000000000000177635683940025 2:1 #
0.2700000000000000177635683940025 1:1 #
0.2700000000000000177635683940025 2:1 #
0.2700000000000000177635683940025 3:1 #
0.2700000000000000177635683940025 1:1 #
0.2700000000000000177635683940025 1:1 #
-1 18:1 #
0.2700000000000000177635683940025 1:1 #
-1 19:1 #
0.2700000000000000177635683940025 3:1 #
-1 3:1 #
0.2700000000000000177635683940025 19:1 #
0.2700000000000000177635683940025 3:1 #
0.2700000000000000177635683940025 19:1 #
0.2700000000000000177635683940025 18:1 #
0.2700000000000000177635683940025 19:1 #
0.2700000000000000177635683940025 18:1 #
0.2700000000000000177635683940025 3:1 #
0.2700000000000000177635683940025 18:1 #
0.2700000000000000177635683940025 3:1 #
0.2700000000000000177635683940025 19:1 #
-1 13:1 #
0.2700000000000000177635683940025 12:1 #
-1 12:1 #
0.2700000000000000177635683940025 13:1 #
0.2700000000000000177635683940025 12:1 #
0.2700000000000000177635683940025 13:1 #
0.2700000000000000177635683940025 13:1 #
0.2700000000000000177635683940025 12:1 #
0.2700000000000000177635683940025 13:1 #
0.2700000000000000177635683940025 12:1 #
-1 1:1 #
0.2700000000000000177635683940025 13:1 #
-1 13:1 #
0.2700000000000000177635683940025 1:1 #
0.2700000000000000177635683940025 13:1 #
0.2700000000000000177635683940025 1:1 #
0.2700000000000000177635683940025 13:1 #
0.2700000000000000177635683940025 1:1 #
0.2700000000000000177635683940025 1:1 #
0.2700000000000000177635683940025 13:1 #
-1 1:1 #
0.2700000000000000177635683940025 4:1 #
-1 4:1 #
0.2700000000000000177635683940025 1:1 #
0.2700000000000000177635683940025 4:1 #
0.2700000000000000177635683940025 1:1 #
0.2700000000000000177635683940025 4:1 #
0.2700000000000000177635683940025 4:1 #
-1 18:1 #
0.2700000000000000177635683940025 2:1 #
-1 2:1 #
0.2700000000000000177635683940025 18:1 #
0.2700000000000000177635683940025 2:1 #
0.2700000000000000177635683940025 18:1 #
0.2700000000000000177635683940025 2:1 #
0.2700000000000000177635683940025 18:1 #
0.2700000000000000177635683940025 2:1 #
0.2700000000000000177635683940025 18:1 #
-1 7:1 #
-1 18:1 #
-1 2:1 #
0.2700000000000000177635683940025 1:1 #
-1 1:1 #
0.2700000000000000177635683940025 2:1 #
0.2700000000000000177635683940025 1:1 #
0.2700000000000000177635683940025 2:1 #
0.2700000000000000177635683940025 1:1 #
0.2700000000000000177635683940025 2:1 #
0.2700000000000000177635683940025 1:1 #
0.2700000000000000177635683940025 2:1 #
-1 2:1 #
-1 1:1 #
0.2700000000000000177635683940025 1:1 #
0.2700000000000000177635683940025 2:1 #
0.2700000000000000177635683940025 1:1 #
0.2700000000000000177635683940025 2:1 #
0.2700000000000000177635683940025 1:1 #
0.2700000000000000177635683940025 2:1 #
0.2700000000000000177635683940025 1:1 #
0.2700000000000000177635683940025 2:1 #
-1 2:1 #
-1 1:1 #
0.2700000000000000177635683940025 1:1 #
0.2700000000000000177635683940025 2:1 #
0.2700000000000000177635683940025 1:1 #
0.2700000000000000177635683940025 2:1 #
0.2700000000000000177635683940025 1:1 #
0.2700000000000000177635683940025 2:1 #
0.2700000000000000177635683940025 1:1 #
-1 4:1 #
-1 19:1 #
0.2700000000000000177635683940025 4:1 #
0.2700000000000000177635683940025 19:1 #
0.2700000000000000177635683940025 4:1 #
0.2700000000000000177635683940025 19:1 #
0.2700000000000000177635683940025 4:1 #
0.2700000000000000177635683940025 19:1 #
0.2700000000000000177635683940025 4:1 #
-1 4:1 #
-1 12:1 #
-1 13:1 #
0.2700000000000000177635683940025 12:1 #
0.2700000000000000177635683940025 13:1 #
0.2700000000000000177635683940025 12:1 #
0.2700000000000000177635683940025 13:1 #
0.2700000000000000177635683940025 12:1 #
0.2700000000000000177635683940025 13:1 #
0.2700000000000000177635683940025 12:1 #
0.2700000000000000177635683940025 13:1 #
-1 12:1 #
-1 13:1 #
0.2700000000000000177635683940025 12:1 #
0.2700000000000000177635683940025 13:1 #
0.2700000000000000177635683940025 12:1 #
0.2700000000000000177635683940025 13:1 #
0.2700000000000000177635683940025 12:1 #
0.2700000000000000177635683940025 13:1 #
0.2700000000000000177635683940025 12:1 #
0.2700000000000000177635683940025 13:1 #
-1 12:1 #
-1 13:1 #
0.2700000000000000177635683940025 12:1 #
0.2700000000000000177635683940025 13:1 #
0.2700000000000000177635683940025 12:1 #
0.2700000000000000177635683940025 13:1 #
0.2700000000000000177635683940025 12:1 #
0.2700000000000000177635683940025 13:1 #
0.2700000000000000177635683940025 20:1 #
-1 20:1 #
0.2700000000000000177635683940025 4:1 #
0.2700000000000000177635683940025 20:1 #
0.2700000000000000177635683940025 4:1 #
0.2700000000000000177635683940025 12:1 #
0.2700000000000000177635683940025 20:1 #
0.2700000000000000177635683940025 7:1 #
0.2700000000000000177635683940025 18:1 #
0.2700000000000000177635683940025 7:1 #
0.2700000000000000177635683940025 18:1 #
0.2700000000000000177635683940025 4:1 #
0.2700000000000000177635683940025 7:1 #
0.2700000000000000177635683940025 18:1 #
0.2700000000000000177635683940025 7:1 #
0.2700000000000000177635683940025 20:1 #
0.2700000000000000177635683940025 4:1 #
-1 7:1 #
-1 4:1 #
-1 7:1 #
0.2700000000000000177635683940025 20:1 #
-1 20:1 #
0.2700000000000000177635683940025 7:1 #
0.2700000000000000177635683940025 18:1 #
0.2700000000000000177635683940025 7:1 #
0.2700000000000000177635683940025 4:1 #
0.2700000000000000177635683940025 7:1 #
0.2700000000000000177635683940025 4:1 #
0.2700000000000000177635683940025 20:1 #
0.2700000000000000177635683940025 7:1 #
0.2700000000000000177635683940025 4:1 #
0.2700000000000000177635683940025 7:1 #
0.2700000000000000177635683940025 20:1 #
0.2700000000000000177635683940025 7:1 #
0.2700000000000000177635683940025 20:1 #
0.2700000000000000177635683940025 7:1 #
0.2700000000000000177635683940025 20:1 #
-1 18:1 #
-1 12:1 #
0.2700000000000000177635683940025 18:1 #
0.2700000000000000177635683940025 12:1 #
0.2700000000000000177635683940025 18:1 #
0.2700000000000000177635683940025 12:1 #
0.2700000000000000177635683940025 18:1 #
-1 20:1 #
0.2700000000000000177635683940025 12:1 #
-1 12:1 #
0.2700000000000000177635683940025 20:1 #
0.2700000000000000177635683940025 12:1 #
0.2700000000000000177635683940025 20:1 #
0.2700000000000000177635683940025 12:1 #
0.2700000000000000177635683940025 20:1 #
0.2700000000000000177635683940025 12:1 #
-1 11:1 #
0.2700000000000000177635683940025 12:1 #
-1 12:1 #
0.2700000000000000177635683940025 11:1 #
0.2700000000000000177635683940025 12:1 #
0.2700000000000000177635683940025 11:1 #
0.2700000000000000177635683940025 12:1 #
0.2700000000000000177635683940025 11:1 #
0.2700000000000000177635683940025 12:1 #
0.2700000000000000177635683940025 11:1 #
-1 11:1 #
-1 18:1 #
0.2700000000000000177635683940025 12:1 #
-1 12:1 #
0.2700000000000000177635683940025 11:1 #
0.2700000000000000177635683940025 12:1 #
0.2700000000000000177635683940025 11:1 #
0.2700000000000000177635683940025 12:1 #
0.2700000000000000177635683940025 11:1 #
0.2700000000000000177635683940025 12:1 #
-1 1:1 #
0.2700000000000000177635683940025 18:1 #
0.2700000000000000177635683940025 1:1 #
0.2700000000000000177635683940025 18:1 #
0.2700000000000000177635683940025 1:1 #
0.2700000000000000177635683940025 18:1 #
0.2700000000000000177635683940025 1:1 #
0.2700000000000000177635683940025 18:1 #
-1 18:1 #
-1 1:1 #
0.2700000000000000177635683940025 1:1 #
0.2700000000000000177635683940025 18:1 #
0.2700000000000000177635683940025 1:1 #
0.2700000000000000177635683940025 18:1 #
0.2700000000000000177635683940025 1:1 #
0.2700000000000000177635683940025 18:1 #
0.2700000000000000177635683940025 1:1 #
-1 7:1 #
0.2700000000000000177635683940025 18:1 #
-1 18:1 #
0.2700000000000000177635683940025 7:1 #
0.2700000000000000177635683940025 18:1 #
0.2700000000000000177635683940025 7:1 #
0.2700000000000000177635683940025 18:1 #
0.2700000000000000177635683940025 7:1 #
0.2700000000000000177635683940025 18:1 #
0.2700000000000000177635683940025 7:1 #
-1 15:1 #
-1 17:1 #
-1 18:1 #
0.2700000000000000177635683940025 15:1 #
-1 15:1 #
0.2700000000000000177635683940025 18:1 #
0.2700000000000000177635683940025 15:1 #
0.2700000000000000177635683940025 17:1 #
0.2700000000000000177635683940025 18:1 #
0.2700000000000000177635683940025 15:1 #
0.2700000000000000177635683940025 18:1 #
0.2700000000000000177635683940025 15:1 #
0.2700000000000000177635683940025 17:1 #
0.2700000000000000177635683940025 17:1 #
0.2700000000000000177635683940025 17:1 #
0.2700000000000000177635683940025 18:1 #
0.2700000000000000177635683940025 15:1 #
0.2700000000000000177635683940025 15:1 #
0.2700000000000000177635683940025 17:1 #
0.2700000000000000177635683940025 15:1 #
0.2700000000000000177635683940025 17:1 #
-1 18:1 #
-1 7:1 #
-1 17:1 #
0.2700000000000000177635683940025 15:1 #
-1 15:1 #
0.2700000000000000177635683940025 15:1 #
0.2700000000000000177635683940025 18:1 #
0.2700000000000000177635683940025 15:1 #
0.2700000000000000177635683940025 18:1 #
0.2700000000000000177635683940025 15:1 #
0.2700000000000000177635683940025 18:1 #
0.2700000000000000177635683940025 17:1 #
0.2700000000000000177635683940025 7:1 #
0.2700000000000000177635683940025 17:1 #
0.2700000000000000177635683940025 7:1 #
0.2700000000000000177635683940025 17:1 #
0.2700000000000000177635683940025 7:1 #
0.2700000000000000177635683940025 17:1 #
-1 1:1 #
-1 11:1 #
-0.95982472080987313312050446256762 17:1 #
-1 8:1 #
0.2700000000000000177635683940025 7:1 #
-1 7:1 #
-1 17:1 #
0.2700000000000000177635683940025 8:1 #
-1 8:1 #
0.2700000000000000177635683940025 17:1 #
0.2700000000000000177635683940025 8:1 #
0.2700000000000000177635683940025 17:1 #
0.2700000000000000177635683940025 18:1 #
0.2700000000000000177635683940025 8:1 #
0.2700000000000000177635683940025 11:1 #
0.2700000000000000177635683940025 7:1 #
0.2700000000000000177635683940025 8:1 #
0.2700000000000000177635683940025 11:1 #
0.2700000000000000177635683940025 1:1 #
0.2700000000000000177635683940025 8:1 #
0.2700000000000000177635683940025 11:1 #
0.2700000000000000177635683940025 8:1 #
0.2700000000000000177635683940025 11:1 #
0.2700000000000000177635683940025 7:1 #
0.2700000000000000177635683940025 8:1 #
0.2700000000000000177635683940025 7:1 #
0.2700000000000000177635683940025 1:1 #
0.2700000000000000177635683940025 17:1 #
0.2700000000000000177635683940025 1:1 #
0.2700000000000000177635683940025 17:1 #
0.2700000000000000177635683940025 1:1 #
0.2700000000000000177635683940025 17:1 #
0.2700000000000000177635683940025 17:1 #
-1 1:1 #
0.2700000000000000177635683940025 17:1 #
-1 17:1 #
-1 11:1 #
0.2700000000000000177635683940025 1:1 #
0.2700000000000000177635683940025 11:1 #
0.2700000000000000177635683940025 1:1 #
0.2700000000000000177635683940025 1:1 #
0.2700000000000000177635683940025 11:1 #
0.2700000000000000177635683940025 17:1 #
0.2700000000000000177635683940025 17:1 #
-1 18:1 #
0.2700000000000000177635683940025 18:1 #
0.2700000000000000177635683940025 18:1 #
0.2700000000000000177635683940025 18:1 #
-1 17:1 #
0.2700000000000000177635683940025 18:1 #
-1 18:1 #
0.2700000000000000177635683940025 17:1 #
0.2700000000000000177635683940025 18:1 #
0.2700000000000000177635683940025 17:1 #
0.2700000000000000177635683940025 18:1 #
0.2700000000000000177635683940025 17:1 #
0.2700000000000000177635683940025 18:1 #
0.2700000000000000177635683940025 11:1 #
-1 11:1 #
-1 20:1 #
-1 8:1 #
-1 12:1 #
0.2700000000000000177635683940025 17:1 #
-1 17:1 #
0.2700000000000000177635683940025 12:1 #
0.2700000000000000177635683940025 17:1 #
0.2700000000000000177635683940025 12:1 #
0.2700000000000000177635683940025 17:1 #
0.2700000000000000177635683940025 12:1 #
0.2700000000000000177635683940025 17:1 #
0.2700000000000000177635683940025 12:1 #
-1 12:1 #
-1 17:1 #
0.2700000000000000177635683940025 17:1 #
0.2700000000000000177635683940025 12:1 #
0.2700000000000000177635683940025 17:1 #
0.2700000000000000177635683940025 12:1 #
-1 15:1 #
-1 20:1 #
-1 1:1 #
-1 18:1 #
0.2700000000000000177635683940025 9:1 #
0.2700000000000000177635683940025 16:1 #
0.2700000000000000177635683940025 7:1 #
-1 16:1 #
0.2700000000000000177635683940025 18:1 #
-1 9:1 #
0.2700000000000000177635683940025 15:1 #
0.2700000000000000177635683940025 20:1 #
0.2700000000000000177635683940025 1:1 #
0.2700000000000000177635683940025 16:1 #
0.2700000000000000177635683940025 20:1 #
0.2700000000000000177635683940025 18:1 #
0.2700000000000000177635683940025 11:1 #
0.2700000000000000177635683940025 15:1 #
0.2700000000000000177635683940025 17:1 #
0.2700000000000000177635683940025 9:1 #
0.2700000000000000177635683940025 15:1 #
0.2700000000000000177635683940025 16:1 #
0.2700000000000000177635683940025 17:1 #
0.2700000000000000177635683940025 20:1 #
0.2700000000000000177635683940025 15:1 #
0.2700000000000000177635683940025 16:1 #
0.2700000000000000177635683940025 11:1 #
0.2700000000000000177635683940025 18:1 #
0.2700000000000000177635683940025 1:1 #
0.2700000000000000177635683940025 12:1 #
0.2700000000000000177635683940025 9:1 #
0.2700000000000000177635683940025 8:1 #
0.2700000000000000177635683940025 18:1 #
0.2700000000000000177635683940025 8:1 #
0.2700000000000000177635683940025 20:1 #
0.2700000000000000177635683940025 1:1 #
0.2700000000000000177635683940025 8:1 #
0.2700000000000000177635683940025 9:1 #
0.2700000000000000177635683940025 11:1 #
0.2700000000000000177635683940025 20:1 #
0.2700000000000000177635683940025 20:1 #
0.2700000000000000177635683940025 20:1 #
-1 7:1 #
0.2700000000000000177635683940025 1:1 #
-1 9:1 #
0.2700000000000000177635683940025 8:1 #
-1 8:1 #
0.2700000000000000177635683940025 9:1 #
0.2700000000000000177635683940025 8:1 #
0.2700000000000000177635683940025 9:1 #
0.2700000000000000177635683940025 8:1 #
0.2700000000000000177635683940025 9:1 #
0.2700000000000000177635683940025 8:1 #
0.2700000000000000177635683940025 7:1 #
0.2700000000000000177635683940025 9:1 #
0.2700000000000000177635683940025 7:1 #
-1 1:1 #
0.2700000000000000177635683940025 7:1 #
-1 7:1 #
-1 11:1 #
0.2700000000000000177635683940025 1:1 #
0.2700000000000000177635683940025 12:1 #
-1 12:1 #
0.2700000000000000177635683940025 1:1 #
0.2700000000000000177635683940025 12:1 #
0.2700000000000000177635683940025 7:1 #
0.2700000000000000177635683940025 11:1 #
0.2700000000000000177635683940025 7:1 #
0.2700000000000000177635683940025 11:1 #
0.2700000000000000177635683940025 7:1 #
0.2700000000000000177635683940025 11:1 #
0.2700000000000000177635683940025 7:1 #
0.2700000000000000177635683940025 11:1 #
0.2700000000000000177635683940025 1:1 #
0.2700000000000000177635683940025 12:1 #
0.2700000000000000177635683940025 12:1 #
-1 4:1 #
0.2700000000000000177635683940025 1:1 #
-1 1:1 #
0.2700000000000000177635683940025 4:1 #
-1 9:1 #
0.2700000000000000177635683940025 1:1 #
0.2700000000000000177635683940025 9:1 #
0.2700000000000000177635683940025 4:1 #
0.2700000000000000177635683940025 9:1 #
0.2700000000000000177635683940025 4:1 #
0.2700000000000000177635683940025 9:1 #
0.2700000000000000177635683940025 4:1 #
0.2700000000000000177635683940025 1:1 #
0.2700000000000000177635683940025 1:1 #
-1 13:1 #
-1 4:1 #
-1 18:1 #
0.2700000000000000177635683940025 20:1 #
-1 20:1 #
0.2700000000000000177635683940025 18:1 #
-1 15:1 #
0.2700000000000000177635683940025 20:1 #
0.2700000000000000177635683940025 15:1 #
0.2700000000000000177635683940025 20:1 #
0.2700000000000000177635683940025 15:1 #
0.2700000000000000177635683940025 1:1 #
0.2700000000000000177635683940025 9:1 #
0.2700000000000000177635683940025 18:1 #
0.2700000000000000177635683940025 15:1 #
0.2700000000000000177635683940025 18:1 #
0.2700000000000000177635683940025 13:1 #
0.2700000000000000177635683940025 15:1 #
0.2700000000000000177635683940025 20:1 #
0.2700000000000000177635683940025 13:1 #
0.2700000000000000177635683940025 13:1 #
0.2700000000000000177635683940025 4:1 #
0.2700000000000000177635683940025 4:1 #
0.2700000000000000177635683940025 4:1 #
-1 15:1 #
0.2700000000000000177635683940025 18:1 #
-1 18:1 #
-1 1:1 #
0.2700000000000000177635683940025 15:1 #
-1 9:1 #
-1 5:1 #
-1 6:1 #
-1 10:1 #
-1 13:1 #
0.2700000000000000177635683940025 16:1 #
0.2700000000000000177635683940025 7:1 #
0.2700000000000000177635683940025 20:1 #
-1 20:1 #
0.2700000000000000177635683940025 10:1 #
0.2700000000000000177635683940025 5:1 #
0.2700000000000000177635683940025 13:1 #
0.2700000000000000177635683940025 5:1 #
0.2700000000000000177635683940025 6:1 #
0.2700000000000000177635683940025 10:1 #
0.2700000000000000177635683940025 15:1 #
0.2700000000000000177635683940025 18:1 #
0.2700000000000000177635683940025 20:1 #
0.2700000000000000177635683940025 13:1 #
0.2700000000000000177635683940025 9:1 #
0.2700000000000000177635683940025 15:1 #
0.2700000000000000177635683940025 18:1 #
0.2700000000000000177635683940025 10:1 #
0.2700000000000000177635683940025 13:1 #
0.2700000000000000177635683940025 6:1 #
0.2700000000000000177635683940025 18:1 #
0.2700000000000000177635683940025 10:1 #
0.2700000000000000177635683940025 20:1 #
0.2700000000000000177635683940025 5:1 #
0.2700000000000000177635683940025 20:1 #
0.2700000000000000177635683940025 5:1 #
0.2700000000000000177635683940025 13:1 #
0.2700000000000000177635683940025 6:1 #
0.2700000000000000177635683940025 9:1 #
0.2700000000000000177635683940025 1:1 #
0.2700000000000000177635683940025 9:1 #
0.2700000000000000177635683940025 1:1 #
0.2700000000000000177635683940025 1:1 #
-1 10:1 #
0.2700000000000000177635683940025 6:1 #
-1 6:1 #
0.2700000000000000177635683940025 10:1 #
0.2700000000000000177635683940025 6:1 #
0.2700000000000000177635683940025 10:1 #
0.2700000000000000177635683940025 6:1 #
0.2700000000000000177635683940025 10:1 #
0.2700000000000000177635683940025 6:1 #
-1 5:1 #
0.2700000000000000177635683940025 10:1 #
-1 10:1 #
0.2700000000000000177635683940025 5:1 #
0.2700000000000000177635683940025 10:1 #
0.2700000000000000177635683940025 5:1 #
0.2700000000000000177635683940025 10:1 #
0.2700000000000000177635683940025 5:1 #
0.2700000000000000177635683940025 6:1 #
-1 7:1 #
0.2700000000000000177635683940025 10:1 #
-1 6:1 #
0.2700000000000000177635683940025 5:1 #
-1 5:1 #
0.2700000000000000177635683940025 6:1 #
0.2700000000000000177635683940025 5:1 #
0.2700000000000000177635683940025 6:1 #
0.2700000000000000177635683940025 5:1 #
0.2700000000000000177635683940025 5:1 #
0.2700000000000000177635683940025 7:1 #
0.2700000000000000177635683940025 6:1 #
0.2700000000000000177635683940025 7:1 #
0.2700000000000000177635683940025 15:1 #
-1 15:1 #
-1 16:1 #
-1 20:1 #
0.2700000000000000177635683940025 18:1 #
0.2700000000000000177635683940025 20:1 #
0.2700000000000000177635683940025 16:1 #
0.2700000000000000177635683940025 20:1 #
0.2700000000000000177635683940025 15:1 #
0.2700000000000000177635683940025 20:1 #
0.2700000000000000177635683940025 15:1 #
0.2700000000000000177635683940025 16:1 #
0.2700000000000000177635683940025 15:1 #
0.2700000000000000177635683940025 20:1 #
0.2700000000000000177635683940025 16:1 #
-1 18:1 #
0.2700000000000000177635683940025 4:1 #
-1 4:1 #
0.2700000000000000177635683940025 18:1 #
0.2700000000000000177635683940025 4:1 #
0.2700000000000000177635683940025 18:1 #
0.2700000000000000177635683940025 4:1 #
0.2700000000000000177635683940025 18:1 #
0.2700000000000000177635683940025 4:1 #
-1 20:1 #
0.2700000000000000177635683940025 5:1 #
-1 5:1 #
0.2700000000000000177635683940025 20:1 #
0.2700000000000000177635683940025 5:1 #
0.2700000000000000177635683940025 20:1 #
0.2700000000000000177635683940025 5:1 #
0.2700000000000000177635683940025 20:1 #
0.2700000000000000177635683940025 5:1 #
0.2700000000000000177635683940025 7:1 #
-1 7:1 #
-1 9:1 #
0.2700000000000000177635683940025 16:1 #
-1 16:1 #
0.2700000000000000177635683940025 9:1 #
0.2700000000000000177635683940025 16:1 #
0.2700000000000000177635683940025 9:1 #
0.2700000000000000177635683940025 16:1 #
0.2700000000000000177635683940025 9:1 #
0.2700000000000000177635683940025 16:1 #
0.2700000000000000177635683940025 9:1 #
-1 9:1 #
-1 16:1 #
0.2700000000000000177635683940025 20:1 #
-1 14:1 #
-1 6:1 #
-1 8:1 #
-1 19:1 #
0.2700000000000000177635683940025 9:1 #
0.2700000000000000177635683940025 4:1 #
0.2700000000000000177635683940025 8:1 #
0.2700000000000000177635683940025 14:1 #
0.2700000000000000177635683940025 6:1 #
0.2700000000000000177635683940025 16:1 #
0.2700000000000000177635683940025 8:1 #
0.2700000000000000177635683940025 6:1 #
0.2700000000000000177635683940025 8:1 #
0.2700000000000000177635683940025 16:1 #
0.2700000000000000177635683940025 14:1 #
0.2700000000000000177635683940025 6:1 #
0.2700000000000000177635683940025 16:1 #
0.2700000000000000177635683940025 8:1 #
0.2700000000000000177635683940025 19:1 #
0.2700000000000000177635683940025 14:1 #
0.2700000000000000177635683940025 6:1 #
0.2700000000000000177635683940025 19:1 #
0.2700000000000000177635683940025 7:1 #
0.2700000000000000177635683940025 19:1 #
0.2700000000000000177635683940025 7:1 #
0.2700000000000000177635683940025 9:1 #
0.2700000000000000177635683940025 7:1 #
-1 15:1 #
0.2700000000000000177635683940025 9:1 #
-1 20:1 #
0.2700000000000000177635683940025 19:1 #
-1 19:1 #
0.2700000000000000177635683940025 14:1 #
-1 14:1 #
0.2700000000000000177635683940025 19:1 #
0.2700000000000000177635683940025 14:1 #
0.2700000000000000177635683940025 19:1 #
0.2700000000000000177635683940025 14:1 #
0.2700000000000000177635683940025 19:1 #
0.2700000000000000177635683940025 14:1 #
0.2700000000000000177635683940025 15:1 #
0.2700000000000000177635683940025 20:1 #
0.2700000000000000177635683940025 14:1 #
0.2700000000000000177635683940025 20:1 #
0.2700000000000000177635683940025 19:1 #
0.2700000000000000177635683940025 15:1 #
0.2700000000000000177635683940025 20:1 #
-1 8:1 #
-1 6:1 #
0.2700000000000000177635683940025 15:1 #
0.2700000000000000177635683940025 6:1 #
0.2700000000000000177635683940025 8:1 #
0.2700000000000000177635683940025 6:1 #
0.2700000000000000177635683940025 8:1 #
0.2700000000000000177635683940025 6:1 #
0.2700000000000000177635683940025 8:1 #
0.2700000000000000177635683940025 6:1 #
-1 16:1 #
0.2700000000000000177635683940025 8:1 #
-1 8:1 #
0.2700000000000000177635683940025 16:1 #
0.2700000000000000177635683940025 8:1 #
0.2700000000000000177635683940025 16:1 #
0.2700000000000000177635683940025 8:1 #
0.2700000000000000177635683940025 16:1 #
0.2700000000000000177635683940025 8:1 #
-1 11:1 #
-1 19:1 #
0.2700000000000000177635683940025 16:1 #
-1 16:1 #
-1 6:1 #
0.2700000000000000177635683940025 9:1 #
-1 9:1 #
0.2700000000000000177635683940025 6:1 #
0.2700000000000000177635683940025 9:1 #
0.2700000000000000177635683940025 6:1 #
0.2700000000000000177635683940025 8:1 #
0.2700000000000000177635683940025 16:1 #
0.2700000000000000177635683940025 19:1 #
0.2700000000000000177635683940025 16:1 #
0.2700000000000000177635683940025 19:1 #
0.2700000000000000177635683940025 16:1 #
0.2700000000000000177635683940025 19:1 #
0.2700000000000000177635683940025 11:1 #
0.2700000000000000177635683940025 6:1 #
0.2700000000000000177635683940025 11:1 #
0.2700000000000000177635683940025 9:1 #
0.2700000000000000177635683940025 11:1 #
0.2700000000000000177635683940025 9:1 #
-1 8:1 #
0.2700000000000000177635683940025 16:1 #
-1 16:1 #
0.2700000000000000177635683940025 8:1 #
0.2700000000000000177635683940025 16:1 #
0.2700000000000000177635683940025 8:1 #
0.2700000000000000177635683940025 16:1 #
0.2700000000000000177635683940025 8:1 #
0.2700000000000000177635683940025 16:1 #
-1 20:1 #
0.2700000000000000177635683940025 6:1 #
-1 6:1 #
0.2700000000000000177635683940025 20:1 #
0.2700000000000000177635683940025 6:1 #
0.2700000000000000177635683940025 20:1 #
0.2700000000000000177635683940025 6:1 #
0.2700000000000000177635683940025 20:1 #
0.2700000000000000177635683940025 6:1 #
0.2700000000000000177635683940025 20:1 #
-1 20:1 #
-1 1:1 #
-1 5:1 #
0.2700000000000000177635683940025 19:1 #
0.2700000000000000177635683940025 11:1 #
-1 11:1 #
-1 19:1 #
0.2700000000000000177635683940025 5:1 #
0.2700000000000000177635683940025 5:1 #
-1 7:1 #
0.2700000000000000177635683940025 1:1 #
0.2700000000000000177635683940025 7:1 #
0.2700000000000000177635683940025 1:1 #
0.2700000000000000177635683940025 7:1 #
0.2700000000000000177635683940025 1:1 #
0.2700000000000000177635683940025 7:1 #
0.2700000000000000177635683940025 19:1 #
0.2700000000000000177635683940025 5:1 #
0.2700000000000000177635683940025 5:1 #
0.2700000000000000177635683940025 7:1 #
0.2700000000000000177635683940025 20:1 #
0.2700000000000000177635683940025 19:1 #
0.2700000000000000177635683940025 20:1 #
0.2700000000000000177635683940025 11:1 #
0.2700000000000000177635683940025 20:1 #
0.2700000000000000177635683940025 19:1 #
0.2700000000000000177635683940025 11:1 #
0.2700000000000000177635683940025 1:1 #
-1 7:1 #
0.2700000000000000177635683940025 11:1 #
-1 19:1 #
0.2700000000000000177635683940025 7:1 #
0.2700000000000000177635683940025 19:1 #
0.2700000000000000177635683940025 7:1 #
0.2700000000000000177635683940025 19:1 #
0.2700000000000000177635683940025 7:1 #
0.2700000000000000177635683940025 19:1 #
-1 15:1 #
-1 4:1 #
0.2700000000000000177635683940025 19:1 #
-1 19:1 #
0.2700000000000000177635683940025 7:1 #
-1 7:1 #
0.2700000000000000177635683940025 19:1 #
0.2700000000000000177635683940025 7:1 #
0.2700000000000000177635683940025 19:1 #
0.2700000000000000177635683940025 7:1 #
0.2700000000000000177635683940025 19:1 #
0.2700000000000000177635683940025 7:1 #
0.2700000000000000177635683940025 15:1 #
0.2700000000000000177635683940025 4:1 #
0.2700000000000000177635683940025 15:1 #
0.2700000000000000177635683940025 4:1 #
0.2700000000000000177635683940025 4:1 #
0.2700000000000000177635683940025 15:1 #
0.2700000000000000177635683940025 4:1 #
-1 11:1 #
0.2700000000000000177635683940025 15:1 #
0.2700000000000000177635683940025 11:1 #
0.2700000000000000177635683940025 11:1 #
0.2700000000000000177635683940025 11:1 #
-1 15:1 #
-1 14:1 #
0.2700000000000000177635683940025 11:1 #
-1 11:1 #
-1 5:1 #
0.2700000000000000177635683940025 15:1 #
-1 15:1 #
0.2700000000000000177635683940025 5:1 #
0.2700000000000000177635683940025 15:1 #
0.2700000000000000177635683940025 5:1 #
0.2700000000000000177635683940025 15:1 #
0.2700000000000000177635683940025 19:1 #
0.2700000000000000177635683940025 14:1 #
0.2700000000000000177635683940025 5:1 #
0.2700000000000000177635683940025 14:1 #
0.2700000000000000177635683940025 15:1 #
0.2700000000000000177635683940025 14:1 #
0.2700000000000000177635683940025 11:1 #
0.2700000000000000177635683940025 15:1 #
0.2700000000000000177635683940025 11:1 #
0.2700000000000000177635683940025 11:1 #
0.2700000000000000177635683940025 15:1 #
0.2700000000000000177635683940025 15:1 #
-1 4:1 #
0.2700000000000000177635683940025 5:1 #
-1 5:1 #
0.2700000000000000177635683940025 4:1 #
0.2700000000000000177635683940025 5:1 #
0.2700000000000000177635683940025 4:1 #
0.2700000000000000177635683940025 5:1 #
0.2700000000000000177635683940025 4:1 #
0.2700000000000000177635683940025 5:1 #
0.2700000000000000177635683940025 11:1 #
-1 19:1 #
-1 11:1 #
0.2700000000000000177635683940025 15:1 #
-1 15:1 #
0.2700000000000000177635683940025 11:1 #
0.2700000000000000177635683940025 15:1 #
0.2700000000000000177635683940025 11:1 #
0.2700000000000000177635683940025 15:1 #
0.2700000000000000177635683940025 11:1 #
0.2700000000000000177635683940025 15:1 #
0.2700000000000000177635683940025 4:1 #
0.2700000000000000177635683940025 19:1 #
0.2700000000000000177635683940025 19:1 #
-1 4:1 #
0.2700000000000000177635683940025 19:1 #
-1 1:1 #
0.2700000000000000177635683940025 4:1 #
0.2700000000000000177635683940025 1:1 #
0.2700000000000000177635683940025 4:1 #
0.2700000000000000177635683940025 1:1 #
0.2700000000000000177635683940025 4:1 #
0.2700000000000000177635683940025 1:1 #
-1 20:1 #
0.2700000000000000177635683940025 1:1 #
-1 1:1 #
0.2700000000000000177635683940025 20:1 #
0.2700000000000000177635683940025 1:1 #
0.2700000000000000177635683940025 20:1 #
0.2700000000000000177635683940025 1:1 #
0.2700000000000000177635683940025 20:1 #
0.2700000000000000177635683940025 1:1 #
0.2700000000000000177635683940025 20:1 #
-1 20:1 #
-1 6:1 #
-1 12:1 #
-1 2:1 #
-1 10:1 #
0.2700000000000000177635683940025 9:1 #
0.2700000000000000177635683940025 16:1 #
0.2700000000000000177635683940025 7:1 #
0.2700000000000000177635683940025 15:1 #
-1 16:1 #
0.2700000000000000177635683940025 10:1 #
-1 9:1 #
0.2700000000000000177635683940025 2:1 #
0.2700000000000000177635683940025 6:1 #
0.2700000000000000177635683940025 12:1 #
-1 7:1 #
0.2700000000000000177635683940025 9:1 #
-1 15:1 #
0.2700000000000000177635683940025 9:1 #
-1 18:1 #
-1 8:1 #
0.2700000000000000177635683940025 18:1 #
0.2700000000000000177635683940025 8:1 #
0.2700000000000000177635683940025 18:1 #
0.2700000000000000177635683940025 8:1 #
0.2700000000000000177635683940025 7:1 #
0.2700000000000000177635683940025 8:1 #
0.2700000000000000177635683940025 14:1 #
0.2700000000000000177635683940025 15:1 #
0.2700000000000000177635683940025 16:1 #
0.2700000000000000177635683940025 7:1 #
0.2700000000000000177635683940025 2:1 #
0.2700000000000000177635683940025 18:1 #
0.2700000000000000177635683940025 15:1 #
0.2700000000000000177635683940025 16:1 #
0.2700000000000000177635683940025 9:1 #
0.2700000000000000177635683940025 12:1 #
0.2700000000000000177635683940025 18:1 #
0.2700000000000000177635683940025 10:1 #
0.2700000000000000177635683940025 15:1 #
0.2700000000000000177635683940025 16:1 #
0.2700000000000000177635683940025 10:1 #
0.2700000000000000177635683940025 7:1 #
0.2700000000000000177635683940025 2:1 #
0.2700000000000000177635683940025 12:1 #
0.2700000000000000177635683940025 20:1 #
0.2700000000000000177635683940025 10:1 #
0.2700000000000000177635683940025 8:1 #
0.2700000000000000177635683940025 20:1 #
0.2700000000000000177635683940025 20:1 #
0.2700000000000000177635683940025 6:1 #
0.2700000000000000177635683940025 6:1 #
-1 16:1 #
0.2700000000000000177635683940025 2:1 #
-1 9:1 #
0.2700000000000000177635683940025 12:1 #
-1 15:1 #
0.2700000000000000177635683940025 16:1 #
0.2700000000000000177635683940025 15:1 #
0.2700000000000000177635683940025 16:1 #
0.2700000000000000177635683940025 15:1 #
0.2700000000000000177635683940025 16:1 #
0.2700000000000000177635683940025 15:1 #
0.2700000000000000177635683940025 9:1 #
0.2700000000000000177635683940025 6:1 #
-1 14:1 #
0.2700000000000000177635683940025 9:1 #
-1 18:1 #
0.2700000000000000177635683940025 9:1 #
-1 17:1 #
0.2700000000000000177635683940025 18:1 #
0.2700000000000000177635683940025 17:1 #
0.2700000000000000177635683940025 18:1 #
0.2700000000000000177635683940025 17:1 #
0.2700000000000000177635683940025 18:1 #
0.2700000000000000177635683940025 17:1 #
0.2700000000000000177635683940025 14:1 #
0.2700000000000000177635683940025 15:1 #
0.2700000000000000177635683940025 14:1 #
-1 6:1 #
0.2700000000000000177635683940025 14:1 #
-1 12:1 #
-1 7:1 #
0.2700000000000000177635683940025 6:1 #
0.2700000000000000177635683940025 16:1 #
-1 16:1 #
0.2700000000000000177635683940025 6:1 #
0.2700000000000000177635683940025 16:1 #
0.2700000000000000177635683940025 6:1 #
0.2700000000000000177635683940025 16:1 #
0.2700000000000000177635683940025 9:1 #
-1 9:1 #
0.2700000000000000177635683940025 16:1 #
0.2700000000000000177635683940025 9:1 #
0.2700000000000000177635683940025 7:1 #
0.2700000000000000177635683940025 12:1 #
0.2700000000000000177635683940025 7:1 #
0.2700000000000000177635683940025 12:1 #
0.2700000000000000177635683940025 7:1 #
0.2700000000000000177635683940025 12:1 #
0.2700000000000000177635683940025 9:1 #
0.2700000000000000177635683940025 12:1 #
-1 4:1 #
-1 12:1 #
0.2700000000000000177635683940025 9:1 #
0.2700000000000000177635683940025 7:1 #
0.2700000000000000177635683940025 4:1 #
0.2700000000000000177635683940025 12:1 #
0.2700000000000000177635683940025 4:1 #
0.2700000000000000177635683940025 12:1 #
0.2700000000000000177635683940025 12:1 #
-1 8:1 #
0.2700000000000000177635683940025 17:1 #
-1 17:1 #
0.2700000000000000177635683940025 8:1 #
0.2700000000000000177635683940025 17:1 #
0.2700000000000000177635683940025 8:1 #
0.2700000000000000177635683940025 8:1 #
0.2700000000000000177635683940025 17:1 #
0.2700000000000000177635683940025 17:1 #
-1 2:1 #
0.2700000000000000177635683940025 8:1 #
-1 8:1 #
0.2700000000000000177635683940025 2:1 #
0.2700000000000000177635683940025 8:1 #
0.2700000000000000177635683940025 2:1 #
0.2700000000000000177635683940025 8:1 #
0.2700000000000000177635683940025 2:1 #
0.2700000000000000177635683940025 8:1 #
-1 14:1 #
-1 4:1 #
-1 3:1 #
0.2700000000000000177635683940025 16:1 #
0.2700000000000000177635683940025 9:1 #
0.2700000000000000177635683940025 10:1 #
0.2700000000000000177635683940025 18:1 #
0.2700000000000000177635683940025 2:1 #
-1 10:1 #
0.2700000000000000177635683940025 4:1 #
-1 16:1 #
0.2700000000000000177635683940025 14:1 #
-1 9:1 #
0.2700000000000000177635683940025 3:1 #
-1 18:1 #
0.2700000000000000177635683940025 4:1 #
-1 2:1 #
0.2700000000000000177635683940025 14:1 #
-1 4:1 #
-1 14:1 #
0.2700000000000000177635683940025 3:1 #
-1 3:1 #
0.2700000000000000177635683940025 2:1 #
0.2700000000000000177635683940025 3:1 #
0.2700000000000000177635683940025 6:1 #
0.2700000000000000177635683940025 18:1 #
0.2700000000000000177635683940025 14:1 #
0.2700000000000000177635683940025 4:1 #
0.2700000000000000177635683940025 2:1 #
0.2700000000000000177635683940025 4:1 #
0.2700000000000000177635683940025 16:1 #
0.2700000000000000177635683940025 18:1 #
0.2700000000000000177635683940025 3:1 #
0.2700000000000000177635683940025 2:1 #
0.2700000000000000177635683940025 4:1 #
0.2700000000000000177635683940025 14:1 #
0.2700000000000000177635683940025 18:1 #
0.2700000000000000177635683940025 9:1 #
0.2700000000000000177635683940025 4:1 #
0.2700000000000000177635683940025 16:1 #
0.2700000000000000177635683940025 3:1 #
0.2700000000000000177635683940025 16:1 #
0.2700000000000000177635683940025 14:1 #
0.2700000000000000177635683940025 4:1 #
0.2700000000000000177635683940025 10:1 #
0.2700000000000000177635683940025 14:1 #
0.2700000000000000177635683940025 10:1 #
0.2700000000000000177635683940025 14:1 #
0.2700000000000000177635683940025 3:1 #
0.2700000000000000177635683940025 9:1 #
0.2700000000000000177635683940025 3:1 #
0.2700000000000000177635683940025 9:1 #
-1 6:1 #
0.2700000000000000177635683940025 10:1 #
-1 10:1 #
-1 16:1 #
0.2700000000000000177635683940025 3:1 #
-1 3:1 #
0.2700000000000000177635683940025 16:1 #
0.2700000000000000177635683940025 3:1 #
0.2700000000000000177635683940025 16:1 #
0.2700000000000000177635683940025 3:1 #
0.2700000000000000177635683940025 16:1 #
0.2700000000000000177635683940025 3:1 #
0.2700000000000000177635683940025 16:1 #
-1 9:1 #
0.2700000000000000177635683940025 4:1 #
-1 4:1 #
0.2700000000000000177635683940025 9:1 #
-1 16:1 #
0.2700000000000000177635683940025 4:1 #
0.2700000000000000177635683940025 16:1 #
0.2700000000000000177635683940025 4:1 #
0.2700000000000000177635683940025 16:1 #
0.2700000000000000177635683940025 4:1 #
0.2700000000000000177635683940025 16:1 #
0.2700000000000000177635683940025 6:1 #
0.2700000000000000177635683940025 9:1 #
0.2700000000000000177635683940025 6:1 #
0.2700000000000000177635683940025 9:1 #
0.2700000000000000177635683940025 6:1 #
0.2700000000000000177635683940025 9:1 #
-1 9:1 #
-1 13:1 #
-1 7:1 #
0.2700000000000000177635683940025 14:1 #
-1 14:1 #
0.2700000000000000177635683940025 13:1 #
-1 13:1 #
0.2700000000000000177635683940025 14:1 #
0.2700000000000000177635683940025 10:1 #
0.2700000000000000177635683940025 14:1 #
0.2700000000000000177635683940025 10:1 #
0.2700000000000000177635683940025 14:1 #
0.2700000000000000177635683940025 10:1 #
0.2700000000000000177635683940025 13:1 #
0.2700000000000000177635683940025 7:1 #
0.2700000000000000177635683940025 13:1 #
0.2700000000000000177635683940025 7:1 #
0.2700000000000000177635683940025 13:1 #
0.2700000000000000177635683940025 7:1 #
0.2700000000000000177635683940025 10:1 #
0.2700000000000000177635683940025 9:1 #
0.2700000000000000177635683940025 13:1 #
0.2700000000000000177635683940025 9:1 #
0.2700000000000000177635683940025 13:1 #
0.2700000000000000177635683940025 9:1 #
0.2700000000000000177635683940025 13:1 #
0.2700000000000000177635683940025 16:1 #
-1 16:1 #
0.2700000000000000177635683940025 13:1 #
-1 13:1 #
0.2700000000000000177635683940025 16:1 #
0.2700000000000000177635683940025 13:1 #
0.2700000000000000177635683940025 16:1 #
0.2700000000000000177635683940025 13:1 #
0.2700000000000000177635683940025 16:1 #
0.2700000000000000177635683940025 13:1 #
0.2700000000000000177635683940025 9:1 #
-1 15:1 #
0.2700000000000000177635683940025 2:1 #
0.2700000000000000177635683940025 3:1 #
-1 16:1 #
-1 19:1 #
-1 6:1 #
-1 20:1 #
0.2700000000000000177635683940025 17:1 #
0.2700000000000000177635683940025 15:1 #
-1 17:1 #
0.2700000000000000177635683940025 15:1 #
-1 3:1 #
-1 2:1 #
0.2700000000000000177635683940025 20:1 #
-1 20:1 #
0.2700000000000000177635683940025 19:1 #
-1 19:1 #
0.2700000000000000177635683940025 20:1 #
0.2700000000000000177635683940025 19:1 #
0.2700000000000000177635683940025 20:1 #
0.2700000000000000177635683940025 6:1 #
0.2700000000000000177635683940025 16:1 #
0.2700000000000000177635683940025 4:1 #
0.2700000000000000177635683940025 16:1 #
0.2700000000000000177635683940025 15:1 #
0.2700000000000000177635683940025 16:1 #
0.2700000000000000177635683940025 20:1 #
0.2700000000000000177635683940025 19:1 #
0.2700000000000000177635683940025 15:1 #
0.2700000000000000177635683940025 16:1 #
0.2700000000000000177635683940025 20:1 #
0.2700000000000000177635683940025 17:1 #
0.2700000000000000177635683940025 2:1 #
0.2700000000000000177635683940025 17:1 #
0.2700000000000000177635683940025 2:1 #
0.2700000000000000177635683940025 6:1 #
0.2700000000000000177635683940025 19:1 #
0.2700000000000000177635683940025 6:1 #
0.2700000000000000177635683940025 2:1 #
0.2700000000000000177635683940025 17:1 #
0.2700000000000000177635683940025 20:1 #
0.2700000000000000177635683940025 19:1 #
0.2700000000000000177635683940025 3:1 #
0.2700000000000000177635683940025 20:1 #
0.2700000000000000177635683940025 19:1 #
0.2700000000000000177635683940025 3:1 #
0.2700000000000000177635683940025 19:1 #
0.2700000000000000177635683940025 3:1 #
-1 15:1 #
0.2700000000000000177635683940025 6:1 #
-1 4:1 #
0.2700000000000000177635683940025 15:1 #
-1 17:1 #
0.2700000000000000177635683940025 20:1 #
-1 20:1 #
0.2700000000000000177635683940025 17:1 #
-1 6:1 #
0.2700000000000000177635683940025 20:1 #
0.2700000000000000177635683940025 6:1 #
0.2700000000000000177635683940025 20:1 #
0.2700000000000000177635683940025 6:1 #
0.2700000000000000177635683940025 20:1 #
0.2700000000000000177635683940025 19:1 #
0.2700000000000000177635683940025 15:1 #
0.2700000000000000177635683940025 4:1 #
0.2700000000000000177635683940025 15:1 #
0.2700000000000000177635683940025 17:1 #
0.2700000000000000177635683940025 4:1 #
0.2700000000000000177635683940025 17:1 #
0.2700000000000000177635683940025 4:1 #
0.2700000000000000177635683940025 6:1 #
0.2700000000000000177635683940025 17:1 #
-1 17:1 #
-1 19:1 #
-1 4:1 #
0.2700000000000000177635683940025 6:1 #
-1 6:1 #
0.2700000000000000177635683940025 4:1 #
-1 2:1 #
0.2700000000000000177635683940025 6:1 #
0.2700000000000000177635683940025 2:1 #
0.2700000000000000177635683940025 6:1 #
0.2700000000000000177635683940025 2:1 #
0.2700000000000000177635683940025 6:1 #
0.2700000000000000177635683940025 2:1 #
0.2700000000000000177635683940025 15:1 #
-1 15:1 #
0.2700000000000000177635683940025 4:1 #
0.2700000000000000177635683940025 15:1 #
0.2700000000000000177635683940025 4:1 #
0.2700000000000000177635683940025 15:1 #
0.2700000000000000177635683940025 4:1 #
-1 4:1 #
0.2700000000000000177635683940025 15:1 #
0.2700000000000000177635683940025 4:1 #
0.2700000000000000177635683940025 6:1 #
-1 6:1 #
0.2700000000000000177635683940025 4:1 #
0.2700000000000000177635683940025 6:1 #
0.2700000000000000177635683940025 4:1 #
0.2700000000000000177635683940025 6:1 #
0.2700000000000000177635683940025 4:1 #
-1 4:1 #
0.2700000000000000177635683940025 6:1 #
0.2700000000000000177635683940025 4:1 #
-1 6:1 #
0.2700000000000000177635683940025 6:1 #
0.2700000000000000177635683940025 4:1 #
0.2700000000000000177635683940025 6:1 #
0.2700000000000000177635683940025 4:1 #
0.2700000000000000177635683940025 6:1 #
-1 4:1 #
0.2700000000000000177635683940025 4:1 #
0.2700000000000000177635683940025 2:1 #
-1 2:1 #
0.2700000000000000177635683940025 4:1 #
0.2700000000000000177635683940025 2:1 #
0.2700000000000000177635683940025 20:1 #
0.2700000000000000177635683940025 4:1 #
0.2700000000000000177635683940025 14:1 #
0.2700000000000000177635683940025 11:1 #
0.2700000000000000177635683940025 15:1 #
0.2700000000000000177635683940025 20:1 #
0.2700000000000000177635683940025 17:1 #
0.2700000000000000177635683940025 17:1 #
0.2700000000000000177635683940025 19:1 #
0.2700000000000000177635683940025 17:1 #
0.2700000000000000177635683940025 4:1 #
0.2700000000000000177635683940025 19:1 #
0.2700000000000000177635683940025 2:1 #
0.2700000000000000177635683940025 19:1 #
0.2700000000000000177635683940025 2:1 #
-1 4:1 #
0.2700000000000000177635683940025 6:1 #
-1 6:1 #
0.2700000000000000177635683940025 4:1 #
0.2700000000000000177635683940025 6:1 #
0.2700000000000000177635683940025 4:1 #
0.2700000000000000177635683940025 6:1 #
0.2700000000000000177635683940025 4:1 #
0.2700000000000000177635683940025 6:1 #
0.2700000000000000177635683940025 4:1 #
-1 4:1 #
-1 20:1 #
0.2700000000000000177635683940025 2:1 #
-1 2:1 #
0.2700000000000000177635683940025 20:1 #
0.2700000000000000177635683940025 2:1 #
0.2700000000000000177635683940025 20:1 #
0.2700000000000000177635683940025 6:1 #
0.2700000000000000177635683940025 20:1 #
0.2700000000000000177635683940025 4:1 #
0.2700000000000000177635683940025 2:1 #
