SVM-light Version V6.02
2 # kernel type
3 # kernel parameter -d 
1 # kernel parameter -g 
1 # kernel parameter -s 
1 # kernel parameter -r 
empty# kernel parameter -u 
20 # highest feature index 
65064 # number of training documents 
50975 # number of support vectors plus 1 
-1.4279645e-05 # threshold b, each following line is a SV (starting with alpha*y)
-0.79098835343392759344993692138814 9:1 #
-0.79098835343392759344993692138814 2:1 #
-0.79098835343392759344993692138814 4:1 #
-0.79098835343392759344993692138814 12:1 #
2.8475580723621392031930099619785 15:1 #
2.8475580723621392031930099619785 17:1 #
-0.79098835343392759344993692138814 15:1 #
2.8475580723621392031930099619785 4:1 #
2.8475580723621392031930099619785 2:1 #
-0.79098835343392759344993692138814 17:1 #
2.8475580723621392031930099619785 9:1 #
-0.79098835343392759344993692138814 17:1 #
2.8475580723621392031930099619785 12:1 #
-0.79098835343392759344993692138814 17:1 #
-0.79098835343392759344993692138814 15:1 #
-0.79098835343392759344993692138814 2:1 #
-0.79098835343392759344993692138814 17:1 #
-0.79098835343392759344993692138814 4:1 #
-0.79098835343392759344993692138814 2:1 #
2.8475580723621392031930099619785 17:1 #
-0.79098835343392759344993692138814 2:1 #
2.8475580723621392031930099619785 2:1 #
-0.79098835343392759344993692138814 4:1 #
-0.79098835343392759344993692138814 2:1 #
-0.79098835343392759344993692138814 4:1 #
2.8475580723621392031930099619785 4:1 #
-0.79098835343392759344993692138814 2:1 #
-0.79098835343392759344993692138814 4:1 #
-0.79098835343392759344993692138814 2:1 #
-0.79098835343392759344993692138814 4:1 #
-0.79098835343392759344993692138814 2:1 #
2.8475580723621392031930099619785 2:1 #
-0.79098835343392759344993692138814 12:1 #
-0.79098835343392759344993692138814 9:1 #
-0.79098835343392759344993692138814 12:1 #
-0.79098835343392759344993692138814 9:1 #
-0.79098835343392759344993692138814 12:1 #
-0.79098835343392759344993692138814 9:1 #
2.8475580723621392031930099619785 12:1 #
-0.79098835343392759344993692138814 2:1 #
-0.79098835343392759344993692138814 12:1 #
-0.79098835343392759344993692138814 2:1 #
-0.79098835343392759344993692138814 12:1 #
-0.79098835343392759344993692138814 2:1 #
-0.79098835343392759344993692138814 12:1 #
2.8475580723621392031930099619785 2:1 #
-0.79098835343392759344993692138814 2:1 #
-0.79098835343392759344993692138814 4:1 #
-0.79098835343392759344993692138814 2:1 #
-0.79098835343392759344993692138814 4:1 #
2.8475580723621392031930099619785 4:1 #
-0.79098835343392759344993692138814 2:1 #
-0.79098835343392759344993692138814 4:1 #
-0.79098835343392759344993692138814 2:1 #
-0.79098835343392759344993692138814 4:1 #
2.8475580723621392031930099619785 2:1 #
-0.79098835343392759344993692138814 2:1 #
-0.79098835343392759344993692138814 4:1 #
-0.79098835343392759344993692138814 2:1 #
2.8475580723621392031930099619785 4:1 #
-0.79098835343392759344993692138814 4:1 #
-0.79098835343392759344993692138814 2:1 #
-0.79098835343392759344993692138814 4:1 #
-0.79098835343392759344993692138814 17:1 #
-0.79098835343392759344993692138814 4:1 #
-0.79098835343392759344993692138814 17:1 #
-0.79098835343392759344993692138814 4:1 #
2.8475580723621392031930099619785 4:1 #
-0.79098835343392759344993692138814 17:1 #
-0.79098835343392759344993692138814 4:1 #
-0.79098835343392759344993692138814 17:1 #
-0.79098835343392759344993692138814 4:1 #
2.8475580723621392031930099619785 17:1 #
-0.79098835343392759344993692138814 17:1 #
-0.79098835343392759344993692138814 4:1 #
-0.79098835343392759344993692138814 17:1 #
-0.79098835343392759344993692138814 15:1 #
-0.79098835343392759344993692138814 12:1 #
2.8462629312181224605637908098288 12:1 #
-0.79098835343392759344993692138814 15:1 #
-0.79098835343392759344993692138814 12:1 #
2.8475580723621392031930099619785 15:1 #
-0.79098835343392759344993692138814 15:1 #
-0.79098835343392759344993692138814 12:1 #
-0.79098835343392759344993692138814 15:1 #
-0.79098835343392759344993692138814 12:1 #
-0.79098835343392759344993692138814 15:1 #
2.8475580723621392031930099619785 12:1 #
-0.79098835343392759344993692138814 12:1 #
2.8475580723621392031930099619785 9:1 #
-0.79098835343392759344993692138814 9:1 #
-0.79098835343392759344993692138814 12:1 #
-0.79098835343392759344993692138814 9:1 #
-0.79098835343392759344993692138814 12:1 #
-0.79098835343392759344993692138814 9:1 #
-0.79098835343392759344993692138814 12:1 #
2.8475580723621392031930099619785 12:1 #
-0.79098835343392759344993692138814 9:1 #
2.7681061968350140212180576781975 9:1 #
-0.79098835343392759344993692138814 12:1 #
-0.79098835343392759344993692138814 9:1 #
-0.79098835343392759344993692138814 12:1 #
-0.79098835343392759344993692138814 9:1 #
-0.79098835343392759344993692138814 12:1 #
-0.79098835343392759344993692138814 9:1 #
-0.79098835343392759344993692138814 12:1 #
2.8475580723621392031930099619785 12:1 #
-0.79098835343392759344993692138814 15:1 #
-0.79098835343392759344993692138814 12:1 #
2.832244697908548491938063307316 15:1 #
-0.79098835343392759344993692138814 15:1 #
-0.79098835343392759344993692138814 12:1 #
-0.79098835343392759344993692138814 15:1 #
-0.76848232064963106768828993153875 3:1 #
-0.76848232064963073462138254399179 20:1 #
-0.79098835343392759344993692138814 17:1 #
-0.76848232064962984644296284386655 4:1 #
1.5445529648497005048568553320365 7:1 #
1.5445529648497009489460651820991 18:1 #
-0.79098835343392759344993692138814 18:1 #
-0.79098835343392759344993692138814 7:1 #
2.8475580723621392031930099619785 4:1 #
-0.79098835343392759344993692138814 12:1 #
2.8475580723621392031930099619785 3:1 #
2.8475580723621392031930099619785 20:1 #
-0.79098835343392759344993692138814 7:1 #
-0.79098835343392759344993692138814 18:1 #
2.8475580723621392031930099619785 20:1 #
-0.79098835343392759344993692138814 15:1 #
2.8475580723621392031930099619785 15:1 #
-0.79098835343392759344993692138814 20:1 #
-0.79098835343392759344993692138814 15:1 #
-0.79098835343392759344993692138814 20:1 #
-0.79098835343392759344993692138814 4:1 #
-0.79098835343392759344993692138814 3:1 #
-0.79098835343392759344993692138814 20:1 #
2.8475580723621392031930099619785 20:1 #
-0.79098835343392759344993692138814 4:1 #
-0.79098835343392759344993692138814 20:1 #
-0.79098835343392759344993692138814 3:1 #
-0.79098835343392759344993692138814 20:1 #
-0.79098835343392759344993692138814 3:1 #
-0.79098835343392759344993692138814 20:1 #
-0.79098835343392759344993692138814 4:1 #
-0.79098835343392759344993692138814 15:1 #
2.8475580723621392031930099619785 3:1 #
-0.79098835343392759344993692138814 3:1 #
-0.79098835343392759344993692138814 15:1 #
-0.79098835343392759344993692138814 3:1 #
-0.79098835343392759344993692138814 15:1 #
2.8475580723621392031930099619785 15:1 #
-0.79098835343392759344993692138814 3:1 #
-0.79098835343392759344993692138814 15:1 #
-0.79098835343392759344993692138814 3:1 #
-0.79098835343392759344993692138814 15:1 #
2.8475580723621392031930099619785 3:1 #
-0.79098835343392759344993692138814 3:1 #
-0.79098835343392759344993692138814 15:1 #
-0.79098835343392759344993692138814 3:1 #
2.8475580723621392031930099619785 4:1 #
-0.79098835343392759344993692138814 4:1 #
-0.79098835343392759344993692138814 3:1 #
-0.79098835343392759344993692138814 4:1 #
-0.79098835343392759344993692138814 3:1 #
2.8475580723621392031930099619785 3:1 #
-0.79098835343392759344993692138814 4:1 #
-0.79098835343392759344993692138814 3:1 #
-0.79098835343392759344993692138814 4:1 #
2.8475580723621392031930099619785 4:1 #
-0.79098835343392759344993692138814 3:1 #
-0.79098835343392759344993692138814 4:1 #
-0.79098835343392759344993692138814 3:1 #
-0.79098835343392759344993692138814 4:1 #
2.8475580723621392031930099619785 3:1 #
-0.79098835343392759344993692138814 3:1 #
-0.79098835343392759344993692138814 4:1 #
-0.79098835343392759344993692138814 3:1 #
-0.79098835343392759344993692138814 4:1 #
2.8475580723621392031930099619785 4:1 #
-0.79098835343392759344993692138814 3:1 #
-0.79098835343392759344993692138814 4:1 #
-0.79098835343392759344993692138814 3:1 #
-0.79098835343392759344993692138814 4:1 #
2.8475580723621392031930099619785 3:1 #
-0.79098835343392759344993692138814 3:1 #
-0.79098835343392759344993692138814 4:1 #
2.8475580723621392031930099619785 4:1 #
-0.79098835343392759344993692138814 3:1 #
-0.79098835343392759344993692138814 4:1 #
-0.79098835343392759344993692138814 3:1 #
-0.79098835343392759344993692138814 4:1 #
2.8475580723621392031930099619785 3:1 #
-0.79098835343392759344993692138814 3:1 #
-0.79098835343392759344993692138814 4:1 #
-0.79098835343392759344993692138814 3:1 #
-0.79098835343392759344993692138814 4:1 #
2.8475580723621392031930099619785 4:1 #
-0.79098835343392759344993692138814 3:1 #
-0.79098835343392759344993692138814 4:1 #
-0.79098835343392759344993692138814 3:1 #
-0.79098835343392759344993692138814 4:1 #
2.8475580723621392031930099619785 3:1 #
-0.79098835343392759344993692138814 3:1 #
-0.79098835343392759344993692138814 4:1 #
-0.79098835343392759344993692138814 3:1 #
2.8475580723621392031930099619785 4:1 #
-0.79098835343392759344993692138814 4:1 #
-0.79098835343392759344993692138814 3:1 #
-0.79098835343392759344993692138814 4:1 #
-0.79098835343392759344993692138814 3:1 #
2.8475580723621392031930099619785 3:1 #
-0.79098835343392759344993692138814 4:1 #
-0.79098835343392759344993692138814 3:1 #
-0.79098835343392759344993692138814 4:1 #
2.8475580723621392031930099619785 4:1 #
-0.79098835343392759344993692138814 3:1 #
-0.79098835343392759344993692138814 4:1 #
-0.79098835343392759344993692138814 3:1 #
-0.79098835343392759344993692138814 4:1 #
2.8475580723621392031930099619785 3:1 #
-0.79098835343392759344993692138814 3:1 #
-0.79098835343392759344993692138814 4:1 #
-0.79098835343392759344993692138814 3:1 #
-0.79098835343392759344993692138814 4:1 #
2.8475580723621392031930099619785 4:1 #
-0.79098835343392759344993692138814 10:1 #
-0.79098835343392759344993692138814 2:1 #
-0.79098835343392759344993692138814 15:1 #
-0.79098835343392759344993692138814 19:1 #
2.8475580723621392031930099619785 16:1 #
2.8475580723621392031930099619785 9:1 #
2.8475580723621392031930099619785 1:1 #
-0.79098835343392759344993692138814 16:1 #
-0.25636441355763012195367878121033 3:1 #
2.8475580723621392031930099619785 15:1 #
-0.79098835343392759344993692138814 9:1 #
-0.79098835343392759344993692138814 15:1 #
2.8475580723621392031930099619785 2:1 #
-0.79098835343392759344993692138814 15:1 #
-0.79098835343392759344993692138814 1:1 #
2.8475580723621392031930099619785 10:1 #
-0.79098835343392759344993692138814 9:1 #
2.8475580723621392031930099619785 19:1 #
-0.79098835343392759344993692138814 1:1 #
-0.79098835343392759344993692138814 3:1 #
-0.79098835343392759344993692138814 16:1 #
-0.79098835343392759344993692138814 1:1 #
-0.78871671598125414615054751266143 1:1 #
2.8475580723621392031930099619785 3:1 #
-0.79098835343392759344993692138814 19:1 #
2.8475580723621392031930099619785 1:1 #
-0.79098835343392759344993692138814 16:1 #
2.8475580723621392031930099619785 16:1 #
-0.79098835343392759344993692138814 1:1 #
-0.79098835343392759344993692138814 16:1 #
-0.79098835343392759344993692138814 1:1 #
-0.79098835343392759344993692138814 16:1 #
-0.79098835343392759344993692138814 1:1 #
-0.79098835343392759344993692138814 16:1 #
-0.79098835343392759344993692138814 3:1 #
-0.79098835343392759344993692138814 19:1 #
-0.79098835343392759344993692138814 3:1 #
-0.79098835343392759344993692138814 19:1 #
-0.79098835343392759344993692138814 19:1 #
2.8475580723621392031930099619785 19:1 #
-0.79098835343392759344993692138814 10:1 #
-0.79098835343392759344993692138814 19:1 #
-0.79098835343392759344993692138814 10:1 #
-0.79098835343392759344993692138814 1:1 #
2.8475580723621392031930099619785 1:1 #
-0.79098835343392759344993692138814 4:1 #
-0.79098835343392759344993692138814 1:1 #
-0.79098835343392759344993692138814 4:1 #
-0.79098835343392759344993692138814 1:1 #
-0.79098835343392759344993692138814 4:1 #
2.8475580723621392031930099619785 4:1 #
-0.79098835343392759344993692138814 1:1 #
-0.79098835343392759344993692138814 4:1 #
2.8475580723621392031930099619785 1:1 #
-0.79098835343392759344993692138814 1:1 #
-0.79098835343392759344993692138814 4:1 #
-0.79098835343392759344993692138814 1:1 #
-0.79098835343392759344993692138814 4:1 #
-0.79098835343392759344993692138814 1:1 #
-0.79098835343392759344993692138814 4:1 #
2.8475580723621392031930099619785 4:1 #
-0.79098835343392759344993692138814 1:1 #
-0.79098835343392759344993692138814 4:1 #
2.8475580723621392031930099619785 1:1 #
-0.79098835343392759344993692138814 1:1 #
-0.79098835343392759344993692138814 4:1 #
-0.79098835343392759344993692138814 1:1 #
-0.79098835343392759344993692138814 4:1 #
-0.79098835343392759344993692138814 1:1 #
-0.79098835343392759344993692138814 19:1 #
-0.79098835343392759344993692138814 10:1 #
2.8475580723621392031930099619785 10:1 #
-0.79098835343392759344993692138814 19:1 #
-0.79098835343392759344993692138814 10:1 #
-0.79098835343392759344993692138814 19:1 #
2.8475580723621392031930099619785 19:1 #
-0.79098835343392759344993692138814 10:1 #
-0.79098835343392759344993692138814 19:1 #
-0.79098835343392759344993692138814 10:1 #
-0.79098835343392759344993692138814 19:1 #
-0.79098835343392759344993692138814 10:1 #
2.8329492553638573326679761521518 10:1 #
-0.79098835343392759344993692138814 19:1 #
-0.79098835343392759344993692138814 10:1 #
2.8475580723621392031930099619785 19:1 #
-0.79098835343392759344993692138814 19:1 #
-0.79098835343392759344993692138814 10:1 #
-0.79098835343392759344993692138814 19:1 #
-0.79098835343392759344993692138814 10:1 #
-0.79098835343392759344993692138814 19:1 #
2.8475580723621392031930099619785 10:1 #
-0.79098835343392759344993692138814 10:1 #
-0.79098835343392759344993692138814 19:1 #
-0.79098835343392759344993692138814 10:1 #
2.8475580723621392031930099619785 19:1 #
-0.79098835343392759344993692138814 19:1 #
-0.79098835343392759344993692138814 10:1 #
-0.79098835343392759344993692138814 19:1 #
-0.79098835343392759344993692138814 10:1 #
2.8458086314037043251801151200198 10:1 #
-0.79098835343392759344993692138814 19:1 #
-0.79098835343392759344993692138814 10:1 #
-0.79098835343392759344993692138814 9:1 #
2.8475580723621392031930099619785 16:1 #
-0.79098835343392759344993692138814 20:1 #
-0.79098835343392759344993692138814 16:1 #
2.8475580723621392031930099619785 9:1 #
-0.79098835343392759344993692138814 16:1 #
-0.79098835343392759344993692138814 9:1 #
2.8475580723621392031930099619785 20:1 #
-0.79098835343392759344993692138814 20:1 #
-0.79098835343392759344993692138814 9:1 #
-0.79098835343392759344993692138814 20:1 #
-0.79098835343392759344993692138814 9:1 #
-0.79098835343392759344993692138814 20:1 #
-0.79098835343392759344993692138814 16:1 #
-0.79098835343392759344993692138814 20:1 #
2.8475580723621392031930099619785 20:1 #
-0.79098835343392759344993692138814 16:1 #
2.8475580723621392031930099619785 16:1 #
-0.75376387129893562821791874739574 8:1 #
-0.79098835343392759344993692138814 18:1 #
-0.79098835343392759344993692138814 12:1 #
-0.79098835343392759344993692138814 15:1 #
1.390202067306214761543969871127 15:1 #
-0.79098835343392759344993692138814 9:1 #
2.8475580723621392031930099619785 8:1 #
2.8475580723621392031930099619785 12:1 #
-0.79098835343392759344993692138814 16:1 #
2.8475580723621392031930099619785 18:1 #
-0.79098835343392759344993692138814 20:1 #
-0.79098835343392759344993692138814 9:1 #
-0.79098835343392759344993692138814 8:1 #
2.8475580723621392031930099619785 9:1 #
-0.79098835343392759344993692138814 20:1 #
-0.79098835343392759344993692138814 20:1 #
-0.79098835343392759344993692138814 9:1 #
-0.79098835343392759344993692138814 12:1 #
-0.79098835343392759344993692138814 9:1 #
-0.79098835343392759344993692138814 8:1 #
-0.79098835343392759344993692138814 9:1 #
-0.79098835343392759344993692138814 8:1 #
2.8475580723621392031930099619785 8:1 #
-0.79098835343392759344993692138814 9:1 #
-0.79098835343392759344993692138814 8:1 #
-0.79098835343392759344993692138814 12:1 #
-0.79098835343392759344993692138814 1:1 #
-0.79098835343392759344993692138814 15:1 #
2.8475580723621392031930099619785 1:1 #
-0.79098835343392759344993692138814 12:1 #
-0.79098835343392759344993692138814 12:1 #
2.8475580723621392031930099619785 12:1 #
-0.79098835343392759344993692138814 18:1 #
-0.79098835343392759344993692138814 12:1 #
-0.79098835343392759344993692138814 18:1 #
-0.79098835343392759344993692138814 12:1 #
-0.79098835343392759344993692138814 18:1 #
2.8475580723621392031930099619785 18:1 #
-0.79098835343392759344993692138814 12:1 #
-0.79098835343392759344993692138814 18:1 #
-0.79098835343392759344993692138814 15:1 #
-0.79098835343392759344993692138814 18:1 #
2.8475580723621392031930099619785 15:1 #
-0.79098835343392759344993692138814 15:1 #
-0.79098835343392759344993692138814 18:1 #
-0.79098835343392759344993692138814 15:1 #
-0.79098835343392759344993692138814 18:1 #
2.7795424456318507111518556484953 18:1 #
-0.79098835343392759344993692138814 16:1 #
-0.79098835343392759344993692138814 18:1 #
-0.79098835343392759344993692138814 16:1 #
-0.79098835343392759344993692138814 18:1 #
-0.79098835343392759344993692138814 16:1 #
-0.79098835343392759344993692138814 18:1 #
-0.79098835343392759344993692138814 16:1 #
2.8475580723621392031930099619785 16:1 #
-0.79098835343392759344993692138814 16:1 #
-0.79098835343392759344993692138814 15:1 #
-0.79098835343392759344993692138814 16:1 #
2.8475580723621392031930099619785 18:1 #
-0.79098835343392759344993692138814 1:1 #
-0.79098835343392759344993692138814 18:1 #
2.8475580723621392031930099619785 20:1 #
-0.79098835343392759344993692138814 20:1 #
-0.79098835343392759344993692138814 8:1 #
-0.79098835343392759344993692138814 20:1 #
-0.79098835343392759344993692138814 8:1 #
-0.79098835343392759344993692138814 20:1 #
-0.79098835343392759344993692138814 8:1 #
2.8475580723621392031930099619785 8:1 #
-0.79098835343392759344993692138814 20:1 #
-0.79098835343392759344993692138814 8:1 #
2.8475580723621392031930099619785 20:1 #
-0.79098835343392759344993692138814 20:1 #
-0.79098835343392759344993692138814 8:1 #
-0.79098835343392759344993692138814 20:1 #
-0.79098835343392759344993692138814 8:1 #
-0.79098835343392759344993692138814 20:1 #
2.8475580723621392031930099619785 8:1 #
-0.79098835343392759344993692138814 8:1 #
-0.79098835343392759344993692138814 20:1 #
2.8475580723621392031930099619785 4:1 #
-0.79098835343392759344993692138814 18:1 #
2.8475580723621392031930099619785 20:1 #
-0.79098835343392759344993692138814 4:1 #
-0.79098835343392759344993692138814 20:1 #
-0.79098835343392759344993692138814 20:1 #
-0.79098835343392759344993692138814 4:1 #
-0.79098835343392759344993692138814 20:1 #
-0.79098835343392759344993692138814 4:1 #
2.8475580723621392031930099619785 20:1 #
-0.79098835343392759344993692138814 20:1 #
-0.79098835343392759344993692138814 4:1 #
2.8475580723621392031930099619785 4:1 #
-0.79098835343392759344993692138814 20:1 #
-0.79098835343392759344993692138814 4:1 #
-0.79098835343392759344993692138814 20:1 #
-0.79098835343392759344993692138814 4:1 #
-0.79098835343392759344993692138814 20:1 #
-0.79098835343392759344993692138814 4:1 #
2.8475580723621392031930099619785 20:1 #
-0.79098835343392759344993692138814 20:1 #
-0.79098835343392759344993692138814 4:1 #
2.8475580723621392031930099619785 4:1 #
-0.79098835343392759344993692138814 20:1 #
-0.79098835343392759344993692138814 4:1 #
-0.79098835343392759344993692138814 20:1 #
-0.79098835343392759344993692138814 4:1 #
2.8475580723621392031930099619785 20:1 #
-0.79098835343392759344993692138814 20:1 #
-0.79098835343392759344993692138814 4:1 #
2.8475580723621392031930099619785 4:1 #
-0.79098835343392759344993692138814 20:1 #
-0.79098835343392759344993692138814 4:1 #
-0.79098835343392759344993692138814 20:1 #
-0.79098835343392759344993692138814 15:1 #
-0.72979575300247567781752877635881 1:1 #
-0.79098835343392759344993692138814 18:1 #
-0.79098835343392759344993692138814 4:1 #
2.8475580723621392031930099619785 14:1 #
1.5110907872510592753201308369171 9:1 #
-0.79098835343392759344993692138814 16:1 #
2.8475580723621392031930099619785 15:1 #
-0.79098835343392759344993692138814 14:1 #
-0.79098835343392759344993692138814 15:1 #
2.8475580723621392031930099619785 1:1 #
-0.79098835343392759344993692138814 9:1 #
-0.79098835343392759344993692138814 1:1 #
-0.79098835343392759344993692138814 14:1 #
-0.79098835343392759344993692138814 9:1 #
-0.79098835343392759344993692138814 20:1 #
-0.79098835343392759344993692138814 4:1 #
2.8475580723621392031930099619785 20:1 #
-0.79098835343392759344993692138814 20:1 #
-0.79098835343392759344993692138814 4:1 #
2.8475580723621392031930099619785 4:1 #
-0.79098835343392759344993692138814 20:1 #
-0.79098835343392759344993692138814 4:1 #
-0.79098835343392759344993692138814 20:1 #
-0.79098835343392759344993692138814 4:1 #
-0.79098835343392759344993692138814 20:1 #
2.8475580723621392031930099619785 20:1 #
-0.79098835343392759344993692138814 4:1 #
-0.79098835343392759344993692138814 20:1 #
2.8475580723621392031930099619785 4:1 #
-0.79098835343392759344993692138814 4:1 #
-0.79098835343392759344993692138814 20:1 #
-0.79098835343392759344993692138814 4:1 #
-0.79098835343392759344993692138814 20:1 #
-0.79098835343392759344993692138814 4:1 #
2.8475580723621392031930099619785 20:1 #
-0.79098835343392759344993692138814 20:1 #
-0.79098835343392759344993692138814 4:1 #
2.8475580723621392031930099619785 4:1 #
-0.79098835343392759344993692138814 20:1 #
-0.79098835343392759344993692138814 4:1 #
-0.79098835343392759344993692138814 20:1 #
-0.79098835343392759344993692138814 4:1 #
-0.79098835343392759344993692138814 20:1 #
-0.79098835343392759344993692138814 4:1 #
2.8475580723621392031930099619785 20:1 #
-0.79098835343392759344993692138814 20:1 #
-0.79098835343392759344993692138814 4:1 #
2.8475580723621392031930099619785 4:1 #
-0.79098835343392759344993692138814 20:1 #
-0.79098835343392759344993692138814 4:1 #
-0.79098835343392759344993692138814 20:1 #
-0.79098835343392759344993692138814 4:1 #
2.8475580723621392031930099619785 20:1 #
-0.79098835343392759344993692138814 20:1 #
-0.79098835343392759344993692138814 4:1 #
2.8475580723621392031930099619785 4:1 #
-0.79098835343392759344993692138814 20:1 #
-0.79098835343392759344993692138814 4:1 #
-0.79098835343392759344993692138814 20:1 #
-0.79098835343392759344993692138814 4:1 #
-0.79098835343392759344993692138814 20:1 #
-0.79098835343392759344993692138814 4:1 #
2.8475580723621392031930099619785 20:1 #
-0.79098835343392759344993692138814 20:1 #
-0.79098835343392759344993692138814 4:1 #
2.8475580723621392031930099619785 4:1 #
-0.79098835343392759344993692138814 20:1 #
-0.79098835343392759344993692138814 4:1 #
-0.79098835343392759344993692138814 20:1 #
-0.79098835343392759344993692138814 4:1 #
-0.79098835343392759344993692138814 20:1 #
2.8475580723621392031930099619785 20:1 #
-0.79098835343392759344993692138814 4:1 #
-0.79098835343392759344993692138814 20:1 #
2.8475580723621392031930099619785 4:1 #
-0.79098835343392759344993692138814 4:1 #
-0.79098835343392759344993692138814 20:1 #
-0.79098835343392759344993692138814 4:1 #
-0.79098835343392759344993692138814 20:1 #
-0.79098835343392759344993692138814 4:1 #
2.8475580723621392031930099619785 20:1 #
-0.79098835343392759344993692138814 20:1 #
-0.79098835343392759344993692138814 4:1 #
2.8475580723621392031930099619785 4:1 #
-0.79098835343392759344993692138814 20:1 #
-0.79098835343392759344993692138814 4:1 #
-0.79098835343392759344993692138814 20:1 #
-0.79098835343392759344993692138814 4:1 #
-0.79098835343392759344993692138814 20:1 #
-0.79098835343392759344993692138814 4:1 #
2.8475580723621392031930099619785 20:1 #
-0.79098835343392759344993692138814 20:1 #
-0.79098835343392759344993692138814 4:1 #
2.8475580723621392031930099619785 4:1 #
-0.79098835343392759344993692138814 20:1 #
-0.79098835343392759344993692138814 4:1 #
-0.79098835343392759344993692138814 20:1 #
-0.79098835343392759344993692138814 4:1 #
2.8475580723621392031930099619785 20:1 #
-0.79098835343392759344993692138814 20:1 #
-0.79098835343392759344993692138814 4:1 #
2.8475580723621392031930099619785 4:1 #
-0.79098835343392759344993692138814 20:1 #
-0.79098835343392759344993692138814 4:1 #
-0.79098835343392759344993692138814 20:1 #
-0.79098835343392759344993692138814 4:1 #
-0.79098835343392759344993692138814 20:1 #
-0.79098835343392759344993692138814 4:1 #
2.8475580723621392031930099619785 20:1 #
-0.79098835343392759344993692138814 15:1 #
-0.79098835343392759344993692138814 2:1 #
-0.79098835343392759344993692138814 16:1 #
-0.79098835343392759344993692138814 8:1 #
2.8475580723621392031930099619785 4:1 #
2.8475580723621392031930099619785 1:1 #
1.6450882819732199902063030094723 9:1 #
2.8475580723621392031930099619785 15:1 #
-0.79098835343392759344993692138814 4:1 #
-0.79098835343392759344993692138814 9:1 #
-0.79098835343392759344993692138814 1:1 #
2.8475580723621392031930099619785 16:1 #
-0.79098835343392759344993692138814 4:1 #
-0.79098835343392759344993692138814 16:1 #
2.8475580723621392031930099619785 4:1 #
-0.79098835343392759344993692138814 1:1 #
-0.79098835343392759344993692138814 4:1 #
-0.79098835343392759344993692138814 9:1 #
-0.79098835343392759344993692138814 4:1 #
-0.79098835343392759344993692138814 16:1 #
-0.79098835343392759344993692138814 4:1 #
-0.79098835343392759344993692138814 16:1 #
-0.79098835343392759344993692138814 4:1 #
2.8475580723621392031930099619785 4:1 #
-0.79098835343392759344993692138814 16:1 #
-0.79098835343392759344993692138814 4:1 #
-0.78385479625105114465100086817984 20:1 #
-0.79098835343392759344993692138814 8:1 #
-0.79098835343392759344993692138814 4:1 #
-0.79098835343392759344993692138814 4:1 #
-0.79098835343392759344993692138814 5:1 #
2.8475580723621392031930099619785 16:1 #
-0.79098835343392759344993692138814 20:1 #
-0.79098835343392759344993692138814 16:1 #
-0.79098835343392759344993692138814 20:1 #
-0.79098835343392759344993692138814 16:1 #
-0.79098835343392759344993692138814 20:1 #
2.8475580723621392031930099619785 20:1 #
-0.79098835343392759344993692138814 16:1 #
-0.79098835343392759344993692138814 20:1 #
-0.79098835343392759344993692138814 16:1 #
2.8475580723621392031930099619785 16:1 #
-0.79098835343392759344993692138814 20:1 #
-0.79098835343392759344993692138814 16:1 #
-0.79098835343392759344993692138814 20:1 #
-0.79098835343392759344993692138814 16:1 #
2.8475580723621392031930099619785 20:1 #
-0.79098835343392759344993692138814 20:1 #
-0.79098835343392759344993692138814 16:1 #
-0.79098835343392759344993692138814 20:1 #
-0.79098835343392759344993692138814 16:1 #
2.8475580723621392031930099619785 16:1 #
-0.79098835343392759344993692138814 20:1 #
-0.79098835343392759344993692138814 16:1 #
-0.79098835343392759344993692138814 20:1 #
-0.79098835343392759344993692138814 16:1 #
2.8475580723621392031930099619785 20:1 #
-0.79098835343392759344993692138814 20:1 #
-0.79098835343392759344993692138814 16:1 #
2.8475580723621392031930099619785 16:1 #
-0.79098835343392759344993692138814 20:1 #
-0.79098835343392759344993692138814 16:1 #
-0.79098835343392759344993692138814 20:1 #
-0.79098835343392759344993692138814 16:1 #
2.8475580723621392031930099619785 20:1 #
-0.79098835343392759344993692138814 20:1 #
-0.79098835343392759344993692138814 16:1 #
-0.79098835343392759344993692138814 20:1 #
-0.79098835343392759344993692138814 16:1 #
2.8475580723621392031930099619785 16:1 #
-0.79098835343392759344993692138814 20:1 #
-0.79098835343392759344993692138814 16:1 #
-0.79098835343392759344993692138814 20:1 #
-0.79098835343392759344993692138814 16:1 #
2.8475580723621392031930099619785 20:1 #
-0.79098835343392759344993692138814 20:1 #
-0.79098835343392759344993692138814 16:1 #
-0.79098835343392759344993692138814 20:1 #
2.8475580723621392031930099619785 16:1 #
-0.79098835343392759344993692138814 16:1 #
-0.79098835343392759344993692138814 20:1 #
-0.79098835343392759344993692138814 16:1 #
-0.79098835343392759344993692138814 20:1 #
2.8475580723621392031930099619785 20:1 #
-0.79098835343392759344993692138814 16:1 #
-0.79098835343392759344993692138814 20:1 #
-0.79098835343392759344993692138814 16:1 #
2.8475580723621392031930099619785 16:1 #
-0.79098835343392759344993692138814 20:1 #
-0.79098835343392759344993692138814 16:1 #
-0.79098835343392759344993692138814 20:1 #
-0.79098835343392759344993692138814 16:1 #
2.8475580723621392031930099619785 20:1 #
-0.79098835343392759344993692138814 20:1 #
-0.79098835343392759344993692138814 16:1 #
-0.79098835343392759344993692138814 20:1 #
-0.79098835343392759344993692138814 16:1 #
2.8475580723621392031930099619785 16:1 #
-0.79098835343392759344993692138814 20:1 #
-0.79098835343392759344993692138814 16:1 #
-0.79098835343392759344993692138814 20:1 #
-0.79098835343392759344993692138814 16:1 #
2.8475580723621392031930099619785 20:1 #
-0.79098835343392759344993692138814 20:1 #
-0.79098835343392759344993692138814 16:1 #
2.8475580723621392031930099619785 16:1 #
-0.79098835343392759344993692138814 20:1 #
-0.79098835343392759344993692138814 16:1 #
-0.79098835343392759344993692138814 20:1 #
-0.79098835343392759344993692138814 16:1 #
-0.79098835343392759344993692138814 4:1 #
-0.79098835343392759344993692138814 19:1 #
-0.79098835343392759344993692138814 20:1 #
-0.79098835343392759344993692138814 2:1 #
-0.79098835343392759344993692138814 16:1 #
2.37817385722483098930979394936 15:1 #
2.8475580723621392031930099619785 14:1 #
1.6858527151773481378427277377341 18:1 #
-0.79098835343392759344993692138814 8:1 #
2.8475580723621392031930099619785 20:1 #
-0.79098835343392759344993692138814 14:1 #
-0.79098835343392759344993692138814 20:1 #
2.8475580723621392031930099619785 4:1 #
-0.79098835343392759344993692138814 15:1 #
-0.79098835343392759344993692138814 4:1 #
-0.79098835343392759344993692138814 18:1 #
2.8475580723621392031930099619785 19:1 #
-0.79098835343392759344993692138814 14:1 #
-0.79098835343392759344993692138814 15:1 #
2.8475580723621392031930099619785 8:1 #
-0.79098835343392759344993692138814 18:1 #
-0.79098835343392759344993692138814 8:1 #
-0.79098835343392759344993692138814 15:1 #
-0.79098835343392759344993692138814 14:1 #
2.8475580723621392031930099619785 14:1 #
-0.79098835343392759344993692138814 20:1 #
-0.79098835343392759344993692138814 14:1 #
-0.79098835343392759344993692138814 20:1 #
-0.79098835343392759344993692138814 14:1 #
2.8475580723621392031930099619785 20:1 #
-0.79098835343392759344993692138814 18:1 #
-0.79098835343392759344993692138814 20:1 #
2.8364190597835583496078015741659 18:1 #
-0.79098835343392759344993692138814 20:1 #
-0.79098835343392759344993692138814 14:1 #
-0.79098835343392759344993692138814 20:1 #
2.8475580723621392031930099619785 14:1 #
-0.79098835343392759344993692138814 14:1 #
-0.79098835343392759344993692138814 20:1 #
2.8475580723621392031930099619785 20:1 #
-0.79098835343392759344993692138814 14:1 #
-0.79098835343392759344993692138814 20:1 #
-0.79098835343392759344993692138814 14:1 #
-0.79098835343392759344993692138814 20:1 #
-0.79098835343392759344993692138814 14:1 #
2.8475580723621392031930099619785 14:1 #
-0.79098835343392759344993692138814 20:1 #
-0.79098835343392759344993692138814 14:1 #
2.8475580723621392031930099619785 20:1 #
-0.79098835343392759344993692138814 20:1 #
-0.79098835343392759344993692138814 14:1 #
-0.79098835343392759344993692138814 20:1 #
-0.79098835343392759344993692138814 14:1 #
-0.79098835343392759344993692138814 20:1 #
-0.79098835343392759344993692138814 14:1 #
2.8475580723621392031930099619785 14:1 #
-0.79098835343392759344993692138814 20:1 #
2.8475580723621392031930099619785 20:1 #
-0.79098835343392759344993692138814 14:1 #
-0.79098835343392759344993692138814 20:1 #
-0.79098835343392759344993692138814 14:1 #
-0.79098835343392759344993692138814 20:1 #
-0.79098835343392759344993692138814 14:1 #
-0.79098835343392759344993692138814 20:1 #
2.8475580723621392031930099619785 14:1 #
-0.79098835343392759344993692138814 14:1 #
2.8475580723621392031930099619785 20:1 #
-0.79098835343392759344993692138814 20:1 #
-0.79098835343392759344993692138814 14:1 #
-0.79098835343392759344993692138814 20:1 #
-0.79098835343392759344993692138814 14:1 #
-0.79098835343392759344993692138814 20:1 #
-0.79098835343392759344993692138814 14:1 #
2.8475580723621392031930099619785 14:1 #
-0.79098835343392759344993692138814 20:1 #
-0.79098835343392759344993692138814 14:1 #
2.8475580723621392031930099619785 20:1 #
-0.79098835343392759344993692138814 20:1 #
-0.79098835343392759344993692138814 14:1 #
-0.79098835343392759344993692138814 20:1 #
-0.79098835343392759344993692138814 14:1 #
-0.79098835343392759344993692138814 20:1 #
2.8475580723621392031930099619785 14:1 #
-0.79098835343392759344993692138814 14:1 #
-0.79098835343392759344993692138814 20:1 #
2.8475580723621392031930099619785 20:1 #
-0.79098835343392759344993692138814 14:1 #
-0.79098835343392759344993692138814 20:1 #
-0.79098835343392759344993692138814 14:1 #
-0.79098835343392759344993692138814 20:1 #
-0.79098835343392759344993692138814 14:1 #
2.8475580723621392031930099619785 14:1 #
-0.79098835343392759344993692138814 20:1 #
-0.79098835343392759344993692138814 14:1 #
2.8475580723621392031930099619785 20:1 #
-0.79098835343392759344993692138814 20:1 #
-0.79098835343392759344993692138814 14:1 #
-0.79098835343392759344993692138814 20:1 #
-0.79098835343392759344993692138814 14:1 #
-0.79098835343392759344993692138814 20:1 #
-0.79098835343392759344993692138814 14:1 #
2.8475580723621392031930099619785 14:1 #
-0.79098835343392759344993692138814 20:1 #
2.8475580723621392031930099619785 20:1 #
-0.79098835343392759344993692138814 14:1 #
-0.79098835343392759344993692138814 20:1 #
-0.79098835343392759344993692138814 14:1 #
-0.79098835343392759344993692138814 20:1 #
-0.79098835343392759344993692138814 14:1 #
-0.79098835343392759344993692138814 20:1 #
2.8475580723621392031930099619785 14:1 #
-0.79098835343392759344993692138814 14:1 #
2.8475580723621392031930099619785 20:1 #
-0.79098835343392759344993692138814 20:1 #
-0.79098835343392759344993692138814 14:1 #
-0.79098835343392759344993692138814 9:1 #
-0.79098835343392759344993692138814 18:1 #
-0.17730745605487635563335402366647 20:1 #
-0.79098835343392759344993692138814 16:1 #
1.5715739363037619646945586282527 13:1 #
2.8475580723621392031930099619785 3:1 #
-0.79098835343392759344993692138814 15:1 #
-0.79098835343392759344993692138814 3:1 #
2.8475580723621392031930099619785 9:1 #
1.7222389375642328523952073737746 13:1 #
-0.79098835343392759344993692138814 13:1 #
-0.79098835343392759344993692138814 13:1 #
2.8475580723621392031930099619785 16:1 #
-0.79098835343392759344993692138814 15:1 #
2.8475580723621392031930099619785 15:1 #
-0.79098835343392759344993692138814 16:1 #
-0.79098835343392759344993692138814 15:1 #
-0.79098835343392759344993692138814 16:1 #
-0.79098835343392759344993692138814 15:1 #
-0.79098835343392759344993692138814 16:1 #
-0.79098835343392759344993692138814 15:1 #
-0.79098835343392759344993692138814 3:1 #
-0.79098835343392759344993692138814 20:1 #
-0.79098835343392759344993692138814 16:1 #
2.8475580723621392031930099619785 16:1 #
-0.79098835343392759344993692138814 20:1 #
-0.79098835343392759344993692138814 16:1 #
-0.79098835343392759344993692138814 20:1 #
2.8475580723621392031930099619785 20:1 #
-0.79098835343392759344993692138814 16:1 #
-0.79098835343392759344993692138814 20:1 #
-0.79098835343392759344993692138814 16:1 #
-0.79098835343392759344993692138814 20:1 #
2.8475580723621392031930099619785 16:1 #
-0.79098835343392759344993692138814 16:1 #
-0.79098835343392759344993692138814 20:1 #
-0.79098835343392759344993692138814 16:1 #
-0.79098835343392759344993692138814 15:1 #
2.8475580723621392031930099619785 20:1 #
-0.79098835343392759344993692138814 4:1 #
-0.79098835343392759344993692138814 20:1 #
-0.79098835343392759344993692138814 20:1 #
-0.79098835343392759344993692138814 15:1 #
-0.79098835343392759344993692138814 4:1 #
2.8475580723621392031930099619785 4:1 #
-0.79098835343392759344993692138814 15:1 #
-0.79098835343392759344993692138814 4:1 #
-0.79098835343392759344993692138814 15:1 #
2.8475580723621392031930099619785 15:1 #
-0.79098835343392759344993692138814 4:1 #
-0.79098835343392759344993692138814 15:1 #
-0.79098835343392759344993692138814 4:1 #
-0.79098835343392759344993692138814 15:1 #
-0.79098835343392759344993692138814 4:1 #
2.8475580723621392031930099619785 4:1 #
-0.79098835343392759344993692138814 20:1 #
-0.79098835343392759344993692138814 4:1 #
-0.79098835343392759344993692138814 20:1 #
2.8475580723621392031930099619785 20:1 #
-0.79098835343392759344993692138814 4:1 #
-0.79098835343392759344993692138814 20:1 #
-0.79098835343392759344993692138814 4:1 #
-0.79098835343392759344993692138814 20:1 #
2.8475580723621392031930099619785 4:1 #
-0.79098835343392759344993692138814 4:1 #
-0.79098835343392759344993692138814 20:1 #
-0.79098835343392759344993692138814 4:1 #
-0.79098835343392759344993692138814 20:1 #
2.8475580723621392031930099619785 20:1 #
-0.79098835343392759344993692138814 4:1 #
-0.79098835343392759344993692138814 20:1 #
-0.79098835343392759344993692138814 4:1 #
-0.79098835343392759344993692138814 20:1 #
2.8475580723621392031930099619785 4:1 #
-0.79098835343392759344993692138814 4:1 #
-0.79098835343392759344993692138814 20:1 #
2.8475580723621392031930099619785 20:1 #
-0.79098835343392759344993692138814 4:1 #
-0.79098835343392759344993692138814 20:1 #
-0.79098835343392759344993692138814 4:1 #
-0.79098835343392759344993692138814 20:1 #
2.8475580723621392031930099619785 4:1 #
-0.79098835343392759344993692138814 4:1 #
-0.79098835343392759344993692138814 20:1 #
-0.79098835343392759344993692138814 4:1 #
-0.79098835343392759344993692138814 20:1 #
2.8475580723621392031930099619785 20:1 #
-0.79098835343392759344993692138814 4:1 #
-0.79098835343392759344993692138814 20:1 #
-0.79098835343392759344993692138814 4:1 #
-0.79098835343392759344993692138814 20:1 #
2.8475580723621392031930099619785 4:1 #
-0.79098835343392759344993692138814 4:1 #
-0.79098835343392759344993692138814 20:1 #
-0.79098835343392759344993692138814 4:1 #
2.8475580723621392031930099619785 20:1 #
-0.79098835343392759344993692138814 20:1 #
-0.79098835343392759344993692138814 4:1 #
-0.79098835343392759344993692138814 20:1 #
-0.79098835343392759344993692138814 4:1 #
2.8475580723621392031930099619785 4:1 #
-0.79098835343392759344993692138814 20:1 #
-0.79098835343392759344993692138814 4:1 #
-0.79098835343392759344993692138814 20:1 #
2.8475580723621392031930099619785 20:1 #
-0.79098835343392759344993692138814 4:1 #
-0.79098835343392759344993692138814 20:1 #
-0.79098835343392759344993692138814 4:1 #
-0.79098835343392759344993692138814 20:1 #
2.8475580723621392031930099619785 4:1 #
-0.79098835343392759344993692138814 4:1 #
-0.79098835343392759344993692138814 20:1 #
-0.79098835343392759344993692138814 4:1 #
-0.79098835343392759344993692138814 10:1 #
-0.79098835343392759344993692138814 16:1 #
-0.79098835343392759344993692138814 4:1 #
-0.79098835343392759344993692138814 15:1 #
2.2623774449405189557182893622667 18:1 #
2.8475580723621392031930099619785 1:1 #
2.8475580723621392031930099619785 14:1 #
2.8475580723621392031930099619785 19:1 #
2.8475580723621392031930099619785 5:1 #
-0.79098835343392759344993692138814 18:1 #
-0.79098835343392759344993692138814 20:1 #
-0.79098835343392759344993692138814 5:1 #
-0.79098835343392759344993692138814 16:1 #
2.8475580723621392031930099619785 20:1 #
-0.79098835343392759344993692138814 14:1 #
-0.79098835343392759344993692138814 14:1 #
2.8475580723621392031930099619785 16:1 #
-0.79098835343392759344993692138814 16:1 #
-0.79098835343392759344993692138814 14:1 #
-0.79098835343392759344993692138814 5:1 #
-0.79098835343392759344993692138814 19:1 #
-0.79098835343392759344993692138814 14:1 #
-0.79098835343392759344993692138814 19:1 #
2.8475580723621392031930099619785 14:1 #
-0.79098835343392759344993692138814 16:1 #
2.8475580723621392031930099619785 15:1 #
-0.79098835343392759344993692138814 1:1 #
-0.79098835343392759344993692138814 15:1 #
-0.79098835343392759344993692138814 1:1 #
-0.79098835343392759344993692138814 15:1 #
-0.79098835343392759344993692138814 16:1 #
-0.79098835343392759344993692138814 15:1 #
2.8475580723621392031930099619785 16:1 #
-0.79098835343392759344993692138814 16:1 #
-0.79098835343392759344993692138814 15:1 #
-0.79098835343392759344993692138814 16:1 #
2.8475580723621392031930099619785 15:1 #
-0.79098835343392759344993692138814 15:1 #
-0.79098835343392759344993692138814 16:1 #
-0.79098835343392759344993692138814 15:1 #
-0.79098835343392759344993692138814 16:1 #
2.8475580723621392031930099619785 16:1 #
-0.79098835343392759344993692138814 15:1 #
-0.79098835343392759344993692138814 16:1 #
-0.79098835343392759344993692138814 3:1 #
-0.79098835343392759344993692138814 16:1 #
2.8475580723621392031930099619785 3:1 #
-0.79098835343392759344993692138814 16:1 #
-0.79098835343392759344993692138814 3:1 #
-0.79098835343392759344993692138814 4:1 #
2.8475580723621392031930099619785 4:1 #
-0.79098835343392759344993692138814 19:1 #
-0.79098835343392759344993692138814 4:1 #
2.8475580723621392031930099619785 19:1 #
-0.79098835343392759344993692138814 5:1 #
2.8475580723621392031930099619785 5:1 #
-0.79098835343392759344993692138814 19:1 #
-0.79098835343392759344993692138814 5:1 #
-0.79098835343392759344993692138814 19:1 #
-0.79098835343392759344993692138814 5:1 #
-0.79098835343392759344993692138814 19:1 #
-0.79098835343392759344993692138814 18:1 #
-0.79098835343392759344993692138814 19:1 #
2.8475580723621392031930099619785 19:1 #
-0.79098835343392759344993692138814 1:1 #
-0.79098835343392759344993692138814 18:1 #
-0.79098835343392759344993692138814 1:1 #
-0.79098835343392759344993692138814 18:1 #
-0.79098835343392759344993692138814 1:1 #
-0.79098835343392759344993692138814 18:1 #
2.8475580723621392031930099619785 18:1 #
2.8475580723621392031930099619785 1:1 #
-0.79098835343392759344993692138814 1:1 #
-0.79098835343392759344993692138814 18:1 #
-0.79098835343392759344993692138814 1:1 #
-0.79098835343392759344993692138814 18:1 #
-0.79098835343392759344993692138814 1:1 #
-0.79098835343392759344993692138814 18:1 #
2.8475580723621392031930099619785 18:1 #
-0.79098835343392759344993692138814 1:1 #
2.8475580723621392031930099619785 1:1 #
-0.79098835343392759344993692138814 18:1 #
-0.79098835343392759344993692138814 1:1 #
-0.79098835343392759344993692138814 18:1 #
-0.79098835343392759344993692138814 1:1 #
-0.79098835343392759344993692138814 18:1 #
-0.79098835343392759344993692138814 1:1 #
-0.79098835343392759344993692138814 18:1 #
2.8475580723621392031930099619785 18:1 #
2.8475580723621392031930099619785 1:1 #
-0.79098835343392759344993692138814 1:1 #
-0.79098835343392759344993692138814 18:1 #
-0.79098835343392759344993692138814 1:1 #
-0.79098835343392759344993692138814 18:1 #
-0.79098835343392759344993692138814 1:1 #
-0.79098835343392759344993692138814 18:1 #
-0.79098835343392759344993692138814 1:1 #
-0.79098835343392759344993692138814 5:1 #
-0.79098835343392759344993692138814 19:1 #
2.8475580723621392031930099619785 5:1 #
-0.79098835343392759344993692138814 5:1 #
-0.79098835343392759344993692138814 19:1 #
-0.79098835343392759344993692138814 5:1 #
-0.79098835343392759344993692138814 19:1 #
-0.79098835343392759344993692138814 5:1 #
-0.79098835343392759344993692138814 19:1 #
2.8475580723621392031930099619785 19:1 #
-0.79098835343392759344993692138814 5:1 #
-0.79098835343392759344993692138814 19:1 #
-0.79098835343392759344993692138814 9:1 #
-0.79098835343392759344993692138814 14:1 #
-0.79098835343392759344993692138814 2:1 #
-0.79098835343392759344993692138814 6:1 #
-0.79098835343392759344993692138814 18:1 #
2.8475580723621392031930099619785 6:1 #
2.8475580723621392031930099619785 2:1 #
-0.79098835343392759344993692138814 5:1 #
2.8475580723621392031930099619785 5:1 #
-0.79098835343392759344993692138814 19:1 #
-0.79098835343392759344993692138814 5:1 #
-0.79098835343392759344993692138814 19:1 #
-0.79098835343392759344993692138814 5:1 #
-0.79098835343392759344993692138814 1:1 #
-0.79098835343392759344993692138814 2:1 #
2.8475580723621392031930099619785 1:1 #
-0.79098835343392759344993692138814 2:1 #
-0.79098835343392759344993692138814 1:1 #
-0.79098835343392759344993692138814 2:1 #
-0.79098835343392759344993692138814 1:1 #
-0.79098835343392759344993692138814 2:1 #
-0.79098835343392759344993692138814 1:1 #
2.8475580723621392031930099619785 2:1 #
-0.79098835343392759344993692138814 2:1 #
-0.79098835343392759344993692138814 9:1 #
-0.79098835343392759344993692138814 2:1 #
-0.79098835343392759344993692138814 9:1 #
-0.79098835343392759344993692138814 2:1 #
2.8475580723621392031930099619785 9:1 #
-0.79098835343392759344993692138814 9:1 #
-0.79098835343392759344993692138814 2:1 #
2.8475580723621392031930099619785 2:1 #
-0.79098835343392759344993692138814 9:1 #
-0.79098835343392759344993692138814 2:1 #
-0.79098835343392759344993692138814 9:1 #
-0.79098835343392759344993692138814 2:1 #
-0.79098835343392759344993692138814 9:1 #
2.8475580723621392031930099619785 9:1 #
-0.79098835343392759344993692138814 2:1 #
-0.79098835343392759344993692138814 9:1 #
-0.79098835343392759344993692138814 3:1 #
-0.79098835343392759344993692138814 18:1 #
-0.79098835343392759344993692138814 6:1 #
2.8475580723621392031930099619785 18:1 #
-0.79098835343392759344993692138814 3:1 #
-0.79098835343392759344993692138814 3:1 #
-0.79098835343392759344993692138814 6:1 #
2.8475580723621392031930099619785 3:1 #
-0.79098835343392759344993692138814 3:1 #
-0.79098835343392759344993692138814 6:1 #
2.8475580723621392031930099619785 6:1 #
-0.79098835343392759344993692138814 3:1 #
-0.79098835343392759344993692138814 6:1 #
-0.79098835343392759344993692138814 3:1 #
-0.79098835343392759344993692138814 6:1 #
-0.79098835343392759344993692138814 3:1 #
-0.79098835343392759344993692138814 6:1 #
2.8475580723621392031930099619785 3:1 #
-0.79098835343392759344993692138814 3:1 #
-0.79098835343392759344993692138814 6:1 #
2.8475580723621392031930099619785 6:1 #
-0.79098835343392759344993692138814 3:1 #
-0.79098835343392759344993692138814 6:1 #
-0.79098835343392759344993692138814 3:1 #
-0.79098835343392759344993692138814 6:1 #
2.8475580723621392031930099619785 3:1 #
-0.79098835343392759344993692138814 3:1 #
-0.79098835343392759344993692138814 6:1 #
2.8475580723621392031930099619785 6:1 #
-0.79098835343392759344993692138814 3:1 #
-0.79098835343392759344993692138814 6:1 #
-0.79098835343392759344993692138814 3:1 #
-0.79098835343392759344993692138814 6:1 #
-0.79098835343392759344993692138814 3:1 #
-0.79098835343392759344993692138814 6:1 #
2.8475580723621392031930099619785 3:1 #
-0.79098835343392759344993692138814 3:1 #
-0.79098835343392759344993692138814 6:1 #
2.8475580723621392031930099619785 6:1 #
-0.79098835343392759344993692138814 3:1 #
-0.79098835343392759344993692138814 6:1 #
-0.79098835343392759344993692138814 3:1 #
-0.79098835343392759344993692138814 6:1 #
-0.79098835343392759344993692138814 19:1 #
2.8475580723621392031930099619785 17:1 #
2.8475580723621392031930099619785 19:1 #
-0.79098835343392759344993692138814 17:1 #
-0.79098835343392759344993692138814 19:1 #
-0.79098835343392759344993692138814 14:1 #
2.8475580723621392031930099619785 16:1 #
-0.79098835343392759344993692138814 16:1 #
-0.79098835343392759344993692138814 17:1 #
-0.79098835343392759344993692138814 16:1 #
-0.79098835343392759344993692138814 17:1 #
-0.79098835343392759344993692138814 16:1 #
-0.79098835343392759344993692138814 17:1 #
-0.79098835343392759344993692138814 19:1 #
-0.79098835343392759344993692138814 14:1 #
-0.79098835343392759344993692138814 19:1 #
-0.79098835343392759344993692138814 14:1 #
2.8475580723621392031930099619785 19:1 #
-0.79098835343392759344993692138814 19:1 #
-0.79098835343392759344993692138814 14:1 #
-0.79098835343392759344993692138814 17:1 #
2.8475580723621392031930099619785 14:1 #
-0.79098835343392759344993692138814 18:1 #
2.8475580723621392031930099619785 17:1 #
-0.79098835343392759344993692138814 14:1 #
-0.79098835343392759344993692138814 14:1 #
-0.79098835343392759344993692138814 18:1 #
-0.79098835343392759344993692138814 14:1 #
-0.79098835343392759344993692138814 18:1 #
2.8475580723621392031930099619785 18:1 #
-0.79098835343392759344993692138814 5:1 #
-0.79098835343392759344993692138814 4:1 #
-0.79098835343392759344993692138814 9:1 #
0.53895897626004918290476553011104 11:1 #
2.8475580723621392031930099619785 8:1 #
2.8475580723621392031930099619785 14:1 #
1.6281116644155133599269902333617 7:1 #
-0.79098835343392759344993692138814 14:1 #
-0.79098835343392759344993692138814 18:1 #
2.8475580723621392031930099619785 14:1 #
-0.79098835343392759344993692138814 7:1 #
-0.79098835343392759344993692138814 11:1 #
0.79098365012803184548317858570954 11:1 #
-0.79098835343392759344993692138814 8:1 #
-0.79098835343392759344993692138814 11:1 #
-0.79098835343392759344993692138814 8:1 #
2.8462629312770992839887185255066 11:1 #
-0.79098835343392759344993692138814 5:1 #
-0.79098835343392759344993692138814 11:1 #
-0.79098835343392759344993692138814 11:1 #
2.8475580723621392031930099619785 5:1 #
-0.79098835343392759344993692138814 5:1 #
-0.79098835343392759344993692138814 11:1 #
-0.79098835343392759344993692138814 5:1 #
-0.79098835343392759344993692138814 11:1 #
2.8475580723621392031930099619785 11:1 #
-0.79098835343392759344993692138814 5:1 #
-0.79098835343392759344993692138814 11:1 #
-0.79098835343392759344993692138814 5:1 #
2.8475580723621392031930099619785 5:1 #
-0.79098835343392759344993692138814 11:1 #
-0.79098835343392759344993692138814 5:1 #
-0.79098835343392759344993692138814 11:1 #
-0.79098835343392759344993692138814 5:1 #
2.828295612717604434749318897957 11:1 #
-0.79098835343392759344993692138814 11:1 #
-0.79098835343392759344993692138814 5:1 #
-0.79098835343392759344993692138814 11:1 #
2.8475580723621392031930099619785 5:1 #
-0.79098835343392759344993692138814 5:1 #
-0.79098835343392759344993692138814 11:1 #
-0.79098835343392759344993692138814 5:1 #
-0.79098835343392759344993692138814 11:1 #
2.8475580723621392031930099619785 11:1 #
-0.79098835343392759344993692138814 5:1 #
-0.79098835343392759344993692138814 11:1 #
-0.79098835343392759344993692138814 5:1 #
-0.79098835343392759344993692138814 11:1 #
2.8475580723621392031930099619785 5:1 #
-0.79098835343392759344993692138814 5:1 #
-0.79098835343392759344993692138814 11:1 #
-0.79098835343392759344993692138814 5:1 #
-0.79098835343392759344993692138814 8:1 #
-0.79098835343392759344993692138814 4:1 #
-0.79098835343392759344993692138814 14:1 #
-0.79098835343392759344993692138814 14:1 #
-0.79098835343392759344993692138814 4:1 #
-0.79098835343392759344993692138814 14:1 #
2.8475580723621392031930099619785 4:1 #
2.8475580723621392031930099619785 14:1 #
-0.79098835343392759344993692138814 4:1 #
-0.79098835343392759344993692138814 14:1 #
-0.79098835343392759344993692138814 4:1 #
-0.79098835343392759344993692138814 14:1 #
-0.79098835343392759344993692138814 4:1 #
-0.79098835343392759344993692138814 14:1 #
-0.79098835343392759344993692138814 11:1 #
2.8329492556765618616054780432023 11:1 #
-0.79098835343392759344993692138814 18:1 #
-0.79098835343392759344993692138814 11:1 #
-0.79098835343392759344993692138814 18:1 #
-0.79098835343392759344993692138814 11:1 #
-0.79098835343392759344993692138814 18:1 #
2.8475580723621392031930099619785 18:1 #
-0.79098835343392759344993692138814 11:1 #
-0.79098835343392759344993692138814 18:1 #
2.8475580723621392031930099619785 11:1 #
-0.79098835343392759344993692138814 11:1 #
-0.79098835343392759344993692138814 18:1 #
-0.79098835343392759344993692138814 11:1 #
-0.79098835343392759344993692138814 18:1 #
-0.79098835343392759344993692138814 11:1 #
2.8475580723621392031930099619785 4:1 #
-0.79098835343392759344993692138814 7:1 #
-0.79098835343392759344993692138814 4:1 #
-0.79098835343392759344993692138814 8:1 #
2.8475580723621392031930099619785 8:1 #
-0.79098835343392759344993692138814 4:1 #
-0.79098835343392759344993692138814 8:1 #
-0.79098835343392759344993692138814 4:1 #
-0.79098835343392759344993692138814 8:1 #
-0.79098835343392759344993692138814 4:1 #
2.8475580723621392031930099619785 4:1 #
-0.79098835343392759344993692138814 8:1 #
-0.79098835343392759344993692138814 4:1 #
2.8475580723621392031930099619785 8:1 #
-0.79098835343392759344993692138814 8:1 #
-0.79098835343392759344993692138814 4:1 #
-0.79098835343392759344993692138814 8:1 #
-0.79098835343392759344993692138814 4:1 #
-0.79098835343392759344993692138814 8:1 #
-0.79098835343392759344993692138814 4:1 #
2.8475580723621392031930099619785 4:1 #
-0.79098835343392759344993692138814 8:1 #
-0.79098835343392759344993692138814 4:1 #
2.8475580723621392031930099619785 8:1 #
-0.79098835343392759344993692138814 8:1 #
-0.79098835343392759344993692138814 4:1 #
-0.79098835343392759344993692138814 8:1 #
-0.79098835343392759344993692138814 4:1 #
2.8475580723621392031930099619785 4:1 #
-0.79098835343392759344993692138814 8:1 #
-0.79098835343392759344993692138814 4:1 #
2.8475580723621392031930099619785 8:1 #
-0.79098835343392759344993692138814 5:1 #
-0.79098835343392759344993692138814 17:1 #
-0.79098835343392759344993692138814 3:1 #
-0.79098835343392759344993692138814 2:1 #
2.8475580723621392031930099619785 8:1 #
2.8475580723621392031930099619785 18:1 #
2.8475580723621392031930099619785 13:1 #
2.8475580723621392031930099619785 3:1 #
-0.79098835343392759344993692138814 18:1 #
-0.79098835343392759344993692138814 8:1 #
-0.79098835343392759344993692138814 13:1 #
2.8475580723621392031930099619785 2:1 #
2.8475580723621392031930099619785 3:1 #
-0.79098835343392759344993692138814 18:1 #
2.8475580723621392031930099619785 18:1 #
-0.79098835343392759344993692138814 13:1 #
-0.79098835343392759344993692138814 18:1 #
-0.79098835343392759344993692138814 13:1 #
2.8475580723621392031930099619785 13:1 #
-0.79098835343392759344993692138814 18:1 #
-0.79098835343392759344993692138814 13:1 #
-0.79098835343392759344993692138814 18:1 #
-0.79098835343392759344993692138814 13:1 #
-0.79098835343392759344993692138814 8:1 #
-0.79098835343392759344993692138814 13:1 #
-0.79098835343392759344993692138814 8:1 #
-0.79098835343392759344993692138814 3:1 #
2.8475580723621392031930099619785 5:1 #
-0.79098835343392759344993692138814 3:1 #
-0.79098835343392759344993692138814 8:1 #
-0.79098835343392759344993692138814 2:1 #
-0.79098835343392759344993692138814 8:1 #
-0.79098835343392759344993692138814 2:1 #
-0.79098835343392759344993692138814 8:1 #
2.8475580723621392031930099619785 8:1 #
-0.79098835343392759344993692138814 3:1 #
-0.79098835343392759344993692138814 8:1 #
-0.79098835343392759344993692138814 3:1 #
2.8475580723621392031930099619785 3:1 #
-0.79098835343392759344993692138814 8:1 #
-0.79098835343392759344993692138814 3:1 #
-0.79098835343392759344993692138814 8:1 #
-0.79098835343392759344993692138814 3:1 #
-0.79098835343392759344993692138814 2:1 #
-0.79098835343392759344993692138814 3:1 #
2.8475580723621392031930099619785 2:1 #
-0.79098835343392759344993692138814 2:1 #
-0.79098835343392759344993692138814 17:1 #
-0.79098835343392759344993692138814 2:1 #
2.8475580723621392031930099619785 8:1 #
-0.79098835343392759344993692138814 3:1 #
2.8475580723621392031930099619785 3:1 #
-0.79098835343392759344993692138814 8:1 #
2.8475580723621392031930099619785 13:1 #
-0.79098835343392759344993692138814 3:1 #
-0.79098835343392759344993692138814 13:1 #
-0.79098835343392759344993692138814 3:1 #
-0.79098835343392759344993692138814 13:1 #
-0.79098835343392759344993692138814 3:1 #
-0.79098835343392759344993692138814 13:1 #
2.8475580723621392031930099619785 3:1 #
2.8475580723621392031930099619785 18:1 #
-0.79098835343392759344993692138814 3:1 #
-0.79098835343392759344993692138814 18:1 #
-0.79098835343392759344993692138814 3:1 #
-0.79098835343392759344993692138814 18:1 #
-0.79098835343392759344993692138814 3:1 #
-0.79098835343392759344993692138814 18:1 #
-0.79098835343392759344993692138814 3:1 #
-0.79098835343392759344993692138814 18:1 #
2.8475580723621392031930099619785 3:1 #
2.8475580723621392031930099619785 18:1 #
-0.79098835343392759344993692138814 3:1 #
-0.79098835343392759344993692138814 18:1 #
-0.79098835343392759344993692138814 3:1 #
-0.79098835343392759344993692138814 18:1 #
-0.79098835343392759344993692138814 3:1 #
-0.79098835343392759344993692138814 18:1 #
2.8475580723621392031930099619785 3:1 #
-0.79098835343392759344993692138814 3:1 #
-0.79098835343392759344993692138814 18:1 #
2.8475580723621392031930099619785 18:1 #
-0.79098835343392759344993692138814 3:1 #
-0.79098835343392759344993692138814 18:1 #
-0.79098835343392759344993692138814 3:1 #
-0.79098835343392759344993692138814 18:1 #
-0.79098835343392759344993692138814 3:1 #
-0.79098835343392759344993692138814 18:1 #
2.8475580723621392031930099619785 3:1 #
2.8475580723621392031930099619785 18:1 #
-0.79098835343392759344993692138814 3:1 #
-0.79098835343392759344993692138814 18:1 #
-0.79098835343392759344993692138814 3:1 #
-0.79098835343392759344993692138814 18:1 #
-0.79098835343392759344993692138814 3:1 #
-0.79098835343392759344993692138814 18:1 #
-0.79098835343392759344993692138814 3:1 #
2.8475580723621392031930099619785 3:1 #
-0.79098835343392759344993692138814 18:1 #
2.8475580723621392031930099619785 18:1 #
-0.79098835343392759344993692138814 3:1 #
-0.79098835343392759344993692138814 18:1 #
-0.79098835343392759344993692138814 3:1 #
-0.79098835343392759344993692138814 18:1 #
-0.79098835343392759344993692138814 3:1 #
-0.79098835343392759344993692138814 18:1 #
2.8475580723621392031930099619785 3:1 #
-0.79098835343392759344993692138814 3:1 #
2.8475580723621392031930099619785 18:1 #
-0.79098835343392759344993692138814 18:1 #
-0.79098835343392759344993692138814 3:1 #
-0.79098835343392759344993692138814 18:1 #
-0.79098835343392759344993692138814 3:1 #
-0.79098835343392759344993692138814 18:1 #
-0.79098835343392759344993692138814 3:1 #
-0.79098835343392759344993692138814 16:1 #
-0.79098835343392759344993692138814 6:1 #
-0.79098835343392759344993692138814 19:1 #
-0.79098835343392759344993692138814 17:1 #
2.8475580723621392031930099619785 17:1 #
-0.79098835343392759344993692138814 13:1 #
-0.79098835343392759344993692138814 8:1 #
2.8475580723621392031930099619785 16:1 #
-0.79098835343392759344993692138814 18:1 #
-0.79098835343392759344993692138814 17:1 #
-0.79098835343392759344993692138814 3:1 #
-0.79098835343392759344993692138814 19:1 #
-0.31776251642620401138827901377226 6:1 #
-0.79098835343392759344993692138814 17:1 #
-0.79098835343392759344993692138814 16:1 #
-0.79098835343392759344993692138814 19:1 #
2.8475580723621392031930099619785 6:1 #
-0.79098835343392759344993692138814 16:1 #
-0.79098835343392759344993692138814 17:1 #
-0.79098835343392759344993692138814 16:1 #
-0.79098835343392759344993692138814 6:1 #
2.8475580723621392031930099619785 3:1 #
-0.79098835343392759344993692138814 17:1 #
2.8475580723621392031930099619785 17:1 #
-0.79098835343392759344993692138814 3:1 #
-0.79098835343392759344993692138814 17:1 #
-0.79098835343392759344993692138814 3:1 #
-0.79098835343392759344993692138814 17:1 #
-0.79098835343392759344993692138814 3:1 #
-0.79098835343392759344993692138814 17:1 #
-0.79098835343392759344993692138814 3:1 #
2.8475580723621392031930099619785 3:1 #
2.8475580723621392031930099619785 17:1 #
-0.79098835343392759344993692138814 17:1 #
-0.79098835343392759344993692138814 3:1 #
-0.79098835343392759344993692138814 17:1 #
-0.79098835343392759344993692138814 3:1 #
-0.79098835343392759344993692138814 17:1 #
-0.79098835343392759344993692138814 3:1 #
-0.79098835343392759344993692138814 17:1 #
-0.14133134642157840765719356568297 19:1 #
-0.79098835343392759344993692138814 14:1 #
2.8475580723621392031930099619785 19:1 #
-0.79098835343392759344993692138814 6:1 #
2.8475580723621392031930099619785 14:1 #
-0.79098835343392759344993692138814 6:1 #
-0.79098835343392759344993692138814 14:1 #
-0.79098835343392759344993692138814 6:1 #
2.8475580723621392031930099619785 6:1 #
-0.79098835343392759344993692138814 14:1 #
-0.79098835343392759344993692138814 6:1 #
-0.79098835343392759344993692138814 14:1 #
-0.79098835343392759344993692138814 6:1 #
2.8475580723621392031930099619785 14:1 #
-0.79098835343392759344993692138814 14:1 #
-0.79098835343392759344993692138814 6:1 #
-0.79098835343392759344993692138814 14:1 #
-0.79098835343392759344993692138814 2:1 #
-0.79098835343392759344993692138814 16:1 #
2.8475580723621392031930099619785 16:1 #
-0.79098835343392759344993692138814 16:1 #
-0.79098835343392759344993692138814 2:1 #
-0.79098835343392759344993692138814 16:1 #
2.8475580723621392031930099619785 2:1 #
-0.79098835343392759344993692138814 2:1 #
-0.79098835343392759344993692138814 16:1 #
-0.79098835343392759344993692138814 2:1 #
-0.79098835343392759344993692138814 16:1 #
2.8475580723621392031930099619785 16:1 #
-0.79098835343392759344993692138814 2:1 #
-0.79098835343392759344993692138814 16:1 #
-0.79098835343392759344993692138814 2:1 #
2.8475580723621392031930099619785 2:1 #
-0.79098835343392759344993692138814 16:1 #
-0.79098835343392759344993692138814 2:1 #
-0.79098835343392759344993692138814 16:1 #
-0.79098835343392759344993692138814 2:1 #
2.8475580723621392031930099619785 16:1 #
-0.79098835343392759344993692138814 16:1 #
-0.79098835343392759344993692138814 2:1 #
-0.79098835343392759344993692138814 16:1 #
2.8475580723621392031930099619785 17:1 #
-0.79098835343392759344993692138814 16:1 #
-0.79098835343392759344993692138814 17:1 #
-0.79098835343392759344993692138814 16:1 #
-0.79098835343392759344993692138814 17:1 #
2.8475580723621392031930099619785 16:1 #
-0.79098835343392759344993692138814 16:1 #
-0.79098835343392759344993692138814 17:1 #
2.8475580723621392031930099619785 17:1 #
-0.79098835343392759344993692138814 16:1 #
-0.79098835343392759344993692138814 17:1 #
-0.79098835343392759344993692138814 16:1 #
-0.79098835343392759344993692138814 17:1 #
-0.79098835343392759344993692138814 16:1 #
2.8475580723621392031930099619785 16:1 #
-0.79098835343392759344993692138814 17:1 #
-0.79098835343392759344993692138814 16:1 #
-0.79098835343392759344993692138814 17:1 #
2.8475580723621392031930099619785 17:1 #
-0.79098835343392759344993692138814 16:1 #
-0.79098835343392759344993692138814 17:1 #
-0.79098835343392759344993692138814 16:1 #
-0.79098835343392759344993692138814 17:1 #
2.8475580723621392031930099619785 16:1 #
-0.79098835343392759344993692138814 16:1 #
-0.79098835343392759344993692138814 17:1 #
-0.79098835343392759344993692138814 16:1 #
2.8475580723621392031930099619785 17:1 #
-0.79098835343392759344993692138814 9:1 #
-0.79098835343392759344993692138814 18:1 #
-0.79098835343392759344993692138814 12:1 #
-0.79098835343392759344993692138814 1:1 #
-0.79098835343392759344993692138814 16:1 #
-0.79098835343392759344993692138814 3:1 #
-0.79098835343392759344993692138814 17:1 #
-0.79098835343392759344993692138814 8:1 #
2.8475580723621392031930099619785 12:1 #
-0.79098835343392759344993692138814 3:1 #
2.8475580723621392031930099619785 3:1 #
-0.79098835343392759344993692138814 18:1 #
2.8475580723621392031930099619785 1:1 #
-0.79098835343392759344993692138814 8:1 #
2.8475580723621392031930099619785 18:1 #
2.8475580723621392031930099619785 8:1 #
-0.79098835343392759344993692138814 8:1 #
-0.79098835343392759344993692138814 1:1 #
-0.79098835343392759344993692138814 12:1 #
2.8475580723621392031930099619785 16:1 #
-0.79098835343392759344993692138814 1:1 #
-0.79098835343392759344993692138814 16:1 #
-0.79098835343392759344993692138814 1:1 #
-0.79098835343392759344993692138814 16:1 #
2.8475580723621392031930099619785 1:1 #
-0.79098835343392759344993692138814 1:1 #
-0.79098835343392759344993692138814 16:1 #
-0.79098835343392759344993692138814 1:1 #
-0.79098835343392759344993692138814 16:1 #
2.8475580723621392031930099619785 16:1 #
-0.79098835343392759344993692138814 1:1 #
-0.79098835343392759344993692138814 16:1 #
-0.79098835343392759344993692138814 1:1 #
-0.79098835343392759344993692138814 13:1 #
2.8475580723621392031930099619785 1:1 #
-0.79098835343392759344993692138814 17:1 #
-0.79098835343392759344993692138814 17:1 #
-0.79098835343392759344993692138814 12:1 #
-0.79098835343392759344993692138814 17:1 #
2.8475580723621392031930099619785 17:1 #
2.8475580723621392031930099619785 13:1 #
-0.79098835343392759344993692138814 1:1 #
-0.79098835343392759344993692138814 13:1 #
-0.79098835343392759344993692138814 1:1 #
-0.79098835343392759344993692138814 13:1 #
-0.79098835343392759344993692138814 1:1 #
-0.79098835343392759344993692138814 13:1 #
2.8475580723621392031930099619785 1:1 #
-0.79098835343392759344993692138814 1:1 #
-0.79098835343392759344993692138814 13:1 #
2.8475580723621392031930099619785 13:1 #
-0.79098835343392759344993692138814 1:1 #
-0.79098835343392759344993692138814 13:1 #
-0.79098835343392759344993692138814 1:1 #
-0.79098835343392759344993692138814 13:1 #
-0.79098835343392759344993692138814 1:1 #
-0.79098835343392759344993692138814 13:1 #
2.8475580723621392031930099619785 1:1 #
-0.79098835343392759344993692138814 1:1 #
-0.79098835343392759344993692138814 16:1 #
-0.79098835343392759344993692138814 17:1 #
-0.79098835343392759344993692138814 16:1 #
-0.79098835343392759344993692138814 17:1 #
-0.79098835343392759344993692138814 18:1 #
2.8475580723621392031930099619785 12:1 #
-0.79098835343392759344993692138814 9:1 #
-0.79098835343392759344993692138814 12:1 #
-0.79098835343392759344993692138814 12:1 #
2.8475580723621392031930099619785 9:1 #
-0.79098835343392759344993692138814 9:1 #
-0.79098835343392759344993692138814 12:1 #
-0.79098835343392759344993692138814 9:1 #
-0.79098835343392759344993692138814 12:1 #
2.8475580723621392031930099619785 12:1 #
-0.79098835343392759344993692138814 9:1 #
-0.79098835343392759344993692138814 12:1 #
2.8475580723621392031930099619785 9:1 #
-0.79098835343392759344993692138814 15:1 #
-0.79098835343392759344993692138814 9:1 #
2.8475580723621392031930099619785 15:1 #
-0.79098835343392759344993692138814 9:1 #
-0.79098835343392759344993692138814 12:1 #
-0.79098835343392759344993692138814 9:1 #
-0.79098835343392759344993692138814 15:1 #
-0.79098835343392759344993692138814 9:1 #
-0.79098835343392759344993692138814 15:1 #
2.8475580723621392031930099619785 9:1 #
-0.79098835343392759344993692138814 9:1 #
-0.79098835343392759344993692138814 15:1 #
2.8475580723621392031930099619785 15:1 #
-0.79098835343392759344993692138814 9:1 #
-0.79098835343392759344993692138814 15:1 #
-0.79098835343392759344993692138814 9:1 #
-0.79098835343392759344993692138814 15:1 #
-0.79098835343392759344993692138814 9:1 #
2.8475580723621392031930099619785 9:1 #
-0.79098835343392759344993692138814 12:1 #
-0.79098835343392759344993692138814 9:1 #
2.8475580723621392031930099619785 12:1 #
-0.79098835343392759344993692138814 12:1 #
-0.79098835343392759344993692138814 9:1 #
-0.79098835343392759344993692138814 12:1 #
-0.79098835343392759344993692138814 9:1 #
-0.79098835343392759344993692138814 12:1 #
2.8475580723621392031930099619785 9:1 #
-0.79098835343392759344993692138814 9:1 #
-0.79098835343392759344993692138814 12:1 #
2.8475580723621392031930099619785 12:1 #
-0.79098835343392759344993692138814 9:1 #
-0.79098835343392759344993692138814 12:1 #
-0.79098835343392759344993692138814 9:1 #
-0.79098835343392759344993692138814 12:1 #
-0.79098835343392759344993692138814 9:1 #
-0.79098835343392759344993692138814 12:1 #
2.8475580723621392031930099619785 9:1 #
-0.79098835343392759344993692138814 9:1 #
-0.79098835343392759344993692138814 12:1 #
-0.79098835343392759344993692138814 14:1 #
-0.79098835343392759344993692138814 3:1 #
-0.79098835343392759344993692138814 16:1 #
-0.79098835343392759344993692138814 10:1 #
2.8475580723621392031930099619785 18:1 #
-0.79098835343392759344993692138814 18:1 #
2.8475580723621392031930099619785 16:1 #
2.8475580723621392031930099619785 12:1 #
-0.79098835343392759344993692138814 8:1 #
-0.79098835343392759344993692138814 16:1 #
-0.79098835343392759344993692138814 8:1 #
-0.79098835343392759344993692138814 18:1 #
-0.79098835343392759344993692138814 16:1 #
-0.79098835343392759344993692138814 10:1 #
-0.79098835343392759344993692138814 8:1 #
-0.79098835343392759344993692138814 3:1 #
-0.79098835343392759344993692138814 16:1 #
-0.79098835343392759344993692138814 12:1 #
2.8475580723621392031930099619785 16:1 #
-0.79098835343392759344993692138814 14:1 #
-0.79098835343392759344993692138814 16:1 #
-0.79098835343392759344993692138814 16:1 #
-0.79098835343392759344993692138814 14:1 #
2.8475580723621392031930099619785 14:1 #
-0.79098835343392759344993692138814 3:1 #
2.8475580723621392031930099619785 10:1 #
-0.79098835343392759344993692138814 14:1 #
-0.79098835343392759344993692138814 12:1 #
-0.79098835343392759344993692138814 10:1 #
-0.79098835343392759344993692138814 14:1 #
-0.79098835343392759344993692138814 14:1 #
-0.79098835343392759344993692138814 8:1 #
2.8475580723621392031930099619785 14:1 #
-0.79098835343392759344993692138814 14:1 #
-0.79098835343392759344993692138814 10:1 #
-0.79098835343392759344993692138814 14:1 #
-0.79098835343392759344993692138814 8:1 #
-0.79098835343392759344993692138814 14:1 #
-0.79098835343392759344993692138814 10:1 #
-0.79098835343392759344993692138814 14:1 #
-0.79098835343392759344993692138814 8:1 #
2.8475580723621392031930099619785 14:1 #
2.8475580723621392031930099619785 8:1 #
-0.79098835343392759344993692138814 14:1 #
-0.79098835343392759344993692138814 8:1 #
-0.79098835343392759344993692138814 14:1 #
-0.79098835343392759344993692138814 8:1 #
-0.79098835343392759344993692138814 14:1 #
-0.79098835343392759344993692138814 8:1 #
-0.79098835343392759344993692138814 12:1 #
-0.79098835343392759344993692138814 10:1 #
-0.79098835343392759344993692138814 3:1 #
-0.79098835343392759344993692138814 16:1 #
2.8475580723621392031930099619785 3:1 #
-0.79098835343392759344993692138814 3:1 #
-0.79098835343392759344993692138814 16:1 #
2.8475580723621392031930099619785 16:1 #
-0.79098835343392759344993692138814 3:1 #
-0.79098835343392759344993692138814 16:1 #
-0.79098835343392759344993692138814 3:1 #
-0.79098835343392759344993692138814 16:1 #
-0.79098835343392759344993692138814 3:1 #
2.8475580723621392031930099619785 3:1 #
-0.79098835343392759344993692138814 16:1 #
-0.79098835343392759344993692138814 3:1 #
2.8475580723621392031930099619785 16:1 #
-0.79098835343392759344993692138814 16:1 #
-0.79098835343392759344993692138814 3:1 #
-0.79098835343392759344993692138814 16:1 #
-0.79098835343392759344993692138814 3:1 #
-0.79098835343392759344993692138814 16:1 #
-0.79098835343392759344993692138814 9:1 #
-0.79098835343392759344993692138814 16:1 #
2.8475580723621392031930099619785 16:1 #
-0.79098835343392759344993692138814 9:1 #
-0.79098835343392759344993692138814 16:1 #
2.8475580723621392031930099619785 9:1 #
-0.79098835343392759344993692138814 9:1 #
-0.79098835343392759344993692138814 16:1 #
-0.79098835343392759344993692138814 9:1 #
-0.79098835343392759344993692138814 16:1 #
-0.79098835343392759344993692138814 9:1 #
2.8475580723621392031930099619785 3:1 #
2.8475580723621392031930099619785 12:1 #
-0.79098835343392759344993692138814 3:1 #
-0.79098835343392759344993692138814 12:1 #
-0.79098835343392759344993692138814 3:1 #
-0.79098835343392759344993692138814 12:1 #
-0.79098835343392759344993692138814 3:1 #
-0.79098835343392759344993692138814 12:1 #
-0.79098835343392759344993692138814 3:1 #
-0.79098835343392759344993692138814 12:1 #
2.8475580723621392031930099619785 3:1 #
2.8475580723621392031930099619785 12:1 #
-0.79098835343392759344993692138814 3:1 #
-0.79098835343392759344993692138814 12:1 #
-0.79098835343392759344993692138814 3:1 #
-0.79098835343392759344993692138814 12:1 #
-0.79098835343392759344993692138814 3:1 #
-0.79098835343392759344993692138814 12:1 #
-0.79098835343392759344993692138814 3:1 #
2.8475580723621392031930099619785 3:1 #
2.8475580723621392031930099619785 12:1 #
-0.79098835343392759344993692138814 12:1 #
-0.79098835343392759344993692138814 3:1 #
-0.79098835343392759344993692138814 12:1 #
-0.79098835343392759344993692138814 3:1 #
-0.79098835343392759344993692138814 12:1 #
-0.79098835343392759344993692138814 3:1 #
-0.79098835343392759344993692138814 12:1 #
2.8475580723621392031930099619785 3:1 #
2.8475580723621392031930099619785 12:1 #
-0.79098835343392759344993692138814 3:1 #
-0.79098835343392759344993692138814 12:1 #
-0.73980250531592051110862939822255 14:1 #
-0.72639265411272757599903115988127 20:1 #
-0.75387953578482758132395247230306 8:1 #
-0.79098835343392759344993692138814 15:1 #
-0.79098835343392759344993692138814 13:1 #
-0.79098835343392759344993692138814 13:1 #
2.8475580723621392031930099619785 14:1 #
-0.79098835343392759344993692138814 18:1 #
2.8475580723621392031930099619785 8:1 #
-0.79098835343392759344993692138814 14:1 #
-0.79098835343392759344993692138814 18:1 #
0.79098693653862817143362917704508 18:1 #
-0.79098835343392759344993692138814 3:1 #
-0.79098835343392759344993692138814 18:1 #
-0.79098835343392759344993692138814 3:1 #
-0.79098835343392759344993692138814 18:1 #
-0.79098835343392759344993692138814 3:1 #
-0.79098835343392759344993692138814 18:1 #
2.8475580723621392031930099619785 18:1 #
-0.79098835343392759344993692138814 12:1 #
-0.79098835343392759344993692138814 18:1 #
-0.79098835343392759344993692138814 12:1 #
-0.79098835343392759344993692138814 18:1 #
2.8475580723621392031930099619785 3:1 #
-0.79098835343392759344993692138814 13:1 #
-0.79098835343392759344993692138814 3:1 #
-0.79098835343392759344993692138814 18:1 #
-0.79098835343392759344993692138814 3:1 #
2.8475580723621392031930099619785 13:1 #
-0.79098835343392759344993692138814 3:1 #
-0.79098835343392759344993692138814 13:1 #
-0.79098835343392759344993692138814 3:1 #
-0.79098835343392759344993692138814 18:1 #
2.8475580723621392031930099619785 3:1 #
-0.79098835343392759344993692138814 3:1 #
2.8475580723621392031930099619785 18:1 #
-0.79098835343392759344993692138814 18:1 #
-0.79098835343392759344993692138814 3:1 #
-0.79098835343392759344993692138814 18:1 #
-0.79098835343392759344993692138814 3:1 #
-0.79098835343392759344993692138814 18:1 #
-0.79098835343392759344993692138814 13:1 #
-0.79098835343392759344993692138814 18:1 #
2.8475580723621392031930099619785 18:1 #
-0.79098835343392759344993692138814 13:1 #
-0.79098835343392759344993692138814 18:1 #
-0.79098835343392759344993692138814 13:1 #
2.8475580723621392031930099619785 13:1 #
-0.79098835343392759344993692138814 18:1 #
-0.79098835343392759344993692138814 13:1 #
-0.79098835343392759344993692138814 18:1 #
-0.79098835343392759344993692138814 13:1 #
2.8475580723621392031930099619785 3:1 #
-0.79098835343392759344993692138814 14:1 #
-0.79098835343392759344993692138814 3:1 #
-0.79098835343392759344993692138814 14:1 #
-0.79098835343392759344993692138814 3:1 #
2.8475580723621392031930099619785 14:1 #
-0.79098835343392759344993692138814 14:1 #
-0.79098835343392759344993692138814 3:1 #
-0.79098835343392759344993692138814 14:1 #
-0.79098835343392759344993692138814 3:1 #
2.8475580723621392031930099619785 3:1 #
-0.79098835343392759344993692138814 14:1 #
-0.79098835343392759344993692138814 3:1 #
-0.79098835343392759344993692138814 14:1 #
-0.79098835343392759344993692138814 3:1 #
2.8475580723621392031930099619785 14:1 #
-0.79098835343392759344993692138814 14:1 #
-0.79098835343392759344993692138814 3:1 #
-0.79098835343392759344993692138814 14:1 #
-0.79098835343392759344993692138814 15:1 #
-0.79098835343392759344993692138814 20:1 #
2.8475580723621392031930099619785 15:1 #
-0.79098835343392759344993692138814 14:1 #
2.8475580723621392031930099619785 14:1 #
-0.79098835343392759344993692138814 15:1 #
-0.79098835343392759344993692138814 14:1 #
-0.79098835343392759344993692138814 15:1 #
-0.79098835343392759344993692138814 14:1 #
-0.79098835343392759344993692138814 15:1 #
-0.79098835343392759344993692138814 14:1 #
2.8475580723621392031930099619785 15:1 #
-0.79098835343392759344993692138814 15:1 #
-0.79098835343392759344993692138814 14:1 #
2.8475580723621392031930099619785 14:1 #
-0.79098835343392759344993692138814 15:1 #
-0.79098835343392759344993692138814 14:1 #
-0.79098835343392759344993692138814 15:1 #
-0.79098835343392759344993692138814 14:1 #
-0.79098835343392759344993692138814 15:1 #
-0.79098835343392759344993692138814 14:1 #
2.8475580723621392031930099619785 15:1 #
-0.79098835343392759344993692138814 15:1 #
2.8475580723621392031930099619785 18:1 #
-0.79098835343392759344993692138814 14:1 #
-0.79098835343392759344993692138814 18:1 #
2.8475580723621392031930099619785 14:1 #
-0.79098835343392759344993692138814 4:1 #
-0.79098835343392759344993692138814 14:1 #
-0.79098835343392759344993692138814 18:1 #
-0.79098835343392759344993692138814 4:1 #
-0.79098835343392759344993692138814 18:1 #
-0.79098835343392759344993692138814 4:1 #
2.8475580723621392031930099619785 4:1 #
-0.79098835343392759344993692138814 18:1 #
-0.79098835343392759344993692138814 4:1 #
2.8475580723621392031930099619785 18:1 #
-0.79098835343392759344993692138814 18:1 #
-0.79098835343392759344993692138814 4:1 #
-0.79098835343392759344993692138814 18:1 #
-0.79098835343392759344993692138814 4:1 #
-0.79098835343392759344993692138814 18:1 #
-0.79098835343392759344993692138814 9:1 #
-0.79098835343392759344993692138814 1:1 #
-0.79098835343392759344993692138814 20:1 #
2.8475580723621392031930099619785 2:1 #
0.6149718354541229281551295571262 15:1 #
2.8475580723621392031930099619785 8:1 #
2.8475580723621392031930099619785 14:1 #
-0.79098835343392759344993692138814 8:1 #
-0.79098835343392759344993692138814 14:1 #
-0.79098835343392759344993692138814 2:1 #
-0.79098835343392759344993692138814 3:1 #
-0.79098835343392759344993692138814 1:1 #
2.8475580723621392031930099619785 3:1 #
-0.79098835343392759344993692138814 2:1 #
2.8475580723621392031930099619785 2:1 #
-0.79098835343392759344993692138814 14:1 #
-0.79098835343392759344993692138814 2:1 #
2.8475580723621392031930099619785 20:1 #
-0.79098835343392759344993692138814 14:1 #
2.8475580723621392031930099619785 14:1 #
-0.79098835343392759344993692138814 8:1 #
-0.79098835343392759344993692138814 14:1 #
-0.79098835343392759344993692138814 8:1 #
-0.79098835343392759344993692138814 14:1 #
-0.79098835343392759344993692138814 20:1 #
-0.79098835343392759344993692138814 14:1 #
-0.79098835343392759344993692138814 20:1 #
-0.79098835343392759344993692138814 8:1 #
2.8475580723621392031930099619785 8:1 #
-0.79098835343392759344993692138814 20:1 #
-0.79098835343392759344993692138814 8:1 #
-0.79098835343392759344993692138814 20:1 #
-0.79098835343392759344993692138814 8:1 #
2.8475580723621392031930099619785 20:1 #
-0.79098835343392759344993692138814 20:1 #
-0.79098835343392759344993692138814 8:1 #
-0.79098835343392759344993692138814 20:1 #
-0.79098835343392759344993692138814 1:1 #
-0.79098835343392759344993692138814 20:1 #
2.8475580723621392031930099619785 1:1 #
-0.79098835343392759344993692138814 1:1 #
2.8475580723621392031930099619785 9:1 #
-0.79098835343392759344993692138814 8:1 #
-0.79098835343392759344993692138814 1:1 #
2.8475580723621392031930099619785 8:1 #
-0.79098835343392759344993692138814 8:1 #
-0.79098835343392759344993692138814 9:1 #
-0.79098835343392759344993692138814 8:1 #
-0.79098835343392759344993692138814 9:1 #
-0.79098835343392759344993692138814 8:1 #
-0.79098835343392759344993692138814 9:1 #
2.8475580723621392031930099619785 8:1 #
-0.79098835343392759344993692138814 8:1 #
2.8475580723621392031930099619785 4:1 #
-0.79098835343392759344993692138814 12:1 #
2.8475580723621392031930099619785 9:1 #
-0.79098835343392759344993692138814 4:1 #
2.8475580723621392031930099619785 12:1 #
-0.79098835343392759344993692138814 4:1 #
-0.79098835343392759344993692138814 9:1 #
-0.79098835343392759344993692138814 4:1 #
-0.79098835343392759344993692138814 12:1 #
-0.79098835343392759344993692138814 4:1 #
-0.79098835343392759344993692138814 12:1 #
2.8475580723621392031930099619785 4:1 #
-0.79098835343392759344993692138814 4:1 #
-0.79098835343392759344993692138814 12:1 #
2.8475580723621392031930099619785 12:1 #
-0.79098835343392759344993692138814 4:1 #
-0.79098835343392759344993692138814 12:1 #
-0.79098835343392759344993692138814 4:1 #
-0.79098835343392759344993692138814 12:1 #
-0.79098835343392759344993692138814 4:1 #
2.8475580723621392031930099619785 4:1 #
-0.79098835343392759344993692138814 9:1 #
-0.79098835343392759344993692138814 4:1 #
-0.79098835343392759344993692138814 9:1 #
-0.79098835343392759344993692138814 4:1 #
-0.79098835343392759344993692138814 9:1 #
2.8475580723621392031930099619785 9:1 #
-0.79098835343392759344993692138814 4:1 #
-0.79098835343392759344993692138814 9:1 #
2.8475580723621392031930099619785 4:1 #
-0.79098835343392759344993692138814 4:1 #
-0.79098835343392759344993692138814 9:1 #
-0.79098835343392759344993692138814 4:1 #
-0.79098835343392759344993692138814 9:1 #
2.8475580723621392031930099619785 9:1 #
-0.79098835343392759344993692138814 4:1 #
-0.79098835343392759344993692138814 9:1 #
-0.79098835343392759344993692138814 4:1 #
-0.79098835343392759344993692138814 9:1 #
2.8475580723621392031930099619785 4:1 #
-0.79098835343392759344993692138814 4:1 #
-0.79098835343392759344993692138814 9:1 #
-0.79098835343392759344993692138814 4:1 #
-0.79098835343392759344993692138814 9:1 #
2.8475580723621392031930099619785 9:1 #
-0.79098835343392759344993692138814 4:1 #
-0.79098835343392759344993692138814 9:1 #
2.8475580723621392031930099619785 4:1 #
-0.79098835343392759344993692138814 4:1 #
-0.79098835343392759344993692138814 12:1 #
-0.79098835343392759344993692138814 4:1 #
-0.79098835343392759344993692138814 12:1 #
2.8475580723621392031930099619785 12:1 #
-0.79098835343392759344993692138814 4:1 #
-0.79098835343392759344993692138814 12:1 #
-0.79098835343392759344993692138814 4:1 #
-0.79098835343392759344993692138814 12:1 #
2.8475580723621392031930099619785 4:1 #
-0.79098835343392759344993692138814 4:1 #
-0.79098835343392759344993692138814 12:1 #
-0.79098835343392759344993692138814 4:1 #
-0.79098835343392759344993692138814 15:1 #
-0.79098835343392759344993692138814 16:1 #
-0.79098835343392759344993692138814 4:1 #
-0.79098835343392759344993692138814 3:1 #
1.6657784075790587063892189689795 17:1 #
1.5432606869657903292392120420118 18:1 #
2.7161090740486657502117395779351 9:1 #
-0.79098835343392759344993692138814 9:1 #
0.77490029624146472553292142038117 16:1 #
-0.79098835343392759344993692138814 18:1 #
-0.79098835343392759344993692138814 17:1 #
2.8475580723621392031930099619785 12:1 #
-0.79098835343392759344993692138814 17:1 #
-0.79098835343392759344993692138814 9:1 #
-0.79098835343392759344993692138814 18:1 #
-0.79098835343392759344993692138814 9:1 #
-0.79098835343392759344993692138814 12:1 #
-0.79098835343392759344993692138814 9:1 #
-0.79098835343392759344993692138814 12:1 #
2.8475580723621392031930099619785 9:1 #
-0.79098835343392759344993692138814 9:1 #
-0.79098835343392759344993692138814 12:1 #
-0.79098835343392759344993692138814 9:1 #
-0.79098835343392759344993692138814 12:1 #
2.8475580723621392031930099619785 12:1 #
-0.79098835343392759344993692138814 9:1 #
-0.79098835343392759344993692138814 12:1 #
-0.79098835343392759344993692138814 17:1 #
-0.79098835343392759344993692138814 12:1 #
-0.79098835343392759344993692138814 12:1 #
-0.79098835343392759344993692138814 4:1 #
2.8475580723621392031930099619785 4:1 #
-0.79098835343392759344993692138814 9:1 #
-0.79098835343392759344993692138814 17:1 #
2.8475580723621392031930099619785 9:1 #
-0.79098835343392759344993692138814 3:1 #
2.8475580723621392031930099619785 17:1 #
-0.79098835343392759344993692138814 9:1 #
-0.79098835343392759344993692138814 9:1 #
-0.79098835343392759344993692138814 3:1 #
2.8475580723621392031930099619785 3:1 #
-0.79098835343392759344993692138814 9:1 #
-0.79098835343392759344993692138814 3:1 #
2.8475580723621392031930099619785 9:1 #
-0.79098835343392759344993692138814 9:1 #
-0.79098835343392759344993692138814 3:1 #
-0.79098835343392759344993692138814 9:1 #
-0.79098835343392759344993692138814 3:1 #
-0.79098835343392759344993692138814 9:1 #
-0.79098835343392759344993692138814 3:1 #
2.8475580723621392031930099619785 3:1 #
-0.79098835343392759344993692138814 9:1 #
-0.79098835343392759344993692138814 3:1 #
2.8475580723621392031930099619785 9:1 #
-0.79098835343392759344993692138814 9:1 #
-0.79098835343392759344993692138814 3:1 #
-0.79098835343392759344993692138814 9:1 #
-0.79098835343392759344993692138814 3:1 #
2.8475580723621392031930099619785 3:1 #
-0.79098835343392759344993692138814 9:1 #
-0.79098835343392759344993692138814 3:1 #
2.8475580723621392031930099619785 9:1 #
-0.79098835343392759344993692138814 9:1 #
-0.79098835343392759344993692138814 3:1 #
-0.79098835343392759344993692138814 9:1 #
-0.79098835343392759344993692138814 3:1 #
-0.79098835343392759344993692138814 9:1 #
-0.79098835343392759344993692138814 3:1 #
2.8475580723621392031930099619785 3:1 #
-0.79098835343392759344993692138814 9:1 #
-0.79098835343392759344993692138814 3:1 #
2.8475580723621392031930099619785 9:1 #
-0.79098835343392759344993692138814 9:1 #
-0.79098835343392759344993692138814 3:1 #
-0.79098835343392759344993692138814 9:1 #
-0.79098835343392759344993692138814 3:1 #
-0.79098835343392759344993692138814 9:1 #
-0.79098835343392759344993692138814 17:1 #
-0.79098835343392759344993692138814 4:1 #
-0.79098835343392759344993692138814 17:1 #
-0.79098835343392759344993692138814 4:1 #
-0.79098835343392759344993692138814 17:1 #
-0.79098835343392759344993692138814 4:1 #
2.8475580723621392031930099619785 17:1 #
-0.79098835343392759344993692138814 17:1 #
2.8475580723621392031930099619785 4:1 #
-0.79098835343392759344993692138814 4:1 #
-0.79098835343392759344993692138814 17:1 #
-0.79098835343392759344993692138814 4:1 #
-0.79098835343392759344993692138814 17:1 #
-0.79098835343392759344993692138814 4:1 #
-0.79098835343392759344993692138814 17:1 #
2.8475580723621392031930099619785 17:1 #
-0.79098835343392759344993692138814 4:1 #
2.8475580723621392031930099619785 4:1 #
-0.79098835343392759344993692138814 17:1 #
-0.79098835343392759344993692138814 4:1 #
-0.79098835343392759344993692138814 17:1 #
-0.79098835343392759344993692138814 4:1 #
-0.79098835343392759344993692138814 17:1 #
-0.79098835343392759344993692138814 4:1 #
2.8475580723621392031930099619785 17:1 #
-0.79098835343392759344993692138814 17:1 #
2.8475580723621392031930099619785 4:1 #
-0.79098835343392759344993692138814 12:1 #
2.8475580723621392031930099619785 12:1 #
-0.79098835343392759344993692138814 4:1 #
-0.79098835343392759344993692138814 12:1 #
-0.79098835343392759344993692138814 4:1 #
-0.79098835343392759344993692138814 12:1 #
-0.79098835343392759344993692138814 16:1 #
-0.79098835343392759344993692138814 15:1 #
-0.79098835343392759344993692138814 20:1 #
-0.6878010373420961887092062170268 1:1 #
-0.79098835343392759344993692138814 18:1 #
2.2224388735883882084465312800603 7:1 #
2.8475580723621392031930099619785 20:1 #
1.2128444851835318285537823612685 16:1 #
-0.79098835343392759344993692138814 7:1 #
2.8475580723621392031930099619785 18:1 #
-0.79098835343392759344993692138814 7:1 #
-0.79098835343392759344993692138814 4:1 #
-0.79098835343392759344993692138814 18:1 #
-0.79098835343392759344993692138814 15:1 #
2.8475580723621392031930099619785 18:1 #
-0.79098835343392759344993692138814 16:1 #
-0.79098835343392759344993692138814 18:1 #
2.8475580723621392031930099619785 16:1 #
-0.79098835343392759344993692138814 18:1 #
-0.79098835343392759344993692138814 16:1 #
-0.79098835343392759344993692138814 18:1 #
-0.79098835343392759344993692138814 16:1 #
-0.79098835343392759344993692138814 18:1 #
-0.79098835343392759344993692138814 16:1 #
-0.79098835343392759344993692138814 18:1 #
-0.79098835343392759344993692138814 16:1 #
2.8475580723621392031930099619785 16:1 #
-0.79098835343392759344993692138814 20:1 #
-0.79098835343392759344993692138814 9:1 #
2.8475580723621392031930099619785 9:1 #
-0.79098835343392759344993692138814 20:1 #
2.8475580723621392031930099619785 20:1 #
-0.79098835343392759344993692138814 9:1 #
-0.79098835343392759344993692138814 9:1 #
-0.79098835343392759344993692138814 16:1 #
-0.79098835343392759344993692138814 9:1 #
-0.79098835343392759344993692138814 16:1 #
-0.79098835343392759344993692138814 9:1 #
-0.79098835343392759344993692138814 16:1 #
2.8475580723621392031930099619785 9:1 #
2.8475580723621392031930099619785 16:1 #
-0.79098835343392759344993692138814 9:1 #
-0.79098835343392759344993692138814 16:1 #
-0.79098835343392759344993692138814 9:1 #
-0.79098835343392759344993692138814 16:1 #
-0.79098835343392759344993692138814 9:1 #
-0.79098835343392759344993692138814 16:1 #
2.8475580723621392031930099619785 18:1 #
-0.79098835343392759344993692138814 20:1 #
-0.79098835343392759344993692138814 18:1 #
-0.79098835343392759344993692138814 20:1 #
-0.79098835343392759344993692138814 18:1 #
-0.79098835343392759344993692138814 20:1 #
-0.79098835343392759344993692138814 18:1 #
2.8475580723621392031930099619785 20:1 #
-0.79098835343392759344993692138814 20:1 #
-0.79098835343392759344993692138814 18:1 #
2.8475580723621392031930099619785 18:1 #
-0.79098835343392759344993692138814 20:1 #
-0.79098835343392759344993692138814 18:1 #
-0.79098835343392759344993692138814 20:1 #
-0.79098835343392759344993692138814 18:1 #
-0.79098835343392759344993692138814 20:1 #
-0.79098835343392759344993692138814 18:1 #
2.8475580723621392031930099619785 20:1 #
-0.79098835343392759344993692138814 20:1 #
-0.79098835343392759344993692138814 7:1 #
-0.79098835343392759344993692138814 4:1 #
2.8475580723621392031930099619785 4:1 #
2.8475580723621392031930099619785 7:1 #
-0.79098835343392759344993692138814 12:1 #
-0.79098835343392759344993692138814 7:1 #
2.8475580723621392031930099619785 12:1 #
-0.79098835343392759344993692138814 12:1 #
-0.79098835343392759344993692138814 7:1 #
-0.79098835343392759344993692138814 12:1 #
-0.79098835343392759344993692138814 7:1 #
-0.79098835343392759344993692138814 12:1 #
-0.79098835343392759344993692138814 7:1 #
2.8475580723621392031930099619785 7:1 #
-0.79098835343392759344993692138814 12:1 #
-0.79098835343392759344993692138814 7:1 #
2.8475580723621392031930099619785 12:1 #
-0.79098835343392759344993692138814 12:1 #
-0.79098835343392759344993692138814 7:1 #
-0.79098835343392759344993692138814 12:1 #
-0.79098835343392759344993692138814 7:1 #
-0.79098835343392759344993692138814 12:1 #
-0.79098835343392759344993692138814 18:1 #
2.8475580723621392031930099619785 18:1 #
-0.79098835343392759344993692138814 4:1 #
-0.79098835343392759344993692138814 18:1 #
-0.79098835343392759344993692138814 4:1 #
-0.79098835343392759344993692138814 18:1 #
-0.79098835343392759344993692138814 4:1 #
-0.79098835343392759344993692138814 18:1 #
-0.79098835343392759344993692138814 4:1 #
2.8475580723621392031930099619785 4:1 #
2.8475580723621392031930099619785 18:1 #
-0.79098835343392759344993692138814 18:1 #
-0.79098835343392759344993692138814 4:1 #
-0.79098835343392759344993692138814 18:1 #
-0.79098835343392759344993692138814 4:1 #
-0.79098835343392759344993692138814 18:1 #
-0.79098835343392759344993692138814 4:1 #
2.8475580723621392031930099619785 4:1 #
-0.79098835343392759344993692138814 18:1 #
-0.79098835343392759344993692138814 4:1 #
2.8475580723621392031930099619785 18:1 #
-0.79098835343392759344993692138814 18:1 #
-0.79098835343392759344993692138814 4:1 #
-0.79098835343392759344993692138814 18:1 #
-0.79098835343392759344993692138814 9:1 #
-0.79098835343392759344993692138814 5:1 #
-0.79098835343392759344993692138814 6:1 #
-0.79098835343392759344993692138814 10:1 #
-0.79098835343392759344993692138814 13:1 #
1.3219237421398051246512750367401 16:1 #
2.676135371941115614902173547307 7:1 #
2.8475580723621392031930099619785 20:1 #
2.8475580723621392031930099619785 9:1 #
2.8475580723621392031930099619785 10:1 #
-0.79098835343392759344993692138814 7:1 #
2.8475580723621392031930099619785 6:1 #
-0.79098835343392759344993692138814 16:1 #
-0.79098835343392759344993692138814 4:1 #
-0.79098835343392759344993692138814 20:1 #
-0.79098835343392759344993692138814 7:1 #
-0.79098835343392759344993692138814 18:1 #
-0.79098835343392759344993692138814 9:1 #
-0.79098835343392759344993692138814 16:1 #
2.8475580723621392031930099619785 16:1 #
-0.79098835343392759344993692138814 5:1 #
-0.79098835343392759344993692138814 9:1 #
2.797299437484696671418760161032 7:1 #
-0.79098835343392759344993692138814 13:1 #
-0.79098835343392759344993692138814 7:1 #
2.8475580723621392031930099619785 13:1 #
-0.79098835343392759344993692138814 7:1 #
-0.79098835343392759344993692138814 13:1 #
-0.79098835343392759344993692138814 7:1 #
-0.79098835343392759344993692138814 13:1 #
-0.79098835343392759344993692138814 7:1 #
2.8475580723621392031930099619785 7:1 #
-0.79098835343392759344993692138814 13:1 #
-0.79098835343392759344993692138814 7:1 #
2.8475580723621392031930099619785 18:1 #
-0.79098835343392759344993692138814 9:1 #
-0.79098835343392759344993692138814 20:1 #
-0.79098835343392759344993692138814 18:1 #
-0.79098835343392759344993692138814 20:1 #
-0.79098835343392759344993692138814 18:1 #
-0.79098835343392759344993692138814 20:1 #
-0.79098835343392759344993692138814 18:1 #
-0.79098835343392759344993692138814 20:1 #
2.8475580723621392031930099619785 20:1 #
-0.79098835343392759344993692138814 18:1 #
-0.79098835343392759344993692138814 20:1 #
2.8475580723621392031930099619785 18:1 #
-0.79098835343392759344993692138814 18:1 #
-0.79098835343392759344993692138814 20:1 #
-0.79098835343392759344993692138814 18:1 #
-0.79098835343392759344993692138814 20:1 #
-0.79098835343392759344993692138814 18:1 #
2.8475580723621392031930099619785 20:1 #
-0.79098835343392759344993692138814 9:1 #
-0.79098835343392759344993692138814 20:1 #
2.8475580723621392031930099619785 9:1 #
-0.79098835343392759344993692138814 9:1 #
-0.79098835343392759344993692138814 20:1 #
-0.79098835343392759344993692138814 9:1 #
-0.79098835343392759344993692138814 20:1 #
-0.79098835343392759344993692138814 9:1 #
-0.79098835343392759344993692138814 20:1 #
2.8475580723621392031930099619785 20:1 #
2.8475580723621392031930099619785 9:1 #
-0.79098835343392759344993692138814 9:1 #
-0.79098835343392759344993692138814 20:1 #
-0.79098835343392759344993692138814 9:1 #
-0.79098835343392759344993692138814 20:1 #
-0.79098835343392759344993692138814 9:1 #
-0.79098835343392759344993692138814 20:1 #
-0.79098835343392759344993692138814 9:1 #
-0.79098835343392759344993692138814 7:1 #
2.8475580723621392031930099619785 16:1 #
-0.79098835343392759344993692138814 10:1 #
-0.79098835343392759344993692138814 16:1 #
-0.79098835343392759344993692138814 16:1 #
-0.79098835343392759344993692138814 10:1 #
-0.79098835343392759344993692138814 16:1 #
-0.79098835343392759344993692138814 10:1 #
-0.79098835343392759344993692138814 16:1 #
2.8475580723621392031930099619785 4:1 #
-0.79098835343392759344993692138814 4:1 #
-0.79098835343392759344993692138814 16:1 #
2.8475580723621392031930099619785 4:1 #
-0.79098835343392759344993692138814 4:1 #
-0.79098835343392759344993692138814 16:1 #
-0.79098835343392759344993692138814 4:1 #
-0.79098835343392759344993692138814 16:1 #
-0.79098835343392759344993692138814 4:1 #
2.8475580723621392031930099619785 16:1 #
-0.79098835343392759344993692138814 16:1 #
-0.79098835343392759344993692138814 4:1 #
-0.79098835343392759344993692138814 16:1 #
-0.79098835343392759344993692138814 4:1 #
-0.79098835343392759344993692138814 16:1 #
-0.79098835343392759344993692138814 4:1 #
-0.79098835343392759344993692138814 16:1 #
2.8475580723621392031930099619785 16:1 #
-0.79098835343392759344993692138814 4:1 #
-0.79098835343392759344993692138814 16:1 #
2.8475580723621392031930099619785 4:1 #
-0.79098835343392759344993692138814 4:1 #
-0.79098835343392759344993692138814 16:1 #
-0.79098835343392759344993692138814 4:1 #
-0.79098835343392759344993692138814 16:1 #
-0.79098835343392759344993692138814 4:1 #
2.8475580723621392031930099619785 10:1 #
-0.79098835343392759344993692138814 16:1 #
2.8475580723621392031930099619785 16:1 #
-0.79098835343392759344993692138814 10:1 #
-0.79098835343392759344993692138814 16:1 #
-0.79098835343392759344993692138814 10:1 #
-0.79098835343392759344993692138814 16:1 #
-0.79098835343392759344993692138814 10:1 #
-0.79098835343392759344993692138814 16:1 #
-0.79098835343392759344993692138814 10:1 #
-0.79098835343392759344993692138814 14:1 #
-0.79098835343392759344993692138814 6:1 #
-0.79098835343392759344993692138814 16:1 #
-0.79098835343392759344993692138814 8:1 #
-0.79098835343392759344993692138814 19:1 #
1.4629027312489630840985910253949 9:1 #
2.8475580723621392031930099619785 16:1 #
-0.79098835343392759344993692138814 7:1 #
-0.79098835343392759344993692138814 20:1 #
2.8475580723621392031930099619785 14:1 #
-0.79098835343392759344993692138814 9:1 #
-0.79098835343392759344993692138814 7:1 #
-0.79098835343392759344993692138814 20:1 #
-0.79098835343392759344993692138814 6:1 #
2.8475580723621392031930099619785 20:1 #
-0.79098835343392759344993692138814 8:1 #
-0.79098835343392759344993692138814 20:1 #
-0.79098835343392759344993692138814 20:1 #
-0.79098835343392759344993692138814 7:1 #
-0.79098835343392759344993692138814 20:1 #
-0.79098835343392759344993692138814 20:1 #
-0.79098835343392759344993692138814 6:1 #
2.8475580723621392031930099619785 6:1 #
-0.79098835343392759344993692138814 14:1 #
2.8475580723621392031930099619785 20:1 #
-0.79098835343392759344993692138814 6:1 #
-0.79098835343392759344993692138814 20:1 #
-0.79098835343392759344993692138814 6:1 #
-0.79098835343392759344993692138814 20:1 #
-0.79098835343392759344993692138814 6:1 #
-0.79098835343392759344993692138814 20:1 #
-0.79098835343392759344993692138814 9:1 #
2.8475580723621392031930099619785 9:1 #
-0.79098835343392759344993692138814 16:1 #
2.8475580723621392031930099619785 9:1 #
-0.79098835343392759344993692138814 9:1 #
-0.79098835343392759344993692138814 16:1 #
-0.79098835343392759344993692138814 9:1 #
-0.79098835343392759344993692138814 16:1 #
2.8475580723621392031930099619785 16:1 #
-0.79098835343392759344993692138814 9:1 #
-0.79098835343392759344993692138814 16:1 #
-0.79098835343392759344993692138814 9:1 #
2.8475580723621392031930099619785 9:1 #
-0.79098835343392759344993692138814 16:1 #
-0.79098835343392759344993692138814 9:1 #
-0.79098835343392759344993692138814 16:1 #
-0.79098835343392759344993692138814 9:1 #
-0.79098835343392759344993692138814 20:1 #
-0.79098835343392759344993692138814 19:1 #
-0.79098835343392759344993692138814 9:1 #
-0.79098835343392759344993692138814 19:1 #
2.8475580723621392031930099619785 16:1 #
2.8475580723621392031930099619785 20:1 #
-0.79098835343392759344993692138814 16:1 #
-0.79098835343392759344993692138814 20:1 #
-0.79098835343392759344993692138814 16:1 #
-0.79098835343392759344993692138814 20:1 #
-0.79098835343392759344993692138814 16:1 #
-0.79098835343392759344993692138814 20:1 #
-0.79098835343392759344993692138814 16:1 #
-0.79098835343392759344993692138814 20:1 #
2.8475580723621392031930099619785 16:1 #
2.8475580723621392031930099619785 20:1 #
-0.79098835343392759344993692138814 16:1 #
-0.79098835343392759344993692138814 20:1 #
-0.79098835343392759344993692138814 16:1 #
-0.79098835343392759344993692138814 20:1 #
-0.79098835343392759344993692138814 16:1 #
-0.79098835343392759344993692138814 20:1 #
-0.79098835343392759344993692138814 16:1 #
2.8475580723621392031930099619785 16:1 #
-0.79098835343392759344993692138814 8:1 #
2.8475580723621392031930099619785 8:1 #
-0.79098835343392759344993692138814 16:1 #
-0.79098835343392759344993692138814 8:1 #
-0.79098835343392759344993692138814 16:1 #
-0.79098835343392759344993692138814 8:1 #
-0.79098835343392759344993692138814 16:1 #
-0.79098835343392759344993692138814 8:1 #
2.8475580723621392031930099619785 16:1 #
-0.79098835343392759344993692138814 16:1 #
-0.79098835343392759344993692138814 8:1 #
2.8475580723621392031930099619785 8:1 #
-0.79098835343392759344993692138814 16:1 #
-0.79098835343392759344993692138814 8:1 #
-0.79098835343392759344993692138814 16:1 #
-0.79098835343392759344993692138814 8:1 #
-0.79098835343392759344993692138814 16:1 #
-0.79098835343392759344993692138814 8:1 #
2.8475580723621392031930099619785 16:1 #
-0.79098835343392759344993692138814 16:1 #
-0.79098835343392759344993692138814 9:1 #
2.8475580723621392031930099619785 8:1 #
-0.79098835343392759344993692138814 5:1 #
2.8475580723621392031930099619785 10:1 #
2.8475580723621392031930099619785 9:1 #
-0.79098835343392759344993692138814 10:1 #
-0.79098835343392759344993692138814 8:1 #
-0.79098835343392759344993692138814 10:1 #
-0.79098835343392759344993692138814 8:1 #
-0.79098835343392759344993692138814 10:1 #
