SVM-light Version V6.02
2 # kernel type
3 # kernel parameter -d 
1 # kernel parameter -g 
1 # kernel parameter -s 
1 # kernel parameter -r 
empty# kernel parameter -u 
20 # highest feature index 
181756 # number of training documents 
74780 # number of support vectors plus 1 
0.99978222 # threshold b, each following line is a SV (starting with alpha*y)
-0.79025463753805014199826928233961 14:1 #
-0.790988353428057178184928943665 18:1 #
-0.28326380615079571612113795708865 10:1 #
-0.790988353428057178184928943665 16:1 #
0.790988353428057178184928943665 16:1 #
0.790988353428057178184928943665 16:1 #
0.790988353428057178184928943665 18:1 #
0.790988353428057178184928943665 17:1 #
0.790988353428057178184928943665 17:1 #
0.790988353428057178184928943665 18:1 #
-0.790988353428057178184928943665 16:1 #
0.790988353428057178184928943665 4:1 #
-0.77466741138102590547021009115269 16:1 #
0.790988353428057178184928943665 4:1 #
-0.790988353428057178184928943665 18:1 #
0.790988353428057178184928943665 20:1 #
-0.790988353428057178184928943665 18:1 #
0.790988353428057178184928943665 20:1 #
-0.790988353428057178184928943665 17:1 #
0.790988353428057178184928943665 16:1 #
-0.790988353428057178184928943665 17:1 #
0.790988353428057178184928943665 16:1 #
-0.790988353428057178184928943665 4:1 #
0.790988353428057178184928943665 14:1 #
-0.790988353428057178184928943665 16:1 #
0.790988353428057178184928943665 14:1 #
-0.790988353428057178184928943665 20:1 #
0.790988353428057178184928943665 6:1 #
0.790988353428057178184928943665 18:1 #
-0.790988353428057178184928943665 14:1 #
0.790988353428057178184928943665 3:1 #
-0.790988353428057178184928943665 3:1 #
0.790988353428057178184928943665 4:1 #
0.790988353428057178184928943665 16:1 #
-0.790988353428057178184928943665 3:1 #
0.790988353428057178184928943665 3:1 #
-0.790988353428057178184928943665 4:1 #
-0.790988353428057178184928943665 16:1 #
0.790988353428057178184928943665 4:1 #
-0.790988353428057178184928943665 3:1 #
0.790988353428057178184928943665 3:1 #
-0.790988353428057178184928943665 4:1 #
0.790988353428057178184928943665 4:1 #
-0.790988353428057178184928943665 3:1 #
0.790988353428057178184928943665 3:1 #
-0.790988353428057178184928943665 4:1 #
0.790988353428057178184928943665 4:1 #
-0.790988353428057178184928943665 3:1 #
0.790988353428057178184928943665 3:1 #
-0.790988353428057178184928943665 4:1 #
0.790988353428057178184928943665 4:1 #
-0.790988353428057178184928943665 3:1 #
0.790988353428057178184928943665 3:1 #
-0.790988353428057178184928943665 4:1 #
0.790988353428057178184928943665 4:1 #
-0.790988353428057178184928943665 3:1 #
0.790988353428057178184928943665 3:1 #
-0.790988353428057178184928943665 4:1 #
0.790988353428057178184928943665 4:1 #
-0.790988353428057178184928943665 3:1 #
0.790988353428057178184928943665 3:1 #
-0.790988353428057178184928943665 4:1 #
0.790988353428057178184928943665 4:1 #
-0.790988353428057178184928943665 3:1 #
0.790988353428057178184928943665 3:1 #
-0.790988353428057178184928943665 4:1 #
0.790988353428057178184928943665 4:1 #
-0.790988353428057178184928943665 3:1 #
0.790988353428057178184928943665 3:1 #
-0.790988353428057178184928943665 4:1 #
0.790988353428057178184928943665 4:1 #
-0.790988353428057178184928943665 3:1 #
0.790988353428057178184928943665 3:1 #
-0.790988353428057178184928943665 4:1 #
0.790988353428057178184928943665 4:1 #
-0.790988353428057178184928943665 3:1 #
0.790988353428057178184928943665 3:1 #
-0.790988353428057178184928943665 4:1 #
0.790988353428057178184928943665 4:1 #
-0.790988353428057178184928943665 3:1 #
0.790988353428057178184928943665 3:1 #
-0.790988353428057178184928943665 4:1 #
0.790988353428057178184928943665 4:1 #
-0.790988353428057178184928943665 3:1 #
0.790988353428057178184928943665 3:1 #
-0.790988353428057178184928943665 4:1 #
0.790988353428057178184928943665 4:1 #
-0.790988353428057178184928943665 3:1 #
0.790988353428057178184928943665 3:1 #
-0.790988353428057178184928943665 4:1 #
0.790988353428057178184928943665 4:1 #
-0.790988353428057178184928943665 3:1 #
0.790988353428057178184928943665 3:1 #
-0.790988353428057178184928943665 4:1 #
0.790988353428057178184928943665 4:1 #
-0.790988353428057178184928943665 3:1 #
0.790988353428057178184928943665 3:1 #
-0.790988353428057178184928943665 4:1 #
0.790988353428057178184928943665 4:1 #
-0.790988353428057178184928943665 3:1 #
0.790988353428057178184928943665 3:1 #
-0.790988353428057178184928943665 4:1 #
0.790988353428057178184928943665 4:1 #
-0.790988353428057178184928943665 3:1 #
0.790988353428057178184928943665 3:1 #
-0.790988353428057178184928943665 4:1 #
0.790988353428057178184928943665 4:1 #
-0.790988353428057178184928943665 3:1 #
0.790988353428057178184928943665 3:1 #
-0.790988353428057178184928943665 4:1 #
0.790988353428057178184928943665 4:1 #
-0.790988353428057178184928943665 3:1 #
0.790988353428057178184928943665 3:1 #
-0.790988353428057178184928943665 4:1 #
0.790988353428057178184928943665 4:1 #
-0.790988353428057178184928943665 3:1 #
0.790988353428057178184928943665 3:1 #
-0.790988353428057178184928943665 4:1 #
0.790988353428057178184928943665 4:1 #
-0.790988353428057178184928943665 3:1 #
0.790988353428057178184928943665 3:1 #
-0.790988353428057178184928943665 4:1 #
0.790988353428057178184928943665 4:1 #
-0.790988353428057178184928943665 3:1 #
0.790988353428057178184928943665 3:1 #
-0.790988353428057178184928943665 4:1 #
0.790988353428057178184928943665 4:1 #
-0.790988353428057178184928943665 3:1 #
0.790988353428057178184928943665 3:1 #
-0.790988353428057178184928943665 4:1 #
0.790988353428057178184928943665 4:1 #
-0.790988353428057178184928943665 3:1 #
0.790988353428057178184928943665 3:1 #
-0.790988353428057178184928943665 4:1 #
0.790988353428057178184928943665 4:1 #
-0.790988353428057178184928943665 3:1 #
0.790988353428057178184928943665 3:1 #
-0.790988353428057178184928943665 4:1 #
0.790988353428057178184928943665 4:1 #
-0.790988353428057178184928943665 3:1 #
0.790988353428057178184928943665 3:1 #
-0.790988353428057178184928943665 4:1 #
0.790988353428057178184928943665 4:1 #
-0.790988353428057178184928943665 3:1 #
0.790988353428057178184928943665 3:1 #
-0.790988353428057178184928943665 4:1 #
0.790988353428057178184928943665 4:1 #
-0.790988353428057178184928943665 3:1 #
0.790988353428057178184928943665 3:1 #
-0.790988353428057178184928943665 4:1 #
0.790988353428057178184928943665 4:1 #
-0.790988353428057178184928943665 3:1 #
0.790988353428057178184928943665 3:1 #
-0.790988353428057178184928943665 4:1 #
0.790988353428057178184928943665 4:1 #
-0.790988353428057178184928943665 3:1 #
0.790988353428057178184928943665 3:1 #
-0.790988353428057178184928943665 4:1 #
0.790988353428057178184928943665 4:1 #
-0.790988353428057178184928943665 3:1 #
0.790988353428057178184928943665 3:1 #
-0.790988353428057178184928943665 4:1 #
0.790988353428057178184928943665 4:1 #
-0.790988353428057178184928943665 3:1 #
0.790988353428057178184928943665 3:1 #
-0.790988353428057178184928943665 4:1 #
0.790988353428057178184928943665 4:1 #
-0.790988353428057178184928943665 3:1 #
0.790988353428057178184928943665 3:1 #
-0.790988353428057178184928943665 4:1 #
0.790988353428057178184928943665 4:1 #
-0.790988353428057178184928943665 3:1 #
0.790988353428057178184928943665 3:1 #
-0.790988353428057178184928943665 4:1 #
0.790988353428057178184928943665 4:1 #
-0.790988353428057178184928943665 3:1 #
0.790988353428057178184928943665 3:1 #
-0.790988353428057178184928943665 4:1 #
0.790988353428057178184928943665 4:1 #
-0.790988353428057178184928943665 3:1 #
0.790988353428057178184928943665 3:1 #
-0.790988353428057178184928943665 4:1 #
0.790988353428057178184928943665 4:1 #
-0.790988353428057178184928943665 3:1 #
0.790988353428057178184928943665 3:1 #
-0.790988353428057178184928943665 4:1 #
0.790988353428057178184928943665 4:1 #
-0.790988353428057178184928943665 3:1 #
0.790988353428057178184928943665 3:1 #
-0.790988353428057178184928943665 4:1 #
0.790988353428057178184928943665 4:1 #
-0.790988353428057178184928943665 3:1 #
0.790988353428057178184928943665 3:1 #
-0.790988353428057178184928943665 4:1 #
0.790988353428057178184928943665 4:1 #
-0.790988353428057178184928943665 3:1 #
0.790988353428057178184928943665 3:1 #
-0.790988353428057178184928943665 4:1 #
0.790988353428057178184928943665 4:1 #
-0.790988353428057178184928943665 3:1 #
0.790988353428057178184928943665 3:1 #
-0.790988353428057178184928943665 4:1 #
0.790988353428057178184928943665 4:1 #
-0.790988353428057178184928943665 3:1 #
0.790988353428057178184928943665 3:1 #
-0.790988353428057178184928943665 4:1 #
0.790988353428057178184928943665 4:1 #
-0.790988353428057178184928943665 3:1 #
0.790988353428057178184928943665 3:1 #
-0.790988353428057178184928943665 4:1 #
0.790988353428057178184928943665 4:1 #
-0.790988353428057178184928943665 3:1 #
0.790988353428057178184928943665 3:1 #
-0.790988353428057178184928943665 4:1 #
0.790988353428057178184928943665 4:1 #
-0.790988353428057178184928943665 3:1 #
-0.790988353428057178184928943665 20:1 #
-0.39549399984298533317073065518343 17:1 #
-0.790988353428057178184928943665 4:1 #
0.790988353428057178184928943665 7:1 #
0.790988353428057178184928943665 3:1 #
-0.40566318492106973048194618058915 7:1 #
-0.790988353428057178184928943665 18:1 #
0.790988353428057178184928943665 20:1 #
0.790988353428057178184928943665 17:1 #
-0.790988353428057178184928943665 7:1 #
0.790988353428057178184928943665 7:1 #
0.790988353428057178184928943665 4:1 #
-0.790988353428057178184928943665 17:1 #
0.790988353428057178184928943665 17:1 #
-0.790988353428057178184928943665 4:1 #
-0.790988353428057178184928943665 7:1 #
0.790988353428057178184928943665 7:1 #
-0.790988353428057178184928943665 17:1 #
0.790988353428057178184928943665 17:1 #
-0.790988353428057178184928943665 7:1 #
-0.790988353428057178184928943665 17:1 #
0.790988353428057178184928943665 7:1 #
-0.790988353428057178184928943665 3:1 #
0.790988353428057178184928943665 3:1 #
-0.790988353428057178184928943665 7:1 #
0.790988353428057178184928943665 7:1 #
-0.790988353428057178184928943665 3:1 #
0.790988353428057178184928943665 3:1 #
-0.790988353428057178184928943665 7:1 #
0.790988353428057178184928943665 7:1 #
-0.790988353428057178184928943665 3:1 #
0.790988353428057178184928943665 3:1 #
-0.790988353428057178184928943665 7:1 #
0.790988353428057178184928943665 7:1 #
-0.790988353428057178184928943665 3:1 #
0.790988353428057178184928943665 3:1 #
-0.790988353428057178184928943665 7:1 #
0.790988353428057178184928943665 7:1 #
-0.790988353428057178184928943665 3:1 #
0.790988353428057178184928943665 3:1 #
-0.790988353428057178184928943665 7:1 #
0.790988353428057178184928943665 7:1 #
-0.790988353428057178184928943665 3:1 #
0.790988353428057178184928943665 3:1 #
-0.790988353428057178184928943665 7:1 #
0.790988353428057178184928943665 7:1 #
-0.790988353428057178184928943665 3:1 #
0.790988353428057178184928943665 3:1 #
-0.790988353428057178184928943665 7:1 #
0.790988353428057178184928943665 7:1 #
-0.790988353428057178184928943665 3:1 #
0.790988353428057178184928943665 3:1 #
-0.790988353428057178184928943665 7:1 #
0.790988353428057178184928943665 7:1 #
-0.790988353428057178184928943665 3:1 #
0.790988353428057178184928943665 3:1 #
-0.790988353428057178184928943665 7:1 #
0.790988353428057178184928943665 7:1 #
-0.790988353428057178184928943665 3:1 #
0.790988353428057178184928943665 3:1 #
-0.790988353428057178184928943665 7:1 #
0.790988353428057178184928943665 7:1 #
-0.790988353428057178184928943665 3:1 #
0.790988353428057178184928943665 3:1 #
-0.790988353428057178184928943665 7:1 #
0.790988353428057178184928943665 7:1 #
-0.790988353428057178184928943665 3:1 #
0.790988353428057178184928943665 3:1 #
-0.790988353428057178184928943665 7:1 #
0.790988353428057178184928943665 7:1 #
-0.790988353428057178184928943665 3:1 #
0.790988353428057178184928943665 3:1 #
-0.790988353428057178184928943665 7:1 #
0.790988353428057178184928943665 7:1 #
-0.790988353428057178184928943665 3:1 #
0.790988353428057178184928943665 3:1 #
-0.790988353428057178184928943665 7:1 #
0.790988353428057178184928943665 7:1 #
-0.790988353428057178184928943665 3:1 #
0.790988353428057178184928943665 3:1 #
-0.790988353428057178184928943665 7:1 #
0.790988353428057178184928943665 7:1 #
-0.790988353428057178184928943665 3:1 #
0.790988353428057178184928943665 3:1 #
-0.790988353428057178184928943665 7:1 #
0.790988353428057178184928943665 7:1 #
-0.790988353428057178184928943665 3:1 #
0.790988353428057178184928943665 3:1 #
-0.790988353428057178184928943665 7:1 #
0.790988353428057178184928943665 7:1 #
-0.790988353428057178184928943665 3:1 #
0.790988353428057178184928943665 3:1 #
-0.790988353428057178184928943665 7:1 #
0.790988353428057178184928943665 7:1 #
-0.790988353428057178184928943665 3:1 #
0.790988353428057178184928943665 3:1 #
-0.790988353428057178184928943665 7:1 #
0.790988353428057178184928943665 7:1 #
-0.790988353428057178184928943665 3:1 #
0.790988353428057178184928943665 3:1 #
-0.790988353428057178184928943665 7:1 #
0.790988353428057178184928943665 7:1 #
-0.790988353428057178184928943665 3:1 #
0.790988353428057178184928943665 3:1 #
-0.790988353428057178184928943665 7:1 #
0.790988353428057178184928943665 7:1 #
-0.790988353428057178184928943665 3:1 #
0.790988353428057178184928943665 3:1 #
-0.790988353428057178184928943665 7:1 #
0.790988353428057178184928943665 7:1 #
-0.790988353428057178184928943665 3:1 #
0.790988353428057178184928943665 3:1 #
-0.790988353428057178184928943665 7:1 #
0.790988353428057178184928943665 7:1 #
-0.790988353428057178184928943665 3:1 #
0.790988353428057178184928943665 3:1 #
-0.790988353428057178184928943665 7:1 #
0.790988353428057178184928943665 7:1 #
-0.790988353428057178184928943665 3:1 #
0.790988353428057178184928943665 3:1 #
-0.790988353428057178184928943665 7:1 #
0.790988353428057178184928943665 7:1 #
-0.790988353428057178184928943665 3:1 #
0.790988353428057178184928943665 3:1 #
-0.790988353428057178184928943665 7:1 #
0.790988353428057178184928943665 7:1 #
-0.790988353428057178184928943665 3:1 #
0.790988353428057178184928943665 3:1 #
-0.790988353428057178184928943665 7:1 #
0.790988353428057178184928943665 7:1 #
-0.790988353428057178184928943665 3:1 #
0.790988353428057178184928943665 3:1 #
-0.790988353428057178184928943665 7:1 #
0.790988353428057178184928943665 7:1 #
-0.790988353428057178184928943665 3:1 #
0.790988353428057178184928943665 3:1 #
-0.790988353428057178184928943665 7:1 #
0.790988353428057178184928943665 7:1 #
-0.790988353428057178184928943665 3:1 #
0.790988353428057178184928943665 3:1 #
-0.790988353428057178184928943665 7:1 #
0.790988353428057178184928943665 7:1 #
-0.790988353428057178184928943665 3:1 #
-0.790988353428057178184928943665 16:1 #
-0.790988353428057178184928943665 10:1 #
-0.5734678673571430573829843524436 2:1 #
-0.57346786735714283533837942741229 19:1 #
0.790988353428057178184928943665 15:1 #
0.790988353428057178184928943665 9:1 #
0.790988353428057178184928943665 1:1 #
-0.21752580142776134497495377218002 15:1 #
0.790988353428057178184928943665 3:1 #
-0.790988353428057178184928943665 9:1 #
-0.71031939787281916931505065804231 1:1 #
0.790988353428057178184928943665 16:1 #
-0.790988353428057178184928943665 9:1 #
-0.790988353428057178184928943665 1:1 #
0.790988353428057178184928943665 2:1 #
0.790988353428057178184928943665 3:1 #
-0.790988353428057178184928943665 15:1 #
0.790988353428057178184928943665 10:1 #
0.790988353428057178184928943665 15:1 #
-0.790988353428057178184928943665 3:1 #
0.790988353428057178184928943665 19:1 #
-0.5352730268820971026855204399908 2:1 #
0.790988353428057178184928943665 2:1 #
-0.790988353428057178184928943665 7:1 #
0.790988353428057178184928943665 7:1 #
-0.790988353428057178184928943665 2:1 #
0.790988353428057178184928943665 2:1 #
-0.790988353428057178184928943665 7:1 #
0.790988353428057178184928943665 7:1 #
-0.790988353428057178184928943665 2:1 #
0.790988353428057178184928943665 2:1 #
-0.790988353428057178184928943665 7:1 #
0.790988353428057178184928943665 7:1 #
-0.790988353428057178184928943665 2:1 #
0.790988353428057178184928943665 2:1 #
-0.790988353428057178184928943665 7:1 #
0.790988353428057178184928943665 7:1 #
-0.790988353428057178184928943665 2:1 #
0.790988353428057178184928943665 2:1 #
-0.790988353428057178184928943665 7:1 #
0.790988353428057178184928943665 7:1 #
-0.790988353428057178184928943665 2:1 #
0.790988353428057178184928943665 2:1 #
-0.790988353428057178184928943665 7:1 #
0.790988353428057178184928943665 7:1 #
-0.790988353428057178184928943665 2:1 #
0.790988353428057178184928943665 2:1 #
-0.790988353428057178184928943665 7:1 #
0.790988353428057178184928943665 7:1 #
-0.790988353428057178184928943665 2:1 #
0.790988353428057178184928943665 2:1 #
-0.790988353428057178184928943665 7:1 #
0.790988353428057178184928943665 7:1 #
-0.790988353428057178184928943665 2:1 #
0.790988353428057178184928943665 2:1 #
-0.790988353428057178184928943665 7:1 #
0.790988353428057178184928943665 7:1 #
-0.790988353428057178184928943665 2:1 #
0.790988353428057178184928943665 2:1 #
-0.790988353428057178184928943665 7:1 #
0.790988353428057178184928943665 7:1 #
-0.790988353428057178184928943665 2:1 #
0.790988353428057178184928943665 2:1 #
-0.790988353428057178184928943665 7:1 #
0.790988353428057178184928943665 7:1 #
-0.790988353428057178184928943665 2:1 #
0.790988353428057178184928943665 2:1 #
-0.790988353428057178184928943665 7:1 #
0.790988353428057178184928943665 7:1 #
-0.790988353428057178184928943665 2:1 #
0.790988353428057178184928943665 2:1 #
-0.790988353428057178184928943665 7:1 #
0.790988353428057178184928943665 7:1 #
-0.790988353428057178184928943665 2:1 #
0.790988353428057178184928943665 2:1 #
-0.790988353428057178184928943665 7:1 #
0.790988353428057178184928943665 7:1 #
-0.790988353428057178184928943665 2:1 #
0.790988353428057178184928943665 2:1 #
-0.790988353428057178184928943665 7:1 #
0.790988353428057178184928943665 7:1 #
-0.790988353428057178184928943665 2:1 #
0.790988353428057178184928943665 2:1 #
-0.790988353428057178184928943665 7:1 #
0.790988353428057178184928943665 7:1 #
-0.790988353428057178184928943665 2:1 #
0.790988353428057178184928943665 2:1 #
-0.790988353428057178184928943665 7:1 #
0.790988353428057178184928943665 7:1 #
-0.790988353428057178184928943665 2:1 #
0.790988353428057178184928943665 2:1 #
-0.790988353428057178184928943665 7:1 #
0.790988353428057178184928943665 7:1 #
-0.790988353428057178184928943665 2:1 #
0.790988353428057178184928943665 2:1 #
-0.790988353428057178184928943665 7:1 #
0.790988353428057178184928943665 7:1 #
-0.790988353428057178184928943665 2:1 #
0.790988353428057178184928943665 2:1 #
-0.790988353428057178184928943665 7:1 #
0.790988353428057178184928943665 7:1 #
-0.790988353428057178184928943665 2:1 #
0.790988353428057178184928943665 2:1 #
-0.790988353428057178184928943665 7:1 #
0.790988353428057178184928943665 7:1 #
-0.790988353428057178184928943665 2:1 #
0.790988353428057178184928943665 2:1 #
-0.790988353428057178184928943665 7:1 #
0.790988353428057178184928943665 7:1 #
-0.790988353428057178184928943665 2:1 #
0.790988353428057178184928943665 2:1 #
-0.790988353428057178184928943665 7:1 #
0.790988353428057178184928943665 7:1 #
-0.790988353428057178184928943665 2:1 #
0.790988353428057178184928943665 2:1 #
-0.790988353428057178184928943665 7:1 #
0.790988353428057178184928943665 7:1 #
-0.790988353428057178184928943665 2:1 #
0.790988353428057178184928943665 2:1 #
-0.790988353428057178184928943665 7:1 #
0.790988353428057178184928943665 7:1 #
-0.790988353428057178184928943665 2:1 #
0.790988353428057178184928943665 2:1 #
-0.790988353428057178184928943665 7:1 #
0.790988353428057178184928943665 7:1 #
-0.790988353428057178184928943665 2:1 #
0.790988353428057178184928943665 2:1 #
-0.790988353428057178184928943665 7:1 #
0.790988353428057178184928943665 7:1 #
-0.790988353428057178184928943665 2:1 #
0.790988353428057178184928943665 2:1 #
-0.790988353428057178184928943665 7:1 #
0.790988353428057178184928943665 7:1 #
-0.790988353428057178184928943665 2:1 #
0.790988353428057178184928943665 2:1 #
-0.790988353428057178184928943665 7:1 #
0.790988353428057178184928943665 7:1 #
-0.790988353428057178184928943665 2:1 #
0.790988353428057178184928943665 2:1 #
-0.790988353428057178184928943665 7:1 #
0.790988353428057178184928943665 7:1 #
-0.790988353428057178184928943665 2:1 #
0.790988353428057178184928943665 2:1 #
-0.790988353428057178184928943665 7:1 #
0.790988353428057178184928943665 7:1 #
-0.790988353428057178184928943665 2:1 #
0.790988353428057178184928943665 2:1 #
-0.790988353428057178184928943665 7:1 #
0.790988353428057178184928943665 7:1 #
-0.790988353428057178184928943665 2:1 #
0.790988353428057178184928943665 2:1 #
-0.790988353428057178184928943665 7:1 #
0.790988353428057178184928943665 7:1 #
-0.790988353428057178184928943665 2:1 #
0.790988353428057178184928943665 2:1 #
-0.790988353428057178184928943665 7:1 #
0.790988353428057178184928943665 7:1 #
-0.790988353428057178184928943665 2:1 #
0.790988353428057178184928943665 2:1 #
-0.790988353428057178184928943665 7:1 #
0.790988353428057178184928943665 7:1 #
-0.790988353428057178184928943665 2:1 #
0.790988353428057178184928943665 2:1 #
-0.790988353428057178184928943665 7:1 #
0.790988353428057178184928943665 7:1 #
-0.790988353428057178184928943665 2:1 #
0.790988353428057178184928943665 2:1 #
-0.790988353428057178184928943665 7:1 #
0.790988353428057178184928943665 7:1 #
-0.790988353428057178184928943665 2:1 #
0.790988353428057178184928943665 2:1 #
-0.790988353428057178184928943665 7:1 #
0.790988353428057178184928943665 7:1 #
-0.790988353428057178184928943665 2:1 #
0.790988353428057178184928943665 2:1 #
-0.790988353428057178184928943665 7:1 #
0.790988353428057178184928943665 7:1 #
-0.790988353428057178184928943665 2:1 #
0.790988353428057178184928943665 2:1 #
-0.790988353428057178184928943665 7:1 #
0.790988353428057178184928943665 7:1 #
-0.790988353428057178184928943665 2:1 #
0.790988353428057178184928943665 2:1 #
-0.790988353428057178184928943665 7:1 #
0.790988353428057178184928943665 7:1 #
-0.790988353428057178184928943665 2:1 #
0.790988353428057178184928943665 2:1 #
-0.790988353428057178184928943665 7:1 #
0.790988353428057178184928943665 7:1 #
-0.790988353428057178184928943665 2:1 #
0.790988353428057178184928943665 2:1 #
-0.790988353428057178184928943665 7:1 #
0.790988353428057178184928943665 7:1 #
-0.790988353428057178184928943665 2:1 #
0.790988353428057178184928943665 2:1 #
-0.790988353428057178184928943665 7:1 #
0.790988353428057178184928943665 7:1 #
-0.790988353428057178184928943665 2:1 #
0.790988353428057178184928943665 2:1 #
-0.790988353428057178184928943665 7:1 #
0.790988353428057178184928943665 7:1 #
-0.790988353428057178184928943665 2:1 #
0.790988353428057178184928943665 2:1 #
-0.790988353428057178184928943665 7:1 #
0.790988353428057178184928943665 7:1 #
-0.790988353428057178184928943665 2:1 #
0.790988353428057178184928943665 2:1 #
-0.790988353428057178184928943665 7:1 #
0.790988353428057178184928943665 7:1 #
-0.790988353428057178184928943665 2:1 #
-0.790988353428057178184928943665 8:1 #
-0.65749567650454265876902582022012 16:1 #
-0.49931536163672518569001113064587 18:1 #
-0.49931536163672490813425497435674 12:1 #
0.790988353428057178184928943665 20:1 #
0.790988353428057178184928943665 14:1 #
-0.790988353428057178184928943665 15:1 #
0.790988353428057178184928943665 2:1 #
0.790988353428057178184928943665 15:1 #
0.790988353428057178184928943665 16:1 #
-0.790988353428057178184928943665 14:1 #
0.790988353428057178184928943665 18:1 #
-0.49029170084549617003588650732127 18:1 #
-0.790988353428057178184928943665 20:1 #
0.790988353428057178184928943665 8:1 #
0.790988353428057178184928943665 12:1 #
0.790988353428057178184928943665 2:1 #
-0.790988353428057178184928943665 16:1 #
0.790988353428057178184928943665 16:1 #
-0.790988353428057178184928943665 2:1 #
0.790988353428057178184928943665 2:1 #
-0.790988353428057178184928943665 16:1 #
0.790988353428057178184928943665 16:1 #
-0.790988353428057178184928943665 2:1 #
0.790988353428057178184928943665 2:1 #
-0.790988353428057178184928943665 16:1 #
0.790988353428057178184928943665 16:1 #
-0.790988353428057178184928943665 2:1 #
0.790988353428057178184928943665 2:1 #
-0.790988353428057178184928943665 16:1 #
0.790988353428057178184928943665 16:1 #
-0.790988353428057178184928943665 2:1 #
0.790988353428057178184928943665 2:1 #
-0.790988353428057178184928943665 16:1 #
0.790988353428057178184928943665 16:1 #
-0.790988353428057178184928943665 2:1 #
0.790988353428057178184928943665 2:1 #
-0.790988353428057178184928943665 16:1 #
0.790988353428057178184928943665 16:1 #
-0.790988353428057178184928943665 2:1 #
0.790988353428057178184928943665 2:1 #
-0.790988353428057178184928943665 16:1 #
0.790988353428057178184928943665 16:1 #
-0.790988353428057178184928943665 2:1 #
0.790988353428057178184928943665 2:1 #
-0.790988353428057178184928943665 16:1 #
0.790988353428057178184928943665 16:1 #
-0.790988353428057178184928943665 2:1 #
0.790988353428057178184928943665 2:1 #
-0.790988353428057178184928943665 16:1 #
0.790988353428057178184928943665 16:1 #
-0.790988353428057178184928943665 2:1 #
0.790988353428057178184928943665 2:1 #
-0.790988353428057178184928943665 16:1 #
0.790988353428057178184928943665 16:1 #
-0.790988353428057178184928943665 2:1 #
0.790988353428057178184928943665 2:1 #
-0.790988353428057178184928943665 16:1 #
0.790988353428057178184928943665 16:1 #
-0.790988353428057178184928943665 2:1 #
0.790988353428057178184928943665 2:1 #
-0.790988353428057178184928943665 16:1 #
0.790988353428057178184928943665 16:1 #
-0.790988353428057178184928943665 2:1 #
0.790988353428057178184928943665 2:1 #
-0.790988353428057178184928943665 16:1 #
0.790988353428057178184928943665 16:1 #
-0.790988353428057178184928943665 2:1 #
0.790988353428057178184928943665 2:1 #
-0.790988353428057178184928943665 16:1 #
0.790988353428057178184928943665 16:1 #
-0.790988353428057178184928943665 2:1 #
0.790988353428057178184928943665 2:1 #
-0.790988353428057178184928943665 16:1 #
0.790988353428057178184928943665 16:1 #
-0.790988353428057178184928943665 2:1 #
0.790988353428057178184928943665 2:1 #
-0.790988353428057178184928943665 16:1 #
0.790988353428057178184928943665 16:1 #
-0.790988353428057178184928943665 2:1 #
0.790988353428057178184928943665 2:1 #
-0.790988353428057178184928943665 16:1 #
0.790988353428057178184928943665 16:1 #
-0.790988353428057178184928943665 2:1 #
0.790988353428057178184928943665 2:1 #
-0.790988353428057178184928943665 16:1 #
0.790988353428057178184928943665 16:1 #
-0.790988353428057178184928943665 2:1 #
0.790988353428057178184928943665 2:1 #
-0.790988353428057178184928943665 16:1 #
0.790988353428057178184928943665 16:1 #
-0.790988353428057178184928943665 2:1 #
0.790988353428057178184928943665 2:1 #
-0.790988353428057178184928943665 16:1 #
0.790988353428057178184928943665 16:1 #
-0.790988353428057178184928943665 2:1 #
0.790988353428057178184928943665 2:1 #
-0.790988353428057178184928943665 16:1 #
0.790988353428057178184928943665 16:1 #
-0.790988353428057178184928943665 2:1 #
0.790988353428057178184928943665 2:1 #
-0.790988353428057178184928943665 16:1 #
0.790988353428057178184928943665 16:1 #
-0.790988353428057178184928943665 2:1 #
0.790988353428057178184928943665 2:1 #
-0.790988353428057178184928943665 16:1 #
0.790988353428057178184928943665 16:1 #
-0.790988353428057178184928943665 2:1 #
0.790988353428057178184928943665 2:1 #
-0.790988353428057178184928943665 16:1 #
0.790988353428057178184928943665 16:1 #
-0.790988353428057178184928943665 2:1 #
0.790988353428057178184928943665 2:1 #
-0.790988353428057178184928943665 16:1 #
0.790988353428057178184928943665 16:1 #
-0.790988353428057178184928943665 2:1 #
0.790988353428057178184928943665 2:1 #
-0.790988353428057178184928943665 16:1 #
0.790988353428057178184928943665 16:1 #
-0.790988353428057178184928943665 2:1 #
0.790988353428057178184928943665 2:1 #
-0.790988353428057178184928943665 16:1 #
0.790988353428057178184928943665 16:1 #
-0.790988353428057178184928943665 2:1 #
0.790988353428057178184928943665 2:1 #
-0.790988353428057178184928943665 16:1 #
0.790988353428057178184928943665 16:1 #
-0.790988353428057178184928943665 2:1 #
0.790988353428057178184928943665 2:1 #
-0.790988353428057178184928943665 16:1 #
0.790988353428057178184928943665 16:1 #
-0.790988353428057178184928943665 2:1 #
0.790988353428057178184928943665 2:1 #
-0.790988353428057178184928943665 16:1 #
0.790988353428057178184928943665 16:1 #
-0.790988353428057178184928943665 2:1 #
0.790988353428057178184928943665 2:1 #
-0.790988353428057178184928943665 16:1 #
0.790988353428057178184928943665 16:1 #
-0.790988353428057178184928943665 2:1 #
0.790988353428057178184928943665 2:1 #
-0.790988353428057178184928943665 16:1 #
0.790988353428057178184928943665 16:1 #
-0.790988353428057178184928943665 2:1 #
0.790988353428057178184928943665 2:1 #
-0.790988353428057178184928943665 16:1 #
0.790988353428057178184928943665 16:1 #
-0.790988353428057178184928943665 2:1 #
0.790988353428057178184928943665 2:1 #
-0.790988353428057178184928943665 16:1 #
0.790988353428057178184928943665 16:1 #
-0.790988353428057178184928943665 2:1 #
0.790988353428057178184928943665 2:1 #
-0.790988353428057178184928943665 16:1 #
0.790988353428057178184928943665 16:1 #
-0.790988353428057178184928943665 2:1 #
0.790988353428057178184928943665 2:1 #
-0.790988353428057178184928943665 16:1 #
0.790988353428057178184928943665 16:1 #
-0.790988353428057178184928943665 2:1 #
0.790988353428057178184928943665 2:1 #
-0.790988353428057178184928943665 16:1 #
0.790988353428057178184928943665 16:1 #
-0.790988353428057178184928943665 2:1 #
0.790988353428057178184928943665 2:1 #
-0.790988353428057178184928943665 16:1 #
0.790988353428057178184928943665 16:1 #
-0.790988353428057178184928943665 2:1 #
0.790988353428057178184928943665 2:1 #
-0.790988353428057178184928943665 16:1 #
0.790988353428057178184928943665 16:1 #
-0.790988353428057178184928943665 2:1 #
0.790988353428057178184928943665 2:1 #
-0.790988353428057178184928943665 16:1 #
0.790988353428057178184928943665 16:1 #
-0.790988353428057178184928943665 2:1 #
0.790988353428057178184928943665 2:1 #
-0.790988353428057178184928943665 16:1 #
0.790988353428057178184928943665 16:1 #
-0.790988353428057178184928943665 2:1 #
0.790988353428057178184928943665 2:1 #
-0.790988353428057178184928943665 16:1 #
0.790988353428057178184928943665 16:1 #
-0.790988353428057178184928943665 2:1 #
0.790988353428057178184928943665 2:1 #
-0.790988353428057178184928943665 16:1 #
0.790988353428057178184928943665 16:1 #
-0.790988353428057178184928943665 2:1 #
0.790988353428057178184928943665 2:1 #
-0.790988353428057178184928943665 16:1 #
0.790988353428057178184928943665 16:1 #
-0.790988353428057178184928943665 2:1 #
0.790988353428057178184928943665 2:1 #
-0.790988353428057178184928943665 16:1 #
0.790988353428057178184928943665 16:1 #
-0.790988353428057178184928943665 2:1 #
0.790988353428057178184928943665 2:1 #
-0.790988353428057178184928943665 16:1 #
0.790988353428057178184928943665 16:1 #
-0.790988353428057178184928943665 2:1 #
0.790988353428057178184928943665 2:1 #
-0.790988353428057178184928943665 16:1 #
0.790988353428057178184928943665 16:1 #
-0.790988353428057178184928943665 2:1 #
0.790988353428057178184928943665 2:1 #
-0.790988353428057178184928943665 16:1 #
0.790988353428057178184928943665 16:1 #
-0.790988353428057178184928943665 2:1 #
-0.40538432149241621083035624906188 15:1 #
-0.35593995322646199142013756500091 1:1 #
-0.55039968582308773648037458769977 18:1 #
-0.790988353428057178184928943665 4:1 #
0.790988353428057178184928943665 14:1 #
0.790988353428057178184928943665 9:1 #
-0.790988353428057178184928943665 16:1 #
0.790988353428057178184928943665 18:1 #
-0.790988353428057178184928943665 14:1 #
0.790988353428057178184928943665 4:1 #
0.790988353428057178184928943665 16:1 #
-0.790988353428057178184928943665 9:1 #
0.790988353428057178184928943665 2:1 #
-0.790988353428057178184928943665 18:1 #
0.790988353428057178184928943665 15:1 #
0.790988353428057178184928943665 18:1 #
0.790988353428057178184928943665 18:1 #
0.790988353428057178184928943665 4:1 #
-0.790988353428057178184928943665 15:1 #
-0.790988353428057178184928943665 4:1 #
-0.790988353428057178184928943665 4:1 #
0.790988353428057178184928943665 15:1 #
-0.790988353428057178184928943665 18:1 #
-0.790988353428057178184928943665 15:1 #
0.790988353428057178184928943665 18:1 #
-0.790988353428057178184928943665 9:1 #
0.790988353428057178184928943665 1:1 #
0.790988353428057178184928943665 2:1 #
0.790988353428057178184928943665 9:1 #
-0.790988353428057178184928943665 15:1 #
-0.790988353428057178184928943665 16:1 #
0.790988353428057178184928943665 4:1 #
-0.790988353428057178184928943665 4:1 #
0.790988353428057178184928943665 15:1 #
-0.790988353428057178184928943665 2:1 #
0.790988353428057178184928943665 16:1 #
0.790988353428057178184928943665 4:1 #
0.790988353428057178184928943665 15:1 #
-0.790988353428057178184928943665 16:1 #
0.790988353428057178184928943665 16:1 #
-0.790988353428057178184928943665 15:1 #
0.790988353428057178184928943665 15:1 #
-0.790988353428057178184928943665 16:1 #
0.790988353428057178184928943665 16:1 #
-0.790988353428057178184928943665 15:1 #
0.790988353428057178184928943665 15:1 #
-0.790988353428057178184928943665 16:1 #
0.790988353428057178184928943665 16:1 #
-0.790988353428057178184928943665 15:1 #
0.790988353428057178184928943665 15:1 #
-0.790988353428057178184928943665 16:1 #
0.790988353428057178184928943665 16:1 #
-0.790988353428057178184928943665 15:1 #
0.790988353428057178184928943665 15:1 #
-0.790988353428057178184928943665 16:1 #
0.790988353428057178184928943665 16:1 #
-0.790988353428057178184928943665 15:1 #
0.790988353428057178184928943665 15:1 #
-0.790988353428057178184928943665 16:1 #
0.790988353428057178184928943665 16:1 #
-0.790988353428057178184928943665 15:1 #
0.790988353428057178184928943665 15:1 #
-0.790988353428057178184928943665 16:1 #
0.790988353428057178184928943665 16:1 #
-0.790988353428057178184928943665 15:1 #
0.790988353428057178184928943665 15:1 #
-0.790988353428057178184928943665 16:1 #
0.790988353428057178184928943665 16:1 #
-0.790988353428057178184928943665 15:1 #
0.790988353428057178184928943665 15:1 #
-0.790988353428057178184928943665 16:1 #
0.790988353428057178184928943665 16:1 #
-0.790988353428057178184928943665 15:1 #
0.790988353428057178184928943665 15:1 #
-0.790988353428057178184928943665 16:1 #
0.790988353428057178184928943665 16:1 #
-0.790988353428057178184928943665 15:1 #
0.790988353428057178184928943665 15:1 #
-0.790988353428057178184928943665 16:1 #
0.790988353428057178184928943665 16:1 #
-0.790988353428057178184928943665 15:1 #
0.790988353428057178184928943665 15:1 #
-0.790988353428057178184928943665 16:1 #
0.790988353428057178184928943665 16:1 #
-0.790988353428057178184928943665 15:1 #
0.790988353428057178184928943665 15:1 #
-0.790988353428057178184928943665 16:1 #
0.790988353428057178184928943665 16:1 #
-0.790988353428057178184928943665 15:1 #
0.790988353428057178184928943665 15:1 #
-0.790988353428057178184928943665 16:1 #
0.790988353428057178184928943665 16:1 #
-0.790988353428057178184928943665 15:1 #
0.790988353428057178184928943665 15:1 #
-0.790988353428057178184928943665 16:1 #
0.790988353428057178184928943665 16:1 #
-0.790988353428057178184928943665 15:1 #
0.790988353428057178184928943665 15:1 #
-0.790988353428057178184928943665 16:1 #
0.790988353428057178184928943665 16:1 #
-0.790988353428057178184928943665 15:1 #
0.790988353428057178184928943665 15:1 #
-0.790988353428057178184928943665 16:1 #
0.790988353428057178184928943665 16:1 #
-0.790988353428057178184928943665 15:1 #
0.790988353428057178184928943665 15:1 #
-0.790988353428057178184928943665 16:1 #
0.790988353428057178184928943665 16:1 #
-0.790988353428057178184928943665 15:1 #
0.790988353428057178184928943665 15:1 #
-0.790988353428057178184928943665 16:1 #
0.790988353428057178184928943665 16:1 #
-0.790988353428057178184928943665 15:1 #
0.790988353428057178184928943665 15:1 #
-0.790988353428057178184928943665 16:1 #
0.790988353428057178184928943665 16:1 #
-0.790988353428057178184928943665 15:1 #
0.790988353428057178184928943665 15:1 #
-0.790988353428057178184928943665 16:1 #
0.790988353428057178184928943665 16:1 #
-0.790988353428057178184928943665 15:1 #
0.790988353428057178184928943665 15:1 #
-0.790988353428057178184928943665 16:1 #
0.790988353428057178184928943665 16:1 #
-0.790988353428057178184928943665 15:1 #
0.790988353428057178184928943665 15:1 #
-0.790988353428057178184928943665 16:1 #
0.790988353428057178184928943665 16:1 #
-0.790988353428057178184928943665 15:1 #
0.790988353428057178184928943665 15:1 #
-0.790988353428057178184928943665 16:1 #
0.790988353428057178184928943665 16:1 #
-0.790988353428057178184928943665 15:1 #
0.790988353428057178184928943665 15:1 #
-0.790988353428057178184928943665 16:1 #
0.790988353428057178184928943665 16:1 #
-0.790988353428057178184928943665 15:1 #
0.790988353428057178184928943665 15:1 #
-0.790988353428057178184928943665 16:1 #
0.790988353428057178184928943665 16:1 #
-0.790988353428057178184928943665 15:1 #
0.790988353428057178184928943665 15:1 #
-0.790988353428057178184928943665 16:1 #
0.790988353428057178184928943665 16:1 #
-0.790988353428057178184928943665 15:1 #
0.790988353428057178184928943665 15:1 #
-0.790988353428057178184928943665 16:1 #
0.790988353428057178184928943665 16:1 #
-0.790988353428057178184928943665 15:1 #
0.790988353428057178184928943665 15:1 #
-0.790988353428057178184928943665 16:1 #
0.790988353428057178184928943665 16:1 #
-0.790988353428057178184928943665 15:1 #
0.790988353428057178184928943665 15:1 #
-0.790988353428057178184928943665 16:1 #
0.790988353428057178184928943665 16:1 #
-0.790988353428057178184928943665 15:1 #
0.790988353428057178184928943665 15:1 #
-0.790988353428057178184928943665 16:1 #
0.790988353428057178184928943665 16:1 #
-0.790988353428057178184928943665 15:1 #
0.790988353428057178184928943665 15:1 #
-0.790988353428057178184928943665 16:1 #
0.790988353428057178184928943665 16:1 #
-0.790988353428057178184928943665 15:1 #
0.790988353428057178184928943665 15:1 #
-0.790988353428057178184928943665 16:1 #
0.790988353428057178184928943665 16:1 #
-0.790988353428057178184928943665 15:1 #
0.790988353428057178184928943665 15:1 #
-0.790988353428057178184928943665 16:1 #
0.790988353428057178184928943665 16:1 #
-0.790988353428057178184928943665 15:1 #
0.790988353428057178184928943665 15:1 #
-0.790988353428057178184928943665 16:1 #
0.790988353428057178184928943665 16:1 #
-0.790988353428057178184928943665 15:1 #
0.790988353428057178184928943665 15:1 #
-0.790988353428057178184928943665 16:1 #
0.790988353428057178184928943665 16:1 #
-0.790988353428057178184928943665 15:1 #
0.790988353428057178184928943665 15:1 #
-0.790988353428057178184928943665 16:1 #
0.790988353428057178184928943665 16:1 #
-0.790988353428057178184928943665 15:1 #
0.790988353428057178184928943665 15:1 #
-0.790988353428057178184928943665 16:1 #
0.790988353428057178184928943665 16:1 #
-0.790988353428057178184928943665 15:1 #
0.790988353428057178184928943665 15:1 #
-0.790988353428057178184928943665 16:1 #
0.790988353428057178184928943665 16:1 #
-0.790988353428057178184928943665 15:1 #
0.790988353428057178184928943665 15:1 #
-0.790988353428057178184928943665 16:1 #
0.790988353428057178184928943665 16:1 #
-0.790988353428057178184928943665 15:1 #
0.790988353428057178184928943665 15:1 #
-0.790988353428057178184928943665 16:1 #
0.790988353428057178184928943665 16:1 #
-0.790988353428057178184928943665 15:1 #
0.790988353428057178184928943665 15:1 #
-0.790988353428057178184928943665 16:1 #
0.790988353428057178184928943665 16:1 #
-0.790988353428057178184928943665 15:1 #
0.790988353428057178184928943665 15:1 #
-0.790988353428057178184928943665 16:1 #
0.790988353428057178184928943665 16:1 #
-0.790988353428057178184928943665 15:1 #
0.790988353428057178184928943665 15:1 #
-0.790988353428057178184928943665 16:1 #
-0.790988353428057178184928943665 15:1 #
-0.42377844715789847462872330652317 2:1 #
-0.790988353428057178184928943665 8:1 #
-0.61082922301490794048106636182638 4:1 #
0.790988353428057178184928943665 1:1 #
0.790988353428057178184928943665 16:1 #
0.790988353428057178184928943665 9:1 #
-0.790988353428057178184928943665 16:1 #
0.790988353428057178184928943665 4:1 #
0.790988353428057178184928943665 15:1 #
0.790988353428057178184928943665 16:1 #
-0.790988353428057178184928943665 9:1 #
0.790988353428057178184928943665 8:1 #
-0.790988353428057178184928943665 1:1 #
0.790988353428057178184928943665 2:1 #
-0.790988353428057178184928943665 16:1 #
0.790988353428057178184928943665 16:1 #
-0.790988353428057178184928943665 4:1 #
0.790988353428057178184928943665 1:1 #
0.790988353428057178184928943665 4:1 #
-0.790988353428057178184928943665 16:1 #
0.790988353428057178184928943665 16:1 #
-0.790988353428057178184928943665 4:1 #
0.790988353428057178184928943665 4:1 #
-0.790988353428057178184928943665 16:1 #
0.790988353428057178184928943665 16:1 #
-0.790988353428057178184928943665 4:1 #
0.790988353428057178184928943665 4:1 #
-0.790988353428057178184928943665 16:1 #
0.790988353428057178184928943665 16:1 #
-0.790988353428057178184928943665 4:1 #
0.790988353428057178184928943665 4:1 #
-0.790988353428057178184928943665 16:1 #
0.790988353428057178184928943665 16:1 #
-0.790988353428057178184928943665 4:1 #
0.790988353428057178184928943665 4:1 #
-0.790988353428057178184928943665 16:1 #
0.790988353428057178184928943665 16:1 #
-0.790988353428057178184928943665 4:1 #
0.790988353428057178184928943665 4:1 #
-0.790988353428057178184928943665 16:1 #
0.790988353428057178184928943665 16:1 #
-0.790988353428057178184928943665 4:1 #
0.790988353428057178184928943665 4:1 #
-0.790988353428057178184928943665 16:1 #
0.790988353428057178184928943665 16:1 #
-0.790988353428057178184928943665 4:1 #
0.790988353428057178184928943665 4:1 #
-0.790988353428057178184928943665 16:1 #
0.790988353428057178184928943665 16:1 #
-0.790988353428057178184928943665 4:1 #
0.790988353428057178184928943665 4:1 #
-0.790988353428057178184928943665 16:1 #
0.790988353428057178184928943665 16:1 #
-0.790988353428057178184928943665 4:1 #
0.790988353428057178184928943665 4:1 #
-0.790988353428057178184928943665 16:1 #
0.790988353428057178184928943665 16:1 #
-0.790988353428057178184928943665 4:1 #
0.790988353428057178184928943665 4:1 #
-0.790988353428057178184928943665 16:1 #
0.790988353428057178184928943665 16:1 #
-0.790988353428057178184928943665 4:1 #
0.790988353428057178184928943665 4:1 #
-0.790988353428057178184928943665 16:1 #
0.790988353428057178184928943665 16:1 #
-0.790988353428057178184928943665 4:1 #
0.790988353428057178184928943665 4:1 #
-0.790988353428057178184928943665 16:1 #
0.790988353428057178184928943665 16:1 #
-0.790988353428057178184928943665 4:1 #
0.790988353428057178184928943665 4:1 #
-0.790988353428057178184928943665 16:1 #
0.790988353428057178184928943665 16:1 #
-0.790988353428057178184928943665 4:1 #
0.790988353428057178184928943665 4:1 #
-0.790988353428057178184928943665 16:1 #
0.790988353428057178184928943665 16:1 #
-0.790988353428057178184928943665 4:1 #
0.790988353428057178184928943665 4:1 #
-0.790988353428057178184928943665 16:1 #
0.790988353428057178184928943665 16:1 #
-0.790988353428057178184928943665 4:1 #
0.790988353428057178184928943665 4:1 #
-0.790988353428057178184928943665 16:1 #
0.790988353428057178184928943665 16:1 #
-0.790988353428057178184928943665 4:1 #
0.790988353428057178184928943665 4:1 #
-0.790988353428057178184928943665 16:1 #
0.790988353428057178184928943665 16:1 #
-0.790988353428057178184928943665 4:1 #
0.790988353428057178184928943665 4:1 #
-0.790988353428057178184928943665 16:1 #
0.790988353428057178184928943665 16:1 #
-0.790988353428057178184928943665 4:1 #
0.790988353428057178184928943665 4:1 #
-0.790988353428057178184928943665 16:1 #
0.790988353428057178184928943665 16:1 #
-0.790988353428057178184928943665 4:1 #
0.790988353428057178184928943665 4:1 #
-0.790988353428057178184928943665 16:1 #
0.790988353428057178184928943665 16:1 #
-0.790988353428057178184928943665 4:1 #
0.790988353428057178184928943665 4:1 #
-0.790988353428057178184928943665 16:1 #
0.790988353428057178184928943665 16:1 #
-0.790988353428057178184928943665 4:1 #
0.790988353428057178184928943665 4:1 #
-0.790988353428057178184928943665 16:1 #
0.790988353428057178184928943665 16:1 #
-0.790988353428057178184928943665 4:1 #
0.790988353428057178184928943665 4:1 #
-0.790988353428057178184928943665 16:1 #
0.790988353428057178184928943665 16:1 #
-0.790988353428057178184928943665 4:1 #
0.790988353428057178184928943665 4:1 #
-0.790988353428057178184928943665 16:1 #
0.790988353428057178184928943665 16:1 #
-0.790988353428057178184928943665 4:1 #
0.790988353428057178184928943665 4:1 #
-0.790988353428057178184928943665 16:1 #
0.790988353428057178184928943665 16:1 #
-0.790988353428057178184928943665 4:1 #
0.790988353428057178184928943665 4:1 #
-0.790988353428057178184928943665 16:1 #
0.790988353428057178184928943665 16:1 #
-0.790988353428057178184928943665 4:1 #
0.790988353428057178184928943665 4:1 #
-0.790988353428057178184928943665 16:1 #
0.790988353428057178184928943665 16:1 #
-0.790988353428057178184928943665 4:1 #
0.790988353428057178184928943665 4:1 #
-0.790988353428057178184928943665 16:1 #
0.790988353428057178184928943665 16:1 #
-0.790988353428057178184928943665 4:1 #
0.790988353428057178184928943665 4:1 #
-0.790988353428057178184928943665 16:1 #
0.790988353428057178184928943665 16:1 #
-0.790988353428057178184928943665 4:1 #
0.790988353428057178184928943665 4:1 #
-0.790988353428057178184928943665 16:1 #
0.790988353428057178184928943665 16:1 #
-0.790988353428057178184928943665 4:1 #
0.790988353428057178184928943665 4:1 #
-0.790988353428057178184928943665 16:1 #
0.790988353428057178184928943665 16:1 #
-0.790988353428057178184928943665 4:1 #
0.790988353428057178184928943665 4:1 #
-0.790988353428057178184928943665 16:1 #
0.790988353428057178184928943665 16:1 #
-0.790988353428057178184928943665 4:1 #
0.790988353428057178184928943665 4:1 #
-0.790988353428057178184928943665 16:1 #
0.790988353428057178184928943665 16:1 #
-0.790988353428057178184928943665 4:1 #
0.790988353428057178184928943665 4:1 #
-0.790988353428057178184928943665 16:1 #
0.790988353428057178184928943665 16:1 #
-0.790988353428057178184928943665 4:1 #
0.790988353428057178184928943665 4:1 #
-0.790988353428057178184928943665 16:1 #
0.790988353428057178184928943665 16:1 #
-0.790988353428057178184928943665 4:1 #
0.790988353428057178184928943665 4:1 #
-0.790988353428057178184928943665 16:1 #
0.790988353428057178184928943665 16:1 #
-0.790988353428057178184928943665 4:1 #
0.790988353428057178184928943665 4:1 #
-0.790988353428057178184928943665 16:1 #
0.790988353428057178184928943665 16:1 #
-0.790988353428057178184928943665 4:1 #
0.790988353428057178184928943665 4:1 #
-0.790988353428057178184928943665 16:1 #
0.790988353428057178184928943665 16:1 #
-0.790988353428057178184928943665 4:1 #
0.790988353428057178184928943665 4:1 #
-0.790988353428057178184928943665 16:1 #
0.790988353428057178184928943665 16:1 #
-0.790988353428057178184928943665 4:1 #
0.790988353428057178184928943665 4:1 #
-0.790988353428057178184928943665 16:1 #
0.790988353428057178184928943665 16:1 #
-0.790988353428057178184928943665 4:1 #
0.790988353428057178184928943665 4:1 #
-0.790988353428057178184928943665 16:1 #
0.790988353428057178184928943665 16:1 #
-0.790988353428057178184928943665 4:1 #
0.790988353428057178184928943665 4:1 #
-0.790988353428057178184928943665 16:1 #
0.790988353428057178184928943665 16:1 #
-0.790988353428057178184928943665 4:1 #
0.790988353428057178184928943665 4:1 #
-0.790988353428057178184928943665 16:1 #
0.790988353428057178184928943665 16:1 #
-0.790988353428057178184928943665 4:1 #
0.790988353428057178184928943665 4:1 #
-0.790988353428057178184928943665 16:1 #
0.790988353428057178184928943665 16:1 #
-0.790988353428057178184928943665 4:1 #
0.790988353428057178184928943665 4:1 #
-0.790988353428057178184928943665 16:1 #
0.790988353428057178184928943665 16:1 #
-0.790988353428057178184928943665 4:1 #
0.790988353428057178184928943665 4:1 #
-0.790988353428057178184928943665 16:1 #
-0.790988353428057178184928943665 4:1 #
-0.790988353428057178184928943665 19:1 #
-0.790988353428057178184928943665 20:1 #
-0.790988353428057178184928943665 2:1 #
0.790988353428057178184928943665 16:1 #
0.790988353428057178184928943665 15:1 #
0.790988353428057178184928943665 14:1 #
0.790988353428057178184928943665 18:1 #
-0.790988353428057178184928943665 16:1 #
0.790988353428057178184928943665 2:1 #
0.790988353428057178184928943665 4:1 #
-0.790988353428057178184928943665 15:1 #
0.790988353428057178184928943665 16:1 #
-0.790988353428057178184928943665 18:1 #
0.790988353428057178184928943665 20:1 #
0.790988353428057178184928943665 19:1 #
-0.790988353428057178184928943665 14:1 #
-0.790988353428057178184928943665 15:1 #
-0.33329392787951150900482844008366 17:1 #
-0.790988353428057178184928943665 16:1 #
0.790988353428057178184928943665 19:1 #
-0.790988353428057178184928943665 1:1 #
-0.790988353428057178184928943665 19:1 #
-0.790988353428057178184928943665 14:1 #
0.790988353428057178184928943665 1:1 #
-0.790988353428057178184928943665 2:1 #
0.790988353428057178184928943665 16:1 #
0.790988353428057178184928943665 9:1 #
-0.790988353428057178184928943665 1:1 #
0.790988353428057178184928943665 2:1 #
-0.790988353428057178184928943665 16:1 #
0.790988353428057178184928943665 14:1 #
-0.790988353428057178184928943665 14:1 #
0.790988353428057178184928943665 1:1 #
-0.790988353428057178184928943665 9:1 #
-0.790988353428057178184928943665 1:1 #
-0.790988353428057178184928943665 12:1 #
0.790988353428057178184928943665 14:1 #
-0.790988353428057178184928943665 3:1 #
0.790988353428057178184928943665 16:1 #
-0.790988353428057178184928943665 14:1 #
0.790988353428057178184928943665 3:1 #
0.790988353428057178184928943665 14:1 #
-0.790988353428057178184928943665 2:1 #
-0.790988353428057178184928943665 14:1 #
0.790988353428057178184928943665 2:1 #
0.790988353428057178184928943665 14:1 #
-0.790988353428057178184928943665 2:1 #
-0.790988353428057178184928943665 14:1 #
0.790988353428057178184928943665 2:1 #
0.790988353428057178184928943665 14:1 #
-0.790988353428057178184928943665 2:1 #
-0.790988353428057178184928943665 14:1 #
0.790988353428057178184928943665 2:1 #
0.790988353428057178184928943665 14:1 #
-0.790988353428057178184928943665 2:1 #
-0.790988353428057178184928943665 14:1 #
0.790988353428057178184928943665 2:1 #
0.790988353428057178184928943665 14:1 #
-0.790988353428057178184928943665 2:1 #
-0.790988353428057178184928943665 14:1 #
0.790988353428057178184928943665 2:1 #
0.790988353428057178184928943665 14:1 #
-0.790988353428057178184928943665 2:1 #
-0.790988353428057178184928943665 14:1 #
0.790988353428057178184928943665 2:1 #
0.790988353428057178184928943665 14:1 #
-0.790988353428057178184928943665 2:1 #
-0.790988353428057178184928943665 14:1 #
0.790988353428057178184928943665 2:1 #
0.790988353428057178184928943665 14:1 #
-0.790988353428057178184928943665 2:1 #
-0.790988353428057178184928943665 14:1 #
0.790988353428057178184928943665 2:1 #
0.790988353428057178184928943665 14:1 #
-0.790988353428057178184928943665 2:1 #
-0.790988353428057178184928943665 14:1 #
0.790988353428057178184928943665 2:1 #
0.790988353428057178184928943665 14:1 #
-0.790988353428057178184928943665 2:1 #
-0.790988353428057178184928943665 14:1 #
0.790988353428057178184928943665 2:1 #
0.790988353428057178184928943665 14:1 #
-0.790988353428057178184928943665 2:1 #
-0.790988353428057178184928943665 14:1 #
0.790988353428057178184928943665 2:1 #
0.790988353428057178184928943665 14:1 #
-0.790988353428057178184928943665 2:1 #
-0.790988353428057178184928943665 14:1 #
0.790988353428057178184928943665 2:1 #
0.790988353428057178184928943665 14:1 #
-0.790988353428057178184928943665 2:1 #
-0.790988353428057178184928943665 14:1 #
0.790988353428057178184928943665 2:1 #
0.790988353428057178184928943665 14:1 #
-0.790988353428057178184928943665 2:1 #
-0.790988353428057178184928943665 14:1 #
0.790988353428057178184928943665 2:1 #
0.790988353428057178184928943665 14:1 #
-0.790988353428057178184928943665 2:1 #
-0.790988353428057178184928943665 14:1 #
0.790988353428057178184928943665 2:1 #
0.790988353428057178184928943665 14:1 #
-0.790988353428057178184928943665 2:1 #
-0.790988353428057178184928943665 14:1 #
0.790988353428057178184928943665 2:1 #
0.790988353428057178184928943665 14:1 #
-0.790988353428057178184928943665 2:1 #
-0.790988353428057178184928943665 14:1 #
0.790988353428057178184928943665 2:1 #
0.790988353428057178184928943665 14:1 #
-0.790988353428057178184928943665 2:1 #
-0.790988353428057178184928943665 14:1 #
0.790988353428057178184928943665 2:1 #
0.790988353428057178184928943665 14:1 #
-0.790988353428057178184928943665 2:1 #
-0.790988353428057178184928943665 14:1 #
0.790988353428057178184928943665 2:1 #
0.790988353428057178184928943665 14:1 #
-0.790988353428057178184928943665 2:1 #
-0.790988353428057178184928943665 14:1 #
0.790988353428057178184928943665 2:1 #
0.790988353428057178184928943665 14:1 #
-0.790988353428057178184928943665 2:1 #
-0.790988353428057178184928943665 14:1 #
0.790988353428057178184928943665 2:1 #
0.790988353428057178184928943665 14:1 #
-0.790988353428057178184928943665 2:1 #
-0.790988353428057178184928943665 14:1 #
0.790988353428057178184928943665 2:1 #
0.790988353428057178184928943665 14:1 #
-0.790988353428057178184928943665 2:1 #
-0.790988353428057178184928943665 14:1 #
0.790988353428057178184928943665 2:1 #
0.790988353428057178184928943665 14:1 #
-0.790988353428057178184928943665 2:1 #
-0.790988353428057178184928943665 14:1 #
0.790988353428057178184928943665 2:1 #
0.790988353428057178184928943665 14:1 #
-0.790988353428057178184928943665 2:1 #
-0.790988353428057178184928943665 14:1 #
0.790988353428057178184928943665 2:1 #
0.790988353428057178184928943665 14:1 #
-0.790988353428057178184928943665 2:1 #
-0.790988353428057178184928943665 14:1 #
0.790988353428057178184928943665 2:1 #
0.790988353428057178184928943665 14:1 #
-0.790988353428057178184928943665 2:1 #
-0.790988353428057178184928943665 14:1 #
0.790988353428057178184928943665 2:1 #
0.790988353428057178184928943665 14:1 #
-0.790988353428057178184928943665 2:1 #
-0.790988353428057178184928943665 14:1 #
0.790988353428057178184928943665 2:1 #
0.790988353428057178184928943665 14:1 #
-0.790988353428057178184928943665 2:1 #
-0.790988353428057178184928943665 14:1 #
-0.20063783262207329771698027798266 9:1 #
-0.23298432733289958784794748680724 18:1 #
-0.1744884156925625706691107552615 20:1 #
-0.18288675423062983327326946891844 16:1 #
0.790988353428057178184928943665 13:1 #
0.790988353428057178184928943665 3:1 #
0.790988353428057178184928943665 2:1 #
-0.790988353428057178184928943665 13:1 #
0.790988353428057178184928943665 18:1 #
-0.790988353428057178184928943665 2:1 #
0.790988353428057178184928943665 2:1 #
-0.790988353428057178184928943665 18:1 #
-0.790988353428057178184928943665 2:1 #
0.790988353428057178184928943665 9:1 #
0.790988353428057178184928943665 2:1 #
-0.790988353428057178184928943665 18:1 #
-0.790988353428057178184928943665 2:1 #
0.790988353428057178184928943665 18:1 #
0.790988353428057178184928943665 2:1 #
-0.790988353428057178184928943665 18:1 #
-0.790988353428057178184928943665 2:1 #
0.790988353428057178184928943665 18:1 #
0.790988353428057178184928943665 2:1 #
-0.790988353428057178184928943665 18:1 #
-0.790988353428057178184928943665 2:1 #
0.790988353428057178184928943665 18:1 #
0.790988353428057178184928943665 2:1 #
-0.790988353428057178184928943665 18:1 #
-0.790988353428057178184928943665 2:1 #
0.790988353428057178184928943665 18:1 #
0.790988353428057178184928943665 2:1 #
-0.790988353428057178184928943665 18:1 #
-0.790988353428057178184928943665 2:1 #
0.790988353428057178184928943665 18:1 #
0.790988353428057178184928943665 2:1 #
-0.790988353428057178184928943665 18:1 #
-0.790988353428057178184928943665 2:1 #
0.790988353428057178184928943665 18:1 #
0.790988353428057178184928943665 2:1 #
-0.790988353428057178184928943665 18:1 #
-0.790988353428057178184928943665 2:1 #
0.790988353428057178184928943665 18:1 #
0.790988353428057178184928943665 2:1 #
-0.790988353428057178184928943665 18:1 #
-0.790988353428057178184928943665 2:1 #
0.790988353428057178184928943665 18:1 #
0.790988353428057178184928943665 2:1 #
-0.790988353428057178184928943665 18:1 #
-0.790988353428057178184928943665 2:1 #
0.790988353428057178184928943665 18:1 #
0.790988353428057178184928943665 2:1 #
-0.790988353428057178184928943665 18:1 #
-0.790988353428057178184928943665 2:1 #
0.790988353428057178184928943665 18:1 #
0.790988353428057178184928943665 2:1 #
-0.790988353428057178184928943665 18:1 #
-0.790988353428057178184928943665 2:1 #
0.790988353428057178184928943665 18:1 #
0.790988353428057178184928943665 2:1 #
-0.790988353428057178184928943665 18:1 #
-0.790988353428057178184928943665 2:1 #
0.790988353428057178184928943665 18:1 #
0.790988353428057178184928943665 2:1 #
-0.790988353428057178184928943665 18:1 #
-0.790988353428057178184928943665 2:1 #
0.790988353428057178184928943665 18:1 #
0.790988353428057178184928943665 2:1 #
-0.790988353428057178184928943665 18:1 #
-0.790988353428057178184928943665 2:1 #
0.790988353428057178184928943665 18:1 #
0.790988353428057178184928943665 2:1 #
-0.790988353428057178184928943665 18:1 #
-0.790988353428057178184928943665 2:1 #
0.790988353428057178184928943665 18:1 #
0.790988353428057178184928943665 2:1 #
-0.790988353428057178184928943665 18:1 #
-0.790988353428057178184928943665 2:1 #
0.790988353428057178184928943665 18:1 #
0.790988353428057178184928943665 2:1 #
-0.790988353428057178184928943665 18:1 #
-0.790988353428057178184928943665 2:1 #
0.790988353428057178184928943665 18:1 #
0.790988353428057178184928943665 2:1 #
-0.790988353428057178184928943665 18:1 #
-0.790988353428057178184928943665 2:1 #
0.790988353428057178184928943665 18:1 #
0.790988353428057178184928943665 2:1 #
-0.790988353428057178184928943665 18:1 #
-0.790988353428057178184928943665 2:1 #
0.790988353428057178184928943665 18:1 #
0.790988353428057178184928943665 2:1 #
-0.790988353428057178184928943665 18:1 #
-0.790988353428057178184928943665 2:1 #
0.790988353428057178184928943665 18:1 #
0.790988353428057178184928943665 2:1 #
-0.790988353428057178184928943665 18:1 #
-0.790988353428057178184928943665 2:1 #
0.790988353428057178184928943665 18:1 #
0.790988353428057178184928943665 2:1 #
-0.790988353428057178184928943665 18:1 #
-0.790988353428057178184928943665 2:1 #
0.790988353428057178184928943665 18:1 #
0.790988353428057178184928943665 2:1 #
-0.790988353428057178184928943665 18:1 #
-0.790988353428057178184928943665 2:1 #
0.790988353428057178184928943665 18:1 #
0.790988353428057178184928943665 2:1 #
-0.790988353428057178184928943665 18:1 #
-0.790988353428057178184928943665 2:1 #
-0.790988353428057178184928943665 10:1 #
-0.790988353428057178184928943665 16:1 #
-0.790988353428057178184928943665 4:1 #
-0.790988353428057178184928943665 15:1 #
0.790988353428057178184928943665 18:1 #
0.790988353428057178184928943665 1:1 #
0.790988353428057178184928943665 14:1 #
0.790988353428057178184928943665 19:1 #
0.790988353428057178184928943665 5:1 #
-0.790988353428057178184928943665 18:1 #
0.790988353428057178184928943665 2:1 #
0.790988353428057178184928943665 18:1 #
0.790988353428057178184928943665 15:1 #
-0.790988353428057178184928943665 1:1 #
0.790988353428057178184928943665 16:1 #
0.790988353428057178184928943665 4:1 #
-0.38822085366455699739773876899562 5:1 #
-0.40513031725433229501831533525547 16:1 #
0.790988353428057178184928943665 10:1 #
-0.790988353428057178184928943665 19:1 #
-0.790988353428057178184928943665 10:1 #
0.790988353428057178184928943665 1:1 #
-0.790988353428057178184928943665 18:1 #
0.790988353428057178184928943665 19:1 #
-0.790988353428057178184928943665 1:1 #
0.790988353428057178184928943665 5:1 #
-0.790988353428057178184928943665 19:1 #
0.790988353428057178184928943665 18:1 #
0.790988353428057178184928943665 1:1 #
-0.790988353428057178184928943665 4:1 #
0.790988353428057178184928943665 4:1 #
0.790988353428057178184928943665 19:1 #
-0.790988353428057178184928943665 1:1 #
-0.63087470207102591679415581893409 11:1 #
0.790988353428057178184928943665 1:1 #
-0.790988353428057178184928943665 9:1 #
0.790988353428057178184928943665 5:1 #
-0.790988353428057178184928943665 1:1 #
0.790988353428057178184928943665 1:1 #
-0.790988353428057178184928943665 5:1 #
-0.790988353428057178184928943665 1:1 #
0.790988353428057178184928943665 5:1 #
0.790988353428057178184928943665 1:1 #
-0.790988353428057178184928943665 5:1 #
-0.790988353428057178184928943665 1:1 #
0.790988353428057178184928943665 5:1 #
0.790988353428057178184928943665 1:1 #
-0.790988353428057178184928943665 5:1 #
-0.790988353428057178184928943665 1:1 #
0.790988353428057178184928943665 5:1 #
0.790988353428057178184928943665 1:1 #
-0.790988353428057178184928943665 5:1 #
-0.790988353428057178184928943665 1:1 #
0.790988353428057178184928943665 5:1 #
0.790988353428057178184928943665 1:1 #
-0.790988353428057178184928943665 5:1 #
-0.790988353428057178184928943665 1:1 #
0.790988353428057178184928943665 5:1 #
0.790988353428057178184928943665 1:1 #
-0.790988353428057178184928943665 5:1 #
-0.790988353428057178184928943665 1:1 #
0.790988353428057178184928943665 5:1 #
0.790988353428057178184928943665 1:1 #
-0.790988353428057178184928943665 5:1 #
-0.790988353428057178184928943665 1:1 #
0.790988353428057178184928943665 5:1 #
0.790988353428057178184928943665 1:1 #
-0.790988353428057178184928943665 5:1 #
-0.790988353428057178184928943665 1:1 #
0.790988353428057178184928943665 5:1 #
0.790988353428057178184928943665 1:1 #
-0.790988353428057178184928943665 5:1 #
-0.790988353428057178184928943665 1:1 #
0.790988353428057178184928943665 5:1 #
0.790988353428057178184928943665 1:1 #
-0.790988353428057178184928943665 5:1 #
-0.790988353428057178184928943665 1:1 #
0.790988353428057178184928943665 5:1 #
0.790988353428057178184928943665 1:1 #
-0.790988353428057178184928943665 5:1 #
-0.790988353428057178184928943665 1:1 #
0.790988353428057178184928943665 5:1 #
0.790988353428057178184928943665 1:1 #
-0.790988353428057178184928943665 5:1 #
-0.790988353428057178184928943665 1:1 #
0.790988353428057178184928943665 5:1 #
0.790988353428057178184928943665 1:1 #
-0.790988353428057178184928943665 5:1 #
-0.790988353428057178184928943665 1:1 #
0.790988353428057178184928943665 5:1 #
0.790988353428057178184928943665 1:1 #
-0.790988353428057178184928943665 5:1 #
-0.790988353428057178184928943665 1:1 #
0.790988353428057178184928943665 5:1 #
0.790988353428057178184928943665 1:1 #
-0.790988353428057178184928943665 5:1 #
-0.790988353428057178184928943665 1:1 #
0.790988353428057178184928943665 5:1 #
0.790988353428057178184928943665 1:1 #
-0.790988353428057178184928943665 5:1 #
-0.790988353428057178184928943665 1:1 #
0.790988353428057178184928943665 5:1 #
0.790988353428057178184928943665 1:1 #
-0.790988353428057178184928943665 5:1 #
-0.790988353428057178184928943665 1:1 #
0.790988353428057178184928943665 5:1 #
0.790988353428057178184928943665 1:1 #
-0.790988353428057178184928943665 5:1 #
-0.790988353428057178184928943665 1:1 #
0.790988353428057178184928943665 5:1 #
0.790988353428057178184928943665 1:1 #
-0.790988353428057178184928943665 5:1 #
-0.790988353428057178184928943665 1:1 #
0.790988353428057178184928943665 5:1 #
0.790988353428057178184928943665 1:1 #
-0.790988353428057178184928943665 5:1 #
-0.790988353428057178184928943665 1:1 #
0.790988353428057178184928943665 5:1 #
0.790988353428057178184928943665 1:1 #
-0.790988353428057178184928943665 5:1 #
-0.790988353428057178184928943665 1:1 #
0.790988353428057178184928943665 5:1 #
0.790988353428057178184928943665 1:1 #
-0.790988353428057178184928943665 5:1 #
-0.790988353428057178184928943665 1:1 #
0.790988353428057178184928943665 5:1 #
0.790988353428057178184928943665 1:1 #
-0.790988353428057178184928943665 5:1 #
-0.790988353428057178184928943665 1:1 #
0.790988353428057178184928943665 5:1 #
0.790988353428057178184928943665 1:1 #
-0.790988353428057178184928943665 5:1 #
-0.790988353428057178184928943665 1:1 #
0.790988353428057178184928943665 5:1 #
0.790988353428057178184928943665 1:1 #
-0.790988353428057178184928943665 5:1 #
-0.790988353428057178184928943665 1:1 #
0.790988353428057178184928943665 5:1 #
0.790988353428057178184928943665 1:1 #
-0.790988353428057178184928943665 5:1 #
-0.790988353428057178184928943665 1:1 #
0.790988353428057178184928943665 5:1 #
0.790988353428057178184928943665 1:1 #
-0.790988353428057178184928943665 5:1 #
-0.790988353428057178184928943665 1:1 #
0.790988353428057178184928943665 5:1 #
0.790988353428057178184928943665 1:1 #
-0.790988353428057178184928943665 5:1 #
-0.790988353428057178184928943665 1:1 #
0.790988353428057178184928943665 5:1 #
0.790988353428057178184928943665 1:1 #
-0.790988353428057178184928943665 5:1 #
-0.52580856140050946656572250503814 9:1 #
-0.41636349102501940544485137252195 14:1 #
-0.43762073985687288679713446981623 2:1 #
-0.42342770321230660535150036594132 6:1 #
0.790988353428057178184928943665 1:1 #
0.790988353428057178184928943665 11:1 #
0.790988353428057178184928943665 9:1 #
-0.790988353428057178184928943665 1:1 #
-0.790988353428057178184928943665 1:1 #
-0.790988353428057178184928943665 11:1 #
0.790988353428057178184928943665 5:1 #
-0.790988353428057178184928943665 1:1 #
0.790988353428057178184928943665 6:1 #
0.790988353428057178184928943665 1:1 #
-0.790988353428057178184928943665 11:1 #
0.790988353428057178184928943665 2:1 #
-0.790988353428057178184928943665 1:1 #
0.790988353428057178184928943665 11:1 #
0.790988353428057178184928943665 1:1 #
-0.790988353428057178184928943665 6:1 #
-0.790988353428057178184928943665 1:1 #
0.790988353428057178184928943665 6:1 #
-0.790988353428057178184928943665 5:1 #
-0.790988353428057178184928943665 6:1 #
-0.76653440151735974250613026015344 11:1 #
0.790988353428057178184928943665 6:1 #
0.790988353428057178184928943665 11:1 #
0.790988353428057178184928943665 14:1 #
-0.790988353428057178184928943665 6:1 #
0.790988353428057178184928943665 6:1 #
-0.790988353428057178184928943665 11:1 #
-0.790988353428057178184928943665 6:1 #
0.790988353428057178184928943665 11:1 #
0.790988353428057178184928943665 6:1 #
-0.790988353428057178184928943665 11:1 #
-0.790988353428057178184928943665 6:1 #
0.790988353428057178184928943665 11:1 #
0.790988353428057178184928943665 6:1 #
-0.790988353428057178184928943665 11:1 #
-0.790988353428057178184928943665 6:1 #
0.790988353428057178184928943665 11:1 #
0.790988353428057178184928943665 6:1 #
-0.790988353428057178184928943665 11:1 #
-0.790988353428057178184928943665 6:1 #
0.790988353428057178184928943665 11:1 #
0.790988353428057178184928943665 6:1 #
-0.790988353428057178184928943665 11:1 #
-0.790988353428057178184928943665 6:1 #
0.790988353428057178184928943665 11:1 #
0.790988353428057178184928943665 6:1 #
-0.790988353428057178184928943665 11:1 #
-0.790988353428057178184928943665 6:1 #
0.790988353428057178184928943665 11:1 #
0.790988353428057178184928943665 6:1 #
-0.790988353428057178184928943665 11:1 #
-0.790988353428057178184928943665 6:1 #
0.790988353428057178184928943665 11:1 #
0.790988353428057178184928943665 6:1 #
-0.790988353428057178184928943665 11:1 #
-0.790988353428057178184928943665 6:1 #
0.790988353428057178184928943665 11:1 #
0.790988353428057178184928943665 6:1 #
-0.790988353428057178184928943665 11:1 #
-0.790988353428057178184928943665 6:1 #
0.790988353428057178184928943665 11:1 #
0.790988353428057178184928943665 6:1 #
-0.790988353428057178184928943665 11:1 #
-0.790988353428057178184928943665 6:1 #
0.790988353428057178184928943665 11:1 #
0.790988353428057178184928943665 6:1 #
-0.790988353428057178184928943665 11:1 #
-0.790988353428057178184928943665 6:1 #
0.790988353428057178184928943665 11:1 #
0.790988353428057178184928943665 6:1 #
-0.790988353428057178184928943665 11:1 #
-0.790988353428057178184928943665 6:1 #
0.790988353428057178184928943665 11:1 #
0.790988353428057178184928943665 6:1 #
-0.790988353428057178184928943665 11:1 #
-0.790988353428057178184928943665 6:1 #
0.790988353428057178184928943665 11:1 #
0.790988353428057178184928943665 6:1 #
-0.790988353428057178184928943665 11:1 #
-0.790988353428057178184928943665 6:1 #
0.790988353428057178184928943665 11:1 #
0.790988353428057178184928943665 6:1 #
-0.790988353428057178184928943665 11:1 #
-0.790988353428057178184928943665 6:1 #
0.790988353428057178184928943665 11:1 #
0.790988353428057178184928943665 6:1 #
-0.790988353428057178184928943665 11:1 #
-0.790988353428057178184928943665 6:1 #
0.790988353428057178184928943665 11:1 #
0.790988353428057178184928943665 6:1 #
-0.790988353428057178184928943665 11:1 #
-0.790988353428057178184928943665 6:1 #
0.790988353428057178184928943665 11:1 #
0.790988353428057178184928943665 6:1 #
-0.790988353428057178184928943665 11:1 #
-0.790988353428057178184928943665 6:1 #
0.790988353428057178184928943665 11:1 #
0.790988353428057178184928943665 6:1 #
-0.790988353428057178184928943665 11:1 #
-0.790988353428057178184928943665 6:1 #
0.790988353428057178184928943665 11:1 #
0.790988353428057178184928943665 6:1 #
-0.790988353428057178184928943665 11:1 #
-0.790988353428057178184928943665 6:1 #
0.790988353428057178184928943665 11:1 #
0.790988353428057178184928943665 6:1 #
-0.790988353428057178184928943665 11:1 #
-0.790988353428057178184928943665 6:1 #
0.790988353428057178184928943665 11:1 #
0.790988353428057178184928943665 6:1 #
-0.790988353428057178184928943665 11:1 #
-0.790988353428057178184928943665 6:1 #
0.790988353428057178184928943665 11:1 #
0.790988353428057178184928943665 6:1 #
-0.790988353428057178184928943665 11:1 #
-0.790988353428057178184928943665 6:1 #
0.790988353428057178184928943665 11:1 #
0.790988353428057178184928943665 6:1 #
-0.790988353428057178184928943665 11:1 #
-0.790988353428057178184928943665 6:1 #
0.790988353428057178184928943665 11:1 #
0.790988353428057178184928943665 6:1 #
-0.790988353428057178184928943665 11:1 #
-0.790988353428057178184928943665 6:1 #
0.790988353428057178184928943665 11:1 #
0.790988353428057178184928943665 6:1 #
-0.790988353428057178184928943665 11:1 #
-0.790988353428057178184928943665 6:1 #
0.790988353428057178184928943665 11:1 #
0.790988353428057178184928943665 6:1 #
-0.790988353428057178184928943665 11:1 #
-0.790988353428057178184928943665 6:1 #
0.790988353428057178184928943665 11:1 #
0.790988353428057178184928943665 6:1 #
-0.790988353428057178184928943665 11:1 #
-0.790988353428057178184928943665 6:1 #
0.790988353428057178184928943665 11:1 #
0.790988353428057178184928943665 6:1 #
-0.790988353428057178184928943665 11:1 #
-0.790988353428057178184928943665 6:1 #
0.790988353428057178184928943665 11:1 #
-0.790988353428057178184928943665 5:1 #
-0.790988353428057178184928943665 4:1 #
-0.790988353428057178184928943665 9:1 #
0.790988353428057178184928943665 11:1 #
0.790988353428057178184928943665 8:1 #
0.790988353428057178184928943665 14:1 #
0.790988353428057178184928943665 7:1 #
-0.790988353428057178184928943665 11:1 #
0.790988353428057178184928943665 6:1 #
-0.66235757736611855506225765566342 8:1 #
0.790988353428057178184928943665 9:1 #
-0.60073816540182312095907946059015 14:1 #
-0.14207828542206321631446996889281 15:1 #
0.790988353428057178184928943665 9:1 #
-0.790988353428057178184928943665 7:1 #
0.790988353428057178184928943665 5:1 #
-0.790988353428057178184928943665 9:1 #
0.790988353428057178184928943665 4:1 #
0.790988353428057178184928943665 6:1 #
0.790988353428057178184928943665 9:1 #
-0.790988353428057178184928943665 6:1 #
-0.790988353428057178184928943665 4:1 #
0.790988353428057178184928943665 6:1 #
-0.790988353428057178184928943665 9:1 #
-0.790988353428057178184928943665 6:1 #
0.790988353428057178184928943665 9:1 #
0.790988353428057178184928943665 6:1 #
-0.790988353428057178184928943665 9:1 #
-0.790988353428057178184928943665 6:1 #
0.790988353428057178184928943665 9:1 #
0.790988353428057178184928943665 6:1 #
-0.790988353428057178184928943665 9:1 #
-0.790988353428057178184928943665 6:1 #
0.790988353428057178184928943665 9:1 #
0.790988353428057178184928943665 6:1 #
-0.790988353428057178184928943665 9:1 #
-0.790988353428057178184928943665 6:1 #
0.790988353428057178184928943665 9:1 #
0.790988353428057178184928943665 6:1 #
-0.790988353428057178184928943665 9:1 #
-0.790988353428057178184928943665 6:1 #
0.790988353428057178184928943665 9:1 #
0.790988353428057178184928943665 6:1 #
-0.790988353428057178184928943665 9:1 #
-0.790988353428057178184928943665 6:1 #
0.790988353428057178184928943665 9:1 #
0.790988353428057178184928943665 6:1 #
-0.790988353428057178184928943665 9:1 #
-0.790988353428057178184928943665 6:1 #
0.790988353428057178184928943665 9:1 #
0.790988353428057178184928943665 6:1 #
-0.790988353428057178184928943665 9:1 #
-0.790988353428057178184928943665 6:1 #
0.790988353428057178184928943665 9:1 #
0.790988353428057178184928943665 6:1 #
-0.790988353428057178184928943665 9:1 #
-0.790988353428057178184928943665 6:1 #
0.790988353428057178184928943665 9:1 #
0.790988353428057178184928943665 6:1 #
-0.790988353428057178184928943665 9:1 #
-0.790988353428057178184928943665 6:1 #
0.790988353428057178184928943665 9:1 #
0.790988353428057178184928943665 6:1 #
-0.790988353428057178184928943665 9:1 #
-0.790988353428057178184928943665 6:1 #
0.790988353428057178184928943665 9:1 #
0.790988353428057178184928943665 6:1 #
-0.790988353428057178184928943665 9:1 #
-0.790988353428057178184928943665 6:1 #
0.790988353428057178184928943665 9:1 #
0.790988353428057178184928943665 6:1 #
-0.790988353428057178184928943665 9:1 #
-0.790988353428057178184928943665 6:1 #
0.790988353428057178184928943665 9:1 #
0.790988353428057178184928943665 6:1 #
-0.790988353428057178184928943665 9:1 #
-0.790988353428057178184928943665 6:1 #
0.790988353428057178184928943665 9:1 #
0.790988353428057178184928943665 6:1 #
-0.790988353428057178184928943665 9:1 #
-0.790988353428057178184928943665 6:1 #
0.790988353428057178184928943665 9:1 #
0.790988353428057178184928943665 6:1 #
-0.790988353428057178184928943665 9:1 #
-0.790988353428057178184928943665 6:1 #
0.790988353428057178184928943665 9:1 #
0.790988353428057178184928943665 6:1 #
-0.790988353428057178184928943665 9:1 #
-0.790988353428057178184928943665 6:1 #
0.790988353428057178184928943665 9:1 #
0.790988353428057178184928943665 6:1 #
-0.790988353428057178184928943665 9:1 #
-0.790988353428057178184928943665 6:1 #
0.790988353428057178184928943665 9:1 #
0.790988353428057178184928943665 6:1 #
-0.790988353428057178184928943665 9:1 #
-0.790988353428057178184928943665 6:1 #
0.790988353428057178184928943665 9:1 #
0.790988353428057178184928943665 6:1 #
-0.790988353428057178184928943665 9:1 #
-0.790988353428057178184928943665 6:1 #
0.790988353428057178184928943665 9:1 #
0.790988353428057178184928943665 6:1 #
-0.790988353428057178184928943665 9:1 #
-0.790988353428057178184928943665 6:1 #
0.790988353428057178184928943665 9:1 #
0.790988353428057178184928943665 6:1 #
-0.790988353428057178184928943665 9:1 #
-0.790988353428057178184928943665 6:1 #
0.790988353428057178184928943665 9:1 #
0.790988353428057178184928943665 6:1 #
-0.790988353428057178184928943665 9:1 #
-0.790988353428057178184928943665 6:1 #
0.790988353428057178184928943665 9:1 #
0.790988353428057178184928943665 6:1 #
-0.790988353428057178184928943665 9:1 #
-0.790988353428057178184928943665 6:1 #
0.790988353428057178184928943665 9:1 #
0.790988353428057178184928943665 6:1 #
-0.790988353428057178184928943665 9:1 #
-0.790988353428057178184928943665 6:1 #
0.790988353428057178184928943665 9:1 #
0.790988353428057178184928943665 6:1 #
-0.790988353428057178184928943665 9:1 #
-0.790988353428057178184928943665 6:1 #
0.790988353428057178184928943665 9:1 #
0.790988353428057178184928943665 6:1 #
-0.790988353428057178184928943665 9:1 #
-0.790988353428057178184928943665 6:1 #
0.790988353428057178184928943665 9:1 #
0.790988353428057178184928943665 6:1 #
-0.790988353428057178184928943665 9:1 #
-0.790988353428057178184928943665 6:1 #
0.790988353428057178184928943665 9:1 #
0.790988353428057178184928943665 6:1 #
-0.790988353428057178184928943665 9:1 #
-0.790988353428057178184928943665 6:1 #
0.790988353428057178184928943665 9:1 #
0.790988353428057178184928943665 6:1 #
-0.790988353428057178184928943665 9:1 #
-0.790988353428057178184928943665 6:1 #
0.790988353428057178184928943665 9:1 #
0.790988353428057178184928943665 6:1 #
-0.790988353428057178184928943665 9:1 #
-0.790988353428057178184928943665 6:1 #
0.790988353428057178184928943665 9:1 #
-0.33454064162831309570123039520695 5:1 #
-0.25722723839452837912844529455469 17:1 #
-0.66523028414092266746848736147513 18:1 #
-0.69435366574054402377669248380698 3:1 #
-0.18012260749571434859106489057012 2:1 #
0.790988353428057178184928943665 8:1 #
0.790988353428057178184928943665 13:1 #
0.790988353428057178184928943665 6:1 #
0.790988353428057178184928943665 3:1 #
0.790988353428057178184928943665 18:1 #
-0.790988353428057178184928943665 13:1 #
-0.790988353428057178184928943665 8:1 #
0.790988353428057178184928943665 5:1 #
-0.790988353428057178184928943665 5:1 #
0.790988353428057178184928943665 17:1 #
0.790988353428057178184928943665 5:1 #
-0.790988353428057178184928943665 17:1 #
-0.790988353428057178184928943665 5:1 #
0.790988353428057178184928943665 17:1 #
0.790988353428057178184928943665 5:1 #
-0.790988353428057178184928943665 17:1 #
-0.790988353428057178184928943665 5:1 #
0.790988353428057178184928943665 17:1 #
0.790988353428057178184928943665 5:1 #
-0.790988353428057178184928943665 17:1 #
-0.790988353428057178184928943665 5:1 #
0.790988353428057178184928943665 17:1 #
0.790988353428057178184928943665 5:1 #
-0.790988353428057178184928943665 17:1 #
-0.790988353428057178184928943665 5:1 #
0.790988353428057178184928943665 17:1 #
0.790988353428057178184928943665 5:1 #
-0.790988353428057178184928943665 17:1 #
-0.790988353428057178184928943665 5:1 #
0.790988353428057178184928943665 17:1 #
0.790988353428057178184928943665 5:1 #
-0.790988353428057178184928943665 17:1 #
-0.790988353428057178184928943665 5:1 #
0.790988353428057178184928943665 17:1 #
0.790988353428057178184928943665 5:1 #
-0.790988353428057178184928943665 17:1 #
-0.790988353428057178184928943665 5:1 #
0.790988353428057178184928943665 17:1 #
0.790988353428057178184928943665 5:1 #
-0.790988353428057178184928943665 17:1 #
-0.790988353428057178184928943665 5:1 #
0.790988353428057178184928943665 17:1 #
0.790988353428057178184928943665 5:1 #
-0.790988353428057178184928943665 17:1 #
-0.790988353428057178184928943665 5:1 #
0.790988353428057178184928943665 17:1 #
0.790988353428057178184928943665 5:1 #
-0.790988353428057178184928943665 17:1 #
-0.790988353428057178184928943665 5:1 #
0.790988353428057178184928943665 17:1 #
0.790988353428057178184928943665 5:1 #
-0.790988353428057178184928943665 17:1 #
-0.790988353428057178184928943665 5:1 #
0.790988353428057178184928943665 17:1 #
0.790988353428057178184928943665 5:1 #
-0.790988353428057178184928943665 17:1 #
-0.790988353428057178184928943665 5:1 #
0.790988353428057178184928943665 17:1 #
0.790988353428057178184928943665 5:1 #
-0.790988353428057178184928943665 17:1 #
-0.790988353428057178184928943665 5:1 #
0.790988353428057178184928943665 17:1 #
0.790988353428057178184928943665 5:1 #
-0.790988353428057178184928943665 17:1 #
-0.790988353428057178184928943665 5:1 #
0.790988353428057178184928943665 17:1 #
0.790988353428057178184928943665 5:1 #
-0.790988353428057178184928943665 17:1 #
-0.790988353428057178184928943665 5:1 #
0.790988353428057178184928943665 17:1 #
0.790988353428057178184928943665 5:1 #
-0.790988353428057178184928943665 17:1 #
-0.790988353428057178184928943665 5:1 #
0.790988353428057178184928943665 17:1 #
0.790988353428057178184928943665 5:1 #
-0.790988353428057178184928943665 17:1 #
-0.790988353428057178184928943665 5:1 #
0.790988353428057178184928943665 17:1 #
0.790988353428057178184928943665 5:1 #
-0.790988353428057178184928943665 17:1 #
-0.790988353428057178184928943665 5:1 #
0.790988353428057178184928943665 17:1 #
0.790988353428057178184928943665 5:1 #
-0.790988353428057178184928943665 17:1 #
-0.790988353428057178184928943665 5:1 #
0.790988353428057178184928943665 17:1 #
0.790988353428057178184928943665 5:1 #
-0.790988353428057178184928943665 17:1 #
-0.790988353428057178184928943665 5:1 #
0.790988353428057178184928943665 17:1 #
0.790988353428057178184928943665 5:1 #
-0.790988353428057178184928943665 17:1 #
-0.790988353428057178184928943665 5:1 #
0.790988353428057178184928943665 17:1 #
0.790988353428057178184928943665 5:1 #
-0.790988353428057178184928943665 17:1 #
-0.790988353428057178184928943665 5:1 #
0.790988353428057178184928943665 17:1 #
0.790988353428057178184928943665 5:1 #
-0.790988353428057178184928943665 17:1 #
-0.790988353428057178184928943665 5:1 #
0.790988353428057178184928943665 17:1 #
0.790988353428057178184928943665 5:1 #
-0.790988353428057178184928943665 17:1 #
-0.790988353428057178184928943665 5:1 #
0.790988353428057178184928943665 17:1 #
0.790988353428057178184928943665 5:1 #
-0.790988353428057178184928943665 17:1 #
-0.790988353428057178184928943665 5:1 #
0.790988353428057178184928943665 17:1 #
0.790988353428057178184928943665 5:1 #
-0.790988353428057178184928943665 17:1 #
-0.790988353428057178184928943665 5:1 #
0.790988353428057178184928943665 17:1 #
0.790988353428057178184928943665 5:1 #
-0.790988353428057178184928943665 17:1 #
-0.790988353428057178184928943665 5:1 #
0.790988353428057178184928943665 17:1 #
0.790988353428057178184928943665 5:1 #
-0.790988353428057178184928943665 17:1 #
-0.790988353428057178184928943665 5:1 #
0.790988353428057178184928943665 17:1 #
0.790988353428057178184928943665 5:1 #
-0.790988353428057178184928943665 17:1 #
-0.790988353428057178184928943665 5:1 #
0.790988353428057178184928943665 17:1 #
0.790988353428057178184928943665 5:1 #
-0.790988353428057178184928943665 17:1 #
-0.790988353428057178184928943665 5:1 #
0.790988353428057178184928943665 17:1 #
0.790988353428057178184928943665 5:1 #
-0.790988353428057178184928943665 17:1 #
-0.790988353428057178184928943665 5:1 #
0.790988353428057178184928943665 17:1 #
0.790988353428057178184928943665 5:1 #
-0.790988353428057178184928943665 17:1 #
-0.790988353428057178184928943665 5:1 #
0.790988353428057178184928943665 17:1 #
-0.17990633564290325896450895015732 16:1 #
-0.55453297613998520088074428713298 6:1 #
-0.24654139346684783573593335859186 19:1 #
-0.60100616591684707934462039702339 17:1 #
0.790988353428057178184928943665 8:1 #
0.790988353428057178184928943665 5:1 #
-0.790988353428057178184928943665 8:1 #
-0.790988353428057178184928943665 5:1 #
-0.790988353428057178184928943665 15:1 #
0.790988353428057178184928943665 5:1 #
-0.790988353428057178184928943665 2:1 #
0.790988353428057178184928943665 2:1 #
-0.790988353428057178184928943665 5:1 #
0.790988353428057178184928943665 8:1 #
0.790988353428057178184928943665 5:1 #
-0.790988353428057178184928943665 3:1 #
-0.790988353428057178184928943665 5:1 #
0.790988353428057178184928943665 6:1 #
0.790988353428057178184928943665 5:1 #
-0.790988353428057178184928943665 6:1 #
-0.790988353428057178184928943665 5:1 #
0.790988353428057178184928943665 6:1 #
-0.790988353428057178184928943665 8:1 #
0.790988353428057178184928943665 8:1 #
-0.790988353428057178184928943665 6:1 #
0.790988353428057178184928943665 6:1 #
-0.790988353428057178184928943665 8:1 #
0.790988353428057178184928943665 8:1 #
-0.790988353428057178184928943665 6:1 #
0.790988353428057178184928943665 6:1 #
-0.790988353428057178184928943665 8:1 #
0.790988353428057178184928943665 8:1 #
-0.790988353428057178184928943665 6:1 #
0.790988353428057178184928943665 6:1 #
-0.790988353428057178184928943665 8:1 #
0.790988353428057178184928943665 8:1 #
-0.790988353428057178184928943665 6:1 #
0.790988353428057178184928943665 6:1 #
-0.790988353428057178184928943665 8:1 #
0.790988353428057178184928943665 8:1 #
-0.790988353428057178184928943665 6:1 #
0.790988353428057178184928943665 6:1 #
-0.790988353428057178184928943665 8:1 #
0.790988353428057178184928943665 8:1 #
-0.790988353428057178184928943665 6:1 #
0.790988353428057178184928943665 6:1 #
-0.790988353428057178184928943665 8:1 #
0.790988353428057178184928943665 8:1 #
-0.790988353428057178184928943665 6:1 #
0.790988353428057178184928943665 6:1 #
-0.790988353428057178184928943665 8:1 #
0.790988353428057178184928943665 8:1 #
-0.790988353428057178184928943665 6:1 #
0.790988353428057178184928943665 6:1 #
-0.790988353428057178184928943665 8:1 #
0.790988353428057178184928943665 8:1 #
-0.790988353428057178184928943665 6:1 #
0.790988353428057178184928943665 6:1 #
-0.790988353428057178184928943665 8:1 #
0.790988353428057178184928943665 8:1 #
-0.790988353428057178184928943665 6:1 #
0.790988353428057178184928943665 6:1 #
-0.790988353428057178184928943665 8:1 #
0.790988353428057178184928943665 8:1 #
-0.790988353428057178184928943665 6:1 #
0.790988353428057178184928943665 6:1 #
-0.790988353428057178184928943665 8:1 #
0.790988353428057178184928943665 8:1 #
-0.790988353428057178184928943665 6:1 #
0.790988353428057178184928943665 6:1 #
-0.790988353428057178184928943665 8:1 #
0.790988353428057178184928943665 8:1 #
-0.790988353428057178184928943665 6:1 #
0.790988353428057178184928943665 6:1 #
-0.790988353428057178184928943665 8:1 #
0.790988353428057178184928943665 8:1 #
-0.790988353428057178184928943665 6:1 #
0.790988353428057178184928943665 6:1 #
-0.790988353428057178184928943665 8:1 #
0.790988353428057178184928943665 8:1 #
-0.790988353428057178184928943665 6:1 #
0.790988353428057178184928943665 6:1 #
-0.790988353428057178184928943665 8:1 #
0.790988353428057178184928943665 8:1 #
-0.790988353428057178184928943665 6:1 #
0.790988353428057178184928943665 6:1 #
-0.790988353428057178184928943665 8:1 #
0.790988353428057178184928943665 8:1 #
-0.790988353428057178184928943665 6:1 #
0.790988353428057178184928943665 6:1 #
-0.790988353428057178184928943665 8:1 #
0.790988353428057178184928943665 8:1 #
-0.790988353428057178184928943665 6:1 #
0.790988353428057178184928943665 6:1 #
-0.790988353428057178184928943665 8:1 #
0.790988353428057178184928943665 8:1 #
-0.790988353428057178184928943665 6:1 #
0.790988353428057178184928943665 6:1 #
-0.790988353428057178184928943665 8:1 #
0.790988353428057178184928943665 8:1 #
-0.790988353428057178184928943665 6:1 #
0.790988353428057178184928943665 6:1 #
-0.790988353428057178184928943665 8:1 #
0.790988353428057178184928943665 8:1 #
-0.790988353428057178184928943665 6:1 #
0.790988353428057178184928943665 6:1 #
-0.790988353428057178184928943665 8:1 #
0.790988353428057178184928943665 8:1 #
-0.790988353428057178184928943665 6:1 #
0.790988353428057178184928943665 6:1 #
-0.790988353428057178184928943665 8:1 #
0.790988353428057178184928943665 8:1 #
-0.790988353428057178184928943665 6:1 #
0.790988353428057178184928943665 6:1 #
-0.790988353428057178184928943665 8:1 #
0.790988353428057178184928943665 8:1 #
-0.790988353428057178184928943665 6:1 #
0.790988353428057178184928943665 6:1 #
-0.790988353428057178184928943665 8:1 #
0.790988353428057178184928943665 8:1 #
-0.790988353428057178184928943665 6:1 #
0.790988353428057178184928943665 6:1 #
-0.790988353428057178184928943665 8:1 #
0.790988353428057178184928943665 8:1 #
-0.790988353428057178184928943665 6:1 #
0.790988353428057178184928943665 6:1 #
-0.790988353428057178184928943665 8:1 #
0.790988353428057178184928943665 8:1 #
-0.790988353428057178184928943665 6:1 #
0.790988353428057178184928943665 6:1 #
-0.790988353428057178184928943665 8:1 #
0.790988353428057178184928943665 8:1 #
-0.790988353428057178184928943665 6:1 #
0.790988353428057178184928943665 6:1 #
-0.790988353428057178184928943665 8:1 #
0.790988353428057178184928943665 8:1 #
-0.790988353428057178184928943665 6:1 #
0.790988353428057178184928943665 6:1 #
-0.790988353428057178184928943665 8:1 #
0.790988353428057178184928943665 8:1 #
-0.790988353428057178184928943665 6:1 #
0.790988353428057178184928943665 6:1 #
-0.790988353428057178184928943665 8:1 #
0.790988353428057178184928943665 8:1 #
-0.790988353428057178184928943665 6:1 #
0.790988353428057178184928943665 6:1 #
-0.790988353428057178184928943665 8:1 #
0.790988353428057178184928943665 8:1 #
-0.790988353428057178184928943665 6:1 #
0.790988353428057178184928943665 6:1 #
-0.790988353428057178184928943665 8:1 #
0.790988353428057178184928943665 8:1 #
-0.790988353428057178184928943665 6:1 #
0.790988353428057178184928943665 6:1 #
-0.790988353428057178184928943665 8:1 #
0.790988353428057178184928943665 8:1 #
-0.790988353428057178184928943665 6:1 #
0.790988353428057178184928943665 6:1 #
-0.790988353428057178184928943665 8:1 #
0.790988353428057178184928943665 8:1 #
-0.790988353428057178184928943665 6:1 #
0.790988353428057178184928943665 6:1 #
-0.790988353428057178184928943665 8:1 #
0.790988353428057178184928943665 8:1 #
-0.790988353428057178184928943665 6:1 #
0.790988353428057178184928943665 6:1 #
-0.790988353428057178184928943665 8:1 #
0.790988353428057178184928943665 8:1 #
-0.790988353428057178184928943665 6:1 #
0.790988353428057178184928943665 6:1 #
-0.790988353428057178184928943665 8:1 #
0.790988353428057178184928943665 8:1 #
-0.790988353428057178184928943665 6:1 #
0.790988353428057178184928943665 6:1 #
-0.790988353428057178184928943665 8:1 #
0.790988353428057178184928943665 8:1 #
-0.790988353428057178184928943665 6:1 #
0.790988353428057178184928943665 6:1 #
-0.790988353428057178184928943665 8:1 #
0.790988353428057178184928943665 8:1 #
-0.790988353428057178184928943665 6:1 #
0.790988353428057178184928943665 6:1 #
-0.790988353428057178184928943665 8:1 #
0.790988353428057178184928943665 8:1 #
-0.790988353428057178184928943665 6:1 #
0.790988353428057178184928943665 6:1 #
-0.790988353428057178184928943665 8:1 #
0.790988353428057178184928943665 8:1 #
-0.790988353428057178184928943665 6:1 #
0.790988353428057178184928943665 6:1 #
-0.790988353428057178184928943665 8:1 #
0.790988353428057178184928943665 8:1 #
-0.790988353428057178184928943665 6:1 #
0.790988353428057178184928943665 6:1 #
-0.790988353428057178184928943665 8:1 #
0.790988353428057178184928943665 8:1 #
-0.790988353428057178184928943665 6:1 #
0.790988353428057178184928943665 6:1 #
-0.790988353428057178184928943665 8:1 #
0.790988353428057178184928943665 8:1 #
-0.790988353428057178184928943665 6:1 #
0.790988353428057178184928943665 6:1 #
-0.790988353428057178184928943665 8:1 #
-0.31298812831057654104682796969428 9:1 #
-0.46939630978052720999826874503924 18:1 #
-0.3553133951947170521279417698679 12:1 #
-0.51989496955105263253926750621758 1:1 #
-0.10248900437663435725177407675801 16:1 #
0.790988353428057178184928943665 13:1 #
0.790988353428057178184928943665 4:1 #
-0.7385914919282240420628227184352 6:1 #
0.790988353428057178184928943665 8:1 #
-0.790988353428057178184928943665 4:1 #
0.790988353428057178184928943665 18:1 #
-0.790988353428057178184928943665 13:1 #
-0.64233852028864690808518389530946 4:1 #
0.790988353428057178184928943665 6:1 #
-0.790988353428057178184928943665 18:1 #
0.790988353428057178184928943665 12:1 #
-0.790988353428057178184928943665 6:1 #
0.790988353428057178184928943665 1:1 #
-0.790988353428057178184928943665 8:1 #
-0.790988353428057178184928943665 18:1 #
0.790988353428057178184928943665 9:1 #
0.790988353428057178184928943665 18:1 #
-0.790988353428057178184928943665 9:1 #
0.790988353428057178184928943665 8:1 #
-0.790988353428057178184928943665 18:1 #
0.790988353428057178184928943665 18:1 #
-0.790988353428057178184928943665 19:1 #
-0.790988353428057178184928943665 18:1 #
0.790988353428057178184928943665 19:1 #
-0.790988353428057178184928943665 19:1 #
0.790988353428057178184928943665 16:1 #
-0.790988353428057178184928943665 12:1 #
0.790988353428057178184928943665 6:1 #
-0.790988353428057178184928943665 18:1 #
0.790988353428057178184928943665 12:1 #
-0.790988353428057178184928943665 6:1 #
-0.790988353428057178184928943665 12:1 #
-0.790988353428057178184928943665 6:1 #
0.790988353428057178184928943665 18:1 #
-0.790988353428057178184928943665 16:1 #
0.790988353428057178184928943665 6:1 #
-0.790988353428057178184928943665 16:1 #
0.790988353428057178184928943665 16:1 #
-0.790988353428057178184928943665 6:1 #
0.790988353428057178184928943665 6:1 #
-0.790988353428057178184928943665 16:1 #
0.790988353428057178184928943665 16:1 #
-0.790988353428057178184928943665 6:1 #
0.790988353428057178184928943665 6:1 #
-0.790988353428057178184928943665 16:1 #
0.790988353428057178184928943665 16:1 #
-0.790988353428057178184928943665 6:1 #
0.790988353428057178184928943665 6:1 #
-0.790988353428057178184928943665 16:1 #
0.790988353428057178184928943665 16:1 #
-0.790988353428057178184928943665 6:1 #
0.790988353428057178184928943665 6:1 #
-0.790988353428057178184928943665 16:1 #
0.790988353428057178184928943665 16:1 #
-0.790988353428057178184928943665 6:1 #
0.790988353428057178184928943665 6:1 #
-0.790988353428057178184928943665 16:1 #
0.790988353428057178184928943665 16:1 #
-0.790988353428057178184928943665 6:1 #
0.790988353428057178184928943665 6:1 #
-0.790988353428057178184928943665 16:1 #
0.790988353428057178184928943665 16:1 #
-0.790988353428057178184928943665 6:1 #
0.790988353428057178184928943665 6:1 #
-0.790988353428057178184928943665 16:1 #
0.790988353428057178184928943665 16:1 #
-0.790988353428057178184928943665 6:1 #
0.790988353428057178184928943665 6:1 #
-0.790988353428057178184928943665 16:1 #
0.790988353428057178184928943665 16:1 #
-0.790988353428057178184928943665 6:1 #
0.790988353428057178184928943665 6:1 #
-0.790988353428057178184928943665 16:1 #
0.790988353428057178184928943665 16:1 #
-0.790988353428057178184928943665 6:1 #
0.790988353428057178184928943665 6:1 #
-0.790988353428057178184928943665 16:1 #
0.790988353428057178184928943665 16:1 #
-0.790988353428057178184928943665 6:1 #
0.790988353428057178184928943665 6:1 #
-0.790988353428057178184928943665 16:1 #
0.790988353428057178184928943665 16:1 #
-0.790988353428057178184928943665 6:1 #
0.790988353428057178184928943665 6:1 #
-0.790988353428057178184928943665 16:1 #
0.790988353428057178184928943665 16:1 #
-0.790988353428057178184928943665 6:1 #
0.790988353428057178184928943665 6:1 #
-0.790988353428057178184928943665 16:1 #
0.790988353428057178184928943665 16:1 #
-0.790988353428057178184928943665 6:1 #
0.790988353428057178184928943665 6:1 #
-0.790988353428057178184928943665 16:1 #
0.790988353428057178184928943665 16:1 #
-0.790988353428057178184928943665 6:1 #
0.790988353428057178184928943665 6:1 #
-0.790988353428057178184928943665 16:1 #
0.790988353428057178184928943665 16:1 #
-0.790988353428057178184928943665 6:1 #
0.790988353428057178184928943665 6:1 #
-0.790988353428057178184928943665 16:1 #
0.790988353428057178184928943665 16:1 #
-0.790988353428057178184928943665 6:1 #
0.790988353428057178184928943665 6:1 #
-0.790988353428057178184928943665 16:1 #
0.790988353428057178184928943665 16:1 #
-0.790988353428057178184928943665 6:1 #
0.790988353428057178184928943665 6:1 #
-0.790988353428057178184928943665 16:1 #
0.790988353428057178184928943665 16:1 #
-0.790988353428057178184928943665 6:1 #
0.790988353428057178184928943665 6:1 #
-0.790988353428057178184928943665 16:1 #
0.790988353428057178184928943665 16:1 #
-0.790988353428057178184928943665 6:1 #
0.790988353428057178184928943665 6:1 #
-0.790988353428057178184928943665 16:1 #
0.790988353428057178184928943665 16:1 #
-0.790988353428057178184928943665 6:1 #
0.790988353428057178184928943665 6:1 #
-0.790988353428057178184928943665 16:1 #
0.790988353428057178184928943665 16:1 #
-0.790988353428057178184928943665 6:1 #
0.790988353428057178184928943665 6:1 #
-0.790988353428057178184928943665 16:1 #
0.790988353428057178184928943665 16:1 #
-0.790988353428057178184928943665 6:1 #
0.790988353428057178184928943665 6:1 #
-0.790988353428057178184928943665 16:1 #
0.790988353428057178184928943665 16:1 #
-0.790988353428057178184928943665 6:1 #
0.790988353428057178184928943665 6:1 #
-0.790988353428057178184928943665 16:1 #
0.790988353428057178184928943665 16:1 #
-0.790988353428057178184928943665 6:1 #
0.790988353428057178184928943665 6:1 #
-0.790988353428057178184928943665 16:1 #
0.790988353428057178184928943665 16:1 #
-0.790988353428057178184928943665 6:1 #
0.790988353428057178184928943665 6:1 #
-0.790988353428057178184928943665 16:1 #
0.790988353428057178184928943665 16:1 #
-0.790988353428057178184928943665 6:1 #
0.790988353428057178184928943665 6:1 #
-0.790988353428057178184928943665 16:1 #
0.790988353428057178184928943665 16:1 #
-0.790988353428057178184928943665 6:1 #
0.790988353428057178184928943665 6:1 #
-0.790988353428057178184928943665 16:1 #
0.790988353428057178184928943665 16:1 #
-0.790988353428057178184928943665 6:1 #
0.790988353428057178184928943665 6:1 #
-0.790988353428057178184928943665 16:1 #
0.790988353428057178184928943665 16:1 #
-0.790988353428057178184928943665 6:1 #
0.790988353428057178184928943665 6:1 #
-0.790988353428057178184928943665 16:1 #
0.790988353428057178184928943665 16:1 #
-0.790988353428057178184928943665 6:1 #
0.790988353428057178184928943665 6:1 #
-0.790988353428057178184928943665 16:1 #
0.790988353428057178184928943665 16:1 #
-0.790988353428057178184928943665 6:1 #
0.790988353428057178184928943665 6:1 #
-0.790988353428057178184928943665 16:1 #
0.790988353428057178184928943665 16:1 #
-0.790988353428057178184928943665 6:1 #
0.790988353428057178184928943665 6:1 #
-0.790988353428057178184928943665 16:1 #
0.790988353428057178184928943665 16:1 #
-0.790988353428057178184928943665 6:1 #
0.790988353428057178184928943665 6:1 #
-0.790988353428057178184928943665 16:1 #
0.790988353428057178184928943665 16:1 #
-0.790988353428057178184928943665 6:1 #
0.790988353428057178184928943665 6:1 #
-0.790988353428057178184928943665 16:1 #
0.790988353428057178184928943665 16:1 #
-0.790988353428057178184928943665 6:1 #
0.790988353428057178184928943665 6:1 #
-0.790988353428057178184928943665 16:1 #
0.790988353428057178184928943665 16:1 #
-0.790988353428057178184928943665 6:1 #
0.790988353428057178184928943665 6:1 #
-0.790988353428057178184928943665 16:1 #
0.790988353428057178184928943665 16:1 #
-0.790988353428057178184928943665 6:1 #
0.790988353428057178184928943665 6:1 #
-0.790988353428057178184928943665 16:1 #
0.790988353428057178184928943665 16:1 #
-0.790988353428057178184928943665 6:1 #
0.790988353428057178184928943665 6:1 #
-0.790988353428057178184928943665 16:1 #
0.790988353428057178184928943665 16:1 #
-0.790988353428057178184928943665 6:1 #
0.790988353428057178184928943665 6:1 #
-0.790988353428057178184928943665 16:1 #
0.790988353428057178184928943665 16:1 #
-0.790988353428057178184928943665 6:1 #
0.790988353428057178184928943665 6:1 #
-0.790988353428057178184928943665 16:1 #
-0.790988353428057178184928943665 14:1 #
-0.790988353428057178184928943665 3:1 #
-0.78425323120154921685553972565685 16:1 #
-0.790988353428057178184928943665 10:1 #
0.790988353428057178184928943665 18:1 #
0.790988353428057178184928943665 20:1 #
0.790988353428057178184928943665 2:1 #
0.790988353428057178184928943665 15:1 #
0.790988353428057178184928943665 16:1 #
-0.790988353428057178184928943665 2:1 #
0.790988353428057178184928943665 3:1 #
-0.790988353428057178184928943665 6:1 #
0.790988353428057178184928943665 16:1 #
-0.790988353428057178184928943665 15:1 #
0.790988353428057178184928943665 10:1 #
-0.790988353428057178184928943665 20:1 #
0.790988353428057178184928943665 6:1 #
-0.790988353428057178184928943665 18:1 #
0.790988353428057178184928943665 18:1 #
-0.790988353428057178184928943665 6:1 #
0.790988353428057178184928943665 6:1 #
-0.790988353428057178184928943665 18:1 #
0.790988353428057178184928943665 18:1 #
-0.790988353428057178184928943665 6:1 #
0.790988353428057178184928943665 6:1 #
-0.790988353428057178184928943665 18:1 #
0.790988353428057178184928943665 18:1 #
-0.790988353428057178184928943665 6:1 #
0.790988353428057178184928943665 6:1 #
-0.790988353428057178184928943665 18:1 #
0.790988353428057178184928943665 18:1 #
-0.790988353428057178184928943665 6:1 #
0.790988353428057178184928943665 6:1 #
-0.790988353428057178184928943665 18:1 #
0.790988353428057178184928943665 18:1 #
-0.790988353428057178184928943665 6:1 #
0.790988353428057178184928943665 6:1 #
-0.790988353428057178184928943665 18:1 #
0.790988353428057178184928943665 18:1 #
-0.790988353428057178184928943665 6:1 #
0.790988353428057178184928943665 6:1 #
-0.790988353428057178184928943665 18:1 #
0.790988353428057178184928943665 18:1 #
