SVM-light Version V6.02
2 # kernel type
3 # kernel parameter -d 
1 # kernel parameter -g 
1 # kernel parameter -s 
1 # kernel parameter -r 
empty# kernel parameter -u 
20 # highest feature index 
65064 # number of training documents 
28487 # number of support vectors plus 1 
1.0001971 # threshold b, each following line is a SV (starting with alpha*y)
-0.79098835343392759344993692138814 9:1 #
-0.56798034004319875034383358070045 2:1 #
0.79098835343392759344993692138814 18:1 #
-0.36373434266632737044133705239801 12:1 #
0.79098835343392759344993692138814 15:1 #
0.79098835343392759344993692138814 17:1 #
0.79098835343392759344993692138814 2:1 #
0.79098835343392759344993692138814 4:1 #
-0.79098835343392759344993692138814 15:1 #
-0.79098835343392759344993692138814 15:1 #
0.79098835343392759344993692138814 9:1 #
0.79098835343392759344993692138814 17:1 #
-0.79098835343392759344993692138814 4:1 #
0.79098835343392759344993692138814 12:1 #
-0.79098835343392759344993692138814 12:1 #
0.79098835343392759344993692138814 4:1 #
-0.79098835343392759344993692138814 17:1 #
-0.79098835343392759344993692138814 4:1 #
0.79098835343392759344993692138814 4:1 #
-0.79098835343392759344993692138814 17:1 #
0.79098835343392759344993692138814 17:1 #
-0.79098835343392759344993692138814 4:1 #
0.79098835343392759344993692138814 4:1 #
-0.79098835343392759344993692138814 17:1 #
-0.79098835343392759344993692138814 4:1 #
0.79098835343392759344993692138814 17:1 #
0.79098835343392759344993692138814 4:1 #
-0.79098835343392759344993692138814 17:1 #
-0.79098835343392759344993692138814 4:1 #
0.79098835343392759344993692138814 17:1 #
0.79098835343392759344993692138814 4:1 #
-0.79098835343392759344993692138814 17:1 #
-0.79098835343392759344993692138814 4:1 #
0.79098835343392759344993692138814 17:1 #
0.79098835343392759344993692138814 4:1 #
-0.79098835343392759344993692138814 17:1 #
-0.79098835343392759344993692138814 4:1 #
0.79098835343392759344993692138814 17:1 #
0.79098835343392759344993692138814 4:1 #
-0.79098835343392759344993692138814 17:1 #
-0.79098835343392759344993692138814 4:1 #
0.79098835343392759344993692138814 17:1 #
0.79098835343392759344993692138814 4:1 #
-0.79098835343392759344993692138814 17:1 #
-0.79098835343392759344993692138814 4:1 #
0.79098835343392759344993692138814 17:1 #
0.79098835343392759344993692138814 4:1 #
-0.79098835343392759344993692138814 17:1 #
-0.79098835343392759344993692138814 4:1 #
0.79098835343392759344993692138814 17:1 #
0.79098835343392759344993692138814 4:1 #
-0.79098835343392759344993692138814 17:1 #
-0.79098835343392759344993692138814 4:1 #
0.79098835343392759344993692138814 17:1 #
0.79098835343392759344993692138814 4:1 #
-0.79098835343392759344993692138814 17:1 #
-0.79098835343392759344993692138814 4:1 #
0.79098835343392759344993692138814 17:1 #
0.79098835343392759344993692138814 4:1 #
-0.79098835343392759344993692138814 17:1 #
-0.79098835343392759344993692138814 4:1 #
0.79098835343392759344993692138814 17:1 #
0.79098835343392759344993692138814 4:1 #
-0.79098835343392759344993692138814 17:1 #
-0.79098835343392759344993692138814 4:1 #
0.79098835343392759344993692138814 17:1 #
0.79098835343392759344993692138814 4:1 #
-0.79098835343392759344993692138814 17:1 #
-0.79098835343392759344993692138814 4:1 #
0.79098835343392759344993692138814 17:1 #
0.79098835343392759344993692138814 4:1 #
-0.79098835343392759344993692138814 17:1 #
-0.79098835343392759344993692138814 4:1 #
0.79098835343392759344993692138814 17:1 #
0.79098835343392759344993692138814 4:1 #
-0.79098835343392759344993692138814 17:1 #
-0.79098835343392759344993692138814 4:1 #
0.79098835343392759344993692138814 17:1 #
0.79098835343392759344993692138814 4:1 #
-0.79098835343392759344993692138814 17:1 #
-0.79098835343392759344993692138814 4:1 #
0.79098835343392759344993692138814 17:1 #
0.79098835343392759344993692138814 4:1 #
-0.79098835343392759344993692138814 17:1 #
-0.79098835343392759344993692138814 4:1 #
0.79098835343392759344993692138814 17:1 #
0.79098835343392759344993692138814 4:1 #
-0.79098835343392759344993692138814 17:1 #
-0.79098835343392759344993692138814 4:1 #
0.79098835343392759344993692138814 17:1 #
0.79098835343392759344993692138814 4:1 #
-0.79098835343392759344993692138814 17:1 #
-0.79098835343392759344993692138814 4:1 #
0.79098835343392759344993692138814 17:1 #
0.79098835343392759344993692138814 4:1 #
-0.79098835343392759344993692138814 17:1 #
-0.79098835343392759344993692138814 4:1 #
0.79098835343392759344993692138814 17:1 #
0.79098835343392759344993692138814 4:1 #
-0.79098835343392759344993692138814 17:1 #
-0.79098835343392759344993692138814 4:1 #
0.79098835343392759344993692138814 17:1 #
0.79098835343392759344993692138814 4:1 #
-0.79098835343392759344993692138814 17:1 #
-0.79098835343392759344993692138814 4:1 #
0.79098835343392759344993692138814 17:1 #
0.79098835343392759344993692138814 4:1 #
-0.79098835343392759344993692138814 17:1 #
-0.79098835343392759344993692138814 4:1 #
0.79098835343392759344993692138814 17:1 #
0.79098835343392759344993692138814 4:1 #
-0.79098835343392759344993692138814 17:1 #
-0.79098835343392759344993692138814 4:1 #
0.79098835343392759344993692138814 17:1 #
0.79098835343392759344993692138814 4:1 #
-0.79098835343392759344993692138814 17:1 #
-0.79098835343392759344993692138814 4:1 #
0.79098835343392759344993692138814 17:1 #
0.79098835343392759344993692138814 4:1 #
-0.79098835343392759344993692138814 17:1 #
-0.79098835343392759344993692138814 4:1 #
0.79098835343392759344993692138814 17:1 #
0.79098835343392759344993692138814 4:1 #
-0.79098835343392759344993692138814 17:1 #
-0.79098835343392759344993692138814 4:1 #
0.79098835343392759344993692138814 17:1 #
0.79098835343392759344993692138814 4:1 #
-0.79098835343392759344993692138814 17:1 #
-0.79098835343392759344993692138814 4:1 #
0.79098835343392759344993692138814 17:1 #
0.79098835343392759344993692138814 4:1 #
-0.79098835343392759344993692138814 17:1 #
-0.79098835343392759344993692138814 4:1 #
0.79098835343392759344993692138814 17:1 #
0.79098835343392759344993692138814 4:1 #
-0.79098835343392759344993692138814 17:1 #
-0.79098835343392759344993692138814 4:1 #
0.79098835343392759344993692138814 17:1 #
0.79098835343392759344993692138814 4:1 #
-0.79098835343392759344993692138814 17:1 #
-0.79098835343392759344993692138814 4:1 #
0.79098835343392759344993692138814 17:1 #
-0.79098434412260809622807755658869 3:1 #
-0.39549978980037747700038153197966 20:1 #
-0.79098539961385050389708339935169 17:1 #
-4.8411799224434837185526703251526e-06 4:1 #
0.79098835343392759344993692138814 7:1 #
0.79098835343392759344993692138814 18:1 #
-0.79098835343392759344993692138814 17:1 #
0.79098835343392759344993692138814 20:1 #
0.79098835343392759344993692138814 4:1 #
-0.79098835343392759344993692138814 18:1 #
-0.27410254194942440530979865798145 16:1 #
0.79098835343392759344993692138814 3:1 #
-0.79098835343392759344993692138814 4:1 #
0.79098835343392759344993692138814 17:1 #
-0.79098835343392759344993692138814 20:1 #
0.79098835343392759344993692138814 17:1 #
0.79098835343392759344993692138814 4:1 #
-0.79098835343392759344993692138814 17:1 #
-0.79098835343392759344993692138814 4:1 #
0.79098835343392759344993692138814 17:1 #
0.79098835343392759344993692138814 4:1 #
-0.79098835343392759344993692138814 17:1 #
-0.79098835343392759344993692138814 4:1 #
0.79098835343392759344993692138814 17:1 #
0.79098835343392759344993692138814 4:1 #
-0.79098835343392759344993692138814 17:1 #
-0.79098835343392759344993692138814 4:1 #
0.79098835343392759344993692138814 17:1 #
0.79098835343392759344993692138814 4:1 #
-0.79098835343392759344993692138814 17:1 #
-0.79098835343392759344993692138814 4:1 #
0.79098835343392759344993692138814 17:1 #
0.79098835343392759344993692138814 4:1 #
-0.79098835343392759344993692138814 17:1 #
-0.79098835343392759344993692138814 4:1 #
0.79098835343392759344993692138814 17:1 #
0.79098835343392759344993692138814 4:1 #
-0.79098835343392759344993692138814 17:1 #
-0.79098835343392759344993692138814 4:1 #
0.79098835343392759344993692138814 17:1 #
0.79098835343392759344993692138814 4:1 #
-0.79098835343392759344993692138814 17:1 #
-0.79098835343392759344993692138814 4:1 #
0.79098835343392759344993692138814 17:1 #
0.79098835343392759344993692138814 4:1 #
-0.79098835343392759344993692138814 17:1 #
-0.79098835343392759344993692138814 4:1 #
0.79098835343392759344993692138814 17:1 #
0.79098835343392759344993692138814 4:1 #
-0.79098835343392759344993692138814 17:1 #
-0.79098835343392759344993692138814 4:1 #
0.79098835343392759344993692138814 17:1 #
0.79098835343392759344993692138814 4:1 #
-0.79098835343392759344993692138814 17:1 #
-0.79098835343392759344993692138814 4:1 #
0.79098835343392759344993692138814 17:1 #
0.79098835343392759344993692138814 4:1 #
-0.79098835343392759344993692138814 17:1 #
-0.79098835343392759344993692138814 4:1 #
0.79098835343392759344993692138814 17:1 #
0.79098835343392759344993692138814 4:1 #
-0.79098835343392759344993692138814 17:1 #
-0.79098835343392759344993692138814 4:1 #
0.79098835343392759344993692138814 17:1 #
0.79098835343392759344993692138814 4:1 #
-0.79098835343392759344993692138814 17:1 #
-0.79098835343392759344993692138814 4:1 #
0.79098835343392759344993692138814 17:1 #
0.79098835343392759344993692138814 4:1 #
-0.79098835343392759344993692138814 17:1 #
-0.79098835343392759344993692138814 4:1 #
0.79098835343392759344993692138814 17:1 #
0.79098835343392759344993692138814 4:1 #
-0.79098835343392759344993692138814 17:1 #
-0.79098835343392759344993692138814 4:1 #
0.79098835343392759344993692138814 17:1 #
0.79098835343392759344993692138814 4:1 #
-0.79098835343392759344993692138814 17:1 #
-0.79098835343392759344993692138814 4:1 #
0.79098835343392759344993692138814 17:1 #
0.79098835343392759344993692138814 4:1 #
-0.79098835343392759344993692138814 17:1 #
-0.79098835343392759344993692138814 4:1 #
0.79098835343392759344993692138814 17:1 #
0.79098835343392759344993692138814 4:1 #
-0.79098835343392759344993692138814 17:1 #
-0.79098835343392759344993692138814 4:1 #
0.79098835343392759344993692138814 17:1 #
0.79098835343392759344993692138814 4:1 #
-0.79098835343392759344993692138814 17:1 #
-0.79098835343392759344993692138814 4:1 #
0.79098835343392759344993692138814 17:1 #
0.79098835343392759344993692138814 4:1 #
-0.79098835343392759344993692138814 17:1 #
-0.79098835343392759344993692138814 4:1 #
0.79098835343392759344993692138814 17:1 #
0.79098835343392759344993692138814 4:1 #
-0.79098835343392759344993692138814 17:1 #
-0.79098835343392759344993692138814 4:1 #
0.79098835343392759344993692138814 17:1 #
0.79098835343392759344993692138814 4:1 #
-0.79098835343392759344993692138814 17:1 #
-0.79098835343392759344993692138814 4:1 #
0.79098835343392759344993692138814 17:1 #
0.79098835343392759344993692138814 4:1 #
-0.79098835343392759344993692138814 17:1 #
-0.79098835343392759344993692138814 4:1 #
0.79098835343392759344993692138814 17:1 #
0.79098835343392759344993692138814 4:1 #
-0.79098835343392759344993692138814 17:1 #
-0.79098835343392759344993692138814 4:1 #
0.79098835343392759344993692138814 17:1 #
0.79098835343392759344993692138814 4:1 #
-0.79098835343392759344993692138814 17:1 #
-0.79098835343392759344993692138814 4:1 #
0.79098835343392759344993692138814 17:1 #
0.79098835343392759344993692138814 4:1 #
-0.79098835343392759344993692138814 17:1 #
-0.79098835343392759344993692138814 4:1 #
0.79098835343392759344993692138814 17:1 #
0.79098835343392759344993692138814 4:1 #
-0.79098835343392759344993692138814 17:1 #
-0.79098835343392759344993692138814 4:1 #
0.79098835343392759344993692138814 17:1 #
0.79098835343392759344993692138814 4:1 #
-0.79098835343392759344993692138814 17:1 #
-0.79098835343392759344993692138814 4:1 #
0.79098835343392759344993692138814 17:1 #
0.79098835343392759344993692138814 4:1 #
-0.79098835343392759344993692138814 17:1 #
-0.79098835343392759344993692138814 4:1 #
0.79098835343392759344993692138814 17:1 #
0.79098835343392759344993692138814 4:1 #
-0.79098835343392759344993692138814 17:1 #
-0.79098835343392759344993692138814 4:1 #
0.79098835343392759344993692138814 17:1 #
0.79098835343392759344993692138814 4:1 #
-0.79098835343392759344993692138814 17:1 #
-0.79098835343392759344993692138814 4:1 #
0.79098835343392759344993692138814 17:1 #
0.79098835343392759344993692138814 4:1 #
-0.79098835343392759344993692138814 17:1 #
-0.79098835343392759344993692138814 4:1 #
0.79098835343392759344993692138814 17:1 #
-0.5822592331520050068505156559695 16:1 #
-0.79098835343392759344993692138814 10:1 #
-0.62620133411878853291199220620911 2:1 #
-0.58225923315200489582821319345385 19:1 #
0.79098835343392759344993692138814 15:1 #
0.79098835343392759344993692138814 9:1 #
0.79098835343392759344993692138814 1:1 #
-0.3585035771678094507208811592136 17:1 #
0.79098835343392759344993692138814 16:1 #
0.79098835343392759344993692138814 4:1 #
-0.79098835343392759344993692138814 15:1 #
-0.79098835343392759344993692138814 9:1 #
0.79098835343392759344993692138814 2:1 #
-0.78435803619976962597348801864428 18:1 #
-0.79098835343392759344993692138814 1:1 #
0.79098835343392759344993692138814 10:1 #
0.79098835343392759344993692138814 17:1 #
-0.79098835343392759344993692138814 16:1 #
0.79098835343392759344993692138814 19:1 #
0.79098835343392759344993692138814 10:1 #
-0.79098835343392759344993692138814 2:1 #
0.79098835343392759344993692138814 16:1 #
-0.79098835343392759344993692138814 16:1 #
0.79098835343392759344993692138814 2:1 #
-0.79098835343392759344993692138814 10:1 #
0.79098835343392759344993692138814 4:1 #
-0.79098835343392759344993692138814 2:1 #
0.79098835343392759344993692138814 2:1 #
-0.79098835343392759344993692138814 4:1 #
0.79098835343392759344993692138814 4:1 #
-0.79098835343392759344993692138814 2:1 #
0.79098835343392759344993692138814 2:1 #
-0.79098835343392759344993692138814 4:1 #
0.79098835343392759344993692138814 4:1 #
-0.79098835343392759344993692138814 2:1 #
0.79098835343392759344993692138814 2:1 #
-0.79098835343392759344993692138814 4:1 #
0.79098835343392759344993692138814 4:1 #
-0.79098835343392759344993692138814 2:1 #
0.79098835343392759344993692138814 2:1 #
-0.79098835343392759344993692138814 4:1 #
0.79098835343392759344993692138814 4:1 #
-0.79098835343392759344993692138814 2:1 #
0.79098835343392759344993692138814 2:1 #
-0.79098835343392759344993692138814 4:1 #
0.79098835343392759344993692138814 4:1 #
-0.79098835343392759344993692138814 2:1 #
0.79098835343392759344993692138814 2:1 #
-0.79098835343392759344993692138814 4:1 #
0.79098835343392759344993692138814 4:1 #
-0.79098835343392759344993692138814 2:1 #
0.79098835343392759344993692138814 2:1 #
-0.79098835343392759344993692138814 4:1 #
0.79098835343392759344993692138814 4:1 #
-0.79098835343392759344993692138814 2:1 #
0.79098835343392759344993692138814 2:1 #
-0.79098835343392759344993692138814 4:1 #
0.79098835343392759344993692138814 4:1 #
-0.79098835343392759344993692138814 2:1 #
0.79098835343392759344993692138814 2:1 #
-0.79098835343392759344993692138814 4:1 #
0.79098835343392759344993692138814 4:1 #
-0.79098835343392759344993692138814 2:1 #
0.79098835343392759344993692138814 2:1 #
-0.79098835343392759344993692138814 4:1 #
0.79098835343392759344993692138814 4:1 #
-0.79098835343392759344993692138814 2:1 #
0.79098835343392759344993692138814 2:1 #
-0.79098835343392759344993692138814 4:1 #
0.79098835343392759344993692138814 4:1 #
-0.79098835343392759344993692138814 2:1 #
0.79098835343392759344993692138814 2:1 #
-0.79098835343392759344993692138814 4:1 #
0.79098835343392759344993692138814 4:1 #
-0.79098835343392759344993692138814 2:1 #
0.79098835343392759344993692138814 2:1 #
-0.79098835343392759344993692138814 4:1 #
0.79098835343392759344993692138814 4:1 #
-0.79098835343392759344993692138814 2:1 #
0.79098835343392759344993692138814 2:1 #
-0.79098835343392759344993692138814 4:1 #
0.79098835343392759344993692138814 4:1 #
-0.79098835343392759344993692138814 2:1 #
0.79098835343392759344993692138814 2:1 #
-0.79098835343392759344993692138814 4:1 #
0.79098835343392759344993692138814 4:1 #
-0.79098835343392759344993692138814 2:1 #
0.79098835343392759344993692138814 2:1 #
-0.79098835343392759344993692138814 4:1 #
0.79098835343392759344993692138814 4:1 #
-0.79098835343392759344993692138814 2:1 #
0.79098835343392759344993692138814 2:1 #
-0.79098835343392759344993692138814 4:1 #
0.79098835343392759344993692138814 4:1 #
-0.79098835343392759344993692138814 2:1 #
0.79098835343392759344993692138814 2:1 #
-0.79098835343392759344993692138814 4:1 #
0.79098835343392759344993692138814 4:1 #
-0.79098835343392759344993692138814 2:1 #
0.79098835343392759344993692138814 2:1 #
-0.79098835343392759344993692138814 4:1 #
0.79098835343392759344993692138814 4:1 #
-0.79098835343392759344993692138814 2:1 #
0.79098835343392759344993692138814 2:1 #
-0.79098835343392759344993692138814 4:1 #
0.79098835343392759344993692138814 4:1 #
-0.79098835343392759344993692138814 2:1 #
0.79098835343392759344993692138814 2:1 #
-0.79098835343392759344993692138814 4:1 #
0.79098835343392759344993692138814 4:1 #
-0.79098835343392759344993692138814 2:1 #
0.79098835343392759344993692138814 2:1 #
-0.79098835343392759344993692138814 4:1 #
0.79098835343392759344993692138814 4:1 #
-0.79098835343392759344993692138814 2:1 #
0.79098835343392759344993692138814 2:1 #
-0.79098835343392759344993692138814 4:1 #
0.79098835343392759344993692138814 4:1 #
-0.79098835343392759344993692138814 2:1 #
0.79098835343392759344993692138814 2:1 #
-0.79098835343392759344993692138814 4:1 #
0.79098835343392759344993692138814 4:1 #
-0.79098835343392759344993692138814 2:1 #
0.79098835343392759344993692138814 2:1 #
-0.79098835343392759344993692138814 4:1 #
0.79098835343392759344993692138814 4:1 #
-0.79098835343392759344993692138814 2:1 #
0.79098835343392759344993692138814 2:1 #
-0.79098835343392759344993692138814 4:1 #
0.79098835343392759344993692138814 4:1 #
-0.79098835343392759344993692138814 2:1 #
0.79098835343392759344993692138814 2:1 #
-0.79098835343392759344993692138814 4:1 #
0.79098835343392759344993692138814 4:1 #
-0.79098835343392759344993692138814 2:1 #
0.79098835343392759344993692138814 2:1 #
-0.79098835343392759344993692138814 4:1 #
0.79098835343392759344993692138814 4:1 #
-0.79098835343392759344993692138814 2:1 #
0.79098835343392759344993692138814 2:1 #
-0.79098835343392759344993692138814 4:1 #
0.79098835343392759344993692138814 4:1 #
-0.79098835343392759344993692138814 2:1 #
0.79098835343392759344993692138814 2:1 #
-0.79098835343392759344993692138814 4:1 #
0.79098835343392759344993692138814 4:1 #
-0.79098835343392759344993692138814 2:1 #
0.79098835343392759344993692138814 2:1 #
-0.79098835343392759344993692138814 4:1 #
0.79098835343392759344993692138814 4:1 #
-0.79098835343392759344993692138814 2:1 #
0.79098835343392759344993692138814 2:1 #
-0.79098835343392759344993692138814 4:1 #
0.79098835343392759344993692138814 4:1 #
-0.79098835343392759344993692138814 2:1 #
0.79098835343392759344993692138814 2:1 #
-0.79098835343392759344993692138814 4:1 #
0.79098835343392759344993692138814 4:1 #
-0.79098835343392759344993692138814 2:1 #
0.79098835343392759344993692138814 2:1 #
-0.79098835343392759344993692138814 4:1 #
0.79098835343392759344993692138814 4:1 #
-0.79098835343392759344993692138814 2:1 #
0.79098835343392759344993692138814 2:1 #
-0.79098835343392759344993692138814 4:1 #
0.79098835343392759344993692138814 4:1 #
-0.79098835343392759344993692138814 2:1 #
0.79098835343392759344993692138814 2:1 #
-0.79098835343392759344993692138814 4:1 #
0.79098835343392759344993692138814 4:1 #
-0.79098835343392759344993692138814 2:1 #
0.79098835343392759344993692138814 2:1 #
-0.79098835343392759344993692138814 4:1 #
0.79098835343392759344993692138814 4:1 #
-0.79098835343392759344993692138814 2:1 #
0.79098835343392759344993692138814 2:1 #
-0.79098835343392759344993692138814 4:1 #
0.79098835343392759344993692138814 4:1 #
-0.79098835343392759344993692138814 2:1 #
0.79098835343392759344993692138814 2:1 #
-0.79098835343392759344993692138814 4:1 #
0.79098835343392759344993692138814 4:1 #
-0.79098835343392759344993692138814 2:1 #
0.79098835343392759344993692138814 2:1 #
-0.79098835343392759344993692138814 4:1 #
0.79098835343392759344993692138814 4:1 #
-0.79098835343392759344993692138814 2:1 #
0.79098835343392759344993692138814 2:1 #
-0.79098835343392759344993692138814 4:1 #
0.79098835343392759344993692138814 4:1 #
-0.79098835343392759344993692138814 2:1 #
0.79098835343392759344993692138814 2:1 #
-0.79098835343392759344993692138814 4:1 #
0.79098835343392759344993692138814 4:1 #
-0.79098835343392759344993692138814 2:1 #
0.79098835343392759344993692138814 2:1 #
-0.79098835343392759344993692138814 4:1 #
0.79098835343392759344993692138814 4:1 #
-0.79098835343392759344993692138814 2:1 #
0.79098835343392759344993692138814 2:1 #
-0.79098835343392759344993692138814 4:1 #
0.79098835343392759344993692138814 4:1 #
-0.79098835343392759344993692138814 2:1 #
0.79098835343392759344993692138814 2:1 #
-0.79098835343392759344993692138814 4:1 #
0.79098835343392759344993692138814 4:1 #
-0.79098835343392759344993692138814 2:1 #
0.79098835343392759344993692138814 2:1 #
-0.79098835343392759344993692138814 4:1 #
0.79098835343392759344993692138814 4:1 #
-0.79098835343392759344993692138814 2:1 #
0.79098835343392759344993692138814 2:1 #
-0.79098835343392759344993692138814 4:1 #
0.79098835343392759344993692138814 4:1 #
-0.79098835343392759344993692138814 2:1 #
-0.50205957510359011664036188449245 8:1 #
-0.76022881696948374496969336178154 16:1 #
-0.79098835343392759344993692138814 18:1 #
-0.45811483329384505847059472216642 12:1 #
-0.79098835343392759344993692138814 15:1 #
0.79098835343392759344993692138814 20:1 #
0.79098835343392759344993692138814 14:1 #
0.79098835343392759344993692138814 4:1 #
0.79098835343392759344993692138814 2:1 #
-0.79098835343392759344993692138814 4:1 #
-0.73877427119645744379994312112103 4:1 #
0.79098835343392759344993692138814 15:1 #
-0.79098835343392759344993692138814 14:1 #
0.79098835343392759344993692138814 18:1 #
0.79098835343392759344993692138814 4:1 #
0.79098835343392759344993692138814 8:1 #
0.79098835343392759344993692138814 18:1 #
-0.79098835343392759344993692138814 20:1 #
-0.79098835343392759344993692138814 2:1 #
0.79098835343392759344993692138814 12:1 #
-0.79098835343392759344993692138814 18:1 #
0.79098835343392759344993692138814 16:1 #
0.79098835343392759344993692138814 2:1 #
-0.79098835343392759344993692138814 12:1 #
-0.79098835343392759344993692138814 2:1 #
0.79098835343392759344993692138814 20:1 #
0.79098835343392759344993692138814 2:1 #
-0.79098835343392759344993692138814 20:1 #
0.79098835343392759344993692138814 20:1 #
-0.79098835343392759344993692138814 2:1 #
0.79098835343392759344993692138814 2:1 #
-0.79098835343392759344993692138814 20:1 #
0.79098835343392759344993692138814 20:1 #
-0.79098835343392759344993692138814 2:1 #
0.79098835343392759344993692138814 2:1 #
-0.79098835343392759344993692138814 20:1 #
0.79098835343392759344993692138814 20:1 #
-0.79098835343392759344993692138814 2:1 #
0.79098835343392759344993692138814 2:1 #
-0.79098835343392759344993692138814 20:1 #
0.79098835343392759344993692138814 20:1 #
-0.79098835343392759344993692138814 2:1 #
0.79098835343392759344993692138814 2:1 #
-0.79098835343392759344993692138814 20:1 #
0.79098835343392759344993692138814 20:1 #
-0.79098835343392759344993692138814 2:1 #
0.79098835343392759344993692138814 2:1 #
-0.79098835343392759344993692138814 20:1 #
0.79098835343392759344993692138814 20:1 #
-0.79098835343392759344993692138814 2:1 #
0.79098835343392759344993692138814 2:1 #
-0.79098835343392759344993692138814 20:1 #
0.79098835343392759344993692138814 20:1 #
-0.79098835343392759344993692138814 2:1 #
0.79098835343392759344993692138814 2:1 #
-0.79098835343392759344993692138814 20:1 #
0.79098835343392759344993692138814 20:1 #
-0.79098835343392759344993692138814 2:1 #
0.79098835343392759344993692138814 2:1 #
-0.79098835343392759344993692138814 20:1 #
0.79098835343392759344993692138814 20:1 #
-0.79098835343392759344993692138814 2:1 #
0.79098835343392759344993692138814 2:1 #
-0.79098835343392759344993692138814 20:1 #
0.79098835343392759344993692138814 20:1 #
-0.79098835343392759344993692138814 2:1 #
0.79098835343392759344993692138814 2:1 #
-0.79098835343392759344993692138814 20:1 #
0.79098835343392759344993692138814 20:1 #
-0.79098835343392759344993692138814 2:1 #
0.79098835343392759344993692138814 2:1 #
-0.79098835343392759344993692138814 20:1 #
0.79098835343392759344993692138814 20:1 #
-0.79098835343392759344993692138814 2:1 #
0.79098835343392759344993692138814 2:1 #
-0.79098835343392759344993692138814 20:1 #
0.79098835343392759344993692138814 20:1 #
-0.79098835343392759344993692138814 2:1 #
0.79098835343392759344993692138814 2:1 #
-0.79098835343392759344993692138814 20:1 #
0.79098835343392759344993692138814 20:1 #
-0.79098835343392759344993692138814 2:1 #
0.79098835343392759344993692138814 2:1 #
-0.79098835343392759344993692138814 20:1 #
0.79098835343392759344993692138814 20:1 #
-0.79098835343392759344993692138814 2:1 #
0.79098835343392759344993692138814 2:1 #
-0.79098835343392759344993692138814 20:1 #
0.79098835343392759344993692138814 20:1 #
-0.79098835343392759344993692138814 2:1 #
0.79098835343392759344993692138814 2:1 #
-0.79098835343392759344993692138814 20:1 #
0.79098835343392759344993692138814 20:1 #
-0.79098835343392759344993692138814 2:1 #
0.79098835343392759344993692138814 2:1 #
-0.79098835343392759344993692138814 20:1 #
0.79098835343392759344993692138814 20:1 #
-0.79098835343392759344993692138814 2:1 #
0.79098835343392759344993692138814 2:1 #
-0.79098835343392759344993692138814 20:1 #
0.79098835343392759344993692138814 20:1 #
-0.79098835343392759344993692138814 2:1 #
0.79098835343392759344993692138814 2:1 #
-0.79098835343392759344993692138814 20:1 #
0.79098835343392759344993692138814 20:1 #
-0.79098835343392759344993692138814 2:1 #
0.79098835343392759344993692138814 2:1 #
-0.79098835343392759344993692138814 20:1 #
0.79098835343392759344993692138814 20:1 #
-0.79098835343392759344993692138814 2:1 #
0.79098835343392759344993692138814 2:1 #
-0.79098835343392759344993692138814 20:1 #
0.79098835343392759344993692138814 20:1 #
-0.79098835343392759344993692138814 2:1 #
0.79098835343392759344993692138814 2:1 #
-0.79098835343392759344993692138814 20:1 #
0.79098835343392759344993692138814 20:1 #
-0.79098835343392759344993692138814 2:1 #
0.79098835343392759344993692138814 2:1 #
-0.79098835343392759344993692138814 20:1 #
0.79098835343392759344993692138814 20:1 #
-0.79098835343392759344993692138814 2:1 #
0.79098835343392759344993692138814 2:1 #
-0.79098835343392759344993692138814 20:1 #
0.79098835343392759344993692138814 20:1 #
-0.79098835343392759344993692138814 2:1 #
0.79098835343392759344993692138814 2:1 #
-0.79098835343392759344993692138814 20:1 #
0.79098835343392759344993692138814 20:1 #
-0.79098835343392759344993692138814 2:1 #
0.79098835343392759344993692138814 2:1 #
-0.79098835343392759344993692138814 20:1 #
0.79098835343392759344993692138814 20:1 #
-0.79098835343392759344993692138814 2:1 #
0.79098835343392759344993692138814 2:1 #
-0.79098835343392759344993692138814 20:1 #
0.79098835343392759344993692138814 20:1 #
-0.79098835343392759344993692138814 2:1 #
0.79098835343392759344993692138814 2:1 #
-0.79098835343392759344993692138814 20:1 #
0.79098835343392759344993692138814 20:1 #
-0.79098835343392759344993692138814 2:1 #
0.79098835343392759344993692138814 2:1 #
-0.79098835343392759344993692138814 20:1 #
0.79098835343392759344993692138814 20:1 #
-0.79098835343392759344993692138814 2:1 #
0.79098835343392759344993692138814 2:1 #
-0.79098835343392759344993692138814 20:1 #
0.79098835343392759344993692138814 20:1 #
-0.79098835343392759344993692138814 2:1 #
0.79098835343392759344993692138814 2:1 #
-0.79098835343392759344993692138814 20:1 #
0.79098835343392759344993692138814 20:1 #
-0.79098835343392759344993692138814 2:1 #
0.79098835343392759344993692138814 2:1 #
-0.79098835343392759344993692138814 20:1 #
0.79098835343392759344993692138814 20:1 #
-0.79098835343392759344993692138814 2:1 #
0.79098835343392759344993692138814 2:1 #
-0.79098835343392759344993692138814 20:1 #
0.79098835343392759344993692138814 20:1 #
-0.79098835343392759344993692138814 2:1 #
0.79098835343392759344993692138814 2:1 #
-0.79098835343392759344993692138814 20:1 #
0.79098835343392759344993692138814 20:1 #
-0.79098835343392759344993692138814 2:1 #
0.79098835343392759344993692138814 2:1 #
-0.79098835343392759344993692138814 20:1 #
0.79098835343392759344993692138814 20:1 #
-0.79098835343392759344993692138814 2:1 #
0.79098835343392759344993692138814 2:1 #
-0.79098835343392759344993692138814 20:1 #
0.79098835343392759344993692138814 20:1 #
-0.79098835343392759344993692138814 2:1 #
0.79098835343392759344993692138814 2:1 #
-0.79098835343392759344993692138814 20:1 #
0.79098835343392759344993692138814 20:1 #
-0.79098835343392759344993692138814 2:1 #
0.79098835343392759344993692138814 2:1 #
-0.79098835343392759344993692138814 20:1 #
0.79098835343392759344993692138814 20:1 #
-0.79098835343392759344993692138814 2:1 #
0.79098835343392759344993692138814 2:1 #
-0.79098835343392759344993692138814 20:1 #
0.79098835343392759344993692138814 20:1 #
-0.79098835343392759344993692138814 2:1 #
0.79098835343392759344993692138814 2:1 #
-0.79098835343392759344993692138814 20:1 #
0.79098835343392759344993692138814 20:1 #
-0.79098835343392759344993692138814 2:1 #
0.79098835343392759344993692138814 2:1 #
-0.79098835343392759344993692138814 20:1 #
0.79098835343392759344993692138814 20:1 #
-0.79098835343392759344993692138814 2:1 #
0.79098835343392759344993692138814 2:1 #
-0.79098835343392759344993692138814 20:1 #
0.79098835343392759344993692138814 20:1 #
-0.79098835343392759344993692138814 2:1 #
0.79098835343392759344993692138814 2:1 #
-0.79098835343392759344993692138814 20:1 #
0.79098835343392759344993692138814 20:1 #
-0.79098835343392759344993692138814 2:1 #
0.79098835343392759344993692138814 2:1 #
-0.79098835343392759344993692138814 20:1 #
0.79098835343392759344993692138814 20:1 #
-0.79098835343392759344993692138814 2:1 #
0.79098835343392759344993692138814 2:1 #
-0.79098835343392759344993692138814 20:1 #
0.79098835343392759344993692138814 20:1 #
-0.79098835343392759344993692138814 2:1 #
0.79098835343392759344993692138814 2:1 #
-0.79098835343392759344993692138814 20:1 #
-0.79098835343392759344993692138814 15:1 #
-0.79098835343392759344993692138814 1:1 #
-0.79098835343392759344993692138814 4:1 #
0.79098835343392759344993692138814 18:1 #
0.79098835343392759344993692138814 14:1 #
0.79098835343392759344993692138814 9:1 #
-0.74704525450287539989346896618372 18:1 #
0.79098835343392759344993692138814 20:1 #
-0.79098835343392759344993692138814 9:1 #
0.79098835343392759344993692138814 15:1 #
-0.75742530624212189849231435800903 20:1 #
0.79098835343392759344993692138814 18:1 #
0.79098835343392759344993692138814 15:1 #
-0.79098835343392759344993692138814 14:1 #
-0.79098835343392759344993692138814 2:1 #
0.79098835343392759344993692138814 20:1 #
-0.79098835343392759344993692138814 18:1 #
0.79098835343392759344993692138814 1:1 #
-0.013972868811873428995795620721765 12:1 #
0.79098835343392759344993692138814 2:1 #
-0.79098835343392759344993692138814 15:1 #
-0.79098835343392759344993692138814 2:1 #
0.79098835343392759344993692138814 4:1 #
0.79098835343392759344993692138814 2:1 #
-0.79098835343392759344993692138814 4:1 #
-0.79098835343392759344993692138814 15:1 #
-0.79098835343392759344993692138814 2:1 #
-0.79098835343392759344993692138814 9:1 #
-0.79098835343392759344993692138814 1:1 #
0.79098835343392759344993692138814 2:1 #
0.79098835343392759344993692138814 1:1 #
-0.79098835343392759344993692138814 2:1 #
0.79098835343392759344993692138814 2:1 #
-0.79098835343392759344993692138814 1:1 #
0.79098835343392759344993692138814 9:1 #
0.79098835343392759344993692138814 1:1 #
-0.79098835343392759344993692138814 9:1 #
-0.79098835343392759344993692138814 1:1 #
0.79098835343392759344993692138814 9:1 #
-0.79098835343392759344993692138814 2:1 #
-0.79098835343392759344993692138814 9:1 #
0.79098835343392759344993692138814 2:1 #
0.79098835343392759344993692138814 1:1 #
-0.79098835343392759344993692138814 2:1 #
-0.79098835343392759344993692138814 1:1 #
0.79098835343392759344993692138814 2:1 #
0.79098835343392759344993692138814 1:1 #
-0.79098835343392759344993692138814 2:1 #
-0.79098835343392759344993692138814 1:1 #
0.79098835343392759344993692138814 2:1 #
0.79098835343392759344993692138814 1:1 #
-0.79098835343392759344993692138814 2:1 #
-0.79098835343392759344993692138814 1:1 #
0.79098835343392759344993692138814 2:1 #
0.79098835343392759344993692138814 1:1 #
-0.79098835343392759344993692138814 2:1 #
-0.79098835343392759344993692138814 1:1 #
0.79098835343392759344993692138814 2:1 #
0.79098835343392759344993692138814 1:1 #
-0.79098835343392759344993692138814 2:1 #
-0.79098835343392759344993692138814 1:1 #
0.79098835343392759344993692138814 2:1 #
0.79098835343392759344993692138814 1:1 #
-0.79098835343392759344993692138814 2:1 #
-0.79098835343392759344993692138814 1:1 #
0.79098835343392759344993692138814 2:1 #
0.79098835343392759344993692138814 1:1 #
-0.79098835343392759344993692138814 2:1 #
-0.79098835343392759344993692138814 1:1 #
0.79098835343392759344993692138814 2:1 #
0.79098835343392759344993692138814 1:1 #
-0.79098835343392759344993692138814 2:1 #
-0.79098835343392759344993692138814 1:1 #
0.79098835343392759344993692138814 2:1 #
0.79098835343392759344993692138814 1:1 #
-0.79098835343392759344993692138814 2:1 #
-0.79098835343392759344993692138814 1:1 #
0.79098835343392759344993692138814 2:1 #
0.79098835343392759344993692138814 1:1 #
-0.79098835343392759344993692138814 2:1 #
-0.79098835343392759344993692138814 1:1 #
0.79098835343392759344993692138814 2:1 #
0.79098835343392759344993692138814 1:1 #
-0.79098835343392759344993692138814 2:1 #
-0.79098835343392759344993692138814 1:1 #
0.79098835343392759344993692138814 2:1 #
0.79098835343392759344993692138814 1:1 #
-0.79098835343392759344993692138814 2:1 #
-0.79098835343392759344993692138814 1:1 #
0.79098835343392759344993692138814 2:1 #
0.79098835343392759344993692138814 1:1 #
-0.79098835343392759344993692138814 2:1 #
-0.79098835343392759344993692138814 1:1 #
0.79098835343392759344993692138814 2:1 #
0.79098835343392759344993692138814 1:1 #
-0.79098835343392759344993692138814 2:1 #
-0.79098835343392759344993692138814 1:1 #
0.79098835343392759344993692138814 2:1 #
0.79098835343392759344993692138814 1:1 #
-0.79098835343392759344993692138814 2:1 #
-0.79098835343392759344993692138814 1:1 #
0.79098835343392759344993692138814 2:1 #
0.79098835343392759344993692138814 1:1 #
-0.79098835343392759344993692138814 2:1 #
-0.79098835343392759344993692138814 1:1 #
0.79098835343392759344993692138814 2:1 #
0.79098835343392759344993692138814 1:1 #
-0.79098835343392759344993692138814 2:1 #
-0.79098835343392759344993692138814 1:1 #
0.79098835343392759344993692138814 2:1 #
0.79098835343392759344993692138814 1:1 #
-0.79098835343392759344993692138814 2:1 #
-0.79098835343392759344993692138814 1:1 #
0.79098835343392759344993692138814 2:1 #
0.79098835343392759344993692138814 1:1 #
-0.79098835343392759344993692138814 2:1 #
-0.79098835343392759344993692138814 1:1 #
0.79098835343392759344993692138814 2:1 #
0.79098835343392759344993692138814 1:1 #
-0.79098835343392759344993692138814 2:1 #
-0.79098835343392759344993692138814 1:1 #
0.79098835343392759344993692138814 2:1 #
0.79098835343392759344993692138814 1:1 #
-0.79098835343392759344993692138814 2:1 #
-0.79098835343392759344993692138814 1:1 #
0.79098835343392759344993692138814 2:1 #
0.79098835343392759344993692138814 1:1 #
-0.79098835343392759344993692138814 2:1 #
-0.79098835343392759344993692138814 1:1 #
0.79098835343392759344993692138814 2:1 #
0.79098835343392759344993692138814 1:1 #
-0.79098835343392759344993692138814 2:1 #
-0.79098835343392759344993692138814 1:1 #
0.79098835343392759344993692138814 2:1 #
0.79098835343392759344993692138814 1:1 #
-0.79098835343392759344993692138814 2:1 #
-0.79098835343392759344993692138814 1:1 #
0.79098835343392759344993692138814 2:1 #
0.79098835343392759344993692138814 1:1 #
-0.79098835343392759344993692138814 2:1 #
-0.79098835343392759344993692138814 1:1 #
0.79098835343392759344993692138814 2:1 #
0.79098835343392759344993692138814 1:1 #
-0.79098835343392759344993692138814 2:1 #
-0.79098835343392759344993692138814 1:1 #
0.79098835343392759344993692138814 2:1 #
0.79098835343392759344993692138814 1:1 #
-0.79098835343392759344993692138814 2:1 #
-0.79098835343392759344993692138814 1:1 #
0.79098835343392759344993692138814 2:1 #
0.79098835343392759344993692138814 1:1 #
-0.79098835343392759344993692138814 2:1 #
-0.79098835343392759344993692138814 1:1 #
0.79098835343392759344993692138814 2:1 #
0.79098835343392759344993692138814 1:1 #
-0.79098835343392759344993692138814 2:1 #
-0.62328003209022186936749676533509 15:1 #
-0.30492533430898527413432930188719 2:1 #
-0.79098835343392759344993692138814 8:1 #
-0.65377445015665835992280108257546 4:1 #
0.79098835343392759344993692138814 1:1 #
0.79098835343392759344993692138814 16:1 #
0.79098835343392759344993692138814 9:1 #
0.79098835343392759344993692138814 4:1 #
-0.79098835343392759344993692138814 1:1 #
0.79098835343392759344993692138814 2:1 #
0.79098835343392759344993692138814 15:1 #
-0.79098835343392759344993692138814 16:1 #
0.79098835343392759344993692138814 8:1 #
-0.79098835343392759344993692138814 1:1 #
0.79098835343392759344993692138814 1:1 #
-0.79098835343392759344993692138814 8:1 #
0.79098835343392759344993692138814 4:1 #
-0.79098835343392759344993692138814 1:1 #
-0.79098835343392759344993692138814 2:1 #
0.79098835343392759344993692138814 1:1 #
-0.79098835343392759344993692138814 1:1 #
0.79098835343392759344993692138814 2:1 #
-0.79098835343392759344993692138814 4:1 #
0.79098835343392759344993692138814 4:1 #
-0.79098835343392759344993692138814 2:1 #
0.79098835343392759344993692138814 2:1 #
-0.79098835343392759344993692138814 4:1 #
0.79098835343392759344993692138814 4:1 #
-0.79098835343392759344993692138814 2:1 #
0.79098835343392759344993692138814 2:1 #
-0.79098835343392759344993692138814 4:1 #
0.79098835343392759344993692138814 4:1 #
-0.79098835343392759344993692138814 2:1 #
0.79098835343392759344993692138814 2:1 #
-0.79098835343392759344993692138814 4:1 #
0.79098835343392759344993692138814 4:1 #
-0.79098835343392759344993692138814 2:1 #
0.79098835343392759344993692138814 2:1 #
-0.79098835343392759344993692138814 4:1 #
0.79098835343392759344993692138814 4:1 #
-0.79098835343392759344993692138814 2:1 #
0.79098835343392759344993692138814 2:1 #
-0.79098835343392759344993692138814 4:1 #
0.79098835343392759344993692138814 4:1 #
-0.79098835343392759344993692138814 2:1 #
0.79098835343392759344993692138814 2:1 #
-0.79098835343392759344993692138814 4:1 #
0.79098835343392759344993692138814 4:1 #
-0.79098835343392759344993692138814 2:1 #
0.79098835343392759344993692138814 2:1 #
-0.79098835343392759344993692138814 4:1 #
0.79098835343392759344993692138814 4:1 #
-0.79098835343392759344993692138814 2:1 #
0.79098835343392759344993692138814 2:1 #
-0.79098835343392759344993692138814 4:1 #
0.79098835343392759344993692138814 4:1 #
-0.79098835343392759344993692138814 2:1 #
0.79098835343392759344993692138814 2:1 #
-0.79098835343392759344993692138814 4:1 #
0.79098835343392759344993692138814 4:1 #
-0.79098835343392759344993692138814 2:1 #
0.79098835343392759344993692138814 2:1 #
-0.79098835343392759344993692138814 4:1 #
0.79098835343392759344993692138814 4:1 #
-0.79098835343392759344993692138814 2:1 #
0.79098835343392759344993692138814 2:1 #
-0.79098835343392759344993692138814 4:1 #
0.79098835343392759344993692138814 4:1 #
-0.79098835343392759344993692138814 2:1 #
0.79098835343392759344993692138814 2:1 #
-0.79098835343392759344993692138814 4:1 #
0.79098835343392759344993692138814 4:1 #
-0.79098835343392759344993692138814 2:1 #
0.79098835343392759344993692138814 2:1 #
-0.79098835343392759344993692138814 4:1 #
0.79098835343392759344993692138814 4:1 #
-0.79098835343392759344993692138814 2:1 #
0.79098835343392759344993692138814 2:1 #
-0.79098835343392759344993692138814 4:1 #
0.79098835343392759344993692138814 4:1 #
-0.79098835343392759344993692138814 2:1 #
0.79098835343392759344993692138814 2:1 #
-0.79098835343392759344993692138814 4:1 #
0.79098835343392759344993692138814 4:1 #
-0.79098835343392759344993692138814 2:1 #
0.79098835343392759344993692138814 2:1 #
-0.79098835343392759344993692138814 4:1 #
0.79098835343392759344993692138814 4:1 #
-0.79098835343392759344993692138814 2:1 #
0.79098835343392759344993692138814 2:1 #
-0.79098835343392759344993692138814 4:1 #
0.79098835343392759344993692138814 4:1 #
-0.79098835343392759344993692138814 2:1 #
0.79098835343392759344993692138814 2:1 #
-0.79098835343392759344993692138814 4:1 #
0.79098835343392759344993692138814 4:1 #
-0.79098835343392759344993692138814 2:1 #
0.79098835343392759344993692138814 2:1 #
-0.79098835343392759344993692138814 4:1 #
0.79098835343392759344993692138814 4:1 #
-0.79098835343392759344993692138814 2:1 #
0.79098835343392759344993692138814 2:1 #
-0.79098835343392759344993692138814 4:1 #
0.79098835343392759344993692138814 4:1 #
-0.79098835343392759344993692138814 2:1 #
0.79098835343392759344993692138814 2:1 #
-0.79098835343392759344993692138814 4:1 #
0.79098835343392759344993692138814 4:1 #
-0.79098835343392759344993692138814 2:1 #
0.79098835343392759344993692138814 2:1 #
-0.79098835343392759344993692138814 4:1 #
0.79098835343392759344993692138814 4:1 #
-0.79098835343392759344993692138814 2:1 #
0.79098835343392759344993692138814 2:1 #
-0.79098835343392759344993692138814 4:1 #
0.79098835343392759344993692138814 4:1 #
-0.79098835343392759344993692138814 2:1 #
0.79098835343392759344993692138814 2:1 #
-0.79098835343392759344993692138814 4:1 #
0.79098835343392759344993692138814 4:1 #
-0.79098835343392759344993692138814 2:1 #
0.79098835343392759344993692138814 2:1 #
-0.79098835343392759344993692138814 4:1 #
0.79098835343392759344993692138814 4:1 #
-0.79098835343392759344993692138814 2:1 #
0.79098835343392759344993692138814 2:1 #
-0.79098835343392759344993692138814 4:1 #
0.79098835343392759344993692138814 4:1 #
-0.79098835343392759344993692138814 2:1 #
0.79098835343392759344993692138814 2:1 #
-0.79098835343392759344993692138814 4:1 #
0.79098835343392759344993692138814 4:1 #
-0.79098835343392759344993692138814 2:1 #
0.79098835343392759344993692138814 2:1 #
-0.79098835343392759344993692138814 4:1 #
0.79098835343392759344993692138814 4:1 #
-0.79098835343392759344993692138814 2:1 #
0.79098835343392759344993692138814 2:1 #
-0.79098835343392759344993692138814 4:1 #
0.79098835343392759344993692138814 4:1 #
-0.79098835343392759344993692138814 2:1 #
0.79098835343392759344993692138814 2:1 #
-0.79098835343392759344993692138814 4:1 #
0.79098835343392759344993692138814 4:1 #
-0.79098835343392759344993692138814 2:1 #
0.79098835343392759344993692138814 2:1 #
-0.79098835343392759344993692138814 4:1 #
0.79098835343392759344993692138814 4:1 #
-0.79098835343392759344993692138814 2:1 #
0.79098835343392759344993692138814 2:1 #
-0.79098835343392759344993692138814 4:1 #
0.79098835343392759344993692138814 4:1 #
-0.79098835343392759344993692138814 2:1 #
0.79098835343392759344993692138814 2:1 #
-0.79098835343392759344993692138814 4:1 #
0.79098835343392759344993692138814 4:1 #
-0.79098835343392759344993692138814 2:1 #
0.79098835343392759344993692138814 2:1 #
-0.79098835343392759344993692138814 4:1 #
0.79098835343392759344993692138814 4:1 #
-0.79098835343392759344993692138814 2:1 #
0.79098835343392759344993692138814 2:1 #
-0.79098835343392759344993692138814 4:1 #
0.79098835343392759344993692138814 4:1 #
-0.79098835343392759344993692138814 2:1 #
0.79098835343392759344993692138814 2:1 #
-0.79098835343392759344993692138814 4:1 #
0.79098835343392759344993692138814 4:1 #
-0.79098835343392759344993692138814 2:1 #
0.79098835343392759344993692138814 2:1 #
-0.79098835343392759344993692138814 4:1 #
0.79098835343392759344993692138814 4:1 #
-0.79098835343392759344993692138814 2:1 #
0.79098835343392759344993692138814 2:1 #
-0.79098835343392759344993692138814 4:1 #
0.79098835343392759344993692138814 4:1 #
-0.79098835343392759344993692138814 2:1 #
0.79098835343392759344993692138814 2:1 #
-0.79098835343392759344993692138814 4:1 #
0.79098835343392759344993692138814 4:1 #
-0.79098835343392759344993692138814 2:1 #
0.79098835343392759344993692138814 2:1 #
-0.79098835343392759344993692138814 4:1 #
0.79098835343392759344993692138814 4:1 #
-0.79098835343392759344993692138814 2:1 #
0.79098835343392759344993692138814 2:1 #
-0.79098835343392759344993692138814 4:1 #
0.79098835343392759344993692138814 4:1 #
-0.79098835343392759344993692138814 2:1 #
0.79098835343392759344993692138814 2:1 #
-0.79098835343392759344993692138814 4:1 #
0.79098835343392759344993692138814 4:1 #
-0.79098835343392759344993692138814 2:1 #
0.79098835343392759344993692138814 2:1 #
-0.79098835343392759344993692138814 4:1 #
0.79098835343392759344993692138814 4:1 #
-0.79098835343392759344993692138814 2:1 #
0.79098835343392759344993692138814 2:1 #
-0.79098835343392759344993692138814 4:1 #
0.79098835343392759344993692138814 4:1 #
-0.79098835343392759344993692138814 2:1 #
0.79098835343392759344993692138814 2:1 #
-0.79098835343392759344993692138814 4:1 #
-0.79098835343392759344993692138814 4:1 #
-0.79098835343392759344993692138814 19:1 #
-0.79098835343392759344993692138814 20:1 #
-0.79098835343392759344993692138814 2:1 #
0.79098835343392759344993692138814 16:1 #
0.79098835343392759344993692138814 15:1 #
0.79098835343392759344993692138814 14:1 #
0.79098835343392759344993692138814 18:1 #
-0.79098835343392759344993692138814 16:1 #
0.79098835343392759344993692138814 4:1 #
-0.79098835343392759344993692138814 15:1 #
-0.79098835343392759344993692138814 2:1 #
0.79098835343392759344993692138814 4:1 #
-0.79098835343392759344993692138814 14:1 #
0.79098835343392759344993692138814 20:1 #
-0.79098835343392759344993692138814 4:1 #
0.79098835343392759344993692138814 2:1 #
-0.79098835343392759344993692138814 18:1 #
0.79098835343392759344993692138814 19:1 #
-0.79098835343392759344993692138814 1:1 #
0.79098835343392759344993692138814 2:1 #
-0.6892811993236805934159860953514 19:1 #
0.79098835343392759344993692138814 1:1 #
0.79098835343392759344993692138814 19:1 #
-0.79098835343392759344993692138814 2:1 #
0.79098835343392759344993692138814 2:1 #
0.79098835343392759344993692138814 15:1 #
0.79098835343392759344993692138814 20:1 #
-0.79098835343392759344993692138814 19:1 #
0.79098835343392759344993692138814 8:1 #
0.79098835343392759344993692138814 19:1 #
0.79098835343392759344993692138814 4:1 #
-0.79098835343392759344993692138814 19:1 #
0.79098835343392759344993692138814 19:1 #
-0.79098835343392759344993692138814 4:1 #
0.79098835343392759344993692138814 4:1 #
-0.79098835343392759344993692138814 19:1 #
0.79098835343392759344993692138814 19:1 #
-0.79098835343392759344993692138814 4:1 #
0.79098835343392759344993692138814 4:1 #
-0.79098835343392759344993692138814 19:1 #
0.79098835343392759344993692138814 19:1 #
-0.79098835343392759344993692138814 4:1 #
0.79098835343392759344993692138814 4:1 #
-0.79098835343392759344993692138814 19:1 #
0.79098835343392759344993692138814 19:1 #
-0.79098835343392759344993692138814 4:1 #
0.79098835343392759344993692138814 4:1 #
-0.79098835343392759344993692138814 19:1 #
0.79098835343392759344993692138814 19:1 #
-0.79098835343392759344993692138814 4:1 #
0.79098835343392759344993692138814 4:1 #
-0.79098835343392759344993692138814 19:1 #
0.79098835343392759344993692138814 19:1 #
-0.79098835343392759344993692138814 4:1 #
0.79098835343392759344993692138814 4:1 #
-0.79098835343392759344993692138814 19:1 #
0.79098835343392759344993692138814 19:1 #
-0.79098835343392759344993692138814 4:1 #
0.79098835343392759344993692138814 4:1 #
-0.79098835343392759344993692138814 19:1 #
0.79098835343392759344993692138814 19:1 #
-0.79098835343392759344993692138814 4:1 #
0.79098835343392759344993692138814 4:1 #
-0.79098835343392759344993692138814 19:1 #
0.79098835343392759344993692138814 19:1 #
-0.79098835343392759344993692138814 4:1 #
0.79098835343392759344993692138814 4:1 #
-0.79098835343392759344993692138814 19:1 #
0.79098835343392759344993692138814 19:1 #
-0.79098835343392759344993692138814 4:1 #
0.79098835343392759344993692138814 4:1 #
-0.79098835343392759344993692138814 19:1 #
0.79098835343392759344993692138814 19:1 #
-0.79098835343392759344993692138814 4:1 #
0.79098835343392759344993692138814 4:1 #
-0.79098835343392759344993692138814 19:1 #
0.79098835343392759344993692138814 19:1 #
-0.79098835343392759344993692138814 4:1 #
0.79098835343392759344993692138814 4:1 #
-0.79098835343392759344993692138814 19:1 #
0.79098835343392759344993692138814 19:1 #
-0.79098835343392759344993692138814 4:1 #
0.79098835343392759344993692138814 4:1 #
-0.79098835343392759344993692138814 19:1 #
0.79098835343392759344993692138814 19:1 #
-0.79098835343392759344993692138814 4:1 #
0.79098835343392759344993692138814 4:1 #
-0.79098835343392759344993692138814 19:1 #
0.79098835343392759344993692138814 19:1 #
-0.79098835343392759344993692138814 4:1 #
0.79098835343392759344993692138814 4:1 #
-0.79098835343392759344993692138814 19:1 #
0.79098835343392759344993692138814 19:1 #
-0.79098835343392759344993692138814 4:1 #
0.79098835343392759344993692138814 4:1 #
-0.79098835343392759344993692138814 19:1 #
0.79098835343392759344993692138814 19:1 #
-0.79098835343392759344993692138814 4:1 #
0.79098835343392759344993692138814 4:1 #
-0.79098835343392759344993692138814 19:1 #
0.79098835343392759344993692138814 19:1 #
-0.79098835343392759344993692138814 4:1 #
0.79098835343392759344993692138814 4:1 #
-0.79098835343392759344993692138814 19:1 #
0.79098835343392759344993692138814 19:1 #
-0.79098835343392759344993692138814 4:1 #
0.79098835343392759344993692138814 4:1 #
-0.79098835343392759344993692138814 19:1 #
0.79098835343392759344993692138814 19:1 #
-0.79098835343392759344993692138814 4:1 #
0.79098835343392759344993692138814 4:1 #
-0.79098835343392759344993692138814 19:1 #
0.79098835343392759344993692138814 19:1 #
-0.79098835343392759344993692138814 4:1 #
0.79098835343392759344993692138814 4:1 #
-0.79098835343392759344993692138814 19:1 #
0.79098835343392759344993692138814 19:1 #
-0.79098835343392759344993692138814 4:1 #
0.79098835343392759344993692138814 4:1 #
-0.79098835343392759344993692138814 19:1 #
0.79098835343392759344993692138814 19:1 #
-0.79098835343392759344993692138814 4:1 #
0.79098835343392759344993692138814 4:1 #
-0.79098835343392759344993692138814 19:1 #
0.79098835343392759344993692138814 19:1 #
-0.79098835343392759344993692138814 4:1 #
0.79098835343392759344993692138814 4:1 #
-0.79098835343392759344993692138814 19:1 #
0.79098835343392759344993692138814 19:1 #
-0.79098835343392759344993692138814 4:1 #
0.79098835343392759344993692138814 4:1 #
-0.79098835343392759344993692138814 19:1 #
0.79098835343392759344993692138814 19:1 #
-0.79098835343392759344993692138814 4:1 #
0.79098835343392759344993692138814 4:1 #
-0.79098835343392759344993692138814 19:1 #
0.79098835343392759344993692138814 19:1 #
-0.79098835343392759344993692138814 4:1 #
0.79098835343392759344993692138814 4:1 #
-0.79098835343392759344993692138814 19:1 #
0.79098835343392759344993692138814 19:1 #
-0.79098835343392759344993692138814 4:1 #
0.79098835343392759344993692138814 4:1 #
-0.79098835343392759344993692138814 19:1 #
0.79098835343392759344993692138814 19:1 #
-0.79098835343392759344993692138814 4:1 #
0.79098835343392759344993692138814 4:1 #
-0.79098835343392759344993692138814 19:1 #
0.79098835343392759344993692138814 19:1 #
-0.79098835343392759344993692138814 4:1 #
0.79098835343392759344993692138814 4:1 #
-0.79098835343392759344993692138814 19:1 #
0.79098835343392759344993692138814 19:1 #
-0.79098835343392759344993692138814 4:1 #
0.79098835343392759344993692138814 4:1 #
-0.79098835343392759344993692138814 19:1 #
0.79098835343392759344993692138814 19:1 #
-0.79098835343392759344993692138814 4:1 #
0.79098835343392759344993692138814 4:1 #
-0.79098835343392759344993692138814 19:1 #
0.79098835343392759344993692138814 19:1 #
-0.79098835343392759344993692138814 4:1 #
0.79098835343392759344993692138814 4:1 #
-0.79098835343392759344993692138814 19:1 #
0.79098835343392759344993692138814 19:1 #
-0.79098835343392759344993692138814 4:1 #
0.79098835343392759344993692138814 4:1 #
-0.79098835343392759344993692138814 19:1 #
0.79098835343392759344993692138814 19:1 #
-0.79098835343392759344993692138814 4:1 #
0.79098835343392759344993692138814 4:1 #
-0.79098835343392759344993692138814 19:1 #
0.79098835343392759344993692138814 19:1 #
-0.79098835343392759344993692138814 4:1 #
0.79098835343392759344993692138814 4:1 #
-0.79098835343392759344993692138814 19:1 #
0.79098835343392759344993692138814 19:1 #
-0.79098835343392759344993692138814 4:1 #
0.79098835343392759344993692138814 4:1 #
-0.79098835343392759344993692138814 19:1 #
0.79098835343392759344993692138814 19:1 #
-0.79098835343392759344993692138814 4:1 #
0.79098835343392759344993692138814 4:1 #
-0.79098835343392759344993692138814 19:1 #
0.79098835343392759344993692138814 19:1 #
-0.79098835343392759344993692138814 4:1 #
0.79098835343392759344993692138814 4:1 #
-0.79098835343392759344993692138814 19:1 #
0.79098835343392759344993692138814 19:1 #
-0.79098835343392759344993692138814 4:1 #
0.79098835343392759344993692138814 4:1 #
-0.79098835343392759344993692138814 19:1 #
0.79098835343392759344993692138814 19:1 #
-0.79098835343392759344993692138814 4:1 #
0.79098835343392759344993692138814 4:1 #
-0.79098835343392759344993692138814 19:1 #
0.79098835343392759344993692138814 19:1 #
-0.79098835343392759344993692138814 4:1 #
0.79098835343392759344993692138814 4:1 #
-0.79098835343392759344993692138814 19:1 #
0.79098835343392759344993692138814 19:1 #
-0.79098835343392759344993692138814 4:1 #
0.79098835343392759344993692138814 4:1 #
-0.79098835343392759344993692138814 19:1 #
0.79098835343392759344993692138814 19:1 #
-0.79098835343392759344993692138814 4:1 #
0.79098835343392759344993692138814 4:1 #
-0.79098835343392759344993692138814 19:1 #
0.79098835343392759344993692138814 19:1 #
-0.79098835343392759344993692138814 4:1 #
0.79098835343392759344993692138814 4:1 #
-0.79098835343392759344993692138814 19:1 #
-0.27997037358075810287161289124924 14:1 #
-0.2799703735807582138939153537649 9:1 #
-0.36518709848553448926722353462537 18:1 #
-0.41545254307845463914716788167425 20:1 #
-0.10913364702089978219845534113119 16:1 #
0.79098835343392759344993692138814 13:1 #
0.79098835343392759344993692138814 3:1 #
0.79098835343392759344993692138814 19:1 #
-0.79098835343392759344993692138814 3:1 #
-0.79098835343392759344993692138814 18:1 #
0.79098835343392759344993692138814 18:1 #
-0.79098835343392759344993692138814 13:1 #
0.79098835343392759344993692138814 19:1 #
0.79098835343392759344993692138814 14:1 #
0.79098835343392759344993692138814 4:1 #
-0.79098835343392759344993692138814 18:1 #
0.79098835343392759344993692138814 9:1 #
-0.79098835343392759344993692138814 4:1 #
0.79098835343392759344993692138814 18:1 #
-0.79098835343392759344993692138814 9:1 #
-0.79098835343392759344993692138814 18:1 #
0.79098835343392759344993692138814 16:1 #
0.79098835343392759344993692138814 18:1 #
-0.79098835343392759344993692138814 20:1 #
0.79098835343392759344993692138814 20:1 #
-0.79098835343392759344993692138814 18:1 #
0.79098835343392759344993692138814 18:1 #
-0.79098835343392759344993692138814 20:1 #
0.79098835343392759344993692138814 20:1 #
-0.79098835343392759344993692138814 18:1 #
0.79098835343392759344993692138814 18:1 #
-0.79098835343392759344993692138814 20:1 #
0.79098835343392759344993692138814 20:1 #
-0.79098835343392759344993692138814 18:1 #
0.79098835343392759344993692138814 18:1 #
-0.79098835343392759344993692138814 20:1 #
0.79098835343392759344993692138814 20:1 #
-0.79098835343392759344993692138814 18:1 #
0.79098835343392759344993692138814 18:1 #
-0.79098835343392759344993692138814 20:1 #
0.79098835343392759344993692138814 20:1 #
-0.79098835343392759344993692138814 18:1 #
0.79098835343392759344993692138814 18:1 #
-0.79098835343392759344993692138814 20:1 #
0.79098835343392759344993692138814 20:1 #
-0.79098835343392759344993692138814 18:1 #
0.79098835343392759344993692138814 18:1 #
-0.79098835343392759344993692138814 20:1 #
0.79098835343392759344993692138814 20:1 #
-0.79098835343392759344993692138814 18:1 #
0.79098835343392759344993692138814 18:1 #
-0.79098835343392759344993692138814 20:1 #
0.79098835343392759344993692138814 20:1 #
-0.79098835343392759344993692138814 18:1 #
0.79098835343392759344993692138814 18:1 #
-0.79098835343392759344993692138814 20:1 #
0.79098835343392759344993692138814 20:1 #
-0.79098835343392759344993692138814 18:1 #
0.79098835343392759344993692138814 18:1 #
-0.79098835343392759344993692138814 20:1 #
0.79098835343392759344993692138814 20:1 #
-0.79098835343392759344993692138814 18:1 #
0.79098835343392759344993692138814 18:1 #
-0.79098835343392759344993692138814 20:1 #
0.79098835343392759344993692138814 20:1 #
-0.79098835343392759344993692138814 18:1 #
0.79098835343392759344993692138814 18:1 #
-0.79098835343392759344993692138814 20:1 #
0.79098835343392759344993692138814 20:1 #
-0.79098835343392759344993692138814 18:1 #
0.79098835343392759344993692138814 18:1 #
-0.79098835343392759344993692138814 20:1 #
0.79098835343392759344993692138814 20:1 #
-0.79098835343392759344993692138814 18:1 #
0.79098835343392759344993692138814 18:1 #
-0.79098835343392759344993692138814 20:1 #
0.79098835343392759344993692138814 20:1 #
-0.79098835343392759344993692138814 18:1 #
0.79098835343392759344993692138814 18:1 #
-0.79098835343392759344993692138814 20:1 #
0.79098835343392759344993692138814 20:1 #
-0.79098835343392759344993692138814 18:1 #
0.79098835343392759344993692138814 18:1 #
-0.79098835343392759344993692138814 20:1 #
0.79098835343392759344993692138814 20:1 #
-0.79098835343392759344993692138814 18:1 #
0.79098835343392759344993692138814 18:1 #
-0.79098835343392759344993692138814 20:1 #
0.79098835343392759344993692138814 20:1 #
-0.79098835343392759344993692138814 18:1 #
0.79098835343392759344993692138814 18:1 #
-0.79098835343392759344993692138814 20:1 #
0.79098835343392759344993692138814 20:1 #
-0.79098835343392759344993692138814 18:1 #
0.79098835343392759344993692138814 18:1 #
-0.79098835343392759344993692138814 20:1 #
0.79098835343392759344993692138814 20:1 #
-0.79098835343392759344993692138814 18:1 #
0.79098835343392759344993692138814 18:1 #
-0.79098835343392759344993692138814 20:1 #
0.79098835343392759344993692138814 20:1 #
-0.79098835343392759344993692138814 18:1 #
0.79098835343392759344993692138814 18:1 #
-0.79098835343392759344993692138814 20:1 #
0.79098835343392759344993692138814 20:1 #
-0.79098835343392759344993692138814 18:1 #
0.79098835343392759344993692138814 18:1 #
-0.79098835343392759344993692138814 20:1 #
0.79098835343392759344993692138814 20:1 #
-0.79098835343392759344993692138814 18:1 #
0.79098835343392759344993692138814 18:1 #
-0.79098835343392759344993692138814 20:1 #
0.79098835343392759344993692138814 20:1 #
-0.79098835343392759344993692138814 18:1 #
0.79098835343392759344993692138814 18:1 #
-0.79098835343392759344993692138814 20:1 #
0.79098835343392759344993692138814 20:1 #
-0.79098835343392759344993692138814 18:1 #
0.79098835343392759344993692138814 18:1 #
-0.79098835343392759344993692138814 20:1 #
0.79098835343392759344993692138814 20:1 #
-0.79098835343392759344993692138814 18:1 #
0.79098835343392759344993692138814 18:1 #
-0.79098835343392759344993692138814 20:1 #
0.79098835343392759344993692138814 20:1 #
-0.79098835343392759344993692138814 18:1 #
0.79098835343392759344993692138814 18:1 #
-0.79098835343392759344993692138814 20:1 #
0.79098835343392759344993692138814 20:1 #
-0.79098835343392759344993692138814 18:1 #
0.79098835343392759344993692138814 18:1 #
-0.79098835343392759344993692138814 20:1 #
0.79098835343392759344993692138814 20:1 #
-0.79098835343392759344993692138814 18:1 #
0.79098835343392759344993692138814 18:1 #
-0.79098835343392759344993692138814 20:1 #
0.79098835343392759344993692138814 20:1 #
-0.79098835343392759344993692138814 18:1 #
0.79098835343392759344993692138814 18:1 #
-0.79098835343392759344993692138814 20:1 #
0.79098835343392759344993692138814 20:1 #
-0.79098835343392759344993692138814 18:1 #
0.79098835343392759344993692138814 18:1 #
-0.79098835343392759344993692138814 20:1 #
0.79098835343392759344993692138814 20:1 #
-0.79098835343392759344993692138814 18:1 #
0.79098835343392759344993692138814 18:1 #
-0.79098835343392759344993692138814 20:1 #
0.79098835343392759344993692138814 20:1 #
-0.79098835343392759344993692138814 18:1 #
0.79098835343392759344993692138814 18:1 #
-0.79098835343392759344993692138814 20:1 #
0.79098835343392759344993692138814 20:1 #
-0.79098835343392759344993692138814 18:1 #
0.79098835343392759344993692138814 18:1 #
-0.79098835343392759344993692138814 20:1 #
0.79098835343392759344993692138814 20:1 #
-0.79098835343392759344993692138814 18:1 #
0.79098835343392759344993692138814 18:1 #
-0.79098835343392759344993692138814 20:1 #
0.79098835343392759344993692138814 20:1 #
-0.79098835343392759344993692138814 18:1 #
0.79098835343392759344993692138814 18:1 #
-0.79098835343392759344993692138814 20:1 #
0.79098835343392759344993692138814 20:1 #
-0.79098835343392759344993692138814 18:1 #
0.79098835343392759344993692138814 18:1 #
-0.79098835343392759344993692138814 20:1 #
0.79098835343392759344993692138814 20:1 #
-0.79098835343392759344993692138814 18:1 #
0.79098835343392759344993692138814 18:1 #
-0.79098835343392759344993692138814 20:1 #
0.79098835343392759344993692138814 20:1 #
-0.79098835343392759344993692138814 18:1 #
0.79098835343392759344993692138814 18:1 #
-0.79098835343392759344993692138814 20:1 #
0.79098835343392759344993692138814 20:1 #
-0.79098835343392759344993692138814 18:1 #
0.79098835343392759344993692138814 18:1 #
-0.79098835343392759344993692138814 20:1 #
0.79098835343392759344993692138814 20:1 #
-0.79098835343392759344993692138814 18:1 #
0.79098835343392759344993692138814 18:1 #
-0.79098835343392759344993692138814 20:1 #
0.79098835343392759344993692138814 20:1 #
-0.79098835343392759344993692138814 18:1 #
0.79098835343392759344993692138814 18:1 #
-0.79098835343392759344993692138814 20:1 #
0.79098835343392759344993692138814 20:1 #
-0.79098835343392759344993692138814 18:1 #
0.79098835343392759344993692138814 18:1 #
-0.79098835343392759344993692138814 20:1 #
0.79098835343392759344993692138814 20:1 #
-0.79098835343392759344993692138814 18:1 #
0.79098835343392759344993692138814 18:1 #
-0.79098835343392759344993692138814 20:1 #
0.79098835343392759344993692138814 20:1 #
-0.79098835343392759344993692138814 18:1 #
0.79098835343392759344993692138814 18:1 #
-0.79098835343392759344993692138814 20:1 #
0.79098835343392759344993692138814 20:1 #
-0.79098835343392759344993692138814 18:1 #
0.79098835343392759344993692138814 18:1 #
-0.79098835343392759344993692138814 20:1 #
0.79098835343392759344993692138814 20:1 #
-0.79098835343392759344993692138814 18:1 #
0.79098835343392759344993692138814 18:1 #
-0.79098835343392759344993692138814 20:1 #
-0.79098835343392759344993692138814 10:1 #
-0.79098835343392759344993692138814 16:1 #
-0.79098835343392759344993692138814 4:1 #
-0.79098835343392759344993692138814 15:1 #
0.79098835343392759344993692138814 18:1 #
0.79098835343392759344993692138814 1:1 #
0.79098835343392759344993692138814 14:1 #
0.79098835343392759344993692138814 19:1 #
0.79098835343392759344993692138814 5:1 #
-0.79098835343392759344993692138814 18:1 #
0.79098835343392759344993692138814 20:1 #
-0.79098835343392759344993692138814 5:1 #
-0.79098835343392759344993692138814 20:1 #
0.79098835343392759344993692138814 4:1 #
-0.79098835343392759344993692138814 1:1 #
0.79098835343392759344993692138814 15:1 #
0.79098835343392759344993692138814 10:1 #
0.79098835343392759344993692138814 20:1 #
-0.79098835343392759344993692138814 14:1 #
0.79098835343392759344993692138814 16:1 #
-0.79098835343392759344993692138814 5:1 #
-0.79098835343392759344993692138814 19:1 #
-0.79098835343392759344993692138814 18:1 #
0.79098835343392759344993692138814 1:1 #
0.79098835343392759344993692138814 18:1 #
-0.79098835343392759344993692138814 1:1 #
0.79098835343392759344993692138814 1:1 #
-0.79098835343392759344993692138814 18:1 #
0.79098835343392759344993692138814 18:1 #
-0.79098835343392759344993692138814 1:1 #
-0.79098835343392759344993692138814 18:1 #
-0.3474298398334585979974065139686 16:1 #
0.79098835343392759344993692138814 1:1 #
-0.79098835343392759344993692138814 15:1 #
0.79098835343392759344993692138814 15:1 #
-0.79098835343392759344993692138814 1:1 #
0.79098835343392759344993692138814 1:1 #
-0.79098835343392759344993692138814 15:1 #
-0.79098835343392759344993692138814 1:1 #
0.79098835343392759344993692138814 15:1 #
0.79098835343392759344993692138814 1:1 #
-0.79098835343392759344993692138814 15:1 #
-0.79098835343392759344993692138814 1:1 #
0.79098835343392759344993692138814 15:1 #
0.79098835343392759344993692138814 1:1 #
-0.79098835343392759344993692138814 15:1 #
-0.79098835343392759344993692138814 1:1 #
0.79098835343392759344993692138814 15:1 #
0.79098835343392759344993692138814 1:1 #
-0.79098835343392759344993692138814 15:1 #
-0.79098835343392759344993692138814 1:1 #
0.79098835343392759344993692138814 15:1 #
0.79098835343392759344993692138814 1:1 #
-0.79098835343392759344993692138814 15:1 #
-0.79098835343392759344993692138814 1:1 #
0.79098835343392759344993692138814 15:1 #
0.79098835343392759344993692138814 1:1 #
-0.79098835343392759344993692138814 15:1 #
-0.79098835343392759344993692138814 1:1 #
0.79098835343392759344993692138814 15:1 #
0.79098835343392759344993692138814 1:1 #
-0.79098835343392759344993692138814 15:1 #
-0.79098835343392759344993692138814 1:1 #
0.79098835343392759344993692138814 15:1 #
0.79098835343392759344993692138814 1:1 #
-0.79098835343392759344993692138814 15:1 #
-0.79098835343392759344993692138814 1:1 #
0.79098835343392759344993692138814 15:1 #
0.79098835343392759344993692138814 1:1 #
-0.79098835343392759344993692138814 15:1 #
-0.79098835343392759344993692138814 1:1 #
0.79098835343392759344993692138814 15:1 #
0.79098835343392759344993692138814 1:1 #
-0.79098835343392759344993692138814 15:1 #
-0.79098835343392759344993692138814 1:1 #
0.79098835343392759344993692138814 15:1 #
0.79098835343392759344993692138814 1:1 #
-0.79098835343392759344993692138814 15:1 #
-0.79098835343392759344993692138814 1:1 #
0.79098835343392759344993692138814 15:1 #
0.79098835343392759344993692138814 1:1 #
-0.79098835343392759344993692138814 15:1 #
-0.79098835343392759344993692138814 1:1 #
0.79098835343392759344993692138814 15:1 #
0.79098835343392759344993692138814 1:1 #
-0.79098835343392759344993692138814 15:1 #
-0.79098835343392759344993692138814 1:1 #
0.79098835343392759344993692138814 15:1 #
0.79098835343392759344993692138814 1:1 #
-0.79098835343392759344993692138814 15:1 #
-0.79098835343392759344993692138814 1:1 #
0.79098835343392759344993692138814 15:1 #
0.79098835343392759344993692138814 1:1 #
-0.79098835343392759344993692138814 15:1 #
-0.79098835343392759344993692138814 1:1 #
0.79098835343392759344993692138814 15:1 #
0.79098835343392759344993692138814 1:1 #
-0.79098835343392759344993692138814 15:1 #
-0.79098835343392759344993692138814 1:1 #
0.79098835343392759344993692138814 15:1 #
0.79098835343392759344993692138814 1:1 #
-0.79098835343392759344993692138814 15:1 #
-0.79098835343392759344993692138814 1:1 #
0.79098835343392759344993692138814 15:1 #
0.79098835343392759344993692138814 1:1 #
-0.79098835343392759344993692138814 15:1 #
-0.79098835343392759344993692138814 1:1 #
0.79098835343392759344993692138814 15:1 #
0.79098835343392759344993692138814 1:1 #
-0.79098835343392759344993692138814 15:1 #
-0.79098835343392759344993692138814 1:1 #
0.79098835343392759344993692138814 15:1 #
0.79098835343392759344993692138814 1:1 #
-0.79098835343392759344993692138814 15:1 #
-0.79098835343392759344993692138814 1:1 #
0.79098835343392759344993692138814 15:1 #
0.79098835343392759344993692138814 1:1 #
-0.79098835343392759344993692138814 15:1 #
-0.79098835343392759344993692138814 1:1 #
0.79098835343392759344993692138814 15:1 #
0.79098835343392759344993692138814 1:1 #
-0.79098835343392759344993692138814 15:1 #
-0.79098835343392759344993692138814 1:1 #
0.79098835343392759344993692138814 15:1 #
0.79098835343392759344993692138814 1:1 #
-0.79098835343392759344993692138814 15:1 #
-0.79098835343392759344993692138814 1:1 #
0.79098835343392759344993692138814 15:1 #
0.79098835343392759344993692138814 1:1 #
-0.79098835343392759344993692138814 15:1 #
-0.79098835343392759344993692138814 1:1 #
0.79098835343392759344993692138814 15:1 #
0.79098835343392759344993692138814 1:1 #
-0.79098835343392759344993692138814 15:1 #
-0.79098835343392759344993692138814 1:1 #
0.79098835343392759344993692138814 15:1 #
0.79098835343392759344993692138814 1:1 #
-0.79098835343392759344993692138814 15:1 #
-0.79098835343392759344993692138814 1:1 #
0.79098835343392759344993692138814 15:1 #
0.79098835343392759344993692138814 1:1 #
-0.79098835343392759344993692138814 15:1 #
-0.79098835343392759344993692138814 1:1 #
0.79098835343392759344993692138814 15:1 #
0.79098835343392759344993692138814 1:1 #
-0.79098835343392759344993692138814 15:1 #
-0.79098835343392759344993692138814 1:1 #
0.79098835343392759344993692138814 15:1 #
0.79098835343392759344993692138814 1:1 #
-0.79098835343392759344993692138814 15:1 #
-0.79098835343392759344993692138814 1:1 #
0.79098835343392759344993692138814 15:1 #
0.79098835343392759344993692138814 1:1 #
-0.79098835343392759344993692138814 15:1 #
-0.44951303406649156801933031601948 9:1 #
-0.32500489894003203872330232115928 14:1 #
-0.2869583220042407623040503494849 2:1 #
-0.33399143945794651511249639952439 6:1 #
0.79098835343392759344993692138814 1:1 #
-0.79098835343392759344993692138814 1:1 #
0.79098835343392759344993692138814 15:1 #
0.79098835343392759344993692138814 9:1 #
-0.79098835343392759344993692138814 1:1 #
0.79098835343392759344993692138814 6:1 #
0.79098835343392759344993692138814 1:1 #
-0.7577961026067877581269272013742 6:1 #
-0.79098835343392759344993692138814 1:1 #
0.79098835343392759344993692138814 6:1 #
-0.79098835343392759344993692138814 15:1 #
-0.79098835343392759344993692138814 6:1 #
-0.79098835343392759344993692138814 16:1 #
0.79098835343392759344993692138814 15:1 #
-0.79098835343392759344993692138814 14:1 #
0.79098835343392759344993692138814 14:1 #
-0.79098835343392759344993692138814 15:1 #
0.79098835343392759344993692138814 15:1 #
-0.79098835343392759344993692138814 14:1 #
0.79098835343392759344993692138814 14:1 #
-0.79098835343392759344993692138814 15:1 #
0.79098835343392759344993692138814 15:1 #
-0.79098835343392759344993692138814 14:1 #
0.79098835343392759344993692138814 14:1 #
-0.79098835343392759344993692138814 15:1 #
0.79098835343392759344993692138814 15:1 #
-0.79098835343392759344993692138814 14:1 #
0.79098835343392759344993692138814 14:1 #
-0.79098835343392759344993692138814 15:1 #
0.79098835343392759344993692138814 15:1 #
-0.79098835343392759344993692138814 14:1 #
0.79098835343392759344993692138814 14:1 #
-0.79098835343392759344993692138814 15:1 #
0.79098835343392759344993692138814 15:1 #
-0.79098835343392759344993692138814 14:1 #
0.79098835343392759344993692138814 14:1 #
-0.79098835343392759344993692138814 15:1 #
0.79098835343392759344993692138814 15:1 #
-0.79098835343392759344993692138814 14:1 #
0.79098835343392759344993692138814 14:1 #
-0.79098835343392759344993692138814 15:1 #
0.79098835343392759344993692138814 15:1 #
-0.79098835343392759344993692138814 14:1 #
0.79098835343392759344993692138814 14:1 #
-0.79098835343392759344993692138814 15:1 #
0.79098835343392759344993692138814 15:1 #
-0.79098835343392759344993692138814 14:1 #
0.79098835343392759344993692138814 14:1 #
-0.79098835343392759344993692138814 15:1 #
0.79098835343392759344993692138814 15:1 #
-0.79098835343392759344993692138814 14:1 #
0.79098835343392759344993692138814 14:1 #
-0.79098835343392759344993692138814 15:1 #
0.79098835343392759344993692138814 15:1 #
-0.79098835343392759344993692138814 14:1 #
0.79098835343392759344993692138814 14:1 #
-0.79098835343392759344993692138814 15:1 #
0.79098835343392759344993692138814 15:1 #
-0.79098835343392759344993692138814 14:1 #
0.79098835343392759344993692138814 14:1 #
-0.79098835343392759344993692138814 15:1 #
0.79098835343392759344993692138814 15:1 #
-0.79098835343392759344993692138814 14:1 #
0.79098835343392759344993692138814 14:1 #
-0.79098835343392759344993692138814 15:1 #
0.79098835343392759344993692138814 15:1 #
-0.79098835343392759344993692138814 14:1 #
0.79098835343392759344993692138814 14:1 #
-0.79098835343392759344993692138814 15:1 #
0.79098835343392759344993692138814 15:1 #
-0.79098835343392759344993692138814 14:1 #
0.79098835343392759344993692138814 14:1 #
-0.79098835343392759344993692138814 15:1 #
0.79098835343392759344993692138814 15:1 #
-0.79098835343392759344993692138814 14:1 #
0.79098835343392759344993692138814 14:1 #
-0.79098835343392759344993692138814 15:1 #
0.79098835343392759344993692138814 15:1 #
-0.79098835343392759344993692138814 14:1 #
0.79098835343392759344993692138814 14:1 #
-0.79098835343392759344993692138814 15:1 #
0.79098835343392759344993692138814 15:1 #
-0.79098835343392759344993692138814 14:1 #
0.79098835343392759344993692138814 14:1 #
-0.79098835343392759344993692138814 15:1 #
0.79098835343392759344993692138814 15:1 #
-0.79098835343392759344993692138814 14:1 #
0.79098835343392759344993692138814 14:1 #
-0.79098835343392759344993692138814 15:1 #
0.79098835343392759344993692138814 15:1 #
-0.79098835343392759344993692138814 14:1 #
0.79098835343392759344993692138814 14:1 #
-0.79098835343392759344993692138814 15:1 #
0.79098835343392759344993692138814 15:1 #
-0.79098835343392759344993692138814 14:1 #
0.79098835343392759344993692138814 14:1 #
-0.79098835343392759344993692138814 15:1 #
0.79098835343392759344993692138814 15:1 #
-0.79098835343392759344993692138814 14:1 #
0.79098835343392759344993692138814 14:1 #
-0.79098835343392759344993692138814 15:1 #
0.79098835343392759344993692138814 15:1 #
-0.79098835343392759344993692138814 14:1 #
0.79098835343392759344993692138814 14:1 #
-0.79098835343392759344993692138814 15:1 #
0.79098835343392759344993692138814 15:1 #
-0.79098835343392759344993692138814 14:1 #
0.79098835343392759344993692138814 14:1 #
-0.79098835343392759344993692138814 15:1 #
0.79098835343392759344993692138814 15:1 #
-0.79098835343392759344993692138814 14:1 #
0.79098835343392759344993692138814 14:1 #
-0.79098835343392759344993692138814 15:1 #
0.79098835343392759344993692138814 15:1 #
-0.79098835343392759344993692138814 14:1 #
0.79098835343392759344993692138814 14:1 #
-0.79098835343392759344993692138814 15:1 #
0.79098835343392759344993692138814 15:1 #
-0.79098835343392759344993692138814 14:1 #
0.79098835343392759344993692138814 14:1 #
-0.79098835343392759344993692138814 15:1 #
0.79098835343392759344993692138814 15:1 #
-0.79098835343392759344993692138814 14:1 #
0.79098835343392759344993692138814 14:1 #
-0.79098835343392759344993692138814 15:1 #
0.79098835343392759344993692138814 15:1 #
-0.79098835343392759344993692138814 14:1 #
0.79098835343392759344993692138814 14:1 #
-0.79098835343392759344993692138814 15:1 #
0.79098835343392759344993692138814 15:1 #
-0.79098835343392759344993692138814 14:1 #
0.79098835343392759344993692138814 14:1 #
-0.79098835343392759344993692138814 15:1 #
0.79098835343392759344993692138814 15:1 #
-0.79098835343392759344993692138814 14:1 #
0.79098835343392759344993692138814 14:1 #
-0.79098835343392759344993692138814 15:1 #
0.79098835343392759344993692138814 15:1 #
-0.79098835343392759344993692138814 14:1 #
0.79098835343392759344993692138814 14:1 #
-0.79098835343392759344993692138814 15:1 #
0.79098835343392759344993692138814 15:1 #
-0.79098835343392759344993692138814 14:1 #
0.79098835343392759344993692138814 14:1 #
-0.79098835343392759344993692138814 15:1 #
0.79098835343392759344993692138814 15:1 #
-0.79098835343392759344993692138814 14:1 #
0.79098835343392759344993692138814 14:1 #
-0.79098835343392759344993692138814 15:1 #
0.79098835343392759344993692138814 15:1 #
-0.79098835343392759344993692138814 14:1 #
0.79098835343392759344993692138814 14:1 #
-0.79098835343392759344993692138814 15:1 #
0.79098835343392759344993692138814 15:1 #
-0.79098835343392759344993692138814 14:1 #
0.79098835343392759344993692138814 14:1 #
-0.79098835343392759344993692138814 15:1 #
0.79098835343392759344993692138814 15:1 #
-0.79098835343392759344993692138814 14:1 #
0.79098835343392759344993692138814 14:1 #
-0.79098835343392759344993692138814 15:1 #
0.79098835343392759344993692138814 15:1 #
-0.79098835343392759344993692138814 14:1 #
0.79098835343392759344993692138814 14:1 #
-0.79098835343392759344993692138814 15:1 #
0.79098835343392759344993692138814 15:1 #
-0.79098835343392759344993692138814 14:1 #
0.79098835343392759344993692138814 14:1 #
-0.79098835343392759344993692138814 15:1 #
0.79098835343392759344993692138814 15:1 #
-0.79098835343392759344993692138814 14:1 #
0.79098835343392759344993692138814 14:1 #
-0.79098835343392759344993692138814 15:1 #
0.79098835343392759344993692138814 15:1 #
-0.79098835343392759344993692138814 14:1 #
0.79098835343392759344993692138814 14:1 #
-0.79098835343392759344993692138814 15:1 #
0.79098835343392759344993692138814 15:1 #
-0.79098835343392759344993692138814 14:1 #
0.79098835343392759344993692138814 14:1 #
-0.79098835343392759344993692138814 15:1 #
0.79098835343392759344993692138814 15:1 #
-0.79098835343392759344993692138814 14:1 #
0.79098835343392759344993692138814 14:1 #
-0.79098835343392759344993692138814 15:1 #
0.79098835343392759344993692138814 15:1 #
-0.79098835343392759344993692138814 14:1 #
0.79098835343392759344993692138814 14:1 #
-0.79098835343392759344993692138814 15:1 #
0.79098835343392759344993692138814 15:1 #
-0.79098835343392759344993692138814 14:1 #
0.79098835343392759344993692138814 14:1 #
-0.79098835343392759344993692138814 15:1 #
0.79098835343392759344993692138814 15:1 #
-0.79098835343392759344993692138814 14:1 #
0.79098835343392759344993692138814 14:1 #
-0.79098835343392759344993692138814 15:1 #
-0.79098835343392759344993692138814 5:1 #
-0.64064556453839116567650080469321 4:1 #
-0.48838719934178270731806037474598 9:1 #
-0.79098835343392759344993692138814 14:1 #
0.79098835343392759344993692138814 11:1 #
0.79098835343392759344993692138814 8:1 #
0.79098835343392759344993692138814 7:1 #
0.79098835343392759344993692138814 15:1 #
-0.79098835343392759344993692138814 11:1 #
-0.79098835343392759344993692138814 7:1 #
-0.79098835343392759344993692138814 15:1 #
0.79098835343392759344993692138814 4:1 #
-0.79098835343392759344993692138814 8:1 #
0.79098835343392759344993692138814 14:1 #
-0.79098835343392759344993692138814 11:1 #
0.79098835343392759344993692138814 5:1 #
0.79098835343392759344993692138814 11:1 #
0.79098835343392759344993692138814 9:1 #
-0.79098835343392759344993692138814 4:1 #
-0.43445064896710883228791999499663 9:1 #
0.79098835343392759344993692138814 4:1 #
-0.79098835343392759344993692138814 11:1 #
0.79098835343392759344993692138814 11:1 #
-0.79098835343392759344993692138814 4:1 #
0.79098835343392759344993692138814 6:1 #
0.79098835343392759344993692138814 4:1 #
-0.79098835343392759344993692138814 14:1 #
-0.79098835343392759344993692138814 4:1 #
0.79098835343392759344993692138814 14:1 #
-0.79098835343392759344993692138814 6:1 #
-0.79098835343392759344993692138814 14:1 #
0.79098835343392759344993692138814 6:1 #
-0.79098835343392759344993692138814 11:1 #
-0.79098835343392759344993692138814 6:1 #
0.79098835343392759344993692138814 11:1 #
0.79098835343392759344993692138814 6:1 #
-0.79098835343392759344993692138814 11:1 #
-0.79098835343392759344993692138814 6:1 #
0.79098835343392759344993692138814 11:1 #
0.79098835343392759344993692138814 6:1 #
-0.79098835343392759344993692138814 11:1 #
-0.79098835343392759344993692138814 6:1 #
0.79098835343392759344993692138814 11:1 #
0.79098835343392759344993692138814 6:1 #
-0.79098835343392759344993692138814 11:1 #
-0.79098835343392759344993692138814 6:1 #
0.79098835343392759344993692138814 11:1 #
0.79098835343392759344993692138814 6:1 #
-0.79098835343392759344993692138814 11:1 #
-0.79098835343392759344993692138814 6:1 #
0.79098835343392759344993692138814 11:1 #
0.79098835343392759344993692138814 6:1 #
-0.79098835343392759344993692138814 11:1 #
-0.79098835343392759344993692138814 6:1 #
0.79098835343392759344993692138814 11:1 #
0.79098835343392759344993692138814 6:1 #
-0.79098835343392759344993692138814 11:1 #
-0.79098835343392759344993692138814 6:1 #
0.79098835343392759344993692138814 11:1 #
0.79098835343392759344993692138814 6:1 #
-0.79098835343392759344993692138814 11:1 #
-0.79098835343392759344993692138814 6:1 #
0.79098835343392759344993692138814 11:1 #
0.79098835343392759344993692138814 6:1 #
-0.79098835343392759344993692138814 11:1 #
-0.79098835343392759344993692138814 6:1 #
0.79098835343392759344993692138814 11:1 #
0.79098835343392759344993692138814 6:1 #
-0.79098835343392759344993692138814 11:1 #
-0.79098835343392759344993692138814 6:1 #
0.79098835343392759344993692138814 11:1 #
0.79098835343392759344993692138814 6:1 #
-0.79098835343392759344993692138814 11:1 #
-0.79098835343392759344993692138814 6:1 #
0.79098835343392759344993692138814 11:1 #
0.79098835343392759344993692138814 6:1 #
-0.79098835343392759344993692138814 11:1 #
-0.79098835343392759344993692138814 6:1 #
0.79098835343392759344993692138814 11:1 #
0.79098835343392759344993692138814 6:1 #
-0.79098835343392759344993692138814 11:1 #
-0.79098835343392759344993692138814 6:1 #
0.79098835343392759344993692138814 11:1 #
0.79098835343392759344993692138814 6:1 #
-0.79098835343392759344993692138814 11:1 #
-0.79098835343392759344993692138814 6:1 #
0.79098835343392759344993692138814 11:1 #
0.79098835343392759344993692138814 6:1 #
-0.79098835343392759344993692138814 11:1 #
-0.79098835343392759344993692138814 6:1 #
0.79098835343392759344993692138814 11:1 #
0.79098835343392759344993692138814 6:1 #
-0.79098835343392759344993692138814 11:1 #
-0.79098835343392759344993692138814 6:1 #
0.79098835343392759344993692138814 11:1 #
0.79098835343392759344993692138814 6:1 #
-0.79098835343392759344993692138814 11:1 #
-0.79098835343392759344993692138814 6:1 #
0.79098835343392759344993692138814 11:1 #
0.79098835343392759344993692138814 6:1 #
-0.79098835343392759344993692138814 11:1 #
-0.79098835343392759344993692138814 6:1 #
0.79098835343392759344993692138814 11:1 #
0.79098835343392759344993692138814 6:1 #
-0.79098835343392759344993692138814 11:1 #
-0.79098835343392759344993692138814 6:1 #
0.79098835343392759344993692138814 11:1 #
0.79098835343392759344993692138814 6:1 #
-0.79098835343392759344993692138814 11:1 #
-0.79098835343392759344993692138814 6:1 #
0.79098835343392759344993692138814 11:1 #
0.79098835343392759344993692138814 6:1 #
-0.79098835343392759344993692138814 11:1 #
-0.79098835343392759344993692138814 6:1 #
0.79098835343392759344993692138814 11:1 #
0.79098835343392759344993692138814 6:1 #
-0.79098835343392759344993692138814 11:1 #
-0.79098835343392759344993692138814 6:1 #
0.79098835343392759344993692138814 11:1 #
0.79098835343392759344993692138814 6:1 #
-0.79098835343392759344993692138814 11:1 #
-0.79098835343392759344993692138814 6:1 #
0.79098835343392759344993692138814 11:1 #
0.79098835343392759344993692138814 6:1 #
-0.79098835343392759344993692138814 11:1 #
-0.79098835343392759344993692138814 6:1 #
0.79098835343392759344993692138814 11:1 #
0.79098835343392759344993692138814 6:1 #
-0.79098835343392759344993692138814 11:1 #
-0.79098835343392759344993692138814 6:1 #
0.79098835343392759344993692138814 11:1 #
0.79098835343392759344993692138814 6:1 #
-0.79098835343392759344993692138814 11:1 #
-0.79098835343392759344993692138814 6:1 #
0.79098835343392759344993692138814 11:1 #
0.79098835343392759344993692138814 6:1 #
-0.79098835343392759344993692138814 11:1 #
-0.79098835343392759344993692138814 6:1 #
0.79098835343392759344993692138814 11:1 #
0.79098835343392759344993692138814 6:1 #
-0.79098835343392759344993692138814 11:1 #
-0.79098835343392759344993692138814 6:1 #
0.79098835343392759344993692138814 11:1 #
0.79098835343392759344993692138814 6:1 #
-0.79098835343392759344993692138814 11:1 #
-0.79098835343392759344993692138814 6:1 #
0.79098835343392759344993692138814 11:1 #
0.79098835343392759344993692138814 6:1 #
-0.79098835343392759344993692138814 11:1 #
-0.79098835343392759344993692138814 6:1 #
-0.54523178127108784529752938396996 5:1 #
-0.61226223828012005245824411758804 17:1 #
-0.6908178280179907426727936581301 3:1 #
-0.52465684881587426602322921098676 2:1 #
0.79098835343392759344993692138814 8:1 #
0.79098835343392759344993692138814 18:1 #
0.79098835343392759344993692138814 13:1 #
-0.79098835343392759344993692138814 18:1 #
0.79098835343392759344993692138814 3:1 #
0.79098835343392759344993692138814 11:1 #
-0.79098835343392759344993692138814 13:1 #
-0.79098835343392759344993692138814 11:1 #
0.79098835343392759344993692138814 6:1 #
0.79098835343392759344993692138814 11:1 #
-0.79098835343392759344993692138814 8:1 #
0.79098835343392759344993692138814 5:1 #
0.79098835343392759344993692138814 17:1 #
0.79098835343392759344993692138814 16:1 #
0.79098835343392759344993692138814 2:1 #
-0.79098835343392759344993692138814 17:1 #
-0.79098835343392759344993692138814 2:1 #
0.79098835343392759344993692138814 2:1 #
-0.79098835343392759344993692138814 6:1 #
0.79098835343392759344993692138814 6:1 #
-0.79098835343392759344993692138814 2:1 #
0.79098835343392759344993692138814 2:1 #
-0.79098835343392759344993692138814 6:1 #
0.79098835343392759344993692138814 6:1 #
-0.79098835343392759344993692138814 2:1 #
0.79098835343392759344993692138814 2:1 #
-0.79098835343392759344993692138814 6:1 #
0.79098835343392759344993692138814 6:1 #
-0.79098835343392759344993692138814 2:1 #
0.79098835343392759344993692138814 2:1 #
-0.79098835343392759344993692138814 6:1 #
0.79098835343392759344993692138814 6:1 #
-0.79098835343392759344993692138814 2:1 #
0.79098835343392759344993692138814 2:1 #
-0.79098835343392759344993692138814 6:1 #
0.79098835343392759344993692138814 6:1 #
-0.79098835343392759344993692138814 2:1 #
0.79098835343392759344993692138814 2:1 #
-0.79098835343392759344993692138814 6:1 #
0.79098835343392759344993692138814 6:1 #
-0.79098835343392759344993692138814 2:1 #
0.79098835343392759344993692138814 2:1 #
-0.79098835343392759344993692138814 6:1 #
0.79098835343392759344993692138814 6:1 #
-0.79098835343392759344993692138814 2:1 #
0.79098835343392759344993692138814 2:1 #
-0.79098835343392759344993692138814 6:1 #
0.79098835343392759344993692138814 6:1 #
-0.79098835343392759344993692138814 2:1 #
0.79098835343392759344993692138814 2:1 #
-0.79098835343392759344993692138814 6:1 #
0.79098835343392759344993692138814 6:1 #
-0.79098835343392759344993692138814 2:1 #
0.79098835343392759344993692138814 2:1 #
-0.79098835343392759344993692138814 6:1 #
0.79098835343392759344993692138814 6:1 #
-0.79098835343392759344993692138814 2:1 #
0.79098835343392759344993692138814 2:1 #
-0.79098835343392759344993692138814 6:1 #
0.79098835343392759344993692138814 6:1 #
-0.79098835343392759344993692138814 2:1 #
0.79098835343392759344993692138814 2:1 #
-0.79098835343392759344993692138814 6:1 #
0.79098835343392759344993692138814 6:1 #
-0.79098835343392759344993692138814 2:1 #
0.79098835343392759344993692138814 2:1 #
-0.79098835343392759344993692138814 6:1 #
0.79098835343392759344993692138814 6:1 #
-0.79098835343392759344993692138814 2:1 #
0.79098835343392759344993692138814 2:1 #
-0.79098835343392759344993692138814 6:1 #
0.79098835343392759344993692138814 6:1 #
-0.79098835343392759344993692138814 2:1 #
0.79098835343392759344993692138814 2:1 #
-0.79098835343392759344993692138814 6:1 #
0.79098835343392759344993692138814 6:1 #
-0.79098835343392759344993692138814 2:1 #
0.79098835343392759344993692138814 2:1 #
-0.79098835343392759344993692138814 6:1 #
0.79098835343392759344993692138814 6:1 #
-0.79098835343392759344993692138814 2:1 #
0.79098835343392759344993692138814 2:1 #
-0.79098835343392759344993692138814 6:1 #
0.79098835343392759344993692138814 6:1 #
-0.79098835343392759344993692138814 2:1 #
0.79098835343392759344993692138814 2:1 #
-0.79098835343392759344993692138814 6:1 #
0.79098835343392759344993692138814 6:1 #
-0.79098835343392759344993692138814 2:1 #
0.79098835343392759344993692138814 2:1 #
-0.79098835343392759344993692138814 6:1 #
0.79098835343392759344993692138814 6:1 #
-0.79098835343392759344993692138814 2:1 #
0.79098835343392759344993692138814 2:1 #
-0.79098835343392759344993692138814 6:1 #
0.79098835343392759344993692138814 6:1 #
-0.79098835343392759344993692138814 2:1 #
0.79098835343392759344993692138814 2:1 #
-0.79098835343392759344993692138814 6:1 #
0.79098835343392759344993692138814 6:1 #
-0.79098835343392759344993692138814 2:1 #
0.79098835343392759344993692138814 2:1 #
-0.79098835343392759344993692138814 6:1 #
0.79098835343392759344993692138814 6:1 #
-0.79098835343392759344993692138814 2:1 #
0.79098835343392759344993692138814 2:1 #
-0.79098835343392759344993692138814 6:1 #
0.79098835343392759344993692138814 6:1 #
-0.79098835343392759344993692138814 2:1 #
0.79098835343392759344993692138814 2:1 #
-0.79098835343392759344993692138814 6:1 #
0.79098835343392759344993692138814 6:1 #
-0.79098835343392759344993692138814 2:1 #
0.79098835343392759344993692138814 2:1 #
-0.79098835343392759344993692138814 6:1 #
0.79098835343392759344993692138814 6:1 #
-0.79098835343392759344993692138814 2:1 #
0.79098835343392759344993692138814 2:1 #
-0.79098835343392759344993692138814 6:1 #
0.79098835343392759344993692138814 6:1 #
-0.79098835343392759344993692138814 2:1 #
0.79098835343392759344993692138814 2:1 #
-0.79098835343392759344993692138814 6:1 #
0.79098835343392759344993692138814 6:1 #
-0.79098835343392759344993692138814 2:1 #
0.79098835343392759344993692138814 2:1 #
-0.79098835343392759344993692138814 6:1 #
0.79098835343392759344993692138814 6:1 #
-0.79098835343392759344993692138814 2:1 #
0.79098835343392759344993692138814 2:1 #
-0.79098835343392759344993692138814 6:1 #
0.79098835343392759344993692138814 6:1 #
-0.79098835343392759344993692138814 2:1 #
0.79098835343392759344993692138814 2:1 #
-0.79098835343392759344993692138814 6:1 #
0.79098835343392759344993692138814 6:1 #
-0.79098835343392759344993692138814 2:1 #
0.79098835343392759344993692138814 2:1 #
-0.79098835343392759344993692138814 6:1 #
0.79098835343392759344993692138814 6:1 #
-0.75228456652269126703203028228018 16:1 #
-0.34874340957116733985543532980955 6:1 #
-0.76961672112570123083230555494083 19:1 #
-0.79098835343392759344993692138814 17:1 #
0.79098835343392759344993692138814 8:1 #
0.79098835343392759344993692138814 18:1 #
0.79098835343392759344993692138814 13:1 #
0.79098835343392759344993692138814 17:1 #
-0.79098835343392759344993692138814 13:1 #
-0.60804537965686800138342960053706 13:1 #
-0.79098835343392759344993692138814 18:1 #
-0.79098835343392759344993692138814 8:1 #
0.79098835343392759344993692138814 13:1 #
-0.79098835343392759344993692138814 13:1 #
0.79098835343392759344993692138814 16:1 #
0.79098835343392759344993692138814 13:1 #
-0.79098835343392759344993692138814 16:1 #
0.79098835343392759344993692138814 6:1 #
-0.79098835343392759344993692138814 13:1 #
0.79098835343392759344993692138814 13:1 #
-0.79098835343392759344993692138814 6:1 #
0.79098835343392759344993692138814 6:1 #
-0.79098835343392759344993692138814 13:1 #
0.79098835343392759344993692138814 13:1 #
-0.79098835343392759344993692138814 6:1 #
0.79098835343392759344993692138814 6:1 #
-0.79098835343392759344993692138814 13:1 #
0.79098835343392759344993692138814 13:1 #
-0.79098835343392759344993692138814 6:1 #
0.79098835343392759344993692138814 6:1 #
-0.79098835343392759344993692138814 13:1 #
0.79098835343392759344993692138814 13:1 #
-0.79098835343392759344993692138814 6:1 #
0.79098835343392759344993692138814 6:1 #
-0.79098835343392759344993692138814 13:1 #
0.79098835343392759344993692138814 13:1 #
-0.79098835343392759344993692138814 6:1 #
0.79098835343392759344993692138814 6:1 #
-0.79098835343392759344993692138814 13:1 #
0.79098835343392759344993692138814 13:1 #
-0.79098835343392759344993692138814 6:1 #
0.79098835343392759344993692138814 6:1 #
-0.79098835343392759344993692138814 13:1 #
0.79098835343392759344993692138814 13:1 #
-0.79098835343392759344993692138814 6:1 #
0.79098835343392759344993692138814 6:1 #
-0.79098835343392759344993692138814 13:1 #
0.79098835343392759344993692138814 13:1 #
-0.79098835343392759344993692138814 6:1 #
0.79098835343392759344993692138814 6:1 #
-0.79098835343392759344993692138814 13:1 #
0.79098835343392759344993692138814 13:1 #
-0.79098835343392759344993692138814 6:1 #
0.79098835343392759344993692138814 6:1 #
-0.79098835343392759344993692138814 13:1 #
0.79098835343392759344993692138814 13:1 #
-0.79098835343392759344993692138814 6:1 #
0.79098835343392759344993692138814 6:1 #
-0.79098835343392759344993692138814 13:1 #
0.79098835343392759344993692138814 13:1 #
-0.79098835343392759344993692138814 6:1 #
0.79098835343392759344993692138814 6:1 #
-0.79098835343392759344993692138814 13:1 #
0.79098835343392759344993692138814 13:1 #
-0.79098835343392759344993692138814 6:1 #
0.79098835343392759344993692138814 6:1 #
-0.79098835343392759344993692138814 13:1 #
0.79098835343392759344993692138814 13:1 #
-0.79098835343392759344993692138814 6:1 #
0.79098835343392759344993692138814 6:1 #
-0.79098835343392759344993692138814 13:1 #
0.79098835343392759344993692138814 13:1 #
-0.79098835343392759344993692138814 6:1 #
0.79098835343392759344993692138814 6:1 #
-0.79098835343392759344993692138814 13:1 #
0.79098835343392759344993692138814 13:1 #
-0.79098835343392759344993692138814 6:1 #
0.79098835343392759344993692138814 6:1 #
-0.79098835343392759344993692138814 13:1 #
0.79098835343392759344993692138814 13:1 #
-0.79098835343392759344993692138814 6:1 #
0.79098835343392759344993692138814 6:1 #
-0.79098835343392759344993692138814 13:1 #
0.79098835343392759344993692138814 13:1 #
-0.79098835343392759344993692138814 6:1 #
0.79098835343392759344993692138814 6:1 #
-0.79098835343392759344993692138814 13:1 #
0.79098835343392759344993692138814 13:1 #
-0.79098835343392759344993692138814 6:1 #
0.79098835343392759344993692138814 6:1 #
-0.79098835343392759344993692138814 13:1 #
0.79098835343392759344993692138814 13:1 #
-0.79098835343392759344993692138814 6:1 #
0.79098835343392759344993692138814 6:1 #
-0.79098835343392759344993692138814 13:1 #
0.79098835343392759344993692138814 13:1 #
-0.79098835343392759344993692138814 6:1 #
0.79098835343392759344993692138814 6:1 #
-0.79098835343392759344993692138814 13:1 #
0.79098835343392759344993692138814 13:1 #
-0.79098835343392759344993692138814 6:1 #
0.79098835343392759344993692138814 6:1 #
-0.79098835343392759344993692138814 13:1 #
0.79098835343392759344993692138814 13:1 #
-0.79098835343392759344993692138814 6:1 #
0.79098835343392759344993692138814 6:1 #
-0.79098835343392759344993692138814 13:1 #
0.79098835343392759344993692138814 13:1 #
-0.79098835343392759344993692138814 6:1 #
0.79098835343392759344993692138814 6:1 #
-0.79098835343392759344993692138814 13:1 #
0.79098835343392759344993692138814 13:1 #
-0.79098835343392759344993692138814 6:1 #
0.79098835343392759344993692138814 6:1 #
-0.79098835343392759344993692138814 13:1 #
0.79098835343392759344993692138814 13:1 #
-0.79098835343392759344993692138814 6:1 #
0.79098835343392759344993692138814 6:1 #
-0.79098835343392759344993692138814 13:1 #
0.79098835343392759344993692138814 13:1 #
-0.79098835343392759344993692138814 6:1 #
0.79098835343392759344993692138814 6:1 #
-0.79098835343392759344993692138814 13:1 #
0.79098835343392759344993692138814 13:1 #
-0.79098835343392759344993692138814 6:1 #
0.79098835343392759344993692138814 6:1 #
-0.79098835343392759344993692138814 13:1 #
0.79098835343392759344993692138814 13:1 #
-0.79098835343392759344993692138814 6:1 #
0.79098835343392759344993692138814 6:1 #
-0.79098835343392759344993692138814 13:1 #
0.79098835343392759344993692138814 13:1 #
-0.79098835343392759344993692138814 6:1 #
0.79098835343392759344993692138814 6:1 #
-0.79098835343392759344993692138814 13:1 #
0.79098835343392759344993692138814 13:1 #
-0.79098835343392759344993692138814 6:1 #
0.79098835343392759344993692138814 6:1 #
-0.79098835343392759344993692138814 13:1 #
0.79098835343392759344993692138814 13:1 #
-0.79098835343392759344993692138814 6:1 #
0.79098835343392759344993692138814 6:1 #
-0.79098835343392759344993692138814 13:1 #
0.79098835343392759344993692138814 13:1 #
-0.79098835343392759344993692138814 6:1 #
0.79098835343392759344993692138814 6:1 #
-0.79098835343392759344993692138814 13:1 #
0.79098835343392759344993692138814 13:1 #
-0.79098835343392759344993692138814 6:1 #
0.79098835343392759344993692138814 6:1 #
-0.79098835343392759344993692138814 13:1 #
0.79098835343392759344993692138814 13:1 #
-0.79098835343392759344993692138814 6:1 #
0.79098835343392759344993692138814 6:1 #
-0.79098835343392759344993692138814 13:1 #
0.79098835343392759344993692138814 13:1 #
-0.79098835343392759344993692138814 6:1 #
0.79098835343392759344993692138814 6:1 #
-0.79098835343392759344993692138814 13:1 #
0.79098835343392759344993692138814 13:1 #
-0.79098835343392759344993692138814 6:1 #
0.79098835343392759344993692138814 6:1 #
-0.79098835343392759344993692138814 13:1 #
0.79098835343392759344993692138814 13:1 #
-0.79098835343392759344993692138814 6:1 #
0.79098835343392759344993692138814 6:1 #
-0.79098835343392759344993692138814 13:1 #
0.79098835343392759344993692138814 13:1 #
-0.79098835343392759344993692138814 6:1 #
0.79098835343392759344993692138814 6:1 #
-0.79098835343392759344993692138814 13:1 #
0.79098835343392759344993692138814 13:1 #
-0.79098835343392759344993692138814 6:1 #
0.79098835343392759344993692138814 6:1 #
-0.79098835343392759344993692138814 13:1 #
0.79098835343392759344993692138814 13:1 #
-0.79098835343392759344993692138814 6:1 #
0.79098835343392759344993692138814 6:1 #
-0.79098835343392759344993692138814 13:1 #
0.79098835343392759344993692138814 13:1 #
-0.79098835343392759344993692138814 6:1 #
0.79098835343392759344993692138814 6:1 #
-0.79098835343392759344993692138814 13:1 #
0.79098835343392759344993692138814 13:1 #
-0.79098835343392759344993692138814 6:1 #
0.79098835343392759344993692138814 6:1 #
-0.79098835343392759344993692138814 13:1 #
0.79098835343392759344993692138814 13:1 #
-0.79098835343392759344993692138814 6:1 #
0.79098835343392759344993692138814 6:1 #
-0.79098835343392759344993692138814 13:1 #
0.79098835343392759344993692138814 13:1 #
-0.79098835343392759344993692138814 6:1 #
0.79098835343392759344993692138814 6:1 #
-0.79098835343392759344993692138814 13:1 #
0.79098835343392759344993692138814 13:1 #
-0.79098835343392759344993692138814 6:1 #
0.79098835343392759344993692138814 6:1 #
-0.79098835343392759344993692138814 13:1 #
0.79098835343392759344993692138814 13:1 #
-0.79098835343392759344993692138814 6:1 #
0.79098835343392759344993692138814 6:1 #
-0.79098835343392759344993692138814 13:1 #
0.79098835343392759344993692138814 13:1 #
-0.79098835343392759344993692138814 6:1 #
-0.79098835343392759344993692138814 9:1 #
-0.79098835343392759344993692138814 12:1 #
-0.79098835343392759344993692138814 1:1 #
-0.79098835343392759344993692138814 16:1 #
0.79098835343392759344993692138814 18:1 #
0.79098835343392759344993692138814 4:1 #
0.79098835343392759344993692138814 20:1 #
0.79098835343392759344993692138814 2:1 #
-0.25963697452660750020214663891238 18:1 #
-0.409157400290383554963824508377 1:1 #
0.79098835343392759344993692138814 6:1 #
-0.79098835343392759344993692138814 20:1 #
-0.40291216281714481439735209278297 15:1 #
0.79098835343392759344993692138814 16:1 #
-0.79098835343392759344993692138814 4:1 #
0.79098835343392759344993692138814 12:1 #
0.79098835343392759344993692138814 6:1 #
-0.79098835343392759344993692138814 2:1 #
0.79098835343392759344993692138814 1:1 #
-0.79098835343392759344993692138814 6:1 #
0.79098835343392759344993692138814 9:1 #
-0.79098835343392759344993692138814 18:1 #
0.79098835343392759344993692138814 6:1 #
0.79098835343392759344993692138814 18:1 #
0.79098835343392759344993692138814 9:1 #
-0.79098835343392759344993692138814 6:1 #
0.79098835343392759344993692138814 19:1 #
-0.79098835343392759344993692138814 19:1 #
