SVM-light Version V6.02
0 # kernel type
3 # kernel parameter -d 
1 # kernel parameter -g 
1 # kernel parameter -s 
1 # kernel parameter -r 
empty# kernel parameter -u 
20 # highest feature index 
65064 # number of training documents 
39664 # number of support vectors plus 1 
0.79970129 # threshold b, each following line is a SV (starting with alpha*y)
-1 9:1 #
-1 2:1 #
-1 4:1 #
-1 12:1 #
1.8999999999999999111821580299875 15:1 #
1.8999999999999999111821580299875 17:1 #
-1 15:1 #
-1 17:1 #
1.8999999999999999111821580299875 2:1 #
1.8999999999999999111821580299875 4:1 #
1.8999999999999999111821580299875 9:1 #
-1 15:1 #
-1 17:1 #
1.8999999999999999111821580299875 12:1 #
-1 12:1 #
-1 12:1 #
1.8999999999999999111821580299875 17:1 #
1.8999999999999999111821580299875 15:1 #
1.8999999999999999111821580299875 12:1 #
-1 15:1 #
-1 17:1 #
-1 12:1 #
-1 12:1 #
1.8999999999999999111821580299875 12:1 #
-1 17:1 #
-1 15:1 #
-1 12:1 #
1.8999999999999999111821580299875 17:1 #
1.8999999999999999111821580299875 15:1 #
-1 12:1 #
1.8999999999999999111821580299875 12:1 #
-1 15:1 #
-1 17:1 #
-1 12:1 #
1.8999999999999999111821580299875 12:1 #
-1 12:1 #
-1 15:1 #
-1 17:1 #
-1 12:1 #
1.8999999999999999111821580299875 17:1 #
1.8999999999999999111821580299875 15:1 #
1.8999999999999999111821580299875 12:1 #
-1 12:1 #
-1 15:1 #
-1 17:1 #
-1 12:1 #
1.8999999999999999111821580299875 12:1 #
-1 12:1 #
-1 17:1 #
-1 15:1 #
-1 12:1 #
1.8999999999999999111821580299875 17:1 #
1.8999999999999999111821580299875 15:1 #
1.8999999999999999111821580299875 12:1 #
-1 12:1 #
-1 17:1 #
-1 15:1 #
-1 12:1 #
1.8999999999999999111821580299875 12:1 #
-1 12:1 #
-1 17:1 #
-1 15:1 #
-1 12:1 #
1.8999999999999999111821580299875 17:1 #
1.8999999999999999111821580299875 15:1 #
1.8999999999999999111821580299875 12:1 #
-1 12:1 #
-1 17:1 #
-1 15:1 #
-1 12:1 #
1.8999999999999999111821580299875 12:1 #
-1 12:1 #
-1 15:1 #
-1 17:1 #
-1 12:1 #
1.8999999999999999111821580299875 15:1 #
1.8999999999999999111821580299875 17:1 #
1.8999999999999999111821580299875 12:1 #
-1 12:1 #
-1 17:1 #
-1 15:1 #
-1 12:1 #
1.8999999999999999111821580299875 12:1 #
-1 12:1 #
-1 15:1 #
-1 17:1 #
1.8999999999999999111821580299875 15:1 #
1.8999999999999999111821580299875 17:1 #
-1 12:1 #
1.8999999999999999111821580299875 12:1 #
-1 12:1 #
-1 15:1 #
-1 17:1 #
-1 15:1 #
1.8999999999999999111821580299875 15:1 #
-1 17:1 #
1.8999999999999999111821580299875 17:1 #
-1 15:1 #
-1 17:1 #
-1 15:1 #
-1 17:1 #
1.8999999999999999111821580299875 17:1 #
-1 17:1 #
1.8999999999999999111821580299875 17:1 #
-1 17:1 #
-1 17:1 #
1.8999999999999999111821580299875 17:1 #
-1 17:1 #
-1 17:1 #
1.8999999999999999111821580299875 17:1 #
-1 17:1 #
-1 17:1 #
1.8999999999999999111821580299875 17:1 #
-1 17:1 #
-1 17:1 #
1.8999999999999999111821580299875 17:1 #
-1 17:1 #
-1 17:1 #
1.8999999999999999111821580299875 17:1 #
-1 17:1 #
-1 17:1 #
1.8999999999999999111821580299875 17:1 #
-1 17:1 #
-1 17:1 #
1.8999999999999999111821580299875 17:1 #
-1 17:1 #
1.8999999999999999111821580299875 17:1 #
-1 17:1 #
-1 12:1 #
-1 17:1 #
1.8999999999999999111821580299875 17:1 #
-1 17:1 #
-1 17:1 #
1.8999999999999999111821580299875 17:1 #
-1 17:1 #
-1 17:1 #
1.8999999999999999111821580299875 17:1 #
-1 17:1 #
-1 17:1 #
1.8999999999999999111821580299875 17:1 #
-1 17:1 #
-1 17:1 #
1.8999999999999999111821580299875 17:1 #
-1 17:1 #
-1 17:1 #
1.8999999999999999111821580299875 17:1 #
-1 17:1 #
-1 17:1 #
1.8999999999999999111821580299875 17:1 #
-1 17:1 #
-1 17:1 #
1.8999999999999999111821580299875 17:1 #
-1 17:1 #
-1 17:1 #
1.8999999999999999111821580299875 17:1 #
-1 17:1 #
-1 17:1 #
1.8999999999999999111821580299875 17:1 #
-1 17:1 #
1.8999999999999999111821580299875 17:1 #
-1 17:1 #
-1 17:1 #
1.8999999999999999111821580299875 17:1 #
-1 17:1 #
-1 17:1 #
1.8999999999999999111821580299875 17:1 #
-1 17:1 #
-1 17:1 #
1.8999999999999999111821580299875 17:1 #
-1 17:1 #
-1 17:1 #
1.8999999999999999111821580299875 17:1 #
-1 17:1 #
-1 17:1 #
1.8999999999999999111821580299875 17:1 #
-1 17:1 #
-1 17:1 #
1.8999999999999999111821580299875 17:1 #
-1 17:1 #
-1 17:1 #
1.8999999999999999111821580299875 17:1 #
-1 17:1 #
-1 17:1 #
1.8999999999999999111821580299875 17:1 #
-1 17:1 #
-1 17:1 #
1.8999999999999999111821580299875 17:1 #
-1 17:1 #
1.8999999999999999111821580299875 17:1 #
-1 17:1 #
-1 17:1 #
1.8999999999999999111821580299875 17:1 #
-1 17:1 #
-1 17:1 #
1.8999999999999999111821580299875 17:1 #
-1 17:1 #
-1 17:1 #
1.8999999999999999111821580299875 17:1 #
-1 17:1 #
-1 17:1 #
1.8999999999999999111821580299875 17:1 #
-1 17:1 #
-1 17:1 #
1.8999999999999999111821580299875 17:1 #
-1 17:1 #
-1 17:1 #
1.8999999999999999111821580299875 17:1 #
-1 17:1 #
-1 17:1 #
1.8999999999999999111821580299875 17:1 #
-1 17:1 #
-1 17:1 #
1.8999999999999999111821580299875 17:1 #
-1 17:1 #
-1 17:1 #
1.8999999999999999111821580299875 17:1 #
-1 17:1 #
1.8999999999999999111821580299875 17:1 #
-1 17:1 #
-1 17:1 #
1.8999999999999999111821580299875 17:1 #
-1 17:1 #
-1 17:1 #
1.8999999999999999111821580299875 17:1 #
-1 17:1 #
-1 17:1 #
1.8999999999999999111821580299875 17:1 #
-1 17:1 #
-1 17:1 #
1.8999999999999999111821580299875 17:1 #
-1 17:1 #
-1 17:1 #
1.8999999999999999111821580299875 17:1 #
-1 17:1 #
1.8999999999999999111821580299875 17:1 #
-1 17:1 #
-1 17:1 #
1.8999999999999999111821580299875 17:1 #
-1 17:1 #
-1 17:1 #
1.8999999999999999111821580299875 17:1 #
-1 17:1 #
-1 17:1 #
1.8999999999999999111821580299875 17:1 #
-1 17:1 #
-1 17:1 #
1.8999999999999999111821580299875 17:1 #
-1 17:1 #
1.8999999999999999111821580299875 17:1 #
-1 17:1 #
-1 17:1 #
1.8999999999999999111821580299875 17:1 #
-1 17:1 #
-1 17:1 #
1.8999999999999999111821580299875 17:1 #
-1 17:1 #
-1 17:1 #
1.8999999999999999111821580299875 17:1 #
-1 17:1 #
-1 17:1 #
1.8999999999999999111821580299875 17:1 #
-1 17:1 #
-1 17:1 #
1.8999999999999999111821580299875 17:1 #
-1 17:1 #
-1 17:1 #
1.8999999999999999111821580299875 17:1 #
-1 17:1 #
-1 17:1 #
1.8999999999999999111821580299875 17:1 #
-1 17:1 #
-1 17:1 #
1.8999999999999999111821580299875 17:1 #
-1 17:1 #
-1 17:1 #
1.8999999999999999111821580299875 17:1 #
-1 17:1 #
1.8999999999999999111821580299875 17:1 #
-1 17:1 #
-1 17:1 #
1.8999999999999999111821580299875 17:1 #
-1 17:1 #
-1 17:1 #
1.8999999999999999111821580299875 17:1 #
-1 17:1 #
-1 17:1 #
1.8999999999999999111821580299875 17:1 #
-1 17:1 #
-1 17:1 #
1.8999999999999999111821580299875 17:1 #
-1 17:1 #
-1 17:1 #
1.8999999999999999111821580299875 17:1 #
-1 17:1 #
-1 17:1 #
1.8999999999999999111821580299875 17:1 #
-1 17:1 #
-1 17:1 #
1.8999999999999999111821580299875 17:1 #
-1 17:1 #
-1 17:1 #
1.8999999999999999111821580299875 17:1 #
-1 17:1 #
-1 17:1 #
1.8999999999999999111821580299875 17:1 #
-1 17:1 #
1.8999999999999999111821580299875 17:1 #
-1 17:1 #
-1 17:1 #
1.8999999999999999111821580299875 17:1 #
-1 17:1 #
-1 17:1 #
1.8999999999999999111821580299875 17:1 #
-1 17:1 #
-1 17:1 #
1.8999999999999999111821580299875 17:1 #
-1 17:1 #
-1 17:1 #
1.8999999999999999111821580299875 17:1 #
-1 17:1 #
-1 17:1 #
1.8999999999999999111821580299875 17:1 #
-1 17:1 #
-1 17:1 #
1.8999999999999999111821580299875 17:1 #
-1 17:1 #
-1 17:1 #
1.8999999999999999111821580299875 17:1 #
-1 17:1 #
-1 17:1 #
1.8999999999999999111821580299875 17:1 #
-1 17:1 #
-1 17:1 #
-1 17:1 #
1.8999999999999999111821580299875 17:1 #
-1 17:1 #
1.8999999999999999111821580299875 17:1 #
-1 17:1 #
-1 17:1 #
1.8999999999999999111821580299875 17:1 #
-1 17:1 #
-1 17:1 #
1.8999999999999999111821580299875 17:1 #
-1 17:1 #
-1 17:1 #
1.8999999999999999111821580299875 17:1 #
-1 17:1 #
-1 17:1 #
1.8999999999999999111821580299875 17:1 #
-1 17:1 #
-1 17:1 #
1.8999999999999999111821580299875 17:1 #
-1 17:1 #
-1 17:1 #
1.8999999999999999111821580299875 17:1 #
-1 17:1 #
-1 17:1 #
1.8999999999999999111821580299875 17:1 #
-1 17:1 #
-1 17:1 #
1.8999999999999999111821580299875 17:1 #
-1 17:1 #
-1 17:1 #
1.8999999999999999111821580299875 17:1 #
-1 17:1 #
1.8999999999999999111821580299875 17:1 #
-1 17:1 #
-1 17:1 #
1.8999999999999999111821580299875 17:1 #
-1 17:1 #
-1 17:1 #
1.8999999999999999111821580299875 17:1 #
-1 17:1 #
-1 17:1 #
1.8999999999999999111821580299875 17:1 #
-1 17:1 #
-1 17:1 #
1.8999999999999999111821580299875 17:1 #
-1 17:1 #
-1 17:1 #
1.8999999999999999111821580299875 17:1 #
-1 17:1 #
-1 17:1 #
1.8999999999999999111821580299875 17:1 #
-1 17:1 #
-1 17:1 #
1.8999999999999999111821580299875 17:1 #
-1 17:1 #
-1 17:1 #
1.8999999999999999111821580299875 17:1 #
-1 17:1 #
-1 17:1 #
1.8999999999999999111821580299875 17:1 #
-1 17:1 #
1.8999999999999999111821580299875 17:1 #
-1 17:1 #
-1 17:1 #
1.8999999999999999111821580299875 17:1 #
-1 17:1 #
-1 17:1 #
1.8999999999999999111821580299875 17:1 #
-1 17:1 #
-1 17:1 #
1.8999999999999999111821580299875 17:1 #
-1 17:1 #
-1 17:1 #
1.8999999999999999111821580299875 17:1 #
-1 17:1 #
-1 17:1 #
1.8999999999999999111821580299875 17:1 #
-1 17:1 #
-1 17:1 #
1.8999999999999999111821580299875 17:1 #
-1 17:1 #
-1 17:1 #
1.8999999999999999111821580299875 17:1 #
-1 17:1 #
-1 17:1 #
1.8999999999999999111821580299875 17:1 #
-1 17:1 #
-1 17:1 #
1.8999999999999999111821580299875 17:1 #
-1 17:1 #
1.8999999999999999111821580299875 17:1 #
-1 17:1 #
-1 17:1 #
1.8999999999999999111821580299875 17:1 #
-1 17:1 #
-1 17:1 #
1.8999999999999999111821580299875 17:1 #
-1 17:1 #
-1 17:1 #
1.8999999999999999111821580299875 17:1 #
-1 17:1 #
-1 17:1 #
1.8999999999999999111821580299875 17:1 #
-1 17:1 #
1.8999999999999999111821580299875 17:1 #
-1 17:1 #
-1 17:1 #
1.8999999999999999111821580299875 17:1 #
-1 17:1 #
-1 17:1 #
1.8999999999999999111821580299875 17:1 #
-1 17:1 #
-1 17:1 #
1.8999999999999999111821580299875 17:1 #
-1 17:1 #
-1 17:1 #
1.8999999999999999111821580299875 17:1 #
-1 17:1 #
-1 17:1 #
1.8999999999999999111821580299875 17:1 #
-1 17:1 #
1.8999999999999999111821580299875 17:1 #
-1 17:1 #
-1 17:1 #
1.8999999999999999111821580299875 17:1 #
-1 17:1 #
-1 17:1 #
1.8999999999999999111821580299875 17:1 #
-1 17:1 #
-1 17:1 #
1.8999999999999999111821580299875 17:1 #
-1 17:1 #
-1 17:1 #
1.8999999999999999111821580299875 17:1 #
-1 17:1 #
-1 17:1 #
1.8999999999999999111821580299875 17:1 #
-1 17:1 #
-1 17:1 #
1.8999999999999999111821580299875 17:1 #
-1 17:1 #
-1 17:1 #
1.8999999999999999111821580299875 17:1 #
-1 17:1 #
-1 17:1 #
1.8999999999999999111821580299875 17:1 #
-1 17:1 #
-1 17:1 #
1.8999999999999999111821580299875 17:1 #
-1 17:1 #
1.8999999999999999111821580299875 17:1 #
-1 17:1 #
-1 17:1 #
1.8999999999999999111821580299875 17:1 #
-1 17:1 #
-1 17:1 #
1.8999999999999999111821580299875 17:1 #
-1 17:1 #
-1 17:1 #
1.8999999999999999111821580299875 17:1 #
-1 17:1 #
-1 17:1 #
1.8999999999999999111821580299875 17:1 #
-1 17:1 #
-1 17:1 #
1.8999999999999999111821580299875 17:1 #
-1 17:1 #
-1 17:1 #
1.8999999999999999111821580299875 17:1 #
-1 17:1 #
-1 17:1 #
1.8999999999999999111821580299875 17:1 #
-1 17:1 #
-1 17:1 #
1.8999999999999999111821580299875 17:1 #
-1 17:1 #
-1 17:1 #
1.8999999999999999111821580299875 17:1 #
-1 17:1 #
1.8999999999999999111821580299875 17:1 #
-1 17:1 #
-1 17:1 #
1.8999999999999999111821580299875 17:1 #
-1 17:1 #
-1 17:1 #
1.8999999999999999111821580299875 17:1 #
-1 17:1 #
-1 17:1 #
1.8999999999999999111821580299875 17:1 #
-1 17:1 #
-1 17:1 #
1.8999999999999999111821580299875 17:1 #
-1 17:1 #
-1 17:1 #
1.8999999999999999111821580299875 17:1 #
-1 17:1 #
-1 17:1 #
1.8999999999999999111821580299875 17:1 #
-1 17:1 #
-1 17:1 #
1.8999999999999999111821580299875 17:1 #
-1 17:1 #
-1 17:1 #
-1 17:1 #
1.8999999999999999111821580299875 17:1 #
-1 17:1 #
-1 17:1 #
1.8999999999999999111821580299875 17:1 #
-1 17:1 #
1.8999999999999999111821580299875 17:1 #
-1 17:1 #
-1 17:1 #
1.8999999999999999111821580299875 17:1 #
-1 17:1 #
-1 17:1 #
1.8999999999999999111821580299875 17:1 #
-1 17:1 #
-1 17:1 #
1.8999999999999999111821580299875 17:1 #
-1 17:1 #
-1 17:1 #
1.8999999999999999111821580299875 17:1 #
-1 17:1 #
-1 17:1 #
1.8999999999999999111821580299875 17:1 #
-1 17:1 #
-1 17:1 #
1.8999999999999999111821580299875 17:1 #
-1 17:1 #
-1 17:1 #
1.8999999999999999111821580299875 17:1 #
-1 17:1 #
-1 17:1 #
1.8999999999999999111821580299875 17:1 #
-1 17:1 #
-1 17:1 #
1.8999999999999999111821580299875 17:1 #
-1 17:1 #
1.8999999999999999111821580299875 17:1 #
-1 17:1 #
-1 17:1 #
1.8999999999999999111821580299875 17:1 #
-1 17:1 #
-1 17:1 #
1.8999999999999999111821580299875 17:1 #
-1 17:1 #
-1 17:1 #
1.8999999999999999111821580299875 17:1 #
-1 17:1 #
-1 17:1 #
1.8999999999999999111821580299875 17:1 #
-1 17:1 #
-1 17:1 #
1.8999999999999999111821580299875 17:1 #
-1 17:1 #
-1 17:1 #
1.8999999999999999111821580299875 17:1 #
-1 17:1 #
-1 17:1 #
1.8999999999999999111821580299875 17:1 #
-1 17:1 #
-1 17:1 #
1.8999999999999999111821580299875 17:1 #
-1 17:1 #
-1 17:1 #
1.8999999999999999111821580299875 17:1 #
-1 17:1 #
1.8999999999999999111821580299875 17:1 #
-1 17:1 #
-1 17:1 #
1.8999999999999999111821580299875 17:1 #
-1 17:1 #
-1 17:1 #
1.8999999999999999111821580299875 17:1 #
-1 17:1 #
-1 17:1 #
1.8999999999999999111821580299875 17:1 #
-1 17:1 #
-1 17:1 #
1.8999999999999999111821580299875 17:1 #
-1 17:1 #
-1 17:1 #
1.8999999999999999111821580299875 17:1 #
-1 17:1 #
-1 17:1 #
1.8999999999999999111821580299875 17:1 #
-1 17:1 #
-1 17:1 #
1.8999999999999999111821580299875 17:1 #
-1 17:1 #
-1 17:1 #
1.8999999999999999111821580299875 17:1 #
-1 17:1 #
-1 17:1 #
1.8999999999999999111821580299875 17:1 #
-1 17:1 #
1.8999999999999999111821580299875 17:1 #
-1 17:1 #
-1 17:1 #
1.8999999999999999111821580299875 17:1 #
-1 17:1 #
-1 17:1 #
1.8999999999999999111821580299875 17:1 #
-1 17:1 #
-1 17:1 #
1.8999999999999999111821580299875 17:1 #
-1 17:1 #
1.8999999999999999111821580299875 17:1 #
-1 17:1 #
-1 17:1 #
1.8999999999999999111821580299875 17:1 #
-1 17:1 #
-1 17:1 #
1.8999999999999999111821580299875 17:1 #
-1 17:1 #
-1 17:1 #
1.8999999999999999111821580299875 17:1 #
-1 17:1 #
-1 17:1 #
1.8999999999999999111821580299875 17:1 #
-1 17:1 #
-1 17:1 #
1.8999999999999999111821580299875 17:1 #
-1 17:1 #
-1 17:1 #
1.8999999999999999111821580299875 17:1 #
-1 17:1 #
1.8999999999999999111821580299875 17:1 #
-1 17:1 #
-1 17:1 #
1.8999999999999999111821580299875 17:1 #
-1 17:1 #
-1 17:1 #
1.8999999999999999111821580299875 17:1 #
-1 17:1 #
-1 17:1 #
1.8999999999999999111821580299875 17:1 #
-1 17:1 #
-1 17:1 #
1.8999999999999999111821580299875 17:1 #
-1 17:1 #
-1 17:1 #
1.8999999999999999111821580299875 17:1 #
-1 17:1 #
-1 17:1 #
1.8999999999999999111821580299875 17:1 #
-1 17:1 #
-1 17:1 #
1.8999999999999999111821580299875 17:1 #
-1 17:1 #
-1 17:1 #
1.8999999999999999111821580299875 17:1 #
-1 17:1 #
-1 17:1 #
1.8999999999999999111821580299875 17:1 #
-1 17:1 #
1.8999999999999999111821580299875 17:1 #
-1 17:1 #
-1 17:1 #
1.8999999999999999111821580299875 17:1 #
-1 17:1 #
-1 17:1 #
1.8999999999999999111821580299875 17:1 #
-1 17:1 #
-1 17:1 #
1.8999999999999999111821580299875 17:1 #
-1 17:1 #
-1 17:1 #
1.8999999999999999111821580299875 17:1 #
-1 17:1 #
-1 17:1 #
1.8999999999999999111821580299875 17:1 #
-1 17:1 #
-1 17:1 #
1.8999999999999999111821580299875 17:1 #
-1 17:1 #
-1 17:1 #
1.8999999999999999111821580299875 17:1 #
-1 17:1 #
-1 17:1 #
1.8999999999999999111821580299875 17:1 #
-1 17:1 #
-1 17:1 #
1.8999999999999999111821580299875 17:1 #
-1 17:1 #
1.8999999999999999111821580299875 17:1 #
-1 17:1 #
-1 17:1 #
1.8999999999999999111821580299875 17:1 #
-1 17:1 #
-1 17:1 #
1.8999999999999999111821580299875 17:1 #
-1 17:1 #
-1 17:1 #
1.8999999999999999111821580299875 17:1 #
-1 17:1 #
-1 17:1 #
1.8999999999999999111821580299875 17:1 #
-1 17:1 #
-1 17:1 #
1.8999999999999999111821580299875 17:1 #
-1 17:1 #
-1 17:1 #
1.8999999999999999111821580299875 17:1 #
-1 17:1 #
-1 17:1 #
-1 17:1 #
1.8999999999999999111821580299875 17:1 #
-1 17:1 #
-1 17:1 #
1.8999999999999999111821580299875 17:1 #
-1 17:1 #
-1 17:1 #
1.8999999999999999111821580299875 17:1 #
-1 17:1 #
1.8999999999999999111821580299875 17:1 #
-1 17:1 #
-1 17:1 #
1.8999999999999999111821580299875 17:1 #
-1 17:1 #
-1 17:1 #
1.8999999999999999111821580299875 17:1 #
-1 17:1 #
-1 17:1 #
1.8999999999999999111821580299875 17:1 #
-1 17:1 #
-1 17:1 #
1.8999999999999999111821580299875 17:1 #
-1 17:1 #
-1 17:1 #
1.8999999999999999111821580299875 17:1 #
-1 17:1 #
-1 17:1 #
1.8999999999999999111821580299875 17:1 #
-1 17:1 #
-1 17:1 #
1.8999999999999999111821580299875 17:1 #
-1 17:1 #
-1 17:1 #
1.8999999999999999111821580299875 17:1 #
-1 17:1 #
-1 17:1 #
1.8999999999999999111821580299875 17:1 #
-1 17:1 #
1.8999999999999999111821580299875 17:1 #
-1 17:1 #
-1 17:1 #
1.8999999999999999111821580299875 17:1 #
-1 17:1 #
-1 17:1 #
1.8999999999999999111821580299875 17:1 #
-1 17:1 #
-1 17:1 #
1.8999999999999999111821580299875 17:1 #
-1 17:1 #
-1 17:1 #
1.8999999999999999111821580299875 17:1 #
-1 17:1 #
-1 17:1 #
1.8999999999999999111821580299875 17:1 #
-1 17:1 #
-1 17:1 #
1.8999999999999999111821580299875 17:1 #
-1 17:1 #
-1 17:1 #
1.8999999999999999111821580299875 17:1 #
-1 17:1 #
-1 17:1 #
1.8999999999999999111821580299875 17:1 #
-1 17:1 #
-1 17:1 #
1.8999999999999999111821580299875 17:1 #
-1 17:1 #
1.8999999999999999111821580299875 17:1 #
-1 17:1 #
-1 17:1 #
1.8999999999999999111821580299875 17:1 #
-1 17:1 #
-1 17:1 #
1.8999999999999999111821580299875 17:1 #
-1 17:1 #
-1 17:1 #
1.8999999999999999111821580299875 17:1 #
-1 17:1 #
-1 17:1 #
1.8999999999999999111821580299875 17:1 #
-1 17:1 #
-1 17:1 #
1.8999999999999999111821580299875 17:1 #
-1 17:1 #
-1 17:1 #
1.8999999999999999111821580299875 17:1 #
-1 17:1 #
-1 17:1 #
1.8999999999999999111821580299875 17:1 #
-1 17:1 #
-1 17:1 #
1.8999999999999999111821580299875 17:1 #
-1 17:1 #
-1 17:1 #
1.8999999999999999111821580299875 17:1 #
-1 17:1 #
1.8999999999999999111821580299875 17:1 #
-1 17:1 #
-1 17:1 #
1.8999999999999999111821580299875 17:1 #
-1 17:1 #
-1 17:1 #
1.8999999999999999111821580299875 17:1 #
-1 17:1 #
1.8999999999999999111821580299875 17:1 #
-1 17:1 #
-1 17:1 #
1.8999999999999999111821580299875 17:1 #
-1 17:1 #
-1 17:1 #
1.8999999999999999111821580299875 17:1 #
-1 17:1 #
-1 17:1 #
1.8999999999999999111821580299875 17:1 #
-1 17:1 #
-1 17:1 #
1.8999999999999999111821580299875 17:1 #
-1 17:1 #
-1 17:1 #
1.8999999999999999111821580299875 17:1 #
-1 17:1 #
-1 17:1 #
1.8999999999999999111821580299875 17:1 #
-1 17:1 #
-1 17:1 #
1.8999999999999999111821580299875 17:1 #
-1 17:1 #
1.8999999999999999111821580299875 17:1 #
-1 17:1 #
-1 17:1 #
1.8999999999999999111821580299875 17:1 #
-1 17:1 #
-1 17:1 #
1.8999999999999999111821580299875 17:1 #
-1 17:1 #
-1 17:1 #
1.8999999999999999111821580299875 17:1 #
-1 17:1 #
-1 17:1 #
1.8999999999999999111821580299875 17:1 #
-1 17:1 #
-1 17:1 #
1.8999999999999999111821580299875 17:1 #
-1 17:1 #
-1 17:1 #
1.8999999999999999111821580299875 17:1 #
-1 17:1 #
-1 17:1 #
1.8999999999999999111821580299875 17:1 #
-1 17:1 #
-1 17:1 #
1.8999999999999999111821580299875 17:1 #
-1 17:1 #
-1 17:1 #
1.8999999999999999111821580299875 17:1 #
-1 17:1 #
1.8999999999999999111821580299875 17:1 #
-1 17:1 #
-1 17:1 #
1.8999999999999999111821580299875 17:1 #
-1 17:1 #
-1 17:1 #
1.8999999999999999111821580299875 17:1 #
-1 17:1 #
-1 17:1 #
1.8999999999999999111821580299875 17:1 #
-1 17:1 #
-1 17:1 #
1.8999999999999999111821580299875 17:1 #
-1 17:1 #
-1 17:1 #
1.8999999999999999111821580299875 17:1 #
-1 17:1 #
-1 17:1 #
1.8999999999999999111821580299875 17:1 #
-1 17:1 #
-1 17:1 #
1.8999999999999999111821580299875 17:1 #
-1 17:1 #
-1 17:1 #
1.8999999999999999111821580299875 17:1 #
-1 17:1 #
-1 17:1 #
1.8999999999999999111821580299875 17:1 #
-1 17:1 #
1.8999999999999999111821580299875 17:1 #
-1 17:1 #
-1 17:1 #
1.8999999999999999111821580299875 17:1 #
-1 17:1 #
-1 17:1 #
1.8999999999999999111821580299875 17:1 #
-1 17:1 #
-1 17:1 #
1.8999999999999999111821580299875 17:1 #
-1 17:1 #
-1 17:1 #
1.8999999999999999111821580299875 17:1 #
-1 17:1 #
-1 17:1 #
1.8999999999999999111821580299875 17:1 #
-1 17:1 #
-1 17:1 #
-1 17:1 #
1.8999999999999999111821580299875 17:1 #
-1 17:1 #
-1 17:1 #
1.8999999999999999111821580299875 17:1 #
-1 17:1 #
-1 17:1 #
1.8999999999999999111821580299875 17:1 #
-1 17:1 #
-1 17:1 #
1.8999999999999999111821580299875 17:1 #
-1 17:1 #
1.8999999999999999111821580299875 17:1 #
-1 17:1 #
-1 17:1 #
1.8999999999999999111821580299875 17:1 #
-1 17:1 #
-1 17:1 #
1.8999999999999999111821580299875 17:1 #
-1 17:1 #
-1 17:1 #
1.8999999999999999111821580299875 17:1 #
-1 17:1 #
-1 17:1 #
1.8999999999999999111821580299875 17:1 #
-1 17:1 #
-1 17:1 #
1.8999999999999999111821580299875 17:1 #
-1 17:1 #
-1 17:1 #
1.8999999999999999111821580299875 17:1 #
-1 17:1 #
-1 17:1 #
1.8999999999999999111821580299875 17:1 #
-1 17:1 #
-1 17:1 #
1.8999999999999999111821580299875 17:1 #
-1 17:1 #
-1 17:1 #
1.8999999999999999111821580299875 17:1 #
-1 17:1 #
1.8999999999999999111821580299875 17:1 #
-1 17:1 #
-1 17:1 #
1.8999999999999999111821580299875 17:1 #
-1 17:1 #
-1 17:1 #
1.8999999999999999111821580299875 17:1 #
-1 17:1 #
-1 17:1 #
1.8999999999999999111821580299875 17:1 #
-1 17:1 #
-1 17:1 #
1.8999999999999999111821580299875 17:1 #
-1 17:1 #
-1 17:1 #
1.8999999999999999111821580299875 17:1 #
-1 17:1 #
-1 17:1 #
1.8999999999999999111821580299875 17:1 #
-1 17:1 #
-1 17:1 #
1.8999999999999999111821580299875 17:1 #
-1 17:1 #
-1 17:1 #
1.8999999999999999111821580299875 17:1 #
-1 17:1 #
-1 17:1 #
1.8999999999999999111821580299875 17:1 #
-1 17:1 #
1.8999999999999999111821580299875 17:1 #
-1 17:1 #
-1 17:1 #
1.8999999999999999111821580299875 17:1 #
-1 17:1 #
-1 17:1 #
1.8999999999999999111821580299875 17:1 #
-1 17:1 #
-1 17:1 #
1.8999999999999999111821580299875 17:1 #
-1 17:1 #
-1 17:1 #
1.8999999999999999111821580299875 17:1 #
-1 17:1 #
-1 17:1 #
1.8999999999999999111821580299875 17:1 #
-1 17:1 #
-1 17:1 #
1.8999999999999999111821580299875 17:1 #
-1 17:1 #
-1 17:1 #
1.8999999999999999111821580299875 17:1 #
-1 17:1 #
-1 17:1 #
1.8999999999999999111821580299875 17:1 #
-1 17:1 #
-1 17:1 #
1.8999999999999999111821580299875 17:1 #
-1 17:1 #
1.8999999999999999111821580299875 17:1 #
-1 17:1 #
1.8999999999999999111821580299875 17:1 #
-1 17:1 #
-1 17:1 #
-1 17:1 #
-1 4:1 #
-1 2:1 #
-1 9:1 #
1.8999999999999999111821580299875 12:1 #
-1 9:1 #
1.8999999999999999111821580299875 15:1 #
-1 5:1 #
-1 19:1 #
-1 20:1 #
-1 16:1 #
1.8999999999999999111821580299875 17:1 #
-1 6:1 #
-1 8:1 #
-1 18:1 #
-1 14:1 #
1.8999999999999999111821580299875 12:1 #
-1 12:1 #
1.8999999999999999111821580299875 9:1 #
-1 17:1 #
1.8999999999999999111821580299875 16:1 #
1.8999999999999999111821580299875 19:1 #
-1 15:1 #
1.8999999999999999111821580299875 20:1 #
1.8999999999999999111821580299875 5:1 #
-1 12:1 #
1.8999999999999999111821580299875 18:1 #
1.8999999999999999111821580299875 3:1 #
1.8999999999999999111821580299875 14:1 #
-1 17:1 #
1.8999999999999999111821580299875 6:1 #
-1 6:1 #
1.8999999999999999111821580299875 17:1 #
-1 17:1 #
-1 12:1 #
1.8999999999999999111821580299875 12:1 #
-1 9:1 #
-1 6:1 #
1.8999999999999999111821580299875 6:1 #
-1 17:1 #
1.8999999999999999111821580299875 17:1 #
-1 12:1 #
-1 17:1 #
-1 12:1 #
1.8999999999999999111821580299875 12:1 #
-1 9:1 #
1.8999999999999999111821580299875 9:1 #
-1 6:1 #
-1 9:1 #
-1 6:1 #
1.8999999999999999111821580299875 6:1 #
-1 17:1 #
1.8999999999999999111821580299875 17:1 #
-1 12:1 #
-1 17:1 #
-1 12:1 #
1.8999999999999999111821580299875 12:1 #
-1 9:1 #
1.8999999999999999111821580299875 9:1 #
-1 6:1 #
-1 9:1 #
-1 6:1 #
1.8999999999999999111821580299875 6:1 #
-1 17:1 #
1.8999999999999999111821580299875 2:1 #
1.8999999999999999111821580299875 4:1 #
-1 2:1 #
-1 4:1 #
1.8999999999999999111821580299875 17:1 #
-1 17:1 #
-1 9:1 #
1.8999999999999999111821580299875 9:1 #
-1 2:1 #
-1 4:1 #
-1 9:1 #
1.8999999999999999111821580299875 3:1 #
1.8999999999999999111821580299875 4:1 #
-1 3:1 #
1.8999999999999999111821580299875 9:1 #
-1 9:1 #
-1 9:1 #
1.8999999999999999111821580299875 9:1 #
-1 9:1 #
-1 3:1 #
1.8999999999999999111821580299875 3:1 #
-1 3:1 #
-1 3:1 #
1.8999999999999999111821580299875 3:1 #
-1 3:1 #
-1 3:1 #
-1 3:1 #
1.8999999999999999111821580299875 3:1 #
-1 3:1 #
1.8999999999999999111821580299875 3:1 #
-1 3:1 #
-1 3:1 #
1.8999999999999999111821580299875 3:1 #
-1 3:1 #
-1 3:1 #
1.8999999999999999111821580299875 3:1 #
-1 3:1 #
-1 3:1 #
1.8999999999999999111821580299875 3:1 #
-1 3:1 #
-1 3:1 #
1.8999999999999999111821580299875 3:1 #
-1 3:1 #
-1 3:1 #
1.8999999999999999111821580299875 3:1 #
-1 3:1 #
-1 3:1 #
1.8999999999999999111821580299875 3:1 #
-1 3:1 #
1.8999999999999999111821580299875 3:1 #
-1 3:1 #
-1 3:1 #
1.8999999999999999111821580299875 3:1 #
-1 3:1 #
-1 3:1 #
1.8999999999999999111821580299875 3:1 #
-0.99999999999999911182158029987477 3:1 #
-1 3:1 #
1.8999999999999999111821580299875 3:1 #
-1 3:1 #
1.8999999999999999111821580299875 3:1 #
-1 3:1 #
-1 3:1 #
1.8999999999999999111821580299875 3:1 #
-1 3:1 #
-1 3:1 #
1.8999999999999999111821580299875 3:1 #
-1 3:1 #
-1 3:1 #
1.8999999999999999111821580299875 3:1 #
-1 3:1 #
-1 3:1 #
1.8999999999999999111821580299875 3:1 #
-1 3:1 #
-1 3:1 #
1.8999999999999999111821580299875 3:1 #
-1 3:1 #
-1 3:1 #
1.8999999999999999111821580299875 3:1 #
-1 3:1 #
-1 3:1 #
1.8999999999999999111821580299875 3:1 #
-1 3:1 #
-1 3:1 #
1.8999999999999999111821580299875 3:1 #
-0.99999999999999911182158029987477 3:1 #
-1 3:1 #
1.8999999999999999111821580299875 3:1 #
-1 3:1 #
1.8999999999999999111821580299875 3:1 #
-1 3:1 #
-1 3:1 #
1.8999999999999999111821580299875 3:1 #
-1 3:1 #
-1 3:1 #
1.8999999999999999111821580299875 3:1 #
-1 3:1 #
-1 3:1 #
1.8999999999999999111821580299875 3:1 #
-1 3:1 #
-1 3:1 #
1.8999999999999999111821580299875 3:1 #
-1 3:1 #
-1 3:1 #
1.8999999999999999111821580299875 3:1 #
-1 3:1 #
-1 3:1 #
1.8999999999999999111821580299875 3:1 #
-1 3:1 #
-1 3:1 #
1.8999999999999999111821580299875 3:1 #
-1 3:1 #
-1 3:1 #
1.8999999999999999111821580299875 3:1 #
-0.99999999999999911182158029987477 3:1 #
-1 3:1 #
1.8999999999999999111821580299875 3:1 #
-1 3:1 #
1.8999999999999999111821580299875 3:1 #
-1 3:1 #
-1 3:1 #
1.8999999999999999111821580299875 3:1 #
-1 3:1 #
-1 3:1 #
1.8999999999999999111821580299875 3:1 #
-1 3:1 #
-1 3:1 #
1.8999999999999999111821580299875 3:1 #
-1 3:1 #
-1 3:1 #
1.8999999999999999111821580299875 3:1 #
-1 3:1 #
-1 3:1 #
1.8999999999999999111821580299875 3:1 #
-1 3:1 #
-1 3:1 #
1.8999999999999999111821580299875 3:1 #
-1 3:1 #
-1 3:1 #
1.8999999999999999111821580299875 3:1 #
-1 3:1 #
-1 3:1 #
1.8999999999999999111821580299875 3:1 #
-0.99999999999999911182158029987477 3:1 #
-1 3:1 #
1.8999999999999999111821580299875 3:1 #
-1 3:1 #
1.8999999999999999111821580299875 3:1 #
-1 3:1 #
-1 3:1 #
1.8999999999999999111821580299875 3:1 #
-1 3:1 #
-1 3:1 #
-1 3:1 #
1.8999999999999999111821580299875 3:1 #
-1 3:1 #
-1 3:1 #
1.8999999999999999111821580299875 3:1 #
-1 3:1 #
-1 3:1 #
1.8999999999999999111821580299875 3:1 #
-1 3:1 #
-1 3:1 #
1.8999999999999999111821580299875 3:1 #
-1 3:1 #
-1 3:1 #
1.8999999999999999111821580299875 3:1 #
-1 3:1 #
-1 3:1 #
1.8999999999999999111821580299875 3:1 #
-1 3:1 #
-1 3:1 #
1.8999999999999999111821580299875 3:1 #
-0.99999999999999911182158029987477 3:1 #
-1 3:1 #
1.8999999999999999111821580299875 3:1 #
-1 3:1 #
1.8999999999999999111821580299875 3:1 #
-1 3:1 #
-1 3:1 #
1.8999999999999999111821580299875 3:1 #
-1 3:1 #
-1 3:1 #
1.8999999999999999111821580299875 3:1 #
-1 3:1 #
-1 3:1 #
1.8999999999999999111821580299875 3:1 #
-1 3:1 #
-1 3:1 #
1.8999999999999999111821580299875 3:1 #
-1 3:1 #
-1 3:1 #
1.8999999999999999111821580299875 3:1 #
-1 3:1 #
-1 3:1 #
1.8999999999999999111821580299875 3:1 #
-1 3:1 #
-1 3:1 #
1.8999999999999999111821580299875 3:1 #
-1 3:1 #
-1 3:1 #
1.8999999999999999111821580299875 3:1 #
-0.99999999999999911182158029987477 3:1 #
-1 3:1 #
1.8999999999999999111821580299875 3:1 #
-1 3:1 #
1.8999999999999999111821580299875 3:1 #
-1 3:1 #
-1 3:1 #
1.8999999999999999111821580299875 3:1 #
-1 3:1 #
-1 3:1 #
1.8999999999999999111821580299875 3:1 #
-1 3:1 #
-1 3:1 #
1.8999999999999999111821580299875 3:1 #
-1 3:1 #
-1 3:1 #
1.8999999999999999111821580299875 3:1 #
-1 3:1 #
-1 3:1 #
1.8999999999999999111821580299875 3:1 #
-1 3:1 #
-1 3:1 #
1.8999999999999999111821580299875 3:1 #
-1 3:1 #
-1 3:1 #
1.8999999999999999111821580299875 3:1 #
-1 3:1 #
-1 3:1 #
1.8999999999999999111821580299875 3:1 #
-0.99999999999999911182158029987477 3:1 #
-1 3:1 #
1.8999999999999999111821580299875 3:1 #
-1 3:1 #
1.8999999999999999111821580299875 3:1 #
-1 3:1 #
-1 3:1 #
1.8999999999999999111821580299875 3:1 #
-1 3:1 #
-1 3:1 #
1.8999999999999999111821580299875 3:1 #
-1 3:1 #
-1 3:1 #
1.8999999999999999111821580299875 3:1 #
-1 3:1 #
-1 3:1 #
1.8999999999999999111821580299875 3:1 #
-1 3:1 #
-1 3:1 #
1.8999999999999999111821580299875 3:1 #
-1 3:1 #
-1 3:1 #
1.8999999999999999111821580299875 3:1 #
-1 3:1 #
-1 3:1 #
-1 3:1 #
1.8999999999999999111821580299875 3:1 #
1.8999999999999999111821580299875 3:1 #
-1 3:1 #
-1 3:1 #
1.8999999999999999111821580299875 3:1 #
-0.99999999999999911182158029987477 3:1 #
-1 3:1 #
1.8999999999999999111821580299875 3:1 #
-1 3:1 #
1.8999999999999999111821580299875 3:1 #
-1 3:1 #
-1 3:1 #
1.8999999999999999111821580299875 3:1 #
-1 3:1 #
-1 3:1 #
1.8999999999999999111821580299875 3:1 #
-1 3:1 #
-1 3:1 #
1.8999999999999999111821580299875 3:1 #
-1 3:1 #
-1 3:1 #
1.8999999999999999111821580299875 3:1 #
-1 3:1 #
-1 3:1 #
1.8999999999999999111821580299875 3:1 #
-1 3:1 #
-1 3:1 #
1.8999999999999999111821580299875 3:1 #
-1 3:1 #
-1 3:1 #
1.8999999999999999111821580299875 3:1 #
-1 3:1 #
-1 3:1 #
1.8999999999999999111821580299875 3:1 #
-0.99999999999999911182158029987477 3:1 #
-1 3:1 #
1.8999999999999999111821580299875 3:1 #
-1 3:1 #
1.8999999999999999111821580299875 3:1 #
-1 3:1 #
-1 3:1 #
1.8999999999999999111821580299875 3:1 #
-1 3:1 #
-1 3:1 #
1.8999999999999999111821580299875 3:1 #
-1 3:1 #
-1 3:1 #
1.8999999999999999111821580299875 3:1 #
-1 3:1 #
-1 3:1 #
1.8999999999999999111821580299875 3:1 #
-1 3:1 #
-1 3:1 #
1.8999999999999999111821580299875 3:1 #
-1 3:1 #
-1 3:1 #
1.8999999999999999111821580299875 3:1 #
-1 3:1 #
-1 3:1 #
1.8999999999999999111821580299875 3:1 #
-1 3:1 #
-1 3:1 #
1.8999999999999999111821580299875 3:1 #
-0.99999999999999911182158029987477 3:1 #
-1 3:1 #
1.8999999999999999111821580299875 3:1 #
-1 3:1 #
1.8999999999999999111821580299875 3:1 #
-1 3:1 #
-1 3:1 #
1.8999999999999999111821580299875 3:1 #
-1 3:1 #
-1 3:1 #
1.8999999999999999111821580299875 3:1 #
-1 3:1 #
-1 3:1 #
1.8999999999999999111821580299875 3:1 #
-1 3:1 #
-1 3:1 #
1.8999999999999999111821580299875 3:1 #
-1 3:1 #
-1 3:1 #
1.8999999999999999111821580299875 3:1 #
-1 3:1 #
-1 3:1 #
1.8999999999999999111821580299875 3:1 #
-1 3:1 #
-1 3:1 #
1.8999999999999999111821580299875 3:1 #
-1 3:1 #
-1 3:1 #
1.8999999999999999111821580299875 3:1 #
-0.99999999999999911182158029987477 3:1 #
-1 3:1 #
1.8999999999999999111821580299875 3:1 #
-1 3:1 #
1.8999999999999999111821580299875 3:1 #
-1 3:1 #
-1 3:1 #
1.8999999999999999111821580299875 3:1 #
-1 3:1 #
-1 3:1 #
1.8999999999999999111821580299875 3:1 #
-1 3:1 #
-1 3:1 #
-1 3:1 #
1.8999999999999999111821580299875 3:1 #
-1 3:1 #
-1 3:1 #
1.8999999999999999111821580299875 3:1 #
-1 3:1 #
-1 3:1 #
1.8999999999999999111821580299875 3:1 #
-1 3:1 #
-1 3:1 #
1.8999999999999999111821580299875 3:1 #
-1 3:1 #
-1 3:1 #
1.8999999999999999111821580299875 3:1 #
-1 3:1 #
-1 3:1 #
1.8999999999999999111821580299875 3:1 #
-0.99999999999999911182158029987477 3:1 #
-1 3:1 #
1.8999999999999999111821580299875 3:1 #
-1 3:1 #
1.8999999999999999111821580299875 3:1 #
-1 3:1 #
-1 3:1 #
1.8999999999999999111821580299875 3:1 #
-1 3:1 #
-1 3:1 #
1.8999999999999999111821580299875 3:1 #
-1 3:1 #
-1 3:1 #
1.8999999999999999111821580299875 3:1 #
-1 3:1 #
-1 3:1 #
1.8999999999999999111821580299875 3:1 #
-1 3:1 #
-1 3:1 #
1.8999999999999999111821580299875 3:1 #
-1 3:1 #
-1 3:1 #
1.8999999999999999111821580299875 3:1 #
-1 3:1 #
-1 3:1 #
1.8999999999999999111821580299875 3:1 #
-1 3:1 #
-1 3:1 #
1.8999999999999999111821580299875 3:1 #
-0.99999999999999911182158029987477 3:1 #
-1 3:1 #
1.8999999999999999111821580299875 3:1 #
-1 3:1 #
1.8999999999999999111821580299875 3:1 #
-1 3:1 #
-1 3:1 #
1.8999999999999999111821580299875 3:1 #
-1 3:1 #
-1 3:1 #
1.8999999999999999111821580299875 3:1 #
-1 3:1 #
-1 3:1 #
1.8999999999999999111821580299875 3:1 #
-1 3:1 #
-1 3:1 #
1.8999999999999999111821580299875 3:1 #
-1 3:1 #
-1 3:1 #
1.8999999999999999111821580299875 3:1 #
-1 3:1 #
-1 3:1 #
1.8999999999999999111821580299875 3:1 #
-1 3:1 #
-1 3:1 #
1.8999999999999999111821580299875 3:1 #
-1 3:1 #
-1 3:1 #
1.8999999999999999111821580299875 3:1 #
-0.99999999999999911182158029987477 3:1 #
-1 3:1 #
1.8999999999999999111821580299875 3:1 #
-1 3:1 #
1.8999999999999999111821580299875 3:1 #
-1 3:1 #
-1 3:1 #
1.8999999999999999111821580299875 3:1 #
-1 3:1 #
-1 3:1 #
1.8999999999999999111821580299875 3:1 #
-1 3:1 #
-1 3:1 #
1.8999999999999999111821580299875 3:1 #
-1 3:1 #
-1 3:1 #
1.8999999999999999111821580299875 3:1 #
-1 3:1 #
-1 3:1 #
1.8999999999999999111821580299875 3:1 #
-1 3:1 #
-1 3:1 #
1.8999999999999999111821580299875 3:1 #
-1 3:1 #
-1 3:1 #
1.8999999999999999111821580299875 3:1 #
-1 3:1 #
-1 3:1 #
1.8999999999999999111821580299875 3:1 #
-1 3:1 #
1.8999999999999999111821580299875 3:1 #
-0.99999999999999911182158029987477 3:1 #
-1 3:1 #
1.8999999999999999111821580299875 3:1 #
-1 3:1 #
1.8999999999999999111821580299875 3:1 #
-1 3:1 #
-1 3:1 #
1.8999999999999999111821580299875 3:1 #
-1 3:1 #
-1 3:1 #
1.8999999999999999111821580299875 3:1 #
-1 3:1 #
-1 3:1 #
1.8999999999999999111821580299875 3:1 #
-1 3:1 #
-1 3:1 #
1.8999999999999999111821580299875 3:1 #
-1 3:1 #
-1 3:1 #
1.8999999999999999111821580299875 3:1 #
-1 3:1 #
-1 3:1 #
1.8999999999999999111821580299875 3:1 #
-1 3:1 #
-1 3:1 #
1.8999999999999999111821580299875 3:1 #
-1 3:1 #
-1 3:1 #
1.8999999999999999111821580299875 3:1 #
-0.99999999999999911182158029987477 3:1 #
-1 3:1 #
1.8999999999999999111821580299875 3:1 #
-1 3:1 #
1.8999999999999999111821580299875 3:1 #
-1 3:1 #
-1 3:1 #
1.8999999999999999111821580299875 3:1 #
-1 3:1 #
-1 3:1 #
1.8999999999999999111821580299875 3:1 #
-1 3:1 #
-1 3:1 #
1.8999999999999999111821580299875 3:1 #
-1 3:1 #
-1 3:1 #
1.8999999999999999111821580299875 3:1 #
-1 3:1 #
-1 3:1 #
1.8999999999999999111821580299875 3:1 #
-1 3:1 #
-1 3:1 #
1.8999999999999999111821580299875 3:1 #
-1 3:1 #
-1 3:1 #
1.8999999999999999111821580299875 3:1 #
-1 3:1 #
-1 3:1 #
1.8999999999999999111821580299875 3:1 #
-0.99999999999999911182158029987477 3:1 #
-1 3:1 #
1.8999999999999999111821580299875 3:1 #
-1 3:1 #
1.8999999999999999111821580299875 3:1 #
-1 3:1 #
-1 3:1 #
1.8999999999999999111821580299875 3:1 #
-1 3:1 #
-1 3:1 #
1.8999999999999999111821580299875 3:1 #
-1 3:1 #
-1 3:1 #
1.8999999999999999111821580299875 3:1 #
-1 3:1 #
-1 3:1 #
1.8999999999999999111821580299875 3:1 #
-1 3:1 #
-1 3:1 #
1.8999999999999999111821580299875 3:1 #
-1 3:1 #
-1 3:1 #
1.8999999999999999111821580299875 3:1 #
-1 3:1 #
-1 3:1 #
1.8999999999999999111821580299875 3:1 #
-1 3:1 #
-1 3:1 #
1.8999999999999999111821580299875 3:1 #
-0.99999999999999911182158029987477 3:1 #
-1 3:1 #
1.8999999999999999111821580299875 3:1 #
-1 3:1 #
1.8999999999999999111821580299875 3:1 #
-1 3:1 #
-1 3:1 #
1.8999999999999999111821580299875 3:1 #
-1 3:1 #
-1 3:1 #
1.8999999999999999111821580299875 3:1 #
-1 3:1 #
-1 3:1 #
1.8999999999999999111821580299875 3:1 #
-1 3:1 #
-1 3:1 #
1.8999999999999999111821580299875 3:1 #
-1 3:1 #
-1 3:1 #
-1 3:1 #
1.8999999999999999111821580299875 3:1 #
-1 3:1 #
-1 3:1 #
1.8999999999999999111821580299875 3:1 #
-1 3:1 #
-1 3:1 #
1.8999999999999999111821580299875 3:1 #
-1 3:1 #
-1 3:1 #
1.8999999999999999111821580299875 3:1 #
-0.99999999999999911182158029987477 3:1 #
-1 3:1 #
1.8999999999999999111821580299875 3:1 #
-1 3:1 #
1.8999999999999999111821580299875 3:1 #
-1 3:1 #
-1 3:1 #
1.8999999999999999111821580299875 3:1 #
-1 3:1 #
-1 3:1 #
1.8999999999999999111821580299875 3:1 #
-1 3:1 #
-1 3:1 #
1.8999999999999999111821580299875 3:1 #
-1 3:1 #
-1 3:1 #
1.8999999999999999111821580299875 3:1 #
-1 3:1 #
-1 3:1 #
1.8999999999999999111821580299875 3:1 #
-1 3:1 #
-1 3:1 #
1.8999999999999999111821580299875 3:1 #
-1 3:1 #
-1 3:1 #
1.8999999999999999111821580299875 3:1 #
-1 3:1 #
-1 3:1 #
1.8999999999999999111821580299875 3:1 #
-0.99999999999999911182158029987477 3:1 #
-1 3:1 #
1.8999999999999999111821580299875 3:1 #
-1 3:1 #
1.8999999999999999111821580299875 3:1 #
-1 3:1 #
-1 3:1 #
1.8999999999999999111821580299875 3:1 #
-1 3:1 #
-1 3:1 #
1.8999999999999999111821580299875 3:1 #
-1 3:1 #
-1 3:1 #
1.8999999999999999111821580299875 3:1 #
-1 3:1 #
-1 3:1 #
1.8999999999999999111821580299875 3:1 #
-1 3:1 #
-1 3:1 #
1.8999999999999999111821580299875 3:1 #
-1 3:1 #
-1 3:1 #
1.8999999999999999111821580299875 3:1 #
-1 3:1 #
-1 3:1 #
1.8999999999999999111821580299875 3:1 #
-1 3:1 #
-1 3:1 #
1.8999999999999999111821580299875 3:1 #
-0.99999999999999911182158029987477 3:1 #
-1 3:1 #
1.8999999999999999111821580299875 3:1 #
-1 3:1 #
1.8999999999999999111821580299875 3:1 #
-1 3:1 #
-1 3:1 #
1.8999999999999999111821580299875 3:1 #
-1 3:1 #
-1 3:1 #
1.8999999999999999111821580299875 3:1 #
-1 3:1 #
-1 3:1 #
1.8999999999999999111821580299875 3:1 #
-1 3:1 #
-1 3:1 #
1.8999999999999999111821580299875 3:1 #
-1 3:1 #
-1 3:1 #
1.8999999999999999111821580299875 3:1 #
-1 3:1 #
-1 3:1 #
1.8999999999999999111821580299875 3:1 #
-1 3:1 #
-1 3:1 #
1.8999999999999999111821580299875 3:1 #
-1 3:1 #
-1 3:1 #
1.8999999999999999111821580299875 3:1 #
-0.99999999999999911182158029987477 3:1 #
-1 3:1 #
1.8999999999999999111821580299875 3:1 #
-1 3:1 #
1.8999999999999999111821580299875 3:1 #
-1 3:1 #
1.8999999999999999111821580299875 3:1 #
-1 3:1 #
-1 3:1 #
1.8999999999999999111821580299875 3:1 #
-1 3:1 #
-1 3:1 #
1.8999999999999999111821580299875 3:1 #
-1 3:1 #
-1 3:1 #
1.8999999999999999111821580299875 3:1 #
-1 3:1 #
-1 3:1 #
1.8999999999999999111821580299875 3:1 #
-1 3:1 #
-1 3:1 #
1.8999999999999999111821580299875 3:1 #
-1 3:1 #
-1 3:1 #
1.8999999999999999111821580299875 3:1 #
-1 3:1 #
-1 3:1 #
1.8999999999999999111821580299875 3:1 #
-1 3:1 #
-1 3:1 #
1.8999999999999999111821580299875 3:1 #
-0.99999999999999911182158029987477 3:1 #
-1 3:1 #
1.8999999999999999111821580299875 3:1 #
-1 3:1 #
1.8999999999999999111821580299875 3:1 #
-1 3:1 #
-1 3:1 #
1.8999999999999999111821580299875 3:1 #
-1 3:1 #
-1 3:1 #
1.8999999999999999111821580299875 3:1 #
-1 3:1 #
-1 3:1 #
1.8999999999999999111821580299875 3:1 #
-1 3:1 #
-1 3:1 #
1.8999999999999999111821580299875 3:1 #
-1 3:1 #
-1 3:1 #
1.8999999999999999111821580299875 3:1 #
-1 3:1 #
-1 3:1 #
1.8999999999999999111821580299875 3:1 #
-1 3:1 #
-1 3:1 #
1.8999999999999999111821580299875 3:1 #
-1 3:1 #
-1 3:1 #
1.8999999999999999111821580299875 3:1 #
-0.99999999999999911182158029987477 3:1 #
-1 3:1 #
1.8999999999999999111821580299875 3:1 #
-1 3:1 #
1.8999999999999999111821580299875 3:1 #
-1 3:1 #
-1 3:1 #
1.8999999999999999111821580299875 3:1 #
-1 3:1 #
-1 3:1 #
1.8999999999999999111821580299875 3:1 #
-1 3:1 #
-1 3:1 #
1.8999999999999999111821580299875 3:1 #
-1 3:1 #
-1 3:1 #
1.8999999999999999111821580299875 3:1 #
-1 3:1 #
-1 3:1 #
1.8999999999999999111821580299875 3:1 #
-1 3:1 #
-1 3:1 #
1.8999999999999999111821580299875 3:1 #
-1 3:1 #
-1 3:1 #
1.8999999999999999111821580299875 3:1 #
-1 3:1 #
-1 3:1 #
1.8999999999999999111821580299875 3:1 #
-0.99999999999999911182158029987477 3:1 #
-1 3:1 #
1.8999999999999999111821580299875 3:1 #
-1 3:1 #
1.8999999999999999111821580299875 3:1 #
-1 3:1 #
-1 3:1 #
1.8999999999999999111821580299875 3:1 #
-1 3:1 #
-1 3:1 #
1.8999999999999999111821580299875 3:1 #
-1 3:1 #
-1 3:1 #
1.8999999999999999111821580299875 3:1 #
-1 3:1 #
-1 3:1 #
1.8999999999999999111821580299875 3:1 #
-1 3:1 #
-1 3:1 #
1.8999999999999999111821580299875 3:1 #
-1 3:1 #
-1 3:1 #
-1 3:1 #
1.8999999999999999111821580299875 3:1 #
-1 3:1 #
-1 3:1 #
1.8999999999999999111821580299875 3:1 #
-1 3:1 #
-1 3:1 #
1.8999999999999999111821580299875 3:1 #
-0.99999999999999911182158029987477 3:1 #
-1 3:1 #
1.8999999999999999111821580299875 3:1 #
-1 3:1 #
1.8999999999999999111821580299875 3:1 #
-1 3:1 #
-1 3:1 #
1.8999999999999999111821580299875 3:1 #
-1 3:1 #
-1 3:1 #
1.8999999999999999111821580299875 3:1 #
-1 3:1 #
-1 3:1 #
1.8999999999999999111821580299875 3:1 #
-1 3:1 #
-1 3:1 #
1.8999999999999999111821580299875 3:1 #
-1 3:1 #
-1 3:1 #
1.8999999999999999111821580299875 3:1 #
-1 3:1 #
-1 3:1 #
1.8999999999999999111821580299875 3:1 #
-1 3:1 #
-1 3:1 #
1.8999999999999999111821580299875 3:1 #
-1 3:1 #
-1 3:1 #
1.8999999999999999111821580299875 3:1 #
-0.99999999999999911182158029987477 3:1 #
-1 3:1 #
1.8999999999999999111821580299875 3:1 #
-1 3:1 #
1.8999999999999999111821580299875 3:1 #
-1 3:1 #
-1 3:1 #
1.8999999999999999111821580299875 3:1 #
-1 3:1 #
-1 3:1 #
1.8999999999999999111821580299875 3:1 #
-1 3:1 #
-1 3:1 #
1.8999999999999999111821580299875 3:1 #
-1 3:1 #
-1 3:1 #
1.8999999999999999111821580299875 3:1 #
-1 3:1 #
-1 3:1 #
1.8999999999999999111821580299875 3:1 #
-1 3:1 #
-1 3:1 #
1.8999999999999999111821580299875 3:1 #
-1 3:1 #
-1 3:1 #
1.8999999999999999111821580299875 3:1 #
-1 3:1 #
-1 3:1 #
1.8999999999999999111821580299875 3:1 #
-0.99999999999999911182158029987477 3:1 #
-1 3:1 #
1.8999999999999999111821580299875 3:1 #
-1 3:1 #
1.8999999999999999111821580299875 3:1 #
-1 3:1 #
-1 3:1 #
1.8999999999999999111821580299875 3:1 #
-1 3:1 #
-1 3:1 #
1.8999999999999999111821580299875 3:1 #
-1 3:1 #
-1 3:1 #
1.8999999999999999111821580299875 3:1 #
-1 3:1 #
-1 3:1 #
1.8999999999999999111821580299875 3:1 #
-1 3:1 #
-1 3:1 #
1.8999999999999999111821580299875 3:1 #
-1 3:1 #
-1 3:1 #
1.8999999999999999111821580299875 3:1 #
-1 3:1 #
-1 3:1 #
1.8999999999999999111821580299875 3:1 #
-1 3:1 #
-1 3:1 #
1.8999999999999999111821580299875 3:1 #
-0.99999999999999911182158029987477 3:1 #
-1 3:1 #
1.8999999999999999111821580299875 3:1 #
-1 3:1 #
1.8999999999999999111821580299875 3:1 #
-1 3:1 #
-1 3:1 #
1.8999999999999999111821580299875 3:1 #
-1 3:1 #
-1 3:1 #
1.8999999999999999111821580299875 3:1 #
-1 3:1 #
1.8999999999999999111821580299875 3:1 #
-1 3:1 #
-1 3:1 #
1.8999999999999999111821580299875 3:1 #
-1 3:1 #
-1 3:1 #
1.8999999999999999111821580299875 3:1 #
-1 3:1 #
-1 3:1 #
1.8999999999999999111821580299875 3:1 #
-1 3:1 #
-1 3:1 #
1.8999999999999999111821580299875 3:1 #
-1 3:1 #
-1 3:1 #
1.8999999999999999111821580299875 3:1 #
-1 3:1 #
-1 3:1 #
1.8999999999999999111821580299875 3:1 #
-0.99999999999999911182158029987477 3:1 #
-1 3:1 #
1.8999999999999999111821580299875 3:1 #
-1 3:1 #
1.8999999999999999111821580299875 3:1 #
-1 3:1 #
-1 3:1 #
1.8999999999999999111821580299875 3:1 #
-1 3:1 #
-1 3:1 #
1.8999999999999999111821580299875 3:1 #
-1 3:1 #
-1 3:1 #
1.8999999999999999111821580299875 3:1 #
-1 3:1 #
-1 3:1 #
1.8999999999999999111821580299875 3:1 #
-1 3:1 #
-1 3:1 #
1.8999999999999999111821580299875 3:1 #
-1 3:1 #
-1 3:1 #
1.8999999999999999111821580299875 3:1 #
-1 3:1 #
-1 3:1 #
1.8999999999999999111821580299875 3:1 #
-1 3:1 #
-1 3:1 #
1.8999999999999999111821580299875 3:1 #
-0.99999999999999911182158029987477 3:1 #
-1 3:1 #
1.8999999999999999111821580299875 3:1 #
-1 3:1 #
1.8999999999999999111821580299875 3:1 #
-1 3:1 #
-1 3:1 #
1.8999999999999999111821580299875 3:1 #
-1 3:1 #
-1 3:1 #
1.8999999999999999111821580299875 3:1 #
-1 3:1 #
-1 3:1 #
1.8999999999999999111821580299875 3:1 #
-1 3:1 #
-1 3:1 #
1.8999999999999999111821580299875 3:1 #
-1 3:1 #
-1 3:1 #
1.8999999999999999111821580299875 3:1 #
-1 3:1 #
-1 3:1 #
1.8999999999999999111821580299875 3:1 #
-1 3:1 #
-1 3:1 #
1.8999999999999999111821580299875 3:1 #
-1 3:1 #
-1 3:1 #
1.8999999999999999111821580299875 3:1 #
-0.99999999999999911182158029987477 3:1 #
-1 3:1 #
1.8999999999999999111821580299875 3:1 #
-1 3:1 #
1.8999999999999999111821580299875 3:1 #
-1 3:1 #
-1 3:1 #
1.8999999999999999111821580299875 3:1 #
-1 3:1 #
-1 3:1 #
1.8999999999999999111821580299875 3:1 #
-1 3:1 #
-1 3:1 #
1.8999999999999999111821580299875 3:1 #
-1 3:1 #
-1 3:1 #
1.8999999999999999111821580299875 3:1 #
-1 3:1 #
-1 3:1 #
1.8999999999999999111821580299875 3:1 #
-1 3:1 #
-1 3:1 #
1.8999999999999999111821580299875 3:1 #
-1 3:1 #
-1 3:1 #
-1 3:1 #
1.8999999999999999111821580299875 3:1 #
-1 3:1 #
-1 3:1 #
1.8999999999999999111821580299875 3:1 #
-0.99999999999999911182158029987477 3:1 #
-1 3:1 #
1.8999999999999999111821580299875 3:1 #
-1 3:1 #
1.8999999999999999111821580299875 3:1 #
-1 3:1 #
-1 3:1 #
1.8999999999999999111821580299875 3:1 #
-1 3:1 #
-1 3:1 #
1.8999999999999999111821580299875 3:1 #
-1 3:1 #
-1 3:1 #
1.8999999999999999111821580299875 3:1 #
-1 3:1 #
-1 3:1 #
1.8999999999999999111821580299875 3:1 #
-1 3:1 #
-1 3:1 #
1.8999999999999999111821580299875 3:1 #
-1 3:1 #
-1 3:1 #
1.8999999999999999111821580299875 3:1 #
-1 3:1 #
-1 3:1 #
1.8999999999999999111821580299875 3:1 #
-1 3:1 #
-1 3:1 #
1.8999999999999999111821580299875 3:1 #
-0.99999999999999911182158029987477 3:1 #
-1 3:1 #
1.8999999999999999111821580299875 3:1 #
-1 3:1 #
1.8999999999999999111821580299875 3:1 #
-1 3:1 #
-1 3:1 #
1.8999999999999999111821580299875 3:1 #
-1 3:1 #
-1 3:1 #
1.8999999999999999111821580299875 3:1 #
-1 3:1 #
-1 3:1 #
1.8999999999999999111821580299875 3:1 #
-1 3:1 #
-1 3:1 #
1.8999999999999999111821580299875 3:1 #
-1 3:1 #
-1 3:1 #
1.8999999999999999111821580299875 3:1 #
-1 3:1 #
-1 3:1 #
1.8999999999999999111821580299875 3:1 #
-1 3:1 #
-1 3:1 #
1.8999999999999999111821580299875 3:1 #
-1 3:1 #
-1 3:1 #
1.8999999999999999111821580299875 3:1 #
-0.99999999999999911182158029987477 3:1 #
-1 3:1 #
1.8999999999999999111821580299875 3:1 #
-1 3:1 #
1.8999999999999999111821580299875 3:1 #
-1 3:1 #
-1 3:1 #
1.8999999999999999111821580299875 3:1 #
-1 3:1 #
-1 3:1 #
1.8999999999999999111821580299875 3:1 #
-1 3:1 #
-1 3:1 #
1.8999999999999999111821580299875 3:1 #
-1 3:1 #
-1 3:1 #
1.8999999999999999111821580299875 3:1 #
-1 3:1 #
-1 3:1 #
1.8999999999999999111821580299875 3:1 #
-1 3:1 #
-1 3:1 #
1.8999999999999999111821580299875 3:1 #
-1 3:1 #
-1 3:1 #
1.8999999999999999111821580299875 3:1 #
-1 3:1 #
-1 3:1 #
1.8999999999999999111821580299875 3:1 #
-0.99999999999999911182158029987477 3:1 #
-1 3:1 #
1.8999999999999999111821580299875 3:1 #
-1 3:1 #
1.8999999999999999111821580299875 3:1 #
-1 3:1 #
-1 3:1 #
1.8999999999999999111821580299875 3:1 #
-1 3:1 #
-1 3:1 #
1.8999999999999999111821580299875 3:1 #
-1 3:1 #
-1 3:1 #
-1 3:1 #
1.8999999999999999111821580299875 3:1 #
1.8999999999999999111821580299875 3:1 #
-1 3:1 #
-1 3:1 #
1.8999999999999999111821580299875 3:1 #
-1 3:1 #
-1 3:1 #
1.8999999999999999111821580299875 3:1 #
-1 3:1 #
-1 3:1 #
1.8999999999999999111821580299875 3:1 #
-1 3:1 #
-1 3:1 #
1.8999999999999999111821580299875 3:1 #
-1 3:1 #
-1 3:1 #
1.8999999999999999111821580299875 3:1 #
-0.99999999999999911182158029987477 3:1 #
-1 3:1 #
1.8999999999999999111821580299875 3:1 #
-1 3:1 #
1.8999999999999999111821580299875 3:1 #
-1 3:1 #
-1 3:1 #
1.8999999999999999111821580299875 3:1 #
-1 3:1 #
-1 3:1 #
1.8999999999999999111821580299875 3:1 #
-1 3:1 #
-1 3:1 #
1.8999999999999999111821580299875 3:1 #
-1 3:1 #
-1 3:1 #
-1 3:1 #
1.8999999999999999111821580299875 3:1 #
-1 3:1 #
1.8999999999999999111821580299875 2:1 #
-1 16:1 #
-1 9:1 #
-1 19:1 #
-1 5:1 #
-1 12:1 #
-1 2:1 #
-1 14:1 #
-1 18:1 #
-1 6:1 #
-1 2:1 #
-1 4:1 #
1.8999999999999999111821580299875 3:1 #
-1 3:1 #
-1 20:1 #
-1 3:1 #
1.8999999999999999111821580299875 3:1 #
-1 3:1 #
-1 3:1 #
-1 4:1 #
1.8999999999999999111821580299875 6:1 #
1.8999999999999999111821580299875 4:1 #
-1 6:1 #
1.8999999999999999111821580299875 9:1 #
-1 9:1 #
1.8999999999999999111821580299875 2:1 #
-1 2:1 #
-1 9:1 #
1.8999999999999999111821580299875 16:1 #
1.8999999999999999111821580299875 14:1 #
1.8999999999999999111821580299875 18:1 #
1.8999999999999999111821580299875 19:1 #
-1 3:1 #
1.8999999999999999111821580299875 9:1 #
-1 9:1 #
1.8999999999999999111821580299875 20:1 #
1.8999999999999999111821580299875 5:1 #
-1 5:1 #
-1 20:1 #
-1 16:1 #
-1 2:1 #
-1 16:1 #
1.8999999999999999111821580299875 2:1 #
-1 2:1 #
1.8999999999999999111821580299875 16:1 #
-1 16:1 #
-1 2:1 #
1.8999999999999999111821580299875 2:1 #
-1 16:1 #
-1 2:1 #
1.8999999999999999111821580299875 16:1 #
-1 2:1 #
1.8999999999999999111821580299875 2:1 #
-1 2:1 #
-1 2:1 #
-1 2:1 #
1.8999999999999999111821580299875 2:1 #
-1 2:1 #
1.8999999999999999111821580299875 2:1 #
-1 9:1 #
1.8999999999999999111821580299875 2:1 #
-1 2:1 #
1.8999999999999999111821580299875 1:1 #
1.8999999999999999111821580299875 10:1 #
1.8999999999999999111821580299875 8:1 #
-1 1:1 #
-1 8:1 #
-1 2:1 #
1.8999999999999999111821580299875 2:1 #
-1 2:1 #
-1 1:1 #
-1 8:1 #
-1 2:1 #
1.8999999999999999111821580299875 2:1 #
-1 1:1 #
1.8999999999999999111821580299875 8:1 #
-1 8:1 #
1.8999999999999999111821580299875 1:1 #
-1 1:1 #
-1 8:1 #
1.8999999999999999111821580299875 8:1 #
-1 1:1 #
1.8999999999999999111821580299875 1:1 #
-1 8:1 #
-1 8:1 #
-1 8:1 #
1.8999999999999999111821580299875 8:1 #
-1 8:1 #
-1 8:1 #
1.8999999999999999111821580299875 8:1 #
-1 8:1 #
1.8999999999999999111821580299875 8:1 #
-1 8:1 #
-1 8:1 #
1.8999999999999999111821580299875 8:1 #
-1 8:1 #
-1 8:1 #
1.8999999999999999111821580299875 8:1 #
-1 8:1 #
-1 8:1 #
1.8999999999999999111821580299875 8:1 #
-1 8:1 #
-1 8:1 #
1.8999999999999999111821580299875 8:1 #
-1 8:1 #
-1 8:1 #
1.8999999999999999111821580299875 8:1 #
-1 8:1 #
-1 8:1 #
1.8999999999999999111821580299875 8:1 #
-1 8:1 #
-1 8:1 #
1.8999999999999999111821580299875 8:1 #
-1 8:1 #
-1 8:1 #
1.8999999999999999111821580299875 8:1 #
-1 8:1 #
-1 8:1 #
1.8999999999999999111821580299875 8:1 #
-1 8:1 #
1.8999999999999999111821580299875 8:1 #
-1 8:1 #
-1 8:1 #
1.8999999999999999111821580299875 8:1 #
-1 8:1 #
-1 8:1 #
1.8999999999999999111821580299875 8:1 #
-1 8:1 #
-1 8:1 #
1.8999999999999999111821580299875 8:1 #
-1 8:1 #
-1 8:1 #
1.8999999999999999111821580299875 8:1 #
-1 8:1 #
-1 8:1 #
1.8999999999999999111821580299875 8:1 #
-1 8:1 #
-1 8:1 #
1.8999999999999999111821580299875 8:1 #
-1 8:1 #
-1 8:1 #
1.8999999999999999111821580299875 8:1 #
-1 8:1 #
-1 8:1 #
1.8999999999999999111821580299875 8:1 #
-1 8:1 #
-1 8:1 #
1.8999999999999999111821580299875 8:1 #
-1 8:1 #
1.8999999999999999111821580299875 8:1 #
-1 8:1 #
-1 8:1 #
1.8999999999999999111821580299875 8:1 #
-1 8:1 #
-1 8:1 #
1.8999999999999999111821580299875 8:1 #
-1 8:1 #
-1 8:1 #
1.8999999999999999111821580299875 8:1 #
-1 8:1 #
-1 8:1 #
1.8999999999999999111821580299875 8:1 #
-1 8:1 #
1.8999999999999999111821580299875 7:1 #
1.8999999999999999111821580299875 15:1 #
1.8999999999999999111821580299875 17:1 #
-0.99999999999999977795539507496869 8:1 #
-1 8:1 #
1.8999999999999999111821580299875 8:1 #
-1 8:1 #
-1 8:1 #
1.8999999999999999111821580299875 8:1 #
-1 2:1 #
1.8999999999999999111821580299875 9:1 #
-1 10:1 #
-1 17:1 #
-1 2:1 #
1.8999999999999999111821580299875 7:1 #
-1 15:1 #
1.8999999999999999111821580299875 2:1 #
-1 2:1 #
1.8999999999999999111821580299875 15:1 #
-1 17:1 #
-1 2:1 #
1.8999999999999999111821580299875 17:1 #
1.8999999999999999111821580299875 2:1 #
-1 17:1 #
-1 2:1 #
-1 15:1 #
-1 17:1 #
1.8999999999999999111821580299875 17:1 #
-1 1:1 #
-1 14:1 #
-1 18:1 #
-1 17:1 #
-1 19:1 #
-1 16:1 #
-1 14:1 #
-1 2:1 #
1.8999999999999999111821580299875 17:1 #
-1 18:1 #
-1 2:1 #
-1 20:1 #
-1 4:1 #
-1 5:1 #
-1 7:1 #
-1 10:1 #
-1 7:1 #
-1 17:1 #
-1 6:1 #
-1 16:1 #
-1 19:1 #
-1 17:1 #
-1 7:1 #
-1 17:1 #
-1 15:1 #
1.8999999999999999111821580299875 17:1 #
-1 17:1 #
-1 15:1 #
-1 17:1 #
1.8999999999999999111821580299875 17:1 #
-1 17:1 #
-1 17:1 #
1.8999999999999999111821580299875 17:1 #
-1 17:1 #
-1 17:1 #
1.8999999999999999111821580299875 17:1 #
-1 17:1 #
1.8999999999999999111821580299875 17:1 #
-1 17:1 #
-1 17:1 #
1.8999999999999999111821580299875 17:1 #
-1 17:1 #
-1 17:1 #
1.8999999999999999111821580299875 17:1 #
-1 17:1 #
-1 17:1 #
1.8999999999999999111821580299875 17:1 #
-1 17:1 #
-1 17:1 #
1.8999999999999999111821580299875 17:1 #
-1 17:1 #
-1 17:1 #
1.8999999999999999111821580299875 17:1 #
-1 17:1 #
-1 17:1 #
1.8999999999999999111821580299875 17:1 #
-1 17:1 #
-1 17:1 #
1.8999999999999999111821580299875 17:1 #
-1 17:1 #
-1 17:1 #
1.8999999999999999111821580299875 17:1 #
-1 17:1 #
-1 17:1 #
1.8999999999999999111821580299875 17:1 #
-1 17:1 #
1.8999999999999999111821580299875 17:1 #
-1 17:1 #
-1 17:1 #
1.8999999999999999111821580299875 17:1 #
-1 17:1 #
-1 17:1 #
1.8999999999999999111821580299875 17:1 #
-1 17:1 #
-1 17:1 #
1.8999999999999999111821580299875 17:1 #
-1 17:1 #
-1 17:1 #
1.8999999999999999111821580299875 17:1 #
-1 17:1 #
-1 17:1 #
1.8999999999999999111821580299875 17:1 #
-1 17:1 #
-1 17:1 #
1.8999999999999999111821580299875 17:1 #
-1 17:1 #
-1 17:1 #
1.8999999999999999111821580299875 17:1 #
-1 16:1 #
-1 17:1 #
-1 19:1 #
-1 20:1 #
-1 17:1 #
-1 17:1 #
1.8999999999999999111821580299875 17:1 #
-1 17:1 #
-1 17:1 #
1.8999999999999999111821580299875 17:1 #
-1 17:1 #
1.8999999999999999111821580299875 17:1 #
-1 17:1 #
-1 17:1 #
1.8999999999999999111821580299875 17:1 #
-1 17:1 #
-1 17:1 #
1.8999999999999999111821580299875 17:1 #
-1 17:1 #
-1 17:1 #
1.8999999999999999111821580299875 17:1 #
-1 17:1 #
-1 17:1 #
1.8999999999999999111821580299875 17:1 #
-1 17:1 #
-1 17:1 #
1.8999999999999999111821580299875 17:1 #
-1 17:1 #
-1 17:1 #
1.8999999999999999111821580299875 17:1 #
-1 17:1 #
-1 17:1 #
1.8999999999999999111821580299875 17:1 #
-1 17:1 #
-1 17:1 #
1.8999999999999999111821580299875 17:1 #
-1 17:1 #
-1 17:1 #
1.8999999999999999111821580299875 17:1 #
-1 17:1 #
1.8999999999999999111821580299875 17:1 #
-1 17:1 #
-1 17:1 #
1.8999999999999999111821580299875 17:1 #
-1 17:1 #
-1 17:1 #
1.8999999999999999111821580299875 17:1 #
-1 17:1 #
-1 17:1 #
1.8999999999999999111821580299875 17:1 #
-1 17:1 #
-1 17:1 #
1.8999999999999999111821580299875 17:1 #
-1 17:1 #
-1 17:1 #
1.8999999999999999111821580299875 17:1 #
-1 17:1 #
-1 17:1 #
1.8999999999999999111821580299875 17:1 #
-1 17:1 #
-1 17:1 #
1.8999999999999999111821580299875 17:1 #
-1 17:1 #
-1 17:1 #
1.8999999999999999111821580299875 17:1 #
-1 17:1 #
-1 17:1 #
1.8999999999999999111821580299875 17:1 #
-1 17:1 #
1.8999999999999999111821580299875 17:1 #
-1 17:1 #
-1 17:1 #
1.8999999999999999111821580299875 17:1 #
-1 17:1 #
-1 17:1 #
1.8999999999999999111821580299875 17:1 #
-1 17:1 #
-1 17:1 #
1.8999999999999999111821580299875 17:1 #
-1 17:1 #
-1 17:1 #
1.8999999999999999111821580299875 17:1 #
-1 17:1 #
-1 17:1 #
1.8999999999999999111821580299875 17:1 #
-1 17:1 #
-1 17:1 #
1.8999999999999999111821580299875 17:1 #
-1 17:1 #
-1 17:1 #
1.8999999999999999111821580299875 17:1 #
-1 17:1 #
-1 17:1 #
1.8999999999999999111821580299875 17:1 #
-1 17:1 #
-1 17:1 #
1.8999999999999999111821580299875 17:1 #
-1 17:1 #
1.8999999999999999111821580299875 17:1 #
-1 17:1 #
-1 17:1 #
1.8999999999999999111821580299875 17:1 #
-1 17:1 #
-1 17:1 #
-1 10:1 #
-1 7:1 #
-1 17:1 #
-1 4:1 #
1.8999999999999999111821580299875 17:1 #
-1 17:1 #
-1 17:1 #
1.8999999999999999111821580299875 17:1 #
-1 17:1 #
1.8999999999999999111821580299875 17:1 #
-1 17:1 #
-1 17:1 #
1.8999999999999999111821580299875 17:1 #
-1 17:1 #
-1 17:1 #
1.8999999999999999111821580299875 17:1 #
-1 17:1 #
-1 17:1 #
1.8999999999999999111821580299875 17:1 #
-1 17:1 #
-1 17:1 #
1.8999999999999999111821580299875 17:1 #
-1 17:1 #
-1 17:1 #
1.8999999999999999111821580299875 17:1 #
-1 17:1 #
-1 17:1 #
1.8999999999999999111821580299875 17:1 #
-1 17:1 #
-1 17:1 #
1.8999999999999999111821580299875 17:1 #
-1 17:1 #
-1 17:1 #
1.8999999999999999111821580299875 17:1 #
-0.99999999999999911182158029987477 17:1 #
-1 17:1 #
1.8999999999999999111821580299875 17:1 #
-1 17:1 #
1.8999999999999999111821580299875 17:1 #
-1 17:1 #
-1 17:1 #
1.8999999999999999111821580299875 17:1 #
-1 17:1 #
-1 17:1 #
1.8999999999999999111821580299875 17:1 #
-1 17:1 #
-1 17:1 #
1.8999999999999999111821580299875 17:1 #
-1 17:1 #
-1 17:1 #
1.8999999999999999111821580299875 17:1 #
-1 17:1 #
-1 17:1 #
1.8999999999999999111821580299875 17:1 #
-1 17:1 #
-1 17:1 #
1.8999999999999999111821580299875 17:1 #
-1 17:1 #
-1 17:1 #
1.8999999999999999111821580299875 17:1 #
-1 17:1 #
-1 17:1 #
1.8999999999999999111821580299875 17:1 #
-0.99999999999999911182158029987477 17:1 #
-1 17:1 #
1.8999999999999999111821580299875 17:1 #
-1 17:1 #
1.8999999999999999111821580299875 17:1 #
-1 17:1 #
-1 17:1 #
1.8999999999999999111821580299875 17:1 #
-1 17:1 #
-1 17:1 #
1.8999999999999999111821580299875 17:1 #
-1 17:1 #
-1 17:1 #
1.8999999999999999111821580299875 17:1 #
-1 17:1 #
-1 17:1 #
1.8999999999999999111821580299875 17:1 #
-1 17:1 #
-1 17:1 #
1.8999999999999999111821580299875 17:1 #
-1 17:1 #
-1 17:1 #
1.8999999999999999111821580299875 17:1 #
-1 17:1 #
-1 17:1 #
1.8999999999999999111821580299875 17:1 #
-1 17:1 #
-1 17:1 #
1.8999999999999999111821580299875 17:1 #
-0.99999999999999911182158029987477 17:1 #
-1 17:1 #
1.8999999999999999111821580299875 17:1 #
-1 17:1 #
1.8999999999999999111821580299875 17:1 #
-0.50029870811295351629155447881203 17:1 #
-1 17:1 #
1.8999999999999999111821580299875 17:1 #
-1 17:1 #
-1 17:1 #
1.8999999999999999111821580299875 17:1 #
-1 17:1 #
-1 17:1 #
1.8999999999999999111821580299875 17:1 #
-1 17:1 #
-1 17:1 #
-1 7:1 #
-1 4:1 #
1.8999999999999999111821580299875 17:1 #
-1 17:1 #
1.8999999999999999111821580299875 17:1 #
-1 17:1 #
1.8999999999999999111821580299875 17:1 #
-1 17:1 #
-1 17:1 #
1.8999999999999999111821580299875 17:1 #
-1 17:1 #
-1 17:1 #
1.8999999999999999111821580299875 17:1 #
-1 17:1 #
-1 17:1 #
1.8999999999999999111821580299875 17:1 #
-1 17:1 #
-1 17:1 #
1.8999999999999999111821580299875 17:1 #
-1 17:1 #
-1 17:1 #
1.8999999999999999111821580299875 17:1 #
-1 17:1 #
-1 17:1 #
1.8999999999999999111821580299875 17:1 #
-1 17:1 #
-1 17:1 #
1.8999999999999999111821580299875 17:1 #
-1 17:1 #
-1 17:1 #
1.8999999999999999111821580299875 17:1 #
-0.99999999999999911182158029987477 17:1 #
-1 17:1 #
1.8999999999999999111821580299875 17:1 #
-1 17:1 #
1.8999999999999999111821580299875 17:1 #
-1 17:1 #
-1 17:1 #
1.8999999999999999111821580299875 17:1 #
-1 17:1 #
-1 17:1 #
1.8999999999999999111821580299875 17:1 #
-1 17:1 #
-1 17:1 #
1.8999999999999999111821580299875 17:1 #
-1 17:1 #
-1 17:1 #
1.8999999999999999111821580299875 17:1 #
-1 17:1 #
-1 17:1 #
1.8999999999999999111821580299875 17:1 #
-1 17:1 #
-1 17:1 #
1.8999999999999999111821580299875 17:1 #
-1 17:1 #
-1 17:1 #
1.8999999999999999111821580299875 17:1 #
-1 17:1 #
-1 17:1 #
1.8999999999999999111821580299875 17:1 #
-0.99999999999999911182158029987477 17:1 #
-1 17:1 #
1.8999999999999999111821580299875 17:1 #
-1 17:1 #
1.8999999999999999111821580299875 17:1 #
-1 17:1 #
-1 17:1 #
1.8999999999999999111821580299875 17:1 #
-1 17:1 #
-1 17:1 #
1.8999999999999999111821580299875 17:1 #
-1 17:1 #
-1 17:1 #
1.8999999999999999111821580299875 17:1 #
-1 17:1 #
-1 17:1 #
1.8999999999999999111821580299875 17:1 #
-1 17:1 #
-1 17:1 #
1.8999999999999999111821580299875 17:1 #
-1 17:1 #
-1 17:1 #
1.8999999999999999111821580299875 17:1 #
-1 17:1 #
-1 17:1 #
1.8999999999999999111821580299875 17:1 #
-1 17:1 #
-1 17:1 #
1.8999999999999999111821580299875 17:1 #
-0.99999999999999911182158029987477 17:1 #
-1 17:1 #
1.8999999999999999111821580299875 17:1 #
-1 17:1 #
1.8999999999999999111821580299875 17:1 #
-1 17:1 #
-1 17:1 #
1.8999999999999999111821580299875 17:1 #
-1 17:1 #
-1 17:1 #
1.8999999999999999111821580299875 17:1 #
-1 17:1 #
-1 17:1 #
1.8999999999999999111821580299875 17:1 #
-1 17:1 #
-1 17:1 #
1.8999999999999999111821580299875 17:1 #
-1 17:1 #
1.8999999999999999111821580299875 17:1 #
-1 17:1 #
-1 17:1 #
1.8999999999999999111821580299875 17:1 #
-1 17:1 #
-1 17:1 #
1.8999999999999999111821580299875 17:1 #
-1 17:1 #
-1 17:1 #
1.8999999999999999111821580299875 17:1 #
-1 17:1 #
-1 17:1 #
1.8999999999999999111821580299875 17:1 #
-0.99999999999999911182158029987477 17:1 #
-1 17:1 #
1.8999999999999999111821580299875 17:1 #
-1 17:1 #
1.8999999999999999111821580299875 17:1 #
-1 17:1 #
-1 17:1 #
1.8999999999999999111821580299875 17:1 #
-1 17:1 #
-1 17:1 #
1.8999999999999999111821580299875 17:1 #
-1 17:1 #
-1 17:1 #
1.8999999999999999111821580299875 17:1 #
-1 17:1 #
-1 17:1 #
1.8999999999999999111821580299875 17:1 #
-1 17:1 #
-1 17:1 #
1.8999999999999999111821580299875 17:1 #
-1 17:1 #
-1 17:1 #
1.8999999999999999111821580299875 17:1 #
-1 17:1 #
-1 17:1 #
1.8999999999999999111821580299875 17:1 #
-1 17:1 #
-1 17:1 #
1.8999999999999999111821580299875 17:1 #
-0.99999999999999911182158029987477 17:1 #
-1 17:1 #
1.8999999999999999111821580299875 17:1 #
-1 17:1 #
1.8999999999999999111821580299875 17:1 #
-1 17:1 #
-1 17:1 #
1.8999999999999999111821580299875 17:1 #
-1 17:1 #
-1 17:1 #
1.8999999999999999111821580299875 17:1 #
-1 17:1 #
-1 17:1 #
1.8999999999999999111821580299875 17:1 #
-1 17:1 #
-1 17:1 #
1.8999999999999999111821580299875 17:1 #
-1 17:1 #
-1 17:1 #
1.8999999999999999111821580299875 17:1 #
-1 17:1 #
-1 17:1 #
1.8999999999999999111821580299875 17:1 #
-1 17:1 #
-1 17:1 #
1.8999999999999999111821580299875 17:1 #
-1 17:1 #
-1 17:1 #
1.8999999999999999111821580299875 17:1 #
-0.99999999999999911182158029987477 17:1 #
-1 17:1 #
1.8999999999999999111821580299875 17:1 #
-1 17:1 #
1.8999999999999999111821580299875 17:1 #
-1 17:1 #
-1 17:1 #
1.8999999999999999111821580299875 17:1 #
-1 17:1 #
-1 17:1 #
1.8999999999999999111821580299875 17:1 #
-1 17:1 #
-1 17:1 #
1.8999999999999999111821580299875 17:1 #
-1 17:1 #
-1 17:1 #
1.8999999999999999111821580299875 17:1 #
-1 17:1 #
-1 17:1 #
1.8999999999999999111821580299875 17:1 #
-1 17:1 #
-1 17:1 #
1.8999999999999999111821580299875 17:1 #
-1 17:1 #
-1 17:1 #
1.8999999999999999111821580299875 17:1 #
-1 17:1 #
-1 17:1 #
1.8999999999999999111821580299875 17:1 #
-0.99999999999999911182158029987477 17:1 #
-1 17:1 #
1.8999999999999999111821580299875 17:1 #
-1 17:1 #
1.8999999999999999111821580299875 17:1 #
-1 17:1 #
1.8999999999999999111821580299875 17:1 #
-1 17:1 #
-1 17:1 #
1.8999999999999999111821580299875 17:1 #
-1 17:1 #
-1 17:1 #
1.8999999999999999111821580299875 17:1 #
-1 17:1 #
-1 17:1 #
1.8999999999999999111821580299875 17:1 #
-1 17:1 #
-1 17:1 #
1.8999999999999999111821580299875 17:1 #
-1 17:1 #
-1 17:1 #
1.8999999999999999111821580299875 17:1 #
-1 17:1 #
-1 17:1 #
1.8999999999999999111821580299875 17:1 #
-1 17:1 #
-1 17:1 #
1.8999999999999999111821580299875 17:1 #
-1 17:1 #
-1 17:1 #
1.8999999999999999111821580299875 17:1 #
-0.99999999999999911182158029987477 17:1 #
-1 17:1 #
1.8999999999999999111821580299875 17:1 #
-1 17:1 #
1.8999999999999999111821580299875 17:1 #
-1 17:1 #
-1 17:1 #
1.8999999999999999111821580299875 17:1 #
-1 17:1 #
-1 17:1 #
1.8999999999999999111821580299875 17:1 #
-1 17:1 #
-1 17:1 #
1.8999999999999999111821580299875 17:1 #
-1 17:1 #
-1 17:1 #
1.8999999999999999111821580299875 17:1 #
-1 17:1 #
-1 17:1 #
1.8999999999999999111821580299875 17:1 #
-1 17:1 #
-1 17:1 #
1.8999999999999999111821580299875 17:1 #
-1 17:1 #
-1 17:1 #
1.8999999999999999111821580299875 17:1 #
-1 17:1 #
-1 17:1 #
1.8999999999999999111821580299875 17:1 #
-0.99999999999999911182158029987477 17:1 #
-1 17:1 #
1.8999999999999999111821580299875 17:1 #
-1 17:1 #
1.8999999999999999111821580299875 17:1 #
-1 17:1 #
-1 17:1 #
1.8999999999999999111821580299875 17:1 #
-1 17:1 #
-1 17:1 #
1.8999999999999999111821580299875 17:1 #
-1 17:1 #
-1 17:1 #
1.8999999999999999111821580299875 17:1 #
-1 17:1 #
-1 17:1 #
1.8999999999999999111821580299875 17:1 #
-1 17:1 #
-1 17:1 #
1.8999999999999999111821580299875 17:1 #
-1 17:1 #
-1 17:1 #
1.8999999999999999111821580299875 17:1 #
-1 17:1 #
-1 17:1 #
1.8999999999999999111821580299875 17:1 #
-1 17:1 #
-1 17:1 #
1.8999999999999999111821580299875 17:1 #
-0.99999999999999911182158029987477 17:1 #
-1 17:1 #
1.8999999999999999111821580299875 17:1 #
-1 17:1 #
-1 17:1 #
-1 17:1 #
1.8999999999999999111821580299875 16:1 #
1.8999999999999999111821580299875 19:1 #
1.8999999999999999111821580299875 7:1 #
-1 4:1 #
1.8999999999999999111821580299875 2:1 #
1.8999999999999999111821580299875 4:1 #
1.8999999999999999111821580299875 10:1 #
1.8999999999999999111821580299875 20:1 #
1.8999999999999999111821580299875 5:1 #
1.8999999999999999111821580299875 11:1 #
1.8999999999999999111821580299875 14:1 #
1.8999999999999999111821580299875 15:1 #
1.8999999999999999111821580299875 6:1 #
-1 9:1 #
1.8999999999999999111821580299875 4:1 #
-1 4:1 #
1.8999999999999999111821580299875 1:1 #
-1 1:1 #
-1 4:1 #
1.8999999999999999111821580299875 4:1 #
-1 1:1 #
1.8999999999999999111821580299875 1:1 #
-1 4:1 #
-1 1:1 #
-1 4:1 #
1.8999999999999999111821580299875 8:1 #
-1 8:1 #
1.8999999999999999111821580299875 4:1 #
-1 19:1 #
-1 16:1 #
-1 6:1 #
-1 20:1 #
1.8999999999999999111821580299875 18:1 #
-1 18:1 #
-1 18:1 #
-1 6:1 #
1.8999999999999999111821580299875 18:1 #
-1 18:1 #
-1 8:1 #
-1 18:1 #
1.8999999999999999111821580299875 8:1 #
1.8999999999999999111821580299875 18:1 #
-1 8:1 #
-1 18:1 #
-1 8:1 #
-1 18:1 #
1.8999999999999999111821580299875 8:1 #
1.8999999999999999111821580299875 18:1 #
-1 8:1 #
-1 18:1 #
-1 8:1 #
1.8999999999999999111821580299875 8:1 #
-1 18:1 #
1.8999999999999999111821580299875 18:1 #
-1 8:1 #
-1 18:1 #
-1 8:1 #
1.8999999999999999111821580299875 8:1 #
-1 18:1 #
1.8999999999999999111821580299875 18:1 #
-1 8:1 #
-1 18:1 #
-1 8:1 #
1.8999999999999999111821580299875 8:1 #
-1 18:1 #
1.8999999999999999111821580299875 18:1 #
-1 1:1 #
-1 18:1 #
-1 8:1 #
-1 14:1 #
-1 8:1 #
-1 2:1 #
1.8999999999999999111821580299875 8:1 #
-1 14:1 #
1.8999999999999999111821580299875 18:1 #
-1 11:1 #
-1 14:1 #
-1 18:1 #
-1 2:1 #
-1 11:1 #
-1 5:1 #
-1 8:1 #
-1 7:1 #
-1 15:1 #
1.8999999999999999111821580299875 8:1 #
-1 8:1 #
-1 8:1 #
-1 5:1 #
-1 18:1 #
-1 10:1 #
1.8999999999999999111821580299875 8:1 #
-1 8:1 #
-1 18:1 #
-1 15:1 #
-1 8:1 #
1.8999999999999999111821580299875 18:1 #
-1 18:1 #
1.8999999999999999111821580299875 8:1 #
-1 8:1 #
-1 18:1 #
-1 8:1 #
-1 15:1 #
1.8999999999999999111821580299875 8:1 #
1.8999999999999999111821580299875 18:1 #
-1 18:1 #
-1 8:1 #
-1 5:1 #
-1 18:1 #
1.8999999999999999111821580299875 8:1 #
-1 8:1 #
1.8999999999999999111821580299875 18:1 #
-1 18:1 #
-1 8:1 #
1.8999999999999999111821580299875 8:1 #
-1 18:1 #
-1 8:1 #
1.8999999999999999111821580299875 18:1 #
-1 18:1 #
-1 8:1 #
1.8999999999999999111821580299875 8:1 #
-1 18:1 #
-1 8:1 #
1.8999999999999999111821580299875 18:1 #
-1 18:1 #
-1 8:1 #
1.8999999999999999111821580299875 8:1 #
-1 9:1 #
-1 18:1 #
1.8999999999999999111821580299875 8:1 #
-1 8:1 #
1.8999999999999999111821580299875 18:1 #
-1 18:1 #
-1 8:1 #
1.8999999999999999111821580299875 18:1 #
-1 18:1 #
-1 8:1 #
1.8999999999999999111821580299875 8:1 #
-1 18:1 #
-1 8:1 #
1.8999999999999999111821580299875 18:1 #
-1 18:1 #
-1 8:1 #
1.8999999999999999111821580299875 8:1 #
-1 18:1 #
-1 8:1 #
1.8999999999999999111821580299875 18:1 #
-1 18:1 #
-1 8:1 #
1.8999999999999999111821580299875 8:1 #
-1 18:1 #
-1 8:1 #
1.8999999999999999111821580299875 18:1 #
-1 18:1 #
-1 8:1 #
1.8999999999999999111821580299875 8:1 #
-1 18:1 #
1.8999999999999999111821580299875 18:1 #
-1 18:1 #
-1 18:1 #
1.8999999999999999111821580299875 18:1 #
-1 18:1 #
-1 18:1 #
1.8999999999999999111821580299875 18:1 #
-1 18:1 #
1.8999999999999999111821580299875 18:1 #
-1 8:1 #
1.8999999999999999111821580299875 5:1 #
-1 18:1 #
1.8999999999999999111821580299875 15:1 #
-1 4:1 #
1.8999999999999999111821580299875 14:1 #
-1 8:1 #
1.8999999999999999111821580299875 2:1 #
1.8999999999999999111821580299875 1:1 #
-1 18:1 #
-1 18:1 #
-1 4:1 #
1.8999999999999999111821580299875 18:1 #
1.8999999999999999111821580299875 19:1 #
1.8999999999999999111821580299875 20:1 #
-1 18:1 #
-1 18:1 #
1.8999999999999999111821580299875 18:1 #
1.8999999999999999111821580299875 18:1 #
-1 18:1 #
1.8999999999999999111821580299875 9:1 #
-1 18:1 #
1.8999999999999999111821580299875 7:1 #
-1 8:1 #
1.8999999999999999111821580299875 18:1 #
-1 18:1 #
1.8999999999999999111821580299875 6:1 #
-1 18:1 #
-1 8:1 #
-1 18:1 #
1.8999999999999999111821580299875 18:1 #
-1 18:1 #
1.8999999999999999111821580299875 18:1 #
-1 18:1 #
-1 18:1 #
1.8999999999999999111821580299875 18:1 #
-1 18:1 #
-1 18:1 #
1.8999999999999999111821580299875 18:1 #
-1 18:1 #
-1 18:1 #
1.8999999999999999111821580299875 18:1 #
-1 18:1 #
-1 18:1 #
1.8999999999999999111821580299875 18:1 #
-1 18:1 #
-1 18:1 #
1.8999999999999999111821580299875 18:1 #
-1 18:1 #
-1 18:1 #
1.8999999999999999111821580299875 18:1 #
-1 18:1 #
-1 18:1 #
1.8999999999999999111821580299875 18:1 #
-1 18:1 #
-1 18:1 #
1.8999999999999999111821580299875 18:1 #
-0.99999999999999911182158029987477 18:1 #
-1 18:1 #
1.8999999999999999111821580299875 18:1 #
-1 18:1 #
1.8999999999999999111821580299875 18:1 #
-1 18:1 #
-1 18:1 #
1.8999999999999999111821580299875 18:1 #
-1 18:1 #
-1 18:1 #
-1 18:1 #
1.8999999999999999111821580299875 15:1 #
-1 4:1 #
1.8999999999999999111821580299875 18:1 #
1.8999999999999999111821580299875 16:1 #
-1 18:1 #
1.8999999999999999111821580299875 18:1 #
-1 18:1 #
-1 18:1 #
1.8999999999999999111821580299875 18:1 #
-1 18:1 #
-1 18:1 #
1.8999999999999999111821580299875 18:1 #
-1 18:1 #
-1 18:1 #
1.8999999999999999111821580299875 18:1 #
-1 18:1 #
-1 18:1 #
1.8999999999999999111821580299875 18:1 #
-1 18:1 #
-1 18:1 #
1.8999999999999999111821580299875 18:1 #
-1 18:1 #
-1 18:1 #
1.8999999999999999111821580299875 18:1 #
-1 18:1 #
-1 18:1 #
1.8999999999999999111821580299875 18:1 #
-1 18:1 #
-1 18:1 #
1.8999999999999999111821580299875 18:1 #
-1 18:1 #
1.8999999999999999111821580299875 18:1 #
-1 18:1 #
-1 18:1 #
1.8999999999999999111821580299875 18:1 #
-1 18:1 #
-1 18:1 #
1.8999999999999999111821580299875 18:1 #
-1 18:1 #
-1 18:1 #
1.8999999999999999111821580299875 18:1 #
-1 18:1 #
-1 18:1 #
1.8999999999999999111821580299875 18:1 #
-1 18:1 #
-1 18:1 #
1.8999999999999999111821580299875 18:1 #
-1 18:1 #
-1 18:1 #
1.8999999999999999111821580299875 18:1 #
-1 18:1 #
-1 18:1 #
1.8999999999999999111821580299875 18:1 #
-1 18:1 #
-1 18:1 #
1.8999999999999999111821580299875 18:1 #
-1 18:1 #
-1 18:1 #
1.8999999999999999111821580299875 18:1 #
-1 18:1 #
1.8999999999999999111821580299875 18:1 #
-1 18:1 #
-1 18:1 #
1.8999999999999999111821580299875 18:1 #
-1 18:1 #
-1 18:1 #
1.8999999999999999111821580299875 18:1 #
-1 18:1 #
-1 18:1 #
1.8999999999999999111821580299875 18:1 #
-1 18:1 #
-1 18:1 #
1.8999999999999999111821580299875 18:1 #
-1 18:1 #
-1 18:1 #
1.8999999999999999111821580299875 18:1 #
-1 18:1 #
-1 18:1 #
1.8999999999999999111821580299875 18:1 #
-1 18:1 #
-1 18:1 #
1.8999999999999999111821580299875 18:1 #
-1 18:1 #
-1 18:1 #
1.8999999999999999111821580299875 18:1 #
-1 18:1 #
-1 18:1 #
1.8999999999999999111821580299875 18:1 #
-1 18:1 #
1.8999999999999999111821580299875 18:1 #
-1 18:1 #
-1 18:1 #
1.8999999999999999111821580299875 18:1 #
-1 18:1 #
-1 18:1 #
1.8999999999999999111821580299875 18:1 #
-1 18:1 #
-1 18:1 #
1.8999999999999999111821580299875 18:1 #
-1 18:1 #
-1 18:1 #
1.8999999999999999111821580299875 18:1 #
-1 8:1 #
-1 18:1 #
1.8999999999999999111821580299875 11:1 #
1.8999999999999999111821580299875 12:1 #
1.8999999999999999111821580299875 9:1 #
1.8999999999999999111821580299875 17:1 #
-1 18:1 #
1.8999999999999999111821580299875 18:1 #
-1 18:1 #
-1 18:1 #
1.8999999999999999111821580299875 18:1 #
-1 18:1 #
-1 18:1 #
1.8999999999999999111821580299875 18:1 #
-1 18:1 #
-1 18:1 #
1.8999999999999999111821580299875 18:1 #
-1 18:1 #
-1 18:1 #
1.8999999999999999111821580299875 18:1 #
-1 18:1 #
-1 18:1 #
1.8999999999999999111821580299875 18:1 #
-1 18:1 #
-1 18:1 #
1.8999999999999999111821580299875 18:1 #
-1 18:1 #
-1 18:1 #
1.8999999999999999111821580299875 18:1 #
-1 18:1 #
-1 18:1 #
1.8999999999999999111821580299875 18:1 #
-1 18:1 #
1.8999999999999999111821580299875 18:1 #
-1 18:1 #
-1 18:1 #
1.8999999999999999111821580299875 18:1 #
-1 18:1 #
-1 18:1 #
1.8999999999999999111821580299875 18:1 #
-1 18:1 #
-1 18:1 #
1.8999999999999999111821580299875 18:1 #
-1 18:1 #
-1 18:1 #
1.8999999999999999111821580299875 18:1 #
-1 18:1 #
-1 18:1 #
1.8999999999999999111821580299875 18:1 #
-1 18:1 #
-1 18:1 #
1.8999999999999999111821580299875 18:1 #
-1 18:1 #
-1 18:1 #
1.8999999999999999111821580299875 18:1 #
-1 18:1 #
-1 18:1 #
1.8999999999999999111821580299875 18:1 #
-1 18:1 #
-1 18:1 #
1.8999999999999999111821580299875 18:1 #
-1 18:1 #
1.8999999999999999111821580299875 18:1 #
-1 18:1 #
-1 18:1 #
1.8999999999999999111821580299875 18:1 #
-1 18:1 #
-1 18:1 #
1.8999999999999999111821580299875 18:1 #
-1 18:1 #
-1 18:1 #
1.8999999999999999111821580299875 18:1 #
-1 18:1 #
-1 18:1 #
1.8999999999999999111821580299875 18:1 #
-1 18:1 #
-1 18:1 #
1.8999999999999999111821580299875 18:1 #
-1 18:1 #
-1 18:1 #
1.8999999999999999111821580299875 18:1 #
-1 18:1 #
-1 18:1 #
1.8999999999999999111821580299875 18:1 #
-1 18:1 #
-1 18:1 #
1.8999999999999999111821580299875 18:1 #
-1 18:1 #
-1 18:1 #
1.8999999999999999111821580299875 18:1 #
-1 18:1 #
1.8999999999999999111821580299875 18:1 #
-1 18:1 #
-1 18:1 #
1.8999999999999999111821580299875 18:1 #
-1 18:1 #
-1 18:1 #
1.8999999999999999111821580299875 18:1 #
-1 18:1 #
-1 18:1 #
1.8999999999999999111821580299875 18:1 #
-1 18:1 #
-1 18:1 #
1.8999999999999999111821580299875 18:1 #
-1 18:1 #
-1 8:1 #
1.8999999999999999111821580299875 16:1 #
-1 18:1 #
1.8999999999999999111821580299875 18:1 #
-1 18:1 #
-1 18:1 #
1.8999999999999999111821580299875 18:1 #
-1 18:1 #
-1 18:1 #
1.8999999999999999111821580299875 18:1 #
-1 18:1 #
-1 18:1 #
1.8999999999999999111821580299875 18:1 #
-1 18:1 #
-1 18:1 #
1.8999999999999999111821580299875 18:1 #
-1 18:1 #
1.8999999999999999111821580299875 18:1 #
-1 18:1 #
-1 18:1 #
1.8999999999999999111821580299875 18:1 #
-1 18:1 #
-1 18:1 #
1.8999999999999999111821580299875 18:1 #
-1 18:1 #
-1 18:1 #
1.8999999999999999111821580299875 18:1 #
-1 18:1 #
-1 18:1 #
1.8999999999999999111821580299875 18:1 #
-1 18:1 #
-1 18:1 #
1.8999999999999999111821580299875 18:1 #
-1 18:1 #
-1 18:1 #
1.8999999999999999111821580299875 18:1 #
-1 18:1 #
-1 18:1 #
1.8999999999999999111821580299875 18:1 #
-1 18:1 #
-1 18:1 #
1.8999999999999999111821580299875 18:1 #
-1 18:1 #
-1 18:1 #
1.8999999999999999111821580299875 18:1 #
-1 18:1 #
1.8999999999999999111821580299875 18:1 #
-1 18:1 #
-1 18:1 #
1.8999999999999999111821580299875 18:1 #
-1 18:1 #
-1 18:1 #
1.8999999999999999111821580299875 18:1 #
-1 18:1 #
-1 18:1 #
1.8999999999999999111821580299875 18:1 #
-1 18:1 #
-1 18:1 #
1.8999999999999999111821580299875 18:1 #
-1 18:1 #
-1 18:1 #
1.8999999999999999111821580299875 18:1 #
-1 18:1 #
-1 18:1 #
1.8999999999999999111821580299875 18:1 #
-1 18:1 #
-1 18:1 #
1.8999999999999999111821580299875 18:1 #
-1 18:1 #
-1 18:1 #
1.8999999999999999111821580299875 18:1 #
-1 18:1 #
-1 18:1 #
1.8999999999999999111821580299875 18:1 #
-1 18:1 #
1.8999999999999999111821580299875 18:1 #
-1 18:1 #
-1 18:1 #
1.8999999999999999111821580299875 18:1 #
-1 18:1 #
-1 18:1 #
1.8999999999999999111821580299875 18:1 #
-1 18:1 #
-1 18:1 #
1.8999999999999999111821580299875 18:1 #
-1 18:1 #
-1 18:1 #
1.8999999999999999111821580299875 18:1 #
-1 18:1 #
-1 18:1 #
1.8999999999999999111821580299875 18:1 #
-1 18:1 #
-1 18:1 #
1.8999999999999999111821580299875 18:1 #
-1 18:1 #
-1 18:1 #
1.8999999999999999111821580299875 18:1 #
-1 18:1 #
-1 18:1 #
1.8999999999999999111821580299875 18:1 #
-1 18:1 #
-1 18:1 #
-1 8:1 #
-1 18:1 #
1.8999999999999999111821580299875 18:1 #
-1 18:1 #
-1 18:1 #
1.8999999999999999111821580299875 18:1 #
-1 18:1 #
-1 18:1 #
1.8999999999999999111821580299875 18:1 #
-1 18:1 #
-1 18:1 #
1.8999999999999999111821580299875 18:1 #
-1 18:1 #
-1 18:1 #
1.8999999999999999111821580299875 18:1 #
-1 18:1 #
1.8999999999999999111821580299875 18:1 #
-1 18:1 #
-1 18:1 #
1.8999999999999999111821580299875 18:1 #
-1 18:1 #
-1 18:1 #
1.8999999999999999111821580299875 18:1 #
-1 18:1 #
-1 18:1 #
1.8999999999999999111821580299875 18:1 #
-1 18:1 #
-1 18:1 #
1.8999999999999999111821580299875 18:1 #
-1 18:1 #
-1 18:1 #
1.8999999999999999111821580299875 18:1 #
-1 18:1 #
-1 18:1 #
1.8999999999999999111821580299875 18:1 #
-1 18:1 #
-1 18:1 #
1.8999999999999999111821580299875 18:1 #
-1 18:1 #
-1 18:1 #
1.8999999999999999111821580299875 18:1 #
-1 18:1 #
-1 18:1 #
1.8999999999999999111821580299875 18:1 #
-1 18:1 #
1.8999999999999999111821580299875 18:1 #
-1 18:1 #
-1 18:1 #
1.8999999999999999111821580299875 18:1 #
-1 18:1 #
-1 18:1 #
1.8999999999999999111821580299875 18:1 #
-1 18:1 #
-1 18:1 #
1.8999999999999999111821580299875 18:1 #
-1 18:1 #
-1 18:1 #
1.8999999999999999111821580299875 18:1 #
-1 18:1 #
-1 18:1 #
1.8999999999999999111821580299875 18:1 #
-1 18:1 #
-1 18:1 #
1.8999999999999999111821580299875 18:1 #
-1 18:1 #
-1 18:1 #
1.8999999999999999111821580299875 18:1 #
-1 18:1 #
-1 18:1 #
1.8999999999999999111821580299875 18:1 #
-1 18:1 #
-1 18:1 #
1.8999999999999999111821580299875 18:1 #
-1 18:1 #
1.8999999999999999111821580299875 18:1 #
-1 18:1 #
-1 18:1 #
1.8999999999999999111821580299875 18:1 #
-1 18:1 #
-1 18:1 #
1.8999999999999999111821580299875 18:1 #
-1 18:1 #
-1 18:1 #
1.8999999999999999111821580299875 18:1 #
-1 18:1 #
-1 18:1 #
1.8999999999999999111821580299875 18:1 #
-1 18:1 #
-1 18:1 #
1.8999999999999999111821580299875 18:1 #
-1 18:1 #
-1 18:1 #
1.8999999999999999111821580299875 18:1 #
-1 18:1 #
-1 18:1 #
1.8999999999999999111821580299875 18:1 #
-1 18:1 #
-1 18:1 #
1.8999999999999999111821580299875 18:1 #
-1 18:1 #
-1 18:1 #
-1 18:1 #
1.8999999999999999111821580299875 18:1 #
1.8999999999999999111821580299875 18:1 #
-1 18:1 #
1.8999999999999999111821580299875 18:1 #
-1 18:1 #
-1 18:1 #
1.8999999999999999111821580299875 18:1 #
-1 18:1 #
-1 18:1 #
1.8999999999999999111821580299875 18:1 #
-1 18:1 #
-1 18:1 #
1.8999999999999999111821580299875 18:1 #
-1 18:1 #
-1 18:1 #
1.8999999999999999111821580299875 18:1 #
-1 18:1 #
-1 18:1 #
1.8999999999999999111821580299875 18:1 #
-1 18:1 #
-1 18:1 #
1.8999999999999999111821580299875 18:1 #
-1 18:1 #
-1 18:1 #
1.8999999999999999111821580299875 18:1 #
-1 18:1 #
-1 18:1 #
1.8999999999999999111821580299875 18:1 #
-1 18:1 #
-1 18:1 #
1.8999999999999999111821580299875 18:1 #
-1 18:1 #
1.8999999999999999111821580299875 18:1 #
-1 18:1 #
-1 18:1 #
1.8999999999999999111821580299875 18:1 #
-1 18:1 #
-1 18:1 #
1.8999999999999999111821580299875 18:1 #
-1 18:1 #
-1 18:1 #
1.8999999999999999111821580299875 18:1 #
-1 18:1 #
-1 18:1 #
1.8999999999999999111821580299875 18:1 #
-1 18:1 #
-1 18:1 #
1.8999999999999999111821580299875 18:1 #
-1 18:1 #
-1 18:1 #
1.8999999999999999111821580299875 18:1 #
-1 18:1 #
-1 18:1 #
1.8999999999999999111821580299875 18:1 #
-1 18:1 #
-1 18:1 #
1.8999999999999999111821580299875 18:1 #
-1 18:1 #
-1 18:1 #
1.8999999999999999111821580299875 18:1 #
-1 18:1 #
1.8999999999999999111821580299875 18:1 #
-1 18:1 #
-1 18:1 #
1.8999999999999999111821580299875 18:1 #
-1 18:1 #
-1 18:1 #
1.8999999999999999111821580299875 18:1 #
-1 18:1 #
-1 18:1 #
1.8999999999999999111821580299875 18:1 #
-1 18:1 #
-1 18:1 #
1.8999999999999999111821580299875 18:1 #
-1 18:1 #
-1 18:1 #
1.8999999999999999111821580299875 18:1 #
-1 18:1 #
-1 18:1 #
1.8999999999999999111821580299875 18:1 #
-1 18:1 #
-1 18:1 #
1.8999999999999999111821580299875 18:1 #
-1 18:1 #
-1 18:1 #
1.8999999999999999111821580299875 18:1 #
-1 18:1 #
-1 18:1 #
1.8999999999999999111821580299875 18:1 #
-1 18:1 #
1.8999999999999999111821580299875 18:1 #
-1 18:1 #
-1 18:1 #
1.8999999999999999111821580299875 18:1 #
-1 18:1 #
-1 18:1 #
1.8999999999999999111821580299875 18:1 #
-1 18:1 #
-1 18:1 #
1.8999999999999999111821580299875 18:1 #
-1 18:1 #
-1 18:1 #
1.8999999999999999111821580299875 18:1 #
-1 18:1 #
1.8999999999999999111821580299875 18:1 #
-1 18:1 #
-1 18:1 #
1.8999999999999999111821580299875 18:1 #
-1 18:1 #
-1 18:1 #
1.8999999999999999111821580299875 18:1 #
-1 18:1 #
-1 18:1 #
1.8999999999999999111821580299875 18:1 #
-1 18:1 #
-1 18:1 #
1.8999999999999999111821580299875 18:1 #
-1 18:1 #
-1 18:1 #
1.8999999999999999111821580299875 18:1 #
-1 18:1 #
1.8999999999999999111821580299875 18:1 #
-1 18:1 #
-1 18:1 #
1.8999999999999999111821580299875 18:1 #
-1 18:1 #
-1 18:1 #
1.8999999999999999111821580299875 18:1 #
-1 18:1 #
-1 18:1 #
1.8999999999999999111821580299875 18:1 #
-1 18:1 #
-1 18:1 #
1.8999999999999999111821580299875 18:1 #
-1 18:1 #
-1 18:1 #
1.8999999999999999111821580299875 18:1 #
-1 18:1 #
-1 18:1 #
1.8999999999999999111821580299875 18:1 #
-1 18:1 #
-1 18:1 #
1.8999999999999999111821580299875 18:1 #
-1 18:1 #
-1 18:1 #
1.8999999999999999111821580299875 18:1 #
-1 18:1 #
-1 18:1 #
1.8999999999999999111821580299875 18:1 #
-1 18:1 #
1.8999999999999999111821580299875 18:1 #
-1 18:1 #
-1 18:1 #
1.8999999999999999111821580299875 18:1 #
-1 18:1 #
-1 18:1 #
1.8999999999999999111821580299875 18:1 #
-1 18:1 #
-1 18:1 #
1.8999999999999999111821580299875 18:1 #
-1 18:1 #
-1 18:1 #
1.8999999999999999111821580299875 18:1 #
-1 18:1 #
-1 18:1 #
1.8999999999999999111821580299875 18:1 #
-1 18:1 #
-1 18:1 #
1.8999999999999999111821580299875 18:1 #
-1 18:1 #
-1 18:1 #
1.8999999999999999111821580299875 18:1 #
-1 18:1 #
-1 18:1 #
1.8999999999999999111821580299875 18:1 #
-1 18:1 #
-1 18:1 #
1.8999999999999999111821580299875 18:1 #
-1 18:1 #
1.8999999999999999111821580299875 18:1 #
-1 18:1 #
-1 18:1 #
1.8999999999999999111821580299875 18:1 #
-1 18:1 #
-1 18:1 #
1.8999999999999999111821580299875 18:1 #
-1 18:1 #
-1 18:1 #
1.8999999999999999111821580299875 18:1 #
-1 18:1 #
-1 18:1 #
1.8999999999999999111821580299875 18:1 #
-1 18:1 #
-1 18:1 #
1.8999999999999999111821580299875 18:1 #
-1 18:1 #
-1 18:1 #
1.8999999999999999111821580299875 18:1 #
-1 18:1 #
-1 18:1 #
1.8999999999999999111821580299875 18:1 #
-1 18:1 #
-1 18:1 #
-1 18:1 #
1.8999999999999999111821580299875 18:1 #
1.8999999999999999111821580299875 18:1 #
-1 18:1 #
-1 18:1 #
1.8999999999999999111821580299875 18:1 #
-1 18:1 #
1.8999999999999999111821580299875 18:1 #
-1 18:1 #
-1 18:1 #
1.8999999999999999111821580299875 18:1 #
-1 18:1 #
-1 18:1 #
1.8999999999999999111821580299875 18:1 #
-1 18:1 #
-1 18:1 #
1.8999999999999999111821580299875 18:1 #
-1 18:1 #
-1 18:1 #
1.8999999999999999111821580299875 18:1 #
-1 18:1 #
-1 18:1 #
1.8999999999999999111821580299875 18:1 #
-1 18:1 #
-1 18:1 #
1.8999999999999999111821580299875 18:1 #
-1 18:1 #
-1 18:1 #
1.8999999999999999111821580299875 18:1 #
-1 18:1 #
-1 18:1 #
1.8999999999999999111821580299875 18:1 #
-1 18:1 #
-1 18:1 #
1.8999999999999999111821580299875 18:1 #
-1 18:1 #
1.8999999999999999111821580299875 18:1 #
-1 18:1 #
-1 18:1 #
1.8999999999999999111821580299875 18:1 #
-1 18:1 #
-1 18:1 #
1.8999999999999999111821580299875 18:1 #
-1 18:1 #
-1 18:1 #
1.8999999999999999111821580299875 18:1 #
-1 18:1 #
-1 18:1 #
1.8999999999999999111821580299875 18:1 #
-1 18:1 #
-1 18:1 #
1.8999999999999999111821580299875 18:1 #
-1 18:1 #
-1 18:1 #
1.8999999999999999111821580299875 18:1 #
-1 18:1 #
-1 18:1 #
1.8999999999999999111821580299875 18:1 #
-1 18:1 #
-1 18:1 #
1.8999999999999999111821580299875 18:1 #
-1 18:1 #
-1 18:1 #
1.8999999999999999111821580299875 18:1 #
-1 18:1 #
1.8999999999999999111821580299875 18:1 #
-1 18:1 #
-1 18:1 #
1.8999999999999999111821580299875 18:1 #
-1 18:1 #
-1 18:1 #
1.8999999999999999111821580299875 18:1 #
-1 18:1 #
-1 18:1 #
1.8999999999999999111821580299875 18:1 #
-1 18:1 #
-1 18:1 #
1.8999999999999999111821580299875 18:1 #
-1 18:1 #
-1 18:1 #
1.8999999999999999111821580299875 18:1 #
-1 18:1 #
-1 18:1 #
1.8999999999999999111821580299875 18:1 #
-1 18:1 #
-1 18:1 #
1.8999999999999999111821580299875 18:1 #
-1 18:1 #
-1 18:1 #
1.8999999999999999111821580299875 18:1 #
-1 18:1 #
-1 18:1 #
1.8999999999999999111821580299875 18:1 #
-1 18:1 #
1.8999999999999999111821580299875 18:1 #
-1 18:1 #
-1 18:1 #
1.8999999999999999111821580299875 18:1 #
-1 18:1 #
-1 18:1 #
1.8999999999999999111821580299875 18:1 #
-1 18:1 #
-1 18:1 #
1.8999999999999999111821580299875 18:1 #
-1 18:1 #
1.8999999999999999111821580299875 18:1 #
-1 18:1 #
-1 18:1 #
1.8999999999999999111821580299875 18:1 #
-1 18:1 #
-1 18:1 #
1.8999999999999999111821580299875 18:1 #
-1 18:1 #
-1 18:1 #
1.8999999999999999111821580299875 18:1 #
-1 18:1 #
-1 18:1 #
1.8999999999999999111821580299875 18:1 #
-1 18:1 #
-1 18:1 #
1.8999999999999999111821580299875 18:1 #
-1 18:1 #
-1 18:1 #
1.8999999999999999111821580299875 18:1 #
-1 18:1 #
1.8999999999999999111821580299875 18:1 #
-1 18:1 #
-1 18:1 #
1.8999999999999999111821580299875 18:1 #
-1 18:1 #
-1 18:1 #
1.8999999999999999111821580299875 18:1 #
-1 18:1 #
-1 18:1 #
1.8999999999999999111821580299875 18:1 #
-1 18:1 #
-1 18:1 #
1.8999999999999999111821580299875 18:1 #
-1 18:1 #
-1 18:1 #
1.8999999999999999111821580299875 18:1 #
-1 18:1 #
-1 18:1 #
1.8999999999999999111821580299875 18:1 #
-1 18:1 #
-1 18:1 #
1.8999999999999999111821580299875 18:1 #
-1 18:1 #
-1 18:1 #
1.8999999999999999111821580299875 18:1 #
-1 18:1 #
-1 18:1 #
1.8999999999999999111821580299875 18:1 #
-1 18:1 #
1.8999999999999999111821580299875 18:1 #
-1 18:1 #
-1 18:1 #
1.8999999999999999111821580299875 18:1 #
-1 18:1 #
-1 18:1 #
1.8999999999999999111821580299875 18:1 #
-1 18:1 #
-1 18:1 #
1.8999999999999999111821580299875 18:1 #
-1 18:1 #
-1 18:1 #
1.8999999999999999111821580299875 18:1 #
-1 18:1 #
-1 18:1 #
1.8999999999999999111821580299875 18:1 #
-1 18:1 #
-1 18:1 #
1.8999999999999999111821580299875 18:1 #
-1 18:1 #
-1 18:1 #
1.8999999999999999111821580299875 18:1 #
-1 18:1 #
-1 18:1 #
1.8999999999999999111821580299875 18:1 #
-1 18:1 #
-1 18:1 #
1.8999999999999999111821580299875 18:1 #
-1 18:1 #
1.8999999999999999111821580299875 18:1 #
-1 18:1 #
-1 18:1 #
1.8999999999999999111821580299875 18:1 #
-1 18:1 #
-1 18:1 #
1.8999999999999999111821580299875 18:1 #
-1 18:1 #
-1 18:1 #
1.8999999999999999111821580299875 18:1 #
-1 18:1 #
-1 18:1 #
1.8999999999999999111821580299875 18:1 #
-1 18:1 #
-1 18:1 #
1.8999999999999999111821580299875 18:1 #
-1 18:1 #
-1 18:1 #
1.8999999999999999111821580299875 18:1 #
-1 18:1 #
-1 18:1 #
-1 18:1 #
1.8999999999999999111821580299875 18:1 #
1.8999999999999999111821580299875 18:1 #
-1 18:1 #
-1 18:1 #
1.8999999999999999111821580299875 18:1 #
-1 18:1 #
-1 18:1 #
1.8999999999999999111821580299875 18:1 #
-1 18:1 #
1.8999999999999999111821580299875 18:1 #
-1 18:1 #
-1 18:1 #
1.8999999999999999111821580299875 18:1 #
-1 18:1 #
-1 18:1 #
1.8999999999999999111821580299875 18:1 #
-1 18:1 #
-1 18:1 #
1.8999999999999999111821580299875 18:1 #
-1 18:1 #
-1 18:1 #
1.8999999999999999111821580299875 18:1 #
-1 18:1 #
-1 18:1 #
1.8999999999999999111821580299875 18:1 #
-1 18:1 #
-1 18:1 #
1.8999999999999999111821580299875 18:1 #
-1 18:1 #
-1 18:1 #
1.8999999999999999111821580299875 18:1 #
-1 18:1 #
-1 18:1 #
1.8999999999999999111821580299875 18:1 #
-1 18:1 #
-1 18:1 #
1.8999999999999999111821580299875 18:1 #
-1 18:1 #
1.8999999999999999111821580299875 18:1 #
-1 18:1 #
-1 18:1 #
1.8999999999999999111821580299875 18:1 #
-1 18:1 #
-1 18:1 #
1.8999999999999999111821580299875 18:1 #
-1 18:1 #
-1 18:1 #
1.8999999999999999111821580299875 18:1 #
-1 18:1 #
-1 18:1 #
1.8999999999999999111821580299875 18:1 #
-1 18:1 #
-1 18:1 #
1.8999999999999999111821580299875 18:1 #
-1 18:1 #
-1 18:1 #
1.8999999999999999111821580299875 18:1 #
-1 18:1 #
-1 18:1 #
1.8999999999999999111821580299875 18:1 #
-1 18:1 #
-1 18:1 #
1.8999999999999999111821580299875 18:1 #
-1 18:1 #
-1 18:1 #
1.8999999999999999111821580299875 18:1 #
-1 18:1 #
1.8999999999999999111821580299875 18:1 #
-1 18:1 #
-1 18:1 #
1.8999999999999999111821580299875 18:1 #
-1 18:1 #
-1 18:1 #
1.8999999999999999111821580299875 18:1 #
-1 18:1 #
-1 18:1 #
1.8999999999999999111821580299875 18:1 #
-1 18:1 #
-1 18:1 #
1.8999999999999999111821580299875 18:1 #
-1 18:1 #
-1 18:1 #
1.8999999999999999111821580299875 18:1 #
-1 18:1 #
-1 18:1 #
1.8999999999999999111821580299875 18:1 #
-1 18:1 #
-1 18:1 #
1.8999999999999999111821580299875 18:1 #
-1 18:1 #
-1 18:1 #
1.8999999999999999111821580299875 18:1 #
-1 18:1 #
-1 18:1 #
1.8999999999999999111821580299875 18:1 #
-1 18:1 #
1.8999999999999999111821580299875 18:1 #
-1 18:1 #
-1 18:1 #
1.8999999999999999111821580299875 18:1 #
-1 18:1 #
-1 18:1 #
1.8999999999999999111821580299875 18:1 #
-1 18:1 #
-1 18:1 #
-1 18:1 #
-1 18:1 #
-1 5:1 #
1.8999999999999999111821580299875 4:1 #
-1 14:1 #
1.8999999999999999111821580299875 8:1 #
-1 15:1 #
-1 6:1 #
-1 1:1 #
-1 20:1 #
-1 16:1 #
-1 2:1 #
-1 19:1 #
-1 9:1 #
-1 7:1 #
-1 17:1 #
-1 9:1 #
-1 12:1 #
-1 11:1 #
-1 20:1 #
-1 1:1 #
-1 16:1 #
1.8999999999999999111821580299875 8:1 #
-1 12:1 #
-1 11:1 #
1.8999999999999999111821580299875 4:1 #
-1 9:1 #
-1 20:1 #
-1 4:1 #
-1 7:1 #
-1 18:1 #
-1 2:1 #
-1 17:1 #
-1 16:1 #
1.8999999999999999111821580299875 8:1 #
-1 19:1 #
1.8999999999999999111821580299875 4:1 #
-1 15:1 #
-1 15:1 #
-1 4:1 #
1.8999999999999999111821580299875 18:1 #
-1 8:1 #
1.8999999999999999111821580299875 20:1 #
-1 4:1 #
1.8999999999999999111821580299875 2:1 #
1.8999999999999999111821580299875 14:1 #
-1 8:1 #
1.8999999999999999111821580299875 19:1 #
-1 16:1 #
-1 6:1 #
1.8999999999999999111821580299875 8:1 #
-1 8:1 #
1.8999999999999999111821580299875 6:1 #
-1 6:1 #
-1 8:1 #
1.8999999999999999111821580299875 8:1 #
-1 16:1 #
1.8999999999999999111821580299875 5:1 #
-1 6:1 #
1.8999999999999999111821580299875 16:1 #
-1 16:1 #
1.8999999999999999111821580299875 6:1 #
-1 6:1 #
-1 16:1 #
1.8999999999999999111821580299875 16:1 #
-1 6:1 #
1.8999999999999999111821580299875 6:1 #
-1 16:1 #
-1 6:1 #
1.8999999999999999111821580299875 1:1 #
-1 4:1 #
-1 6:1 #
1.8999999999999999111821580299875 6:1 #
-1 4:1 #
-1 15:1 #
1.8999999999999999111821580299875 16:1 #
-1 16:1 #
1.8999999999999999111821580299875 15:1 #
-1 16:1 #
1.8999999999999999111821580299875 4:1 #
1.8999999999999999111821580299875 16:1 #
-1 16:1 #
-1 16:1 #
1.8999999999999999111821580299875 16:1 #
-1 16:1 #
-1 16:1 #
1.8999999999999999111821580299875 16:1 #
-1 9:1 #
-1 15:1 #
-1 8:1 #
1.8999999999999999111821580299875 15:1 #
-1 15:1 #
-1 2:1 #
1.8999999999999999111821580299875 7:1 #
-1 7:1 #
-1 16:1 #
-1 7:1 #
-1 1:1 #
1.8999999999999999111821580299875 10:1 #
1.8999999999999999111821580299875 11:1 #
-1 6:1 #
-1 10:1 #
-1 20:1 #
1.8999999999999999111821580299875 15:1 #
1.8999999999999999111821580299875 16:1 #
1.8999999999999999111821580299875 11:1 #
1.8999999999999999111821580299875 12:1 #
-1 12:1 #
-1 11:1 #
-1 16:1 #
-1 11:1 #
1.8999999999999999111821580299875 16:1 #
-1 16:1 #
-1 15:1 #
1.8999999999999999111821580299875 9:1 #
-1 9:1 #
-1 5:1 #
1.8999999999999999111821580299875 6:1 #
-1 6:1 #
1.8999999999999999111821580299875 17:1 #
-1 19:1 #
-1 4:1 #
1.8999999999999999111821580299875 4:1 #
-1 19:1 #
-1 4:1 #
-1 6:1 #
-1 4:1 #
-1 10:1 #
1.8999999999999999111821580299875 4:1 #
-1 4:1 #
1.8999999999999999111821580299875 10:1 #
-1 10:1 #
-1 4:1 #
1.8999999999999999111821580299875 4:1 #
-1 10:1 #
-1 4:1 #
1.8999999999999999111821580299875 10:1 #
-1 10:1 #
-1 4:1 #
1.8999999999999999111821580299875 4:1 #
-1 10:1 #
1.8999999999999999111821580299875 10:1 #
-1 4:1 #
-1 10:1 #
-1 4:1 #
1.8999999999999999111821580299875 4:1 #
-1 10:1 #
1.8999999999999999111821580299875 10:1 #
-1 4:1 #
-1 10:1 #
-1 18:1 #
-1 1:1 #
-1 10:1 #
-1 17:1 #
1.8999999999999999111821580299875 10:1 #
-1 11:1 #
-1 5:1 #
-1 17:1 #
-1 14:1 #
-1 11:1 #
-1 16:1 #
-1 10:1 #
-1 14:1 #
-1 12:1 #
-1 16:1 #
1.8999999999999999111821580299875 10:1 #
-1 10:1 #
-1 10:1 #
1.8999999999999999111821580299875 10:1 #
-1 10:1 #
1.8999999999999999111821580299875 10:1 #
-1 10:1 #
1.8999999999999999111821580299875 1:1 #
-1 15:1 #
1.8999999999999999111821580299875 16:1 #
-1 10:1 #
1.8999999999999999111821580299875 14:1 #
-1 15:1 #
1.8999999999999999111821580299875 19:1 #
-1 10:1 #
1.8999999999999999111821580299875 5:1 #
-1 10:1 #
1.8999999999999999111821580299875 11:1 #
-1 15:1 #
1.8999999999999999111821580299875 10:1 #
-1 10:1 #
1.8999999999999999111821580299875 7:1 #
-1 10:1 #
1.8999999999999999111821580299875 10:1 #
-1 10:1 #
-1 10:1 #
1.8999999999999999111821580299875 10:1 #
-1 10:1 #
-1 10:1 #
1.8999999999999999111821580299875 10:1 #
-1 10:1 #
-1 10:1 #
1.8999999999999999111821580299875 10:1 #
-1 10:1 #
-1 10:1 #
1.8999999999999999111821580299875 10:1 #
-1 10:1 #
-1 10:1 #
1.8999999999999999111821580299875 10:1 #
-1 10:1 #
1.8999999999999999111821580299875 10:1 #
-1 10:1 #
-1 10:1 #
1.8999999999999999111821580299875 10:1 #
-1 10:1 #
-1 10:1 #
1.8999999999999999111821580299875 10:1 #
-1 10:1 #
-1 10:1 #
1.8999999999999999111821580299875 10:1 #
-1 10:1 #
-1 10:1 #
-1 10:1 #
1.8999999999999999111821580299875 10:1 #
1.8999999999999999111821580299875 10:1 #
-1 10:1 #
-1 10:1 #
1.8999999999999999111821580299875 10:1 #
-1 10:1 #
-1 10:1 #
1.8999999999999999111821580299875 10:1 #
-1 10:1 #
-1 10:1 #
1.8999999999999999111821580299875 10:1 #
-1 10:1 #
-1 10:1 #
1.8999999999999999111821580299875 10:1 #
-1 10:1 #
-1 10:1 #
1.8999999999999999111821580299875 10:1 #
-1 10:1 #
1.8999999999999999111821580299875 10:1 #
-1 10:1 #
-1 10:1 #
1.8999999999999999111821580299875 10:1 #
-1 10:1 #
-1 10:1 #
1.8999999999999999111821580299875 10:1 #
-1 10:1 #
-1 10:1 #
1.8999999999999999111821580299875 10:1 #
-1 10:1 #
-1 10:1 #
1.8999999999999999111821580299875 10:1 #
-1 10:1 #
-1 10:1 #
1.8999999999999999111821580299875 10:1 #
-1 10:1 #
-1 10:1 #
1.8999999999999999111821580299875 10:1 #
-1 10:1 #
-1 10:1 #
1.8999999999999999111821580299875 10:1 #
-1 10:1 #
-1 10:1 #
1.8999999999999999111821580299875 10:1 #
-1 10:1 #
-1 10:1 #
1.8999999999999999111821580299875 10:1 #
-1 10:1 #
1.8999999999999999111821580299875 10:1 #
-1 10:1 #
-1 10:1 #
1.8999999999999999111821580299875 10:1 #
-1 10:1 #
-1 10:1 #
1.8999999999999999111821580299875 10:1 #
-1 10:1 #
-1 10:1 #
1.8999999999999999111821580299875 10:1 #
-1 10:1 #
-1 10:1 #
1.8999999999999999111821580299875 10:1 #
-1 10:1 #
-1 10:1 #
1.8999999999999999111821580299875 10:1 #
-1 10:1 #
-1 10:1 #
1.8999999999999999111821580299875 10:1 #
-1 10:1 #
-1 10:1 #
1.8999999999999999111821580299875 10:1 #
-1 10:1 #
-1 10:1 #
1.8999999999999999111821580299875 10:1 #
-1 10:1 #
-1 10:1 #
1.8999999999999999111821580299875 10:1 #
-1 10:1 #
1.8999999999999999111821580299875 10:1 #
-1 10:1 #
-1 10:1 #
1.8999999999999999111821580299875 10:1 #
-1 10:1 #
-1 10:1 #
1.8999999999999999111821580299875 10:1 #
-1 10:1 #
-1 10:1 #
1.8999999999999999111821580299875 10:1 #
-1 10:1 #
-1 10:1 #
1.8999999999999999111821580299875 10:1 #
-1 10:1 #
-1 10:1 #
1.8999999999999999111821580299875 10:1 #
-1 10:1 #
-1 10:1 #
1.8999999999999999111821580299875 10:1 #
-1 10:1 #
-1 10:1 #
1.8999999999999999111821580299875 10:1 #
-1 10:1 #
-1 10:1 #
1.8999999999999999111821580299875 10:1 #
-1 10:1 #
1.8999999999999999111821580299875 10:1 #
1.8999999999999999111821580299875 6:1 #
1.8999999999999999111821580299875 10:1 #
-1 10:1 #
1.8999999999999999111821580299875 10:1 #
-1 10:1 #
1.8999999999999999111821580299875 10:1 #
-1 10:1 #
-1 10:1 #
1.8999999999999999111821580299875 10:1 #
-1 10:1 #
-1 10:1 #
1.8999999999999999111821580299875 10:1 #
-1 10:1 #
-1 10:1 #
1.8999999999999999111821580299875 10:1 #
-1 10:1 #
-1 10:1 #
1.8999999999999999111821580299875 10:1 #
-1 10:1 #
-1 10:1 #
1.8999999999999999111821580299875 10:1 #
-1 10:1 #
-1 10:1 #
1.8999999999999999111821580299875 10:1 #
-1 10:1 #
-1 10:1 #
1.8999999999999999111821580299875 10:1 #
-1 10:1 #
-1 10:1 #
1.8999999999999999111821580299875 10:1 #
-0.99999999999999911182158029987477 10:1 #
-1 10:1 #
1.8999999999999999111821580299875 10:1 #
-1 10:1 #
1.8999999999999999111821580299875 10:1 #
-1 10:1 #
-1 10:1 #
1.8999999999999999111821580299875 10:1 #
-1 10:1 #
-1 10:1 #
1.8999999999999999111821580299875 10:1 #
-1 10:1 #
-1 10:1 #
1.8999999999999999111821580299875 10:1 #
-1 10:1 #
-1 10:1 #
1.8999999999999999111821580299875 10:1 #
-1 10:1 #
-1 10:1 #
1.8999999999999999111821580299875 10:1 #
-1 10:1 #
-1 10:1 #
1.8999999999999999111821580299875 10:1 #
-1 10:1 #
-1 10:1 #
1.8999999999999999111821580299875 10:1 #
-1 10:1 #
-1 10:1 #
1.8999999999999999111821580299875 10:1 #
-0.99999999999999911182158029987477 10:1 #
-1 10:1 #
1.8999999999999999111821580299875 10:1 #
-1 10:1 #
1.8999999999999999111821580299875 10:1 #
-1 10:1 #
-1 10:1 #
1.8999999999999999111821580299875 10:1 #
-1 10:1 #
-1 10:1 #
1.8999999999999999111821580299875 10:1 #
-1 10:1 #
-1 10:1 #
1.8999999999999999111821580299875 10:1 #
-1 10:1 #
-1 10:1 #
1.8999999999999999111821580299875 10:1 #
-1 10:1 #
-1 10:1 #
1.8999999999999999111821580299875 10:1 #
-1 10:1 #
-1 10:1 #
1.8999999999999999111821580299875 10:1 #
-1 10:1 #
-1 10:1 #
1.8999999999999999111821580299875 10:1 #
-1 10:1 #
-1 10:1 #
1.8999999999999999111821580299875 10:1 #
-0.99999999999999911182158029987477 10:1 #
-1 10:1 #
1.8999999999999999111821580299875 10:1 #
-1 10:1 #
1.8999999999999999111821580299875 10:1 #
-1 10:1 #
-1 10:1 #
1.8999999999999999111821580299875 10:1 #
-1 10:1 #
-1 10:1 #
1.8999999999999999111821580299875 10:1 #
-1 10:1 #
-1 10:1 #
1.8999999999999999111821580299875 10:1 #
-1 10:1 #
-1 10:1 #
1.8999999999999999111821580299875 10:1 #
-1 10:1 #
1.8999999999999999111821580299875 9:1 #
1.8999999999999999111821580299875 1:1 #
1.8999999999999999111821580299875 10:1 #
-1 10:1 #
-1 10:1 #
1.8999999999999999111821580299875 10:1 #
-1 10:1 #
-1 10:1 #
1.8999999999999999111821580299875 10:1 #
-1 10:1 #
-1 10:1 #
1.8999999999999999111821580299875 10:1 #
-1 10:1 #
1.8999999999999999111821580299875 10:1 #
-1 10:1 #
-1 10:1 #
1.8999999999999999111821580299875 10:1 #
-1 10:1 #
-1 10:1 #
1.8999999999999999111821580299875 10:1 #
-1 10:1 #
-1 10:1 #
1.8999999999999999111821580299875 10:1 #
-1 10:1 #
-1 10:1 #
1.8999999999999999111821580299875 10:1 #
-1 10:1 #
-1 10:1 #
1.8999999999999999111821580299875 10:1 #
-1 10:1 #
-1 10:1 #
1.8999999999999999111821580299875 10:1 #
-1 10:1 #
-1 10:1 #
1.8999999999999999111821580299875 10:1 #
-1 10:1 #
-1 10:1 #
1.8999999999999999111821580299875 10:1 #
-1 10:1 #
-1 10:1 #
1.8999999999999999111821580299875 10:1 #
-1 10:1 #
1.8999999999999999111821580299875 10:1 #
-1 10:1 #
-1 10:1 #
1.8999999999999999111821580299875 10:1 #
-1 10:1 #
-1 10:1 #
1.8999999999999999111821580299875 10:1 #
-1 10:1 #
-1 10:1 #
1.8999999999999999111821580299875 10:1 #
-1 10:1 #
-1 10:1 #
1.8999999999999999111821580299875 10:1 #
-1 10:1 #
-1 10:1 #
1.8999999999999999111821580299875 10:1 #
-1 10:1 #
-1 10:1 #
1.8999999999999999111821580299875 10:1 #
-1 10:1 #
-1 10:1 #
1.8999999999999999111821580299875 10:1 #
-1 10:1 #
-1 10:1 #
1.8999999999999999111821580299875 10:1 #
-1 10:1 #
-1 10:1 #
1.8999999999999999111821580299875 10:1 #
-1 10:1 #
1.8999999999999999111821580299875 10:1 #
-1 10:1 #
-1 10:1 #
1.8999999999999999111821580299875 10:1 #
-1 10:1 #
-1 10:1 #
1.8999999999999999111821580299875 10:1 #
-1 10:1 #
-1 10:1 #
1.8999999999999999111821580299875 10:1 #
-1 10:1 #
-1 10:1 #
1.8999999999999999111821580299875 10:1 #
-1 10:1 #
-1 10:1 #
1.8999999999999999111821580299875 10:1 #
-1 10:1 #
-1 10:1 #
1.8999999999999999111821580299875 10:1 #
-1 10:1 #
-1 10:1 #
1.8999999999999999111821580299875 10:1 #
-1 10:1 #
-1 10:1 #
1.8999999999999999111821580299875 10:1 #
-1 10:1 #
-1 10:1 #
1.8999999999999999111821580299875 10:1 #
-1 10:1 #
1.8999999999999999111821580299875 10:1 #
-1 10:1 #
1.8999999999999999111821580299875 10:1 #
-1 10:1 #
1.8999999999999999111821580299875 10:1 #
-1 10:1 #
-1 10:1 #
1.8999999999999999111821580299875 10:1 #
-1 10:1 #
-1 10:1 #
1.8999999999999999111821580299875 10:1 #
-1 10:1 #
-1 10:1 #
1.8999999999999999111821580299875 10:1 #
-1 10:1 #
-1 10:1 #
1.8999999999999999111821580299875 10:1 #
-1 10:1 #
-1 10:1 #
1.8999999999999999111821580299875 10:1 #
-1 10:1 #
-1 10:1 #
1.8999999999999999111821580299875 10:1 #
-1 10:1 #
-1 10:1 #
1.8999999999999999111821580299875 10:1 #
-1 10:1 #
-1 10:1 #
1.8999999999999999111821580299875 10:1 #
-1 10:1 #
1.8999999999999999111821580299875 10:1 #
-1 10:1 #
-1 10:1 #
1.8999999999999999111821580299875 10:1 #
-1 10:1 #
-1 10:1 #
1.8999999999999999111821580299875 10:1 #
-1 10:1 #
-1 10:1 #
1.8999999999999999111821580299875 10:1 #
-1 10:1 #
-1 10:1 #
1.8999999999999999111821580299875 10:1 #
-1 10:1 #
-1 10:1 #
1.8999999999999999111821580299875 10:1 #
-1 10:1 #
-1 10:1 #
1.8999999999999999111821580299875 10:1 #
-1 10:1 #
-1 10:1 #
1.8999999999999999111821580299875 10:1 #
-1 10:1 #
-1 10:1 #
1.8999999999999999111821580299875 10:1 #
-1 10:1 #
-1 10:1 #
1.8999999999999999111821580299875 10:1 #
-1 10:1 #
1.8999999999999999111821580299875 10:1 #
-1 10:1 #
-1 10:1 #
1.8999999999999999111821580299875 10:1 #
-1 10:1 #
-1 10:1 #
1.8999999999999999111821580299875 10:1 #
-1 10:1 #
-1 10:1 #
