SVM-light Version V6.02
0 # kernel type
3 # kernel parameter -d 
1 # kernel parameter -g 
1 # kernel parameter -s 
1 # kernel parameter -r 
empty# kernel parameter -u 
20 # highest feature index 
87264 # number of training documents 
58891 # number of support vectors plus 1 
0.60014886 # threshold b, each following line is a SV (starting with alpha*y)
-1 14:1 #
-1 3:1 #
-1 4:1 #
-1 6:1 #
-1 20:1 #
2.3500000000000000888178419700125 16:1 #
2.3500000000000000888178419700125 18:1 #
2.3500000000000000888178419700125 17:1 #
-1 16:1 #
2.3500000000000000888178419700125 4:1 #
2.3500000000000000888178419700125 3:1 #
2.3500000000000000888178419700125 14:1 #
2.3500000000000000888178419700125 6:1 #
-1 17:1 #
-1 18:1 #
2.3500000000000000888178419700125 20:1 #
-1 20:1 #
-1 16:1 #
-1 18:1 #
-1 17:1 #
-1 16:1 #
-1 20:1 #
2.3500000000000000888178419700125 16:1 #
-1 16:1 #
2.3500000000000000888178419700125 20:1 #
-1 20:1 #
-1 18:1 #
-1 17:1 #
-1 20:1 #
2.3500000000000000888178419700125 17:1 #
2.3500000000000000888178419700125 18:1 #
2.3500000000000000888178419700125 20:1 #
-1 20:1 #
-1 18:1 #
-1 17:1 #
-1 20:1 #
-1 20:1 #
2.3500000000000000888178419700125 20:1 #
-1 17:1 #
-1 18:1 #
-1 20:1 #
2.3500000000000000888178419700125 18:1 #
2.3500000000000000888178419700125 17:1 #
-1 20:1 #
-1 17:1 #
-1 18:1 #
2.3500000000000000888178419700125 20:1 #
-1 20:1 #
-1 20:1 #
-1 17:1 #
-1 18:1 #
-1 17:1 #
2.3500000000000000888178419700125 17:1 #
-1 18:1 #
2.3500000000000000888178419700125 18:1 #
-1 17:1 #
-1 18:1 #
-1 17:1 #
-1 18:1 #
2.3500000000000000888178419700125 17:1 #
-1 17:1 #
2.3500000000000000888178419700125 18:1 #
-1 18:1 #
-1 17:1 #
-1 18:1 #
-1 17:1 #
2.3500000000000000888178419700125 17:1 #
2.3500000000000000888178419700125 18:1 #
-1 18:1 #
-1 17:1 #
-1 18:1 #
-1 17:1 #
2.3500000000000000888178419700125 17:1 #
-1 18:1 #
2.3500000000000000888178419700125 18:1 #
-1 17:1 #
-1 18:1 #
-1 17:1 #
-1 18:1 #
2.3500000000000000888178419700125 17:1 #
-1 17:1 #
2.3500000000000000888178419700125 18:1 #
-1 18:1 #
-1 17:1 #
-1 18:1 #
-1 17:1 #
2.3500000000000000888178419700125 17:1 #
2.3500000000000000888178419700125 18:1 #
-1 18:1 #
-1 17:1 #
-1 18:1 #
-1 17:1 #
2.3500000000000000888178419700125 17:1 #
-1 18:1 #
2.3500000000000000888178419700125 18:1 #
-1 17:1 #
-1 18:1 #
-1 17:1 #
-1 18:1 #
2.3500000000000000888178419700125 17:1 #
-1 17:1 #
2.3500000000000000888178419700125 18:1 #
-1 18:1 #
-1 17:1 #
-1 18:1 #
-1 17:1 #
2.3500000000000000888178419700125 17:1 #
2.3500000000000000888178419700125 18:1 #
-1 18:1 #
-1 17:1 #
-1 18:1 #
-1 17:1 #
2.3500000000000000888178419700125 17:1 #
-1 18:1 #
2.3500000000000000888178419700125 18:1 #
-1 17:1 #
-1 18:1 #
-1 17:1 #
-1 18:1 #
-1 3:1 #
-1 20:1 #
-1 17:1 #
-1 4:1 #
2.3500000000000000888178419700125 7:1 #
2.3500000000000000888178419700125 18:1 #
-1 18:1 #
-1 7:1 #
-1 3:1 #
-1 4:1 #
2.3500000000000000888178419700125 17:1 #
2.3500000000000000888178419700125 20:1 #
-1 18:1 #
-1 7:1 #
-1 20:1 #
2.3500000000000000888178419700125 7:1 #
-1 7:1 #
-1 17:1 #
-1 7:1 #
-1 17:1 #
-1 20:1 #
2.3500000000000000888178419700125 4:1 #
2.3500000000000000888178419700125 18:1 #
2.3500000000000000888178419700125 7:1 #
2.3500000000000000888178419700125 17:1 #
2.3500000000000000888178419700125 20:1 #
2.3500000000000000888178419700125 3:1 #
-1 4:1 #
-1 16:1 #
-1 14:1 #
-1 6:1 #
-1 14:1 #
2.3500000000000000888178419700125 16:1 #
-1 18:1 #
-1 20:1 #
-1 18:1 #
-1 20:1 #
2.3500000000000000888178419700125 18:1 #
2.3500000000000000888178419700125 20:1 #
-1 18:1 #
-1 20:1 #
-1 18:1 #
-1 17:1 #
-1 2:1 #
-1 19:1 #
-1 18:1 #
-1 10:1 #
2.3500000000000000888178419700125 18:1 #
-1 18:1 #
-1 18:1 #
-1 7:1 #
-1 3:1 #
2.3500000000000000888178419700125 18:1 #
-1 18:1 #
-1 20:1 #
-1 18:1 #
-1 7:1 #
2.3500000000000000888178419700125 18:1 #
-1 3:1 #
-1 18:1 #
-1 7:1 #
-1 18:1 #
-1 18:1 #
2.3500000000000000888178419700125 18:1 #
-1 18:1 #
-1 18:1 #
2.3500000000000000888178419700125 18:1 #
-1 18:1 #
-1 18:1 #
2.3500000000000000888178419700125 18:1 #
-1 18:1 #
-1 18:1 #
-1 18:1 #
2.3500000000000000888178419700125 18:1 #
-1 18:1 #
-1 18:1 #
2.3500000000000000888178419700125 18:1 #
-1 18:1 #
-1 18:1 #
2.3500000000000000888178419700125 18:1 #
-1 18:1 #
-1 18:1 #
-1 18:1 #
2.3500000000000000888178419700125 18:1 #
-1 18:1 #
-1 18:1 #
2.3500000000000000888178419700125 18:1 #
-1 18:1 #
-1 18:1 #
2.3500000000000000888178419700125 18:1 #
-1 18:1 #
-1 18:1 #
-1 18:1 #
2.3500000000000000888178419700125 18:1 #
-1 18:1 #
-1 18:1 #
2.3500000000000000888178419700125 18:1 #
-1 18:1 #
-1 18:1 #
-1 18:1 #
2.3500000000000000888178419700125 18:1 #
-1 18:1 #
-1 18:1 #
2.3500000000000000888178419700125 18:1 #
-1 18:1 #
-1 18:1 #
2.3500000000000000888178419700125 18:1 #
-1 18:1 #
-1 18:1 #
-1 18:1 #
2.3500000000000000888178419700125 18:1 #
-1 18:1 #
-1 18:1 #
2.3500000000000000888178419700125 18:1 #
-1 10:1 #
-1 2:1 #
-1 19:1 #
-1 15:1 #
2.3500000000000000888178419700125 18:1 #
-1 18:1 #
-1 18:1 #
-1 18:1 #
2.3500000000000000888178419700125 18:1 #
-1 18:1 #
-1 18:1 #
-1 18:1 #
2.3500000000000000888178419700125 18:1 #
-1 18:1 #
-1 18:1 #
2.3500000000000000888178419700125 18:1 #
-1 18:1 #
-1 18:1 #
2.3500000000000000888178419700125 18:1 #
-1 18:1 #
-1 18:1 #
-1 18:1 #
2.3500000000000000888178419700125 18:1 #
-1 18:1 #
-1 18:1 #
2.3500000000000000888178419700125 18:1 #
-1 18:1 #
-1 18:1 #
2.3500000000000000888178419700125 18:1 #
-1 18:1 #
-1 18:1 #
-1 18:1 #
2.3500000000000000888178419700125 18:1 #
-1 18:1 #
-1 18:1 #
2.3500000000000000888178419700125 18:1 #
-1 18:1 #
-1 18:1 #
2.3500000000000000888178419700125 18:1 #
-1 18:1 #
-1 18:1 #
-1 18:1 #
2.3500000000000000888178419700125 18:1 #
-1 18:1 #
-1 18:1 #
2.3500000000000000888178419700125 18:1 #
-1 18:1 #
-1 18:1 #
2.3500000000000000888178419700125 18:1 #
-1 18:1 #
-1 18:1 #
-1 18:1 #
2.3500000000000000888178419700125 18:1 #
-1 18:1 #
-1 18:1 #
2.3500000000000000888178419700125 18:1 #
-1 18:1 #
-1 18:1 #
-1 18:1 #
2.3500000000000000888178419700125 18:1 #
-1 18:1 #
-1 18:1 #
2.3500000000000000888178419700125 18:1 #
-1 18:1 #
-1 18:1 #
2.3500000000000000888178419700125 18:1 #
-1 18:1 #
-1 18:1 #
-1 18:1 #
2.3500000000000000888178419700125 18:1 #
-1 18:1 #
-1 18:1 #
2.3500000000000000888178419700125 18:1 #
-1 18:1 #
-1 18:1 #
2.3500000000000000888178419700125 18:1 #
-1 18:1 #
-1 18:1 #
-1 18:1 #
2.3500000000000000888178419700125 18:1 #
-1 18:1 #
-1 18:1 #
2.3500000000000000888178419700125 18:1 #
-1 18:1 #
-1 18:1 #
2.3500000000000000888178419700125 18:1 #
-1 18:1 #
-1 18:1 #
-1 18:1 #
2.3500000000000000888178419700125 18:1 #
-1 18:1 #
-1 18:1 #
2.3500000000000000888178419700125 18:1 #
-1 18:1 #
-1 18:1 #
2.3500000000000000888178419700125 18:1 #
-1 18:1 #
-1 18:1 #
-1 18:1 #
2.3500000000000000888178419700125 18:1 #
-1 18:1 #
-1 18:1 #
2.3500000000000000888178419700125 18:1 #
-1 18:1 #
-1 18:1 #
-1 8:1 #
-1 18:1 #
-1 12:1 #
-1 5:1 #
2.3500000000000000888178419700125 18:1 #
-1 18:1 #
-1 18:1 #
-1 18:1 #
2.3500000000000000888178419700125 18:1 #
-1 18:1 #
-1 18:1 #
2.3500000000000000888178419700125 18:1 #
-1 18:1 #
-1 18:1 #
2.3500000000000000888178419700125 18:1 #
-1 18:1 #
-1 18:1 #
-1 18:1 #
2.3500000000000000888178419700125 18:1 #
-1 18:1 #
-1 18:1 #
2.3500000000000000888178419700125 18:1 #
-1 18:1 #
-1 18:1 #
-1 18:1 #
2.3500000000000000888178419700125 18:1 #
-1 18:1 #
-1 18:1 #
2.3500000000000000888178419700125 18:1 #
-1 18:1 #
-1 18:1 #
2.3500000000000000888178419700125 18:1 #
-1 18:1 #
-1 18:1 #
-1 18:1 #
2.3500000000000000888178419700125 18:1 #
-1 18:1 #
-1 18:1 #
2.3500000000000000888178419700125 18:1 #
-1 18:1 #
-1 18:1 #
2.3500000000000000888178419700125 18:1 #
-1 18:1 #
-1 18:1 #
-1 18:1 #
2.3500000000000000888178419700125 18:1 #
-1 18:1 #
-1 18:1 #
2.3500000000000000888178419700125 18:1 #
-1 18:1 #
-1 18:1 #
2.3500000000000000888178419700125 18:1 #
-1 18:1 #
-1 18:1 #
-1 18:1 #
2.3500000000000000888178419700125 18:1 #
-1 18:1 #
-1 18:1 #
2.3500000000000000888178419700125 18:1 #
-1 18:1 #
-1 18:1 #
2.3500000000000000888178419700125 18:1 #
-1 18:1 #
-1 18:1 #
-1 18:1 #
2.3500000000000000888178419700125 18:1 #
-1 18:1 #
-1 18:1 #
2.3500000000000000888178419700125 18:1 #
-1 18:1 #
-1 18:1 #
2.3500000000000000888178419700125 18:1 #
-1 18:1 #
-1 18:1 #
-1 18:1 #
2.3500000000000000888178419700125 18:1 #
-1 18:1 #
-1 18:1 #
2.3500000000000000888178419700125 18:1 #
-1 18:1 #
-1 18:1 #
2.3500000000000000888178419700125 18:1 #
-1 18:1 #
-1 18:1 #
-1 18:1 #
2.3500000000000000888178419700125 18:1 #
-1 18:1 #
-1 18:1 #
2.3500000000000000888178419700125 18:1 #
-1 18:1 #
-1 18:1 #
-1 18:1 #
2.3500000000000000888178419700125 18:1 #
-1 18:1 #
-1 18:1 #
2.3500000000000000888178419700125 18:1 #
-1 18:1 #
-1 18:1 #
2.3500000000000000888178419700125 18:1 #
-1 18:1 #
-1 18:1 #
-1 18:1 #
2.3500000000000000888178419700125 18:1 #
-1 18:1 #
-1 1:1 #
-1 18:1 #
-1 8:1 #
2.3489723035037508580558096582536 18:1 #
-1 18:1 #
-1 18:1 #
2.3500000000000000888178419700125 18:1 #
-1 18:1 #
-1 18:1 #
2.3500000000000000888178419700125 18:1 #
-1 18:1 #
-1 18:1 #
-1 18:1 #
2.3500000000000000888178419700125 18:1 #
-1 18:1 #
-1 18:1 #
2.3500000000000000888178419700125 18:1 #
-1 18:1 #
-1 18:1 #
2.3500000000000000888178419700125 18:1 #
-1 18:1 #
-1 18:1 #
-1 18:1 #
2.3500000000000000888178419700125 18:1 #
-1 18:1 #
-1 18:1 #
2.3500000000000000888178419700125 18:1 #
-1 18:1 #
-1 18:1 #
2.3500000000000000888178419700125 18:1 #
-1 18:1 #
-1 18:1 #
-1 18:1 #
2.3500000000000000888178419700125 18:1 #
-1 18:1 #
-1 18:1 #
2.3500000000000000888178419700125 18:1 #
-1 18:1 #
-1 18:1 #
2.3500000000000000888178419700125 18:1 #
-1 18:1 #
-1 18:1 #
-1 18:1 #
2.3500000000000000888178419700125 18:1 #
-1 18:1 #
-1 18:1 #
2.3500000000000000888178419700125 18:1 #
-1 18:1 #
-1 18:1 #
2.3500000000000000888178419700125 18:1 #
-1 18:1 #
-1 18:1 #
-1 18:1 #
2.3500000000000000888178419700125 18:1 #
-1 18:1 #
-1 18:1 #
2.3500000000000000888178419700125 18:1 #
-1 18:1 #
-1 18:1 #
-1 18:1 #
2.3500000000000000888178419700125 18:1 #
-1 18:1 #
-1 18:1 #
2.3500000000000000888178419700125 18:1 #
-1 18:1 #
-1 18:1 #
2.3500000000000000888178419700125 18:1 #
-1 18:1 #
-1 18:1 #
-1 18:1 #
2.3500000000000000888178419700125 18:1 #
-1 18:1 #
-1 18:1 #
2.3500000000000000888178419700125 18:1 #
-1 18:1 #
-1 18:1 #
2.3500000000000000888178419700125 18:1 #
-1 18:1 #
-1 18:1 #
-1 18:1 #
2.3500000000000000888178419700125 18:1 #
-1 18:1 #
-1 18:1 #
2.3500000000000000888178419700125 18:1 #
-1 18:1 #
-1 18:1 #
2.3500000000000000888178419700125 18:1 #
-1 18:1 #
-1 18:1 #
-1 18:1 #
2.3500000000000000888178419700125 18:1 #
-1 18:1 #
-1 18:1 #
2.3500000000000000888178419700125 18:1 #
-1 18:1 #
-1 18:1 #
2.3500000000000000888178419700125 18:1 #
-1 18:1 #
-1 18:1 #
-1 18:1 #
2.3500000000000000888178419700125 18:1 #
-1 18:1 #
-1 18:1 #
2.3500000000000000888178419700125 18:1 #
-1 18:1 #
-1 18:1 #
-1 18:1 #
-1 18:1 #
2.3500000000000000888178419700125 18:1 #
-1 18:1 #
-1 18:1 #
2.3500000000000000888178419700125 18:1 #
-1 18:1 #
-1 18:1 #
2.3500000000000000888178419700125 18:1 #
-1 18:1 #
-1 18:1 #
-1 18:1 #
2.3500000000000000888178419700125 18:1 #
-1 18:1 #
-1 18:1 #
2.3500000000000000888178419700125 18:1 #
-1 18:1 #
-1 18:1 #
2.3500000000000000888178419700125 18:1 #
-1 18:1 #
-1 18:1 #
-1 18:1 #
2.3500000000000000888178419700125 18:1 #
-1 18:1 #
-1 18:1 #
2.3500000000000000888178419700125 18:1 #
-1 18:1 #
-1 18:1 #
2.3500000000000000888178419700125 18:1 #
-1 18:1 #
-1 18:1 #
-1 18:1 #
2.3500000000000000888178419700125 18:1 #
-1 18:1 #
-1 18:1 #
2.3500000000000000888178419700125 18:1 #
-1 18:1 #
-1 18:1 #
2.3500000000000000888178419700125 18:1 #
-1 18:1 #
-1 18:1 #
-1 18:1 #
2.3500000000000000888178419700125 18:1 #
-1 18:1 #
-1 18:1 #
2.3500000000000000888178419700125 18:1 #
-1 18:1 #
-1 18:1 #
2.3500000000000000888178419700125 18:1 #
-1 18:1 #
-1 18:1 #
-1 18:1 #
2.3500000000000000888178419700125 18:1 #
-1 18:1 #
-1 18:1 #
2.3500000000000000888178419700125 18:1 #
-1 18:1 #
-1 18:1 #
-1 18:1 #
2.3500000000000000888178419700125 18:1 #
-1 18:1 #
-1 18:1 #
2.3500000000000000888178419700125 18:1 #
-1 18:1 #
-1 18:1 #
2.3500000000000000888178419700125 18:1 #
-1 18:1 #
-1 18:1 #
-1 18:1 #
2.3500000000000000888178419700125 18:1 #
-1 18:1 #
-1 18:1 #
2.3500000000000000888178419700125 18:1 #
-1 18:1 #
-1 18:1 #
2.3500000000000000888178419700125 18:1 #
-1 18:1 #
-1 18:1 #
-1 18:1 #
2.3500000000000000888178419700125 18:1 #
-1 18:1 #
-1 18:1 #
2.3500000000000000888178419700125 18:1 #
-1 18:1 #
-1 18:1 #
2.3500000000000000888178419700125 18:1 #
-1 18:1 #
-1 18:1 #
-1 18:1 #
2.3500000000000000888178419700125 18:1 #
-1 18:1 #
-1 18:1 #
2.3500000000000000888178419700125 18:1 #
-1 18:1 #
-1 18:1 #
2.3500000000000000888178419700125 18:1 #
-1 18:1 #
-1 18:1 #
-1 18:1 #
2.3500000000000000888178419700125 18:1 #
-1 18:1 #
-1 6:1 #
-1 18:1 #
2.3500000000000000888178419700125 18:1 #
-1 18:1 #
2.3500000000000000888178419700125 18:1 #
-1 18:1 #
-1 18:1 #
2.3500000000000000888178419700125 18:1 #
-1 18:1 #
-1 18:1 #
2.3500000000000000888178419700125 18:1 #
-1 18:1 #
-1 18:1 #
-1 18:1 #
2.3500000000000000888178419700125 18:1 #
-1 18:1 #
-1 18:1 #
2.3500000000000000888178419700125 18:1 #
-1 18:1 #
-1 18:1 #
-1 18:1 #
2.3500000000000000888178419700125 18:1 #
-1 18:1 #
-1 18:1 #
2.3500000000000000888178419700125 18:1 #
-1 18:1 #
-1 18:1 #
2.3500000000000000888178419700125 18:1 #
-1 18:1 #
-1 18:1 #
-1 18:1 #
2.3500000000000000888178419700125 18:1 #
-1 18:1 #
-1 18:1 #
2.3500000000000000888178419700125 18:1 #
-1 18:1 #
-1 18:1 #
2.3500000000000000888178419700125 18:1 #
-1 18:1 #
-1 18:1 #
-1 18:1 #
2.3500000000000000888178419700125 18:1 #
-1 18:1 #
-1 18:1 #
2.3500000000000000888178419700125 18:1 #
-1 18:1 #
-1 18:1 #
2.3500000000000000888178419700125 18:1 #
-1 18:1 #
-1 18:1 #
-1 18:1 #
2.3500000000000000888178419700125 18:1 #
-1 18:1 #
-1 18:1 #
2.3500000000000000888178419700125 18:1 #
-1 18:1 #
-1 18:1 #
2.3500000000000000888178419700125 18:1 #
-1 18:1 #
-1 18:1 #
-1 18:1 #
2.3500000000000000888178419700125 18:1 #
-1 18:1 #
-1 18:1 #
2.3500000000000000888178419700125 18:1 #
-1 18:1 #
-1 18:1 #
2.3500000000000000888178419700125 18:1 #
-1 18:1 #
-1 18:1 #
-1 18:1 #
2.3500000000000000888178419700125 18:1 #
-1 18:1 #
-1 18:1 #
2.3500000000000000888178419700125 18:1 #
-1 18:1 #
-1 18:1 #
2.3500000000000000888178419700125 18:1 #
-1 18:1 #
-1 18:1 #
-1 18:1 #
2.3500000000000000888178419700125 18:1 #
-1 18:1 #
-1 18:1 #
2.3500000000000000888178419700125 18:1 #
-1 18:1 #
-1 18:1 #
-1 18:1 #
2.3500000000000000888178419700125 18:1 #
-1 18:1 #
-1 18:1 #
2.3500000000000000888178419700125 18:1 #
-1 18:1 #
-1 18:1 #
2.3500000000000000888178419700125 18:1 #
-1 18:1 #
-1 18:1 #
-1 18:1 #
2.3500000000000000888178419700125 18:1 #
-1 18:1 #
-1 18:1 #
-1 18:1 #
2.3500000000000000888178419700125 18:1 #
2.3500000000000000888178419700125 18:1 #
-1 18:1 #
-1 18:1 #
2.3500000000000000888178419700125 18:1 #
-1 18:1 #
-1 18:1 #
-1 18:1 #
2.3500000000000000888178419700125 18:1 #
-1 18:1 #
-1 18:1 #
2.3500000000000000888178419700125 18:1 #
-1 18:1 #
-1 18:1 #
2.3500000000000000888178419700125 18:1 #
-1 18:1 #
-1 18:1 #
-1 18:1 #
2.3500000000000000888178419700125 18:1 #
-1 18:1 #
-1 18:1 #
2.3500000000000000888178419700125 18:1 #
-1 18:1 #
-1 18:1 #
2.3500000000000000888178419700125 18:1 #
-1 18:1 #
-1 18:1 #
-1 18:1 #
2.3500000000000000888178419700125 18:1 #
-1 18:1 #
-1 18:1 #
2.3500000000000000888178419700125 18:1 #
-1 18:1 #
-1 18:1 #
2.3500000000000000888178419700125 18:1 #
-1 18:1 #
-1 18:1 #
-1 18:1 #
2.3500000000000000888178419700125 18:1 #
-1 18:1 #
-1 18:1 #
2.3500000000000000888178419700125 18:1 #
-1 18:1 #
-1 18:1 #
2.3500000000000000888178419700125 18:1 #
-1 18:1 #
-1 18:1 #
-1 18:1 #
2.3500000000000000888178419700125 18:1 #
-1 18:1 #
-1 18:1 #
2.3500000000000000888178419700125 18:1 #
-1 18:1 #
-1 18:1 #
-1 18:1 #
-1 18:1 #
-1 18:1 #
-1 16:1 #
2.3500000000000000888178419700125 10:1 #
2.3500000000000000888178419700125 15:1 #
-1 16:1 #
2.3500000000000000888178419700125 19:1 #
-1 17:1 #
2.3500000000000000888178419700125 3:1 #
-1 18:1 #
2.3500000000000000888178419700125 18:1 #
-1 16:1 #
-1 18:1 #
2.3500000000000000888178419700125 17:1 #
-1 18:1 #
2.3500000000000000888178419700125 12:1 #
2.3500000000000000888178419700125 14:1 #
2.3500000000000000888178419700125 5:1 #
2.3500000000000000888178419700125 18:1 #
-1 18:1 #
2.3500000000000000888178419700125 2:1 #
-1 18:1 #
2.3500000000000000888178419700125 8:1 #
-1 18:1 #
2.3500000000000000888178419700125 6:1 #
2.3500000000000000888178419700125 18:1 #
-1 18:1 #
-1 18:1 #
2.3500000000000000888178419700125 18:1 #
-1 18:1 #
-1 18:1 #
2.3500000000000000888178419700125 1:1 #
-1 18:1 #
2.3500000000000000888178419700125 18:1 #
-1 18:1 #
-1 18:1 #
2.3500000000000000888178419700125 18:1 #
-1 18:1 #
-1 18:1 #
2.3500000000000000888178419700125 18:1 #
-1 4:1 #
2.3500000000000000888178419700125 16:1 #
-1 18:1 #
-1 3:1 #
-1 6:1 #
-1 18:1 #
-1 14:1 #
2.3500000000000000888178419700125 18:1 #
-1 10:1 #
-1 17:1 #
-1 15:1 #
-1 18:1 #
-1 2:1 #
2.3500000000000000888178419700125 1:1 #
2.3500000000000000888178419700125 14:1 #
2.3500000000000000888178419700125 19:1 #
2.3500000000000000888178419700125 5:1 #
-1 14:1 #
-1 1:1 #
-1 5:1 #
2.3500000000000000888178419700125 2:1 #
-1 19:1 #
2.3500000000000000888178419700125 10:1 #
-1 17:1 #
-1 2:1 #
-1 17:1 #
-1 2:1 #
2.3500000000000000888178419700125 17:1 #
2.3500000000000000888178419700125 2:1 #
-1 17:1 #
-1 2:1 #
-1 17:1 #
-1 10:1 #
-1 8:1 #
2.3500000000000000888178419700125 17:1 #
-1 17:1 #
-1 18:1 #
-1 17:1 #
-1 15:1 #
-1 17:1 #
-1 5:1 #
-1 1:1 #
2.3500000000000000888178419700125 17:1 #
-1 17:1 #
-1 17:1 #
-1 10:1 #
-1 5:1 #
2.3500000000000000888178419700125 17:1 #
-1 17:1 #
-1 1:1 #
-1 17:1 #
-1 2:1 #
-1 17:1 #
-1 12:1 #
-1 5:1 #
2.3500000000000000888178419700125 17:1 #
-1 17:1 #
-1 17:1 #
-1 2:1 #
-1 12:1 #
-1 19:1 #
-1 14:1 #
2.3500000000000000888178419700125 17:1 #
-1 17:1 #
-1 6:1 #
-1 1:1 #
-1 17:1 #
-1 14:1 #
-1 17:1 #
-1 3:1 #
2.3500000000000000888178419700125 17:1 #
-1 14:1 #
-1 17:1 #
-1 19:1 #
-1 17:1 #
2.3500000000000000888178419700125 17:1 #
-1 17:1 #
-1 17:1 #
2.3500000000000000888178419700125 17:1 #
-1 17:1 #
-1 17:1 #
2.3500000000000000888178419700125 17:1 #
-1 17:1 #
-1 17:1 #
-1 17:1 #
2.3500000000000000888178419700125 17:1 #
-1 17:1 #
-1 17:1 #
2.3500000000000000888178419700125 17:1 #
-1 17:1 #
-1 17:1 #
2.3500000000000000888178419700125 17:1 #
-1 17:1 #
-1 17:1 #
-1 17:1 #
2.3500000000000000888178419700125 17:1 #
-1 17:1 #
-1 17:1 #
2.3500000000000000888178419700125 17:1 #
-1 17:1 #
-1 17:1 #
2.3500000000000000888178419700125 17:1 #
-1 17:1 #
-1 17:1 #
-1 17:1 #
2.3500000000000000888178419700125 17:1 #
-1 17:1 #
-1 17:1 #
2.3500000000000000888178419700125 17:1 #
-1 17:1 #
-1 17:1 #
2.3500000000000000888178419700125 17:1 #
-1 17:1 #
-1 17:1 #
-1 17:1 #
2.3500000000000000888178419700125 17:1 #
-1 17:1 #
-1 17:1 #
2.3500000000000000888178419700125 17:1 #
-1 17:1 #
-1 17:1 #
2.3500000000000000888178419700125 17:1 #
-1 17:1 #
-1 17:1 #
-1 17:1 #
2.3500000000000000888178419700125 17:1 #
-1 17:1 #
-1 17:1 #
-1 2:1 #
-1 10:1 #
-1 3:1 #
2.3500000000000000888178419700125 17:1 #
-1 17:1 #
2.3500000000000000888178419700125 17:1 #
-1 17:1 #
-1 17:1 #
2.3500000000000000888178419700125 17:1 #
-1 17:1 #
-1 17:1 #
2.3500000000000000888178419700125 17:1 #
-1 17:1 #
-1 17:1 #
-1 17:1 #
2.3500000000000000888178419700125 17:1 #
-1 17:1 #
-1 17:1 #
2.3500000000000000888178419700125 17:1 #
-1 17:1 #
-1 17:1 #
2.3500000000000000888178419700125 17:1 #
-1 17:1 #
-1 17:1 #
-1 17:1 #
2.3500000000000000888178419700125 17:1 #
-1 17:1 #
-1 17:1 #
2.3500000000000000888178419700125 17:1 #
-1 17:1 #
-1 17:1 #
2.3500000000000000888178419700125 17:1 #
-1 17:1 #
-1 17:1 #
-1 17:1 #
2.3500000000000000888178419700125 17:1 #
-1 17:1 #
-1 17:1 #
2.3500000000000000888178419700125 17:1 #
-1 17:1 #
-1 17:1 #
2.3500000000000000888178419700125 17:1 #
-1 17:1 #
-1 17:1 #
-1 17:1 #
2.3500000000000000888178419700125 17:1 #
-1 17:1 #
-1 17:1 #
2.3500000000000000888178419700125 17:1 #
-1 17:1 #
-1 17:1 #
2.3500000000000000888178419700125 17:1 #
-1 17:1 #
-1 17:1 #
-1 17:1 #
2.3500000000000000888178419700125 17:1 #
-1 17:1 #
-1 17:1 #
2.3500000000000000888178419700125 17:1 #
-1 17:1 #
-1 17:1 #
2.3500000000000000888178419700125 17:1 #
-1 17:1 #
-1 17:1 #
-1 17:1 #
2.3500000000000000888178419700125 17:1 #
-1 17:1 #
-1 17:1 #
2.3500000000000000888178419700125 17:1 #
-1 17:1 #
-1 17:1 #
-1 17:1 #
2.3500000000000000888178419700125 17:1 #
-1 17:1 #
-1 17:1 #
2.3500000000000000888178419700125 17:1 #
-1 17:1 #
-1 17:1 #
2.3500000000000000888178419700125 17:1 #
-1 17:1 #
-1 17:1 #
-1 17:1 #
2.3500000000000000888178419700125 17:1 #
-1 17:1 #
-1 17:1 #
2.3500000000000000888178419700125 17:1 #
-1 17:1 #
-1 17:1 #
2.3500000000000000888178419700125 17:1 #
-1 17:1 #
-1 17:1 #
-1 17:1 #
2.3500000000000000888178419700125 17:1 #
-1 17:1 #
-1 17:1 #
2.3500000000000000888178419700125 17:1 #
-1 17:1 #
-1 17:1 #
2.3500000000000000888178419700125 17:1 #
-1 17:1 #
-1 17:1 #
-1 17:1 #
2.3500000000000000888178419700125 17:1 #
-1 17:1 #
-1 17:1 #
2.3500000000000000888178419700125 17:1 #
-1 17:1 #
-1 17:1 #
-1 17:1 #
-1 16:1 #
2.3500000000000000888178419700125 4:1 #
-1 4:1 #
-1 16:1 #
2.3500000000000000888178419700125 6:1 #
-1 17:1 #
2.3500000000000000888178419700125 1:1 #
2.3500000000000000888178419700125 15:1 #
2.3500000000000000888178419700125 8:1 #
2.3500000000000000888178419700125 12:1 #
2.3500000000000000888178419700125 14:1 #
-1 19:1 #
-1 17:1 #
2.3500000000000000888178419700125 19:1 #
-1 16:1 #
2.3500000000000000888178419700125 2:1 #
2.3500000000000000888178419700125 17:1 #
2.3500000000000000888178419700125 10:1 #
-1 17:1 #
2.3500000000000000888178419700125 3:1 #
-1 17:1 #
2.3500000000000000888178419700125 5:1 #
-1 17:1 #
2.3500000000000000888178419700125 17:1 #
-1 17:1 #
-1 17:1 #
2.3500000000000000888178419700125 17:1 #
-1 17:1 #
-1 17:1 #
2.3500000000000000888178419700125 17:1 #
-1 17:1 #
-1 17:1 #
2.3500000000000000888178419700125 17:1 #
-1 14:1 #
-1 1:1 #
2.3500000000000000888178419700125 16:1 #
-1 6:1 #
-1 4:1 #
-1 2:1 #
-1 1:1 #
2.3500000000000000888178419700125 4:1 #
-1 4:1 #
-1 6:1 #
-1 3:1 #
-1 8:1 #
-1 15:1 #
-1 12:1 #
-1 4:1 #
-1 3:1 #
-1 4:1 #
-1 5:1 #
-1 19:1 #
-1 10:1 #
-1 14:1 #
-1 15:1 #
-1 8:1 #
2.3500000000000000888178419700125 4:1 #
-1 4:1 #
-1 4:1 #
-1 5:1 #
-1 19:1 #
-1 10:1 #
2.3500000000000000888178419700125 4:1 #
-1 4:1 #
-1 4:1 #
-1 12:1 #
-1 5:1 #
-1 17:1 #
2.3500000000000000888178419700125 4:1 #
-1 4:1 #
2.3500000000000000888178419700125 17:1 #
-1 17:1 #
-1 4:1 #
-1 17:1 #
-1 4:1 #
2.3500000000000000888178419700125 4:1 #
2.3500000000000000888178419700125 17:1 #
-1 17:1 #
-1 4:1 #
-1 17:1 #
-1 4:1 #
2.3500000000000000888178419700125 4:1 #
-1 17:1 #
2.3500000000000000888178419700125 17:1 #
-1 4:1 #
-1 5:1 #
-1 17:1 #
-1 4:1 #
-1 17:1 #
-1 12:1 #
2.3500000000000000888178419700125 4:1 #
-1 4:1 #
2.3500000000000000888178419700125 17:1 #
-1 4:1 #
-1 17:1 #
2.3500000000000000888178419700125 4:1 #
-1 4:1 #
-1 17:1 #
2.3500000000000000888178419700125 17:1 #
-1 4:1 #
-1 17:1 #
-1 4:1 #
2.3500000000000000888178419700125 4:1 #
-1 17:1 #
2.3500000000000000888178419700125 17:1 #
-1 17:1 #
-1 17:1 #
-1 17:1 #
2.3500000000000000888178419700125 17:1 #
-1 17:1 #
-1 17:1 #
2.3500000000000000888178419700125 17:1 #
-1 17:1 #
2.3500000000000000888178419700125 4:1 #
2.3500000000000000888178419700125 16:1 #
-1 17:1 #
-1 17:1 #
2.3500000000000000888178419700125 17:1 #
-1 17:1 #
-1 17:1 #
2.3500000000000000888178419700125 17:1 #
-1 17:1 #
-1 17:1 #
-1 17:1 #
-1 16:1 #
2.3500000000000000888178419700125 12:1 #
-1 4:1 #
2.3500000000000000888178419700125 3:1 #
-1 16:1 #
2.3500000000000000888178419700125 5:1 #
-1 4:1 #
2.3500000000000000888178419700125 14:1 #
-1 16:1 #
2.3500000000000000888178419700125 15:1 #
-1 4:1 #
-1 17:1 #
2.3500000000000000888178419700125 17:1 #
-1 17:1 #
2.3500000000000000888178419700125 2:1 #
-1 4:1 #
-1 17:1 #
-1 4:1 #
2.3500000000000000888178419700125 17:1 #
-1 17:1 #
-1 17:1 #
-1 17:1 #
-1 17:1 #
2.3500000000000000888178419700125 17:1 #
-1 17:1 #
-1 17:1 #
2.3500000000000000888178419700125 17:1 #
-1 17:1 #
-1 17:1 #
2.3500000000000000888178419700125 17:1 #
-1 17:1 #
-1 17:1 #
-1 17:1 #
2.3500000000000000888178419700125 17:1 #
-1 17:1 #
-1 17:1 #
2.3500000000000000888178419700125 17:1 #
-1 17:1 #
-1 17:1 #
2.3500000000000000888178419700125 17:1 #
-1 17:1 #
-1 17:1 #
-1 17:1 #
2.3500000000000000888178419700125 17:1 #
-1 17:1 #
-1 17:1 #
2.3500000000000000888178419700125 17:1 #
-1 17:1 #
-1 17:1 #
2.3500000000000000888178419700125 17:1 #
-1 17:1 #
-1 17:1 #
-1 17:1 #
2.3500000000000000888178419700125 17:1 #
-1 17:1 #
-1 17:1 #
2.3500000000000000888178419700125 17:1 #
-1 17:1 #
-1 17:1 #
2.3500000000000000888178419700125 17:1 #
-1 17:1 #
-1 17:1 #
-1 17:1 #
2.3500000000000000888178419700125 17:1 #
-1 17:1 #
-1 17:1 #
2.3500000000000000888178419700125 17:1 #
-1 17:1 #
-1 17:1 #
2.3500000000000000888178419700125 17:1 #
-1 17:1 #
-1 17:1 #
-1 17:1 #
2.3500000000000000888178419700125 17:1 #
-1 17:1 #
-1 17:1 #
2.3500000000000000888178419700125 17:1 #
-1 17:1 #
-1 17:1 #
2.3500000000000000888178419700125 17:1 #
-1 17:1 #
-1 17:1 #
-1 17:1 #
2.3500000000000000888178419700125 17:1 #
-1 17:1 #
-1 17:1 #
2.3500000000000000888178419700125 17:1 #
-1 17:1 #
-1 17:1 #
-1 17:1 #
2.3500000000000000888178419700125 17:1 #
-1 17:1 #
-1 17:1 #
2.3500000000000000888178419700125 17:1 #
-1 17:1 #
-1 17:1 #
2.3500000000000000888178419700125 17:1 #
-1 4:1 #
-1 16:1 #
-1 17:1 #
2.3500000000000000888178419700125 17:1 #
-1 17:1 #
-1 17:1 #
-1 17:1 #
-1 17:1 #
2.3500000000000000888178419700125 17:1 #
-1 17:1 #
-1 17:1 #
2.3500000000000000888178419700125 17:1 #
-1 17:1 #
-1 17:1 #
2.3500000000000000888178419700125 17:1 #
-1 17:1 #
-1 17:1 #
-1 17:1 #
2.3500000000000000888178419700125 17:1 #
-1 17:1 #
-1 17:1 #
2.3500000000000000888178419700125 17:1 #
-1 17:1 #
-1 17:1 #
2.3500000000000000888178419700125 17:1 #
-1 17:1 #
-1 17:1 #
-1 17:1 #
2.3500000000000000888178419700125 17:1 #
-1 17:1 #
-1 17:1 #
2.3500000000000000888178419700125 17:1 #
-1 17:1 #
-1 17:1 #
2.3500000000000000888178419700125 17:1 #
-1 17:1 #
-1 17:1 #
-1 17:1 #
2.3500000000000000888178419700125 17:1 #
-1 17:1 #
-1 17:1 #
2.3500000000000000888178419700125 17:1 #
-1 17:1 #
-1 17:1 #
2.3500000000000000888178419700125 17:1 #
-1 17:1 #
-1 17:1 #
-1 17:1 #
2.3500000000000000888178419700125 17:1 #
-1 17:1 #
-1 17:1 #
2.3500000000000000888178419700125 17:1 #
-1 17:1 #
-1 17:1 #
2.3500000000000000888178419700125 17:1 #
-1 17:1 #
-1 17:1 #
-1 17:1 #
2.3500000000000000888178419700125 17:1 #
-1 17:1 #
-1 17:1 #
2.3500000000000000888178419700125 17:1 #
-1 17:1 #
-1 17:1 #
-1 17:1 #
2.3500000000000000888178419700125 17:1 #
-1 17:1 #
-1 17:1 #
2.3500000000000000888178419700125 17:1 #
-1 17:1 #
-1 17:1 #
2.3500000000000000888178419700125 17:1 #
-1 17:1 #
-1 17:1 #
-1 17:1 #
2.3500000000000000888178419700125 17:1 #
-1 17:1 #
-1 17:1 #
2.3500000000000000888178419700125 17:1 #
-1 17:1 #
-1 17:1 #
2.3500000000000000888178419700125 17:1 #
-1 17:1 #
-1 17:1 #
-1 17:1 #
2.3500000000000000888178419700125 17:1 #
-1 17:1 #
-1 17:1 #
2.3500000000000000888178419700125 17:1 #
-1 17:1 #
-1 17:1 #
2.3500000000000000888178419700125 17:1 #
-1 17:1 #
-1 17:1 #
-1 17:1 #
2.3500000000000000888178419700125 17:1 #
-1 17:1 #
-1 17:1 #
2.3500000000000000888178419700125 17:1 #
-1 17:1 #
-1 17:1 #
2.3500000000000000888178419700125 17:1 #
-1 17:1 #
-1 17:1 #
-1 17:1 #
-1 17:1 #
2.3500000000000000888178419700125 17:1 #
-1 17:1 #
-1 17:1 #
2.3500000000000000888178419700125 17:1 #
-1 17:1 #
-1 17:1 #
2.3500000000000000888178419700125 17:1 #
-1 17:1 #
-1 17:1 #
-1 17:1 #
2.3500000000000000888178419700125 17:1 #
-1 17:1 #
-1 17:1 #
2.3500000000000000888178419700125 17:1 #
-1 17:1 #
-1 17:1 #
2.3500000000000000888178419700125 17:1 #
-1 17:1 #
-1 17:1 #
-1 17:1 #
2.3500000000000000888178419700125 17:1 #
-1 17:1 #
-1 17:1 #
2.3500000000000000888178419700125 17:1 #
-1 17:1 #
-1 17:1 #
-1 17:1 #
2.3500000000000000888178419700125 17:1 #
-1 17:1 #
-1 17:1 #
2.3500000000000000888178419700125 17:1 #
-1 17:1 #
-1 17:1 #
2.3500000000000000888178419700125 17:1 #
-1 17:1 #
-1 17:1 #
-1 17:1 #
2.3500000000000000888178419700125 17:1 #
-1 17:1 #
-1 17:1 #
2.3500000000000000888178419700125 17:1 #
-1 17:1 #
-1 17:1 #
2.3500000000000000888178419700125 17:1 #
-1 17:1 #
-1 17:1 #
-1 17:1 #
2.3500000000000000888178419700125 17:1 #
-1 17:1 #
-1 17:1 #
2.3500000000000000888178419700125 17:1 #
-1 17:1 #
-1 17:1 #
2.3500000000000000888178419700125 17:1 #
-1 17:1 #
-1 17:1 #
-1 17:1 #
2.3500000000000000888178419700125 17:1 #
-1 17:1 #
-1 17:1 #
2.3500000000000000888178419700125 17:1 #
-1 17:1 #
-1 17:1 #
2.3500000000000000888178419700125 17:1 #
-1 17:1 #
-1 17:1 #
-1 17:1 #
2.3500000000000000888178419700125 17:1 #
-1 17:1 #
-1 17:1 #
2.3500000000000000888178419700125 17:1 #
-1 17:1 #
-1 17:1 #
2.3500000000000000888178419700125 17:1 #
-1 17:1 #
-1 17:1 #
-1 17:1 #
2.3500000000000000888178419700125 17:1 #
-1 17:1 #
-1 17:1 #
2.3500000000000000888178419700125 17:1 #
-1 17:1 #
-1 17:1 #
2.3500000000000000888178419700125 17:1 #
-1 17:1 #
-1 17:1 #
-1 17:1 #
2.3500000000000000888178419700125 17:1 #
-1 17:1 #
-1 17:1 #
2.3500000000000000888178419700125 17:1 #
-1 17:1 #
-1 17:1 #
-1 17:1 #
2.3500000000000000888178419700125 17:1 #
-1 17:1 #
-1 17:1 #
2.3500000000000000888178419700125 17:1 #
-1 17:1 #
-1 16:1 #
-1 4:1 #
2.3500000000000000888178419700125 17:1 #
-1 17:1 #
2.3500000000000000888178419700125 17:1 #
-1 17:1 #
-1 17:1 #
2.3500000000000000888178419700125 17:1 #
-1 17:1 #
-1 17:1 #
2.3500000000000000888178419700125 17:1 #
-1 17:1 #
-1 17:1 #
-1 17:1 #
2.3500000000000000888178419700125 17:1 #
-1 17:1 #
-1 17:1 #
2.3500000000000000888178419700125 17:1 #
-1 17:1 #
-1 17:1 #
2.3500000000000000888178419700125 17:1 #
-1 17:1 #
-1 17:1 #
-1 17:1 #
2.3500000000000000888178419700125 17:1 #
-1 17:1 #
-1 17:1 #
2.3500000000000000888178419700125 17:1 #
-1 17:1 #
-1 17:1 #
2.3500000000000000888178419700125 17:1 #
-1 17:1 #
-1 17:1 #
-1 17:1 #
2.3500000000000000888178419700125 17:1 #
-1 17:1 #
-1 17:1 #
2.3500000000000000888178419700125 17:1 #
-1 17:1 #
-1 17:1 #
2.3500000000000000888178419700125 17:1 #
-1 17:1 #
-1 17:1 #
-1 17:1 #
2.3500000000000000888178419700125 17:1 #
-1 17:1 #
-1 17:1 #
2.3500000000000000888178419700125 17:1 #
-1 17:1 #
-1 17:1 #
2.3500000000000000888178419700125 17:1 #
-1 17:1 #
-1 17:1 #
-1 17:1 #
2.3500000000000000888178419700125 17:1 #
-1 17:1 #
-1 17:1 #
2.3500000000000000888178419700125 17:1 #
-1 17:1 #
-1 17:1 #
2.3500000000000000888178419700125 17:1 #
-1 17:1 #
-1 17:1 #
-1 17:1 #
2.3500000000000000888178419700125 17:1 #
-1 17:1 #
-1 17:1 #
2.3500000000000000888178419700125 17:1 #
-1 17:1 #
-1 17:1 #
-1 17:1 #
2.3500000000000000888178419700125 17:1 #
-1 17:1 #
-1 17:1 #
2.3500000000000000888178419700125 17:1 #
-1 17:1 #
-1 17:1 #
2.3500000000000000888178419700125 17:1 #
-1 17:1 #
-1 17:1 #
-1 17:1 #
2.3500000000000000888178419700125 17:1 #
-1 17:1 #
-1 17:1 #
2.3500000000000000888178419700125 17:1 #
-1 17:1 #
-1 17:1 #
2.3500000000000000888178419700125 17:1 #
-1 17:1 #
-1 17:1 #
-1 17:1 #
2.3500000000000000888178419700125 17:1 #
-1 17:1 #
-1 17:1 #
2.3500000000000000888178419700125 17:1 #
-1 17:1 #
-1 17:1 #
2.3500000000000000888178419700125 17:1 #
-1 17:1 #
-1 17:1 #
-1 17:1 #
2.3500000000000000888178419700125 17:1 #
-1 16:1 #
-1 17:1 #
-1 17:1 #
-1 17:1 #
-1 17:1 #
2.3500000000000000888178419700125 17:1 #
-1 17:1 #
-1 17:1 #
2.3500000000000000888178419700125 17:1 #
-1 17:1 #
-1 17:1 #
-1 17:1 #
2.3500000000000000888178419700125 17:1 #
-1 17:1 #
-1 17:1 #
2.3500000000000000888178419700125 17:1 #
-1 17:1 #
-1 17:1 #
2.3500000000000000888178419700125 17:1 #
-1 17:1 #
-1 17:1 #
-1 17:1 #
2.3500000000000000888178419700125 17:1 #
-1 17:1 #
-1 17:1 #
2.3500000000000000888178419700125 17:1 #
-1 17:1 #
-1 17:1 #
2.3500000000000000888178419700125 17:1 #
-1 17:1 #
-1 17:1 #
-1 17:1 #
2.3500000000000000888178419700125 17:1 #
-1 17:1 #
-1 17:1 #
2.3500000000000000888178419700125 17:1 #
-1 17:1 #
-1 17:1 #
-1 17:1 #
2.3500000000000000888178419700125 17:1 #
-1 17:1 #
-1 17:1 #
2.3500000000000000888178419700125 17:1 #
-1 17:1 #
-1 17:1 #
2.3500000000000000888178419700125 17:1 #
-1 17:1 #
-1 17:1 #
-1 17:1 #
2.3500000000000000888178419700125 17:1 #
-1 17:1 #
-1 17:1 #
2.3500000000000000888178419700125 17:1 #
-1 17:1 #
-1 17:1 #
2.3500000000000000888178419700125 17:1 #
-1 17:1 #
-1 17:1 #
-1 17:1 #
2.3500000000000000888178419700125 17:1 #
-1 17:1 #
-1 17:1 #
2.3500000000000000888178419700125 17:1 #
-1 17:1 #
-1 17:1 #
2.3500000000000000888178419700125 17:1 #
-1 17:1 #
-1 17:1 #
-1 17:1 #
2.3500000000000000888178419700125 17:1 #
-1 17:1 #
-1 17:1 #
2.3500000000000000888178419700125 17:1 #
-1 17:1 #
-1 17:1 #
2.3500000000000000888178419700125 17:1 #
-1 17:1 #
-1 17:1 #
-1 17:1 #
2.3500000000000000888178419700125 17:1 #
-1 17:1 #
-1 17:1 #
2.3500000000000000888178419700125 17:1 #
-1 17:1 #
-1 17:1 #
2.3500000000000000888178419700125 17:1 #
-1 17:1 #
-1 17:1 #
-1 17:1 #
2.3500000000000000888178419700125 17:1 #
-1 17:1 #
-1 17:1 #
2.3500000000000000888178419700125 17:1 #
-1 17:1 #
-1 17:1 #
2.3500000000000000888178419700125 17:1 #
-1 17:1 #
-1 17:1 #
-1 17:1 #
2.3500000000000000888178419700125 17:1 #
-1 17:1 #
-1 17:1 #
-1 17:1 #
2.3500000000000000888178419700125 17:1 #
-1 17:1 #
-1 17:1 #
-1 17:1 #
2.3500000000000000888178419700125 17:1 #
-1 17:1 #
-1 17:1 #
2.3500000000000000888178419700125 17:1 #
-1 17:1 #
-1 17:1 #
2.3500000000000000888178419700125 17:1 #
-1 17:1 #
-1 17:1 #
-1 17:1 #
2.3500000000000000888178419700125 17:1 #
-1 17:1 #
-1 17:1 #
2.3500000000000000888178419700125 17:1 #
-1 17:1 #
-1 17:1 #
2.3500000000000000888178419700125 17:1 #
-1 17:1 #
-1 17:1 #
-1 17:1 #
2.3500000000000000888178419700125 17:1 #
-1 17:1 #
-1 17:1 #
2.3500000000000000888178419700125 17:1 #
-1 17:1 #
-1 17:1 #
2.3500000000000000888178419700125 17:1 #
-1 17:1 #
-1 17:1 #
-1 17:1 #
2.3500000000000000888178419700125 17:1 #
-1 17:1 #
-1 17:1 #
2.3500000000000000888178419700125 17:1 #
-1 17:1 #
-1 17:1 #
2.3500000000000000888178419700125 17:1 #
-1 17:1 #
-1 17:1 #
-1 17:1 #
2.3500000000000000888178419700125 17:1 #
-1 17:1 #
-1 17:1 #
2.3500000000000000888178419700125 17:1 #
-1 17:1 #
-1 17:1 #
2.3500000000000000888178419700125 17:1 #
-1 17:1 #
-1 17:1 #
-1 17:1 #
2.3500000000000000888178419700125 17:1 #
-1 17:1 #
-1 17:1 #
2.3500000000000000888178419700125 17:1 #
-1 17:1 #
-1 17:1 #
2.3500000000000000888178419700125 17:1 #
-1 17:1 #
-1 17:1 #
-1 17:1 #
2.3500000000000000888178419700125 17:1 #
-1 17:1 #
-1 17:1 #
2.3500000000000000888178419700125 17:1 #
-1 17:1 #
-1 17:1 #
-1 17:1 #
2.3500000000000000888178419700125 17:1 #
-1 17:1 #
-1 17:1 #
2.3500000000000000888178419700125 17:1 #
-1 17:1 #
-1 17:1 #
2.3500000000000000888178419700125 17:1 #
-1 17:1 #
-1 17:1 #
-1 17:1 #
2.3500000000000000888178419700125 17:1 #
-1 17:1 #
-1 17:1 #
2.3500000000000000888178419700125 17:1 #
-1 17:1 #
-1 17:1 #
2.3500000000000000888178419700125 17:1 #
-1 17:1 #
-1 17:1 #
-1 17:1 #
2.3500000000000000888178419700125 17:1 #
-1 17:1 #
-1 17:1 #
2.3500000000000000888178419700125 17:1 #
-1 17:1 #
-1 17:1 #
2.3500000000000000888178419700125 17:1 #
-1 17:1 #
-1 17:1 #
-1 17:1 #
-1 17:1 #
2.3500000000000000888178419700125 17:1 #
2.3500000000000000888178419700125 17:1 #
-1 17:1 #
-1 17:1 #
2.3500000000000000888178419700125 17:1 #
-1 17:1 #
-1 17:1 #
2.3500000000000000888178419700125 17:1 #
-1 17:1 #
-1 17:1 #
-1 17:1 #
2.3500000000000000888178419700125 17:1 #
-1 17:1 #
-1 17:1 #
2.3500000000000000888178419700125 17:1 #
-1 17:1 #
-1 17:1 #
2.3500000000000000888178419700125 17:1 #
-1 17:1 #
-1 17:1 #
-1 17:1 #
2.3500000000000000888178419700125 17:1 #
-1 17:1 #
-1 17:1 #
2.3500000000000000888178419700125 17:1 #
-1 17:1 #
-1 17:1 #
-1 17:1 #
2.3500000000000000888178419700125 17:1 #
-1 17:1 #
-1 17:1 #
2.3500000000000000888178419700125 17:1 #
-1 17:1 #
-1 17:1 #
2.3500000000000000888178419700125 17:1 #
-1 17:1 #
-1 17:1 #
-1 17:1 #
2.3500000000000000888178419700125 17:1 #
-1 17:1 #
-1 17:1 #
2.3500000000000000888178419700125 17:1 #
-1 17:1 #
-1 17:1 #
2.3500000000000000888178419700125 17:1 #
-1 17:1 #
-1 17:1 #
-1 17:1 #
2.3500000000000000888178419700125 17:1 #
-1 17:1 #
-1 17:1 #
2.3500000000000000888178419700125 17:1 #
-1 17:1 #
-1 17:1 #
2.3500000000000000888178419700125 17:1 #
-1 17:1 #
-1 17:1 #
-1 17:1 #
2.3500000000000000888178419700125 17:1 #
-1 17:1 #
-1 17:1 #
2.3500000000000000888178419700125 17:1 #
-1 17:1 #
-1 17:1 #
2.3500000000000000888178419700125 17:1 #
-1 17:1 #
-1 17:1 #
-1 17:1 #
2.3500000000000000888178419700125 17:1 #
-1 17:1 #
-1 17:1 #
2.3500000000000000888178419700125 17:1 #
-1 17:1 #
-1 17:1 #
2.3500000000000000888178419700125 17:1 #
-1 17:1 #
-1 17:1 #
-1 17:1 #
2.3500000000000000888178419700125 17:1 #
-1 17:1 #
-1 17:1 #
2.3500000000000000888178419700125 17:1 #
-1 17:1 #
-1 17:1 #
2.3500000000000000888178419700125 17:1 #
-1 17:1 #
-1 17:1 #
-1 17:1 #
2.3500000000000000888178419700125 17:1 #
-1 17:1 #
-1 17:1 #
2.3500000000000000888178419700125 17:1 #
-1 17:1 #
-1 17:1 #
-1 17:1 #
2.3500000000000000888178419700125 17:1 #
-1 17:1 #
-1 17:1 #
2.3500000000000000888178419700125 17:1 #
-1 17:1 #
-1 17:1 #
-1 17:1 #
2.3500000000000000888178419700125 17:1 #
-1 17:1 #
-1 17:1 #
-1 17:1 #
2.3500000000000000888178419700125 17:1 #
-1 17:1 #
-1 17:1 #
2.3500000000000000888178419700125 17:1 #
-1 17:1 #
-1 17:1 #
2.3500000000000000888178419700125 17:1 #
-1 17:1 #
-1 17:1 #
-1 17:1 #
2.3500000000000000888178419700125 17:1 #
-1 17:1 #
-1 17:1 #
2.3500000000000000888178419700125 17:1 #
-1 17:1 #
-1 17:1 #
2.3500000000000000888178419700125 17:1 #
-1 17:1 #
-1 17:1 #
-1 17:1 #
2.3500000000000000888178419700125 17:1 #
-1 17:1 #
-1 17:1 #
2.3500000000000000888178419700125 17:1 #
-1 17:1 #
-1 17:1 #
2.3500000000000000888178419700125 17:1 #
-1 17:1 #
-1 17:1 #
-1 17:1 #
2.3500000000000000888178419700125 17:1 #
-1 17:1 #
-1 17:1 #
2.3500000000000000888178419700125 17:1 #
-1 17:1 #
-1 17:1 #
2.3500000000000000888178419700125 17:1 #
-1 17:1 #
-1 17:1 #
-1 17:1 #
2.3500000000000000888178419700125 17:1 #
-1 17:1 #
-1 17:1 #
2.3500000000000000888178419700125 17:1 #
-1 17:1 #
-1 17:1 #
2.3500000000000000888178419700125 17:1 #
-1 17:1 #
-1 17:1 #
-1 17:1 #
2.3500000000000000888178419700125 17:1 #
-1 17:1 #
-1 17:1 #
2.3500000000000000888178419700125 17:1 #
-1 17:1 #
-1 17:1 #
-1 15:1 #
2.3500000000000000888178419700125 16:1 #
-1 12:1 #
2.3500000000000000888178419700125 10:1 #
2.3500000000000000888178419700125 19:1 #
-1 2:1 #
-1 3:1 #
2.3500000000000000888178419700125 17:1 #
2.3500000000000000888178419700125 4:1 #
-1 17:1 #
-1 14:1 #
-1 5:1 #
-1 15:1 #
2.3500000000000000888178419700125 8:1 #
-1 17:1 #
-1 15:1 #
-1 12:1 #
-1 16:1 #
2.3500000000000000888178419700125 17:1 #
-1 17:1 #
-1 17:1 #
-1 2:1 #
-1 14:1 #
-1 3:1 #
-1 17:1 #
2.3500000000000000888178419700125 20:1 #
-1 3:1 #
-1 2:1 #
2.3500000000000000888178419700125 17:1 #
-1 17:1 #
-1 17:1 #
2.3500000000000000888178419700125 18:1 #
-1 14:1 #
2.3500000000000000888178419700125 17:1 #
-1 17:1 #
2.3500000000000000888178419700125 16:1 #
-1 15:1 #
-1 17:1 #
2.3500000000000000888178419700125 17:1 #
-1 17:1 #
2.3500000000000000888178419700125 4:1 #
-1 17:1 #
-1 3:1 #
2.3500000000000000888178419700125 1:1 #
2.3500000000000000888178419700125 13:1 #
2.3500000000000000888178419700125 11:1 #
-1 17:1 #
2.3500000000000000888178419700125 17:1 #
-1 17:1 #
-1 5:1 #
-1 14:1 #
2.3500000000000000888178419700125 9:1 #
2.3500000000000000888178419700125 7:1 #
-1 17:1 #
2.3500000000000000888178419700125 17:1 #
-1 17:1 #
-1 17:1 #
2.3500000000000000888178419700125 17:1 #
-1 17:1 #
-1 17:1 #
-1 17:1 #
2.3500000000000000888178419700125 17:1 #
-1 17:1 #
-1 17:1 #
2.3500000000000000888178419700125 17:1 #
-1 17:1 #
-1 17:1 #
2.3500000000000000888178419700125 17:1 #
-1 17:1 #
-1 17:1 #
-1 17:1 #
2.3500000000000000888178419700125 17:1 #
-1 17:1 #
-1 17:1 #
2.3500000000000000888178419700125 17:1 #
-1 17:1 #
-1 17:1 #
2.3500000000000000888178419700125 17:1 #
-1 17:1 #
-1 17:1 #
-1 17:1 #
2.3500000000000000888178419700125 17:1 #
-1 17:1 #
-1 17:1 #
2.3500000000000000888178419700125 17:1 #
-1 17:1 #
-1 17:1 #
2.3500000000000000888178419700125 17:1 #
-1 17:1 #
-1 17:1 #
-1 17:1 #
2.3500000000000000888178419700125 17:1 #
-1 17:1 #
-1 17:1 #
2.3500000000000000888178419700125 17:1 #
-1 17:1 #
-1 17:1 #
2.3500000000000000888178419700125 17:1 #
-1 17:1 #
-1 17:1 #
-1 17:1 #
2.3500000000000000888178419700125 17:1 #
-1 17:1 #
-1 17:1 #
2.3500000000000000888178419700125 17:1 #
-1 17:1 #
-1 17:1 #
2.3500000000000000888178419700125 17:1 #
-1 17:1 #
-1 17:1 #
-1 17:1 #
2.3500000000000000888178419700125 17:1 #
-1 17:1 #
-1 17:1 #
2.3500000000000000888178419700125 17:1 #
-1 17:1 #
-1 17:1 #
-1 17:1 #
2.3500000000000000888178419700125 17:1 #
-1 17:1 #
-1 17:1 #
2.3500000000000000888178419700125 17:1 #
-1 17:1 #
-1 17:1 #
2.3500000000000000888178419700125 17:1 #
-1 17:1 #
-1 17:1 #
-1 17:1 #
2.3500000000000000888178419700125 17:1 #
-1 17:1 #
-1 17:1 #
2.3500000000000000888178419700125 17:1 #
-1 17:1 #
-1 17:1 #
2.3500000000000000888178419700125 17:1 #
-1 17:1 #
-1 17:1 #
-1 17:1 #
2.3500000000000000888178419700125 17:1 #
-1 17:1 #
-1 17:1 #
2.3500000000000000888178419700125 17:1 #
-1 17:1 #
-1 17:1 #
2.3500000000000000888178419700125 17:1 #
-1 17:1 #
-1 17:1 #
-1 17:1 #
2.3500000000000000888178419700125 17:1 #
-1 17:1 #
-1 17:1 #
2.3500000000000000888178419700125 17:1 #
-1 17:1 #
-1 12:1 #
-1 17:1 #
2.3500000000000000888178419700125 16:1 #
2.3500000000000000888178419700125 9:1 #
-1 12:1 #
-1 17:1 #
2.3500000000000000888178419700125 17:1 #
-1 17:1 #
-1 17:1 #
2.3500000000000000888178419700125 17:1 #
-1 17:1 #
-1 17:1 #
2.3500000000000000888178419700125 17:1 #
-1 17:1 #
-1 17:1 #
-1 17:1 #
-1 1:1 #
-1 7:1 #
2.3500000000000000888178419700125 3:1 #
-1 16:1 #
2.3500000000000000888178419700125 12:1 #
-1 4:1 #
2.3500000000000000888178419700125 2:1 #
-1 9:1 #
2.3500000000000000888178419700125 5:1 #
-1 20:1 #
2.3500000000000000888178419700125 14:1 #
-1 18:1 #
2.3500000000000000888178419700125 17:1 #
-1 8:1 #
2.3500000000000000888178419700125 15:1 #
-1 10:1 #
-1 11:1 #
-1 19:1 #
-1 13:1 #
-1 8:1 #
-1 17:1 #
-1 11:1 #
-1 13:1 #
-1 20:1 #
-1 17:1 #
-1 4:1 #
-1 19:1 #
-1 16:1 #
-1 9:1 #
-1 10:1 #
-1 20:1 #
-1 11:1 #
-1 13:1 #
-1 18:1 #
-1 7:1 #
-1 1:1 #
-1 9:1 #
-1 16:1 #
-1 1:1 #
-1 16:1 #
-1 9:1 #
-1 7:1 #
-1 9:1 #
-1 2:1 #
2.3500000000000000888178419700125 11:1 #
-1 4:1 #
2.3500000000000000888178419700125 13:1 #
-1 18:1 #
2.3500000000000000888178419700125 4:1 #
-1 4:1 #
2.3500000000000000888178419700125 18:1 #
-1 18:1 #
2.3500000000000000888178419700125 12:1 #
2.3500000000000000888178419700125 19:1 #
-1 2:1 #
-1 18:1 #
2.3500000000000000888178419700125 10:1 #
-1 4:1 #
-1 8:1 #
-1 6:1 #
2.3500000000000000888178419700125 1:1 #
-1 1:1 #
2.3500000000000000888178419700125 8:1 #
-1 8:1 #
2.3500000000000000888178419700125 6:1 #
-1 6:1 #
-1 8:1 #
-1 1:1 #
-1 6:1 #
2.3500000000000000888178419700125 18:1 #
-1 1:1 #
2.3500000000000000888178419700125 8:1 #
-1 8:1 #
2.3500000000000000888178419700125 17:1 #
-1 8:1 #
2.3500000000000000888178419700125 20:1 #
-1 1:1 #
-1 8:1 #
2.3500000000000000888178419700125 7:1 #
-1 6:1 #
2.3500000000000000888178419700125 8:1 #
-1 8:1 #
2.3500000000000000888178419700125 6:1 #
2.3500000000000000888178419700125 16:1 #
-1 8:1 #
-1 8:1 #
2.3500000000000000888178419700125 1:1 #
2.3500000000000000888178419700125 8:1 #
-1 8:1 #
-1 8:1 #
2.3500000000000000888178419700125 8:1 #
-1 5:1 #
2.3500000000000000888178419700125 2:1 #
-1 10:1 #
-1 6:1 #
2.3500000000000000888178419700125 4:1 #
-1 15:1 #
-1 11:1 #
2.3500000000000000888178419700125 9:1 #
-1 9:1 #
-1 11:1 #
-1 9:1 #
2.3500000000000000888178419700125 6:1 #
-1 6:1 #
-1 18:1 #
-1 7:1 #
-1 13:1 #
-1 8:1 #
-1 20:1 #
-1 19:1 #
-1 7:1 #
-1 16:1 #
-1 18:1 #
-1 7:1 #
-1 12:1 #
-1 6:1 #
-1 15:1 #
-1 13:1 #
-1 20:1 #
-1 4:1 #
-1 6:1 #
-1 12:1 #
-1 10:1 #
-1 4:1 #
-1 19:1 #
-1 12:1 #
-1 2:1 #
2.3500000000000000888178419700125 19:1 #
-1 19:1 #
2.3500000000000000888178419700125 7:1 #
2.3500000000000000888178419700125 5:1 #
-1 16:1 #
-1 2:1 #
-1 5:1 #
-1 7:1 #
-1 19:1 #
-1 7:1 #
-1 5:1 #
2.3500000000000000888178419700125 7:1 #
2.3500000000000000888178419700125 5:1 #
-1 7:1 #
-1 5:1 #
-1 7:1 #
-1 5:1 #
2.3500000000000000888178419700125 7:1 #
-1 7:1 #
-1 7:1 #
2.3500000000000000888178419700125 7:1 #
-1 7:1 #
-1 7:1 #
2.3500000000000000888178419700125 7:1 #
-1 7:1 #
-1 7:1 #
2.3500000000000000888178419700125 7:1 #
-1 7:1 #
-1 7:1 #
-1 7:1 #
2.3500000000000000888178419700125 7:1 #
-1 7:1 #
-1 7:1 #
2.3500000000000000888178419700125 7:1 #
-1 7:1 #
-1 7:1 #
2.3500000000000000888178419700125 7:1 #
-1 7:1 #
-1 7:1 #
-1 7:1 #
2.3500000000000000888178419700125 7:1 #
-1 7:1 #
-1 7:1 #
2.3500000000000000888178419700125 7:1 #
-1 7:1 #
-1 7:1 #
-1 7:1 #
2.3500000000000000888178419700125 7:1 #
-1 7:1 #
-1 7:1 #
2.3500000000000000888178419700125 7:1 #
-1 7:1 #
-1 7:1 #
2.3500000000000000888178419700125 7:1 #
-1 7:1 #
-1 7:1 #
-1 7:1 #
2.3500000000000000888178419700125 7:1 #
-1 7:1 #
-1 7:1 #
2.3500000000000000888178419700125 7:1 #
-1 7:1 #
-1 7:1 #
2.3500000000000000888178419700125 7:1 #
-1 7:1 #
-1 7:1 #
-1 7:1 #
2.3500000000000000888178419700125 7:1 #
-1 7:1 #
-1 7:1 #
2.3500000000000000888178419700125 7:1 #
-1 7:1 #
-1 7:1 #
2.3500000000000000888178419700125 7:1 #
-1 7:1 #
-1 7:1 #
-1 7:1 #
2.3500000000000000888178419700125 7:1 #
-1 7:1 #
-1 7:1 #
2.3500000000000000888178419700125 7:1 #
-1 7:1 #
-1 7:1 #
2.3500000000000000888178419700125 7:1 #
-1 7:1 #
-1 7:1 #
-1 7:1 #
2.3500000000000000888178419700125 7:1 #
-1 7:1 #
-1 7:1 #
2.3500000000000000888178419700125 7:1 #
-1 7:1 #
-1 7:1 #
2.3500000000000000888178419700125 7:1 #
-1 7:1 #
-1 7:1 #
2.3499999999999996447286321199499 7:1 #
-1 7:1 #
-1 7:1 #
2.3500000000000000888178419700125 7:1 #
-1 7:1 #
-1 7:1 #
2.3500000000000000888178419700125 7:1 #
-1 7:1 #
-1 7:1 #
2.3500000000000000888178419700125 7:1 #
-1 7:1 #
-1 7:1 #
-1 7:1 #
2.3500000000000000888178419700125 7:1 #
-1 7:1 #
-1 7:1 #
2.3500000000000000888178419700125 7:1 #
-1 7:1 #
-1 7:1 #
-1 7:1 #
-1 7:1 #
2.3500000000000000888178419700125 2:1 #
2.3500000000000000888178419700125 16:1 #
-1 7:1 #
2.3500000000000000888178419700125 20:1 #
-1 17:1 #
2.3500000000000000888178419700125 7:1 #
-1 7:1 #
2.3500000000000000888178419700125 17:1 #
2.3500000000000000888178419700125 15:1 #
2.3500000000000000888178419700125 12:1 #
2.3500000000000000888178419700125 6:1 #
-1 5:1 #
2.3500000000000000888178419700125 11:1 #
-1 11:1 #
2.3500000000000000888178419700125 5:1 #
-1 5:1 #
2.3500000000000000888178419700125 13:1 #
-1 13:1 #
-1 5:1 #
-1 13:1 #
-1 11:1 #
-1 7:1 #
2.3500000000000000888178419700125 10:1 #
-1 10:1 #
2.3500000000000000888178419700125 7:1 #
-1 2:1 #
-1 6:1 #
-1 10:1 #
-1 2:1 #
-1 6:1 #
-1 2:1 #
-1 12:1 #
2.3500000000000000888178419700125 2:1 #
-1 2:1 #
-1 16:1 #
-1 2:1 #
2.3500000000000000888178419700125 8:1 #
-1 16:1 #
-1 8:1 #
2.3500000000000000888178419700125 2:1 #
-1 2:1 #
-1 8:1 #
-1 2:1 #
-1 8:1 #
-1 20:1 #
2.3500000000000000888178419700125 5:1 #
-1 5:1 #
2.3500000000000000888178419700125 8:1 #
-1 7:1 #
-1 5:1 #
-1 7:1 #
-1 5:1 #
2.3500000000000000888178419700125 5:1 #
2.3500000000000000888178419700125 7:1 #
-1 7:1 #
-1 5:1 #
-1 7:1 #
-1 7:1 #
-1 1:1 #
2.3500000000000000888178419700125 7:1 #
-1 7:1 #
-1 8:1 #
-1 7:1 #
-1 5:1 #
-1 7:1 #
-1 7:1 #
-1 7:1 #
-1 17:1 #
2.3500000000000000888178419700125 7:1 #
-1 15:1 #
-1 7:1 #
-1 20:1 #
2.3500000000000000888178419700125 7:1 #
-1 7:1 #
-1 7:1 #
-1 7:1 #
2.3500000000000000888178419700125 7:1 #
-1 7:1 #
-1 7:1 #
2.3500000000000000888178419700125 7:1 #
-1 7:1 #
-1 7:1 #
-1 7:1 #
2.3500000000000000888178419700125 7:1 #
-1 7:1 #
-1 7:1 #
2.3500000000000000888178419700125 7:1 #
-1 7:1 #
-1 7:1 #
-1 7:1 #
-1 2:1 #
2.3500000000000000888178419700125 5:1 #
2.3500000000000000888178419700125 7:1 #
-1 7:1 #
2.3500000000000000888178419700125 7:1 #
-1 7:1 #
-1 7:1 #
-1 7:1 #
2.3500000000000000888178419700125 7:1 #
-1 7:1 #
-1 7:1 #
2.3500000000000000888178419700125 7:1 #
-1 7:1 #
-1 7:1 #
2.3500000000000000888178419700125 7:1 #
-1 7:1 #
-1 7:1 #
-1 7:1 #
2.3500000000000000888178419700125 7:1 #
-1 7:1 #
-1 7:1 #
2.3500000000000000888178419700125 7:1 #
-1 7:1 #
-1 7:1 #
2.3500000000000000888178419700125 7:1 #
-1 7:1 #
-1 7:1 #
-1 7:1 #
2.3500000000000000888178419700125 7:1 #
-1 7:1 #
-1 7:1 #
2.3500000000000000888178419700125 7:1 #
-1 7:1 #
-1 7:1 #
2.3500000000000000888178419700125 7:1 #
-1 7:1 #
-1 7:1 #
-1 7:1 #
2.3500000000000000888178419700125 7:1 #
-1 7:1 #
-1 7:1 #
2.3500000000000000888178419700125 7:1 #
-1 7:1 #
-1 7:1 #
2.3500000000000000888178419700125 7:1 #
-1 7:1 #
-1 7:1 #
-1 7:1 #
2.3500000000000000888178419700125 7:1 #
-1 7:1 #
-1 7:1 #
2.3500000000000000888178419700125 7:1 #
-1 7:1 #
-1 7:1 #
2.3500000000000000888178419700125 7:1 #
-1 7:1 #
-1 7:1 #
-1 7:1 #
2.3500000000000000888178419700125 7:1 #
-1 7:1 #
-1 7:1 #
2.3500000000000000888178419700125 7:1 #
-1 7:1 #
-1 7:1 #
-1 7:1 #
2.3500000000000000888178419700125 7:1 #
-1 7:1 #
-1 7:1 #
2.3500000000000000888178419700125 7:1 #
-1 7:1 #
-1 7:1 #
2.3500000000000000888178419700125 7:1 #
-1 7:1 #
-1 7:1 #
-1 7:1 #
2.3500000000000000888178419700125 7:1 #
-1 7:1 #
-1 7:1 #
2.3500000000000000888178419700125 7:1 #
-1 7:1 #
-1 7:1 #
2.3500000000000000888178419700125 7:1 #
-1 7:1 #
-1 7:1 #
-1 7:1 #
2.3500000000000000888178419700125 7:1 #
-1 7:1 #
-1 7:1 #
2.3500000000000000888178419700125 7:1 #
-1 7:1 #
-1 7:1 #
2.3500000000000000888178419700125 7:1 #
-1 7:1 #
-1 7:1 #
-1 7:1 #
2.3500000000000000888178419700125 7:1 #
-1 7:1 #
-1 7:1 #
2.3500000000000000888178419700125 7:1 #
-1 7:1 #
-1 7:1 #
2.3500000000000000888178419700125 7:1 #
-1 16:1 #
-1 17:1 #
-1 19:1 #
-1 6:1 #
-1 7:1 #
-1 7:1 #
-1 7:1 #
2.3500000000000000888178419700125 7:1 #
-1 7:1 #
-1 7:1 #
2.3500000000000000888178419700125 7:1 #
-1 7:1 #
-1 7:1 #
2.3500000000000000888178419700125 7:1 #
-1 7:1 #
-1 7:1 #
-1 7:1 #
2.3500000000000000888178419700125 7:1 #
-1 7:1 #
-1 7:1 #
2.3500000000000000888178419700125 7:1 #
-1 7:1 #
-1 7:1 #
2.3500000000000000888178419700125 7:1 #
-1 7:1 #
-1 7:1 #
-1 7:1 #
2.3500000000000000888178419700125 7:1 #
-1 7:1 #
-1 7:1 #
2.3500000000000000888178419700125 7:1 #
-1 7:1 #
-1 7:1 #
-1 7:1 #
2.3500000000000000888178419700125 7:1 #
-1 7:1 #
-1 7:1 #
2.3500000000000000888178419700125 7:1 #
-1 7:1 #
-1 7:1 #
2.3500000000000000888178419700125 7:1 #
-1 7:1 #
-1 7:1 #
-1 7:1 #
2.3500000000000000888178419700125 7:1 #
-1 7:1 #
-1 7:1 #
2.3500000000000000888178419700125 7:1 #
-1 7:1 #
-1 7:1 #
2.3500000000000000888178419700125 7:1 #
-1 7:1 #
-1 7:1 #
-1 7:1 #
2.3500000000000000888178419700125 7:1 #
-1 7:1 #
-1 7:1 #
2.3500000000000000888178419700125 7:1 #
-1 7:1 #
-1 7:1 #
2.3500000000000000888178419700125 7:1 #
-1 7:1 #
-1 7:1 #
-1 7:1 #
2.3500000000000000888178419700125 7:1 #
-1 7:1 #
-1 7:1 #
2.3500000000000000888178419700125 7:1 #
-1 7:1 #
-1 7:1 #
2.3500000000000000888178419700125 7:1 #
-1 7:1 #
-1 7:1 #
-1 7:1 #
2.3500000000000000888178419700125 7:1 #
-1 7:1 #
-1 7:1 #
2.3500000000000000888178419700125 7:1 #
-1 7:1 #
-1 7:1 #
2.3500000000000000888178419700125 7:1 #
-1 7:1 #
-1 7:1 #
-1 7:1 #
2.3500000000000000888178419700125 7:1 #
-1 7:1 #
-1 7:1 #
2.3500000000000000888178419700125 7:1 #
-1 7:1 #
-1 7:1 #
2.3500000000000000888178419700125 7:1 #
-1 7:1 #
-1 7:1 #
-1 7:1 #
2.3500000000000000888178419700125 7:1 #
-1 7:1 #
-1 7:1 #
2.3500000000000000888178419700125 7:1 #
-1 7:1 #
-1 7:1 #
-1 7:1 #
2.3500000000000000888178419700125 7:1 #
-1 7:1 #
-1 15:1 #
-1 10:1 #
-1 7:1 #
2.3500000000000000888178419700125 7:1 #
-1 7:1 #
-1 7:1 #
2.3500000000000000888178419700125 7:1 #
-1 7:1 #
-1 7:1 #
-1 7:1 #
2.3500000000000000888178419700125 7:1 #
-1 7:1 #
-1 7:1 #
2.3500000000000000888178419700125 7:1 #
-1 7:1 #
-1 7:1 #
2.3500000000000000888178419700125 7:1 #
-1 7:1 #
-1 7:1 #
-1 7:1 #
2.3500000000000000888178419700125 7:1 #
-1 7:1 #
-1 7:1 #
2.3500000000000000888178419700125 7:1 #
-1 7:1 #
-1 7:1 #
2.3500000000000000888178419700125 7:1 #
-1 7:1 #
-1 7:1 #
-1 7:1 #
2.3500000000000000888178419700125 7:1 #
-1 7:1 #
-1 7:1 #
2.3500000000000000888178419700125 7:1 #
-1 7:1 #
-1 7:1 #
2.3500000000000000888178419700125 7:1 #
-1 7:1 #
-1 7:1 #
-1 7:1 #
2.3500000000000000888178419700125 7:1 #
-1 7:1 #
-1 7:1 #
2.3500000000000000888178419700125 7:1 #
-1 7:1 #
-1 7:1 #
2.3500000000000000888178419700125 7:1 #
-1 7:1 #
-1 7:1 #
-1 7:1 #
2.3500000000000000888178419700125 7:1 #
-1 7:1 #
-1 7:1 #
2.3500000000000000888178419700125 7:1 #
-1 7:1 #
-1 7:1 #
2.3500000000000000888178419700125 7:1 #
-1 7:1 #
-1 7:1 #
-1 7:1 #
2.3500000000000000888178419700125 7:1 #
-1 7:1 #
-1 7:1 #
2.3500000000000000888178419700125 7:1 #
-1 7:1 #
-1 7:1 #
-1 7:1 #
2.3500000000000000888178419700125 7:1 #
-1 7:1 #
-1 7:1 #
2.3500000000000000888178419700125 7:1 #
-1 7:1 #
-1 7:1 #
2.3500000000000000888178419700125 7:1 #
-1 7:1 #
-1 7:1 #
-1 7:1 #
2.3500000000000000888178419700125 7:1 #
-1 7:1 #
-1 7:1 #
2.3500000000000000888178419700125 7:1 #
-1 7:1 #
-1 7:1 #
2.3500000000000000888178419700125 7:1 #
-1 7:1 #
-1 7:1 #
-1 7:1 #
2.3500000000000000888178419700125 7:1 #
-1 7:1 #
-1 7:1 #
2.3500000000000000888178419700125 7:1 #
-1 7:1 #
-1 7:1 #
2.3500000000000000888178419700125 7:1 #
-1 7:1 #
-1 7:1 #
-1 7:1 #
2.3500000000000000888178419700125 7:1 #
-1 7:1 #
-1 7:1 #
2.3500000000000000888178419700125 7:1 #
-1 7:1 #
-1 7:1 #
-1 7:1 #
2.3500000000000000888178419700125 7:1 #
-1 7:1 #
2.3500000000000000888178419700125 7:1 #
-1 7:1 #
-1 7:1 #
2.3500000000000000888178419700125 7:1 #
-1 7:1 #
-1 7:1 #
-1 7:1 #
2.3500000000000000888178419700125 7:1 #
-1 7:1 #
-1 7:1 #
2.3500000000000000888178419700125 7:1 #
-1 7:1 #
-1 7:1 #
-1 7:1 #
2.3500000000000000888178419700125 7:1 #
-1 7:1 #
-1 7:1 #
2.3500000000000000888178419700125 7:1 #
-1 7:1 #
-1 7:1 #
2.3500000000000000888178419700125 7:1 #
-1 7:1 #
-1 7:1 #
-1 7:1 #
2.3500000000000000888178419700125 7:1 #
-1 7:1 #
-1 7:1 #
2.3500000000000000888178419700125 7:1 #
-1 7:1 #
-1 7:1 #
2.3500000000000000888178419700125 7:1 #
-1 7:1 #
-1 7:1 #
-1 7:1 #
2.3500000000000000888178419700125 7:1 #
-1 7:1 #
-1 7:1 #
2.3500000000000000888178419700125 7:1 #
-1 7:1 #
-1 7:1 #
2.3500000000000000888178419700125 7:1 #
-1 7:1 #
-1 7:1 #
-1 7:1 #
2.3500000000000000888178419700125 7:1 #
-1 7:1 #
-1 7:1 #
2.3500000000000000888178419700125 7:1 #
-1 7:1 #
-1 7:1 #
2.3500000000000000888178419700125 7:1 #
-1 7:1 #
-1 7:1 #
-1 7:1 #
2.3500000000000000888178419700125 7:1 #
-1 7:1 #
-1 7:1 #
2.3500000000000000888178419700125 7:1 #
-1 7:1 #
-1 7:1 #
2.3500000000000000888178419700125 7:1 #
-1 7:1 #
-1 7:1 #
-1 7:1 #
2.3500000000000000888178419700125 7:1 #
-1 7:1 #
-1 7:1 #
2.3500000000000000888178419700125 7:1 #
-1 7:1 #
-1 7:1 #
2.3500000000000000888178419700125 7:1 #
-1 7:1 #
-1 7:1 #
-1 7:1 #
2.3500000000000000888178419700125 7:1 #
-1 7:1 #
-1 7:1 #
2.3500000000000000888178419700125 7:1 #
-1 7:1 #
-1 7:1 #
-1 7:1 #
2.3500000000000000888178419700125 7:1 #
-1 7:1 #
-1 7:1 #
2.3500000000000000888178419700125 7:1 #
-1 7:1 #
-1 7:1 #
2.3500000000000000888178419700125 7:1 #
-1 7:1 #
-1 7:1 #
-1 7:1 #
2.3500000000000000888178419700125 7:1 #
-1 7:1 #
-1 7:1 #
2.3500000000000000888178419700125 7:1 #
-1 7:1 #
-1 7:1 #
-1 8:1 #
-1 12:1 #
-1 5:1 #
2.3500000000000000888178419700125 7:1 #
-1 7:1 #
-1 7:1 #
2.3500000000000000888178419700125 1:1 #
-1 16:1 #
2.3500000000000000888178419700125 7:1 #
-1 7:1 #
2.3500000000000000888178419700125 16:1 #
-1 7:1 #
2.3500000000000000888178419700125 2:1 #
-1 14:1 #
-1 7:1 #
2.3500000000000000888178419700125 7:1 #
-1 7:1 #
2.3500000000000000888178419700125 12:1 #
2.3500000000000000888178419700125 8:1 #
-1 3:1 #
-1 9:1 #
2.3500000000000000888178419700125 7:1 #
-1 7:1 #
2.3500000000000000888178419700125 15:1 #
-1 7:1 #
2.3500000000000000888178419700125 3:1 #
2.3500000000000000888178419700125 9:1 #
-1 7:1 #
2.3500000000000000888178419700125 6:1 #
2.3500000000000000888178419700125 10:1 #
2.3500000000000000888178419700125 7:1 #
-1 7:1 #
2.3500000000000000888178419700125 19:1 #
-1 7:1 #
2.3500000000000000888178419700125 14:1 #
-1 7:1 #
2.3500000000000000888178419700125 7:1 #
-1 7:1 #
-1 7:1 #
2.3500000000000000888178419700125 7:1 #
-1 7:1 #
-1 7:1 #
-1 7:1 #
2.3500000000000000888178419700125 7:1 #
-1 7:1 #
-1 7:1 #
2.3500000000000000888178419700125 7:1 #
-1 7:1 #
-1 7:1 #
2.3500000000000000888178419700125 7:1 #
-1 7:1 #
-1 7:1 #
-1 7:1 #
2.3500000000000000888178419700125 7:1 #
-1 7:1 #
-1 7:1 #
2.3500000000000000888178419700125 7:1 #
-1 7:1 #
-1 7:1 #
2.3500000000000000888178419700125 7:1 #
-1 7:1 #
-1 7:1 #
-1 7:1 #
2.3500000000000000888178419700125 7:1 #
-1 7:1 #
-1 7:1 #
2.3500000000000000888178419700125 7:1 #
-1 7:1 #
-1 7:1 #
2.3500000000000000888178419700125 7:1 #
-1 7:1 #
-1 7:1 #
-1 7:1 #
2.3500000000000000888178419700125 7:1 #
-1 7:1 #
-1 7:1 #
2.3500000000000000888178419700125 7:1 #
-1 7:1 #
-1 7:1 #
2.3500000000000000888178419700125 7:1 #
-1 7:1 #
-1 7:1 #
-1 7:1 #
2.3500000000000000888178419700125 7:1 #
-1 7:1 #
-1 7:1 #
2.3500000000000000888178419700125 7:1 #
-1 7:1 #
-1 7:1 #
-1 7:1 #
2.3500000000000000888178419700125 7:1 #
-1 7:1 #
-1 7:1 #
2.3500000000000000888178419700125 7:1 #
-1 7:1 #
-1 7:1 #
2.3500000000000000888178419700125 7:1 #
-1 7:1 #
-1 7:1 #
-1 7:1 #
2.3500000000000000888178419700125 7:1 #
-1 7:1 #
-1 7:1 #
2.3500000000000000888178419700125 7:1 #
-1 7:1 #
-1 7:1 #
2.3500000000000000888178419700125 7:1 #
-1 7:1 #
-1 7:1 #
2.3500000000000000888178419700125 17:1 #
2.3500000000000000888178419700125 15:1 #
-1 7:1 #
-1 7:1 #
2.3500000000000000888178419700125 7:1 #
-1 7:1 #
-1 7:1 #
2.3500000000000000888178419700125 7:1 #
-1 7:1 #
-1 7:1 #
2.3500000000000000888178419700125 7:1 #
-1 7:1 #
-1 7:1 #
-1 7:1 #
2.3500000000000000888178419700125 7:1 #
-1 7:1 #
-1 7:1 #
2.3500000000000000888178419700125 7:1 #
-1 7:1 #
-1 7:1 #
2.3500000000000000888178419700125 7:1 #
-1 7:1 #
-1 7:1 #
-1 7:1 #
2.3500000000000000888178419700125 7:1 #
-1 7:1 #
-1 7:1 #
2.3500000000000000888178419700125 7:1 #
-1 7:1 #
-1 7:1 #
2.3500000000000000888178419700125 7:1 #
-1 7:1 #
-1 7:1 #
-1 7:1 #
2.3500000000000000888178419700125 7:1 #
-1 7:1 #
-1 7:1 #
2.3500000000000000888178419700125 7:1 #
-1 7:1 #
-1 7:1 #
2.3500000000000000888178419700125 7:1 #
-1 7:1 #
-1 7:1 #
-1 7:1 #
2.3500000000000000888178419700125 7:1 #
-1 7:1 #
-1 7:1 #
2.3500000000000000888178419700125 7:1 #
-1 7:1 #
-1 7:1 #
2.3500000000000000888178419700125 7:1 #
-1 7:1 #
-1 7:1 #
-1 7:1 #
2.3500000000000000888178419700125 7:1 #
-1 7:1 #
-1 7:1 #
2.3500000000000000888178419700125 7:1 #
-1 7:1 #
-1 7:1 #
2.3500000000000000888178419700125 7:1 #
-1 7:1 #
-1 7:1 #
-1 7:1 #
2.3500000000000000888178419700125 7:1 #
-1 7:1 #
-1 7:1 #
2.3500000000000000888178419700125 7:1 #
-1 7:1 #
-1 7:1 #
-1 7:1 #
2.3500000000000000888178419700125 7:1 #
-1 7:1 #
-1 7:1 #
2.3500000000000000888178419700125 7:1 #
-1 7:1 #
-1 7:1 #
2.3500000000000000888178419700125 7:1 #
-1 7:1 #
-1 7:1 #
-1 7:1 #
2.3500000000000000888178419700125 7:1 #
-1 7:1 #
-1 7:1 #
2.3500000000000000888178419700125 7:1 #
-1 7:1 #
-1 7:1 #
2.3500000000000000888178419700125 7:1 #
-1 7:1 #
-1 7:1 #
-1 7:1 #
2.3500000000000000888178419700125 7:1 #
-1 7:1 #
-1 7:1 #
2.3500000000000000888178419700125 7:1 #
-1 7:1 #
-1 7:1 #
2.3500000000000000888178419700125 7:1 #
-1 7:1 #
-1 7:1 #
-1 7:1 #
2.3500000000000000888178419700125 7:1 #
-1 7:1 #
2.3500000000000000888178419700125 7:1 #
-1 7:1 #
2.3500000000000000888178419700125 7:1 #
-1 7:1 #
-1 7:1 #
2.3500000000000000888178419700125 7:1 #
-1 7:1 #
-1 7:1 #
-1 7:1 #
2.3500000000000000888178419700125 7:1 #
-1 7:1 #
-1 7:1 #
2.3500000000000000888178419700125 7:1 #
-1 7:1 #
-1 7:1 #
2.3500000000000000888178419700125 7:1 #
-1 7:1 #
-1 7:1 #
-1 7:1 #
2.3500000000000000888178419700125 7:1 #
-1 7:1 #
-1 7:1 #
2.3500000000000000888178419700125 7:1 #
-1 7:1 #
-1 7:1 #
2.3500000000000000888178419700125 7:1 #
-1 7:1 #
-1 7:1 #
-1 7:1 #
2.3500000000000000888178419700125 7:1 #
-1 7:1 #
-1 7:1 #
2.3500000000000000888178419700125 7:1 #
-1 7:1 #
-1 7:1 #
-1 7:1 #
2.3500000000000000888178419700125 7:1 #
-1 7:1 #
-1 7:1 #
2.3500000000000000888178419700125 7:1 #
-1 7:1 #
-1 7:1 #
2.3500000000000000888178419700125 7:1 #
-1 7:1 #
-1 7:1 #
-1 7:1 #
2.3500000000000000888178419700125 7:1 #
-1 7:1 #
-1 7:1 #
2.3500000000000000888178419700125 7:1 #
-1 7:1 #
-1 7:1 #
2.3500000000000000888178419700125 7:1 #
-1 7:1 #
-1 7:1 #
-1 7:1 #
2.3500000000000000888178419700125 7:1 #
-1 7:1 #
-1 7:1 #
2.3500000000000000888178419700125 7:1 #
-1 7:1 #
-1 7:1 #
2.3500000000000000888178419700125 7:1 #
-1 7:1 #
-1 7:1 #
-1 7:1 #
2.3500000000000000888178419700125 7:1 #
-1 7:1 #
-1 7:1 #
2.3500000000000000888178419700125 7:1 #
-1 7:1 #
-1 7:1 #
2.3500000000000000888178419700125 7:1 #
-1 7:1 #
-1 7:1 #
-1 7:1 #
2.3500000000000000888178419700125 7:1 #
-1 7:1 #
-1 7:1 #
2.3500000000000000888178419700125 7:1 #
-1 7:1 #
-1 7:1 #
2.3500000000000000888178419700125 7:1 #
-1 7:1 #
-1 7:1 #
-1 7:1 #
2.3500000000000000888178419700125 7:1 #
-1 7:1 #
-1 7:1 #
2.3500000000000000888178419700125 7:1 #
-1 7:1 #
-1 7:1 #
2.3500000000000000888178419700125 7:1 #
-1 7:1 #
-1 7:1 #
-1 7:1 #
2.3500000000000000888178419700125 7:1 #
-1 7:1 #
-1 7:1 #
2.3500000000000000888178419700125 7:1 #
-1 7:1 #
-1 7:1 #
-1 7:1 #
-1 7:1 #
2.3500000000000000888178419700125 7:1 #
-1 7:1 #
-1 7:1 #
2.3500000000000000888178419700125 7:1 #
-1 7:1 #
-1 7:1 #
2.3500000000000000888178419700125 7:1 #
-1 7:1 #
-1 7:1 #
-1 7:1 #
2.3500000000000000888178419700125 7:1 #
-1 7:1 #
-1 7:1 #
2.3500000000000000888178419700125 7:1 #
-1 7:1 #
-1 7:1 #
2.3500000000000000888178419700125 7:1 #
-1 7:1 #
-1 7:1 #
-1 7:1 #
2.3500000000000000888178419700125 7:1 #
-1 7:1 #
-1 7:1 #
2.3500000000000000888178419700125 7:1 #
-1 7:1 #
-1 7:1 #
2.3500000000000000888178419700125 7:1 #
-1 7:1 #
-1 7:1 #
-1 7:1 #
2.3500000000000000888178419700125 7:1 #
-1 7:1 #
-1 7:1 #
2.3500000000000000888178419700125 7:1 #
-1 7:1 #
-1 7:1 #
2.3500000000000000888178419700125 7:1 #
-1 7:1 #
-1 7:1 #
-1 7:1 #
2.3500000000000000888178419700125 7:1 #
-1 7:1 #
-1 7:1 #
2.3500000000000000888178419700125 7:1 #
-1 7:1 #
-1 7:1 #
2.3500000000000000888178419700125 7:1 #
-1 7:1 #
-1 7:1 #
-1 7:1 #
2.3500000000000000888178419700125 7:1 #
-1 7:1 #
-1 7:1 #
2.3500000000000000888178419700125 7:1 #
-1 7:1 #
-1 7:1 #
2.3500000000000000888178419700125 7:1 #
-1 7:1 #
-1 7:1 #
-1 7:1 #
2.3500000000000000888178419700125 7:1 #
-1 7:1 #
-1 7:1 #
2.3500000000000000888178419700125 7:1 #
-1 7:1 #
-1 7:1 #
-1 7:1 #
2.3500000000000000888178419700125 7:1 #
-1 7:1 #
-1 7:1 #
2.3500000000000000888178419700125 7:1 #
-1 7:1 #
-1 7:1 #
2.3500000000000000888178419700125 7:1 #
-1 7:1 #
-1 7:1 #
-1 7:1 #
2.3500000000000000888178419700125 7:1 #
-1 7:1 #
-1 7:1 #
2.3500000000000000888178419700125 7:1 #
-1 7:1 #
-1 7:1 #
2.3500000000000000888178419700125 7:1 #
-1 7:1 #
-1 7:1 #
-1 7:1 #
2.3500000000000000888178419700125 7:1 #
-1 7:1 #
-1 7:1 #
2.3500000000000000888178419700125 7:1 #
-1 7:1 #
-1 7:1 #
2.3500000000000000888178419700125 7:1 #
-1 7:1 #
-1 7:1 #
-1 7:1 #
2.3500000000000000888178419700125 7:1 #
-1 7:1 #
-1 7:1 #
-1 7:1 #
2.3500000000000000888178419700125 7:1 #
-1 7:1 #
-1 7:1 #
2.3500000000000000888178419700125 7:1 #
-1 7:1 #
-1 7:1 #
-1 7:1 #
2.3500000000000000888178419700125 7:1 #
-1 7:1 #
-1 7:1 #
2.3500000000000000888178419700125 7:1 #
-1 7:1 #
-1 7:1 #
2.3500000000000000888178419700125 7:1 #
-1 7:1 #
-1 7:1 #
-1 7:1 #
2.3500000000000000888178419700125 7:1 #
-1 7:1 #
-1 7:1 #
2.3500000000000000888178419700125 7:1 #
-1 7:1 #
-1 7:1 #
2.3500000000000000888178419700125 7:1 #
-1 7:1 #
-1 7:1 #
-1 7:1 #
2.3500000000000000888178419700125 7:1 #
-1 7:1 #
-1 7:1 #
2.3500000000000000888178419700125 7:1 #
-1 7:1 #
-1 7:1 #
-1 7:1 #
2.3500000000000000888178419700125 7:1 #
-1 7:1 #
-1 7:1 #
2.3500000000000000888178419700125 7:1 #
-1 7:1 #
-1 7:1 #
2.3500000000000000888178419700125 7:1 #
-1 7:1 #
-1 7:1 #
-1 7:1 #
2.3500000000000000888178419700125 7:1 #
-1 7:1 #
-1 7:1 #
2.3500000000000000888178419700125 7:1 #
-1 7:1 #
-1 7:1 #
2.3500000000000000888178419700125 7:1 #
-1 7:1 #
-1 7:1 #
-1 7:1 #
2.3500000000000000888178419700125 7:1 #
-1 7:1 #
-1 7:1 #
2.3500000000000000888178419700125 7:1 #
-1 7:1 #
-1 7:1 #
2.3500000000000000888178419700125 7:1 #
-1 7:1 #
-1 7:1 #
-1 7:1 #
2.3500000000000000888178419700125 7:1 #
-1 7:1 #
-1 7:1 #
2.3500000000000000888178419700125 7:1 #
-1 7:1 #
-1 7:1 #
2.3500000000000000888178419700125 7:1 #
-1 7:1 #
-1 7:1 #
-1 7:1 #
2.3500000000000000888178419700125 7:1 #
-1 7:1 #
-1 7:1 #
2.3500000000000000888178419700125 7:1 #
-1 7:1 #
-1 7:1 #
2.3500000000000000888178419700125 7:1 #
-1 7:1 #
-1 7:1 #
-1 7:1 #
2.3500000000000000888178419700125 7:1 #
-1 7:1 #
-1 7:1 #
2.3500000000000000888178419700125 7:1 #
-1 7:1 #
-1 7:1 #
2.3500000000000000888178419700125 7:1 #
-1 7:1 #
-1 7:1 #
-1 7:1 #
2.3500000000000000888178419700125 7:1 #
-1 7:1 #
-1 7:1 #
2.3500000000000000888178419700125 7:1 #
-1 7:1 #
2.3500000000000000888178419700125 7:1 #
-1 7:1 #
-1 7:1 #
-1 7:1 #
2.3500000000000000888178419700125 7:1 #
-1 7:1 #
-1 7:1 #
2.3500000000000000888178419700125 7:1 #
-1 7:1 #
-1 7:1 #
2.3500000000000000888178419700125 7:1 #
-1 7:1 #
-1 7:1 #
-1 7:1 #
2.3500000000000000888178419700125 7:1 #
-1 7:1 #
-1 7:1 #
2.3500000000000000888178419700125 7:1 #
-1 7:1 #
-1 7:1 #
2.3500000000000000888178419700125 7:1 #
-1 7:1 #
-1 7:1 #
-1 7:1 #
2.3500000000000000888178419700125 7:1 #
-1 7:1 #
-1 7:1 #
2.3500000000000000888178419700125 7:1 #
-1 7:1 #
-1 7:1 #
2.3500000000000000888178419700125 7:1 #
-1 7:1 #
-1 7:1 #
-1 7:1 #
2.3500000000000000888178419700125 7:1 #
-1 7:1 #
-1 7:1 #
2.3500000000000000888178419700125 7:1 #
-1 7:1 #
-1 7:1 #
2.3500000000000000888178419700125 7:1 #
-1 7:1 #
-1 7:1 #
-1 7:1 #
2.3500000000000000888178419700125 7:1 #
-1 7:1 #
-1 7:1 #
2.3500000000000000888178419700125 7:1 #
-1 7:1 #
-1 7:1 #
2.3500000000000000888178419700125 7:1 #
-1 7:1 #
-1 7:1 #
-1 7:1 #
2.3500000000000000888178419700125 7:1 #
-1 7:1 #
-1 7:1 #
2.3500000000000000888178419700125 7:1 #
-1 7:1 #
-1 7:1 #
2.3500000000000000888178419700125 7:1 #
-1 7:1 #
-1 7:1 #
-1 7:1 #
2.3500000000000000888178419700125 7:1 #
-1 7:1 #
-1 7:1 #
2.3500000000000000888178419700125 7:1 #
-1 7:1 #
-1 7:1 #
-1 7:1 #
2.3500000000000000888178419700125 7:1 #
-1 7:1 #
-1 7:1 #
2.3500000000000000888178419700125 7:1 #
-1 7:1 #
-1 7:1 #
2.3500000000000000888178419700125 7:1 #
-1 7:1 #
-1 7:1 #
-1 7:1 #
2.3500000000000000888178419700125 7:1 #
-1 7:1 #
-1 7:1 #
2.3500000000000000888178419700125 7:1 #
-1 7:1 #
-1 7:1 #
2.3500000000000000888178419700125 7:1 #
-1 7:1 #
-1 7:1 #
-1 7:1 #
2.3500000000000000888178419700125 7:1 #
-1 7:1 #
-1 7:1 #
2.3500000000000000888178419700125 7:1 #
-1 7:1 #
-1 7:1 #
2.3500000000000000888178419700125 7:1 #
-1 7:1 #
-1 7:1 #
-1 7:1 #
-1 7:1 #
2.3500000000000000888178419700125 7:1 #
-1 7:1 #
-1 7:1 #
2.3500000000000000888178419700125 7:1 #
-1 7:1 #
-1 7:1 #
2.3500000000000000888178419700125 7:1 #
-1 7:1 #
-1 7:1 #
-1 7:1 #
2.3500000000000000888178419700125 7:1 #
-1 7:1 #
-1 7:1 #
2.3500000000000000888178419700125 7:1 #
-1 7:1 #
-1 7:1 #
2.3500000000000000888178419700125 7:1 #
-1 7:1 #
-1 7:1 #
-1 7:1 #
2.3500000000000000888178419700125 7:1 #
-1 7:1 #
-1 7:1 #
2.3500000000000000888178419700125 7:1 #
-1 7:1 #
-1 7:1 #
2.3500000000000000888178419700125 7:1 #
-1 7:1 #
-1 7:1 #
-1 7:1 #
2.3500000000000000888178419700125 7:1 #
-1 7:1 #
-1 7:1 #
2.3500000000000000888178419700125 7:1 #
-1 7:1 #
-1 7:1 #
-1 7:1 #
2.3500000000000000888178419700125 7:1 #
-1 7:1 #
-1 7:1 #
2.3500000000000000888178419700125 7:1 #
-1 7:1 #
-1 7:1 #
2.3500000000000000888178419700125 7:1 #
-1 7:1 #
-1 7:1 #
-1 7:1 #
2.3500000000000000888178419700125 7:1 #
-1 7:1 #
-1 7:1 #
2.3500000000000000888178419700125 7:1 #
-1 7:1 #
-1 7:1 #
2.3500000000000000888178419700125 7:1 #
-1 7:1 #
-1 7:1 #
-1 7:1 #
2.3500000000000000888178419700125 7:1 #
-1 7:1 #
-1 7:1 #
2.3500000000000000888178419700125 7:1 #
-1 7:1 #
-1 7:1 #
2.3500000000000000888178419700125 7:1 #
-1 7:1 #
-1 7:1 #
-1 7:1 #
2.3500000000000000888178419700125 7:1 #
-1 7:1 #
-1 7:1 #
2.3500000000000000888178419700125 7:1 #
-1 7:1 #
-1 7:1 #
2.3500000000000000888178419700125 7:1 #
-1 7:1 #
-1 7:1 #
-1 7:1 #
2.3500000000000000888178419700125 7:1 #
-1 7:1 #
-1 7:1 #
2.3500000000000000888178419700125 7:1 #
-1 7:1 #
-1 7:1 #
2.3500000000000000888178419700125 7:1 #
-1 7:1 #
-1 7:1 #
-1 7:1 #
2.3500000000000000888178419700125 7:1 #
-1 7:1 #
-1 7:1 #
2.3500000000000000888178419700125 7:1 #
-1 7:1 #
-1 7:1 #
2.3500000000000000888178419700125 7:1 #
-1 7:1 #
-1 7:1 #
-1 7:1 #
2.3500000000000000888178419700125 7:1 #
-1 7:1 #
-1 7:1 #
-1 7:1 #
2.3500000000000000888178419700125 7:1 #
-1 7:1 #
-1 7:1 #
-1 7:1 #
2.3500000000000000888178419700125 7:1 #
-1 7:1 #
-1 7:1 #
2.3500000000000000888178419700125 7:1 #
-1 7:1 #
-1 7:1 #
2.3500000000000000888178419700125 7:1 #
-1 7:1 #
-1 7:1 #
-1 7:1 #
2.3500000000000000888178419700125 7:1 #
-1 7:1 #
-1 7:1 #
2.3500000000000000888178419700125 7:1 #
-1 7:1 #
-1 7:1 #
2.3500000000000000888178419700125 7:1 #
-1 7:1 #
-1 7:1 #
-1 7:1 #
2.3500000000000000888178419700125 7:1 #
-1 7:1 #
-1 7:1 #
2.3500000000000000888178419700125 7:1 #
-1 7:1 #
-1 7:1 #
2.3500000000000000888178419700125 7:1 #
-1 7:1 #
2.3500000000000000888178419700125 15:1 #
-1 7:1 #
2.3500000000000000888178419700125 7:1 #
-1 7:1 #
-1 7:1 #
2.3500000000000000888178419700125 7:1 #
-1 7:1 #
-1 7:1 #
2.3500000000000000888178419700125 7:1 #
-1 7:1 #
-1 7:1 #
-1 7:1 #
2.3500000000000000888178419700125 7:1 #
-1 7:1 #
-1 7:1 #
2.3500000000000000888178419700125 7:1 #
-1 7:1 #
-1 7:1 #
2.3500000000000000888178419700125 7:1 #
-1 7:1 #
-1 7:1 #
-1 7:1 #
2.3500000000000000888178419700125 7:1 #
-1 7:1 #
-1 7:1 #
2.3500000000000000888178419700125 7:1 #
-1 7:1 #
-1 7:1 #
2.3500000000000000888178419700125 7:1 #
-1 7:1 #
-1 7:1 #
-1 7:1 #
2.3500000000000000888178419700125 7:1 #
-1 7:1 #
-1 7:1 #
2.3500000000000000888178419700125 7:1 #
-1 7:1 #
-1 7:1 #
-1 7:1 #
2.3500000000000000888178419700125 7:1 #
-1 7:1 #
-1 7:1 #
2.3500000000000000888178419700125 7:1 #
-1 7:1 #
-1 7:1 #
2.3500000000000000888178419700125 7:1 #
-1 7:1 #
-1 7:1 #
-1 7:1 #
2.3500000000000000888178419700125 7:1 #
-1 7:1 #
-1 7:1 #
2.3500000000000000888178419700125 7:1 #
-1 7:1 #
-1 7:1 #
2.3500000000000000888178419700125 7:1 #
-1 7:1 #
-1 7:1 #
-1 7:1 #
2.3500000000000000888178419700125 7:1 #
-1 7:1 #
-1 7:1 #
2.3500000000000000888178419700125 7:1 #
-1 7:1 #
-1 7:1 #
2.3500000000000000888178419700125 7:1 #
-1 7:1 #
-1 7:1 #
-1 7:1 #
2.3500000000000000888178419700125 7:1 #
-1 7:1 #
2.3500000000000000888178419700125 7:1 #
-1 7:1 #
-1 7:1 #
2.3500000000000000888178419700125 7:1 #
-1 7:1 #
-1 7:1 #
2.3500000000000000888178419700125 7:1 #
-1 7:1 #
-1 7:1 #
-1 7:1 #
2.3500000000000000888178419700125 7:1 #
-1 7:1 #
-1 7:1 #
2.3500000000000000888178419700125 7:1 #
-1 7:1 #
-1 7:1 #
2.3500000000000000888178419700125 7:1 #
-1 7:1 #
-1 7:1 #
-1 7:1 #
2.3500000000000000888178419700125 7:1 #
-1 7:1 #
-1 7:1 #
2.3500000000000000888178419700125 7:1 #
-1 7:1 #
-1 7:1 #
2.3500000000000000888178419700125 7:1 #
-1 7:1 #
-1 7:1 #
-1 7:1 #
2.3500000000000000888178419700125 7:1 #
-1 7:1 #
-1 7:1 #
2.3500000000000000888178419700125 7:1 #
-1 7:1 #
-1 7:1 #
-1 7:1 #
2.3500000000000000888178419700125 7:1 #
-1 7:1 #
-1 7:1 #
2.3500000000000000888178419700125 7:1 #
-1 7:1 #
-1 7:1 #
2.3500000000000000888178419700125 7:1 #
-1 7:1 #
-1 7:1 #
-1 7:1 #
2.3500000000000000888178419700125 7:1 #
-1 7:1 #
-1 7:1 #
2.3500000000000000888178419700125 7:1 #
-1 7:1 #
-1 7:1 #
2.3500000000000000888178419700125 7:1 #
-1 7:1 #
-1 7:1 #
-1 7:1 #
2.3500000000000000888178419700125 7:1 #
-1 7:1 #
-1 7:1 #
2.3500000000000000888178419700125 7:1 #
-1 7:1 #
-1 7:1 #
2.3500000000000000888178419700125 7:1 #
-1 7:1 #
-1 7:1 #
-1 7:1 #
2.3500000000000000888178419700125 7:1 #
-1 7:1 #
-1 7:1 #
2.3500000000000000888178419700125 7:1 #
-1 7:1 #
-1 7:1 #
2.3500000000000000888178419700125 7:1 #
-1 7:1 #
-1 7:1 #
-1 7:1 #
2.3500000000000000888178419700125 7:1 #
-1 7:1 #
-1 7:1 #
2.3500000000000000888178419700125 7:1 #
-1 7:1 #
-1 7:1 #
2.3500000000000000888178419700125 7:1 #
-1 7:1 #
-1 7:1 #
-1 7:1 #
2.3500000000000000888178419700125 7:1 #
-1 7:1 #
-1 7:1 #
2.3500000000000000888178419700125 7:1 #
-1 7:1 #
-1 7:1 #
2.3500000000000000888178419700125 7:1 #
-1 7:1 #
-1 7:1 #
-1 7:1 #
2.3500000000000000888178419700125 7:1 #
-1 7:1 #
-1 7:1 #
-1 7:1 #
2.3500000000000000888178419700125 7:1 #
-1 7:1 #
-1 7:1 #
-1 7:1 #
2.3500000000000000888178419700125 7:1 #
-1 7:1 #
-1 7:1 #
2.3500000000000000888178419700125 7:1 #
-1 7:1 #
-1 7:1 #
2.3500000000000000888178419700125 7:1 #
-1 7:1 #
-1 7:1 #
-1 7:1 #
2.3500000000000000888178419700125 7:1 #
-1 7:1 #
-1 7:1 #
2.3500000000000000888178419700125 7:1 #
-1 7:1 #
-1 7:1 #
-1 7:1 #
2.3500000000000000888178419700125 7:1 #
-1 7:1 #
-1 7:1 #
2.3500000000000000888178419700125 7:1 #
-1 7:1 #
-1 7:1 #
2.3500000000000000888178419700125 7:1 #
-1 7:1 #
-1 7:1 #
2.3500000000000000888178419700125 7:1 #
-1 16:1 #
-1 3:1 #
-1 9:1 #
-1 2:1 #
-1 19:1 #
-1 17:1 #
-1 15:1 #
-1 9:1 #
-1 1:1 #
2.3500000000000000888178419700125 7:1 #
-1 7:1 #
-1 17:1 #
-1 19:1 #
-1 14:1 #
-1 7:1 #
-1 1:1 #
-1 7:1 #
-1 5:1 #
2.3500000000000000888178419700125 7:1 #
-1 15:1 #
-1 7:1 #
2.3500000000000000888178419700125 5:1 #
-1 10:1 #
-1 14:1 #
-1 3:1 #
-1 7:1 #
-1 15:1 #
-1 12:1 #
-1 5:1 #
-1 8:1 #
-1 5:1 #
-1 8:1 #
-1 6:1 #
2.3500000000000000888178419700125 19:1 #
-1 19:1 #
2.3500000000000000888178419700125 16:1 #
2.3500000000000000888178419700125 9:1 #
-1 12:1 #
-1 10:1 #
-1 19:1 #
2.3500000000000000888178419700125 10:1 #
-1 10:1 #
2.3500000000000000888178419700125 12:1 #
-1 12:1 #
-1 10:1 #
-1 12:1 #
2.3500000000000000888178419700125 6:1 #
-1 10:1 #
-1 12:1 #
2.3500000000000000888178419700125 17:1 #
-1 10:1 #
2.3500000000000000888178419700125 12:1 #
-1 12:1 #
2.3500000000000000888178419700125 10:1 #
-1 10:1 #
-1 12:1 #
2.3500000000000000888178419700125 12:1 #
-1 10:1 #
-1 12:1 #
2.3500000000000000888178419700125 10:1 #
-1 12:1 #
2.3500000000000000888178419700125 14:1 #
2.3500000000000000888178419700125 3:1 #
2.3500000000000000888178419700125 12:1 #
-1 12:1 #
-1 12:1 #
2.3500000000000000888178419700125 1:1 #
-1 12:1 #
-1 12:1 #
2.3500000000000000888178419700125 12:1 #
-1 12:1 #
-1 12:1 #
2.3500000000000000888178419700125 12:1 #
-1 12:1 #
-1 12:1 #
-1 12:1 #
2.3500000000000000888178419700125 12:1 #
2.3500000000000000888178419700125 12:1 #
-1 12:1 #
-1 12:1 #
-1 12:1 #
-1 12:1 #
-1 17:1 #
2.3500000000000000888178419700125 12:1 #
-1 14:1 #
-1 6:1 #
-1 15:1 #
-1 12:1 #
-1 3:1 #
-1 14:1 #
2.3500000000000000888178419700125 12:1 #
-1 12:1 #
-1 9:1 #
-1 12:1 #
-1 1:1 #
-1 17:1 #
2.3500000000000000888178419700125 12:1 #
-1 12:1 #
-1 3:1 #
-1 6:1 #
-1 12:1 #
-1 12:1 #
-1 16:1 #
2.3500000000000000888178419700125 12:1 #
-1 6:1 #
-1 10:1 #
-1 12:1 #
-1 9:1 #
2.3500000000000000888178419700125 12:1 #
-1 12:1 #
-1 12:1 #
2.3500000000000000888178419700125 12:1 #
-1 12:1 #
-1 12:1 #
-1 12:1 #
2.3500000000000000888178419700125 12:1 #
-1 12:1 #
-1 12:1 #
2.3500000000000000888178419700125 12:1 #
-1 12:1 #
-1 12:1 #
2.3500000000000000888178419700125 12:1 #
-1 12:1 #
-1 12:1 #
-1 12:1 #
2.3500000000000000888178419700125 12:1 #
-1 12:1 #
-1 12:1 #
2.3500000000000000888178419700125 12:1 #
-1 12:1 #
-1 12:1 #
2.3500000000000000888178419700125 12:1 #
-1 12:1 #
-1 12:1 #
-1 12:1 #
2.3500000000000000888178419700125 12:1 #
-1 12:1 #
-1 12:1 #
2.3500000000000000888178419700125 12:1 #
-1 12:1 #
-1 12:1 #
-1 12:1 #
2.3500000000000000888178419700125 12:1 #
-1 12:1 #
-1 12:1 #
2.3500000000000000888178419700125 12:1 #
-1 12:1 #
-1 12:1 #
2.3500000000000000888178419700125 12:1 #
-1 12:1 #
-1 12:1 #
-1 12:1 #
2.3500000000000000888178419700125 12:1 #
-1 12:1 #
-1 12:1 #
2.3500000000000000888178419700125 12:1 #
-1 12:1 #
-1 12:1 #
2.3500000000000000888178419700125 12:1 #
-1 12:1 #
-1 12:1 #
-1 12:1 #
2.3500000000000000888178419700125 12:1 #
-1 12:1 #
-1 12:1 #
2.3500000000000000888178419700125 12:1 #
-1 12:1 #
-1 12:1 #
2.3500000000000000888178419700125 12:1 #
-1 12:1 #
-1 12:1 #
-1 12:1 #
2.3500000000000000888178419700125 12:1 #
-1 12:1 #
-1 12:1 #
2.3500000000000000888178419700125 12:1 #
-1 12:1 #
-1 12:1 #
2.3500000000000000888178419700125 12:1 #
-1 1:1 #
-1 16:1 #
2.3500000000000000888178419700125 12:1 #
-1 12:1 #
-1 12:1 #
-1 12:1 #
-1 12:1 #
-1 12:1 #
-1 12:1 #
2.3500000000000000888178419700125 9:1 #
2.3500000000000000888178419700125 12:1 #
-1 16:1 #
2.3500000000000000888178419700125 19:1 #
-1 16:1 #
2.3500000000000000888178419700125 16:1 #
-1 16:1 #
2.3500000000000000888178419700125 15:1 #
-1 16:1 #
2.3500000000000000888178419700125 6:1 #
-1 12:1 #
2.3500000000000000888178419700125 16:1 #
-1 16:1 #
-1 12:1 #
2.3500000000000000888178419700125 10:1 #
-1 16:1 #
-1 12:1 #
-1 16:1 #
2.3500000000000000888178419700125 12:1 #
2.3500000000000000888178419700125 16:1 #
-1 12:1 #
-1 16:1 #
-1 12:1 #
-1 16:1 #
-1 1:1 #
2.3500000000000000888178419700125 16:1 #
-1 16:1 #
-1 16:1 #
2.3500000000000000888178419700125 16:1 #
-1 16:1 #
-1 16:1 #
-1 16:1 #
2.3500000000000000888178419700125 16:1 #
-1 16:1 #
-1 16:1 #
2.3500000000000000888178419700125 16:1 #
-1 16:1 #
-1 16:1 #
2.3500000000000000888178419700125 16:1 #
-1 16:1 #
-1 16:1 #
-1 16:1 #
2.3500000000000000888178419700125 16:1 #
-1 16:1 #
-1 16:1 #
2.3500000000000000888178419700125 16:1 #
-1 16:1 #
-1 16:1 #
2.3500000000000000888178419700125 16:1 #
-1 16:1 #
-1 16:1 #
-1 16:1 #
2.3500000000000000888178419700125 16:1 #
-1 16:1 #
-1 16:1 #
2.3500000000000000888178419700125 16:1 #
-1 16:1 #
-1 16:1 #
2.3500000000000000888178419700125 16:1 #
-1 16:1 #
-1 16:1 #
-1 16:1 #
2.3500000000000000888178419700125 16:1 #
-1 16:1 #
-1 16:1 #
2.3500000000000000888178419700125 16:1 #
-1 16:1 #
-1 16:1 #
-1 16:1 #
2.3500000000000000888178419700125 16:1 #
-1 16:1 #
-1 16:1 #
2.3500000000000000888178419700125 16:1 #
-1 16:1 #
-1 16:1 #
2.3500000000000000888178419700125 16:1 #
-1 16:1 #
-1 16:1 #
-1 16:1 #
2.3500000000000000888178419700125 16:1 #
-1 16:1 #
-1 16:1 #
2.3500000000000000888178419700125 16:1 #
-1 16:1 #
-1 16:1 #
2.3500000000000000888178419700125 16:1 #
-1 16:1 #
-1 16:1 #
-1 16:1 #
2.3500000000000000888178419700125 16:1 #
-1 16:1 #
-1 16:1 #
2.3500000000000000888178419700125 16:1 #
-1 16:1 #
-1 16:1 #
2.3500000000000000888178419700125 16:1 #
-1 16:1 #
-1 16:1 #
-1 16:1 #
2.3500000000000000888178419700125 16:1 #
-1 16:1 #
-1 1:1 #
-1 16:1 #
2.3500000000000000888178419700125 16:1 #
-1 16:1 #
-1 16:1 #
2.3500000000000000888178419700125 16:1 #
-1 16:1 #
-1 16:1 #
2.3500000000000000888178419700125 16:1 #
-1 16:1 #
-1 16:1 #
-1 16:1 #
2.3500000000000000888178419700125 16:1 #
-1 16:1 #
-1 16:1 #
2.3500000000000000888178419700125 16:1 #
-1 16:1 #
-1 16:1 #
2.3500000000000000888178419700125 16:1 #
-1 16:1 #
-1 16:1 #
-1 16:1 #
2.3500000000000000888178419700125 16:1 #
-1 16:1 #
-1 16:1 #
2.3500000000000000888178419700125 16:1 #
-1 16:1 #
-1 16:1 #
2.3500000000000000888178419700125 16:1 #
-1 16:1 #
-1 16:1 #
-1 16:1 #
2.3500000000000000888178419700125 16:1 #
-1 16:1 #
-1 16:1 #
2.3500000000000000888178419700125 16:1 #
-1 16:1 #
-1 16:1 #
-1 16:1 #
2.3500000000000000888178419700125 16:1 #
-1 16:1 #
-1 16:1 #
2.3500000000000000888178419700125 16:1 #
-1 16:1 #
-1 16:1 #
2.3500000000000000888178419700125 16:1 #
-1 16:1 #
-1 16:1 #
-1 16:1 #
2.3500000000000000888178419700125 16:1 #
-1 16:1 #
-1 16:1 #
2.3500000000000000888178419700125 16:1 #
-1 16:1 #
-1 16:1 #
2.3500000000000000888178419700125 16:1 #
-1 16:1 #
-1 16:1 #
-1 16:1 #
2.3500000000000000888178419700125 16:1 #
-1 16:1 #
-1 16:1 #
2.3500000000000000888178419700125 16:1 #
-1 16:1 #
-1 16:1 #
2.3500000000000000888178419700125 16:1 #
-1 16:1 #
-1 16:1 #
-1 16:1 #
2.3500000000000000888178419700125 16:1 #
-1 16:1 #
-1 16:1 #
2.3500000000000000888178419700125 16:1 #
-1 16:1 #
-1 16:1 #
2.3500000000000000888178419700125 16:1 #
-1 16:1 #
-1 16:1 #
-1 16:1 #
2.3500000000000000888178419700125 16:1 #
-1 16:1 #
-1 16:1 #
2.3500000000000000888178419700125 16:1 #
-1 16:1 #
-1 16:1 #
2.3500000000000000888178419700125 16:1 #
-1 16:1 #
-1 16:1 #
-1 16:1 #
2.3500000000000000888178419700125 16:1 #
-1 16:1 #
-1 16:1 #
2.3500000000000000888178419700125 16:1 #
-1 16:1 #
-1 16:1 #
2.3500000000000000888178419700125 16:1 #
-1 16:1 #
-1 16:1 #
-1 16:1 #
2.3500000000000000888178419700125 16:1 #
-1 16:1 #
-1 16:1 #
2.3500000000000000888178419700125 16:1 #
-1 16:1 #
-1 12:1 #
-1 1:1 #
2.3500000000000000888178419700125 16:1 #
-1 16:1 #
-1 16:1 #
-1 16:1 #
2.3500000000000000888178419700125 16:1 #
-1 16:1 #
-1 16:1 #
2.3500000000000000888178419700125 16:1 #
-1 16:1 #
-1 16:1 #
2.3500000000000000888178419700125 16:1 #
-1 16:1 #
-1 16:1 #
-1 16:1 #
2.3500000000000000888178419700125 16:1 #
-1 16:1 #
-1 16:1 #
2.3500000000000000888178419700125 16:1 #
-1 16:1 #
-1 16:1 #
2.3500000000000000888178419700125 16:1 #
-1 16:1 #
-1 16:1 #
-1 16:1 #
2.3500000000000000888178419700125 16:1 #
-1 16:1 #
-1 16:1 #
2.3500000000000000888178419700125 16:1 #
-1 16:1 #
-1 16:1 #
2.3500000000000000888178419700125 16:1 #
-1 16:1 #
-1 16:1 #
-1 16:1 #
2.3500000000000000888178419700125 16:1 #
-1 16:1 #
-1 16:1 #
2.3500000000000000888178419700125 16:1 #
-1 16:1 #
-1 16:1 #
2.3500000000000000888178419700125 16:1 #
-1 16:1 #
-1 16:1 #
-1 16:1 #
2.3500000000000000888178419700125 16:1 #
-1 16:1 #
-1 16:1 #
2.3500000000000000888178419700125 16:1 #
-1 16:1 #
-1 16:1 #
2.3500000000000000888178419700125 16:1 #
-1 16:1 #
-1 16:1 #
-1 16:1 #
2.3500000000000000888178419700125 16:1 #
-1 16:1 #
-1 16:1 #
2.3500000000000000888178419700125 16:1 #
-1 16:1 #
-1 16:1 #
2.3500000000000000888178419700125 16:1 #
-1 16:1 #
-1 16:1 #
-1 16:1 #
2.3500000000000000888178419700125 16:1 #
-1 16:1 #
-1 16:1 #
2.3500000000000000888178419700125 16:1 #
-1 16:1 #
-1 16:1 #
-1 16:1 #
-1 6:1 #
2.3500000000000000888178419700125 1:1 #
-1 15:1 #
2.3500000000000000888178419700125 12:1 #
-1 10:1 #
2.3500000000000000888178419700125 16:1 #
-1 19:1 #
-1 9:1 #
2.3500000000000000888178419700125 3:1 #
2.3500000000000000888178419700125 14:1 #
-1 16:1 #
-1 19:1 #
-1 15:1 #
-1 19:1 #
-1 6:1 #
-1 10:1 #
-1 9:1 #
-1 16:1 #
-1 12:1 #
-1 1:1 #
-1 3:1 #
2.3500000000000000888178419700125 1:1 #
-1 14:1 #
2.3500000000000000888178419700125 19:1 #
2.3500000000000000888178419700125 16:1 #
-1 3:1 #
2.3500000000000000888178419700125 6:1 #
-1 14:1 #
-1 1:1 #
2.3500000000000000888178419700125 8:1 #
2.3500000000000000888178419700125 20:1 #
-1 9:1 #
-1 1:1 #
2.3500000000000000888178419700125 9:1 #
-1 3:1 #
-1 10:1 #
-1 9:1 #
2.3500000000000000888178419700125 9:1 #
-1 9:1 #
-1 9:1 #
-1 14:1 #
-1 9:1 #
-1 12:1 #
2.3500000000000000888178419700125 9:1 #
-1 9:1 #
-1 15:1 #
-1 9:1 #
2.3500000000000000888178419700125 9:1 #
-1 9:1 #
-1 9:1 #
2.3500000000000000888178419700125 9:1 #
-1 9:1 #
-1 9:1 #
2.3500000000000000888178419700125 9:1 #
-1 9:1 #
-1 9:1 #
-1 9:1 #
-1 9:1 #
-1 19:1 #
2.3500000000000000888178419700125 15:1 #
-1 6:1 #
2.3500000000000000888178419700125 12:1 #
-1 8:1 #
2.3500000000000000888178419700125 14:1 #
-1 20:1 #
2.3500000000000000888178419700125 9:1 #
-1 16:1 #
2.3500000000000000888178419700125 10:1 #
-1 5:1 #
2.3500000000000000888178419700125 3:1 #
-1 9:1 #
2.3500000000000000888178419700125 1:1 #
-1 19:1 #
-1 6:1 #
-1 8:1 #
2.3500000000000000888178419700125 2:1 #
-1 20:1 #
-1 9:1 #
2.3500000000000000888178419700125 17:1 #
-1 20:1 #
2.3500000000000000888178419700125 18:1 #
-1 8:1 #
-1 16:1 #
-1 6:1 #
-1 15:1 #
2.3500000000000000888178419700125 6:1 #
-1 2:1 #
2.3500000000000000888178419700125 5:1 #
-1 10:1 #
2.3500000000000000888178419700125 8:1 #
2.3500000000000000888178419700125 20:1 #
-1 3:1 #
2.3500000000000000888178419700125 19:1 #
-1 19:1 #
2.3500000000000000888178419700125 9:1 #
-1 9:1 #
-1 19:1 #
-1 9:1 #
-1 18:1 #
2.3500000000000000888178419700125 16:1 #
-1 16:1 #
-1 18:1 #
-1 16:1 #
-1 12:1 #
-1 1:1 #
-1 18:1 #
-1 17:1 #
-1 5:1 #
2.3500000000000000888178419700125 1:1 #
-1 1:1 #
-1 5:1 #
2.3500000000000000888178419700125 19:1 #
-1 19:1 #
2.3500000000000000888178419700125 5:1 #
-1 5:1 #
-1 19:1 #
-1 5:1 #
-1 19:1 #
2.3500000000000000888178419700125 19:1 #
-1 1:1 #
-1 14:1 #
2.3500000000000000888178419700125 18:1 #
-1 18:1 #
-1 2:1 #
-1 14:1 #
-1 18:1 #
2.3500000000000000888178419700125 18:1 #
-1 2:1 #
2.3500000000000000888178419700125 5:1 #
-1 5:1 #
2.3500000000000000888178419700125 2:1 #
-1 2:1 #
-1 5:1 #
-1 2:1 #
2.3500000000000000888178419700125 9:1 #
-1 9:1 #
-1 5:1 #
2.3500000000000000888178419700125 2:1 #
-1 2:1 #
-1 18:1 #
-1 2:1 #
-1 18:1 #
2.3500000000000000888178419700125 2:1 #
-1 2:1 #
2.3500000000000000888178419700125 18:1 #
-1 18:1 #
-1 2:1 #
-1 18:1 #
-1 2:1 #
2.3500000000000000888178419700125 2:1 #
-1 18:1 #
2.3500000000000000888178419700125 18:1 #
-1 2:1 #
-1 18:1 #
-1 2:1 #
-1 3:1 #
-1 18:1 #
-1 15:1 #
-1 18:1 #
2.3500000000000000888178419700125 9:1 #
2.3500000000000000888178419700125 2:1 #
-1 2:1 #
2.3500000000000000888178419700125 18:1 #
-1 9:1 #
-1 18:1 #
-1 9:1 #
-1 18:1 #
-1 9:1 #
2.3500000000000000888178419700125 9:1 #
-1 17:1 #
2.3500000000000000888178419700125 18:1 #
-1 18:1 #
-1 18:1 #
-1 8:1 #
-1 9:1 #
-1 20:1 #
-1 9:1 #
2.3500000000000000888178419700125 2:1 #
-1 6:1 #
2.3500000000000000888178419700125 9:1 #
-1 9:1 #
-1 19:1 #
-1 2:1 #
-1 9:1 #
-1 8:1 #
2.3500000000000000888178419700125 9:1 #
-1 9:1 #
-1 2:1 #
-1 9:1 #
-1 2:1 #
-1 19:1 #
2.3500000000000000888178419700125 2:1 #
-1 2:1 #
2.3500000000000000888178419700125 18:1 #
-1 18:1 #
-1 2:1 #
-1 18:1 #
2.3500000000000000888178419700125 2:1 #
-1 2:1 #
-1 9:1 #
-1 18:1 #
-1 2:1 #
2.3500000000000000888178419700125 18:1 #
-1 18:1 #
-1 2:1 #
2.3500000000000000888178419700125 2:1 #
-1 18:1 #
-1 2:1 #
2.3500000000000000888178419700125 18:1 #
-1 18:1 #
-1 2:1 #
2.3500000000000000888178419700125 2:1 #
-1 18:1 #
-1 2:1 #
-1 20:1 #
2.3500000000000000888178419700125 18:1 #
-1 18:1 #
-1 2:1 #
-1 18:1 #
2.3500000000000000888178419700125 2:1 #
-1 2:1 #
2.3500000000000000888178419700125 18:1 #
-1 18:1 #
-1 2:1 #
-1 18:1 #
2.3500000000000000888178419700125 2:1 #
-1 2:1 #
-1 18:1 #
2.3500000000000000888178419700125 18:1 #
-1 2:1 #
-1 18:1 #
-1 2:1 #
2.3500000000000000888178419700125 2:1 #
-1 18:1 #
-1 2:1 #
2.3500000000000000888178419700125 18:1 #
-1 18:1 #
-1 2:1 #
-1 18:1 #
2.3500000000000000888178419700125 2:1 #
-1 2:1 #
-1 2:1 #
2.3500000000000000888178419700125 2:1 #
-1 2:1 #
-1 2:1 #
2.3500000000000000888178419700125 2:1 #
-1 2:1 #
2.3500000000000000888178419700125 5:1 #
-1 2:1 #
2.3500000000000000888178419700125 20:1 #
2.3500000000000000888178419700125 8:1 #
-1 2:1 #
2.3500000000000000888178419700125 15:1 #
-1 2:1 #
2.3500000000000000888178419700125 14:1 #
-1 2:1 #
2.3500000000000000888178419700125 2:1 #
-1 2:1 #
-1 2:1 #
2.3500000000000000888178419700125 2:1 #
-1 6:1 #
-1 16:1 #
2.3500000000000000888178419700125 3:1 #
-1 3:1 #
-1 2:1 #
2.3500000000000000888178419700125 3:1 #
-1 3:1 #
-1 9:1 #
-1 3:1 #
-1 2:1 #
-1 5:1 #
2.3500000000000000888178419700125 3:1 #
-1 3:1 #
2.3500000000000000888178419700125 2:1 #
-1 15:1 #
-1 14:1 #
-1 3:1 #
-1 3:1 #
-1 14:1 #
2.3500000000000000888178419700125 3:1 #
-1 3:1 #
-1 3:1 #
-1 2:1 #
2.3500000000000000888178419700125 3:1 #
-1 3:1 #
-1 2:1 #
2.3500000000000000888178419700125 2:1 #
-1 3:1 #
-1 2:1 #
-1 5:1 #
2.3500000000000000888178419700125 3:1 #
-1 3:1 #
-1 2:1 #
-1 3:1 #
-1 8:1 #
2.3500000000000000888178419700125 2:1 #
-1 2:1 #
-1 20:1 #
-1 2:1 #
-1 20:1 #
-1 2:1 #
2.3500000000000000888178419700125 3:1 #
-1 3:1 #
2.3500000000000000888178419700125 2:1 #
-1 8:1 #
-1 3:1 #
-1 2:1 #
-1 3:1 #
2.3500000000000000888178419700125 3:1 #
-1 2:1 #
2.3500000000000000888178419700125 2:1 #
-1 3:1 #
-1 2:1 #
-1 3:1 #
-1 2:1 #
2.3500000000000000888178419700125 3:1 #
2.3500000000000000888178419700125 2:1 #
-1 3:1 #
-1 2:1 #
-1 3:1 #
-1 2:1 #
2.3500000000000000888178419700125 3:1 #
-1 3:1 #
2.3500000000000000888178419700125 2:1 #
-1 2:1 #
-1 3:1 #
-1 2:1 #
-1 3:1 #
2.3500000000000000888178419700125 3:1 #
-1 2:1 #
2.3500000000000000888178419700125 2:1 #
-1 3:1 #
-1 2:1 #
-1 3:1 #
-1 2:1 #
2.3500000000000000888178419700125 3:1 #
2.3500000000000000888178419700125 2:1 #
-1 3:1 #
-1 2:1 #
-1 3:1 #
-1 2:1 #
2.3500000000000000888178419700125 3:1 #
-1 3:1 #
2.3500000000000000888178419700125 2:1 #
-1 2:1 #
-1 3:1 #
-1 2:1 #
-1 3:1 #
2.3500000000000000888178419700125 3:1 #
-1 2:1 #
2.3500000000000000888178419700125 2:1 #
-1 3:1 #
-1 2:1 #
-1 3:1 #
-1 2:1 #
2.3500000000000000888178419700125 3:1 #
2.3500000000000000888178419700125 2:1 #
-1 3:1 #
-1 2:1 #
-1 3:1 #
-1 2:1 #
2.3500000000000000888178419700125 3:1 #
-1 3:1 #
2.3500000000000000888178419700125 2:1 #
-1 2:1 #
-1 3:1 #
-1 2:1 #
-1 20:1 #
-1 14:1 #
-1 15:1 #
-1 2:1 #
2.3500000000000000888178419700125 2:1 #
-1 3:1 #
2.3500000000000000888178419700125 3:1 #
-1 2:1 #
-1 3:1 #
2.3500000000000000888178419700125 2:1 #
-1 2:1 #
-1 3:1 #
-1 2:1 #
2.3500000000000000888178419700125 3:1 #
-1 3:1 #
-1 2:1 #
2.3500000000000000888178419700125 2:1 #
-1 3:1 #
-1 2:1 #
-1 3:1 #
2.3500000000000000888178419700125 3:1 #
-1 2:1 #
-1 3:1 #
2.3500000000000000888178419700125 2:1 #
-1 2:1 #
-1 3:1 #
2.3500000000000000888178419700125 3:1 #
-1 2:1 #
-1 3:1 #
2.3500000000000000888178419700125 2:1 #
-1 2:1 #
-1 3:1 #
-1 2:1 #
2.3500000000000000888178419700125 3:1 #
-1 3:1 #
-1 2:1 #
2.3500000000000000888178419700125 2:1 #
-1 3:1 #
-1 2:1 #
-1 3:1 #
2.3500000000000000888178419700125 3:1 #
-1 2:1 #
-1 3:1 #
2.3500000000000000888178419700125 2:1 #
-1 2:1 #
-1 3:1 #
-1 2:1 #
2.3500000000000000888178419700125 3:1 #
-1 3:1 #
2.3500000000000000888178419700125 2:1 #
-1 2:1 #
-1 3:1 #
-1 2:1 #
2.3500000000000000888178419700125 3:1 #
-1 3:1 #
-1 2:1 #
2.3500000000000000888178419700125 2:1 #
-1 3:1 #
-1 2:1 #
-1 3:1 #
2.3500000000000000888178419700125 3:1 #
-1 2:1 #
-1 3:1 #
2.3500000000000000888178419700125 2:1 #
-1 2:1 #
-1 3:1 #
-1 2:1 #
2.3500000000000000888178419700125 3:1 #
-1 3:1 #
-1 2:1 #
2.3500000000000000888178419700125 2:1 #
-1 3:1 #
-1 2:1 #
2.3500000000000000888178419700125 3:1 #
-1 3:1 #
-1 2:1 #
2.3500000000000000888178419700125 2:1 #
-1 3:1 #
-1 2:1 #
-1 3:1 #
2.3500000000000000888178419700125 3:1 #
-1 2:1 #
-1 3:1 #
2.3500000000000000888178419700125 2:1 #
-1 2:1 #
-1 3:1 #
-1 2:1 #
2.3500000000000000888178419700125 3:1 #
-1 3:1 #
-1 2:1 #
2.3500000000000000888178419700125 2:1 #
-1 3:1 #
-1 2:1 #
-1 3:1 #
2.3500000000000000888178419700125 3:1 #
-1 2:1 #
2.3500000000000000888178419700125 2:1 #
-1 3:1 #
-1 2:1 #
-1 3:1 #
2.3500000000000000888178419700125 3:1 #
-1 2:1 #
-1 3:1 #
2.3500000000000000888178419700125 2:1 #
-1 2:1 #
-1 3:1 #
-1 3:1 #
-1 2:1 #
2.3500000000000000888178419700125 3:1 #
-1 3:1 #
-1 2:1 #
2.3500000000000000888178419700125 2:1 #
-1 3:1 #
-1 2:1 #
2.3500000000000000888178419700125 3:1 #
-1 3:1 #
-1 2:1 #
-1 3:1 #
2.3500000000000000888178419700125 2:1 #
-1 2:1 #
-1 3:1 #
2.3500000000000000888178419700125 3:1 #
-1 2:1 #
-1 2:1 #
2.3500000000000000888178419700125 2:1 #
-1 2:1 #
-1 2:1 #
2.3500000000000000888178419700125 2:1 #
-1 2:1 #
-1 2:1 #
-1 2:1 #
-1 3:1 #
2.3500000000000000888178419700125 6:1 #
-1 3:1 #
2.3500000000000000888178419700125 19:1 #
2.3500000000000000888178419700125 5:1 #
-1 2:1 #
2.3500000000000000888178419700125 9:1 #
-1 3:1 #
2.3500000000000000888178419700125 2:1 #
-1 2:1 #
2.3500000000000000888178419700125 14:1 #
-1 2:1 #
2.3500000000000000888178419700125 15:1 #
2.3500000000000000888178419700125 2:1 #
-1 2:1 #
2.3500000000000000888178419700125 16:1 #
-1 2:1 #
2.3500000000000000888178419700125 20:1 #
-1 3:1 #
-1 2:1 #
-1 2:1 #
2.3500000000000000888178419700125 2:1 #
-1 2:1 #
-1 2:1 #
2.3500000000000000888178419700125 2:1 #
-1 2:1 #
-1 2:1 #
2.3500000000000000888178419700125 2:1 #
-1 2:1 #
-1 2:1 #
-1 2:1 #
2.3500000000000000888178419700125 2:1 #
-1 2:1 #
-1 2:1 #
2.3500000000000000888178419700125 2:1 #
-1 2:1 #
-1 2:1 #
2.3500000000000000888178419700125 2:1 #
-1 2:1 #
-1 2:1 #
-1 2:1 #
2.3500000000000000888178419700125 2:1 #
-1 2:1 #
-1 2:1 #
2.3500000000000000888178419700125 2:1 #
-1 2:1 #
-1 2:1 #
2.3500000000000000888178419700125 2:1 #
-1 2:1 #
-1 2:1 #
-1 2:1 #
2.3500000000000000888178419700125 2:1 #
-1 2:1 #
-1 2:1 #
2.3500000000000000888178419700125 2:1 #
-1 2:1 #
-1 2:1 #
2.3500000000000000888178419700125 2:1 #
-1 2:1 #
-1 2:1 #
-1 2:1 #
2.3500000000000000888178419700125 2:1 #
-1 2:1 #
-1 2:1 #
2.3500000000000000888178419700125 2:1 #
-1 2:1 #
-1 2:1 #
2.3500000000000000888178419700125 2:1 #
-1 2:1 #
-1 2:1 #
-1 2:1 #
2.3500000000000000888178419700125 2:1 #
-1 2:1 #
-1 2:1 #
2.3500000000000000888178419700125 2:1 #
-1 2:1 #
-1 2:1 #
2.3500000000000000888178419700125 2:1 #
-1 2:1 #
-1 2:1 #
-1 2:1 #
2.3500000000000000888178419700125 2:1 #
-1 3:1 #
-1 2:1 #
2.3500000000000000888178419700125 2:1 #
-1 2:1 #
-1 2:1 #
2.3500000000000000888178419700125 2:1 #
-1 2:1 #
-1 2:1 #
-1 2:1 #
2.3500000000000000888178419700125 2:1 #
-1 2:1 #
-1 2:1 #
2.3500000000000000888178419700125 2:1 #
-1 2:1 #
-1 2:1 #
2.3500000000000000888178419700125 2:1 #
-1 2:1 #
-1 2:1 #
-1 2:1 #
2.3500000000000000888178419700125 2:1 #
-1 2:1 #
-1 2:1 #
2.3500000000000000888178419700125 2:1 #
-1 2:1 #
-1 2:1 #
2.3500000000000000888178419700125 2:1 #
-1 2:1 #
-1 2:1 #
-1 2:1 #
2.3500000000000000888178419700125 2:1 #
-1 2:1 #
-1 2:1 #
2.3500000000000000888178419700125 2:1 #
-1 2:1 #
-1 2:1 #
2.3500000000000000888178419700125 2:1 #
-1 2:1 #
-1 2:1 #
-1 2:1 #
2.3500000000000000888178419700125 2:1 #
-1 2:1 #
-1 2:1 #
2.3500000000000000888178419700125 2:1 #
-1 2:1 #
-1 2:1 #
2.3500000000000000888178419700125 2:1 #
-1 2:1 #
-1 2:1 #
-1 2:1 #
2.3500000000000000888178419700125 2:1 #
-1 2:1 #
-1 2:1 #
2.3500000000000000888178419700125 2:1 #
-1 2:1 #
-1 2:1 #
2.3500000000000000888178419700125 2:1 #
-1 2:1 #
-1 2:1 #
-1 2:1 #
2.3500000000000000888178419700125 2:1 #
-1 2:1 #
-1 2:1 #
2.3500000000000000888178419700125 2:1 #
-1 2:1 #
-1 2:1 #
2.3500000000000000888178419700125 2:1 #
-1 2:1 #
-1 2:1 #
-1 2:1 #
2.3500000000000000888178419700125 2:1 #
-1 2:1 #
-1 2:1 #
2.3500000000000000888178419700125 2:1 #
-1 2:1 #
-1 2:1 #
-1 2:1 #
2.3500000000000000888178419700125 2:1 #
-1 2:1 #
-1 2:1 #
2.3500000000000000888178419700125 2:1 #
-1 2:1 #
-1 2:1 #
2.3500000000000000888178419700125 2:1 #
-1 2:1 #
-1 2:1 #
-1 2:1 #
2.3500000000000000888178419700125 2:1 #
-1 2:1 #
-1 2:1 #
2.3500000000000000888178419700125 2:1 #
-1 2:1 #
-1 2:1 #
2.3500000000000000888178419700125 2:1 #
-1 2:1 #
-1 2:1 #
-1 2:1 #
2.3500000000000000888178419700125 2:1 #
-1 2:1 #
-1 2:1 #
2.3500000000000000888178419700125 2:1 #
-1 2:1 #
-1 2:1 #
2.3500000000000000888178419700125 2:1 #
-1 2:1 #
-1 2:1 #
-1 2:1 #
-1 2:1 #
2.3500000000000000888178419700125 2:1 #
-1 2:1 #
-1 2:1 #
2.3500000000000000888178419700125 2:1 #
-1 2:1 #
-1 2:1 #
2.3500000000000000888178419700125 2:1 #
-1 2:1 #
-1 2:1 #
-1 2:1 #
2.3500000000000000888178419700125 2:1 #
-1 2:1 #
-1 2:1 #
2.3500000000000000888178419700125 2:1 #
-1 2:1 #
-1 2:1 #
2.3500000000000000888178419700125 2:1 #
-1 2:1 #
-1 2:1 #
-1 2:1 #
2.3500000000000000888178419700125 2:1 #
-1 2:1 #
-1 2:1 #
2.3500000000000000888178419700125 2:1 #
-1 2:1 #
-1 2:1 #
2.3500000000000000888178419700125 2:1 #
-1 2:1 #
-1 2:1 #
-1 2:1 #
2.3500000000000000888178419700125 2:1 #
-1 2:1 #
-1 2:1 #
2.3500000000000000888178419700125 2:1 #
-1 2:1 #
-1 2:1 #
-1 2:1 #
2.3500000000000000888178419700125 2:1 #
-1 2:1 #
-1 2:1 #
2.3500000000000000888178419700125 2:1 #
-1 2:1 #
-1 2:1 #
2.3500000000000000888178419700125 2:1 #
-1 2:1 #
-1 2:1 #
-1 2:1 #
2.3500000000000000888178419700125 2:1 #
-1 2:1 #
-1 2:1 #
2.3500000000000000888178419700125 2:1 #
-1 2:1 #
-1 2:1 #
2.3500000000000000888178419700125 2:1 #
-1 2:1 #
-1 2:1 #
-1 2:1 #
2.3500000000000000888178419700125 2:1 #
-1 2:1 #
-1 2:1 #
2.3500000000000000888178419700125 2:1 #
-1 2:1 #
-1 2:1 #
2.3500000000000000888178419700125 2:1 #
-1 2:1 #
-1 2:1 #
-1 2:1 #
2.3500000000000000888178419700125 2:1 #
-1 2:1 #
-1 2:1 #
2.3500000000000000888178419700125 2:1 #
-1 2:1 #
-1 2:1 #
2.3500000000000000888178419700125 2:1 #
-1 2:1 #
-1 2:1 #
-1 2:1 #
2.3500000000000000888178419700125 2:1 #
-1 2:1 #
-1 2:1 #
2.3500000000000000888178419700125 2:1 #
-1 2:1 #
-1 2:1 #
2.3500000000000000888178419700125 2:1 #
-1 2:1 #
-1 2:1 #
-1 2:1 #
2.3500000000000000888178419700125 2:1 #
-1 2:1 #
-1 2:1 #
2.3500000000000000888178419700125 2:1 #
-1 2:1 #
-1 2:1 #
2.3500000000000000888178419700125 2:1 #
-1 2:1 #
-1 2:1 #
-1 2:1 #
-1 2:1 #
2.3500000000000000888178419700125 2:1 #
2.3500000000000000888178419700125 2:1 #
-1 2:1 #
-1 2:1 #
2.3500000000000000888178419700125 2:1 #
-1 2:1 #
-1 2:1 #
-1 2:1 #
2.3500000000000000888178419700125 2:1 #
-1 2:1 #
-1 2:1 #
2.3500000000000000888178419700125 2:1 #
-1 2:1 #
-1 2:1 #
2.3500000000000000888178419700125 2:1 #
-1 2:1 #
-1 2:1 #
-1 2:1 #
2.3500000000000000888178419700125 2:1 #
-1 2:1 #
-1 2:1 #
2.3500000000000000888178419700125 2:1 #
-1 2:1 #
-1 2:1 #
2.3500000000000000888178419700125 2:1 #
-1 2:1 #
-1 2:1 #
-1 2:1 #
2.3500000000000000888178419700125 2:1 #
-1 2:1 #
-1 2:1 #
2.3500000000000000888178419700125 2:1 #
-1 2:1 #
-1 2:1 #
2.3500000000000000888178419700125 2:1 #
-1 2:1 #
-1 2:1 #
-1 2:1 #
2.3500000000000000888178419700125 2:1 #
-1 2:1 #
-1 2:1 #
2.3500000000000000888178419700125 2:1 #
-1 2:1 #
-1 2:1 #
2.3500000000000000888178419700125 2:1 #
-1 2:1 #
-1 2:1 #
-1 2:1 #
2.3500000000000000888178419700125 2:1 #
-1 2:1 #
-1 2:1 #
2.3500000000000000888178419700125 2:1 #
-1 2:1 #
-1 2:1 #
2.3500000000000000888178419700125 2:1 #
-1 2:1 #
-1 2:1 #
-1 2:1 #
2.3500000000000000888178419700125 2:1 #
-1 2:1 #
-1 2:1 #
2.3500000000000000888178419700125 2:1 #
-1 2:1 #
-1 2:1 #
2.3500000000000000888178419700125 2:1 #
-1 2:1 #
-1 2:1 #
-1 2:1 #
2.3500000000000000888178419700125 2:1 #
-1 2:1 #
-1 2:1 #
2.3500000000000000888178419700125 2:1 #
-1 2:1 #
-1 2:1 #
-1 2:1 #
2.3500000000000000888178419700125 2:1 #
-1 2:1 #
-1 2:1 #
2.3500000000000000888178419700125 2:1 #
-1 2:1 #
-1 2:1 #
2.3500000000000000888178419700125 2:1 #
-1 2:1 #
-1 2:1 #
-1 2:1 #
2.3500000000000000888178419700125 2:1 #
-1 2:1 #
-1 2:1 #
2.3500000000000000888178419700125 2:1 #
-1 2:1 #
-1 2:1 #
2.3500000000000000888178419700125 2:1 #
-1 2:1 #
-1 2:1 #
-1 2:1 #
2.3500000000000000888178419700125 2:1 #
-1 2:1 #
-1 2:1 #
2.3500000000000000888178419700125 2:1 #
-1 2:1 #
-1 2:1 #
-1 2:1 #
2.3500000000000000888178419700125 2:1 #
-1 2:1 #
-1 2:1 #
-1 2:1 #
2.3500000000000000888178419700125 2:1 #
-1 2:1 #
-1 2:1 #
2.3500000000000000888178419700125 2:1 #
-1 2:1 #
-1 2:1 #
2.3500000000000000888178419700125 2:1 #
-1 2:1 #
-1 2:1 #
-1 2:1 #
2.3500000000000000888178419700125 2:1 #
-1 2:1 #
-1 2:1 #
2.3500000000000000888178419700125 2:1 #
-1 2:1 #
-1 2:1 #
2.3500000000000000888178419700125 2:1 #
-1 2:1 #
-1 2:1 #
-1 2:1 #
2.3500000000000000888178419700125 2:1 #
-1 2:1 #
-1 2:1 #
2.3500000000000000888178419700125 2:1 #
-1 2:1 #
-1 2:1 #
2.3500000000000000888178419700125 2:1 #
-1 2:1 #
-1 2:1 #
-1 2:1 #
2.3500000000000000888178419700125 2:1 #
-1 2:1 #
-1 2:1 #
2.3500000000000000888178419700125 2:1 #
-1 2:1 #
-1 2:1 #
-1 2:1 #
2.3500000000000000888178419700125 2:1 #
-1 2:1 #
-1 2:1 #
2.3500000000000000888178419700125 2:1 #
-1 2:1 #
-1 2:1 #
2.3500000000000000888178419700125 2:1 #
-1 2:1 #
-1 2:1 #
-1 2:1 #
2.3500000000000000888178419700125 2:1 #
-1 2:1 #
-1 2:1 #
2.3500000000000000888178419700125 2:1 #
-1 2:1 #
-1 2:1 #
2.3500000000000000888178419700125 2:1 #
-1 2:1 #
-1 2:1 #
-1 2:1 #
2.3500000000000000888178419700125 2:1 #
-1 2:1 #
-1 2:1 #
2.3500000000000000888178419700125 2:1 #
-1 2:1 #
-1 2:1 #
2.3500000000000000888178419700125 2:1 #
-1 2:1 #
-1 2:1 #
-1 2:1 #
2.3500000000000000888178419700125 2:1 #
-1 2:1 #
-1 2:1 #
2.3500000000000000888178419700125 2:1 #
-1 2:1 #
-1 2:1 #
2.3500000000000000888178419700125 2:1 #
-1 2:1 #
-1 2:1 #
-1 2:1 #
2.3500000000000000888178419700125 2:1 #
-1 2:1 #
-1 2:1 #
2.3500000000000000888178419700125 2:1 #
-1 2:1 #
-1 2:1 #
2.3500000000000000888178419700125 2:1 #
-1 2:1 #
-1 2:1 #
-1 2:1 #
2.3500000000000000888178419700125 2:1 #
-1 2:1 #
-1 2:1 #
2.3500000000000000888178419700125 2:1 #
-1 2:1 #
-1 2:1 #
2.3500000000000000888178419700125 2:1 #
-1 2:1 #
-1 2:1 #
-1 2:1 #
-1 2:1 #
2.3500000000000000888178419700125 2:1 #
-1 2:1 #
-1 2:1 #
2.3500000000000000888178419700125 2:1 #
-1 2:1 #
-1 2:1 #
-1 2:1 #
2.3500000000000000888178419700125 2:1 #
-1 2:1 #
