SVM-light Version V6.02
2 # kernel type
3 # kernel parameter -d 
1 # kernel parameter -g 
1 # kernel parameter -s 
1 # kernel parameter -r 
empty# kernel parameter -u 
20 # highest feature index 
90878 # number of training documents 
58798 # number of support vectors plus 1 
0.7998858 # threshold b, each following line is a SV (starting with alpha*y)
-0.38387330228341653981516401472618 14:1 #
-0.69346016507045116217256008894765 9:1 #
-0.33422745198503972519077365177509 4:1 #
-0.79098835343133022668382636766182 16:1 #
-0.43877190903062368576570406730752 17:1 #
1.8588226305636261770359851652756 14:1 #
1.8588226305636261770359851652756 3:1 #
1.8588226305636261770359851652756 17:1 #
-0.79098835343133022668382636766182 17:1 #
1.8588226305636261770359851652756 4:1 #
-0.79098835343133022668382636766182 17:1 #
1.8588226305636261770359851652756 6:1 #
1.8588226305636261770359851652756 20:1 #
-0.79098835343133022668382636766182 3:1 #
-0.79098835343133022668382636766182 17:1 #
-0.0057959569260954968417109967049328 3:1 #
1.8588226305636261770359851652756 17:1 #
-0.79098835343133022668382636766182 4:1 #
-0.79098835343133022668382636766182 14:1 #
-0.79098835343133022668382636766182 17:1 #
-0.79098835343133022668382636766182 17:1 #
-0.79098835343133022668382636766182 14:1 #
1.8588226305636261770359851652756 17:1 #
-0.79098835343133022668382636766182 20:1 #
-0.79098835343133022668382636766182 17:1 #
1.8588226305636261770359851652756 14:1 #
-0.79098835343133022668382636766182 17:1 #
-0.79098835343133022668382636766182 14:1 #
-0.79098835343133022668382636766182 20:1 #
1.8588226305636261770359851652756 20:1 #
-0.79098835343133022668382636766182 4:1 #
1.8588226305636261770359851652756 4:1 #
1.8588226305636261770359851652756 3:1 #
-0.79098835343133022668382636766182 20:1 #
-0.79098835343133022668382636766182 3:1 #
-0.79098835343133022668382636766182 20:1 #
-0.79098835343133022668382636766182 3:1 #
1.8588226305636261770359851652756 20:1 #
-0.79098835343133022668382636766182 20:1 #
-0.79098835343133022668382636766182 4:1 #
-0.79098835343133022668382636766182 20:1 #
-0.79098835343133022668382636766182 4:1 #
-0.50874359725567130929846371145686 20:1 #
-0.79098835343133022668382636766182 6:1 #
-0.79098835343133022668382636766182 17:1 #
1.8588226305636261770359851652756 17:1 #
-0.79098835343133022668382636766182 14:1 #
-0.79098835343133022668382636766182 17:1 #
1.8588226305636261770359851652756 14:1 #
-0.79098835343133022668382636766182 14:1 #
-0.79098835343133022668382636766182 17:1 #
-0.79098835343133022668382636766182 14:1 #
1.8588226305636261770359851652756 17:1 #
-0.79098835343133022668382636766182 17:1 #
-0.79098835343133022668382636766182 14:1 #
1.8588226305636261770359851652756 14:1 #
-0.79098835343133022668382636766182 17:1 #
-0.79098835343133022668382636766182 14:1 #
1.8588226305636261770359851652756 17:1 #
-0.79098835343133022668382636766182 17:1 #
-0.79098835343133022668382636766182 14:1 #
-0.79098835343133022668382636766182 17:1 #
1.8588226305636261770359851652756 14:1 #
-0.79098835343133022668382636766182 14:1 #
-0.79098835343133022668382636766182 17:1 #
1.8588226305636261770359851652756 17:1 #
-0.79098835343133022668382636766182 14:1 #
-0.79098835343133022668382636766182 17:1 #
1.8588226305636261770359851652756 14:1 #
-0.79098835343133022668382636766182 20:1 #
1.8588226305636261770359851652756 20:1 #
-0.79098835343133022668382636766182 14:1 #
-0.79098835343133022668382636766182 20:1 #
-0.79098835343133022668382636766182 14:1 #
-0.79098835343133022668382636766182 20:1 #
-0.79098835343133022668382636766182 14:1 #
1.8588226305636261770359851652756 14:1 #
-0.79098835343133022668382636766182 6:1 #
-0.79098835343133022668382636766182 14:1 #
-0.79098835343133022668382636766182 17:1 #
-0.79098835343133022668382636766182 6:1 #
1.8588226305636261770359851652756 17:1 #
-0.79098835343133022668382636766182 14:1 #
-0.79098835343133022668382636766182 17:1 #
1.8588226305636261770359851652756 14:1 #
-0.79098835343133022668382636766182 14:1 #
-0.79098835343133022668382636766182 17:1 #
-0.79098835343133022668382636766182 14:1 #
1.8588226305636261770359851652756 17:1 #
-0.79098835343133022668382636766182 17:1 #
1.8588226305636261770359851652756 20:1 #
-0.79098835343133022668382636766182 17:1 #
-0.79098835343133022668382636766182 20:1 #
-0.79098835343133022668382636766182 17:1 #
-0.79098835343133022668382636766182 20:1 #
1.8588226305636261770359851652756 17:1 #
1.8588226305636261770359851652756 20:1 #
-0.79098835343133022668382636766182 17:1 #
-0.79098835343133022668382636766182 20:1 #
-0.79098835343133022668382636766182 17:1 #
-0.79098835343133022668382636766182 20:1 #
1.8588226305636261770359851652756 17:1 #
-0.79098835343133022668382636766182 17:1 #
-0.79098835343133022668382636766182 20:1 #
1.8588226305636261770359851652756 20:1 #
-0.79098835343133022668382636766182 17:1 #
-0.79098835343133022668382636766182 20:1 #
1.8588226305636261770359851652756 17:1 #
-0.79098835343133022668382636766182 17:1 #
-0.79098835343133022668382636766182 20:1 #
1.8588226305636261770359851652756 20:1 #
-0.79098835343133022668382636766182 17:1 #
-0.79098835343133022668382636766182 20:1 #
-0.79098835343133022668382636766182 17:1 #
-0.79098835343133022668382636766182 20:1 #
1.8588226305636261770359851652756 17:1 #
-0.79098835343133022668382636766182 3:1 #
-0.79098835343133022668382636766182 17:1 #
-0.79098835343133022668382636766182 4:1 #
1.8588226305636261770359851652756 7:1 #
0.98960257807598517310054830886656 18:1 #
1.8588226305636261770359851652756 20:1 #
-0.79098835343133022668382636766182 20:1 #
1.8588226305636261770359851652756 4:1 #
-0.79098835343133022668382636766182 18:1 #
1.8588226305636261770359851652756 3:1 #
-0.16052374760772641915096414777508 6:1 #
-0.79098835343133022668382636766182 7:1 #
-0.78484652618855965666710972072906 17:1 #
1.8588226305636261770359851652756 6:1 #
-0.79098835343133022668382636766182 4:1 #
1.8588226305636261770359851652756 17:1 #
-0.79098835343133022668382636766182 4:1 #
1.8588226305636261770359851652756 4:1 #
-0.79098835343133022668382636766182 17:1 #
-0.79098835343133022668382636766182 4:1 #
-0.79098835343133022668382636766182 17:1 #
-0.79098835343133022668382636766182 4:1 #
-0.79098835343133022668382636766182 6:1 #
-0.79098835343133022668382636766182 3:1 #
1.8588226305636261770359851652756 6:1 #
-0.79098835343133022668382636766182 3:1 #
-0.79098835343133022668382636766182 6:1 #
1.8588226305636261770359851652756 14:1 #
-0.79098835343133022668382636766182 14:1 #
1.8588226305636261770359851652756 7:1 #
-0.79098835343133022668382636766182 7:1 #
1.8588226305636261770359851652756 7:1 #
-0.79098835343133022668382636766182 14:1 #
-0.79098835343133022668382636766182 7:1 #
-0.79098835343133022668382636766182 14:1 #
1.8588226305636261770359851652756 14:1 #
-0.79098835343133022668382636766182 7:1 #
-0.79098835343133022668382636766182 14:1 #
1.8588226305636261770359851652756 20:1 #
-0.79098835343133022668382636766182 20:1 #
-0.79098835343133022668382636766182 18:1 #
1.8588226305636261770359851652756 18:1 #
-0.79098835343133022668382636766182 14:1 #
1.8588226305636261770359851652756 14:1 #
-0.79098835343133022668382636766182 18:1 #
-0.79098835343133022668382636766182 14:1 #
-0.79098835343133022668382636766182 20:1 #
-0.79098835343133022668382636766182 14:1 #
-0.79098835343133022668382636766182 20:1 #
-0.79098835343133022668382636766182 18:1 #
1.8588226305636261770359851652756 20:1 #
-0.79098835343133022668382636766182 20:1 #
1.8588226305636261770359851652756 14:1 #
-0.79098835343133022668382636766182 14:1 #
-0.79098835343133022668382636766182 6:1 #
-0.79098835343133022668382636766182 14:1 #
1.8588226305636261770359851652756 7:1 #
-0.79098835343133022668382636766182 18:1 #
1.8588226305636261770359851652756 18:1 #
-0.79098835343133022668382636766182 7:1 #
-0.79098835343133022668382636766182 18:1 #
-0.79098835343133022668382636766182 7:1 #
-0.79098835343133022668382636766182 18:1 #
-0.79098835343133022668382636766182 7:1 #
1.8588226305636261770359851652756 7:1 #
1.8588226305636261770359851652756 18:1 #
-0.79098835343133022668382636766182 18:1 #
-0.79098835343133022668382636766182 7:1 #
-0.79098835343133022668382636766182 18:1 #
-0.79098835343133022668382636766182 7:1 #
1.8588226305636261770359851652756 7:1 #
1.8588226305636261770359851652756 18:1 #
-0.79098835343133022668382636766182 18:1 #
-0.79098835343133022668382636766182 7:1 #
-0.79098835343133022668382636766182 18:1 #
-0.79098835343133022668382636766182 7:1 #
-0.79098835343133022668382636766182 18:1 #
-0.79098835343133022668382636766182 17:1 #
1.8588226305636261770359851652756 17:1 #
1.8588226305636261770359851652756 18:1 #
-0.79098835343133022668382636766182 14:1 #
1.8588226305636261770359851652756 14:1 #
-0.79098835343133022668382636766182 17:1 #
-0.79098835343133022668382636766182 18:1 #
-0.79098835343133022668382636766182 17:1 #
-0.79098835343133022668382636766182 14:1 #
1.8588226305636261770359851652756 17:1 #
-0.79098835343133022668382636766182 17:1 #
-0.79098835343133022668382636766182 14:1 #
1.8588226305636261770359851652756 14:1 #
-0.79098835343133022668382636766182 17:1 #
-0.79098835343133022668382636766182 14:1 #
-0.79098835343133022668382636766182 17:1 #
-0.79098835343133022668382636766182 14:1 #
1.8588226305636261770359851652756 17:1 #
-0.79098835343133022668382636766182 17:1 #
1.8588226305636261770359851652756 14:1 #
-0.79098835343133022668382636766182 14:1 #
-0.79098835343133022668382636766182 17:1 #
-0.79098835343133022668382636766182 14:1 #
1.8588226305636261770359851652756 17:1 #
-0.79098835343133022668382636766182 17:1 #
-0.79098835343133022668382636766182 14:1 #
1.8588226305636261770359851652756 14:1 #
-0.79098835343133022668382636766182 17:1 #
-0.79098835343133022668382636766182 14:1 #
1.8588226305636261770359851652756 17:1 #
-0.79098835343133022668382636766182 17:1 #
-0.79098835343133022668382636766182 20:1 #
-0.79098835343133022668382636766182 17:1 #
-0.79098835343133022668382636766182 20:1 #
1.8588226305636261770359851652756 20:1 #
-0.79098835343133022668382636766182 17:1 #
-0.79098835343133022668382636766182 20:1 #
1.8588226305636261770359851652756 17:1 #
-0.79098835343133022668382636766182 17:1 #
-0.79098835343133022668382636766182 20:1 #
-0.79098835343133022668382636766182 16:1 #
-0.79098835343133022668382636766182 10:1 #
-0.79098835343133022668382636766182 2:1 #
-0.79098835343133022668382636766182 19:1 #
1.0546503317143036682068668596912 15:1 #
1.8588226305636261770359851652756 9:1 #
1.8588226305636261770359851652756 1:1 #
-0.79098835343133022668382636766182 15:1 #
-0.79098835343133022668382636766182 17:1 #
1.8588226305636261770359851652756 16:1 #
1.8588226305636261770359851652756 20:1 #
-0.78484652586097380932983469392639 9:1 #
-0.73085316214221940356310369679704 1:1 #
1.8588226305636261770359851652756 2:1 #
-0.79098835343133022668382636766182 20:1 #
-0.42797129863160199292337892984506 13:1 #
-0.79098835343133022668382636766182 16:1 #
1.8588226305636261770359851652756 10:1 #
1.8588226305636261770359851652756 19:1 #
-0.79098835343133022668382636766182 1:1 #
-0.79098835343133022668382636766182 9:1 #
1.8588226305636261770359851652756 16:1 #
-0.79098835343133022668382636766182 20:1 #
-0.79098835343133022668382636766182 15:1 #
1.8588226305636261770359851652756 15:1 #
-0.79098835343133022668382636766182 10:1 #
-0.62430728186750883423883351497352 12:1 #
-0.79098835343133022668382636766182 15:1 #
-0.79098835343133022668382636766182 15:1 #
-0.79098835343133022668382636766182 12:1 #
-0.79098835343133022668382636766182 9:1 #
1.8588226305636261770359851652756 15:1 #
-0.79098835343133022668382636766182 10:1 #
-0.79098835343133022668382636766182 15:1 #
1.8588226305636261770359851652756 19:1 #
1.8588226305636261770359851652756 10:1 #
-0.79098835343133022668382636766182 15:1 #
-0.79098835343133022668382636766182 15:1 #
1.8588226305636261770359851652756 20:1 #
-0.79098835343133022668382636766182 10:1 #
1.8588226305636261770359851652756 15:1 #
-0.79098835343133022668382636766182 20:1 #
-0.79098835343133022668382636766182 20:1 #
-0.79098835343133022668382636766182 10:1 #
1.8588226305636261770359851652756 1:1 #
-0.79098835343133022668382636766182 1:1 #
1.8588226305636261770359851652756 10:1 #
-0.79098835343133022668382636766182 20:1 #
1.8588226305636261770359851652756 20:1 #
-0.79098835343133022668382636766182 10:1 #
-0.79098835343133022668382636766182 1:1 #
-0.79098835343133022668382636766182 10:1 #
-0.79098835343133022668382636766182 1:1 #
-0.79098835343133022668382636766182 10:1 #
1.8588226305636261770359851652756 10:1 #
1.8588226305636261770359851652756 1:1 #
-0.79098835343133022668382636766182 1:1 #
-0.79098835343133022668382636766182 10:1 #
-0.79098835343133022668382636766182 20:1 #
-0.79098835343133022668382636766182 10:1 #
1.8588226305636261770359851652756 10:1 #
-0.79098835343133022668382636766182 20:1 #
-0.79098835343133022668382636766182 10:1 #
1.8588226305636261770359851652756 20:1 #
-0.79098835343133022668382636766182 20:1 #
-0.79098835343133022668382636766182 10:1 #
-0.79098835343133022668382636766182 20:1 #
1.8588226305636261770359851652756 10:1 #
-0.79098835343133022668382636766182 1:1 #
-0.79098835343133022668382636766182 10:1 #
-0.79098835343133022668382636766182 1:1 #
-0.79098835343133022668382636766182 10:1 #
1.8588226305636261770359851652756 1:1 #
-0.79098835343133022668382636766182 1:1 #
-0.79098835343133022668382636766182 10:1 #
1.8588226305636261770359851652756 10:1 #
-0.79098835343133022668382636766182 1:1 #
-0.79098835343133022668382636766182 10:1 #
1.8588226305636261770359851652756 1:1 #
-0.79098835343133022668382636766182 1:1 #
-0.79098835343133022668382636766182 10:1 #
1.8588226305636261770359851652756 10:1 #
-0.79098835343133022668382636766182 1:1 #
-0.79098835343133022668382636766182 10:1 #
1.8588226305636261770359851652756 1:1 #
-0.79098835343133022668382636766182 1:1 #
-0.79098835343133022668382636766182 10:1 #
-0.79098835343133022668382636766182 1:1 #
1.8588226305636261770359851652756 17:1 #
-0.79098835343133022668382636766182 17:1 #
1.8588226305636261770359851652756 20:1 #
-0.79098835343133022668382636766182 19:1 #
-0.79098835343133022668382636766182 20:1 #
-0.79098835343133022668382636766182 19:1 #
-0.79098835343133022668382636766182 20:1 #
1.8588226305636261770359851652756 19:1 #
-0.79098835343133022668382636766182 19:1 #
-0.79098835343133022668382636766182 20:1 #
1.8588226305636261770359851652756 20:1 #
-0.79098835343133022668382636766182 19:1 #
-0.79098835343133022668382636766182 20:1 #
-0.79098835343133022668382636766182 17:1 #
-0.79098835343133022668382636766182 1:1 #
1.8588226305636261770359851652756 1:1 #
-0.79098835343133022668382636766182 17:1 #
1.8588226305636261770359851652756 17:1 #
-0.79098835343133022668382636766182 1:1 #
-0.79098835343133022668382636766182 17:1 #
-0.79098835343133022668382636766182 1:1 #
1.8588226305636261770359851652756 1:1 #
-0.79098835343133022668382636766182 17:1 #
-0.79098835343133022668382636766182 1:1 #
1.8588226305636261770359851652756 17:1 #
-0.79098835343133022668382636766182 17:1 #
-0.79098835343133022668382636766182 1:1 #
-0.79098835343133022668382636766182 17:1 #
1.8588226305636261770359851652756 1:1 #
-0.79098835343133022668382636766182 1:1 #
1.8588226305636261770359851652756 17:1 #
-0.79098835343133022668382636766182 17:1 #
-0.79098835343133022668382636766182 1:1 #
-0.79098835343133022668382636766182 17:1 #
-0.79098835343133022668382636766182 1:1 #
1.8588226305636261770359851652756 1:1 #
-0.79098835343133022668382636766182 17:1 #
1.8588226305636261770359851652756 17:1 #
-0.79098835343133022668382636766182 1:1 #
-0.79098835343133022668382636766182 17:1 #
-0.084892594708464053088192713403259 8:1 #
-0.072000932889959262661605521316233 16:1 #
-0.79098835343133022668382636766182 18:1 #
-0.2111056950954409150433832564886 12:1 #
-0.79098835343133022668382636766182 15:1 #
-0.79098835343133022668382636766182 1:1 #
1.8588226305636261770359851652756 18:1 #
-0.79098835343133022668382636766182 17:1 #
1.8588226305636261770359851652756 12:1 #
1.8588226305636261770359851652756 8:1 #
-0.79098835343133022668382636766182 8:1 #
-0.79098835343133022668382636766182 1:1 #
1.8588226305636261770359851652756 17:1 #
-0.79098835343133022668382636766182 15:1 #
1.8588226305636261770359851652756 1:1 #
-0.79098835343133022668382636766182 17:1 #
-0.79098835343133022668382636766182 17:1 #
-0.79098835343133022668382636766182 15:1 #
-0.79098835343133022668382636766182 1:1 #
1.8355260858186031036609620059608 15:1 #
-0.79098835343133022668382636766182 15:1 #
-0.79098835343133022668382636766182 1:1 #
1.8588226305636261770359851652756 1:1 #
-0.79098835343133022668382636766182 15:1 #
-0.79098835343133022668382636766182 1:1 #
1.8588226305636261770359851652756 15:1 #
-0.79098835343133022668382636766182 15:1 #
-0.79098835343133022668382636766182 1:1 #
-0.79098835343133022668382636766182 15:1 #
1.8588226305636261770359851652756 1:1 #
-0.79098835343133022668382636766182 1:1 #
1.8588226305636261770359851652756 17:1 #
-0.79098835343133022668382636766182 17:1 #
-0.79098835343133022668382636766182 1:1 #
-0.79098835343133022668382636766182 17:1 #
-0.79098835343133022668382636766182 1:1 #
1.8588226305636261770359851652756 1:1 #
-0.79098835343133022668382636766182 17:1 #
-0.79098835343133022668382636766182 1:1 #
1.8588226305636261770359851652756 17:1 #
-0.79098835343133022668382636766182 17:1 #
-0.79098835343133022668382636766182 1:1 #
1.8588226305636261770359851652756 1:1 #
-0.79098835343133022668382636766182 17:1 #
-0.79098835343133022668382636766182 1:1 #
1.8588226305636261770359851652756 17:1 #
-0.79098835343133022668382636766182 17:1 #
-0.79098835343133022668382636766182 1:1 #
-0.79098835343133022668382636766182 17:1 #
1.8588226305636261770359851652756 1:1 #
-0.79098835343133022668382636766182 1:1 #
-0.7862599753546091196909628706635 12:1 #
-0.79098835343133022668382636766182 8:1 #
-0.79098835343133022668382636766182 1:1 #
-0.79098835343133022668382636766182 18:1 #
-0.79098835343133022668382636766182 18:1 #
-0.79098835343133022668382636766182 8:1 #
-0.79098835343133022668382636766182 18:1 #
1.8588226305636261770359851652756 18:1 #
-0.79098835343133022668382636766182 8:1 #
-0.79098835343133022668382636766182 18:1 #
1.8588226305636261770359851652756 8:1 #
-0.79098835343133022668382636766182 8:1 #
-0.79098835343133022668382636766182 18:1 #
1.8588226305636261770359851652756 18:1 #
-0.79098835343133022668382636766182 8:1 #
-0.79098835343133022668382636766182 18:1 #
1.8588226305636261770359851652756 8:1 #
-0.79098835343133022668382636766182 8:1 #
-0.79098835343133022668382636766182 18:1 #
-0.79098835343133022668382636766182 8:1 #
-0.79098835343133022668382636766182 8:1 #
1.8588226305636261770359851652756 18:1 #
-0.79098835343133022668382636766182 12:1 #
-0.79098835343133022668382636766182 18:1 #
-0.79098835343133022668382636766182 18:1 #
-0.79098835343133022668382636766182 16:1 #
1.8588226305636261770359851652756 8:1 #
-0.79098835343133022668382636766182 12:1 #
1.8588226305636261770359851652756 12:1 #
-0.79098835343133022668382636766182 8:1 #
-0.79098835343133022668382636766182 12:1 #
-0.79098835343133022668382636766182 8:1 #
-0.79098835343133022668382636766182 12:1 #
-0.79098835343133022668382636766182 8:1 #
1.8588226305636261770359851652756 8:1 #
1.8588226305636261770359851652756 12:1 #
-0.79098835343133022668382636766182 12:1 #
-0.79098835343133022668382636766182 8:1 #
-0.79098835343133022668382636766182 12:1 #
-0.79098835343133022668382636766182 8:1 #
1.8588226305636261770359851652756 8:1 #
1.8588226305636261770359851652756 12:1 #
-0.79098835343133022668382636766182 16:1 #
-0.79098835343133022668382636766182 18:1 #
-0.79098835343133022668382636766182 16:1 #
-0.79098835343133022668382636766182 12:1 #
1.8588226305636261770359851652756 16:1 #
-0.79098835343133022668382636766182 16:1 #
-0.79098835343133022668382636766182 8:1 #
-0.79098835343133022668382636766182 16:1 #
-0.79098835343133022668382636766182 8:1 #
-0.79098835343133022668382636766182 16:1 #
1.8588226305636261770359851652756 8:1 #
-0.79098835343133022668382636766182 8:1 #
1.8588226305636261770359851652756 16:1 #
-0.79098835343133022668382636766182 16:1 #
-0.79098835343133022668382636766182 8:1 #
-0.79098835343133022668382636766182 16:1 #
-0.79098835343133022668382636766182 8:1 #
1.8588226305636261770359851652756 8:1 #
1.8588226305636261770359851652756 16:1 #
-0.79098835343133022668382636766182 16:1 #
-0.79098835343133022668382636766182 8:1 #
-0.79098835343133022668382636766182 15:1 #
-0.79098835343133022668382636766182 1:1 #
-0.79098835343133022668382636766182 4:1 #
0.80714974606676137547367488878081 18:1 #
1.8588226305636261770359851652756 14:1 #
1.8588226305636261770359851652756 9:1 #
-0.79098835343133022668382636766182 18:1 #
1.8495286132405974743875276544713 15:1 #
-0.79098835343133022668382636766182 16:1 #
-0.79098835343133022668382636766182 9:1 #
1.8588226305636261770359851652756 4:1 #
-0.2916192577882272818357023425051 4:1 #
-0.79098835343133022668382636766182 14:1 #
-0.79098835343133022668382636766182 14:1 #
-0.79098835343133022668382636766182 4:1 #
-0.79098835343133022668382636766182 12:1 #
1.8588226305636261770359851652756 1:1 #
-0.79098835343133022668382636766182 15:1 #
-0.79098835343133022668382636766182 15:1 #
-0.79098835343133022668382636766182 1:1 #
1.8588226305636261770359851652756 14:1 #
-0.79098835343133022668382636766182 12:1 #
1.8588226305636261770359851652756 12:1 #
-0.79098835343133022668382636766182 14:1 #
-0.79098835343133022668382636766182 12:1 #
-0.79098835343133022668382636766182 14:1 #
1.8588226305636261770359851652756 14:1 #
-0.79098835343133022668382636766182 12:1 #
-0.79098835343133022668382636766182 14:1 #
1.8588226305636261770359851652756 12:1 #
-0.79098835343133022668382636766182 12:1 #
-0.79098835343133022668382636766182 14:1 #
-0.79098835343133022668382636766182 12:1 #
-0.79098835343133022668382636766182 1:1 #
-0.79098835343133022668382636766182 8:1 #
1.8588226305636261770359851652756 8:1 #
-0.79098835343133022668382636766182 8:1 #
1.8588226305636261770359851652756 14:1 #
1.8588226305636261770359851652756 1:1 #
-0.79098835343133022668382636766182 14:1 #
-0.79098835343133022668382636766182 1:1 #
-0.79098835343133022668382636766182 14:1 #
-0.79098835343133022668382636766182 1:1 #
-0.79098835343133022668382636766182 14:1 #
-0.79098835343133022668382636766182 1:1 #
1.8588226305636261770359851652756 14:1 #
1.8588226305636261770359851652756 1:1 #
-0.79098835343133022668382636766182 14:1 #
-0.79098835343133022668382636766182 1:1 #
-0.79098835343133022668382636766182 14:1 #
-0.79098835343133022668382636766182 1:1 #
1.8588226305636261770359851652756 14:1 #
1.8588226305636261770359851652756 1:1 #
-0.79098835343133022668382636766182 14:1 #
-0.79098835343133022668382636766182 1:1 #
-0.79098835343133022668382636766182 14:1 #
-0.79098835343133022668382636766182 1:1 #
1.8588226305636261770359851652756 14:1 #
-0.79098835343133022668382636766182 4:1 #
1.8588226305636261770359851652756 4:1 #
-0.79098835343133022668382636766182 14:1 #
-0.79098835343133022668382636766182 4:1 #
-0.79098835343133022668382636766182 14:1 #
-0.79098835343133022668382636766182 4:1 #
-0.79098835343133022668382636766182 14:1 #
1.8588226305636261770359851652756 14:1 #
1.8588226305636261770359851652756 4:1 #
-0.79098835343133022668382636766182 4:1 #
-0.79098835343133022668382636766182 14:1 #
-0.79098835343133022668382636766182 4:1 #
-0.79098835343133022668382636766182 14:1 #
1.8588226305636261770359851652756 14:1 #
1.8588226305636261770359851652756 4:1 #
-0.79098835343133022668382636766182 4:1 #
-0.79098835343133022668382636766182 14:1 #
-0.79098835343133022668382636766182 4:1 #
-0.79098835343133022668382636766182 14:1 #
-0.79098835343133022668382636766182 4:1 #
1.8588226305636261770359851652756 14:1 #
-0.79098835343133022668382636766182 15:1 #
1.8588226305636261770359851652756 15:1 #
-0.79098835343133022668382636766182 14:1 #
-0.79098835343133022668382636766182 14:1 #
1.8588226305636261770359851652756 1:1 #
-0.79098835343133022668382636766182 1:1 #
-0.79098835343133022668382636766182 14:1 #
-0.79098835343133022668382636766182 1:1 #
1.8588226305636261770359851652756 14:1 #
-0.79098835343133022668382636766182 14:1 #
-0.79098835343133022668382636766182 1:1 #
1.8588226305636261770359851652756 1:1 #
-0.79098835343133022668382636766182 14:1 #
-0.79098835343133022668382636766182 1:1 #
1.8588226305636261770359851652756 14:1 #
-0.79098835343133022668382636766182 14:1 #
-0.79098835343133022668382636766182 1:1 #
1.8588226305636261770359851652756 1:1 #
-0.79098835343133022668382636766182 14:1 #
-0.79098835343133022668382636766182 1:1 #
-0.79098835343133022668382636766182 15:1 #
1.8588226305636261770359851652756 12:1 #
-0.79098835343133022668382636766182 19:1 #
1.8588226305636261770359851652756 17:1 #
-0.79098835343133022668382636766182 8:1 #
1.8588226305636261770359851652756 15:1 #
-0.79098835343133022668382636766182 17:1 #
-0.79098835343133022668382636766182 12:1 #
1.8588226305636261770359851652756 19:1 #
-0.79098835343133022668382636766182 1:1 #
-0.79098835343133022668382636766182 19:1 #
1.8588226305636261770359851652756 8:1 #
-0.79098835343133022668382636766182 15:1 #
-0.79098835343133022668382636766182 8:1 #
-0.79098835343133022668382636766182 15:1 #
-0.79098835343133022668382636766182 8:1 #
1.8588226305636261770359851652756 15:1 #
-0.79098835343133022668382636766182 15:1 #
-0.79098835343133022668382636766182 8:1 #
1.8588226305636261770359851652756 8:1 #
-0.79098835343133022668382636766182 19:1 #
1.8588226305636261770359851652756 19:1 #
-0.79098835343133022668382636766182 8:1 #
-0.79098835343133022668382636766182 19:1 #
-0.79098835343133022668382636766182 8:1 #
-0.79098835343133022668382636766182 15:1 #
-0.71328590258884283503704182294314 2:1 #
-0.71156893889967975930233023973415 16:1 #
-0.38581628100319559360187327001768 8:1 #
-0.7350933680082740728778389893705 4:1 #
1.8588226305636261770359851652756 1:1 #
1.8588226305636261770359851652756 9:1 #
1.8588226305636261770359851652756 4:1 #
-0.79098835343133022668382636766182 1:1 #
1.8588226305636261770359851652756 16:1 #
-0.79098835343133022668382636766182 9:1 #
-0.79098835343133022668382636766182 9:1 #
1.8588226305636261770359851652756 8:1 #
-0.79098835343133022668382636766182 19:1 #
-0.79098835343133022668382636766182 1:1 #
1.8588226305636261770359851652756 2:1 #
-0.79098835343133022668382636766182 16:1 #
1.8588226305636261770359851652756 1:1 #
-0.79098835343133022668382636766182 2:1 #
-0.79098835343133022668382636766182 1:1 #
-0.79098835343133022668382636766182 2:1 #
-0.79098835343133022668382636766182 16:1 #
-0.79098835343133022668382636766182 8:1 #
1.8588226305636261770359851652756 19:1 #
-0.79098835343133022668382636766182 1:1 #
-0.79098835343133022668382636766182 19:1 #
1.8588226305636261770359851652756 1:1 #
-0.79098835343133022668382636766182 1:1 #
-0.79098835343133022668382636766182 19:1 #
-0.79098835343133022668382636766182 1:1 #
1.8588226305636261770359851652756 2:1 #
-0.79098835343133022668382636766182 19:1 #
1.8588226305636261770359851652756 19:1 #
-0.79098835343133022668382636766182 2:1 #
-0.79098835343133022668382636766182 19:1 #
-0.79098835343133022668382636766182 2:1 #
-0.79098835343133022668382636766182 19:1 #
-0.79098835343133022668382636766182 2:1 #
1.8588226305636261770359851652756 2:1 #
1.8588226305636261770359851652756 19:1 #
-0.79098835343133022668382636766182 19:1 #
-0.79098835343133022668382636766182 2:1 #
-0.79098835343133022668382636766182 19:1 #
-0.79098835343133022668382636766182 2:1 #
1.8588226305636261770359851652756 2:1 #
1.8588226305636261770359851652756 19:1 #
-0.79098835343133022668382636766182 19:1 #
-0.79098835343133022668382636766182 2:1 #
-0.79098835343133022668382636766182 19:1 #
-0.79098835343133022668382636766182 2:1 #
-0.79098835343133022668382636766182 19:1 #
1.8588226305636261770359851652756 2:1 #
-0.79098835343133022668382636766182 2:1 #
1.8588226305636261770359851652756 19:1 #
-0.79098835343133022668382636766182 2:1 #
-0.79098835343133022668382636766182 19:1 #
-0.79098835343133022668382636766182 2:1 #
1.8588226305636261770359851652756 2:1 #
-0.79098835343133022668382636766182 19:1 #
-0.79098835343133022668382636766182 2:1 #
1.8588226305636261770359851652756 19:1 #
-0.79098835343133022668382636766182 19:1 #
-0.79098835343133022668382636766182 2:1 #
-0.79098835343133022668382636766182 19:1 #
1.8588226305636261770359851652756 2:1 #
-0.79098835343133022668382636766182 2:1 #
1.8588226305636261770359851652756 19:1 #
-0.79098835343133022668382636766182 19:1 #
-0.79098835343133022668382636766182 2:1 #
-0.79098835343133022668382636766182 19:1 #
1.8588226305636261770359851652756 2:1 #
-0.79098835343133022668382636766182 1:1 #
1.8588226305636261770359851652756 1:1 #
-0.79098835343133022668382636766182 2:1 #
-0.79098835343133022668382636766182 1:1 #
-0.79098835343133022668382636766182 2:1 #
-0.79098835343133022668382636766182 1:1 #
-0.79098835343133022668382636766182 2:1 #
1.8588226305636261770359851652756 2:1 #
1.8588226305636261770359851652756 1:1 #
-0.79098835343133022668382636766182 1:1 #
-0.79098835343133022668382636766182 2:1 #
-0.79098835343133022668382636766182 1:1 #
-0.79098835343133022668382636766182 2:1 #
1.8588226305636261770359851652756 2:1 #
1.8588226305636261770359851652756 1:1 #
-0.79098835343133022668382636766182 1:1 #
-0.79098835343133022668382636766182 2:1 #
-0.79098835343133022668382636766182 1:1 #
-0.79098835343133022668382636766182 2:1 #
-0.79098835343133022668382636766182 1:1 #
-0.79098835343133022668382636766182 19:1 #
1.8588226305636261770359851652756 2:1 #
-0.79098835343133022668382636766182 17:1 #
-0.79098835343133022668382636766182 2:1 #
-0.79098835343133022668382636766182 2:1 #
-0.79098835343133022668382636766182 8:1 #
1.8588226305636261770359851652756 19:1 #
-0.79098835343133022668382636766182 15:1 #
1.8588226305636261770359851652756 15:1 #
-0.79098835343133022668382636766182 19:1 #
1.8588226305636261770359851652756 8:1 #
-0.79098835343133022668382636766182 19:1 #
-0.79098835343133022668382636766182 19:1 #
1.8588226305636261770359851652756 19:1 #
-0.79098835343133022668382636766182 2:1 #
1.8588226305636261770359851652756 2:1 #
-0.79098835343133022668382636766182 19:1 #
-0.79098835343133022668382636766182 2:1 #
-0.79098835343133022668382636766182 19:1 #
-0.79098835343133022668382636766182 2:1 #
1.8588226305636261770359851652756 19:1 #
-0.79098835343133022668382636766182 19:1 #
1.8588226305636261770359851652756 2:1 #
-0.79098835343133022668382636766182 2:1 #
-0.79098835343133022668382636766182 19:1 #
-0.79098835343133022668382636766182 2:1 #
1.8588226305636261770359851652756 19:1 #
-0.79098835343133022668382636766182 4:1 #
-0.79098835343133022668382636766182 19:1 #
-0.79098835343133022668382636766182 20:1 #
-0.79098835343133022668382636766182 16:1 #
0.68073607195790097890153447224293 15:1 #
1.8588226305636261770359851652756 14:1 #
0.71119751607551850991484343467164 18:1 #
1.8588226305636261770359851652756 2:1 #
1.8588226305636261770359851652756 16:1 #
-0.79098835343133022668382636766182 2:1 #
1.8588226305636261770359851652756 4:1 #
-0.79098835343133022668382636766182 18:1 #
-0.79098835343133022668382636766182 15:1 #
-0.79098835343133022668382636766182 19:1 #
1.8588226305636261770359851652756 17:1 #
-0.79098835343133022668382636766182 17:1 #
-0.79098835343133022668382636766182 14:1 #
1.8588226305636261770359851652756 20:1 #
-0.79098835343133022668382636766182 15:1 #
-0.63616958057655148550679768959526 19:1 #
-0.79098835343133022668382636766182 16:1 #
1.8588226305636261770359851652756 19:1 #
-0.79098835343133022668382636766182 20:1 #
-0.79098835343133022668382636766182 16:1 #
1.8588226305636261770359851652756 16:1 #
-0.79098835343133022668382636766182 19:1 #
-0.79098835343133022668382636766182 16:1 #
-0.79098835343133022668382636766182 19:1 #
1.8588226305636261770359851652756 19:1 #
-0.79098835343133022668382636766182 16:1 #
-0.79098835343133022668382636766182 19:1 #
1.8588226305636261770359851652756 16:1 #
-0.79098835343133022668382636766182 16:1 #
-0.79098835343133022668382636766182 19:1 #
-0.79098835343133022668382636766182 16:1 #
-0.79098835343133022668382636766182 4:1 #
-0.79098835343133022668382636766182 14:1 #
1.8588226305636261770359851652756 14:1 #
-0.79098835343133022668382636766182 15:1 #
-0.79098835343133022668382636766182 14:1 #
-0.79098835343133022668382636766182 15:1 #
1.8588226305636261770359851652756 15:1 #
-0.79098835343133022668382636766182 14:1 #
-0.79098835343133022668382636766182 15:1 #
1.8588226305636261770359851652756 14:1 #
-0.79098835343133022668382636766182 14:1 #
-0.79098835343133022668382636766182 15:1 #
-0.79098835343133022668382636766182 14:1 #
1.8588226305636261770359851652756 15:1 #
-0.79098835343133022668382636766182 15:1 #
-0.79098835343133022668382636766182 17:1 #
-0.79098835343133022668382636766182 15:1 #
1.8588226305636261770359851652756 19:1 #
-0.79098835343133022668382636766182 19:1 #
1.8588226305636261770359851652756 17:1 #
-0.79098835343133022668382636766182 17:1 #
-0.79098835343133022668382636766182 19:1 #
-0.79098835343133022668382636766182 17:1 #
-0.79098835343133022668382636766182 19:1 #
1.8588226305636261770359851652756 18:1 #
1.8588226305636261770359851652756 19:1 #
-0.79098835343133022668382636766182 18:1 #
-0.79098835343133022668382636766182 19:1 #
-0.79098835343133022668382636766182 18:1 #
-0.79098835343133022668382636766182 19:1 #
-0.79098835343133022668382636766182 2:1 #
1.8588226305636261770359851652756 2:1 #
-0.79098835343133022668382636766182 18:1 #
1.8588226305636261770359851652756 18:1 #
-0.79098835343133022668382636766182 2:1 #
-0.79098835343133022668382636766182 18:1 #
-0.79098835343133022668382636766182 19:1 #
1.8588226305636261770359851652756 19:1 #
-0.79098835343133022668382636766182 2:1 #
-0.79098835343133022668382636766182 19:1 #
-0.79098835343133022668382636766182 2:1 #
1.8588226305636261770359851652756 2:1 #
-0.79098835343133022668382636766182 19:1 #
-0.79098835343133022668382636766182 2:1 #
1.8588226305636261770359851652756 19:1 #
-0.79098835343133022668382636766182 19:1 #
-0.79098835343133022668382636766182 2:1 #
1.8588226305636261770359851652756 2:1 #
-0.79098835343133022668382636766182 19:1 #
-0.79098835343133022668382636766182 2:1 #
-0.79098835343133022668382636766182 2:1 #
-0.79098835343133022668382636766182 18:1 #
1.8588226305636261770359851652756 15:1 #
-0.79098835343133022668382636766182 15:1 #
1.8588226305636261770359851652756 18:1 #
-0.79098835343133022668382636766182 18:1 #
-0.79098835343133022668382636766182 15:1 #
-0.79098835343133022668382636766182 18:1 #
-0.79098835343133022668382636766182 15:1 #
1.8588226305636261770359851652756 15:1 #
1.8588226305636261770359851652756 2:1 #
-0.79098835343133022668382636766182 4:1 #
1.8588226305636261770359851652756 4:1 #
-0.79098835343133022668382636766182 2:1 #
-0.79098835343133022668382636766182 4:1 #
-0.79098835343133022668382636766182 2:1 #
-0.79098835343133022668382636766182 4:1 #
-0.79098835343133022668382636766182 2:1 #
1.8588226305636261770359851652756 2:1 #
1.8588226305636261770359851652756 4:1 #
-0.79098835343133022668382636766182 4:1 #
-0.79098835343133022668382636766182 2:1 #
-0.79098835343133022668382636766182 4:1 #
-0.79098835343133022668382636766182 2:1 #
1.8588226305636261770359851652756 2:1 #
-0.79098835343133022668382636766182 4:1 #
-0.79098835343133022668382636766182 2:1 #
-0.79098835343133022668382636766182 4:1 #
-0.79098835343133022668382636766182 2:1 #
1.8588226305636261770359851652756 4:1 #
1.8588226305636261770359851652756 19:1 #
-0.79098835343133022668382636766182 4:1 #
-0.79098835343133022668382636766182 19:1 #
-0.79098835343133022668382636766182 4:1 #
-0.79098835343133022668382636766182 19:1 #
-0.79098835343133022668382636766182 14:1 #
-0.79098835343133022668382636766182 9:1 #
-0.79098835343133022668382636766182 20:1 #
-0.79098835343133022668382636766182 16:1 #
1.0932028053996503125233630271396 18:1 #
1.8588226305636261770359851652756 13:1 #
1.8588226305636261770359851652756 3:1 #
1.8588226305636261770359851652756 4:1 #
-0.79098835343133022668382636766182 18:1 #
1.8588226305636261770359851652756 14:1 #
-0.79098835343133022668382636766182 19:1 #
-0.79098835343133022668382636766182 13:1 #
-0.79098835343133022668382636766182 4:1 #
1.8588226305636261770359851652756 9:1 #
-0.79098835343133022668382636766182 3:1 #
1.8588226305636261770359851652756 16:1 #
-0.79098835343133022668382636766182 18:1 #
1.8588226305636261770359851652756 18:1 #
-0.79098835343133022668382636766182 13:1 #
-0.79098835343133022668382636766182 18:1 #
-0.79098835343133022668382636766182 3:1 #
-0.79098835343133022668382636766182 9:1 #
-0.79098835343133022668382636766182 18:1 #
1.8588226305636261770359851652756 3:1 #
-0.79098835343133022668382636766182 9:1 #
-0.79098835343133022668382636766182 3:1 #
1.8588226305636261770359851652756 9:1 #
-0.79098835343133022668382636766182 9:1 #
-0.79098835343133022668382636766182 3:1 #
-0.79098835343133022668382636766182 9:1 #
1.8588226305636261770359851652756 18:1 #
-0.79098835343133022668382636766182 18:1 #
-0.79098835343133022668382636766182 13:1 #
1.8588226305636261770359851652756 19:1 #
-0.79098835343133022668382636766182 16:1 #
1.8588226305636261770359851652756 13:1 #
-0.79098835343133022668382636766182 19:1 #
-0.79098835343133022668382636766182 19:1 #
-0.79098835343133022668382636766182 16:1 #
1.8588226305636261770359851652756 20:1 #
-0.79098835343133022668382636766182 19:1 #
-0.79098835343133022668382636766182 13:1 #
1.8588226305636261770359851652756 19:1 #
-0.79098835343133022668382636766182 19:1 #
-0.79098835343133022668382636766182 20:1 #
-0.79098835343133022668382636766182 19:1 #
1.8588226305636261770359851652756 19:1 #
-0.79098835343133022668382636766182 20:1 #
-0.79098835343133022668382636766182 19:1 #
1.8588226305636261770359851652756 20:1 #
-0.79098835343133022668382636766182 20:1 #
-0.79098835343133022668382636766182 19:1 #
-0.79098835343133022668382636766182 20:1 #
-0.79098835343133022668382636766182 13:1 #
-0.79098835343133022668382636766182 15:1 #
-0.79098835343133022668382636766182 18:1 #
1.8588226305636261770359851652756 13:1 #
-0.79098835343133022668382636766182 13:1 #
-0.79098835343133022668382636766182 15:1 #
-0.79098835343133022668382636766182 13:1 #
1.8588226305636261770359851652756 15:1 #
-0.79098835343133022668382636766182 15:1 #
1.8588226305636261770359851652756 19:1 #
-0.79098835343133022668382636766182 19:1 #
-0.79098835343133022668382636766182 15:1 #
-0.79098835343133022668382636766182 19:1 #
1.8588226305636261770359851652756 3:1 #
-0.79098835343133022668382636766182 15:1 #
1.8588226305636261770359851652756 15:1 #
-0.79098835343133022668382636766182 3:1 #
-0.79098835343133022668382636766182 15:1 #
-0.79098835343133022668382636766182 3:1 #
-0.79098835343133022668382636766182 15:1 #
-0.79098835343133022668382636766182 3:1 #
1.8588226305636261770359851652756 3:1 #
-0.79098835343133022668382636766182 4:1 #
1.8588226305636261770359851652756 20:1 #
-0.79098835343133022668382636766182 3:1 #
-0.79098835343133022668382636766182 3:1 #
1.8588226305636261770359851652756 4:1 #
-0.79098835343133022668382636766182 20:1 #
-0.79098835343133022668382636766182 4:1 #
-0.79098835343133022668382636766182 20:1 #
-0.79098835343133022668382636766182 4:1 #
1.8588226305636261770359851652756 20:1 #
-0.79098835343133022668382636766182 20:1 #
-0.79098835343133022668382636766182 4:1 #
1.8588226305636261770359851652756 4:1 #
-0.79098835343133022668382636766182 20:1 #
-0.79098835343133022668382636766182 4:1 #
1.8588226305636261770359851652756 20:1 #
-0.79098835343133022668382636766182 20:1 #
-0.79098835343133022668382636766182 4:1 #
1.8588226305636261770359851652756 4:1 #
-0.79098835343133022668382636766182 20:1 #
-0.79098835343133022668382636766182 4:1 #
-0.79098835343133022668382636766182 20:1 #
-0.79098835343133022668382636766182 4:1 #
1.8588226305636261770359851652756 20:1 #
-0.79098835343133022668382636766182 20:1 #
1.8588226305636261770359851652756 4:1 #
-0.79098835343133022668382636766182 4:1 #
-0.79098835343133022668382636766182 20:1 #
-0.79098835343133022668382636766182 4:1 #
1.8588226305636261770359851652756 20:1 #
-0.79098835343133022668382636766182 20:1 #
-0.79098835343133022668382636766182 4:1 #
1.8588226305636261770359851652756 4:1 #
-0.79098835343133022668382636766182 20:1 #
-0.79098835343133022668382636766182 4:1 #
1.8588226305636261770359851652756 20:1 #
-0.79098835343133022668382636766182 20:1 #
-0.79098835343133022668382636766182 4:1 #
1.8588226305636261770359851652756 4:1 #
-0.79098835343133022668382636766182 20:1 #
-0.79098835343133022668382636766182 4:1 #
-0.79098835343133022668382636766182 20:1 #
-0.79098835343133022668382636766182 4:1 #
1.8588226305636261770359851652756 20:1 #
-0.79098835343133022668382636766182 20:1 #
1.8588226305636261770359851652756 13:1 #
-0.79098835343133022668382636766182 10:1 #
-0.79098835343133022668382636766182 16:1 #
-0.79098835343133022668382636766182 4:1 #
-0.79098835343133022668382636766182 15:1 #
1.8588226305636261770359851652756 18:1 #
1.8588226305636261770359851652756 1:1 #
1.8588226305636261770359851652756 14:1 #
1.8588226305636261770359851652756 19:1 #
1.8588226305636261770359851652756 5:1 #
1.8588226305636261770359851652756 4:1 #
1.8588226305636261770359851652756 15:1 #
-0.79098835343133022668382636766182 1:1 #
1.8588226305636261770359851652756 10:1 #
-0.79098835343133022668382636766182 19:1 #
-0.79098835343133022668382636766182 5:1 #
1.8588226305636261770359851652756 16:1 #
-0.79098835343133022668382636766182 4:1 #
-0.79098835343133022668382636766182 18:1 #
-0.79098835343133022668382636766182 14:1 #
1.8588226305636261770359851652756 3:1 #
-0.79098835343133022668382636766182 16:1 #
-0.79098835343133022668382636766182 13:1 #
-0.79098835343133022668382636766182 18:1 #
1.8588226305636261770359851652756 18:1 #
-0.79098835343133022668382636766182 13:1 #
-0.79098835343133022668382636766182 18:1 #
-0.79098835343133022668382636766182 15:1 #
-0.79098835343133022668382636766182 5:1 #
-0.79098835343133022668382636766182 14:1 #
-0.79098835343133022668382636766182 3:1 #
-0.79098835343133022668382636766182 14:1 #
-0.79098835343133022668382636766182 3:1 #
1.8588226305636261770359851652756 14:1 #
-0.79098835343133022668382636766182 15:1 #
1.8588226305636261770359851652756 15:1 #
-0.79098835343133022668382636766182 14:1 #
-0.79098835343133022668382636766182 15:1 #
-0.79098835343133022668382636766182 14:1 #
-0.79098835343133022668382636766182 15:1 #
-0.79098835343133022668382636766182 13:1 #
-0.78032896778377525137671000265982 5:1 #
-0.79098835343133022668382636766182 10:1 #
1.8588226305636261770359851652756 15:1 #
-0.79098835343133022668382636766182 10:1 #
-0.79098835343133022668382636766182 15:1 #
1.8588226305636261770359851652756 5:1 #
-0.79098835343133022668382636766182 10:1 #
1.8588226305636261770359851652756 10:1 #
-0.79098835343133022668382636766182 5:1 #
-0.79098835343133022668382636766182 10:1 #
-0.79098835343133022668382636766182 5:1 #
-0.79098835343133022668382636766182 10:1 #
-0.79098835343133022668382636766182 5:1 #
1.8588226305636261770359851652756 5:1 #
1.8588226305636261770359851652756 10:1 #
-0.79098835343133022668382636766182 10:1 #
-0.79098835343133022668382636766182 5:1 #
-0.79098835343133022668382636766182 10:1 #
-0.79098835343133022668382636766182 5:1 #
1.8588226305636261770359851652756 5:1 #
1.8588226305636261770359851652756 10:1 #
-0.79098835343133022668382636766182 10:1 #
-0.79098835343133022668382636766182 5:1 #
-0.79098835343133022668382636766182 10:1 #
-0.79098835343133022668382636766182 5:1 #
-0.79098835343133022668382636766182 10:1 #
1.8588226305636261770359851652756 5:1 #
1.8588226305636261770359851652756 10:1 #
-0.79098835343133022668382636766182 5:1 #
-0.79098835343133022668382636766182 10:1 #
-0.79098835343133022668382636766182 5:1 #
-0.79098835343133022668382636766182 10:1 #
-0.79098835343133022668382636766182 5:1 #
1.8588226305636261770359851652756 5:1 #
1.8588226305636261770359851652756 10:1 #
-0.79098835343133022668382636766182 10:1 #
-0.79098835343133022668382636766182 5:1 #
-0.79098835343133022668382636766182 10:1 #
-0.79098835343133022668382636766182 5:1 #
1.8588226305636261770359851652756 5:1 #
1.8588226305636261770359851652756 10:1 #
-0.79098835343133022668382636766182 10:1 #
-0.79098835343133022668382636766182 5:1 #
-0.79098835343133022668382636766182 10:1 #
-0.79098835343133022668382636766182 5:1 #
-0.79098835343133022668382636766182 10:1 #
1.8588226305636261770359851652756 14:1 #
-0.79098835343133022668382636766182 14:1 #
-0.79098835343133022668382636766182 18:1 #
1.8588226305636261770359851652756 10:1 #
-0.79098835343133022668382636766182 14:1 #
-0.79098835343133022668382636766182 10:1 #
-0.79098835343133022668382636766182 14:1 #
-0.79098835343133022668382636766182 10:1 #
1.8588226305636261770359851652756 10:1 #
-0.79098835343133022668382636766182 14:1 #
1.8588226305636261770359851652756 14:1 #
-0.79098835343133022668382636766182 10:1 #
-0.79098835343133022668382636766182 14:1 #
-0.79098835343133022668382636766182 10:1 #
-0.79098835343133022668382636766182 14:1 #
-0.79098835343133022668382636766182 18:1 #
1.8588226305636261770359851652756 14:1 #
-0.79098835343133022668382636766182 14:1 #
1.8588226305636261770359851652756 18:1 #
-0.79098835343133022668382636766182 18:1 #
-0.79098835343133022668382636766182 14:1 #
-0.79098835343133022668382636766182 18:1 #
1.8588226305636261770359851652756 14:1 #
-0.79098835343133022668382636766182 1:1 #
1.8588226305636261770359851652756 13:1 #
-0.79098835343133022668382636766182 13:1 #
1.8588226305636261770359851652756 1:1 #
-0.79098835343133022668382636766182 14:1 #
-0.79098835343133022668382636766182 14:1 #
-0.79098835343133022668382636766182 13:1 #
1.8588226305636261770359851652756 18:1 #
-0.79098835343133022668382636766182 1:1 #
-0.79098835343133022668382636766182 18:1 #
-0.79098835343133022668382636766182 1:1 #
-0.67555628172274539977593121875543 9:1 #
-0.7032481192158639426992294829688 14:1 #
-0.65350667677417362266822919991682 2:1 #
-0.69158282419671079921386080968659 6:1 #
1.8588226305636261770359851652756 14:1 #
-0.79098835343133022668382636766182 18:1 #
-0.79098835343133022668382636766182 19:1 #
1.8588226305636261770359851652756 6:1 #
1.8588226305636261770359851652756 9:1 #
1.8588226305636261770359851652756 2:1 #
-0.79098835343133022668382636766182 1:1 #
-0.79098835343133022668382636766182 6:1 #
-0.79098835343133022668382636766182 13:1 #
-0.79098835343133022668382636766182 5:1 #
1.8588226305636261770359851652756 13:1 #
1.8588226305636261770359851652756 5:1 #
-0.79098835343133022668382636766182 2:1 #
-0.79098835343133022668382636766182 5:1 #
-0.79098835343133022668382636766182 13:1 #
-0.79098835343133022668382636766182 5:1 #
-0.79098835343133022668382636766182 13:1 #
1.8588226305636261770359851652756 5:1 #
-0.79098835343133022668382636766182 5:1 #
1.8588226305636261770359851652756 13:1 #
-0.79098835343133022668382636766182 13:1 #
-0.79098835343133022668382636766182 5:1 #
-0.79098835343133022668382636766182 13:1 #
1.8588226305636261770359851652756 1:1 #
-0.79098835343133022668382636766182 1:1 #
-0.79098835343133022668382636766182 14:1 #
-0.79098835343133022668382636766182 18:1 #
1.8588226305636261770359851652756 18:1 #
-0.79098835343133022668382636766182 14:1 #
-0.79098835343133022668382636766182 6:1 #
1.8588226305636261770359851652756 14:1 #
-0.79098835343133022668382636766182 9:1 #
-0.79098835343133022668382636766182 14:1 #
-0.79098835343133022668382636766182 9:1 #
1.8588226305636261770359851652756 9:1 #
-0.79098835343133022668382636766182 14:1 #
-0.79098835343133022668382636766182 9:1 #
1.8588226305636261770359851652756 14:1 #
-0.79098835343133022668382636766182 14:1 #
-0.79098835343133022668382636766182 9:1 #
1.8588226305636261770359851652756 9:1 #
-0.79098835343133022668382636766182 14:1 #
-0.79098835343133022668382636766182 9:1 #
-0.79098835343133022668382636766182 14:1 #
1.8588226305636261770359851652756 14:1 #
-0.79098835343133022668382636766182 18:1 #
-0.79098835343133022668382636766182 14:1 #
-0.79098835343133022668382636766182 18:1 #
1.8588226305636261770359851652756 18:1 #
-0.79098835343133022668382636766182 14:1 #
-0.79098835343133022668382636766182 18:1 #
1.8588226305636261770359851652756 14:1 #
-0.79098835343133022668382636766182 14:1 #
-0.79098835343133022668382636766182 18:1 #
1.8588226305636261770359851652756 18:1 #
-0.79098835343133022668382636766182 14:1 #
-0.79098835343133022668382636766182 18:1 #
1.8588226305636261770359851652756 14:1 #
-0.79098835343133022668382636766182 14:1 #
-0.79098835343133022668382636766182 18:1 #
-0.79098835343133022668382636766182 14:1 #
-0.79098835343133022668382636766182 18:1 #
1.8588226305636261770359851652756 18:1 #
-0.79098835343133022668382636766182 14:1 #
-0.79098835343133022668382636766182 18:1 #
1.8588226305636261770359851652756 14:1 #
-0.79098835343133022668382636766182 14:1 #
-0.79098835343133022668382636766182 18:1 #
1.8588226305636261770359851652756 18:1 #
-0.79098835343133022668382636766182 14:1 #
-0.79098835343133022668382636766182 18:1 #
1.8588226305636261770359851652756 14:1 #
-0.79098835343133022668382636766182 14:1 #
-0.79098835343133022668382636766182 18:1 #
1.8588226305636261770359851652756 18:1 #
-0.79098835343133022668382636766182 14:1 #
-0.79098835343133022668382636766182 18:1 #
-0.79098835343133022668382636766182 18:1 #
-0.79098835343133022668382636766182 9:1 #
-0.79098835343133022668382636766182 18:1 #
1.8588226305636261770359851652756 9:1 #
-0.79098835343133022668382636766182 9:1 #
1.8588226305636261770359851652756 18:1 #
-0.79098835343133022668382636766182 18:1 #
-0.79098835343133022668382636766182 9:1 #
-0.79098835343133022668382636766182 18:1 #
-0.79098835343133022668382636766182 9:1 #
1.8588226305636261770359851652756 9:1 #
1.8588226305636261770359851652756 18:1 #
-0.79098835343133022668382636766182 18:1 #
-0.79098835343133022668382636766182 9:1 #
-0.79098835343133022668382636766182 18:1 #
-0.79098835343133022668382636766182 9:1 #
1.8588226305636261770359851652756 9:1 #
1.8588226305636261770359851652756 14:1 #
-0.79098835343133022668382636766182 14:1 #
-0.79098835343133022668382636766182 9:1 #
-0.79098835343133022668382636766182 14:1 #
-0.79098835343133022668382636766182 9:1 #
-0.79098835343133022668382636766182 14:1 #
1.8588226305636261770359851652756 18:1 #
-0.79098835343133022668382636766182 18:1 #
1.8588226305636261770359851652756 14:1 #
-0.79098835343133022668382636766182 14:1 #
-0.79098835343133022668382636766182 5:1 #
-0.79098835343133022668382636766182 4:1 #
-0.79098835343133022668382636766182 9:1 #
1.8588226305636261770359851652756 11:1 #
1.8588226305636261770359851652756 8:1 #
1.8588226305636261770359851652756 14:1 #
1.8588226305636261770359851652756 7:1 #
1.8588226305636261770359851652756 9:1 #
-0.79098835343133022668382636766182 18:1 #
-0.79098835343133022668382636766182 14:1 #
-0.79098835343133022668382636766182 18:1 #
1.8588226305636261770359851652756 4:1 #
-0.79098835343133022668382636766182 7:1 #
1.8588226305636261770359851652756 5:1 #
1.8588226305636261770359851652756 18:1 #
-0.79098835343133022668382636766182 11:1 #
1.8588226305636261770359851652756 11:1 #
-0.79098835343133022668382636766182 18:1 #
-0.79098835343133022668382636766182 11:1 #
-0.79098835343133022668382636766182 7:1 #
1.8588226305636261770359851652756 11:1 #
-0.79098835343133022668382636766182 8:1 #
1.8588226305636261770359851652756 7:1 #
-0.79098835343133022668382636766182 11:1 #
-0.79098835343133022668382636766182 11:1 #
-0.79098835343133022668382636766182 4:1 #
-0.79098835343133022668382636766182 14:1 #
-0.79098835343133022668382636766182 5:1 #
-0.79098835343133022668382636766182 4:1 #
1.8588226305636261770359851652756 5:1 #
-0.79098835343133022668382636766182 5:1 #
-0.79098835343133022668382636766182 8:1 #
-0.79098835343133022668382636766182 5:1 #
-0.79098835343133022668382636766182 8:1 #
1.8588226305636261770359851652756 8:1 #
1.8588226305636261770359851652756 11:1 #
-0.79098835343133022668382636766182 9:1 #
-0.79098835343133022668382636766182 11:1 #
-0.79098835343133022668382636766182 7:1 #
-0.79098835343133022668382636766182 18:1 #
-0.79098835343133022668382636766182 19:1 #
1.8588226305636261770359851652756 19:1 #
-0.79098835343133022668382636766182 8:1 #
-0.79098835343133022668382636766182 8:1 #
1.8588226305636261770359851652756 8:1 #
-0.79098835343133022668382636766182 7:1 #
-0.79098835343133022668382636766182 8:1 #
-0.79098835343133022668382636766182 19:1 #
1.8588226305636261770359851652756 7:1 #
-0.79098835343133022668382636766182 7:1 #
-0.79098835343133022668382636766182 8:1 #
-0.79098835343133022668382636766182 7:1 #
1.8588226305636261770359851652756 8:1 #
-0.79098835343133022668382636766182 8:1 #
1.8588226305636261770359851652756 4:1 #
-0.79098835343133022668382636766182 7:1 #
1.8588226305636261770359851652756 7:1 #
-0.79098835343133022668382636766182 4:1 #
-0.79098835343133022668382636766182 7:1 #
-0.79098835343133022668382636766182 4:1 #
-0.79098835343133022668382636766182 7:1 #
-0.79098835343133022668382636766182 4:1 #
1.8588226305636261770359851652756 4:1 #
1.8588226305636261770359851652756 7:1 #
-0.79098835343133022668382636766182 7:1 #
-0.79098835343133022668382636766182 4:1 #
-0.79098835343133022668382636766182 7:1 #
-0.79098835343133022668382636766182 4:1 #
1.8588226305636261770359851652756 4:1 #
1.8588226305636261770359851652756 7:1 #
-0.79098835343133022668382636766182 7:1 #
-0.79098835343133022668382636766182 4:1 #
-0.79098835343133022668382636766182 7:1 #
-0.79098835343133022668382636766182 4:1 #
-0.79098835343133022668382636766182 7:1 #
1.8588226305636261770359851652756 5:1 #
-0.79098835343133022668382636766182 19:1 #
1.8588226305636261770359851652756 10:1 #
1.8588226305636261770359851652756 19:1 #
-0.79098835343133022668382636766182 5:1 #
-0.79098835343133022668382636766182 10:1 #
-0.79098835343133022668382636766182 5:1 #
-0.79098835343133022668382636766182 10:1 #
1.8588226305636261770359851652756 10:1 #
-0.79098835343133022668382636766182 5:1 #
1.8588226305636261770359851652756 5:1 #
-0.79098835343133022668382636766182 10:1 #
-0.79098835343133022668382636766182 5:1 #
-0.79098835343133022668382636766182 10:1 #
-0.79098835343133022668382636766182 5:1 #
1.8588226305636261770359851652756 10:1 #
-0.79098835343133022668382636766182 10:1 #
1.8588226305636261770359851652756 5:1 #
-0.79098835343133022668382636766182 5:1 #
-0.79098835343133022668382636766182 10:1 #
-0.79098835343133022668382636766182 5:1 #
-0.79098835343133022668382636766182 10:1 #
1.8588226305636261770359851652756 10:1 #
1.8588226305636261770359851652756 5:1 #
-0.79098835343133022668382636766182 5:1 #
-0.79098835343133022668382636766182 10:1 #
-0.79098835343133022668382636766182 5:1 #
-0.79098835343133022668382636766182 10:1 #
1.8588226305636261770359851652756 10:1 #
-0.79098835343133022668382636766182 5:1 #
1.8588226305636261770359851652756 5:1 #
-0.79098835343133022668382636766182 10:1 #
-0.79098835343133022668382636766182 5:1 #
-0.79098835343133022668382636766182 10:1 #
-0.79098835343133022668382636766182 5:1 #
1.8588226305636261770359851652756 10:1 #
-0.79098835343133022668382636766182 10:1 #
1.8588226305636261770359851652756 5:1 #
-0.79098835343133022668382636766182 5:1 #
-0.79098835343133022668382636766182 10:1 #
-0.79098835343133022668382636766182 5:1 #
-0.79098835343133022668382636766182 10:1 #
1.8588226305636261770359851652756 10:1 #
1.8588226305636261770359851652756 5:1 #
-0.79098835343133022668382636766182 5:1 #
-0.79098835343133022668382636766182 17:1 #
-0.79098835343133022668382636766182 3:1 #
-0.79098835343133022668382636766182 2:1 #
1.8588226305636261770359851652756 8:1 #
1.8588226305636261770359851652756 18:1 #
1.8588226305636261770359851652756 13:1 #
1.8588226305636261770359851652756 3:1 #
-0.79098835343133022668382636766182 18:1 #
1.8588226305636261770359851652756 17:1 #
1.8588226305636261770359851652756 2:1 #
-0.79098835343133022668382636766182 5:1 #
-0.79098835343133022668382636766182 13:1 #
-0.79098835343133022668382636766182 8:1 #
-0.79098835343133022668382636766182 2:1 #
1.8588226305636261770359851652756 8:1 #
-0.79098835343133022668382636766182 10:1 #
-0.79098835343133022668382636766182 13:1 #
1.8588226305636261770359851652756 13:1 #
-0.79098835343133022668382636766182 10:1 #
-0.79098835343133022668382636766182 13:1 #
-0.79098835343133022668382636766182 19:1 #
-0.79098835343133022668382636766182 2:1 #
1.8588226305636261770359851652756 7:1 #
-0.79098835343133022668382636766182 8:1 #
-0.79098835343133022668382636766182 13:1 #
-0.79098835343133022668382636766182 8:1 #
1.8588226305636261770359851652756 10:1 #
-0.79098835343133022668382636766182 13:1 #
-0.79098835343133022668382636766182 10:1 #
1.8588226305636261770359851652756 13:1 #
-0.79098835343133022668382636766182 13:1 #
-0.79098835343133022668382636766182 10:1 #
-0.79098835343133022668382636766182 13:1 #
1.8588226305636261770359851652756 2:1 #
-0.79098835343133022668382636766182 10:1 #
1.8588226305636261770359851652756 16:1 #
1.8588226305636261770359851652756 10:1 #
-0.79098835343133022668382636766182 16:1 #
-0.79098835343133022668382636766182 10:1 #
-0.79098835343133022668382636766182 2:1 #
-0.79098835343133022668382636766182 10:1 #
-0.79098835343133022668382636766182 2:1 #
1.8588226305636261770359851652756 10:1 #
1.8588226305636261770359851652756 2:1 #
-0.79098835343133022668382636766182 10:1 #
-0.79098835343133022668382636766182 2:1 #
-0.79098835343133022668382636766182 10:1 #
-0.79098835343133022668382636766182 2:1 #
1.8588226305636261770359851652756 10:1 #
-0.79098835343133022668382636766182 7:1 #
-0.79098835343133022668382636766182 10:1 #
-0.79098835343133022668382636766182 7:1 #
-0.79098835343133022668382636766182 10:1 #
1.8588226305636261770359851652756 7:1 #
-0.79098835343133022668382636766182 7:1 #
-0.79098835343133022668382636766182 10:1 #
1.8588226305636261770359851652756 10:1 #
-0.79098835343133022668382636766182 7:1 #
-0.79098835343133022668382636766182 10:1 #
1.8588226305636261770359851652756 7:1 #
-0.79098835343133022668382636766182 7:1 #
-0.79098835343133022668382636766182 10:1 #
1.8588226305636261770359851652756 10:1 #
-0.79098835343133022668382636766182 7:1 #
-0.79098835343133022668382636766182 10:1 #
1.8588226305636261770359851652756 7:1 #
-0.79098835343133022668382636766182 7:1 #
1.8588226305636261770359851652756 19:1 #
-0.79098835343133022668382636766182 19:1 #
-0.79098835343133022668382636766182 10:1 #
-0.79098835343133022668382636766182 19:1 #
-0.79098835343133022668382636766182 19:1 #
-0.79098835343133022668382636766182 3:1 #
-0.79098835343133022668382636766182 16:1 #
1.8588226305636261770359851652756 3:1 #
-0.79098835343133022668382636766182 16:1 #
1.8588226305636261770359851652756 16:1 #
1.8588226305636261770359851652756 10:1 #
-0.79098835343133022668382636766182 17:1 #
-0.79098835343133022668382636766182 10:1 #
-0.79098835343133022668382636766182 10:1 #
1.8588226305636261770359851652756 18:1 #
-0.79098835343133022668382636766182 18:1 #
-0.79098835343133022668382636766182 10:1 #
1.8588226305636261770359851652756 10:1 #
-0.79098835343133022668382636766182 18:1 #
1.8588226305636261770359851652756 19:1 #
-0.79098835343133022668382636766182 10:1 #
-0.79098835343133022668382636766182 19:1 #
-0.79098835343133022668382636766182 10:1 #
-0.79098835343133022668382636766182 19:1 #
1.8588226305636261770359851652756 10:1 #
-0.79098835343133022668382636766182 10:1 #
-0.79098835343133022668382636766182 19:1 #
1.8588226305636261770359851652756 19:1 #
-0.79098835343133022668382636766182 10:1 #
-0.79098835343133022668382636766182 19:1 #
-0.79098835343133022668382636766182 18:1 #
-0.79098835343133022668382636766182 19:1 #
1.8588226305636261770359851652756 18:1 #
1.8588226305636261770359851652756 19:1 #
-0.79098835343133022668382636766182 18:1 #
-0.79098835343133022668382636766182 19:1 #
-0.79098835343133022668382636766182 18:1 #
-0.79098835343133022668382636766182 19:1 #
1.8588226305636261770359851652756 18:1 #
-0.79098835343133022668382636766182 18:1 #
-0.79098835343133022668382636766182 17:1 #
1.8588226305636261770359851652756 17:1 #
-0.79098835343133022668382636766182 18:1 #
-0.79098835343133022668382636766182 17:1 #
-0.79098835343133022668382636766182 18:1 #
1.8588226305636261770359851652756 18:1 #
-0.79098835343133022668382636766182 17:1 #
-0.79098835343133022668382636766182 18:1 #
-0.79098835343133022668382636766182 17:1 #
1.8588226305636261770359851652756 17:1 #
-0.79098835343133022668382636766182 18:1 #
-0.79098835343133022668382636766182 17:1 #
-0.56569781368398119880680496862624 16:1 #
-0.6470314809110810916337186426972 6:1 #
-0.59171071016184129121029400266707 19:1 #
-0.79098835343133022668382636766182 17:1 #
1.8588226305636261770359851652756 19:1 #
-0.79098835343133022668382636766182 3:1 #
-0.79098835343133022668382636766182 8:1 #
1.8588226305636261770359851652756 6:1 #
-0.79098835343133022668382636766182 16:1 #
-0.79098835343133022668382636766182 3:1 #
-0.79098835343133022668382636766182 6:1 #
1.8588226305636261770359851652756 16:1 #
-0.79098835343133022668382636766182 18:1 #
1.8588226305636261770359851652756 18:1 #
-0.79098835343133022668382636766182 16:1 #
-0.79098835343133022668382636766182 18:1 #
-0.79098835343133022668382636766182 16:1 #
-0.79098835343133022668382636766182 18:1 #
1.8588226305636261770359851652756 18:1 #
-0.79098835343133022668382636766182 16:1 #
1.8588226305636261770359851652756 16:1 #
-0.79098835343133022668382636766182 18:1 #
-0.79098835343133022668382636766182 16:1 #
-0.79098835343133022668382636766182 18:1 #
-0.79098835343133022668382636766182 16:1 #
1.8588226305636261770359851652756 17:1 #
-0.79098835343133022668382636766182 3:1 #
-0.79098835343133022668382636766182 17:1 #
1.8588226305636261770359851652756 3:1 #
-0.79098835343133022668382636766182 3:1 #
-0.79098835343133022668382636766182 17:1 #
-0.79098835343133022668382636766182 3:1 #
1.8588226305636261770359851652756 17:1 #
-0.79098835343133022668382636766182 17:1 #
-0.79098835343133022668382636766182 19:1 #
1.8588226305636261770359851652756 16:1 #
-0.79098835343133022668382636766182 16:1 #
-0.79098835343133022668382636766182 19:1 #
1.8588226305636261770359851652756 19:1 #
-0.79098835343133022668382636766182 16:1 #
-0.79098835343133022668382636766182 19:1 #
1.8588226305636261770359851652756 16:1 #
-0.79098835343133022668382636766182 16:1 #
-0.79098835343133022668382636766182 19:1 #
-0.79098835343133022668382636766182 16:1 #
1.8588226305636261770359851652756 19:1 #
-0.79098835343133022668382636766182 19:1 #
-0.79098835343133022668382636766182 16:1 #
1.8588226305636261770359851652756 16:1 #
-0.79098835343133022668382636766182 19:1 #
-0.79098835343133022668382636766182 16:1 #
-0.79098835343133022668382636766182 19:1 #
1.8588226305636261770359851652756 19:1 #
-0.79098835343133022668382636766182 16:1 #
-0.79098835343133022668382636766182 19:1 #
1.8588226305636261770359851652756 16:1 #
-0.79098835343133022668382636766182 16:1 #
-0.79098835343133022668382636766182 19:1 #
1.8588226305636261770359851652756 19:1 #
-0.79098835343133022668382636766182 16:1 #
-0.79098835343133022668382636766182 19:1 #
1.8588226305636261770359851652756 16:1 #
-0.79098835343133022668382636766182 16:1 #
-0.79098835343133022668382636766182 19:1 #
-0.79098835343133022668382636766182 16:1 #
1.8588226305636261770359851652756 18:1 #
-0.79098835343133022668382636766182 18:1 #
-0.79098835343133022668382636766182 16:1 #
-0.79098835343133022668382636766182 18:1 #
1.8588226305636261770359851652756 16:1 #
-0.79098835343133022668382636766182 16:1 #
-0.79098835343133022668382636766182 18:1 #
1.8588226305636261770359851652756 18:1 #
-0.79098835343133022668382636766182 16:1 #
-0.79098835343133022668382636766182 18:1 #
1.8588226305636261770359851652756 16:1 #
-0.79098835343133022668382636766182 16:1 #
-0.79098835343133022668382636766182 18:1 #
1.8588226305636261770359851652756 18:1 #
-0.79098835343133022668382636766182 16:1 #
-0.79098835343133022668382636766182 18:1 #
1.8588226305636261770359851652756 19:1 #
1.8588226305636261770359851652756 10:1 #
-0.79098835343133022668382636766182 10:1 #
-0.79098835343133022668382636766182 17:1 #
-0.79098835343133022668382636766182 10:1 #
-0.79098835343133022668382636766182 17:1 #
1.8588226305636261770359851652756 17:1 #
-0.79098835343133022668382636766182 10:1 #
-0.79098835343133022668382636766182 17:1 #
1.8588226305636261770359851652756 10:1 #
-0.79098835343133022668382636766182 10:1 #
-0.79098835343133022668382636766182 17:1 #
1.8588226305636261770359851652756 17:1 #
-0.79098835343133022668382636766182 10:1 #
-0.79098835343133022668382636766182 17:1 #
1.8588226305636261770359851652756 10:1 #
-0.79098835343133022668382636766182 10:1 #
-0.79098835343133022668382636766182 17:1 #
-0.79098835343133022668382636766182 10:1 #
1.8588226305636261770359851652756 17:1 #
-0.79098835343133022668382636766182 19:1 #
-0.79098835343133022668382636766182 17:1 #
-0.79098835343133022668382636766182 19:1 #
-0.79098835343133022668382636766182 17:1 #
-0.79098835343133022668382636766182 19:1 #
-0.79098835343133022668382636766182 17:1 #
1.8588226305636261770359851652756 19:1 #
-0.56656476312738890399600677483249 9:1 #
-0.79098835343133022668382636766182 18:1 #
-0.46751973292698739692596632266941 12:1 #
-0.53473403241542549757525648601586 1:1 #
-0.54968222988836346054597470356384 16:1 #
1.8588226305636261770359851652756 13:1 #
-0.79098835343133022668382636766182 19:1 #
1.8588226305636261770359851652756 17:1 #
-0.79098835343133022668382636766182 13:1 #
-0.79098835343133022668382636766182 17:1 #
-0.79098835343133022668382636766182 8:1 #
1.8588226305636261770359851652756 16:1 #
-0.79098835343133022668382636766182 13:1 #
1.8588226305636261770359851652756 9:1 #
-0.79098835343133022668382636766182 17:1 #
-0.79098835343133022668382636766182 8:1 #
1.8588226305636261770359851652756 8:1 #
-0.79098835343133022668382636766182 18:1 #
1.8588226305636261770359851652756 18:1 #
-0.79098835343133022668382636766182 9:1 #
-0.79098835343133022668382636766182 18:1 #
-0.79098835343133022668382636766182 9:1 #
1.8588226305636261770359851652756 9:1 #
-0.79098835343133022668382636766182 18:1 #
-0.79098835343133022668382636766182 9:1 #
1.8588226305636261770359851652756 18:1 #
-0.79098835343133022668382636766182 18:1 #
-0.79098835343133022668382636766182 9:1 #
-0.79098835343133022668382636766182 18:1 #
1.8588226305636261770359851652756 18:1 #
-0.79098835343133022668382636766182 16:1 #
-0.79098835343133022668382636766182 18:1 #
1.8588226305636261770359851652756 10:1 #
-0.79098835343133022668382636766182 16:1 #
1.8588226305636261770359851652756 16:1 #
-0.79098835343133022668382636766182 10:1 #
-0.79098835343133022668382636766182 16:1 #
-0.79098835343133022668382636766182 20:1 #
-0.79098835343133022668382636766182 12:1 #
-0.79098835343133022668382636766182 20:1 #
1.8588226305636261770359851652756 12:1 #
-0.79098835343133022668382636766182 5:1 #
-0.79098835343133022668382636766182 12:1 #
1.8588226305636261770359851652756 5:1 #
-0.79098835343133022668382636766182 12:1 #
-0.79098835343133022668382636766182 5:1 #
1.8588226305636261770359851652756 20:1 #
-0.79098835343133022668382636766182 20:1 #
-0.79098835343133022668382636766182 5:1 #
-0.79098835343133022668382636766182 20:1 #
1.8588226305636261770359851652756 5:1 #
-0.79098835343133022668382636766182 5:1 #
-0.79098835343133022668382636766182 20:1 #
1.8588226305636261770359851652756 20:1 #
-0.79098835343133022668382636766182 5:1 #
-0.79098835343133022668382636766182 20:1 #
1.8588226305636261770359851652756 12:1 #
-0.79098835343133022668382636766182 16:1 #
-0.79098835343133022668382636766182 12:1 #
1.8588226305636261770359851652756 16:1 #
-0.79098835343133022668382636766182 16:1 #
-0.79098835343133022668382636766182 12:1 #
-0.79098835343133022668382636766182 16:1 #
-0.79098835343133022668382636766182 12:1 #
1.8588226305636261770359851652756 12:1 #
1.8588226305636261770359851652756 16:1 #
-0.79098835343133022668382636766182 16:1 #
-0.79098835343133022668382636766182 12:1 #
-0.79098835343133022668382636766182 16:1 #
-0.79098835343133022668382636766182 12:1 #
1.8588226305636261770359851652756 12:1 #
-0.79098835343133022668382636766182 16:1 #
1.8588226305636261770359851652756 16:1 #
-0.79098835343133022668382636766182 12:1 #
-0.79098835343133022668382636766182 16:1 #
-0.79098835343133022668382636766182 12:1 #
-0.79098835343133022668382636766182 16:1 #
-0.79098835343133022668382636766182 2:1 #
-0.79098835343133022668382636766182 7:1 #
1.8588226305636261770359851652756 2:1 #
-0.79098835343133022668382636766182 18:1 #
-0.79098835343133022668382636766182 7:1 #
-0.79098835343133022668382636766182 18:1 #
1.8588226305636261770359851652756 18:1 #
-0.79098835343133022668382636766182 7:1 #
-0.79098835343133022668382636766182 16:1 #
-0.79098835343133022668382636766182 19:1 #
1.8588226305636261770359851652756 16:1 #
-0.79098835343133022668382636766182 2:1 #
-0.79098835343133022668382636766182 2:1 #
1.8588226305636261770359851652756 2:1 #
-0.79098835343133022668382636766182 16:1 #
-0.79098835343133022668382636766182 2:1 #
-0.79098835343133022668382636766182 19:1 #
1.8588226305636261770359851652756 19:1 #
-0.79098835343133022668382636766182 2:1 #
-0.79098835343133022668382636766182 19:1 #
1.8588226305636261770359851652756 2:1 #
-0.79098835343133022668382636766182 2:1 #
-0.79098835343133022668382636766182 19:1 #
-0.79098835343133022668382636766182 2:1 #
-0.79098835343133022668382636766182 16:1 #
1.8588226305636261770359851652756 19:1 #
-0.79098835343133022668382636766182 2:1 #
1.8588226305636261770359851652756 2:1 #
-0.79098835343133022668382636766182 19:1 #
-0.79098835343133022668382636766182 2:1 #
-0.79098835343133022668382636766182 19:1 #
-0.79098835343133022668382636766182 2:1 #
-0.79098835343133022668382636766182 19:1 #
1.8588226305636261770359851652756 19:1 #
1.8588226305636261770359851652756 2:1 #
-0.79098835343133022668382636766182 2:1 #
-0.79098835343133022668382636766182 19:1 #
-0.79098835343133022668382636766182 2:1 #
-0.79098835343133022668382636766182 19:1 #
1.8588226305636261770359851652756 19:1 #
1.8588226305636261770359851652756 2:1 #
-0.79098835343133022668382636766182 14:1 #
-0.79098835343133022668382636766182 10:1 #
-0.79098835343133022668382636766182 3:1 #
-0.78080160547741517262920751818456 16:1 #
1.8588226305636261770359851652756 18:1 #
1.8588226305636261770359851652756 4:1 #
-0.79098835343133022668382636766182 18:1 #
1.8588226305636261770359851652756 16:1 #
-0.79098835343133022668382636766182 4:1 #
-0.79098835343133022668382636766182 18:1 #
1.8588226305636261770359851652756 14:1 #
-0.79098835343133022668382636766182 4:1 #
1.8588226305636261770359851652756 3:1 #
-0.68107004541439164491123392508598 2:1 #
-0.79098835343133022668382636766182 18:1 #
1.8588226305636261770359851652756 4:1 #
-0.79098835343133022668382636766182 18:1 #
-0.79098835343133022668382636766182 4:1 #
-0.79098835343133022668382636766182 13:1 #
1.8588226305636261770359851652756 13:1 #
-0.79098835343133022668382636766182 4:1 #
-0.79098835343133022668382636766182 13:1 #
-0.79098835343133022668382636766182 4:1 #
-0.79098835343133022668382636766182 13:1 #
1.8588226305636261770359851652756 4:1 #
1.8588226305636261770359851652756 13:1 #
-0.79098835343133022668382636766182 4:1 #
-0.79098835343133022668382636766182 13:1 #
-0.79098835343133022668382636766182 4:1 #
-0.79098835343133022668382636766182 13:1 #
1.8588226305636261770359851652756 4:1 #
-0.79098835343133022668382636766182 4:1 #
1.8588226305636261770359851652756 13:1 #
-0.79098835343133022668382636766182 13:1 #
-0.79098835343133022668382636766182 4:1 #
-0.79098835343133022668382636766182 13:1 #
1.8588226305636261770359851652756 18:1 #
-0.79098835343133022668382636766182 18:1 #
-0.79098835343133022668382636766182 13:1 #
1.8588226305636261770359851652756 13:1 #
-0.79098835343133022668382636766182 18:1 #
-0.79098835343133022668382636766182 13:1 #
-0.79098835343133022668382636766182 18:1 #
-0.79098835343133022668382636766182 13:1 #
1.8588226305636261770359851652756 18:1 #
1.8588226305636261770359851652756 13:1 #
-0.79098835343133022668382636766182 18:1 #
-0.79098835343133022668382636766182 13:1 #
-0.79098835343133022668382636766182 18:1 #
-0.79098835343133022668382636766182 13:1 #
1.8588226305636261770359851652756 18:1 #
-0.79098835343133022668382636766182 18:1 #
-0.79098835343133022668382636766182 16:1 #
-0.79098835343133022668382636766182 18:1 #
-0.79098835343133022668382636766182 2:1 #
-0.79098835343133022668382636766182 18:1 #
-0.79098835343133022668382636766182 3:1 #
1.8588226305636261770359851652756 16:1 #
-0.79098835343133022668382636766182 2:1 #
1.8588226305636261770359851652756 2:1 #
-0.79098835343133022668382636766182 16:1 #
-0.79098835343133022668382636766182 2:1 #
-0.79098835343133022668382636766182 16:1 #
-0.79098835343133022668382636766182 2:1 #
1.8588226305636261770359851652756 13:1 #
-0.79098835343133022668382636766182 16:1 #
1.8588226305636261770359851652756 16:1 #
-0.79098835343133022668382636766182 13:1 #
-0.79098835343133022668382636766182 16:1 #
-0.79098835343133022668382636766182 13:1 #
-0.79098835343133022668382636766182 16:1 #
-0.79098835343133022668382636766182 13:1 #
1.8588226305636261770359851652756 13:1 #
1.8588226305636261770359851652756 16:1 #
-0.79098835343133022668382636766182 16:1 #
-0.79098835343133022668382636766182 13:1 #
-0.79098835343133022668382636766182 16:1 #
-0.79098835343133022668382636766182 13:1 #
1.8588226305636261770359851652756 13:1 #
1.8588226305636261770359851652756 16:1 #
-0.79098835343133022668382636766182 16:1 #
-0.79098835343133022668382636766182 13:1 #
-0.79098835343133022668382636766182 16:1 #
-0.79098835343133022668382636766182 13:1 #
-0.79098835343133022668382636766182 16:1 #
-0.79098835343133022668382636766182 3:1 #
-0.79098835343133022668382636766182 2:1 #
1.8588226305636261770359851652756 3:1 #
1.8588226305636261770359851652756 2:1 #
-0.79098835343133022668382636766182 3:1 #
-0.79098835343133022668382636766182 2:1 #
-0.79098835343133022668382636766182 3:1 #
1.8588226305636261770359851652756 3:1 #
-0.79098835343133022668382636766182 2:1 #
1.8588226305636261770359851652756 2:1 #
-0.79098835343133022668382636766182 3:1 #
-0.79098835343133022668382636766182 2:1 #
-0.79098835343133022668382636766182 3:1 #
-0.79098835343133022668382636766182 2:1 #
1.8588226305636261770359851652756 3:1 #
-0.79098835343133022668382636766182 3:1 #
1.8588226305636261770359851652756 2:1 #
-0.79098835343133022668382636766182 2:1 #
-0.79098835343133022668382636766182 3:1 #
-0.79098835343133022668382636766182 2:1 #
1.8588226305636261770359851652756 10:1 #
-0.79098835343133022668382636766182 3:1 #
1.8588226305636261770359851652756 3:1 #
-0.79098835343133022668382636766182 10:1 #
-0.79098835343133022668382636766182 3:1 #
-0.79098835343133022668382636766182 10:1 #
-0.79098835343133022668382636766182 3:1 #
-0.79098835343133022668382636766182 10:1 #
-0.10280073879720302842954993138846 14:1 #
-0.11410895168780457731294575296488 20:1 #
-0.11430568205282351512686034311628 8:1 #
-0.79098835343133022668382636766182 15:1 #
1.8588226305636261770359851652756 20:1 #
1.8588226305636261770359851652756 10:1 #
0.94551384163914442559928374976153 18:1 #
-0.79098835343133022668382636766182 18:1 #
1.8588226305636261770359851652756 15:1 #
-0.79098835343133022668382636766182 20:1 #
-0.79098835343133022668382636766182 15:1 #
-0.79098835343133022668382636766182 20:1 #
-0.79098835343133022668382636766182 15:1 #
1.8588226305636261770359851652756 20:1 #
-0.79098835343133022668382636766182 20:1 #
1.8588226305636261770359851652756 18:1 #
-0.79098835343133022668382636766182 4:1 #
1.8588226305636261770359851652756 15:1 #
-0.79098835343133022668382636766182 14:1 #
1.8588226305636261770359851652756 4:1 #
-0.79098835343133022668382636766182 8:1 #
-0.79098835343133022668382636766182 14:1 #
1.8588226305636261770359851652756 14:1 #
-0.79098835343133022668382636766182 15:1 #
-0.79098835343133022668382636766182 14:1 #
-0.79098835343133022668382636766182 4:1 #
-0.79098835343133022668382636766182 14:1 #
-0.79098835343133022668382636766182 4:1 #
-0.79098835343133022668382636766182 15:1 #
-0.79098835343133022668382636766182 8:1 #
1.8588226305636261770359851652756 14:1 #
1.8588226305636261770359851652756 4:1 #
-0.79098835343133022668382636766182 14:1 #
-0.79098835343133022668382636766182 4:1 #
-0.79098835343133022668382636766182 14:1 #
-0.79098835343133022668382636766182 4:1 #
1.8588226305636261770359851652756 14:1 #
-0.79098835343133022668382636766182 10:1 #
-0.79098835343133022668382636766182 14:1 #
-0.79098835343133022668382636766182 10:1 #
-0.79098835343133022668382636766182 14:1 #
1.8588226305636261770359851652756 10:1 #
-0.79098835343133022668382636766182 10:1 #
-0.79098835343133022668382636766182 14:1 #
1.8588226305636261770359851652756 14:1 #
-0.79098835343133022668382636766182 10:1 #
-0.79098835343133022668382636766182 14:1 #
-0.79098835343133022668382636766182 18:1 #
1.8588226305636261770359851652756 4:1 #
-0.79098835343133022668382636766182 4:1 #
-0.79098835343133022668382636766182 18:1 #
-0.79098835343133022668382636766182 4:1 #
-0.79098835343133022668382636766182 3:1 #
1.8588226305636261770359851652756 3:1 #
-0.79098835343133022668382636766182 20:1 #
-0.79098835343133022668382636766182 3:1 #
1.8588226305636261770359851652756 20:1 #
-0.79098835343133022668382636766182 20:1 #
-0.79098835343133022668382636766182 3:1 #
-0.79098835343133022668382636766182 20:1 #
1.8588226305636261770359851652756 3:1 #
-0.79098835343133022668382636766182 3:1 #
-0.79098835343133022668382636766182 4:1 #
1.8588226305636261770359851652756 4:1 #
-0.79098835343133022668382636766182 3:1 #
-0.79098835343133022668382636766182 4:1 #
1.8588226305636261770359851652756 3:1 #
-0.79098835343133022668382636766182 3:1 #
-0.79098835343133022668382636766182 4:1 #
1.8588226305636261770359851652756 4:1 #
-0.79098835343133022668382636766182 3:1 #
-0.79098835343133022668382636766182 4:1 #
-0.79098835343133022668382636766182 3:1 #
1.8588226305636261770359851652756 3:1 #
-0.79098835343133022668382636766182 4:1 #
-0.79098835343133022668382636766182 3:1 #
1.8588226305636261770359851652756 4:1 #
-0.79098835343133022668382636766182 4:1 #
-0.79098835343133022668382636766182 3:1 #
-0.79098835343133022668382636766182 4:1 #
1.8588226305636261770359851652756 3:1 #
-0.79098835343133022668382636766182 3:1 #
-0.79098835343133022668382636766182 4:1 #
1.8588226305636261770359851652756 4:1 #
-0.79098835343133022668382636766182 3:1 #
-0.79098835343133022668382636766182 4:1 #
1.8588226305636261770359851652756 3:1 #
-0.79098835343133022668382636766182 3:1 #
-0.79098835343133022668382636766182 4:1 #
1.8588226305636261770359851652756 4:1 #
-0.79098835343133022668382636766182 3:1 #
-0.79098835343133022668382636766182 4:1 #
-0.79098835343133022668382636766182 3:1 #
1.8588226305636261770359851652756 3:1 #
-0.79098835343133022668382636766182 4:1 #
-0.79098835343133022668382636766182 3:1 #
1.8588226305636261770359851652756 4:1 #
-0.79098835343133022668382636766182 4:1 #
-0.79098835343133022668382636766182 3:1 #
-0.79098835343133022668382636766182 4:1 #
1.8588226305636261770359851652756 3:1 #
-0.79098835343133022668382636766182 3:1 #
-0.79098835343133022668382636766182 4:1 #
1.8588226305636261770359851652756 4:1 #
-0.79098835343133022668382636766182 8:1 #
-0.79098835343133022668382636766182 9:1 #
-0.79098835343133022668382636766182 1:1 #
-0.79098835343133022668382636766182 20:1 #
1.8588226305636261770359851652756 2:1 #
1.0966747370816660733794378757011 15:1 #
1.8588226305636261770359851652756 14:1 #
0.79520660268542486814880021483987 18:1 #
-0.79098835343133022668382636766182 18:1 #
1.8588226305636261770359851652756 8:1 #
1.8588226305636261770359851652756 20:1 #
-0.79098835343133022668382636766182 2:1 #
-0.79098835343133022668382636766182 15:1 #
1.8588226305636261770359851652756 9:1 #
-0.79098835343133022668382636766182 14:1 #
-0.79098835343133022668382636766182 3:1 #
-0.79098835343133022668382636766182 9:1 #
1.8588226305636261770359851652756 3:1 #
-0.79098835343133022668382636766182 9:1 #
-0.79098835343133022668382636766182 14:1 #
1.8588226305636261770359851652756 9:1 #
-0.79098835343133022668382636766182 3:1 #
-0.79098835343133022668382636766182 9:1 #
-0.79098835343133022668382636766182 3:1 #
-0.79098835343133022668382636766182 9:1 #
-0.79098835343133022668382636766182 3:1 #
1.8588226305636261770359851652756 3:1 #
-0.79098835343133022668382636766182 14:1 #
1.8588226305636261770359851652756 14:1 #
-0.79098835343133022668382636766182 9:1 #
1.8588226305636261770359851652756 9:1 #
-0.79098835343133022668382636766182 14:1 #
-0.79098835343133022668382636766182 9:1 #
-0.79098835343133022668382636766182 14:1 #
-0.79098835343133022668382636766182 9:1 #
1.8588226305636261770359851652756 14:1 #
1.8588226305636261770359851652756 9:1 #
-0.79098835343133022668382636766182 14:1 #
-0.79098835343133022668382636766182 9:1 #
-0.79098835343133022668382636766182 14:1 #
-0.79098835343133022668382636766182 9:1 #
1.8588226305636261770359851652756 14:1 #
-0.79098835343133022668382636766182 14:1 #
1.8588226305636261770359851652756 9:1 #
-0.79098835343133022668382636766182 9:1 #
-0.79098835343133022668382636766182 14:1 #
-0.79098835343133022668382636766182 9:1 #
-0.79098835343133022668382636766182 14:1 #
1.8588226305636261770359851652756 14:1 #
-0.79098835343133022668382636766182 9:1 #
1.8588226305636261770359851652756 9:1 #
-0.79098835343133022668382636766182 14:1 #
-0.79098835343133022668382636766182 9:1 #
-0.79098835343133022668382636766182 14:1 #
-0.79098835343133022668382636766182 9:1 #
1.8588226305636261770359851652756 14:1 #
1.8588226305636261770359851652756 9:1 #
-0.79098835343133022668382636766182 14:1 #
-0.79098835343133022668382636766182 9:1 #
-0.79098835343133022668382636766182 14:1 #
-0.79098835343133022668382636766182 9:1 #
1.8588226305636261770359851652756 14:1 #
-0.79098835343133022668382636766182 14:1 #
1.8588226305636261770359851652756 9:1 #
-0.79098835343133022668382636766182 9:1 #
-0.79098835343133022668382636766182 14:1 #
-0.79098835343133022668382636766182 9:1 #
-0.79098835343133022668382636766182 14:1 #
1.8588226305636261770359851652756 14:1 #
-0.79098835343133022668382636766182 9:1 #
1.8588226305636261770359851652756 9:1 #
-0.79098835343133022668382636766182 14:1 #
-0.79098835343133022668382636766182 9:1 #
-0.79098835343133022668382636766182 14:1 #
-0.79098835343133022668382636766182 9:1 #
1.8588226305636261770359851652756 14:1 #
1.8588226305636261770359851652756 9:1 #
-0.79098835343133022668382636766182 14:1 #
-0.79098835343133022668382636766182 9:1 #
-0.79098835343133022668382636766182 14:1 #
-0.79098835343133022668382636766182 9:1 #
1.8588226305636261770359851652756 14:1 #
-0.79098835343133022668382636766182 14:1 #
-0.79098835343133022668382636766182 4:1 #
-0.79098835343133022668382636766182 14:1 #
-0.79098835343133022668382636766182 3:1 #
-0.79098835343133022668382636766182 14:1 #
1.8588226305636261770359851652756 14:1 #
-0.79098835343133022668382636766182 4:1 #
1.8588226305636261770359851652756 4:1 #
-0.79098835343133022668382636766182 14:1 #
-0.79098835343133022668382636766182 4:1 #
-0.79098835343133022668382636766182 14:1 #
-0.79098835343133022668382636766182 4:1 #
1.8588226305636261770359851652756 14:1 #
-0.79098835343133022668382636766182 14:1 #
1.8588226305636261770359851652756 4:1 #
-0.79098835343133022668382636766182 4:1 #
-0.79098835343133022668382636766182 14:1 #
-0.79098835343133022668382636766182 4:1 #
1.8588226305636261770359851652756 14:1 #
-0.79098835343133022668382636766182 14:1 #
-0.79098835343133022668382636766182 4:1 #
1.8588226305636261770359851652756 4:1 #
-0.79098835343133022668382636766182 14:1 #
-0.79098835343133022668382636766182 4:1 #
-0.79098835343133022668382636766182 14:1 #
-0.79098835343133022668382636766182 4:1 #
1.8588226305636261770359851652756 14:1 #
1.8588226305636261770359851652756 4:1 #
-0.79098835343133022668382636766182 14:1 #
-0.79098835343133022668382636766182 4:1 #
-0.79098835343133022668382636766182 15:1 #
-0.70910649815070991852650195141905 16:1 #
-0.53796569391494386547236672413419 4:1 #
-0.79098835343133022668382636766182 18:1 #
-0.69424638122370740944688805029728 3:1 #
1.8588226305636261770359851652756 17:1 #
1.8588226305636261770359851652756 9:1 #
1.8588226305636261770359851652756 16:1 #
-0.79098835343133022668382636766182 9:1 #
-0.79098835343133022668382636766182 17:1 #
0.39549549879742035285445922454528 18:1 #
-0.79098835343133022668382636766182 9:1 #
1.8588226305636261770359851652756 18:1 #
-0.79098835343133022668382636766182 17:1 #
1.8588226305636261770359851652756 15:1 #
-0.79098835343133022668382636766182 14:1 #
-0.79098835343133022668382636766182 4:1 #
1.8588226305636261770359851652756 4:1 #
1.8588226305636261770359851652756 16:1 #
1.8588226305636261770359851652756 9:1 #
-0.79098835343133022668382636766182 4:1 #
-0.79098835343133022668382636766182 9:1 #
-0.79098835343133022668382636766182 4:1 #
1.8588226305636261770359851652756 4:1 #
-0.79098835343133022668382636766182 9:1 #
-0.79098835343133022668382636766182 4:1 #
-0.79098835343133022668382636766182 16:1 #
-0.79098835343133022668382636766182 4:1 #
-0.79098835343133022668382636766182 16:1 #
-0.79098835343133022668382636766182 17:1 #
-0.79098835343133022668382636766182 16:1 #
-0.79098835343133022668382636766182 18:1 #
1.8588226305636261770359851652756 16:1 #
-0.79098835343133022668382636766182 15:1 #
1.8588226305636261770359851652756 17:1 #
-0.79098835343133022668382636766182 15:1 #
1.8588226305636261770359851652756 15:1 #
-0.79098835343133022668382636766182 17:1 #
-0.79098835343133022668382636766182 15:1 #
-0.79098835343133022668382636766182 17:1 #
-0.79098835343133022668382636766182 15:1 #
1.8588226305636261770359851652756 17:1 #
-0.79098835343133022668382636766182 17:1 #
-0.79098835343133022668382636766182 16:1 #
-0.79098835343133022668382636766182 17:1 #
-0.79098835343133022668382636766182 18:1 #
-0.79098835343133022668382636766182 17:1 #
1.8588226305636261770359851652756 17:1 #
1.8588226305636261770359851652756 4:1 #
-0.79098835343133022668382636766182 9:1 #
1.8588226305636261770359851652756 9:1 #
-0.79098835343133022668382636766182 4:1 #
-0.79098835343133022668382636766182 9:1 #
-0.79098835343133022668382636766182 4:1 #
-0.79098835343133022668382636766182 9:1 #
-0.79098835343133022668382636766182 4:1 #
1.8588226305636261770359851652756 4:1 #
1.8588226305636261770359851652756 9:1 #
-0.79098835343133022668382636766182 9:1 #
-0.79098835343133022668382636766182 4:1 #
-0.79098835343133022668382636766182 9:1 #
-0.79098835343133022668382636766182 4:1 #
1.8588226305636261770359851652756 4:1 #
1.8588226305636261770359851652756 9:1 #
-0.79098835343133022668382636766182 9:1 #
-0.79098835343133022668382636766182 4:1 #
-0.79098835343133022668382636766182 9:1 #
-0.79098835343133022668382636766182 4:1 #
-0.79098835343133022668382636766182 9:1 #
-0.79098835343133022668382636766182 16:1 #
1.8588226305636261770359851652756 16:1 #
-0.79098835343133022668382636766182 17:1 #
-0.79098835343133022668382636766182 16:1 #
-0.79098835343133022668382636766182 17:1 #
-0.79098835343133022668382636766182 16:1 #
1.8588226305636261770359851652756 17:1 #
1.8588226305636261770359851652756 16:1 #
-0.79098835343133022668382636766182 17:1 #
-0.79098835343133022668382636766182 16:1 #
-0.79098835343133022668382636766182 17:1 #
-0.79098835343133022668382636766182 16:1 #
1.8588226305636261770359851652756 17:1 #
-0.79098835343133022668382636766182 17:1 #
1.8588226305636261770359851652756 16:1 #
-0.79098835343133022668382636766182 16:1 #
-0.79098835343133022668382636766182 17:1 #
-0.79098835343133022668382636766182 16:1 #
-0.79098835343133022668382636766182 17:1 #
1.8588226305636261770359851652756 17:1 #
-0.79098835343133022668382636766182 16:1 #
1.8588226305636261770359851652756 16:1 #
-0.79098835343133022668382636766182 17:1 #
-0.79098835343133022668382636766182 16:1 #
-0.79098835343133022668382636766182 17:1 #
-0.79098835343133022668382636766182 16:1 #
1.8588226305636261770359851652756 17:1 #
1.8588226305636261770359851652756 16:1 #
-0.79098835343133022668382636766182 17:1 #
-0.79098835343133022668382636766182 16:1 #
-0.79098835343133022668382636766182 17:1 #
-0.79098835343133022668382636766182 16:1 #
1.8588226305636261770359851652756 17:1 #
-0.79098835343133022668382636766182 17:1 #
1.8588226305636261770359851652756 16:1 #
-0.79098835343133022668382636766182 16:1 #
-0.79098835343133022668382636766182 17:1 #
-0.79098835343133022668382636766182 16:1 #
-0.79098835343133022668382636766182 17:1 #
1.8588226305636261770359851652756 17:1 #
-0.79098835343133022668382636766182 16:1 #
1.8588226305636261770359851652756 16:1 #
-0.79098835343133022668382636766182 17:1 #
-0.79098835343133022668382636766182 16:1 #
-0.79098835343133022668382636766182 15:1 #
-0.79098835343133022668382636766182 20:1 #
-0.79098835343133022668382636766182 1:1 #
-0.79098835343133022668382636766182 18:1 #
1.8588226305636261770359851652756 16:1 #
1.8588226305636261770359851652756 7:1 #
1.8588226305636261770359851652756 18:1 #
1.8588226305636261770359851652756 20:1 #
-0.79098835343133022668382636766182 16:1 #
-0.79098835343133022668382636766182 7:1 #
1.8588226305636261770359851652756 15:1 #
-0.79098835343133022668382636766182 7:1 #
1.8588226305636261770359851652756 1:1 #
-0.79098835343133022668382636766182 16:1 #
-0.79098835343133022668382636766182 17:1 #
-0.79098835343133022668382636766182 16:1 #
1.8588226305636261770359851652756 9:1 #
1.8588226305636261770359851652756 7:1 #
-0.79098835343133022668382636766182 9:1 #
-0.79098835343133022668382636766182 9:1 #
-0.79098835343133022668382636766182 1:1 #
1.8588226305636261770359851652756 9:1 #
1.8588226305636261770359851652756 1:1 #
-0.79098835343133022668382636766182 9:1 #
-0.79098835343133022668382636766182 1:1 #
-0.79098835343133022668382636766182 9:1 #
-0.79098835343133022668382636766182 1:1 #
1.8588226305636261770359851652756 17:1 #
-0.79098835343133022668382636766182 7:1 #
-0.79098835343133022668382636766182 17:1 #
-0.79098835343133022668382636766182 7:1 #
-0.79098835343133022668382636766182 17:1 #
1.8588226305636261770359851652756 7:1 #
-0.79098835343133022668382636766182 7:1 #
-0.79098835343133022668382636766182 15:1 #
-0.79098835343133022668382636766182 7:1 #
-0.79098835343133022668382636766182 15:1 #
-0.79098835343133022668382636766182 9:1 #
1.8588226305636261770359851652756 9:1 #
-0.79098835343133022668382636766182 18:1 #
-0.79098835343133022668382636766182 9:1 #
-0.79098835343133022668382636766182 15:1 #
-0.79098835343133022668382636766182 18:1 #
1.8588226305636261770359851652756 18:1 #
-0.79098835343133022668382636766182 20:1 #
1.8588226305636261770359851652756 15:1 #
-0.79098835343133022668382636766182 18:1 #
-0.79098835343133022668382636766182 15:1 #
-0.79098835343133022668382636766182 18:1 #
1.8588226305636261770359851652756 18:1 #
-0.79098835343133022668382636766182 15:1 #
-0.79098835343133022668382636766182 18:1 #
1.8588226305636261770359851652756 15:1 #
-0.79098835343133022668382636766182 15:1 #
-0.79098835343133022668382636766182 18:1 #
-0.79098835343133022668382636766182 15:1 #
-0.79098835343133022668382636766182 18:1 #
1.8588226305636261770359851652756 18:1 #
1.8588226305636261770359851652756 15:1 #
-0.79098835343133022668382636766182 15:1 #
-0.79098835343133022668382636766182 18:1 #
-0.79098835343133022668382636766182 15:1 #
-0.79098835343133022668382636766182 18:1 #
1.8588226305636261770359851652756 18:1 #
-0.79098835343133022668382636766182 15:1 #
-0.79098835343133022668382636766182 18:1 #
1.8588226305636261770359851652756 15:1 #
-0.79098835343133022668382636766182 15:1 #
-0.79098835343133022668382636766182 18:1 #
-0.79098835343133022668382636766182 15:1 #
1.8588226305636261770359851652756 18:1 #
-0.79098835343133022668382636766182 18:1 #
1.8588226305636261770359851652756 15:1 #
-0.79098835343133022668382636766182 15:1 #
-0.79098835343133022668382636766182 18:1 #
-0.79098835343133022668382636766182 15:1 #
-0.79098835343133022668382636766182 18:1 #
1.8588226305636261770359851652756 18:1 #
1.8588226305636261770359851652756 15:1 #
-0.79098835343133022668382636766182 15:1 #
-0.79098835343133022668382636766182 18:1 #
-0.79098835343133022668382636766182 15:1 #
-0.79098835343133022668382636766182 18:1 #
1.8588226305636261770359851652756 18:1 #
-0.79098835343133022668382636766182 15:1 #
-0.79098835343133022668382636766182 18:1 #
1.8588226305636261770359851652756 15:1 #
-0.79098835343133022668382636766182 15:1 #
-0.79098835343133022668382636766182 18:1 #
-0.79098835343133022668382636766182 15:1 #
1.8588226305636261770359851652756 18:1 #
-0.79098835343133022668382636766182 18:1 #
1.8588226305636261770359851652756 16:1 #
-0.79098835343133022668382636766182 18:1 #
-0.79098835343133022668382636766182 15:1 #
1.8588226305636261770359851652756 15:1 #
-0.79098835343133022668382636766182 16:1 #
-0.79098835343133022668382636766182 15:1 #
-0.79098835343133022668382636766182 16:1 #
1.8588226305636261770359851652756 16:1 #
-0.79098835343133022668382636766182 15:1 #
-0.79098835343133022668382636766182 16:1 #
1.8588226305636261770359851652756 15:1 #
-0.79098835343133022668382636766182 15:1 #
-0.79098835343133022668382636766182 16:1 #
-0.79098835343133022668382636766182 15:1 #
1.8588226305636261770359851652756 16:1 #
-0.79098835343133022668382636766182 16:1 #
1.8588226305636261770359851652756 15:1 #
-0.79098835343133022668382636766182 15:1 #
-0.79098835343133022668382636766182 16:1 #
-0.79098835343133022668382636766182 9:1 #
-0.79098835343133022668382636766182 5:1 #
-0.79098835343133022668382636766182 6:1 #
-0.79098835343133022668382636766182 10:1 #
-0.79098835343133022668382636766182 13:1 #
1.8588226305636261770359851652756 16:1 #
1.8588226305636261770359851652756 7:1 #
1.8588226305636261770359851652756 20:1 #
1.8588226305636261770359851652756 9:1 #
-0.79098835343133022668382636766182 16:1 #
1.8588226305636261770359851652756 5:1 #
-0.79098835343133022668382636766182 20:1 #
-0.79098835343133022668382636766182 7:1 #
1.8588226305636261770359851652756 10:1 #
-0.79098835343133022668382636766182 16:1 #
-0.79098835343133022668382636766182 7:1 #
1.8588226305636261770359851652756 13:1 #
-0.79098835343133022668382636766182 15:1 #
-0.79098835343133022668382636766182 20:1 #
-0.79098835343133022668382636766182 7:1 #
1.8588226305636261770359851652756 7:1 #
-0.79098835343133022668382636766182 5:1 #
-0.79098835343133022668382636766182 7:1 #
-0.79098835343133022668382636766182 18:1 #
-0.79098835343133022668382636766182 13:1 #
1.8588226305636261770359851652756 18:1 #
-0.79098835343133022668382636766182 13:1 #
-0.79098835343133022668382636766182 18:1 #
-0.79098835343133022668382636766182 13:1 #
1.8588226305636261770359851652756 13:1 #
-0.79098835343133022668382636766182 5:1 #
1.8588226305636261770359851652756 5:1 #
-0.79098835343133022668382636766182 13:1 #
-0.79098835343133022668382636766182 5:1 #
-0.79098835343133022668382636766182 13:1 #
-0.79098835343133022668382636766182 5:1 #
1.8588226305636261770359851652756 13:1 #
1.8588226305636261770359851652756 5:1 #
-0.79098835343133022668382636766182 13:1 #
-0.79098835343133022668382636766182 5:1 #
-0.79098835343133022668382636766182 13:1 #
-0.79098835343133022668382636766182 5:1 #
-0.79098835343133022668382636766182 5:1 #
-0.79098835343133022668382636766182 10:1 #
-0.79098835343133022668382636766182 15:1 #
-0.79098835343133022668382636766182 20:1 #
1.8588226305636261770359851652756 5:1 #
-0.79098835343133022668382636766182 10:1 #
1.8588226305636261770359851652756 10:1 #
-0.79098835343133022668382636766182 5:1 #
-0.79098835343133022668382636766182 10:1 #
-0.79098835343133022668382636766182 5:1 #
-0.79098835343133022668382636766182 10:1 #
1.8588226305636261770359851652756 5:1 #
1.8588226305636261770359851652756 20:1 #
-0.79098835343133022668382636766182 5:1 #
-0.79098835343133022668382636766182 20:1 #
-0.79098835343133022668382636766182 5:1 #
-0.79098835343133022668382636766182 20:1 #
-0.79098835343133022668382636766182 10:1 #
-0.79098835343133022668382636766182 9:1 #
1.8588226305636261770359851652756 15:1 #
-0.79098835343133022668382636766182 15:1 #
1.8588226305636261770359851652756 10:1 #
-0.79098835343133022668382636766182 15:1 #
-0.79098835343133022668382636766182 10:1 #
1.8588226305636261770359851652756 20:1 #
-0.79098835343133022668382636766182 15:1 #
1.8588226305636261770359851652756 15:1 #
-0.79098835343133022668382636766182 20:1 #
-0.79098835343133022668382636766182 15:1 #
-0.79098835343133022668382636766182 20:1 #
-0.79098835343133022668382636766182 15:1 #
-0.79098835343133022668382636766182 20:1 #
1.8588226305636261770359851652756 20:1 #
1.8588226305636261770359851652756 15:1 #
-0.79098835343133022668382636766182 15:1 #
-0.79098835343133022668382636766182 20:1 #
-0.79098835343133022668382636766182 15:1 #
-0.79098835343133022668382636766182 20:1 #
1.8588226305636261770359851652756 20:1 #
-0.79098835343133022668382636766182 20:1 #
-0.79098835343133022668382636766182 18:1 #
-0.79098835343133022668382636766182 20:1 #
1.8588226305636261770359851652756 18:1 #
-0.79098835343133022668382636766182 18:1 #
1.8588226305636261770359851652756 15:1 #
-0.79098835343133022668382636766182 15:1 #
-0.79098835343133022668382636766182 18:1 #
-0.79098835343133022668382636766182 15:1 #
-0.79098835343133022668382636766182 18:1 #
1.8588226305636261770359851652756 18:1 #
-0.79098835343133022668382636766182 15:1 #
-0.79098835343133022668382636766182 18:1 #
1.8588226305636261770359851652756 15:1 #
-0.79098835343133022668382636766182 15:1 #
-0.79098835343133022668382636766182 18:1 #
1.8588226305636261770359851652756 18:1 #
-0.79098835343133022668382636766182 15:1 #
-0.79098835343133022668382636766182 18:1 #
1.8588226305636261770359851652756 15:1 #
-0.79098835343133022668382636766182 15:1 #
-0.79098835343133022668382636766182 18:1 #
-0.79098835343133022668382636766182 15:1 #
1.8588226305636261770359851652756 18:1 #
-0.79098835343133022668382636766182 18:1 #
1.8588226305636261770359851652756 20:1 #
-0.79098835343133022668382636766182 20:1 #
-0.79098835343133022668382636766182 18:1 #
-0.79098835343133022668382636766182 20:1 #
-0.79098835343133022668382636766182 18:1 #
1.8588226305636261770359851652756 18:1 #
-0.79098835343133022668382636766182 20:1 #
-0.79098835343133022668382636766182 18:1 #
1.8588226305636261770359851652756 20:1 #
-0.79098835343133022668382636766182 20:1 #
-0.79098835343133022668382636766182 18:1 #
1.8588226305636261770359851652756 18:1 #
-0.79098835343133022668382636766182 20:1 #
-0.79098835343133022668382636766182 18:1 #
-0.6381950378009320079542021630914 14:1 #
-0.65850064522745366257794330522302 6:1 #
-0.66244921782249210906456937664188 16:1 #
-0.66154470018066113823351770406589 8:1 #
-0.79098835343133022668382636766182 19:1 #
1.8588226305636261770359851652756 9:1 #
1.6829593710924246607874010805972 15:1 #
1.8588226305636261770359851652756 16:1 #
-0.79098835343133022668382636766182 15:1 #
-0.79098835343133022668382636766182 15:1 #
1.8588226305636261770359851652756 20:1 #
-0.79098835343133022668382636766182 9:1 #
1.8588226305636261770359851652756 8:1 #
-0.79098835343133022668382636766182 9:1 #
-0.79098835343133022668382636766182 18:1 #
1.8588226305636261770359851652756 6:1 #
-0.79098835343133022668382636766182 20:1 #
-0.79098835343133022668382636766182 8:1 #
1.8588226305636261770359851652756 14:1 #
-0.79098835343133022668382636766182 18:1 #
-0.79098835343133022668382636766182 14:1 #
-0.79098835343133022668382636766182 20:1 #
-0.79098835343133022668382636766182 8:1 #
1.8588226305636261770359851652756 8:1 #
-0.79098835343133022668382636766182 16:1 #
1.8588226305636261770359851652756 16:1 #
-0.79098835343133022668382636766182 8:1 #
-0.79098835343133022668382636766182 16:1 #
-0.79098835343133022668382636766182 8:1 #
-0.79098835343133022668382636766182 6:1 #
-0.79098835343133022668382636766182 16:1 #
-0.79098835343133022668382636766182 6:1 #
1.8588226305636261770359851652756 18:1 #
1.8588226305636261770359851652756 6:1 #
-0.79098835343133022668382636766182 18:1 #
-0.79098835343133022668382636766182 6:1 #
-0.79098835343133022668382636766182 18:1 #
-0.79098835343133022668382636766182 6:1 #
1.8588226305636261770359851652756 8:1 #
-0.79098835343133022668382636766182 14:1 #
-0.79098835343133022668382636766182 8:1 #
1.8588226305636261770359851652756 14:1 #
-0.79098835343133022668382636766182 14:1 #
-0.79098835343133022668382636766182 8:1 #
-0.79098835343133022668382636766182 14:1 #
-0.79098835343133022668382636766182 8:1 #
